,0,1,2,3,4,5,6,7,8,9,10,11,12,13,14,15,16,17,18,19,20,21,22,23,24,25,26,27,28,29,30,31,32,33,34,35,36,37,38,39,40,41,42,43,44,45,46,47,48,49,50,51,52,53,54,55,56,57,58,59,60,61,62,63,64,65,66,67,68,69,70,71,72,73,74,75,76,77,78,79,80,81,82,83,84,85,86,87,88,89,90,91,92,93,94,95,96,97,98,99,100,101,102,103,104,105,106,107,108,109,110,111,112,113,114,115,116,117,118,119,120,121,122,123,124,125,126,127,128,129,130,131,132,133,134,135,136,137,138,139,140,141,142,143,144,145,146,147,148,149,150,151,152,153,154,155,156,157,158,159,160,161,162,163,164,165,166,167,168,169,170,171,172,173,174,175,176,177,178,179,180,181,182,183,184,185,186,187,188,189,190,191,192,193,194,195,196,197,198,199,200,201,202,203,204,205,206,207,208,209,210,211,212,213,214,215,216,217,218,219,220,221,222,223,224,225,226,227,228,229,230,231,232,233,234,235,236,237,238,239,240,241,242,243,244,245,246,247,248,249,250,251,252,253,254,255,256,257,258,259,260,261,262,263,264,265,266,267,268,269,270,271,272,273,274,275,276,277,278,279,280,281,282,283,284,285,286,287,288,289,290,291,292,293,294,295,296,297,298,299,300,301,302,303,304,305,306,307,308,309,310,311,312,313,314,315,316,317,318,319,320,321,322,323,324,325,326,327,328,329,330,331,332,333,334,335,336,337,338,339,340,341,342,343,344,345,346,347,348,349,350,351,352,353,354,355,356,357,358,359,360,361,362,363,364,365,366,367,368,369,370,371,372,373,374,375,376,377,378,379,380,381,382,383,384,385,386,387,388,389,390,391,392,393,394,395,396,397,398,399,400,401,402,403,404,405,406,407,408,409,410,411,412,413,414,415,416,417,418,419,420,421,422,423,424,425,426,427,428,429,430,431,432,433,434,435,436,437,438,439,440,441,442,443,444,445,446,447,448,449,450,451,452,453,454,455,456,457,458,459,460,461,462,463,464,465,466,467,468,469,470,471,472,473,474,475,476,477,478,479,480,481,482,483,484,485,486,487,488,489,490,491,492,493,494,495,496,497,498,499,500,501,502,503,504,505,506,507,508,509,510,511,512,513,514,515,516,517,518,519,520,521,522,523,524,525,526,527,528,529,530,531,532,533,534,535,536,537,538,539,540,541,542,543,544,545,546,547,548,549,550,551,552,553,554,555,556,557,558,559,560,561,562,563,564,565,566,567,568,569,570,571,572,573,574,575,576,577,578,579,580,581,582,583,584,585,586,587,588,589,590,591,592,593,594,595,596,597,598,599,600,601,602,603,604,605,606,607,608,609,610,611,612,613,614,615,616,617,618,619,620,621,622,623,624,625,626,627,628,629,630,631,632,633,634,635,636,637,638,639,640,641,642,643,644,645,646,647,648,649,650,651,652,653,654,655,656,657,658,659,660,661,662,663,664,665,666,667,668,669,670,671,672,673,674,675,676,677,678,679,680,681,682,683,684,685,686,687,688,689,690,691,692,693,694,695,696,697,698,699
0,-0.03560753,0.22181281,0.26189014,0.1501905,0.11191553,0.036255654,0.16672522,0.02860091,0.091878,-0.119962454,-0.061798718,0.031388838,-0.088061474,-0.22606124,-0.16913998,-0.20153512,-0.2280444,-0.11043626,-0.21708903,-0.18935199,-0.23729521,-0.16307235,-0.13176364,-0.10903616,-0.12803233,-0.15861943,-0.20065297,-0.24417098,-0.14563808,-0.2707773,-0.1427959,-0.19943398,-0.02949827,-0.16630763,-0.18667144,-0.042767055,0.0032505007,0.0322402,-0.10729359,0.012046025,0.034307726,0.10177625,0.079802476,0.09411205,0.12303068,-0.0041827075,0.2424277,-0.005203351,0.22845705,0.025077505,0.07963891,0.021153454,0.14624469,0.078165464,0.06464665,0.18939613,0.03252232,0.058627438,0.073559575,-0.040617514,-0.022827676,-0.004177666,0.03400521,0.09729795,-0.010784103,0.12542568,-0.0088383565,0.022735834,0.09321172,0.11015345,-0.06349738,0.030573726,-0.06118106,-0.119076304,0.004557307,-0.026329553,0.019446878,-0.07497659,-0.052778702,-0.21987887,-0.12439972,-0.116499916,-0.20417662,-0.032190904,-0.013278965,-0.22670494,-0.121842846,-0.010204603,-0.13456161,-0.063971415,-0.044177216,-0.15310569,-0.21594553,-0.055459432,-0.095677294,-0.1686685,-0.10810929,-0.11366405,-0.036577184,-0.13019606,-0.15331878,-0.14686716,-0.062814035,-0.1769931,-0.08743231,-0.10944944,-0.18944776,-0.0066451565,-0.09726688,-0.06932103,-0.14221598,-0.14156592,-0.13351838,-0.09969982,-0.094077215,-0.061233588,-0.071510606,-0.087461725,-0.0482853,-0.15464312,-0.080077864,-0.00939682,-0.046380125,-0.052665766,0.090509966,-0.056969088,-0.13019106,-0.026040966,-0.07978124,0.09616996,-0.022412516,0.048403252,0.008867407,-0.015923118,-0.07025605,-0.07775741,0.12173284,0.010502244,0.07906941,0.03729108,0.072254136,0.1361672,0.15428439,0.039400328,0.15431169,0.08951152,0.20775677,0.21204193,0.22119436,0.09631705,0.16948508,0.28567252,0.36221978,0.21069875,0.16452357,0.21217008,0.20870417,0.29958802,0.2304437,0.1317204,0.28037974,0.20110612,0.20341223,0.17875879,0.35767016,0.18753225,0.31557846,0.2452644,0.14740829,0.26049653,0.2342532,0.2921152,0.17553969,0.1588926,0.2262986,0.15438984,0.17485452,0.225229,0.14278272,0.16774414,0.25945058,0.30255187,0.12892537,0.26953712,0.12939408,0.14128649,0.41896513,0.3080684,0.38146636,0.2647032,0.30227622,0.35164204,0.24300359,0.34189257,0.20521462,0.29993397,0.33239454,0.21672048,0.39159244,0.29643223,0.32035202,0.36309847,0.42533204,0.3252319,0.50906074,0.26670152,0.2693032,0.3683415,0.30490088,0.43674403,0.44164038,0.30758873,0.32564488,0.2636044,0.3923107,0.40974897,0.38062435,0.49965447,0.32880732,0.37884,0.27916715,0.34496975,0.39239562,0.48283494,0.45441878,0.25886118,0.35986805,0.39482164,0.3121819,0.36151522,0.48983094,0.41818964,0.20590623,0.46740708,0.44019306,0.4981399,0.22480947,0.43830425,0.32785368,0.36617106,0.40775543,0.48055178,0.41644204,0.41246074,0.503441,0.52619815,0.41467237,0.41342592,0.42408994,0.40360838,0.46279415,0.5229154,0.35610512,0.32684016,0.2488157,0.31323367,0.22862089,0.21034008,0.32366374,0.29174688,0.11092587,0.36789238,0.1686609,0.23927297,0.07373216,-0.035933293,-0.047120187,0.0035278872,-0.13960555,-0.104009055,-0.05883732,-0.1272065,-0.14105871,-0.18492849,0.026893761,-0.12466932,-0.08226252,0.03699607,-0.36936778,-0.10624843,-0.2851239,-0.22659789,-0.2563367,-0.2468075,-0.36375478,-0.36582685,-0.35367066,-0.40116927,-0.49661374,-0.5444078,-0.2537468,-0.36021036,-0.27037585,-0.5044724,-0.4862878,-0.2953492,-0.5268723,-0.2620512,-0.60739046,-0.53447664,-0.47484082,-0.49759024,-0.44776052,-0.59358895,-0.34570777,-0.38581058,-0.5285286,-0.5674418,-0.43987387,-0.46037632,-0.5570954,-0.49646497,-0.60878223,-0.45923862,-0.6141227,-0.7093394,-0.637253,-0.6956506,-0.7895126,-0.6280773,-0.7893491,-0.86111534,-0.8184241,-0.652422,-0.66435844,-0.7805857,-0.6018191,-0.8119497,-0.8913744,-0.8063991,-0.7512475,-0.6031691,-0.95143986,-1.0599232,-0.916418,-0.6791211,-0.7896094,-0.77403855,-0.7758699,-0.79547244,-0.63549364,-0.95079255,-0.8674777,-0.8966229,-0.80825573,-0.9660317,-0.8582139,-0.8497212,-0.9824925,-1.0644251,-0.96042544,-1.0372498,-0.9020481,-0.93569,-1.1194441,-0.864944,-0.7251495,-0.88122165,-1.0645375,-0.99029243,-0.9903648,-0.7846581,-0.9070039,-1.1049665,-1.1892922,-1.2453713,-1.0229877,-0.9298216,-1.0281812,-0.9511192,-0.99073255,-0.998408,-1.0843419,-0.9789129,-0.68119735,-1.0510355,-0.9903283,-0.90374154,-0.9707533,-1.0929801,-0.9301041,-1.0211389,-1.0630722,-1.0296302,-0.9046993,-0.80273235,-0.6504289,-0.63271564,-1.2428725,-1.1823225,-1.0312438,-0.82521164,-0.86473477,-0.7564755,-0.8644726,-0.8105713,-0.75329924,-0.8653427,-0.79954433,-0.7548714,-0.8292929,-0.64451903,-0.9172318,-0.8233238,-0.8513594,-0.8833373,-1.2930523,-1.016162,-0.7849875,-0.7243175,-1.0297912,-0.77385414,-0.5527805,-0.7785639,-0.8272724,-1.0487453,-1.0291109,-0.6611845,-1.0270942,-0.54043806,-0.9528888,-0.8981814,-1.0873362,-0.91835105,-0.88239247,-0.90603495,-0.7592623,-0.68395346,-0.669925,-0.7803402,-0.81563354,-0.64218444,-0.718031,-0.7892119,-0.44334888,-0.52232206,-0.8229562,-0.5671001,-0.7498848,-0.5511494,-0.5257885,-0.25013217,-0.12495116,-0.39657864,-0.35996804,-0.34894738,-0.18732397,0.07811417,-0.29610577,0.05171128,-0.34245974,-0.22741689,0.4147565,0.27958146,-0.24654414,0.028373586,0.005855099,0.51663494,0.33624163,0.25835198,0.3598106,0.34317157,0.36723912,0.35366386,0.41847435,0.52332944,0.58077794,0.2639472,0.28361458,0.5141949,0.77112246,0.7773212,0.91748667,0.54159576,0.73862135,0.5258647,0.7135124,0.48232082,0.7745988,0.84414464,0.58740294,0.5618833,0.796916,0.76504934,0.6318255,0.4979028,0.51452345,0.52343494,0.4644225,0.48899037,0.27732122,0.18489683,0.13765094,0.29604524,0.4616873,0.3928696,0.09347299,0.14101279,0.36918807,0.044316478,0.22104649,0.24954875,0.38307178,0.56058115,0.08010829,0.4331284,0.040874735,0.3512251,-0.0025990868,-0.17249599,0.8138159,0.052789245,-0.08438676,-0.058630694,-0.11792275,-0.23557247,-0.40699854,-0.12827767,0.01941942,-0.28595063,0.1597802,0.13977799,0.11153288,-0.057520565,0.14817661,-0.15871057,0.059418306,0.056684654,-0.18190482,-0.02490879,-0.20443897,0.03800105,0.77613413,-0.04493523,0.18689878,0.033809673,0.32590443,0.19061692,0.34404224,0.130942,0.30990884,-0.074371316,-0.23267047,-0.12692052,0.2623104,-0.17955242,0.114412166,0.5955238,0.19802411,0.19939612,0.47962403,-0.0062375967,0.3781787,0.07540495,-0.025848012,0.0041587586,-0.044180933,0.24822018,-0.1546849,0.56361747,-0.31045136,0.037420135,0.3443564,-0.42718875,0.19609861,0.08353149,0.3334411,0.29153755,0.2300939,0.18667522,0.30660155,0.22005562,0.4364912,-0.07853983,-0.29954493,0.31155896,0.1771672,-0.27878705,0.15922564,-0.08387521,-0.20272584,0.12357406,0.3138267,0.15907021,0.37304622,-0.3705267,0.10317606,0.44954863,0.113623895,-0.24896693,-0.16115224,-0.29237,0.15493205,-0.045806095,-0.15257916,0.051657185,-0.16310033,-0.25311816,0.14099582,-0.2937836,-0.2986591,0.16347359,-0.116281696,-0.07492021,-0.37844428,-0.6508959,0.15734915,-0.0015966968,0.027354084,-0.23928481,0.0583219,-0.45509678,-0.29530552,-0.14414676,-0.2135171,-0.12986013,-0.3866386,-0.09242222,0.11234926,-0.23961936,-0.6234846,-0.59896255,-0.41956502,-0.056021962,-0.35410714,-0.42786598,-0.16772963,-0.60210377,-0.8346037,-0.25443527,-0.5308612,-0.25137356,-0.48716602,-0.9004431,-0.63740104,-0.4254963,-0.66939527,-0.10311092,-0.57762337,-0.4263769,-0.82394516,-0.41815522,-0.2911123,-0.37623402,-0.4171733,-0.6056682,-0.4455751,-0.3940853,-1.1624981,-0.54424983,-0.3927967,-0.6849667,-0.1943093,-0.6245645,-0.3290775,-0.35652372,-1.0717715,-0.6814819,-0.8673047,-0.6207442,-0.8806385,-0.96232194,-0.4702874,-0.24484973,-0.72896296,-0.58410066,-0.12431558,-0.95168203,-0.19694813,-0.4858385,-0.019828698,-0.20235252,-0.21973455,-0.36050752,-0.91621596,-0.9057493,-0.6230436,-0.32935187,-0.14392798,-0.75387526,-0.077247456,-0.47561505,-0.44183335,-0.8146961,-1.009453,-0.16065991,-0.55885744,-0.4306335,-0.7523443,-0.63253975,-0.48791212,-0.5894562,-0.8987371,-0.1526233,-0.8871936,-0.27603593,-0.6663491,-0.8919307,-0.50296813,-0.5130471
1,0.024791159,0.77038515,0.66088223,0.5557787,0.47406882,0.4644617,0.4941812,0.379976,0.32279268,0.24153543,0.12852266,-0.075306326,-0.022562286,0.00029255584,-0.19812976,-0.3017982,-0.19656833,-0.27631637,-0.42820853,-0.49611568,-0.44022584,-0.3725626,-0.38530833,-0.35292017,-0.43551612,-0.5094444,-0.5776156,-0.5064415,-0.44269896,-0.44658262,-0.44034523,-0.4315251,-0.26050678,-0.38316458,-0.2684341,-0.20894563,-0.32779384,-0.2632504,-0.08912807,-0.27595606,-0.10116831,-0.06573327,-0.11251053,0.114090994,0.059422366,0.041414194,0.20112301,0.089655355,0.26730394,0.12784015,0.25096452,0.13796373,0.24393132,0.28369546,0.24696077,0.10746972,0.157455,0.14907417,0.124936186,0.105961904,0.034804422,0.013462843,-0.0630882,0.05497984,0.009319535,-0.031382564,-0.04429138,-0.010311897,0.01731732,-0.07835852,-0.076333776,-0.062976465,-0.12497514,-0.15573883,0.023017801,-0.15321672,-0.13503596,-0.1304687,-0.086749606,-0.1736589,-0.0844822,-0.0031379599,-0.13066025,-0.12522091,-0.07136577,-0.09523819,-0.16644454,-0.23844473,-0.17914863,-0.13652852,-0.103292786,-0.22492674,-0.116997965,-0.12733567,-0.14859167,-0.23073268,-0.10506139,-0.13280761,-0.12082552,-0.23519313,-0.071504265,-0.09056732,-0.1372435,-0.19842158,-0.14855787,-0.060078956,-0.16526736,-0.16729869,0.020858465,-0.058032148,-0.018761788,-0.07229468,-0.078712225,0.046607595,0.08119705,-0.07951655,-0.098444805,0.056502406,0.122070126,-0.00726015,-0.052566543,-0.005938999,0.066414624,0.10768063,0.09175098,0.07361203,0.11572204,0.10025248,0.15517205,0.23569395,0.07550432,0.19152912,0.14775023,0.14302647,0.17808458,0.09032423,0.15358758,0.31726187,0.16994698,0.41841164,0.4106334,0.43709403,0.3841604,0.3784201,0.37773928,0.2742482,0.3060034,0.42152345,0.47137418,0.46061566,0.36915964,0.5354969,0.5572325,0.5042219,0.47523087,0.52412575,0.47002167,0.50519603,0.50327694,0.44125107,0.55361706,0.45237827,0.3915537,0.33185664,0.44628167,0.36895144,0.47545636,0.44397008,0.27365065,0.37303492,0.42943949,0.37411278,0.3512168,0.3686927,0.34406793,0.35296258,0.388902,0.39644638,0.23082909,0.39913917,0.37831137,0.27123004,0.25913382,0.5108766,0.34345368,0.3331218,0.5041373,0.4346598,0.38462645,0.4604144,0.4954911,0.51076436,0.47337475,0.3598781,0.29294053,0.4988186,0.28996798,0.38608685,0.39149302,0.3485396,0.28597766,0.40399608,0.43645483,0.38828477,0.3434552,0.29610646,0.30613524,0.3754408,0.23856016,0.3142042,0.28852686,0.19417837,0.3455805,0.29940712,0.28597212,0.20954767,0.16285501,0.24029325,0.13397907,0.2592294,0.2440575,0.23838276,0.16639385,0.26361266,0.26283494,0.2094167,0.26523173,0.22661693,0.16183518,0.119472116,0.33270562,0.14114425,0.13550456,0.27784008,0.2055863,0.16414519,0.27333337,0.31193125,0.26014775,0.35779482,0.39741635,0.4014043,0.32220846,0.29217842,0.20551659,0.35950175,0.31460539,0.33941776,0.37884054,0.31481043,0.24035554,0.4015474,0.35638702,0.32917252,0.17545544,0.26105183,0.21250062,0.15709306,0.14881796,0.14032735,0.04139333,0.13611707,0.1369283,0.22933522,0.051763736,0.026623733,0.030447653,0.07128818,-0.019588549,-0.11288595,0.05085022,-0.101016164,0.017148996,-0.13375174,-0.023812355,-0.06155121,-0.07468137,0.037190925,-0.27402925,-0.008926454,-0.026032392,-0.17134291,-0.1602198,-0.04573486,-0.22296208,-0.13539569,-0.18519975,-0.15239795,-0.29486385,-0.20883274,-0.17177388,-0.21819422,-0.13701378,-0.30598313,-0.11571612,-0.17789742,-0.17922874,-0.11954978,-0.25111985,-0.16335942,-0.2912933,-0.26338166,-0.26624638,-0.3386958,-0.15636492,-0.05018386,-0.23441754,-0.2658117,-0.037891485,-0.27480397,-0.24586463,-0.28239602,-0.22378384,-0.17049852,-0.20856255,-0.21795839,-0.28207585,-0.089656584,-0.16208403,-0.2946832,-0.100635305,-0.19544004,-0.43759173,-0.24724343,-0.38650075,-0.4024727,-0.19377914,-0.21915957,-0.38851714,-0.41263416,-0.21927959,-0.23740903,-0.24527277,-0.51203567,-0.41733822,-0.14295952,-0.3473784,-0.29283413,-0.33894354,-0.38411552,-0.2676254,-0.38477242,-0.38255754,-0.27783796,-0.31546235,-0.45110065,-0.5218645,-0.4502046,-0.36316702,-0.51729953,-0.54670966,-0.22878666,-0.3025619,-0.4447593,-0.39453375,-0.3957594,-0.27914703,-0.44244203,-0.55989325,-0.4636915,-0.40920085,-0.36543196,-0.5507995,-0.47753635,-0.39068064,-0.46813905,-0.56789815,-0.50587106,-0.3293132,-0.5885052,-0.29974076,-0.40816912,-0.5914714,-0.49078184,-0.19541939,-0.40323612,-0.44374087,-0.5378391,-0.3989565,-0.6246355,-0.65621257,-0.3457952,-0.69094783,-0.68379927,-0.4087154,-0.5982189,-0.5883754,-0.65444237,-0.65276945,-0.8621905,-0.62155545,-0.617235,-0.48052266,-0.3239053,-0.67896634,-0.7212113,-0.42117167,-0.6698576,-0.58907473,-0.80283713,-0.33718014,-0.49487716,-0.62857974,-0.6731119,-0.5726243,-0.63716584,-0.7992236,-0.93818104,-0.79059577,-0.7538957,-0.95927095,-0.71127313,-0.5058589,-0.9062142,-0.82037455,-1.0857832,-0.90410066,-1.0180589,-0.95040053,-1.0579907,-1.1159446,-0.84756345,-1.1739012,-1.0302285,-0.85609823,-1.1742098,-1.1119039,-1.2024232,-1.0476909,-0.8713507,-1.1801662,-1.1297477,-1.0665247,-1.1444199,-0.7667939,-0.79070634,-1.1513953,-1.0948887,-1.0598658,-0.8027731,-0.67092305,-0.8896683,-0.8174918,-0.60836786,-0.9297198,-0.6459383,-0.8375354,-0.7208089,-0.4883827,-0.74671793,-1.0392401,-0.9304779,-0.36329755,-0.460744,-0.8502664,-0.6516925,-0.54994684,-0.51945615,-0.55716485,-0.28210935,-0.44726944,-0.48128256,-0.56956524,-0.91667056,-0.21917254,-0.12595932,-0.13878277,-0.763483,-0.5224678,-0.16611311,-0.14431034,-0.27396092,-0.35332972,-0.05082655,-0.24687035,-0.2880317,0.019135525,-0.18017681,0.037380308,-0.15071796,0.108209245,-0.57365656,0.023799928,-0.17604437,-0.2013199,-0.0748211,-0.067557365,0.13225159,-0.35635707,-0.45274937,-0.45548093,-0.41671216,-0.41254887,-0.38053137,-0.232196,-0.35072276,-0.5323079,-0.15318169,-0.8502372,-0.86635125,-0.556223,-0.53557426,-0.39771843,-0.35864854,-0.5126493,-0.38086385,-0.80789214,-0.29029962,-0.528484,-0.54137117,-0.17824332,-0.44223315,-0.41812834,-0.5824396,-0.5876478,-0.5151046,-0.6402517,-0.3288796,0.22208454,-0.7669836,-0.616467,-0.6640588,-0.20969243,-0.73188525,-0.52151746,-0.54043067,-0.77162033,-0.60807943,-0.6841056,-0.5232892,-0.9090954,-0.51948786,-0.023346368,-0.54297954,-0.5260635,-0.43927085,-0.5415056,-0.26286587,-0.3325915,-0.6476882,0.08084151,-0.94581527,-0.78113353,-0.41054857,-0.42691493,-0.7641228,-0.5646387,0.12791903,-0.54487044,-0.27771333,0.008859819,-0.4026181,-0.781813,-0.69468325,-0.48386708,-0.45053652,-0.7510754,-0.7260773,-0.8951265,-0.6128709,-0.9103654,-1.0854082,-0.7189569,-1.1174698,-0.83064544,-1.0008249,-0.82399017,-0.8047181,-1.1382643,-1.18932,-0.74358726,-1.2258826,-1.1199139,-1.4501407,-1.399119,-1.1371957,-0.46116176,-1.3426758,-0.93758106,-1.1522398,-1.5822728,-1.3647702,-1.0360763,-0.8342101,-0.9691986,-1.546373,-1.0257807,-1.209645,-1.2466906,-1.3608445,-0.8935614,-1.172809,-1.2492315,-1.1898452,-1.1647085,-1.2320644,-1.6026634,-1.1115425,-1.111112,-1.4787161,-1.5262405,-1.041011,-1.036812,-1.3124372,-1.492847,-1.4045545,-1.2708372,-1.0022548,-1.2929925,-1.0099957,-1.3527746,-1.2553368,-0.9279913,-1.1680465,-1.025031,-1.235491,-1.2352922,-1.1287718,-0.6943161,-0.92102957,-1.7949702,-1.2604972,-1.3717273,-0.6275063,-1.0925231,-1.1160456,-1.2135322,-1.138222,-1.2872494,-1.1093537,-0.9767528,-0.72727704,-1.664278,-0.93337375,-1.6378154,-1.2778672,-1.1036125,-0.84899837,-0.7589284,-1.1499223,-1.110244,-1.0707808,-0.6651759,-0.61823696,-0.6273827,-0.9279466,-1.0182958,-1.453307,-1.0899284,-0.8323718,-0.8137618,-1.1373228,-0.6102918,-0.8115784,-0.5026679,-0.3525951,-1.0887195,-0.98426497,-0.9024516,-0.7623826,-0.9771202,-1.0338222,-0.8328448,-0.8269881,-1.1960732,-0.23903468,-0.26971516,-0.5438008,-0.12128218,-0.61243194,-0.2596166,-0.30064818,-0.42974204,-0.5349091,-0.69318914,-0.6647083,-0.42040586,-0.17436166,-0.378621,-0.87919044,0.29695308,-0.5204336,-0.42886135,-0.49102503,-0.56807977,0.1762524,-0.30587694,-0.54167056,-0.4410916,-0.6729085,-0.29073137,-0.28307033,-0.80553603,-0.54506373,-0.39682466,-0.63684416,-0.30088294,-0.16265343,-0.36368793,-0.4854403
