,0,1,2,3,4,5,6,7,8,9,10,11,12,13,14,15,16,17,18,19,20,21,22,23,24,25,26,27,28,29,30,31,32,33,34,35,36,37,38,39,40,41,42,43,44,45,46,47,48,49,50,51,52,53,54,55,56,57,58,59,60,61,62,63,64,65,66,67,68,69,70,71,72,73,74,75,76,77,78,79,80,81,82,83,84,85,86,87,88,89,90,91,92,93,94,95,96,97,98,99,100,101,102,103,104,105,106,107,108,109,110,111,112,113,114,115,116,117,118,119,120,121,122,123,124,125,126,127,128,129,130,131,132,133,134,135,136,137,138,139,140,141,142,143,144,145,146,147,148,149,150,151,152,153,154,155,156,157,158,159,160,161,162,163,164,165,166,167,168,169,170,171,172,173,174,175,176,177,178,179,180,181,182,183,184,185,186,187,188,189,190,191,192,193,194,195,196,197,198,199,200,201,202,203,204,205,206,207,208,209,210,211,212,213,214,215,216,217,218,219,220,221,222,223,224,225,226,227,228,229,230,231,232,233,234,235,236,237,238,239,240,241,242,243,244,245,246,247,248,249,250,251,252,253,254,255
0,0.100283414,0.011440635,-0.34086537,0.036995355,-0.008536573,0.11100837,-0.058346093,0.008006525,-0.05826375,0.027032863,-0.0774539,-0.01378841,-0.18772097,0.20697784,0.17390768,0.31428543,-0.23811758,0.06199665,-0.12369822,0.12488233,0.2961697,0.0021055571,-0.095858246,-0.14908485,-0.22343823,-0.054716203,0.27752084,-0.30554846,0.09002974,-0.078839295,0.015430467,-0.6420859,0.07935286,0.18233007,0.27307528,0.05790253,-0.00022478851,-0.06243436,0.21278928,0.06462569,0.027116643,0.0790659,0.2732457,-0.18009344,-0.37353247,0.18306519,0.13421306,0.058446165,-0.0070592514,-0.37613863,0.10318414,0.19707939,0.14111188,0.07193698,0.18233648,0.096690096,0.15281394,-0.07404956,0.28978503,-0.10867947,-0.24456453,0.17949396,-0.69592464,0.2246777,0.08679014,0.3105117,0.09050603,-0.314131,-0.31649253,0.051910337,0.26008767,-0.7334091,0.31199476,0.19094853,-0.039196778,0.08452852,0.08113993,-0.03301449,-0.048349425,-0.11284005,0.14018553,0.08877737,0.209542,0.19488874,0.10041161,0.028083377,0.0010085793,0.20167568,-0.21744019,-0.14423628,-0.94058996,0.022871986,-0.12969775,-0.014567675,0.2042246,-0.13381219,-0.67094594,-0.030331591,-0.260003,0.12291929,-0.020849619,0.18741997,0.0657341,0.20602012,0.020223428,0.29653352,-0.51064783,0.12833913,-0.07840532,-0.11306351,-0.48953122,0.073832236,0.12880471,0.093367234,-0.19876938,-0.04797498,0.0872598,0.053851537,0.10214285,-0.8263133,-0.016567903,-0.0509556,-0.09033875,0.19937514,0.04636683,0.028054833,0.45798206,0.27234825,-0.46818617,-0.11518534,0.048924603,0.24503545,0.28098214,-0.3985561,-0.71925676,0.10070439,-0.059059538,0.2466535,0.06231035,0.027417183,-0.17206192,-0.09180115,0.06945451,0.16719791,0.16975833,0.071441665,-0.039141364,0.2630442,-0.2837121,0.10740637,-0.22680669,0.06854627,-0.08127539,0.11734792,-0.0142682055,-0.7328716,0.102426164,0.02260357,0.111983605,0.013145554,0.18144622,-1.4032732,0.0027914243,0.06735012,0.16672355,0.085645266,-0.5495387,-0.12870236,-0.54188895,0.110575624,0.050318833,0.2561337,0.13267834,0.3934638,0.100991204,0.20125957,-0.0077955755,0.007980541,-0.032516528,0.16958186,0.13884945,0.010624955,-0.094422616,-0.59146744,-0.07053382,-0.32677257,0.11880762,0.007839336,0.1444615,0.080674775,0.15071748,-0.030685298,-0.07343864,0.115329236,0.01045278,0.31344387,-0.15467049,0.12179656,-0.035656784,0.28646034,0.016526043,-0.13282132,0.093695566,-0.5633004,-0.0028798457,-0.2126975,-0.06843621,0.11230022,-0.79734665,-0.0649002,0.23733827,-0.30270594,0.28251758,0.27942,-0.17710972,0.027709331,-0.016885703,0.06854484,0.23876627,-0.45042968,0.1343582,0.24699385,0.20593396,0.058585178,-0.23741743,-0.02434738,0.19250067,0.014058643,-0.62633926,0.052489933,0.107210815,0.087261185,-0.05590746,0.22076541,-0.08804501,-0.0758298,0.09150188,-0.055098377,0.3455217,0.05067097,-0.059443735,0.18113886,-0.15886974,0.01852328,-0.01402806,0.25489485,-0.14031212,-0.13361888,0.050792743,-0.3360872,-1.5067233,0.19528116,0.24985765,0.090616256,0.03126031,-0.11584223
1,-0.07592685,0.010191795,0.0942,-0.02971809,-0.062856935,0.08080725,-0.07156746,0.06124423,-0.110784166,0.06338128,-0.666873,0.0511813,-0.03286496,-0.032177012,0.07238064,-0.24896356,-1.39315,-0.7917815,-0.5433722,-0.06273954,-0.32234722,0.05159403,0.0326866,-0.13180013,0.26206806,0.2568548,0.50265366,0.07619309,0.0630053,-0.30766964,0.006930611,-0.022730846,-0.12445966,0.056079976,-0.5826535,0.033600632,-0.16348138,-0.02353538,-0.089108974,0.010865482,0.24875216,-0.024018656,-0.010883414,0.06655252,0.057786558,0.0044778083,-0.18524192,-0.027872887,0.16142909,0.41257736,0.17701757,-0.1352898,-0.09425045,0.035452098,0.023854522,-0.17066428,-0.061806113,0.13206096,-0.051288694,-0.1582441,-0.17170958,-0.4083376,-0.7859279,-0.21480438,-0.6586274,-0.006625495,0.007311643,0.013130872,0.09849955,0.059767317,-0.27397352,0.008843608,-0.06220167,-0.102168754,-1.7034743,-0.8734303,-0.028365187,0.07382607,-0.16055757,0.18148814,-0.008618167,0.029513882,0.09903456,0.06418838,-0.053063836,-0.080625534,0.08511885,0.11487234,-0.32458547,0.043940395,0.38491172,0.043193754,0.06018088,0.058475643,-0.5966873,-0.13300472,0.2189543,-1.3657513,-0.07121219,0.035215415,0.059251104,-1.5593523,0.06904914,-0.18470386,0.05428084,-0.31823003,0.16835287,-0.14196266,0.014553226,-0.13355087,-0.09102717,-1.4305263,-0.15769584,-2.0146518,0.0932941,-0.09977024,0.052728448,0.03799603,0.09405846,-0.054567944,0.09494354,0.010463685,-0.18826263,-0.032076303,-0.18861584,-0.10169483,0.07278058,-0.10858615,0.1694297,-0.018138781,0.018556502,0.10792406,-0.25729695,0.053658396,0.005698228,0.109566145,-0.005970411,-0.04837167,0.06326697,-0.26113626,0.038966987,-0.38769537,0.021898748,0.054001097,-0.17636225,-0.61165696,0.065528214,-0.04723756,0.20552102,0.107777745,0.35315916,-0.008303935,-0.25635114,-0.08914114,0.07000232,-0.3770721,0.08740593,0.23692197,0.23353246,0.035160795,-0.14444691,-0.06183163,0.106972076,-0.029349359,0.14838584,0.17407767,-0.060702287,-0.45677033,-0.09175691,-0.1442486,0.09104054,0.42860606,0.06379327,0.36447075,-0.0585878,0.21520165,0.11105821,0.039850015,0.19399047,0.28086615,-0.12603118,0.3316844,-0.15134056,0.13394582,-0.14082831,0.048017856,0.010481474,-0.02791323,-0.17153062,0.06796776,-0.1462512,0.057305172,-0.51333505,0.3036486,0.02023188,-0.05800234,0.19551952,-2.412785,-0.06364541,-0.088242576,0.00032786126,0.023762852,0.022932768,0.11285693,0.49736354,-0.95982593,0.09153838,0.06198815,0.16010357,0.016872741,-0.053352147,-0.21993993,-0.15862344,-1.8882533,0.11998003,0.08364297,-1.0148551,-0.0389505,0.06796832,0.19311626,0.010795306,0.04074065,-0.06074414,0.032118767,-0.048803426,-0.08375396,-0.12523232,0.17193624,-0.0020705794,0.0611715,0.0825863,-0.03893165,-0.082895294,0.09685633,0.06733301,-0.14030483,0.0066735903,-0.15406428,0.047998548,-0.08556875,-0.013119361,0.014334596,0.06514086,-0.036968235,-0.89473474,0.035245243,0.080108926,-1.1106107,0.0019163141,0.15694465,0.21748263,-0.025954224,0.11788724,-0.04366708,0.0870887,0.077617146
2,-0.11115562,0.22319503,-0.2342125,-0.10297024,0.18739237,0.15209502,-0.020201387,-0.07637115,0.23080266,-0.1500678,-0.53930026,0.037898675,0.13083626,0.16090377,0.16941085,-0.09835383,-0.15757978,-0.07697737,0.15210627,0.043251578,0.31316426,-0.08879091,-0.02219805,-0.18721047,-0.029767968,0.095416255,0.016268143,0.08891811,0.3082871,0.047671013,-0.10814465,0.1792623,0.015301388,-0.085729495,0.4170847,-0.104983516,0.08057572,-0.047946934,0.24793503,0.04230485,0.19989924,-0.13435534,0.024197472,0.11099964,-1.1989236,0.7632798,0.20560104,0.23864357,0.058395606,-1.3253944,-0.011748559,0.036524307,-0.11351197,0.044839308,0.05093872,-0.06878955,0.2162139,-0.16807176,0.26348773,-0.18573506,0.40151936,-0.20239887,0.48550603,0.33053556,-0.74332,0.06580463,0.13728704,0.19113937,-0.15398233,0.16267827,-0.004540627,0.026148077,-0.1580858,0.26779312,0.30538166,-0.19706167,0.25265527,0.11313559,-0.0017929953,-0.24802902,0.3426063,0.035199538,-0.5972026,0.18023598,-0.0037928906,-0.22343941,0.08818478,-0.0010616009,-0.010035087,-0.20211571,0.17821977,0.041367255,0.0524453,0.12289098,-0.13852052,-0.011970303,-0.7711777,-0.6134713,0.18142557,0.0240542,0.044926044,-0.38941857,0.1833445,0.2863739,0.1701918,-0.42365238,-0.26142552,0.36475748,0.044004515,-0.15289922,0.2591033,0.12684888,0.28764912,-0.7136271,0.15548491,-0.055920906,0.03089149,0.14385933,0.15391184,-0.14746974,0.4355466,0.049851496,-0.114930116,0.12052922,-0.10576927,-0.405818,-1.4118669,0.16145664,-3.008159,0.1728283,0.0533447,0.02994646,0.060004354,-0.92933804,0.26576278,0.104492605,-0.06474172,-0.054692928,0.14705357,-0.03478488,-0.22238724,-0.16130601,-0.17077528,0.03517088,-0.027940845,0.21591157,0.089267574,0.14989935,-0.19468404,-0.35159847,-0.19209835,0.08637604,-0.15976946,0.20646448,0.276577,0.16104405,0.19212098,-3.1509702,0.045547567,0.34064418,0.13702863,0.34117752,-0.027768297,-0.061599392,-0.105027206,0.062078778,0.33654797,-0.05071416,0.46231645,0.039591752,0.087126166,-0.7330048,-0.026681513,-0.66192216,0.027841344,0.22775224,-0.18214035,0.16786183,0.04543158,0.17823555,0.13440251,0.082596034,0.036683258,0.059424996,-0.06251843,-0.02783855,0.2407024,0.42337984,0.062073443,-0.12841402,-0.031210268,-0.051970493,-0.14117208,-1.2303042,0.003695183,-0.022846324,-0.6474638,0.27769244,0.21453048,0.3126161,-0.014400189,0.09006999,-0.29007912,-0.08265269,0.31852436,-0.18760459,0.0048545455,0.064639896,-0.0963218,0.087628156,0.018550241,0.370089,0.073725775,-0.35963923,-0.34317392,-0.073543504,-0.46887344,-0.0010209081,-0.019600645,-0.3694698,0.13386329,0.07279163,0.0067168027,0.09920003,0.041552123,-0.17774224,-0.11801055,0.102471106,0.20272854,0.20967035,-0.10386289,-0.24845782,0.061747007,-0.09582796,-0.050245754,0.36754394,0.02507855,-0.042115163,0.024352403,0.036194067,0.18367416,0.15973572,-0.18179086,-0.053887926,0.33312336,0.039895903,0.37794405,0.07858586,0.19857621,-0.50787336,0.20900005,0.009650057,0.209549,0.055729378,0.021971622,0.14250666
3,-0.05269944,0.33148098,-0.26699865,0.00011941933,0.0008331095,0.08533979,0.049949735,-0.068199165,0.025295677,0.091086864,-0.9324177,0.039858334,0.15772898,0.025854189,0.105459295,-0.2601631,-0.2881567,-0.32003662,0.13393,0.065817416,0.084094636,0.12996048,0.08167994,0.352404,0.13155751,-0.060379222,0.09708151,0.11145322,0.21192278,0.14836591,-0.030098105,0.17386217,0.19010621,0.19096163,-1.0675814,0.08638109,0.13071115,0.098707676,0.175502,0.46117538,0.25196734,-0.028919315,-0.011933794,0.19221365,-0.36133245,0.046929054,0.36457926,-0.031925306,0.043989982,0.2686492,0.14982766,0.097662255,0.12455502,0.15639342,0.0299869,-0.044087887,0.14776969,-0.14604862,0.122910045,0.44254127,-0.029274663,-0.1272233,0.20245264,-0.20179811,-1.0063603,-0.082919896,0.1362854,0.048267283,-0.17358506,0.23858912,0.11578983,0.02065513,-0.23868404,0.17628922,-0.0011649422,-0.73633295,0.30131888,-0.083395645,0.0486532,-0.2360036,0.1394589,0.11898699,0.11636966,0.085163005,0.1064848,0.15461393,0.16842483,0.2600487,0.19781442,0.17622755,0.00062197854,0.05801473,0.1365791,-0.0012918211,-0.24725011,0.2023531,-0.55896527,-0.62397844,0.11543924,0.19297498,-0.004198578,-2.2448995,-0.038559746,0.160211,0.16008817,-0.38318586,-0.2733304,0.29331017,0.16889915,0.3314469,0.24497078,0.19606422,0.072204195,-0.36399868,0.20279154,-0.08277875,0.031579304,0.07745003,0.024358239,-0.24090095,0.023995902,-0.079034984,-0.07098413,0.10365101,-0.122485235,0.17173761,-2.618473,0.08722503,-1.287489,0.13003549,0.040585168,0.080842525,0.03257103,-0.044132926,0.20993711,0.18411665,0.21875747,0.06992182,0.097551875,0.0911405,-0.4128453,0.5660907,-0.14406951,0.20511389,-0.0037625309,-0.8183082,0.088368624,-0.02219835,-0.20563495,0.20981613,0.033926785,0.011040185,-0.1911612,0.124203764,0.07996367,0.08139634,0.08576242,-0.3096044,0.42008522,0.34809384,-0.041802358,0.10071703,0.084680304,0.06106657,0.045640957,0.03162145,0.1577633,-0.19224778,0.04628607,0.037523378,-0.047443476,-1.1786834,-0.5758211,0.42506033,-0.19865623,0.23874143,0.15210956,0.16015331,-0.0029073001,0.30297336,0.0665364,0.18669212,0.06394579,-0.01828902,-0.024709733,-0.051950213,0.11335745,-0.1756168,0.047669318,0.22504318,0.041085813,-0.0021675674,0.55692524,-0.34676915,0.1862841,-0.08033715,-0.5479186,-0.080945596,0.0013558444,-0.12191873,0.031494576,0.07603598,-0.4131465,-0.1065917,0.09376115,0.2101583,0.08063628,0.09351338,0.05097829,0.00043176877,0.04011212,-0.10253347,-0.18351318,-0.32591626,0.06887109,-0.06418799,0.418737,0.038495373,-0.16572945,-0.011765558,0.11310925,0.12019349,0.09734628,-0.15164138,0.14778137,0.19567223,0.15985493,0.18864056,0.093744576,-0.07340637,0.12928945,0.032508418,0.18026416,-0.0129174525,0.17250815,-0.14026123,0.09418512,-0.15981866,-0.020955773,0.18190385,0.021966392,0.106646575,-0.052873746,0.13420959,-0.047200028,-0.060590975,-0.24825604,0.21108337,-0.07702044,0.31723627,0.024871942,-0.078151815,0.070212655,0.17324938,0.014757567,-0.022305556
4,0.19039519,-0.40525988,-0.09633224,-0.052174777,0.1883286,-0.00021044233,0.09112675,-0.079755776,0.19333763,0.16918604,-0.5362671,0.078803055,0.054259043,-0.19873112,0.045913838,0.028521009,-0.7645362,-0.1587052,0.17685576,-0.029614825,0.06746256,-0.37013847,-0.1877409,-0.078536205,-0.0851326,0.031580742,-0.030860491,0.021769116,-0.1802893,0.11637005,0.20711917,0.0774893,-0.09770004,-0.0863448,-0.21163717,-0.010499245,0.25694942,-0.14504658,-0.4557494,-0.04839563,0.14679706,0.0067249653,-0.03539759,0.012632865,0.49695382,0.09346711,0.27022272,0.029236147,-0.040434092,0.6257536,-0.17333134,0.15144409,0.11754558,0.0006191938,-0.07515215,0.06395363,0.10964821,0.03248421,-0.15772691,0.33544847,-0.12773013,-0.04109509,-0.47585127,-0.3419781,-0.939966,0.16958372,0.025578212,0.09946167,-0.09060362,0.22200269,0.012653703,-0.065551355,0.03702726,0.24865326,0.24558894,-0.016594302,-0.08285528,0.068898864,0.16720559,0.18892547,4.7180947e-05,0.1639789,0.08419803,-0.1362329,0.14630118,-0.022997767,-0.11195575,-0.32931802,0.043923922,-0.037871726,-0.102033906,0.10188698,0.14299935,-0.034995213,-0.053580806,0.12446789,-0.21416137,-0.26070538,0.126904,0.0067219227,0.11278071,-0.6343439,0.19386065,0.23333648,0.008864792,-0.634844,0.17706221,-0.15260856,0.11282808,-0.3253177,0.15790205,0.24107856,-0.07109796,-0.15929636,0.12082007,-0.0428212,-0.070746616,0.18516725,-0.14333497,-0.68881404,0.05074046,0.3704387,-0.05685955,0.5225119,0.027115474,0.21631706,0.36282423,0.24135914,0.1763101,0.09431563,0.15414254,-0.19929652,0.021156259,0.5129348,0.07527965,-0.10041906,-0.009374034,0.15866093,0.06397915,0.010281435,0.6101896,-0.2165437,0.09277066,-0.14086097,0.0904921,0.2535163,0.14289197,-0.14295492,0.07119078,0.14149743,0.38364863,-0.019042512,-0.11999881,0.28360477,-0.19556935,-0.39460978,0.19240344,0.041976914,-0.32427666,-0.04368309,-0.26641014,-0.48179716,0.02748346,0.11859851,0.31961212,-0.076356575,-0.09553741,-0.21730196,-0.059913877,0.09152142,-0.025877506,0.42703906,0.2357276,-0.04603638,-0.09202884,-0.32128105,-0.4289613,-0.0102520725,-0.07270693,0.033456806,-0.065497525,0.23968469,-0.04499347,-0.09827245,-0.033819873,0.17364165,-0.04059717,-0.18852888,0.17353384,0.002322536,0.062008858,0.009864499,-0.1424219,0.38249567,0.1951734,0.021325434,0.20352769,0.07020225,0.1410636,0.09770486,0.09906092,-0.04684472,0.0035101387,-0.17974842,0.33730683,0.025793988,0.013584504,0.05348038,0.098634176,0.11355297,-0.28052983,0.1686756,-0.21430744,-0.24899182,0.3531756,0.18237434,0.13485028,0.0121357925,-0.03697304,0.19613549,-0.047206953,-0.04118425,0.06609948,-0.02281756,0.3427137,-0.05657478,0.1290568,0.105897695,-0.15896529,0.08064432,0.13494438,-0.010633167,0.100009255,0.12763856,-0.08155269,0.025564097,-0.0580889,-0.12379264,0.05995414,0.24424367,-0.09608516,0.013874875,-0.040005088,-0.011386366,0.1954031,-0.16307415,0.060552455,0.12134371,0.1656804,-1.1141523,-0.11505258,-0.00522231,-0.3244046,0.00023083367,-0.06129339,0.11071857
5,0.06095203,-0.21443918,0.26734018,0.15046561,0.18949318,-0.051755026,0.27723715,-0.049828287,0.12148015,0.008379864,-0.41154042,-0.06760725,0.05489236,0.0352088,-0.09190823,-0.10448845,-0.010298198,-0.24030758,0.110723175,0.071179025,-0.16906579,-0.09948946,-0.32363123,0.15104231,-0.04899762,-0.11214834,0.23061313,-0.0013650191,-0.61486566,0.11297096,0.023818476,-0.044724077,-0.030581666,-0.036268894,-0.0240658,-0.095656015,-0.02133834,-0.051416963,-0.46818462,0.16477135,0.014390936,-0.13608421,0.069721,-0.14921342,0.24303085,0.1880268,0.23491687,0.11486925,0.16387777,0.25241548,-0.14811327,-0.67520344,0.14782053,-0.11811529,-0.073340274,0.09692761,-0.009108595,0.25744885,-0.02663646,0.4847934,0.0026248638,0.036731813,-0.3231889,-0.9252441,-0.79399174,-0.06327453,-0.17116906,0.109034464,-0.06483453,0.0720044,-0.81492513,-0.07403891,0.05227815,-0.28459072,0.16669196,-0.24152973,-0.35380888,0.11398633,-0.20029613,0.01064188,-0.078968585,-0.03793186,-1.0819519,0.009482841,0.028377997,0.1643524,0.023006378,-0.043501318,0.057337053,0.12210336,-0.09082548,0.035612058,0.113479584,0.11979547,-0.057359096,0.16868353,0.121028654,0.03818997,0.0122011,0.16856991,-0.07674155,-0.85994,-0.008094358,0.25701565,0.11874792,-1.0454615,0.2212657,-0.20802073,-0.024129925,0.19029722,0.063494384,0.15776987,0.1669454,-0.2788834,0.0025052722,0.01859991,0.1789538,0.08309054,-0.06280626,0.050868243,0.1472058,-0.0685261,-0.20816638,0.023212606,-0.098674156,0.24848185,0.47369975,0.019178705,0.15239829,-0.27707055,0.11442703,-0.13273808,-0.31022894,0.40705344,-0.03028628,-0.08640443,-0.06627846,0.036717363,0.08074963,0.14918531,0.31887144,-0.018200701,-0.047331166,-0.29084662,-0.13372941,0.11938703,0.14744008,-0.10141285,-0.03527972,-0.41843542,-0.09868482,0.13116483,-0.17952219,0.17177172,0.18404832,-0.42118084,-0.05394874,-0.011395233,0.052345544,-0.47757682,-0.21058358,-0.07348186,0.0140895415,0.20038809,0.06703267,-0.10084613,-0.0140662715,0.004916601,-0.13583164,0.13148916,0.08447154,0.20562021,0.0765399,-0.21918121,-0.07865418,-0.43366522,-0.12864046,-0.0005266679,0.025374224,-0.08927366,0.05527625,-0.025949711,-0.03489898,0.10384536,-0.010372831,0.14124072,0.007840594,-0.20080665,0.08176381,0.1488098,-0.091282435,0.15874472,0.34147647,0.36638236,0.19740365,0.1821342,0.37672955,0.005470595,0.18847324,-0.06367021,-0.0926353,-0.038019486,-0.15435031,0.09598888,0.5595626,0.37134293,0.21727636,-0.033705752,0.1701469,0.09595122,-0.24564329,0.21140042,-0.5020129,0.016182413,0.41782832,0.052210566,0.17120148,0.16019864,0.0074273776,0.20381157,0.09699064,0.031792507,0.1313596,-0.075294174,0.40602407,-0.017262697,-0.7790327,-0.06341443,-0.07253765,-0.038363095,0.19210203,-0.036369544,-0.021716485,0.019943971,-0.005298281,0.2944243,0.12571259,-0.067908145,0.09728752,0.19789034,-0.08808533,-0.052435815,-0.03493773,0.15764725,0.1493623,-0.20759788,0.14106938,0.099899426,-0.03500973,-0.1664696,-0.49525136,0.023070248,-0.08984,0.10329965,0.0087735215,-0.05317642
6,-0.042992644,-0.220267,-0.44562477,0.17958891,0.017906832,-0.009765115,-0.01059804,0.28327364,0.08987806,-0.045660168,0.14749618,0.022562783,-0.017979918,0.15863562,-0.156084,0.15039395,0.14335671,0.051007368,0.1549708,-0.057997677,-0.047312353,-0.28028214,-0.3030308,0.21526644,0.088996105,-0.28320238,-0.14681165,-0.0918409,-0.94074386,0.075586185,0.17958179,0.09378759,0.12306819,-0.27597982,0.17133175,-0.113178976,0.14199221,0.25232813,-0.2296638,0.16432853,-0.9761734,0.10328227,0.14562471,-0.20773907,-0.5013792,-0.21055122,0.16712576,-0.03361346,-0.15408391,-0.3921326,-0.6629434,-0.4788801,0.08937677,-0.12850368,0.079309225,0.08733349,0.07042733,-0.12248415,-0.031051144,-0.07607148,0.3290504,0.20260459,-0.23436302,-0.69202495,0.3274486,-0.1672727,0.46007535,-0.24467738,-0.24682294,-0.85242,-0.70125216,0.32703507,0.0892766,-0.19551225,0.09880755,0.048288953,-0.21682759,-0.3139168,-0.09702344,-0.099568054,0.058435068,0.13431458,-0.20935488,0.049409006,-0.081264995,0.14993444,-0.03501382,-0.025309682,0.30275172,-0.13741164,0.08503488,0.008127752,0.1069624,0.1524477,0.21757849,0.09427276,-0.40059647,0.17894636,0.042460706,-0.20586045,0.05206569,0.25873533,0.08936965,0.12167091,0.14624442,0.29934323,0.3015644,-0.13203354,-0.11856858,0.07749762,-0.37870046,0.06539196,-0.045417316,0.06756753,-0.38665652,0.164841,0.1281184,-0.2546568,0.103383936,-0.5836685,0.10315031,-0.06744535,0.29745603,-0.051574185,0.06914973,-0.5720207,-0.3622703,0.29058018,-0.43148917,-0.0873688,-0.112976976,-0.5496019,-0.39901733,-0.667444,0.07742984,-0.8590598,0.07420867,0.15566853,0.0937461,0.105348095,-0.0011381303,0.19525982,0.06942009,-0.32229543,0.034940876,0.3503557,0.053525925,-0.016554264,0.3275795,-1.1422428,-0.21804091,-0.1882805,0.048545625,0.18508777,-0.32612863,0.35121232,0.13424817,-0.35678735,0.13186476,-0.098293245,-0.37601,0.39630216,0.002575808,0.13323562,0.045791425,0.13602883,0.25191885,0.21597075,0.31410864,0.1162141,-0.025290592,0.09409239,0.21502948,-0.17009886,0.12536326,0.12653203,-0.7864994,-0.23963438,-0.19874795,-0.63195,-0.18093294,-1.2068033,0.28161782,-0.019063393,0.076036505,-0.17701125,-0.05563439,0.29771975,0.13294774,-0.04855883,0.12888116,-0.031949695,-0.039113346,-2.071978,0.071631074,0.25254685,-0.32646498,0.17602603,-0.073275425,-0.14457835,0.1806735,-0.0064078164,0.08792818,-0.3505727,0.2705356,0.3002397,-0.250989,-0.06880525,-0.23636912,0.10644441,0.0974912,-0.13061221,0.03142629,0.096611634,0.1266847,-0.0083909575,0.20129201,0.091966,-0.013619331,-0.46576002,-0.0638082,0.11334004,0.12951794,0.07079243,-0.08424951,-0.0021185353,-1.9795445,-0.74770856,0.18729158,0.005735581,-0.07460055,0.009109397,-0.11130915,0.11350331,0.16213232,-0.044746354,-0.027124364,0.12938674,0.23111919,-0.005203139,0.04024055,0.21774542,-0.070119835,-0.035031408,0.034558043,-0.09660665,-0.026402403,0.12975822,0.027772013,-0.10130601,0.20329247,0.18158615,-0.044175494,0.07509409,0.062449183,0.07949278
7,-0.057666913,0.21542068,0.29263663,0.18347412,0.11293474,0.023051873,0.12813702,-0.014528848,-0.029467575,0.14797156,-0.07629109,0.07125464,0.004527396,-0.16194469,-0.083863914,0.053517506,-0.15495495,0.07440153,-0.07778174,0.004009553,0.17698944,-0.22616218,0.06687549,0.27447647,-0.3458505,-0.18510094,-0.13683333,-0.3297212,0.06931388,-0.13940546,0.034091353,-0.4024018,-0.016193552,0.006723289,-0.03779594,0.02973885,-0.11214255,0.032304026,-0.010112233,-0.19347726,0.2127242,0.12984699,0.15825884,-0.09269513,0.06608487,0.5237914,0.014291324,0.10530199,0.057135135,0.21632303,0.23966815,0.13248369,0.12437466,0.04092124,-0.37367088,0.10909379,0.16161719,-0.2952294,0.1431933,0.020717515,-0.31113932,0.17434995,-0.19291751,-0.36611086,-0.68261886,-0.17595443,-0.26893178,-0.32440045,-0.1969818,0.04473319,-0.013361568,-0.29801056,0.21403514,0.3524804,0.14707734,0.31175488,0.2810828,-0.12304053,-0.09703429,-0.12180455,0.27332225,0.04288854,-0.5653896,0.09420964,-0.046232663,0.2302652,0.016501809,0.11481776,-0.3199326,0.0096475305,-0.75591725,-0.021343054,-0.058689266,0.0670264,0.11694462,-0.21240756,-0.8249524,0.086627595,-0.16859408,0.0460217,-0.12244084,-0.32858387,0.059462212,0.27659813,0.24237554,-0.16677023,-0.53928113,0.37102482,-0.0035823563,-0.17570771,-0.24864638,0.13109683,0.15239683,-0.049727462,-0.32759497,0.14463955,0.1162433,0.2651439,0.058884848,0.45318177,0.23117562,0.035814524,-0.16965584,0.2902901,0.014955685,-0.033922367,0.29368398,0.26204675,0.16751714,0.2760542,0.06491764,-0.094646126,0.12878327,0.116601,-0.54203737,0.19315101,-0.006221854,0.14412451,-0.0047973264,0.10703745,0.3257638,-0.23795277,-0.19813561,0.15985696,0.1135493,0.03360939,0.037810586,0.10083254,-0.29546627,0.3411826,-0.3262876,-0.06367572,0.020228019,0.043453038,0.06482735,-0.59154797,0.03577343,-0.6729756,0.36206234,0.32475597,-0.04590621,-0.66949254,-0.00068718905,0.16399953,-0.16631158,0.11515064,-0.169037,0.21556349,-0.2740581,0.2282433,-0.10354182,0.29384044,0.20861706,-0.18452796,0.051318478,0.2224272,-0.09862236,0.23955603,-0.03675103,0.24362688,0.06777553,0.20531738,-0.10183003,-0.43003362,-0.35726312,-0.2568486,0.066632256,-0.5323311,0.26483792,-0.03919609,0.16758087,0.0033091223,0.100738145,0.16091922,0.08471163,-0.03795855,0.18064556,0.12258966,0.009735818,-0.18436816,0.033132657,-0.008772782,-0.038020413,-0.43476078,0.16170087,0.1769358,0.11556462,0.009147837,-0.80463564,-0.07281889,-0.144444,-0.12982707,-0.40290856,0.15628386,0.1129909,0.06487244,0.08446074,0.032171413,-0.127227,-0.90379155,0.041947834,0.1737939,0.100964665,0.03603852,0.056936692,0.08443831,-0.088658266,0.2796461,-0.52256113,-0.011973213,-0.006824351,-0.0036418657,0.12575701,-0.31770527,-0.05553416,0.058502868,0.13758694,-0.022270901,-0.0026222079,0.14772682,-0.013588504,-0.017418053,-0.17985344,0.06541155,0.07341459,-0.0641113,0.18608168,0.052688506,0.016745737,-0.65935916,-0.570583,0.022666344,-0.0692682,0.1599619,-0.046061683,0.12537032
8,0.112199195,-0.23687717,-0.27648237,0.16626292,0.088177554,0.03588483,-0.05672419,0.04006889,0.2045093,0.22298297,0.2919267,0.0035281298,0.09318389,-0.0024760847,-0.087497175,0.19006394,0.050805222,0.22498116,0.22266051,-0.033473242,-0.3918248,0.23007305,-0.44384012,0.24854103,0.08505733,0.060636282,-0.5322573,0.23265544,0.16245593,0.25834817,-0.4499798,0.15465982,0.21047698,-0.020766536,0.307274,-0.13218214,-0.16631503,-0.11194148,-0.19344866,0.14447492,-0.419752,0.12192291,0.29665664,-0.020988457,-0.3725263,0.06620183,0.07005802,0.059687383,0.005936239,-0.49354804,-0.35133272,-0.69741625,0.0900729,-0.26885214,0.032935232,0.010412296,0.1573711,-0.36572862,0.013792214,0.011442321,-0.036436666,0.09793965,-0.057805527,-1.8741058,0.006570622,-0.37718016,-0.12836397,0.20837148,0.30436462,0.242619,-0.39810154,0.14565252,0.017300112,-0.09625816,-0.050726525,0.056357164,-0.22333544,0.22041865,0.22800109,0.059863325,-0.092570625,-0.04651823,-0.22821952,-0.08610325,-0.006168603,0.08612605,0.1779021,-0.41091177,0.10068037,0.08593456,0.28722522,-0.010166518,0.11321863,-0.041109268,0.09903373,0.21193673,0.21505816,0.28633296,0.16143453,0.17176281,0.090385705,0.20168392,0.1828234,-0.007190214,0.06709697,-0.43419972,-0.00053503935,-0.1463798,0.04345554,0.02318338,0.19868334,0.049399465,0.07094918,0.2889963,0.028748054,0.24832736,0.16193323,0.033415943,0.17501327,-0.64384586,0.23550808,-0.040866774,0.043137997,0.13655466,0.2710384,0.011255666,-1.7610577,0.1356583,-0.4009722,-0.09549017,0.02782199,0.0039107865,-0.43261307,0.2644868,0.18033221,-0.434999,0.06455846,0.10685536,0.1581785,0.003822122,0.008404163,0.04948866,-0.04237918,-0.35038534,0.2981321,-0.42929682,0.015145047,0.10197843,0.17046133,-0.41837165,0.048519276,0.018791541,0.2425437,0.08580068,0.1983215,0.17397182,-0.007321552,0.38738486,-0.12438549,-0.16503847,-0.28073385,0.19868354,0.1809972,-0.21967094,0.020684205,0.074224755,0.20293035,0.04890899,0.039921228,-0.08123332,0.10696455,-0.39669755,-0.024950372,0.007654164,0.18792205,-0.29323712,0.035494674,-0.20605806,0.04452657,-0.3329187,-0.035554048,-0.2800033,0.01932209,0.16784185,0.16982321,0.39943388,0.1592841,-0.031515658,-0.25730482,0.020285655,0.24475527,0.069094546,0.006811301,-0.18260206,0.04918207,0.18080035,-0.33163467,0.027321955,0.11113003,-0.09862385,-0.07663745,0.02804276,0.022427246,0.40039387,-0.3352704,-1.0035875,-0.1344299,-0.033749856,0.40489635,0.13977183,-0.11200032,0.13301234,-0.65799683,-0.05938037,-0.013798509,0.0059265574,0.21131863,0.07029543,0.1060828,0.52731097,0.057624776,0.16384241,0.111702204,0.029376233,-0.057466906,0.19012295,0.42128518,-0.35718432,0.17536953,0.0005482586,0.082119815,0.119099624,-0.07795007,0.20552547,0.16296263,0.149378,0.20993532,0.0064272177,0.11723155,0.05728879,0.08775786,0.20802116,0.1346075,0.16087317,-0.028595017,-0.25230694,0.106701925,0.07193059,0.17975272,0.36452514,0.09202296,-0.10159218,-0.43294373,0.10099352,0.21125042,0.12528545
9,0.22777289,0.29525077,0.35154003,0.06327128,-0.46268913,0.1702376,0.17338236,-0.020652773,-0.29058614,-0.063351,0.108665265,0.019125825,-0.18912295,-0.0030559008,-0.032532245,-0.32900187,0.14697938,-0.37574697,-1.4333584,-0.012255574,-0.04601566,0.20808297,0.13962372,-0.2145577,-0.46007305,0.055548735,0.34670848,-0.107621804,0.11972527,-1.1099799,-0.03371595,-0.3136847,0.19124006,0.15795381,-0.10099062,-0.016005248,0.21924824,0.11855017,0.0021498306,0.053306878,-0.16934751,-0.18460391,0.24770528,-0.028438268,0.35279554,-0.33812723,-0.47604552,0.05727514,-0.08516964,0.09513458,0.05533789,-0.26193595,0.072898984,0.11511921,0.0252845,-0.14421591,0.037444238,0.19528678,0.07308046,0.06305243,-0.3239294,-0.40921897,-0.15282315,-0.18100122,-1.3021142,-0.07296635,0.25186676,-0.51392657,0.19863093,0.09872987,-0.5582151,-0.2985018,-0.1850122,-0.051483106,-1.4420627,-0.24169706,-0.056154292,-0.07515024,0.0027956106,0.24423145,-0.087104194,0.023056203,-0.019269329,-0.018348308,-0.021935202,-0.18679099,-0.019674346,0.07481976,-0.6615947,-0.15020883,0.15099703,0.0846074,-0.19319203,0.07379328,-0.5666265,-0.3199033,0.51761454,-0.040325526,-0.5089108,-0.018793326,-0.25012347,-0.5955358,-0.08388628,-0.19782701,0.17790721,-0.18946975,0.2505636,0.052307736,-0.19173534,0.32975197,-0.93871003,-1.2743918,-0.2425095,-1.1800156,-0.056780368,-0.15770036,0.0600504,0.10799242,0.16784462,0.4426492,-0.028704882,-0.036133066,-0.053556122,-0.20443015,0.00915933,0.13925087,0.24473111,-0.1079733,0.24835952,-0.004979753,-0.07860754,0.13152699,-0.08807306,0.39008138,-0.65626746,-0.050692223,-0.02635076,0.24143083,0.12620762,-0.23226677,-1.1322776,-0.03221385,0.06500463,0.18438038,-0.12238999,0.17805544,0.070356175,-0.023605786,-0.35532412,-0.3127607,-0.21158375,-0.21230958,-0.4476828,-0.7473859,0.17951876,-0.5628046,0.08326642,0.41827533,0.17557488,0.21624927,-0.0016694576,-0.61100703,-0.20071729,0.07187064,-0.23458728,0.06116586,-0.25680393,-0.1899382,-0.09471066,0.015872838,0.16473253,-0.075457096,0.090891965,0.09596006,-0.15090275,-0.020713406,0.15319635,0.159116,-0.17704988,0.05174763,0.08565162,-0.0072237896,-0.109725714,0.2168294,-0.25523397,0.19056545,0.051724263,0.16489984,-0.12724169,-0.19721605,0.002368578,-0.005407479,-0.18655841,0.11789048,-0.046009235,0.18037395,0.19246282,-0.89661366,-0.13055825,-0.07693272,0.10753464,0.014832623,-0.07718994,0.20966291,0.64656585,-0.278839,0.20011997,0.05470466,0.31806302,0.018558519,0.0067000915,-0.5785582,-0.32298574,-0.46328574,0.43854806,-0.10844447,-0.7331403,0.1485753,-0.028805906,0.2616863,0.07568734,0.2550885,0.038836166,0.025570385,0.29887915,-0.05671168,-0.1539252,-0.07654433,-0.27865168,0.012846297,0.17387979,0.03648655,0.0019904342,-0.14151654,-0.22549579,-0.3919101,0.13799633,-0.031911593,0.22652508,-0.14093146,0.018148733,0.14901955,0.03445917,-0.111248076,-1.5743129,-0.08887247,-0.07700868,-2.0922413,0.13635397,0.14018561,-0.24113426,-0.015682206,0.0060315644,0.14246172,0.04873778,0.12452058
10,0.100149974,-0.13903283,-0.28673044,0.06743852,0.015958147,0.009359467,0.09489983,-0.059585776,-0.0022991565,0.043092802,-0.70486563,0.015050752,0.13746077,0.082996465,0.15470842,-0.35008568,-0.419014,-0.5865599,-0.29409876,0.085336395,0.14964296,0.2053342,-0.3476431,0.14311945,0.46353337,0.13289545,-0.09895044,0.28126994,-0.097861916,-0.26085734,-0.18126215,0.39049283,0.020416066,-0.11619394,-0.33033627,0.09022686,0.09957111,0.0050523155,0.15770803,0.158144,0.14288457,-0.018031111,-0.059135877,0.09270061,-0.36063746,-0.14941795,-0.089874946,0.06031279,0.0049285633,-0.12503208,0.18782473,0.17119952,-0.09547638,0.039261725,0.051752735,-0.00036894786,0.11562364,-0.3711015,0.13827686,-0.13613977,-0.17815565,-0.078514025,0.7263338,-0.0071753184,-1.8527796,0.032671236,0.056473173,0.019509144,0.23452164,0.0584915,0.24132958,0.20048791,-0.107344486,0.17802308,-1.9650145,-0.22328852,0.11379717,0.027301872,-0.04308708,-0.07770224,0.1029949,-0.007312577,0.27210683,0.08883502,0.22276083,-0.099656396,-0.07856379,0.17818283,0.41495737,0.046537086,0.36971873,-0.023060733,-0.038737733,0.07360503,-0.109527715,0.060734667,0.21601821,-0.89605236,0.18059964,0.08427583,0.09709608,-1.2823666,0.13835603,-0.14024462,-0.047053095,-0.47287577,-0.23346637,0.121796764,-0.11816032,-0.10611725,0.32007283,-2.1779697,-0.3975157,-0.4112978,0.07321496,0.05718585,-0.048791226,0.13520004,-0.0460694,-0.6838744,0.07250329,-0.2076232,-0.18020862,0.26468176,-0.14152196,0.04133075,-0.16324337,0.13988785,-0.072837494,0.10719962,0.033614207,0.08511158,0.19325598,-0.2892293,0.24557391,0.15411931,0.039380778,-0.017968478,0.13496678,-0.43652883,0.25230694,0.12889536,0.16389494,0.124976076,-0.10769796,-0.04077254,-0.06611419,0.032480452,-0.33079806,0.31516752,0.021937799,-0.0895924,-0.39851713,-0.07270218,0.06787013,0.18188873,0.14548452,0.13466966,0.09341203,-0.06166374,-0.05052612,0.20502314,-0.018589856,-0.046505753,0.008691253,-0.17157666,0.29214272,-0.8294534,0.16959378,-0.13594551,0.14942425,0.1101163,-0.95510256,-0.38264284,-0.0026590072,-0.06309793,0.2806431,0.06628355,-0.020890925,0.13751931,0.05345771,0.09452887,0.190329,0.063354306,-0.028685158,-0.038855653,0.12246474,-0.0023377046,-0.047083415,0.12210333,-0.055915892,-0.033709288,-0.1754242,-0.16240062,0.17347609,0.11822376,0.05792234,-1.5258187,0.030229716,-0.12989412,0.020611007,0.13857882,-0.07518404,0.29169747,-0.08174965,-0.6321604,0.0275203,0.09726951,0.15485494,0.025065113,0.042243473,-0.0086704595,0.10040987,-0.7060739,0.07986112,-0.12217454,-0.12265888,0.13904959,-0.11035606,0.24870029,0.0982992,-0.14204592,-0.074239634,-0.027155513,-0.20422088,0.07432959,0.124510825,0.0371496,0.18283491,0.11128915,-0.081061095,0.10839822,-0.0013714777,0.152593,0.3440697,0.14118133,-0.034744706,0.21268387,0.081691615,0.016759666,0.014808289,0.031570554,0.109575875,0.19993623,-0.5040414,0.042665686,0.08484733,-0.4517344,0.16044688,0.36196515,0.2647304,-0.042136382,0.089931116,-0.109502204,0.10272173,0.08389911
11,-0.030171195,0.31962532,0.363492,-0.029995618,-0.05897033,0.013046984,0.007770309,0.027980791,0.04398537,0.18067943,0.4975939,0.021927595,0.103063114,-0.1682208,-0.071009874,-0.16322073,-0.07018267,-0.30496302,0.26502648,0.11662689,-0.4910181,-0.02941745,-0.04415196,0.087896705,0.3909771,0.13866925,0.03598289,0.18859279,-0.6317681,0.18496062,-0.18862665,0.15030928,0.2890484,-0.12761608,-0.89945453,-0.1161646,0.058053546,-0.028454911,-0.13524368,0.25395927,-0.13386276,-0.15946704,-0.048822396,-0.23640217,-0.46305197,-0.3417467,0.18775725,-0.0806052,-0.086624354,-0.75929016,0.113425516,-0.93330556,-0.008568332,-0.12608288,-0.017174449,-0.17724358,0.006134929,-0.08972753,-0.14209169,-0.069360375,-0.030097581,-0.26135623,-0.31808636,-1.6052628,0.26528054,-0.17680685,-0.12072392,0.056667853,-0.25596184,-0.22261623,-1.3050419,0.071998365,-0.18241158,-0.27173093,0.0738517,0.08063814,-0.22391623,0.11067077,0.19482759,-0.12085234,-0.17938867,0.0844678,-1.0503206,-0.13763139,0.065951824,0.046852723,-0.060006894,-0.2808256,0.16351135,0.03575031,0.306694,0.10052854,0.24255912,0.118285164,-0.32594368,0.20207821,0.38659662,-0.58786106,0.025874458,0.10484492,0.18036002,0.4097115,0.05599867,0.37517428,0.12147127,-0.6575011,0.32183066,-0.12641117,-0.008414176,0.2811297,0.17924461,0.2722926,-0.18558969,-1.0488764,-0.018243628,-0.021120077,0.05635177,0.016490662,-0.0070023495,0.18124437,0.007579928,-0.17223044,0.45293012,0.03652994,0.7242823,-0.03633041,-0.14135908,-0.0781465,0.5251799,-0.07211017,-0.02475497,-0.23516636,-0.24006557,-0.53401935,0.17728105,-0.2837667,0.024312172,-0.029294554,0.09987005,0.18316743,-0.34492558,-0.07703702,-0.047054417,-0.5303336,0.43282202,-0.6378325,0.17714688,-0.13196033,0.31439912,-0.79243535,-0.19709606,-0.049165193,0.60897267,0.059315566,-0.27052954,0.0054235123,0.07677646,-0.018699516,0.18810795,0.19634897,-0.06358189,0.06364252,-0.016535634,0.08452137,0.013408188,0.11380171,0.2271413,-0.33872113,-0.071191944,-0.046805177,0.04408359,-1.5762545,-1.6675254,0.058925636,-0.22086687,-0.2251279,-0.3756315,-0.070794225,-0.05850001,-0.27532876,0.09898295,0.018911537,0.15511699,0.056682337,0.28496557,0.2611217,0.096547805,-0.25368384,-0.10990328,-0.0012312892,0.13967988,-0.025463605,0.5354124,0.4684349,0.05598761,-0.09165445,0.12824549,-0.07936943,-0.001199959,0.15271564,0.11176285,0.12434749,-0.2808369,-0.07871193,-0.4726395,0.3404874,0.004120661,-0.04856393,0.2593225,0.0975421,-0.2121381,0.052480936,-1.0863607,-0.49231982,-0.12424985,0.025653051,0.26919374,0.054650977,0.11756,0.34811702,0.070792176,-0.000101809135,0.007508692,0.11888077,-0.29187727,0.06966194,-1.3866498,-0.07667485,0.21806349,0.1131801,-0.023796402,-0.050273303,0.3683499,0.13981244,0.13182814,-0.15980083,0.04084766,0.36942393,-0.16602196,0.08241932,0.18938412,0.067635514,0.09077015,-0.008090703,0.018998515,-0.11465131,-0.11617426,0.008597399,-0.005777916,-0.7148927,0.3655028,0.06636264,-0.26441312,0.07452483,0.10851478,-0.0328159
12,0.17523573,0.26334813,0.003408917,0.20654331,-0.0019538042,0.10993238,0.04565382,-0.17102446,0.06023052,0.104406536,0.15926495,-0.04694357,0.20035619,0.107846454,-0.06633347,0.26488635,0.2867693,0.10115623,-0.11292796,0.05532752,-0.94847727,-0.15034115,0.018378735,0.04664989,0.27823615,0.1320547,-0.15166411,0.045982946,-0.41005033,0.1488796,0.05788547,-0.018551974,-0.07146821,-0.1526761,0.16388148,-0.0800512,-0.037940152,0.024890611,0.23348595,-0.016114771,0.2187669,0.08484769,0.23183969,-0.1465548,-0.60258096,-0.11588218,0.05683632,-0.02124711,0.066426314,-0.31470346,-0.39080822,-0.87053305,0.07904514,-0.20912574,-0.09382761,0.064286806,-0.06425653,0.39274627,-0.049376212,0.10778632,-0.1859693,0.255365,-0.19126782,-1.1704674,-0.2522846,-0.33245078,-0.16088454,-0.07981393,0.029100224,-0.2284509,-1.521398,-0.22350994,0.22628126,-0.045521896,0.19663729,-0.007789436,-0.27190083,-0.07355317,-0.06555917,0.33890572,0.05642277,-0.03914848,0.6399158,-0.19380818,-0.00044578957,0.065467395,0.1546113,-0.22545491,-0.045712646,-0.02912345,-0.29383972,0.17802653,0.12414231,0.026492277,0.19225632,-0.049010698,-0.27733234,0.15143761,-0.017946335,0.15579784,0.10396414,-0.031527743,-0.07741758,0.088611476,0.12710096,-0.09890307,-0.21223828,-0.16140357,0.08954351,-0.1346054,0.021424675,0.15330133,-0.23693909,0.15392381,-0.06366155,0.13609411,0.051635146,0.081410676,0.091054484,0.21632007,0.019341897,0.428622,-0.6246764,-0.026571084,-0.06332365,-0.11145939,0.53481364,-0.84849906,-0.25745052,-0.120067134,-0.06773756,-0.079787716,-0.52360785,-0.5458484,0.02047158,-0.16770132,0.2001103,0.0658204,0.14698145,0.06900757,0.21653152,-0.08640256,0.14383903,-0.33820295,0.032518603,0.13550624,0.13150865,0.020432856,-0.38430294,-0.44690937,0.049520932,0.070036046,0.1864224,0.20189016,-0.08418596,-0.77179366,0.088563636,-0.24543732,0.11151329,-0.068113044,-0.012196237,-0.7761259,0.02341903,0.06615725,0.07092236,0.16606537,-0.15614732,0.2579177,-0.043265976,0.10153762,0.09584306,0.48382726,0.23940201,-0.20078923,0.1522688,-0.18862033,-0.25686777,-0.124839656,0.17962585,0.10046629,-0.12765399,0.20289163,0.13002735,0.10972686,-0.29237187,-0.027140848,0.11548979,0.556096,0.21093741,-0.07532014,0.07201589,-0.063808426,-0.05650447,0.308519,0.044219263,0.18319209,0.5580613,0.19423163,0.0009619969,0.11392477,0.033257026,0.17880544,-0.4724176,0.02683416,0.08107506,0.047720708,0.13400114,0.11460652,0.14656004,-0.035796538,-0.10300126,-0.06845702,-0.7680448,0.30370185,-0.12131267,-0.0342092,0.0040022507,0.08410895,0.025463648,0.029331055,0.100550935,-0.117770866,0.08839324,0.05084857,-0.0548007,0.026264258,-0.80464995,0.06622212,-0.2858732,0.17103,-0.058721475,-0.02328526,-0.20258528,-0.0055840234,0.036412057,-0.08921066,0.13791506,0.14208996,0.18286683,0.12887898,-0.07709,0.18787621,0.035151206,0.19675966,0.16102852,-0.10125143,-0.16930449,0.14127249,0.1900563,-0.56012625,0.12236162,-0.0027681736,-0.30663306,0.14851157,-0.03116368,0.02656089
13,0.1100486,-0.0015578069,0.3775026,0.10476838,0.3693495,0.04169432,-0.054360826,-0.05164873,0.37540942,0.27331018,-0.66076726,0.100714125,0.004159613,-0.022763288,-0.045871515,-0.15781838,0.1499572,-0.039380044,-0.12289886,-0.04508509,-0.33421388,0.046911463,0.39135146,-0.07804697,0.35904124,0.10860048,-0.29009983,0.096003525,-0.13114107,-0.017244888,0.13317731,0.07993174,-0.105348825,-0.22459742,-0.4310515,0.047317334,-0.041933775,-0.024937822,0.14256643,-0.2691466,-0.13672191,0.044815723,0.09264977,-0.060225114,-0.4761767,0.5674568,-0.060971167,0.12958413,0.04524678,-0.18489654,-0.14380091,-0.5433647,-0.03841077,-0.03747985,-0.023169398,0.07148136,0.16872652,0.34270278,0.034567602,-0.032082893,-0.0887565,0.13393353,0.0069916816,0.061355695,-1.1359895,0.05426579,-0.08112982,0.32695347,0.10460283,-0.035955172,-0.8042914,-0.123109736,0.09042634,0.11115483,0.056959055,-0.061668962,0.097264156,0.36428258,0.08425651,0.30806652,-0.031072864,0.1603629,-0.032566387,0.028395995,0.0728218,0.25561613,0.16031161,-0.38912967,-0.010602395,-0.12175896,-0.21714066,-0.1375747,0.0360572,-0.030560162,-0.14363192,0.34535804,0.12791523,-0.16157374,0.26449192,-0.08970108,0.19218995,-0.7319063,0.0076045766,-0.08096865,0.029941164,-0.2111113,0.23021819,0.0058896067,0.0597398,0.044988308,0.39818436,-0.15868703,0.322632,-0.28565174,-0.041727096,0.007167451,-0.054979246,0.027509278,0.2208003,0.47508064,0.18134469,-0.04308293,-0.27461648,-0.027860451,-0.1877967,-0.33520824,0.5586303,-0.105171375,0.33443177,0.2385587,0.109495886,-0.08414045,-0.14140111,-0.5573083,-0.006674823,-0.12208645,0.093488246,-0.25602415,0.106843874,0.05780723,-0.45222214,-0.2503435,-0.07194626,-0.093281284,-0.10474696,0.2734344,-0.039708555,-0.007248075,-0.16819564,-0.48853025,-0.015041692,0.036441598,-0.16327816,0.17880234,-0.2809677,-0.96054035,0.08245082,0.26044184,0.06276761,0.03426954,0.013774203,-1.160985,-0.18626304,0.31213534,0.015043556,0.019591877,-0.20665541,-0.1315479,-0.14647214,0.16077067,0.13117039,0.18920451,0.022992896,-0.09680041,-0.092002615,-0.08514061,0.15907997,0.028896285,-0.1600333,0.0013512486,-0.013870722,-0.035540562,0.22624552,-0.047609903,-0.1225145,-0.039013878,0.02695121,-0.11431314,0.31575096,-0.08752961,-0.033243395,0.11380395,-0.19721286,0.09326489,0.085839584,-0.18904288,0.39962983,-0.08163167,0.37472647,-0.09412523,-0.11904466,0.065081716,-0.18853013,-0.016756807,-0.49490726,0.14149986,0.13944852,0.108233646,-0.009067974,-0.11840476,-0.012116332,0.41016227,-0.056903183,0.044434965,-0.4009156,0.23133399,-0.48680174,0.12270779,0.075323716,-0.07349609,0.120823644,-0.16781053,0.06724582,0.060965173,-0.32719266,-0.12351651,-0.5439323,-0.028388942,-0.22466226,0.018469768,0.06394923,0.07907488,0.1172811,-0.020592181,-0.20194517,0.46727782,0.017518274,0.04278964,-0.07696998,0.30348593,0.048795376,0.022535117,0.023289641,-0.15315692,0.38867062,0.12197261,0.11265131,-0.0024792037,-0.012734974,0.16865978,-0.3902533,-0.07929996,0.054508712,0.040212493,0.086758934,-0.08268527
14,0.059805505,0.003516372,-0.26376328,0.18779282,0.1442942,0.20318185,0.08622339,0.20258243,0.068184696,0.0346329,0.13179004,0.13697961,0.071230374,0.12464794,0.2581715,0.13994536,0.052222036,0.22510882,0.28852051,0.09772677,0.09061373,0.02952083,-0.022113508,0.18232298,0.049220674,0.17038041,-0.3128823,0.0993499,0.12669072,0.35969865,0.02827715,0.22349013,0.09107588,0.045972276,-0.20996575,0.15462177,-0.09132702,0.011292032,0.14022686,0.13977775,0.05382091,0.12725173,-0.07730544,0.3256632,-0.7624013,-0.0967101,0.21064918,0.09481536,-0.07613192,-0.7461065,-0.123678476,0.101541184,-0.059451915,0.08055799,0.26108858,0.05520281,0.1412777,-0.08769126,0.19135867,0.25515667,0.14733051,0.046452083,0.21762663,0.1729725,-0.46115637,0.29712024,0.028172327,0.08627729,-0.31511766,0.23307903,0.21301737,0.15897119,0.10673632,0.07920917,-0.05715087,0.65716964,0.001507913,-0.025260456,-0.29772365,-0.25548214,0.14151388,-0.042489134,0.29365307,0.21859743,0.040704444,0.2784398,0.082535684,0.04479843,0.20277332,0.10969617,0.1677674,-0.023745148,0.19920476,-0.052692503,-0.07276215,0.02087472,-0.25037578,-0.05964727,0.157579,0.03353861,-0.010461021,-0.26956254,0.08294776,-0.13786913,0.092649885,0.07726594,-0.3765005,0.111380234,0.10281548,0.13685955,0.18802504,-0.16825706,-0.23054403,-0.15838549,0.37132168,-0.03040137,-0.102027714,0.18994984,0.04178583,-0.26305938,0.020942675,0.112113655,0.10606276,0.15481183,-0.17082858,0.1354539,-0.15165967,0.2732966,-1.9860089,0.15599412,0.13141233,0.08767855,0.098339215,-0.6174071,0.4059302,0.050183747,-0.00035552506,0.07668193,0.104691885,0.053119007,0.22788517,0.33996356,-0.031693943,0.20508568,-0.054309756,-0.09033668,0.13180214,0.19027404,-0.2757816,0.037815712,0.4878152,0.035524994,-0.18374243,0.1142566,-0.18285733,0.3832422,0.16066682,-0.47180727,-0.3428165,0.1318832,0.14023176,0.18690409,-0.02635032,0.13094968,0.11501717,0.043501776,0.18687525,0.14076224,0.42116007,0.16877449,0.18096,0.18389146,-0.34921774,-0.2255169,-0.10274333,0.14305085,0.05039389,0.20209017,0.06994835,0.10621645,0.19032776,-0.046202928,-0.13000564,0.06388993,-0.110046476,-0.07109618,0.18683015,0.2861418,-0.04736734,-0.031139815,-0.10197778,-0.045640774,0.49493557,-0.757312,0.03649701,0.23309982,-0.29856324,0.019643582,0.07382615,0.20171551,0.15646282,0.27882606,-0.27938154,0.01074483,-0.37602627,0.5462938,0.184982,0.19337262,-0.04354598,0.17361735,0.35285732,-0.033068344,0.1765395,0.11851666,-0.14232962,-0.08454024,0.39653525,0.13721213,0.13598259,-0.0003372037,0.20715712,-0.06390468,0.010685963,-0.10541924,-0.5501331,0.06942213,0.08393085,0.06727077,0.24570681,0.0094715925,-0.07913913,0.22525805,0.07983342,0.24943542,0.0661367,0.06295905,0.18522538,0.19762535,0.05034256,0.14497653,-0.09707689,-0.026230203,0.024379166,0.14012393,0.3521931,0.19184369,0.042748902,0.40110224,-0.0453266,-0.06742349,0.49417272,0.11657472,0.14335723,0.019160269,0.0992539,-0.02481116
15,-0.101637505,0.19935997,-0.8308341,-0.1318624,0.1086818,-0.01157158,0.04610971,0.013692213,0.18158272,0.34926727,-0.077055186,0.0033848078,0.056217004,-0.05463676,-0.32877794,0.008569941,-0.07973281,-0.194993,0.2607902,0.09395535,-0.7365767,-0.1502244,0.059847444,0.055731423,0.20537074,0.108297676,-0.14455704,0.2965962,0.042323027,0.17058575,0.093841255,0.31214446,0.062253565,-0.13136841,-0.3044383,-0.09874296,0.19002636,0.1602548,-0.38966835,-0.115133114,0.15592548,0.07172357,-0.24391161,-0.009247448,-0.8077868,0.06935509,0.20628333,0.016521547,0.14582442,-0.61846423,-0.042605624,-0.84492344,-0.012139592,-0.069357075,-0.2186519,0.026077544,0.10686234,-0.31664842,-0.14221819,0.075278796,0.049797,0.30248126,-0.103504516,-2.276567,0.016500644,-0.35065302,0.032788184,0.32311454,0.19539487,0.23662834,-0.94506526,0.17761801,0.074426204,0.08626069,0.059419267,-1.0068948,0.063850105,0.17437987,-0.2653837,-0.1279259,-0.0755073,0.10518761,-0.8086749,-0.18003716,0.1676001,0.046159837,0.22639231,-0.19112717,0.18661405,0.020561567,0.32358164,-0.15796442,0.13277648,-0.01908853,0.10530003,0.1694846,-0.04826287,-0.63319165,0.22215842,0.044516645,0.21125114,-0.2058778,0.030555861,0.16880436,-0.0074836058,-0.7182229,-0.0014961376,-0.053298414,-0.031142462,-0.13617097,0.33256114,0.08217332,0.2110061,-0.19879371,0.12500215,0.16345854,0.11845012,-0.08386209,0.11864198,-0.63942194,0.14072591,-0.24630022,0.026929574,-0.10615652,-0.20083961,-0.2485658,-1.030129,-0.5019251,-0.25545552,0.0826911,-0.06789105,-0.16632132,-0.60722744,-0.87032187,0.25873482,-0.07112583,-0.030064372,0.039478533,0.15212835,0.067291595,-0.1966526,0.024578208,-0.12805592,-0.20213182,-0.18658555,-0.56940067,0.06643789,-0.111426145,0.28614447,-0.65203804,0.026852522,0.043673553,-0.08755739,0.22808184,0.008778262,0.281036,-0.06956804,-0.28687218,-0.063064516,0.12936479,0.006452721,0.35617715,0.07429154,0.113460794,-0.03794615,-0.053441625,0.36495477,-0.21661085,0.18519512,0.10217644,0.36208963,-0.4952067,0.013385837,-0.15705605,-0.32728803,-0.06013216,-0.17168523,0.10395254,0.061104257,0.1909072,0.056256175,0.18315123,0.022364212,0.32516927,0.1914116,0.2188765,-0.01429412,-0.5900951,0.288611,0.01835991,0.1026522,0.08879235,-0.13092336,0.6084516,-0.08899352,-0.091806084,-1.315086,0.18992336,0.12937059,0.12444583,0.19775991,-0.17890418,-0.13056171,0.19540632,-0.4097096,0.0206882,-0.09001086,0.02267583,0.2577371,0.15934384,-0.46809137,0.0982359,-1.0345322,0.040250774,-0.39042467,0.18114018,0.052616123,-0.018326806,-0.0885214,0.3161574,-0.042006038,0.06884546,0.051176302,-0.06350485,-0.13287362,-0.06219265,-0.9893434,0.32326427,0.24330345,-0.09632208,-0.17512959,-0.10838508,0.22555178,-0.12092328,0.19131565,0.083872385,0.10961267,0.14750083,-0.051608417,0.059760164,-0.112419955,0.13995902,0.07825915,-0.14342257,0.22016965,-0.25509882,-0.062878765,0.22413073,-0.048345156,-0.458157,0.30936635,0.016947456,-0.60495067,0.04260034,0.073865965,0.006764829
16,0.0048530335,-0.14134352,-0.09203232,0.069050916,-0.1459269,0.06919945,0.06568561,0.30143186,-0.11740949,0.04348244,0.25794557,0.09621788,-0.04241035,-0.13573916,0.097979784,0.060232922,0.19828387,0.056473102,0.11307593,-0.056749623,-0.06604868,0.05388018,-0.094825625,0.19839503,-0.22829798,0.039499663,0.018871138,-0.022264032,-0.5758603,0.02931096,0.2945229,-0.09785977,0.07360102,0.45161378,0.054240074,-0.08043272,0.030666199,0.058852777,-0.007855075,0.005894522,-1.082964,0.123432875,0.04513188,-0.16404156,-0.28817144,-0.017016059,0.040600073,-0.0064694653,0.20399052,-0.13654932,-0.78697073,-0.35502246,0.021554831,-0.3536653,0.021472875,0.047032587,0.021949807,-0.0708778,0.020278655,0.13881168,0.05982872,0.122457005,0.49955782,-0.5117601,0.20678772,-0.09619663,0.047853447,-0.35043442,0.008022706,-0.5351794,0.16085477,0.2883482,0.025149941,-0.14523421,0.17303674,0.027651588,-0.18614204,-0.15048316,-0.18680026,0.0019523818,0.09828087,-0.17569049,0.530691,-0.08527392,-0.011884642,0.14131108,-0.16667622,-0.15333457,0.09107904,0.00015906553,-0.14272515,0.06230749,-0.028478062,-0.15750784,0.1718811,-0.059599306,-0.19737408,0.23700829,-0.1953658,0.031935826,0.07902777,0.15134232,0.0021418727,0.0002050494,0.016001409,0.3338626,-0.08719408,0.024278408,0.028307784,0.18355785,-0.66926956,0.1214557,0.20647238,0.06259003,-0.33767563,0.18636829,0.040041633,-0.001332442,-0.09615442,0.012243007,0.0555057,0.014424175,0.32692918,0.03794143,0.17542198,-0.06611281,0.016105449,-0.10092629,0.10696172,-0.20545562,-0.094567195,-0.47306386,-0.12368483,-0.30158627,-0.022453781,-0.6588015,-0.086859345,0.07942871,0.025649218,0.14960797,0.02061314,0.19008213,0.08189253,-0.38483915,0.09341258,0.12014936,-0.10634551,-0.07022944,0.3683289,-0.14726427,-0.09935991,0.1163042,0.2107522,0.09487463,0.14333183,0.37942874,-0.05275384,0.03511306,-0.18314517,-0.1599199,-0.11776621,0.06795396,-0.07551419,0.08869593,-0.020448398,0.029064035,0.029992072,0.2597804,0.08495754,0.05965186,-0.06419999,-0.19105664,0.10891012,0.45374247,0.0022258062,-0.5015406,0.43459687,-0.29546326,0.028379617,-1.0051821,-0.18923122,-0.93737495,-0.005521618,-0.044643134,0.16517691,-0.17315134,-0.121402845,-0.035808846,0.056896012,0.0015605307,0.05203951,0.14734522,0.044433992,-0.28293335,-0.038676597,-0.074279994,0.059176747,0.20789008,-0.03833149,0.060646445,-0.043336567,-0.06734644,-0.50558555,0.03377987,-0.43391648,0.33565643,-0.04937419,0.0834735,-0.24148588,0.13641326,-0.046106465,-0.14164442,-0.4515,0.10590288,-0.0056550177,-0.088376015,0.19024591,-0.07182391,-0.0071007474,-0.12645897,-0.16022448,-0.10249153,0.09869297,0.1179128,0.02848102,-0.06119669,0.20782666,-0.84283775,0.11479161,0.03009395,-0.13541542,-0.03205951,-0.10618344,-0.00034406615,0.09822495,0.025271103,-0.07847376,-0.17524074,-0.037152603,-0.3029883,0.013577082,-0.04779755,0.05071922,0.13563883,0.03722081,-0.14744413,0.035118356,0.0061379853,0.11035363,0.56652236,-0.5694694,0.18241563,-0.039564822,-0.042747434,0.0044809077,-0.09528215
17,0.001126107,0.15531166,-0.060869068,0.15938678,-0.093437985,0.10600431,-0.035318583,0.021921573,-0.12741014,-0.18362808,-0.49021336,0.004258808,-0.105528325,0.19089946,0.12873329,0.18410715,-0.03203054,0.30863377,-0.25054833,0.086820304,0.39436203,0.28208637,-0.09574731,-0.23422149,-0.068005696,0.039345186,-0.040440008,-0.18425499,0.1916116,-0.2188645,0.1380436,-0.3765224,0.00904705,0.1584011,0.3109323,0.109320976,0.045660242,0.21739218,0.14230761,-0.3818499,0.16114767,-0.05425111,0.3227491,0.079030536,-0.23102942,-0.39694202,-0.07813789,0.12109377,-0.034503344,-0.31529948,0.008200086,0.25052172,0.041345447,-0.03069081,0.104459986,0.024691788,0.113425195,-0.19669153,0.2324695,0.25102955,0.26645887,0.17693175,0.65965503,0.2415525,-0.9558393,0.2342414,-0.094278045,-0.40322065,0.06619778,0.10069951,0.40672117,-0.6851242,0.1383454,0.24183302,0.14386623,-0.14694095,0.064404555,-0.032655414,0.11476898,-0.16256274,0.3589063,-0.025934147,0.22301233,0.1839476,-0.077389024,-0.115105085,0.065083034,-0.036569588,-0.30912536,0.04099395,-0.6369034,-0.011222046,-0.39130223,0.09989139,0.089601986,-0.2869897,-0.30892175,0.13584082,-0.1957739,0.026168708,-0.19425684,-0.5175555,-0.017729394,-0.13396193,-0.08864127,-0.0666343,-0.2642305,0.19182637,-0.024197355,-0.2689131,-0.17744394,-0.041258626,0.030261047,0.08969727,0.09935817,0.022044268,0.019383833,0.14831962,-0.09448137,-0.13911854,0.09933249,0.044048175,-0.2869725,0.15696442,-0.083993286,-0.13466349,-1.9031996,0.32214278,-0.96725816,0.14497499,0.076464705,0.22473718,0.306725,-0.18092106,-0.020385507,0.010531683,-0.026379038,0.012000616,-0.045725025,-0.1464415,-0.27811223,-0.31963256,-0.11918969,0.13806745,0.055640545,0.5568759,0.13148828,0.16648704,-0.16199929,0.11076661,-0.0049902503,-0.040477883,-0.22140786,-0.18455596,0.14919277,0.39152023,0.007765927,-0.61360484,-0.0007139461,0.22286266,0.22692312,0.13402571,0.034830865,0.056668654,-0.14312576,-0.11590002,-0.10639704,-0.1817647,0.46685457,0.06726764,-0.09627394,-0.18822227,0.33269808,0.35219583,0.15269274,0.25581834,0.25382382,0.11010629,0.075037345,0.27137277,0.12716995,0.06839302,-0.0155017115,-0.37304652,-0.16326544,-0.25246486,0.11386055,0.49296507,0.04380154,-0.19012159,0.13911827,0.12485154,-0.40613848,-0.52285963,-0.090040594,0.4399503,-0.18775995,0.19326158,0.011912422,-0.14884824,-0.0942635,-0.0031110747,0.14419736,0.20374027,-1.4973812,-0.04498456,0.13623744,0.10589206,-0.61549616,0.08171713,0.12502256,-0.31252134,0.28432828,0.1631791,-0.50864565,0.049527492,-0.1152097,0.113665804,0.3196142,-0.44581506,0.14949742,0.062683575,0.06009021,0.19224453,-1.5582348,-0.12142975,0.24016525,0.088460155,0.22182365,-0.036723472,-0.0437435,0.07912985,0.047122687,0.07248123,-0.19399108,-0.23986407,0.14375712,-0.09660317,0.28682354,-0.4174404,-0.04183061,0.07263497,-0.10339534,0.0578641,-0.11926245,0.15002744,-0.18854609,-0.09430045,0.040114313,0.5976361,0.070692256,-0.06726173,0.26003975,-0.07220996,0.12680584,-0.07101502
18,0.131856,-0.11987744,0.4856411,0.14127856,0.005769865,-0.057632986,0.0013237644,-0.07048909,0.000724206,-0.061919488,0.21616066,0.014290754,0.06375169,-0.15902941,0.10044033,0.2644505,0.20449089,0.03255481,-0.007260076,0.08608291,-0.076778695,-0.014865355,-0.6414554,-0.022111105,-0.09051948,0.10941339,0.028662987,-0.058704298,-1.1846619,0.15978976,-0.46233624,-0.036542423,-0.049392328,-0.30415204,0.19063538,-0.20532052,0.059374936,0.10133171,-0.098765336,0.38408685,-1.3267447,0.046969347,0.17032105,-0.19634528,0.011954047,-0.3838928,0.09309439,-0.0028620495,0.036526516,0.05622448,-0.771971,-0.5539574,0.055492382,-0.48194143,0.022832736,0.065926544,0.060268726,0.16798434,-0.094502546,0.40194353,-0.08952032,-0.03355219,-0.13888846,-1.7947438,0.031352777,0.04310181,0.44621956,0.062406726,-0.05976865,-1.3538948,-1.100325,0.049254514,0.058580942,-0.18283021,-0.034911115,0.078009,-0.16441928,0.08820855,0.051652357,0.08795828,0.11125931,0.10800957,-1.2877569,-0.039789777,0.12768485,0.022577412,0.11591366,-0.0751845,0.05916649,-0.13149992,0.22000228,-0.055789243,0.13856634,0.14375527,0.111519754,-0.093557015,0.35597602,0.19520657,0.073066086,0.14615835,0.036382847,0.12206303,0.042928588,0.12921453,0.12073225,-0.6694812,0.25639707,0.04388802,0.17275852,0.201232,-0.04832767,0.15458052,-0.06763434,0.13505298,-0.4366318,0.12668173,0.11941155,-0.05458009,0.11259472,0.39777732,0.0138875,0.039069474,-0.00091490697,-0.117096715,0.098647684,0.027788837,-0.09508719,0.036375962,0.26948544,-0.028252224,0.0061091427,-0.6584233,-0.2210048,0.07603438,0.15702534,-0.78829324,-0.058164414,-0.001211618,0.022110317,0.11546507,0.102065705,0.08340977,0.081483416,-0.32527363,0.07490468,0.09131407,0.033096556,0.013658416,0.11337245,-1.0081991,-0.15167694,-0.041210406,0.10516881,0.049468398,-0.41591904,0.07705876,0.09698585,0.23724487,-0.056644727,-0.20430917,-0.30275184,-0.023809101,-0.105574876,-0.09379993,0.08251329,-0.05619637,-0.01184022,0.3070437,-0.18884958,0.046818685,0.011747277,0.2309053,0.18334725,0.0082516465,0.12425109,-0.29629496,-0.8685137,-0.2625326,0.0978483,-1.78718,-0.016869051,-1.0773879,-0.08299493,-0.0699229,-0.0089361435,0.15041332,0.057317372,-0.15730093,-0.04286664,0.17725258,0.072743885,-0.14620674,0.2732116,0.032820605,0.15629075,0.3010963,0.06709493,-0.028322192,-0.1425749,-0.034925103,0.09929979,0.008810591,0.39802703,-0.1359882,-0.13210078,-0.12958483,-0.1464357,-0.10481054,0.19773702,-0.0136480015,-0.1442055,-0.036803626,-0.15838613,0.19661653,-0.08435164,0.03187468,0.21916783,0.069922104,0.038844846,0.116493575,0.053163737,0.14054723,0.07616118,-0.054404322,-0.14772771,-0.081259795,-1.3465633,-0.82897234,-0.1147999,-0.0072575407,-0.06487241,-0.26034743,-0.15157185,-0.030330189,0.10318936,-0.15602475,0.0077290554,-0.21907641,0.29760087,0.10255104,-0.051896226,-0.13975494,0.063296184,-0.076404124,-0.15382676,-0.19141343,-0.10499239,0.117950976,0.0053426605,-0.6939575,-0.639183,-0.07263209,-0.19226871,-0.043630295,-0.09897359,-0.021360647
19,0.09417899,-0.16584687,0.16372322,-0.1851389,-0.035223637,0.00081915234,0.096703336,0.06767686,-0.02472731,-0.04630131,0.38963914,0.027012743,0.015169345,0.12089613,0.103131086,0.16189827,-0.34011337,-0.67135656,-0.2537375,0.10395415,-0.11726378,0.17717819,0.114351,-0.56785744,-0.085379064,0.16029632,-0.7532264,0.13335341,-0.12609152,-0.255143,-0.009039627,0.008051003,0.047023524,0.10976289,0.6020937,0.06503126,-0.026224868,0.10054113,0.20375556,-0.21380872,0.023306439,0.008235776,0.1557801,0.060160346,-0.15591946,-0.04990518,-0.88101095,0.14964338,0.06348522,0.23309171,0.26381943,-0.05461476,-0.048955686,0.20826584,0.06740729,-0.31005505,-0.045852654,0.113060154,0.10016478,-0.017152473,-0.1388078,-0.40164012,-0.6437294,-0.21686654,0.36550152,-0.08694345,0.74499565,-0.011719725,0.24736495,0.017332999,-0.09503261,0.015530555,-0.35687494,0.042187642,-1.8365852,-0.293591,0.28004745,0.18561004,0.03802399,0.24763897,0.035116665,0.106244266,0.32517865,0.10626873,0.013641019,-0.6258188,0.10350917,0.2460025,-0.16240345,-0.11938141,0.09793933,0.04652001,-0.070129514,0.040631536,-0.25180623,-0.0485864,0.38666686,-0.20384212,-0.06041518,0.15360747,0.08807783,0.37837055,0.19946232,-0.7795837,0.0847062,-0.58930075,0.3473161,0.15758918,0.08055792,-0.38371104,-0.064214714,-1.3592753,-0.2372629,-0.006321259,0.057940815,-0.070316546,-0.12528688,0.058878392,0.22691955,0.10164119,0.20927946,-0.068319,0.022775408,0.054124147,0.075920336,0.26961625,0.21543734,-0.18945839,0.30829805,0.035681996,0.10419514,0.08994417,-0.05538216,-0.04990961,-0.20014413,0.21683374,0.18302754,0.15749829,-0.004009545,-0.4011673,-0.27786458,-0.05757633,-0.13208146,0.058565266,-0.09022231,0.37077984,0.22187003,0.033389833,-0.07424798,0.01171803,0.12947899,-0.13766311,-0.18431297,-0.52429324,0.108542755,-0.24298222,-0.03364554,0.22347271,0.09300611,-0.0147146005,-0.027492747,-0.35739848,0.08543166,-0.077242956,-0.24914367,0.009939554,-0.18791588,-0.19264151,-0.5621707,0.045281995,0.20314814,0.0052552447,-0.14334679,-0.1426575,0.16388382,-0.14467753,0.21462378,0.07149149,0.07341106,-0.018751593,0.05563725,-0.08998461,-0.06891917,0.1901374,0.08338835,0.17473921,0.06087522,0.15621239,-0.427877,-0.13569239,-0.006448434,-0.13087928,-0.53569347,0.22403958,-0.012296379,0.8097675,0.24540983,-0.9262408,0.098749384,-0.12333236,0.07691687,0.025068505,0.019390753,0.2913946,0.10790611,-0.61853355,-0.008859825,0.12077612,0.26731366,-0.010720877,-0.005920337,0.061945837,0.075824335,-0.4044983,0.18685661,-0.032706846,-0.48479816,0.068408355,-0.10067896,0.2924048,0.050022364,0.38120148,-0.061524663,0.09465747,0.0551227,-0.10900694,0.0385295,0.059105705,-0.15634394,0.123991564,-0.0070464956,-0.052938268,-0.12656982,-0.11380248,0.036235668,0.21395634,0.09744715,0.05603423,0.4106172,-0.09791131,-0.015849613,-0.019440994,0.08197769,0.074894734,-0.45197695,0.08988486,0.13611801,-0.5642629,0.12094211,0.3781096,-0.257305,0.07591836,-0.044794902,0.072719246,0.054029457,-0.15898252
