,0,1,2,3,4,5,6,7,8,9,10,11,12,13,14,15,16,17,18,19,20,21,22,23,24,25,26,27,28,29,30,31,32,33,34,35,36,37,38,39,40,41,42,43,44,45,46,47,48,49,50,51,52,53,54,55,56,57,58,59,60,61,62,63,64,65,66,67,68,69,70,71,72,73,74,75,76,77,78,79,80,81,82,83,84,85,86,87,88,89,90,91,92,93,94,95,96,97,98,99,100,101,102,103,104,105,106,107,108,109,110,111,112,113,114,115,116,117,118,119,120,121,122,123,124,125,126,127,128,129,130,131,132,133,134,135,136,137,138,139,140,141,142,143,144,145,146,147,148,149,150,151,152,153,154,155,156,157,158,159,160,161,162,163,164,165,166,167,168,169,170,171,172,173,174,175,176,177,178,179,180,181,182,183,184,185,186,187,188,189,190,191,192,193,194,195,196,197,198,199,200,201,202,203,204,205,206,207,208,209,210,211,212,213,214,215,216,217,218,219,220,221,222,223,224,225,226,227,228,229,230,231,232,233,234,235,236,237,238,239,240,241,242,243,244,245,246,247,248,249,250,251,252,253,254,255
0,-0.039831024,-0.04865929,-0.060562566,0.07756864,0.03713748,-0.030307805,-0.102075286,0.04385409,-0.03906433,0.04132347,0.07518149,0.024734115,0.036138777,-0.08932697,0.014119018,0.12843664,-0.10043479,-0.11498424,-0.034466933,-0.12621386,-0.08938486,0.10895357,-0.14060888,-0.103360035,-0.024498705,-0.07442552,0.04367115,-0.033497456,0.13899654,-0.16389094,0.04251008,-0.16927564,0.1407373,-0.1356064,0.024290163,-0.14091985,0.09452679,-0.33900154,0.15984328,0.1053931,-0.08970477,-0.0051331683,-0.14259058,-0.058495995,-0.061983343,0.1139843,-0.17866822,-0.02226407,-0.11106176,0.06299274,0.07499177,0.038521722,-0.20818338,0.0241254,-0.051346187,0.060635567,-0.1071236,0.07210689,-0.102635786,-0.047249768,0.08325012,-0.03558911,-0.037685487,0.15721631,-0.043691862,0.12955475,-0.0072754812,0.067157544,0.015560139,0.04146378,-0.00902757,-0.08453143,0.044416834,-0.12995374,-0.031543158,-0.21862067,0.05334291,0.110256515,-0.15262713,-0.051954284,0.09532739,0.046167307,-0.030296389,0.22755021,-0.040099263,0.04921476,-0.06717831,-0.042532984,-0.041203935,-0.061908312,-0.051870335,0.1388122,0.041754007,-0.029135957,-0.037589163,-0.041236706,0.029936913,0.13688505,0.014513036,0.04140717,0.011899969,0.034211513,-0.022521175,0.0147163095,-0.0069326563,0.031045925,-0.12464488,0.15766992,-0.07394509,0.045165293,0.06472564,-0.018867543,0.026843086,-0.018816441,-0.03096458,-0.038276944,-0.023939727,0.05348544,-0.10586891,-0.092435315,0.019812167,0.08569649,0.12776704,0.005707499,0.06780913,-0.12523738,-0.050803125,-0.038185224,-0.13469371,-0.1433211,0.017055959,0.13024437,-0.016174937,-0.08101717,0.032837655,-0.09909807,-0.16665396,0.002242667,-0.08474055,-0.05765861,0.09806298,-0.0069801654,0.013970405,0.05592267,-0.039691065,-0.10783065,0.05863619,-0.08548948,-0.08889699,-0.027953587,0.097347245,-0.09341276,-0.051236346,0.010670637,0.06555717,-0.07292943,0.15521981,0.018710436,-0.08762323,0.047059268,0.06394755,-0.014750291,0.061814997,0.0693204,-0.067515224,-0.06230739,-0.049381956,-0.026077086,0.12552622,0.14300968,-0.021090047,0.07623613,-0.03073795,0.04222685,0.023779565,-0.040600803,0.026237644,0.074177854,0.0444298,-0.07584742,-0.0063556056,0.06644098,-0.102911025,0.13976395,-0.113819495,-0.06776634,-0.06849148,-0.012419929,-0.09107326,0.10272872,0.16136485,0.040513385,0.025278792,0.019260824,-0.050646286,0.023195157,0.009004174,0.069704205,0.0041216966,-0.025971219,-0.116413854,-0.02755234,0.011863011,0.018085683,0.06995767,0.09289107,-0.14673202,-0.03248918,0.05044692,-0.039598282,-0.028410625,-0.028549178,-0.17609555,0.0023846466,0.037658997,-0.036495302,-0.011329874,-0.010478103,0.11627483,-0.27972278,0.06374122,-0.0031397513,-0.03689868,-0.06049428,0.027550485,0.05929697,0.07737143,0.14273222,-0.1452309,-0.055814896,0.15834685,-0.09348605,-0.038797803,0.0045249974,0.0133406455,0.019413097,-0.05817545,-0.00056128344,0.04208153,0.07491568,0.016444463,-0.05377967,0.012758175,-0.10640926,0.062333502,0.13578933,-0.084707625,-0.07002079,0.023314934,-0.0020097692,-0.022202143,-0.006044261,0.06259885,0.03294268,0.097977184,-0.10666915
1,-0.11747945,-0.017467914,-0.058972906,0.019451277,0.044178918,0.014553333,-0.09346631,-0.11951426,-0.025827013,0.10594314,-0.008469639,-0.11089967,-0.039658766,0.049072187,0.061870452,0.005108022,-0.0447831,-0.071826376,-0.120276,0.005658302,0.026444672,0.09467614,-0.18139638,-0.16944852,-0.024638396,0.07376885,0.0869533,0.049463335,0.010916703,0.0039336924,0.09072156,-0.12317715,0.024522414,-0.058840998,-0.021571787,-0.12930785,-0.040965345,-0.30106091,-0.099398166,-0.005959844,-0.014841679,-0.07655766,-0.0653707,-0.044009164,-0.068980575,-0.005800661,-0.08000777,0.026131695,0.0035453464,-0.012130957,-0.04498956,0.049156502,-0.046854503,-0.14448947,0.03655383,0.11250937,0.028178146,-0.14386085,-0.073830396,-0.13565281,0.10965556,-0.019728517,-0.12614813,-0.03477432,0.06824516,-0.0289229,0.0013919115,-0.06321983,-0.10309048,0.06657216,-0.106187806,-0.020382948,-0.0856447,-0.009187896,-0.08878448,-0.18488151,0.06913176,0.08686755,-0.11545117,0.054727048,-0.0077646174,-0.010314465,-0.089725405,0.27589944,-0.05567186,0.06024541,-0.039188277,0.038781323,0.037980832,-0.06637942,-0.14502211,0.12037843,0.0655799,-0.05205849,-0.10602062,-0.0031995566,-0.026048964,0.1425945,-0.028430609,-0.13133739,-0.02614662,0.062990054,0.06514322,0.03621463,-0.080579035,0.122810096,0.040256504,-0.10395897,-0.077926666,0.07730623,0.10398138,-0.07698034,0.09097912,0.11884528,0.04140525,-0.049281556,-0.02325129,0.038825095,-0.050707098,0.053676456,-0.12213447,0.03414164,0.04585998,-0.0149811525,-0.028039515,-0.14889255,-0.10181138,0.16233084,-0.031330265,-0.068113305,0.0004889083,0.14046082,-0.04808807,-0.15440811,-0.019134728,-0.1159146,-0.06088126,-0.02790511,0.0032497088,-0.036826447,0.015062388,0.034012675,-0.031925313,-0.07755433,-0.09813133,-0.11145642,0.08317505,0.034869917,-0.014060394,0.010852942,0.012713321,-0.021300364,0.024470942,-0.056920454,-0.008622084,0.034001175,0.12313626,0.06399802,0.07587455,-0.1390909,0.045085046,0.09274678,0.07578266,0.09622945,-0.13923685,-0.03747149,-0.14943828,0.14281097,0.08590343,0.010434061,-0.104791746,-0.0151247075,0.052060116,0.006928071,0.09316797,-0.019148458,0.23160869,0.12132246,0.14673147,0.014925566,-0.11161736,-0.02032384,0.059019998,0.12027626,0.014604292,-0.025774557,-0.012773395,0.09255841,-0.048402563,0.051572762,0.080804,0.0055990755,6.6540415e-05,-0.020308394,0.031834353,-0.11493053,0.050055206,0.09441513,-0.023545682,0.028987313,-0.138344,0.061174285,0.14388965,0.15630005,-0.09940001,0.112969,-0.0027043184,0.031964254,0.013633455,0.014404738,-0.07687432,0.03430254,-0.18386291,0.024798473,-0.0994175,-0.047883555,-0.1045524,0.023218773,0.061247442,-0.12445508,0.073929764,-0.051651433,0.08906408,-0.102238975,-0.060515348,0.15027785,0.15041569,-0.035727266,0.005879314,-0.04045014,-0.042910393,-0.114093386,-0.11644269,-0.09091105,0.04230116,0.051447373,-0.009110532,0.062107675,0.03398563,0.15516067,-0.08871509,-0.12004665,0.06008477,-0.074725024,0.25109723,-0.061794743,-0.051828258,-0.00631276,-0.04778967,0.12390233,0.02285159,0.06486135,-0.0005176693,0.14533933,-0.15215681,0.07086452
2,-0.08802232,-0.09209608,-0.07390505,-0.0684523,-0.060383778,-0.120334625,-0.1385998,-0.13118066,0.1388102,-0.039852105,-0.021321706,-0.15659179,-0.1471459,-0.16592437,-0.059371255,0.039579216,-0.14656542,-0.0060216286,-0.15759812,0.052030038,0.049577158,0.0061196946,-0.15690093,-0.09087158,-0.0055114916,-0.13567443,0.09709384,0.15167852,-0.03444748,-0.15906368,0.12335689,0.02147084,0.07385977,-0.07292666,0.11246071,-0.09459731,0.07915406,0.18798205,-0.089276396,-0.038119454,-0.08312847,-0.07846628,-0.050938,0.073201396,-0.022778785,0.15810308,-0.12455245,0.15451205,-0.0910149,0.03202183,0.041675754,0.030654982,0.02196661,-0.08978721,-0.025337003,0.15722813,0.0625547,-0.034127656,0.05683842,-0.053133972,-0.039536595,-0.045494203,-0.077265255,0.0057378965,0.07368052,-0.008896846,0.09899943,-0.0880996,-0.1356673,0.050162304,-0.045774907,-0.030343236,-0.15764765,-0.08680896,0.017179852,0.018433424,-0.007939193,0.08518371,-0.008397725,-0.06629897,0.06339746,0.16616413,-0.08666518,0.049833246,0.022939233,0.01581037,-0.073467925,-0.059952192,0.022471428,-0.1392505,-0.080970384,0.04697428,0.08930001,-0.06457106,-0.07460224,-0.08215927,-0.05597004,0.019385306,-0.033130553,-0.03918376,-0.00044870825,-0.055990823,-0.19597276,0.09661824,-0.119517565,0.14201751,-0.008116236,0.13588917,0.032758273,-0.10660945,0.0899548,-0.1632763,-0.05012124,0.03296026,0.12275094,-0.07981495,0.0006601921,-0.017491521,-0.14756937,-0.031897683,-0.0949829,-0.05819303,0.07156073,-0.03410754,-0.08267485,-0.12394864,-0.06490355,0.1383307,-0.07898906,-0.070372075,-0.12815462,0.058141276,-0.10958558,0.020052154,-0.1291046,-0.062292866,0.04717306,-0.09886364,-0.033450793,-0.08991366,-0.02003261,0.020066107,0.15671425,0.0035509157,-0.091346644,0.0540093,-0.010279929,-0.07013895,0.0064320914,-0.010755345,0.117291726,-0.036778085,-0.15092048,-0.16471271,0.11178584,-0.06084712,0.020908026,-0.016274976,-0.010587983,0.007761967,-0.1520651,0.031202294,-0.02701021,-0.15508002,-0.106706716,-0.057606608,-0.13303046,0.0894029,0.01915157,0.11779001,-0.16472375,0.058177978,-0.08650139,-0.14592582,-0.12153615,-0.019419033,-0.022514995,0.114086285,0.098096736,-0.08389918,-0.17537652,-0.079955734,0.02951927,0.13341793,-0.101180255,-0.14611661,-0.05980993,-0.028928757,-0.15807866,0.06267539,-0.0463654,-0.017926868,-0.0149888,-0.031967625,-0.08331824,-0.0010029015,-0.16499959,0.091344886,0.06201257,-0.00016650614,-0.14778067,-0.09746509,0.03654329,0.07058699,-0.016687194,0.0037825715,-0.0011436578,-0.0467863,-0.16300793,-0.087482944,0.04616925,-0.17100637,-0.08859034,-0.11738204,-0.0661203,-0.15750442,-0.10144338,-0.05192552,0.09332568,0.029502146,0.1467311,-0.14527951,0.005630221,-0.15402752,-0.014698332,0.035701934,-0.07958867,0.102453955,-0.13907759,-0.091741376,0.09316301,0.03873068,0.008033254,-0.0023022639,0.031361677,-0.0021080978,-0.09428615,-0.10330181,0.08624552,0.036384817,-0.11079267,-0.025458893,0.0143138785,-0.02695927,-0.15764138,-0.14312367,0.041627467,-0.06639707,-0.1250815,0.09481553,-0.041215364,-0.049136005,-0.024849322,0.13668735,0.15519871,-0.1433044
3,-0.15315701,-0.1060198,-0.093250275,0.0050888364,-0.14890066,0.028713066,-0.13815509,-0.15434591,-0.06327469,0.061323386,0.042151462,-0.15625304,-0.07502121,-0.16243589,0.02466354,0.12505414,0.030806703,0.11631114,-0.13740267,-0.14977296,-0.16232543,0.011213754,-0.03468355,-0.27736983,-0.005369817,-0.066158436,-0.02112893,0.10703703,0.061164152,0.038958244,0.13958696,-0.12962571,-0.1062146,-0.08174951,0.13487937,-0.11978639,-0.003216535,0.11085631,0.13856964,-0.015390331,0.0071035456,-0.054071672,-0.05655236,-0.15982327,-0.13135764,0.032303974,-0.13266012,0.14998911,-0.01589309,-0.0115205785,0.01848478,0.016197177,-0.079511255,0.027513329,-0.019617915,0.024833199,-0.086290024,0.0035792368,0.0023606857,0.026142662,0.14638308,-0.0438191,-0.06947314,0.14464675,0.1540999,-0.054725613,0.05721618,-0.06894771,0.050976846,0.15342179,-0.14383607,0.035182063,-0.05328543,-0.1497807,-0.03399711,-0.053816967,0.08152243,0.08394903,-0.103499524,-0.076809846,-0.010804436,-0.04483704,-0.15842472,0.1590338,-0.10112164,0.12061697,-0.043753285,-0.15121226,-0.069759704,-0.17272922,-0.11865188,-0.012014573,-0.03589634,0.024781438,-0.13102823,0.1593753,0.08457201,-0.010334761,0.089682065,-0.007316468,-0.114615045,0.019877909,-0.046136107,0.111560434,-0.06658134,0.02511369,-0.06005101,0.016962077,0.02183002,-0.07827768,0.093369536,-0.109520994,-0.021711575,0.04585549,0.0069542,0.011135104,-0.15553764,-0.027858198,0.2722005,0.025059083,-0.04540876,-0.01579116,0.033893712,0.07401498,0.00751801,-0.15873468,-0.09106128,0.07531217,-0.19009945,-0.16196507,0.05538163,0.048011158,-0.086190164,-0.16719829,0.04470668,-0.04033498,-0.042766985,-0.029638661,0.05498365,0.016768226,0.035422005,0.1274555,0.098764904,0.012808909,-0.094273016,-0.08408737,0.06310069,-0.027655633,0.008902499,0.12695663,0.07901637,0.011674035,-0.0374943,-0.061558146,0.14130673,-0.13904797,0.003263572,-0.025191324,-0.07901472,0.060428992,0.024679836,0.13239035,0.059175782,0.0064887786,-0.14396368,-0.14725228,-0.08171596,-0.042089712,-0.04607803,0.12442205,-0.12841822,0.152201,-0.055016235,0.03455562,-0.1241558,-0.035932824,0.007855015,-0.046184618,0.10924942,-0.12691213,0.19314918,-0.1409544,-0.059878167,0.1589981,-0.0016277315,-0.014676252,0.015104777,-0.00216145,0.038401853,0.042714614,-0.00030809888,0.09923825,-0.07490425,-0.0045050643,0.039614525,-0.040182736,-0.14345552,0.12768254,0.012315542,-0.066359535,-0.015206449,0.04401263,-0.04141672,0.069061816,0.03983335,0.11117526,-0.13816652,0.021821836,0.036625337,0.16004243,-0.08646873,-0.0922521,-0.0066379644,0.03512439,-0.11073475,0.019762872,-0.0035575477,0.021920295,0.10962293,-0.028918033,0.07841194,-0.04061288,0.020292059,0.04550653,-0.031904012,-0.016445465,0.04537869,0.13739721,-0.08386094,-0.04752916,0.024786878,0.039257396,-0.15733735,-0.084088184,0.016355807,-0.14827082,-0.017820088,-0.00063048076,0.05057728,0.05087669,0.0013377046,-0.07913414,0.0033065034,0.052025646,-0.028427742,0.05614154,-0.124509506,0.029433733,-0.15246223,0.14931668,0.044056762,-0.046228863,0.15411547,0.028472021,-0.078009,-0.05112357
4,0.042036876,-0.08710177,-0.029657336,0.083690435,-0.015911615,-0.08023921,-0.043925714,0.014844304,0.088323586,-0.0008223169,0.096379615,0.038861506,-0.016059726,-0.014297973,0.060167715,0.11319595,-0.12461993,0.014107954,-0.17652868,-0.09761467,0.070098,-0.009603912,0.037446555,-0.25111204,0.059481215,0.10281169,0.044001713,0.089715675,0.10399871,-0.14276987,0.12951885,0.02526123,0.06971114,-0.049966414,0.054139193,0.047839075,0.14471816,-0.10898141,0.0073879175,-0.051091895,-0.0012157909,-0.0625153,0.014025791,-0.045730125,0.03988385,-0.10105071,-0.07614609,0.016356362,0.058849104,0.017517831,0.14181341,0.030403841,0.04146844,0.0016234879,-0.11144244,0.3559151,-0.015169261,0.07955296,0.08356482,0.035250902,0.012131963,-0.0034910569,-0.22031823,0.041414436,0.116235904,0.16226977,-0.064197704,0.079564154,0.11014458,0.09738578,0.020105945,-0.06513569,0.095881775,0.12918067,0.034454405,-0.08470319,0.15958156,0.13978422,-0.020731967,0.10204585,0.14483088,0.0011347735,-0.05272069,0.2715736,-0.13455342,0.09350703,0.037328888,0.05091903,-0.09768341,-0.045209516,-0.07153822,0.07418058,0.021288918,0.06841761,0.08873048,-0.084353186,0.07993946,0.10500084,-0.041326705,0.08370839,-0.14064547,0.08847412,-0.039386556,0.091293044,0.12790272,0.12421634,0.029839212,-0.03457681,0.06765093,-0.04214444,0.050371714,0.07094753,-0.07501885,0.15421894,-0.022204107,0.14249007,0.005139434,0.061695114,0.004271881,-0.068583615,-0.093133524,0.14090918,0.12628968,0.1457986,-0.09319643,-0.07107944,-0.037563264,0.031583782,-0.10195582,0.034113307,-0.05168179,0.14229126,-0.013002455,-0.16918972,-0.09298234,-0.043581586,-0.09367641,0.06985261,0.05962288,0.11134283,0.0654586,-0.04721596,0.08170885,0.13764903,-0.11513298,0.054622594,0.024676116,0.083320655,-0.0009913797,-0.023533417,0.032240726,-0.026604863,0.015446717,0.074851535,0.044157937,0.040155217,-0.028226947,0.021578308,-0.07031445,0.005483135,0.0014038802,-0.008434094,0.10698278,-0.035851512,0.05064663,-0.099576056,0.14431633,-0.006128446,0.01639246,-0.02990935,0.0797203,-0.03394444,-0.066127256,-0.12532446,-0.06262582,-0.20276262,0.41672862,-0.028591357,0.1302428,-0.15097788,-0.16248772,-0.11371905,-0.036913797,0.06880733,-0.10853493,0.021942675,0.113716416,0.16943985,-0.12467802,-0.017017936,-0.042390276,-0.035123743,-0.031136,-0.057188086,0.07944802,0.020140735,0.029335959,0.058479067,0.15090182,-0.009964529,-0.003233497,0.06064279,0.04316984,0.116916195,-0.04855364,0.15404782,0.0587072,-0.029449984,0.09250653,-0.13563459,0.051712357,-0.07135259,-0.14348067,-0.06960456,0.07495826,-0.0010777296,0.077545255,0.082397565,0.13733384,-0.06601311,0.1310585,0.10214497,0.12061404,-0.13583948,0.062870346,0.120916575,0.043088272,-0.04092894,-0.08136276,-0.07590366,0.12026895,-0.014700063,-0.019775428,0.09538031,0.06826756,-0.035178825,0.06828533,0.007709468,0.08449403,0.02353224,0.08110334,-0.16145787,0.037671197,0.089736074,0.010719211,-0.017525155,-0.022161238,-0.08539331,-0.0629393,0.099942215,0.08249138,0.10204213,0.045026608,0.01499771,0.098637864,0.04484808
5,-0.0465967,-0.1808954,-0.04710565,0.051015075,-0.16771689,-0.06092816,-0.10544879,-0.18703261,-0.011857888,0.027641162,0.01913041,-0.04158273,-0.07359763,-0.042956028,0.06673067,0.06688266,-0.010561986,0.029871965,-0.10104376,-0.15187572,-0.0008134647,-0.047217716,-0.006865114,-0.02821412,0.06628331,-0.08776686,0.077208474,0.0035392572,0.10915586,-0.1556144,0.14913064,-0.13768299,0.0978659,-0.15074597,0.16766146,-0.024452811,0.044557314,-0.17112969,0.024297034,-0.01333629,-0.048192974,-0.02131226,-0.06776256,0.055136167,-0.0055564465,0.038108036,-0.087033704,0.13710533,-0.1614076,0.16241533,0.10391791,-0.028877728,-0.040047783,-0.11513701,-0.00019748001,0.0713141,0.0092770755,0.12412582,-0.068799816,-0.10968908,0.12932265,0.028693436,-0.083458155,0.12927021,0.063207835,-0.019163147,-0.036082733,0.08314417,-0.023407666,-0.020232523,-0.079973914,-0.0021905666,-0.05379726,-0.02159844,-0.024014931,-0.19506116,-0.006184563,0.10434918,-0.112462126,-0.116833195,0.1011564,0.12081425,-0.07000949,-0.01919603,-0.102211915,-0.036530934,-0.098860905,-0.08329124,0.036575973,-0.09000534,0.008012038,0.052829053,-0.005036996,-0.1299564,-0.04575877,-0.08733006,-0.0026220907,0.15816705,0.15977934,0.07663246,-0.1305092,0.02769095,-0.054766603,0.11112726,0.052971635,0.106462084,0.009237168,0.053956877,-0.083457,0.095025174,0.16632178,-0.1444645,0.0034426586,0.08338518,0.14734995,-0.022640668,0.008673847,-0.121303886,-0.12899855,-0.14908543,0.025688149,0.032284476,0.04356801,0.113571554,-0.13276307,-0.1583359,0.023505474,0.13085875,-0.18276577,-0.11159626,0.039835893,0.05187265,-0.057643145,-0.121318825,-0.11203639,-0.16852427,-0.1680445,0.019531887,-0.04636251,0.016760085,0.033079736,0.10709247,0.052493572,-0.11886237,-0.16427356,-0.042286463,-0.02104488,0.03343039,-0.076237746,-0.055114012,0.15951155,-0.14194287,-0.042488903,-0.048497774,0.11223918,-0.08962787,0.026755737,0.03591453,-0.013460668,0.07538175,0.012344798,0.036158785,0.0862727,0.015128831,-0.18080202,-0.029878385,0.05614618,0.1336132,-0.037016217,0.04423827,-0.18045242,0.15878618,-0.08217561,-0.020032756,-0.06969014,-0.117845505,0.038045183,0.11233394,0.087180264,-0.09850771,-0.106225014,-0.15774953,-0.13751647,-0.0015978166,-0.042018626,-0.05764398,-0.09644876,0.01240056,-0.07103087,-0.047151674,0.11596706,0.0031608057,-0.12127822,0.044062186,-0.08794573,-0.17866176,0.0053403415,0.07764378,-0.098698564,-0.08968145,-0.026199313,-0.023978753,-0.02539726,0.053898904,-0.021373516,-0.04831887,-0.043229043,0.1398958,-0.01958513,-0.11077661,0.022154266,-0.2056838,-0.09519338,-0.13605408,-0.062220603,-0.055991605,0.017888537,-0.007529603,0.12341383,0.030479502,-0.011327425,-0.14579302,0.026810173,-0.06942199,0.059981752,0.074648395,-0.024380395,0.01735659,-0.0076579084,-0.04209893,0.12341196,-0.042640828,0.017242236,0.019613955,-0.10585624,-0.07369066,-0.011382281,0.016134819,0.08024598,0.008676569,-0.13902986,-0.16394298,-0.015024256,0.011870126,-0.122894295,0.00083453406,-0.1346122,-0.16499373,0.00028678292,0.010614541,-0.029802283,0.046211388,-0.005439604,0.11471583,0.15264428,-0.113496475
6,-0.057025287,-0.084642865,-0.110688485,-0.073915884,-0.12570855,-0.07398862,-0.11848551,-0.16439267,0.08081391,0.11674301,0.063703835,0.07255464,0.007312883,-0.012753202,-0.01497478,0.04163552,0.045850933,0.035441626,-0.053395,0.05336152,0.032109268,0.1119856,-0.07593834,-0.003908853,0.061680697,0.060945395,-0.046346,0.15379906,-0.0008261426,-0.015214683,0.09884673,0.014105815,-0.049738258,-0.023774154,0.007790694,-0.04977449,0.13866429,-0.41809258,0.15099509,0.04223473,0.04286349,-0.06000306,-0.02070987,-0.05229323,-0.020607032,-0.012707159,-0.1353293,-0.040170997,-0.054450683,-0.037221197,0.15202878,0.14565828,-0.021547912,-0.121155374,-0.061159585,0.12854287,-0.037540402,0.057586245,-0.07958711,-0.026910879,0.08279577,-0.07396092,-0.17540127,-0.027955139,0.044567555,0.13508275,0.055591695,0.050897382,-0.13308573,-0.03246856,-0.16039743,-0.1528949,-0.13221414,-0.059504956,-0.04547244,-0.050805397,0.02612945,0.10999694,0.011170081,-0.12296412,-0.0451403,0.14624132,0.031209279,0.106163226,-0.050119042,0.14540325,-0.07005226,-0.025707938,0.038229976,-0.057245843,-0.092913345,0.14819957,0.039102964,-0.09532163,-0.002490533,0.05344809,0.09987024,0.03948365,-0.03700865,0.032270897,-0.008692181,0.08612579,0.057826526,-0.04188632,-0.03204823,-0.009188852,-0.0042948783,0.026093183,-0.088746265,0.053322464,0.12813136,-0.032114103,0.046810303,0.16219194,0.049312048,0.10849127,0.01277314,-0.12631278,0.14000477,-0.087749384,0.058572832,-0.028268766,-0.049246818,0.11634832,-0.07862938,-0.09024085,-0.0055797696,0.032280564,-0.107291944,-0.097069025,-0.00039450935,0.059269376,-0.083526306,0.040475853,-0.059431627,-0.13591635,0.05420047,-0.053261478,0.009001485,-0.0952289,-0.04187161,0.057692498,-0.041315533,-0.06372192,-0.15614381,-0.06898556,0.068390645,-0.004958897,0.053742826,0.023325512,0.028928434,-0.0037202819,-0.018654933,-0.023716386,0.088722914,-0.0047253193,0.011064574,-0.11138168,0.08427825,-0.007306798,0.0044575767,0.15974928,0.09964395,0.123580955,0.006168789,-0.069872856,-0.06782012,0.09490484,-0.028034175,-0.028978428,-0.013754689,0.028970754,-0.028925018,-0.054717284,0.03339758,-0.13375278,0.013024098,0.15385905,0.1410969,-0.04511919,-0.10268613,0.023083622,-0.011582118,0.14950152,0.017394692,-0.03782523,-0.066470616,0.01297416,-0.09615329,-0.02550822,-0.0016867333,-0.0012935646,0.034939874,-0.022165908,-0.032946862,-0.06966644,-0.010941404,0.0675368,-0.06748704,0.053228907,-0.021453006,0.009851923,0.10743356,0.030570265,-0.052486923,0.15407914,-0.004511466,0.022472855,-0.05375865,0.070771374,0.021697888,-0.11958035,-0.052768204,-0.04468069,-0.051320374,-0.023743208,0.0644204,-0.11633921,0.132058,-0.07413823,0.016488539,-0.07700594,0.11758589,-0.023653254,-0.03239077,0.11383201,-0.018284243,0.133631,-0.005472573,0.023337694,0.13040422,0.061942346,0.006887404,0.0640874,-0.013501633,-0.01329765,-0.061102465,-0.010911121,0.13099712,0.13725509,-0.045264207,-8.129433e-05,0.014388903,-0.0623326,0.011637557,-0.062128156,0.02614066,0.072370365,0.07165632,-0.0035383145,-0.006584492,-0.018112564,0.039282117,0.09071767,-0.025494846,-0.07891099
7,-0.14369135,-0.049483303,0.0011991918,0.029043628,-0.09946592,0.006111658,-0.05277057,-0.041777954,0.1481438,0.07014845,0.1222837,-0.04947781,0.079596594,-0.0408234,-0.03185609,0.16249485,-0.07062219,-0.1862484,-0.17038393,0.00803704,0.11973177,0.07837194,-0.15397723,-0.014543315,0.014383671,-0.07474147,-0.008095058,0.16202833,0.03535397,-0.09899722,0.09268301,-0.09736181,-0.034644112,0.009987804,0.01574413,-0.05158832,0.08867187,0.014083152,-0.097307004,0.07212658,0.07879027,-0.19961959,-0.16438724,0.07041532,-0.06759699,0.13048767,-0.05944136,0.045511745,-0.028955786,0.07411306,0.008108441,0.070175864,-0.14390405,-0.0103378035,-0.14178264,-0.061979268,-0.10810917,0.0569371,-0.009482944,0.05609881,0.038417663,-0.11635118,-0.10157636,0.15632705,0.10566549,0.019205317,0.0011807238,-0.04998736,-0.08441232,0.07492609,-0.20134966,-0.035769925,-0.059146047,0.009018479,-0.071563765,-0.07328561,0.059032407,0.12351528,-0.027795263,0.022557726,0.14997637,0.15056404,-0.09123053,-0.022167291,0.019752622,-0.014779085,-0.113656364,-0.1000628,0.0079409,-0.05656699,0.0644899,0.12602101,0.0097364,0.102115154,-0.11138432,-0.10537289,-0.0027962304,0.057511985,0.15217935,0.055710062,-0.18998797,0.05050232,-0.05188707,0.1241022,0.008005873,-0.012652102,0.09572237,0.10663379,-0.08232627,0.04859393,-0.026716545,-0.01721296,-0.054280955,0.016387688,0.09444844,0.059588246,0.020643773,0.06911751,-0.06813362,-0.09852973,-0.055294044,0.028459147,0.10931693,0.027267301,0.05109149,-0.1628498,-0.07098564,0.07758777,-0.17119992,0.060522746,0.034405977,0.15729786,0.052155558,-0.06928336,0.05652368,-0.08551405,-0.077269,-0.040262565,-0.08328232,-0.0027652213,-0.0139103895,0.16517237,0.06698899,-0.11409086,-0.060031295,0.09556956,-0.010366316,-0.018069776,-0.07410349,-0.1032346,0.1034381,0.05803978,0.06742537,0.023369793,0.043834798,0.04552902,0.033528272,0.03382746,0.019367538,-0.06635142,-0.041853856,-0.0048862444,0.004161666,0.12484429,-0.14205445,-0.10801663,-0.07892954,0.0007710655,0.14241102,0.14980015,0.012478936,0.07963497,0.005473314,-0.0056577674,0.04133159,-0.10332694,-0.13241684,0.04404346,0.008446677,-0.14267161,-0.20296313,-0.07046862,0.08690728,0.11528892,0.027609522,0.077332765,0.01002178,0.16457652,-0.09931208,0.029935474,0.082016714,0.1450687,-0.007457584,0.13374227,-0.13962598,-0.06575807,-0.05313377,0.079098865,0.012668848,-0.042300627,-0.023470152,0.02816046,0.15974538,-0.034565456,-0.025500106,0.097206205,-0.10366944,0.06702931,0.012856564,-0.17212299,-0.0013265271,0.040140316,-0.044410635,0.033381958,-0.10266473,-0.054710843,0.10538906,-0.0009975407,0.071881495,-0.053541336,-0.01637794,0.00037554407,-0.03299496,-0.10672817,0.08033119,-0.0139786005,0.08792084,0.1458588,-0.09752521,-0.093318254,0.002926527,0.090106055,-0.07238824,0.07273661,0.029694974,-0.11840675,-0.063459925,-0.0736395,-0.03114311,0.12416037,-0.016827827,-0.17809652,0.06589808,-0.02504682,-0.053718157,0.100346684,-0.054412365,-0.05083011,-0.04443908,0.08804969,0.04059135,-0.011839757,0.13907486,-0.02688583,0.043865804,-0.031151982
8,0.060902756,0.061530817,0.052740075,0.033380948,-0.14161688,-0.028605586,0.093524806,-0.045351263,-0.17322728,0.0426551,-0.115428194,-0.0014821186,0.13322592,0.028752517,0.09877093,-0.1380277,-0.10860149,0.022256589,-0.13241439,-0.080766894,-0.13357449,0.03045374,0.11509763,0.045267496,-0.16160093,-0.011456131,0.006598233,0.048080795,-0.10419277,-0.09993052,-0.11032425,-0.0646812,0.06294665,-0.020421004,-0.06278569,-0.088498235,-0.07200435,0.12382426,0.15710504,-0.14389028,-0.10983136,-0.11795533,0.029397428,0.00045301457,0.07525803,-0.015858643,-0.044299718,-0.0006660408,-0.0037184858,-0.06464477,0.039582867,0.032861847,-0.021000588,-0.047664933,-0.21825613,-0.04169799,0.14134829,0.011182311,-0.09620336,0.036525365,-0.014782765,-0.0030769159,-0.2142378,-0.090128936,0.12781669,-0.10034411,-0.033568736,0.032011606,-0.025241967,-0.0076629277,0.022301512,-0.08220759,-0.018769601,-0.0365641,-0.04957029,-0.13035123,-0.13143133,-0.07822035,0.0039837305,0.031600613,0.14538285,-0.06012956,0.031776156,-0.13720065,-0.0979872,0.031529613,0.070230834,0.053960804,-0.0037315385,0.010028598,-0.012486843,-0.028180422,-0.0056038825,0.069056824,-0.025735112,-0.021441089,-0.086096674,0.0068096467,-0.0088905,0.11845651,-0.119778745,0.03047595,-0.100460514,-0.062133633,0.03816031,0.027079353,0.07803795,-0.03761557,0.055577505,-0.14377965,-0.08935053,0.11794651,-0.10949272,-0.07062716,0.018031547,-0.01582969,0.07440345,0.0775056,-0.061581295,0.09217164,0.075223,0.01239472,-0.08557458,-0.13267961,-0.0700194,-0.004629502,0.021587554,0.047902413,-0.22668463,-0.118093506,0.08875668,0.08792276,-0.08449578,-0.12795886,0.0011036218,-0.11788007,-0.112048365,0.04876925,-0.027493455,-0.058480687,0.01530355,0.003187016,-0.08379901,0.106281996,-0.078190915,-0.09719495,-0.15329787,-0.015876086,-0.0016837566,0.031142466,-0.11606729,-0.08799219,0.03950409,-0.09016426,-0.1382678,-0.0970797,-0.15354544,0.041372303,-0.08891363,-0.0014278016,-0.1237601,-0.12806395,-0.15241791,-0.10951742,-0.21282881,-0.073363006,0.08946071,0.028719584,-0.16340217,-0.01173567,-0.10333191,-0.15290996,0.079753675,0.059634935,-0.028254919,0.009832347,-0.13323773,0.042556457,-0.09513177,-0.0068497015,-0.20477176,0.069479965,0.07384924,0.016281318,0.0016067413,0.024045676,0.0038801031,-0.12880893,-0.13278045,-0.099212624,-0.03621501,0.029285928,0.08312821,-0.022146426,0.008781716,0.10970567,0.03165776,0.028539447,-0.009883522,-0.009467771,-0.013792293,0.075708896,-0.028335178,-0.03529911,-0.07087984,-0.04010992,0.056591507,-0.13256381,-0.09088536,-0.13001868,-0.050468136,-0.05350593,-0.09778352,-0.070583515,0.09729579,-0.051226202,-0.10373621,0.064587295,-0.093933426,0.041285414,-0.06328961,-0.049989123,-0.072173655,-0.09918193,-0.06306505,0.040704504,-0.064503014,0.0068129,-0.07106665,-0.054779775,0.013712163,-0.036392346,-0.10156003,-0.09555697,0.06716074,-0.01951276,0.05130791,0.041675113,-0.018009312,-0.07228559,-0.10467686,0.022878626,0.048162848,-0.061677553,-0.18379086,0.05298256,-0.16970965,-0.07197681,0.059394415,-0.16143472,-0.0043957746,-0.023559796,-0.022560386,-0.14458546,-0.024813997,-0.10094113
9,-0.16073483,-0.092628516,-0.0060490607,-0.17130798,-0.1871235,-0.19466922,-0.049565367,-0.16214222,-0.12775555,-0.16323026,-0.0017307481,-0.14954358,0.0016202681,-0.19902502,-0.022950338,0.02514932,0.0003139594,-0.20779668,-0.025306005,-0.060573153,-0.13727266,-0.15226907,-0.13842829,-0.038672976,0.020886248,-0.09213386,-0.12257799,-0.03391285,-0.058618866,-0.1269708,-0.035375703,-0.117034726,-0.09295196,-0.11915036,0.16458642,-0.051617134,-0.035488617,0.25210145,-0.15724541,-0.03125321,-0.07510481,-0.032225236,-0.12545429,-0.06497249,-0.1852807,-0.15594365,-0.14045525,-0.14042597,-0.11862007,0.045330327,0.0018641461,-0.16157982,-0.0074963584,-0.1689842,-0.19771102,-0.13211012,-0.056976,0.033210114,-0.017108934,0.0060737217,-0.05353036,-0.17050911,-0.10040765,-0.05083737,-0.08010193,-0.10238966,-0.06970236,-0.10848349,-0.019182643,-0.12648402,-0.17011854,-0.08878949,-0.05567743,-0.17291379,-0.07894042,-0.18056083,-0.12198133,-0.06293841,-0.1022673,-0.08155995,0.011602105,-0.058237627,-0.07179559,0.03500093,-0.09455502,-0.14563122,-0.12131466,-0.12093711,-0.078941345,-0.034443174,-0.14864945,-0.08109806,-0.15962547,-0.01496552,-0.08880181,-0.06579762,0.03180785,-0.09644469,0.01894797,0.013553962,-0.0067130597,-0.09531383,-0.026942711,-0.12045406,0.015708255,0.02858089,-0.008609291,0.056642484,-0.08025901,-0.09355768,0.017895,-0.06865338,-0.06594273,0.013028626,-0.096888505,-0.1881523,-0.19081272,-0.04360381,-0.08008197,-0.029835945,-0.06498014,-0.1347501,-0.044061627,-0.06346835,-0.016977355,-0.2340978,-0.16673923,-0.09102547,-0.1938146,-0.17462556,-0.012626047,-0.001797661,-0.15239064,-0.050395265,-0.0070247715,-0.072011024,-0.15820707,-0.05239163,-0.12489552,-0.17105086,-0.07828496,0.017401071,-0.08928278,-0.09998868,-0.012362919,0.0038704812,-0.038701765,-0.13903292,0.022826,-0.21436521,-0.031290937,-0.1465914,0.022290893,-0.01627,-0.052484885,-0.15495023,0.024356682,-0.16517122,-0.14331506,-0.03263676,-0.18658935,-0.15366128,-0.106403925,-0.06571667,-0.18037608,-0.06244371,-0.05532333,-0.057911977,0.030153217,-0.10400553,-0.036219086,0.03671432,-0.03487582,-0.18348931,-0.043265853,-0.09608493,-0.077068254,-0.14958677,0.021715757,-0.10362134,-0.23925552,-0.07187348,-0.0069037215,-0.016279334,-0.07901077,0.025375599,-0.13218722,0.018791623,-0.21552496,-0.14838767,-0.1624073,0.015940057,-0.08567177,-0.15828152,-0.096251816,-0.029615093,-0.077912085,-0.15834345,-0.04032915,-0.14888376,-0.13358082,-0.121179506,-0.115268975,-0.14016064,0.01172153,-0.034484584,-0.16938457,-0.08231621,-0.09135465,-0.21713074,-0.13370802,-0.018201225,-0.031849597,-0.15417497,-0.06379364,0.015086528,-0.030346014,-0.013207651,0.009290736,-0.04740247,-0.04030537,-0.17894344,-0.093959086,-0.17798693,-0.03392128,-0.118483886,0.007510434,-0.09042539,-0.045200676,-0.12005742,-0.008603276,-0.007894027,-0.044630688,-0.14099503,-0.17583993,-0.15482114,-0.104693025,-0.085656635,-0.0069395364,-0.09218553,-0.14046572,-0.18126892,-0.036778156,0.027676394,-0.16265634,-0.17018789,-0.05692756,-0.059590977,-0.087012626,-0.08462795,-0.19008663,0.051143743,-0.0357437,-0.16414654,-0.13933337,-0.05897061
10,-0.16288418,-0.110008486,-0.07244518,-0.10609002,-0.14237256,-0.054789253,-0.17921132,-0.13755494,-0.024918154,0.02177477,0.04592032,-0.15769269,0.0004985368,-0.18316813,0.029442806,-0.03694894,-0.007994235,-0.15562081,-0.19457617,-0.10703018,-0.1657605,-0.02108181,-0.01567934,-0.0478773,0.030084657,-0.01694393,0.0058700745,-0.08838674,-0.037159316,-0.12149809,-0.058223683,-0.055740293,-0.033717386,-0.19103348,-0.12045769,-0.030496895,-0.024551673,0.0534615,0.0052660075,-0.04580142,-0.1975838,-0.21811467,-0.13506374,-0.15876034,-0.06012313,-0.06867284,-0.11027076,-0.07145109,-0.1657019,-0.04780337,-0.06626987,0.012971497,-0.16679662,-0.01491687,-0.20132786,-0.0055104517,-0.17414805,-0.08857763,-0.0101985,0.018259212,-0.004705143,-0.16005962,-0.042652555,-0.0042526857,-0.021112714,-0.04792861,-0.011549358,0.01018107,-0.17018825,0.018703477,-0.10573978,-0.037887797,-0.027064385,-0.14043118,-0.08777151,-0.11028407,0.03463859,-0.05394573,0.00035099147,-0.051483873,-0.032634486,-0.004727527,-0.12450304,-0.0838619,-0.21855319,-0.045804985,-0.14626782,0.0093814675,-0.16999853,-0.028213412,-0.029973956,-0.10765224,-0.04087795,-0.104276955,-0.1022387,-0.14353481,0.02243815,-0.15503314,-0.14937867,-0.09333242,-0.21918914,-0.030710608,-0.046160415,-0.024010422,0.022254525,0.009316544,0.019660685,0.0075637503,-0.11097533,-0.059906986,-0.13725616,-0.08157007,-0.11354277,-0.0022935197,-0.11634517,-0.14122829,-0.11903814,-0.03398081,-0.15058705,0.0021508343,-0.12459127,-0.15965708,-0.12735492,-0.0036259615,-0.019013166,-0.04018247,-0.022697782,-0.1509509,-0.10545999,-0.04097779,-0.09616189,-0.15128393,-0.15885937,-0.14121298,0.0010106581,-0.15831436,-0.14827487,-0.016460212,0.002407436,-0.06840184,-0.11268833,-0.16606493,-0.07820399,-0.064245455,-0.06787372,-0.03999383,-0.015847137,-0.088979736,-0.08636971,-0.17431352,-0.1254573,-0.030078836,-0.007825518,-0.111945525,0.007941018,-0.1430758,-0.05510257,-0.0026036445,-0.031586744,-0.04517901,-0.074710175,-0.1215854,-0.112590745,-0.103001654,-0.15053052,-0.18163721,0.019451754,0.0049655144,-0.04601916,-0.02378824,-0.049692634,-0.122021794,-0.15160643,-0.12076928,-0.10670774,-0.19734699,-0.07591435,-0.09582096,-0.0009032587,-0.14540137,-0.101702146,-0.07568042,-0.15787101,0.021307968,-0.18301117,0.008051912,-0.07360345,-0.11449805,-0.026628137,-0.0519763,0.03791314,-0.0022673616,-0.1033999,-0.0038929947,-0.17944852,-0.15428744,-0.19198248,-0.07080532,0.022693304,0.000653338,-0.12135493,-0.13589497,-0.00477338,0.047919407,-0.18654856,-0.10820352,-0.082751475,-0.059556182,-0.11403602,-0.22834016,-0.0018013031,-0.103427224,0.016540958,0.021318486,-0.1493092,-0.04881946,-0.14452378,-0.07936092,0.023299204,-0.15039745,-0.018014269,-0.17867765,-0.061219707,-0.19826698,0.0369936,-0.025388217,-0.049668804,-0.07741527,-0.011984366,-0.15356958,-0.08870416,-0.06825856,-0.08788539,-0.16204019,-0.036140762,-0.16559337,-0.12026755,-0.08099687,-0.034174535,0.036127456,-0.08998052,-0.15209062,-0.06610121,-0.010927924,-0.12466387,-0.1282938,-0.07626615,-0.1856726,-0.06431249,-0.12244872,-0.12492453,-0.103090204,-0.018031986,-0.06736957,-0.031208782,-0.21824628
11,-0.12569407,-0.050676603,-0.11474622,-0.10174016,-0.026827984,-0.15365745,0.009742132,-0.019437501,-0.0099377725,0.15900937,-0.0057025696,-0.108512394,-0.07314978,-0.033319566,-0.072887234,0.14006189,-0.05916781,-0.1141576,-0.06193581,-0.13789669,-0.12825893,0.035174537,-0.05169576,-0.011234927,0.104455434,-0.11969235,0.14280638,0.0063317553,0.05085842,0.00023289213,0.063589066,-0.14642824,0.053975485,0.025247736,0.05287086,-0.020853275,0.114416696,-0.002407273,0.08569544,0.089289226,-0.011819152,-0.21139608,0.008062352,0.07327663,0.04673426,-0.034506943,-0.05971406,0.057469405,0.030041179,0.089239,-0.0055250768,-0.018240914,-0.15213299,0.0031700097,-0.07252343,0.041866302,-0.028255144,-0.008956969,0.04736378,-0.12846261,-0.0023818132,-0.14419866,-0.20357674,0.109287344,-0.027485082,-0.009219347,-0.12130622,0.114524476,-0.060630154,0.11641914,-0.09150899,-0.1579972,0.022894116,-0.05719353,-0.058705445,0.004506516,0.09724873,0.013294809,-0.089922294,-0.0028407346,0.032147806,0.13572706,-0.14959843,0.011048338,-0.19272073,0.04817215,-0.14056379,-0.112899885,0.026828187,-0.005042396,-0.10206368,-0.034321606,0.098836355,-0.03864457,-0.094819546,0.012712282,0.08889637,0.08797899,0.112574995,-0.06139288,-0.17763953,-0.13478541,-0.013300871,-0.030983172,-0.0044183293,0.060994092,-0.04020597,0.020839607,-0.05007174,0.034532517,0.09149598,-0.09250732,-0.15961131,0.090605766,0.04216932,-0.016699674,-0.16496523,-0.05385883,-0.07712649,-0.055099018,-0.11195153,0.05316951,0.06393895,0.083142005,0.0105190305,-0.13835438,-0.15576065,0.07212847,-0.07038334,-0.028812045,-0.06624723,-0.037660237,-0.038230617,-0.059172984,-0.059704434,-0.06867966,-0.035505813,-0.026462056,-0.037016883,-0.064319454,0.04789811,-0.07228481,0.113937765,-0.00799353,-0.1203009,0.0056067016,0.15567774,0.012384838,-0.07549925,0.046674658,-0.03210252,-0.06714344,-0.0027299644,-0.074476704,-0.031395063,-0.02060825,0.03808526,0.011955833,-0.070077516,-0.045828823,-0.04958575,-0.02629859,0.11757115,0.038023133,-0.055939514,-0.18034597,-0.08151542,0.06325029,-0.03812168,0.15264995,-0.09241344,0.1375515,0.014608318,-0.14106177,-0.057770073,-0.071278304,0.053671014,0.14917745,-0.047075436,-0.006718511,-0.05615085,0.022904199,-0.09320307,0.08198213,-0.20108433,0.037234414,-0.005964554,0.014690243,-0.17136198,0.13552208,0.093252435,-0.0339347,-0.085855186,0.07648033,-0.0718662,-0.098213255,-0.084169075,0.059618797,-0.079014234,-0.07678076,-0.022143641,-0.04459073,-0.051309247,-0.03554721,-0.0032920872,0.11200965,-0.13267408,0.16172132,-0.013297078,-0.18277845,-0.0004730459,-0.1877054,0.059070144,-0.0027314567,-0.06431083,0.032894045,0.017179795,-0.018675556,-0.024066718,-0.009989674,-0.002994751,-0.189827,-0.043440808,-0.06829324,0.16092072,0.017133959,-0.016882947,0.14267184,0.01599424,-0.09408483,-0.033129983,-0.15008798,-0.0013832529,-0.15435039,-0.09033417,-0.12459469,-0.13585973,0.042312894,0.017840259,-0.029651849,-0.12932125,-0.1647714,0.0059338966,-0.10240757,-0.1295524,-0.11101184,-0.04006537,-0.004456962,-0.11073331,-0.014850149,-0.044066552,-0.035515502,0.0053722756,0.14445007,0.0905156,-0.05822235
12,0.055535898,0.017940281,-0.09124618,0.053401962,-0.13521934,-0.043945488,-0.010251322,-0.15933952,0.036673266,0.01851418,0.01842405,-0.12376131,-0.048161454,-0.0989571,0.0025967727,0.025175763,-0.14949323,-0.050609324,-0.119447365,-0.1654074,0.024125496,0.14933993,-0.053039555,-0.1482153,0.07964145,0.007473315,-0.03861052,0.13940577,0.060994815,-0.06460212,-0.049567178,-0.16625635,-0.14786258,0.05444685,0.12578012,-0.07872206,0.16678578,-0.17599554,-0.09186679,-0.03425139,-0.057935372,-0.0816104,-0.014502214,-0.0021283617,0.068138674,0.04703862,-0.15274283,0.012469688,0.0022243925,0.01625176,0.0598074,0.13522372,-0.020275485,-0.08430115,-0.11443796,-0.026544869,-0.06285628,-0.03465699,-0.038534623,-0.036501974,-0.008327922,-0.044403855,-0.03992819,0.0011599192,0.029408889,-0.026385956,-0.08417402,-0.062875584,-0.0046719466,0.14229742,-0.1579667,0.049627423,-0.017933285,0.035553116,0.016246442,-0.07198466,0.13655204,0.09158518,0.029378552,-0.03112293,-0.016186789,-0.12793872,-0.16178556,0.059705365,-0.096140675,-0.078474514,-0.016728116,-0.0925514,-0.14778417,0.031772092,0.012294747,0.1381344,0.030403683,-0.01623222,-0.09877163,-0.1286744,-0.037594106,-0.03377355,0.11751165,0.019110128,0.05952283,-0.03824507,-0.015008474,0.0678899,-0.10315857,-0.02079156,-0.044081934,-0.16069071,-0.07434684,0.11383334,0.095828466,-0.072639704,-0.081446506,-0.01911978,-0.016826551,0.0126927635,-0.019913947,0.040259898,-0.1539068,-0.12119697,0.021693766,-0.07136772,-0.019138379,-0.07615945,-0.08947411,-0.1797884,-0.14522116,0.09252733,-0.033335563,-0.1161066,-0.08057642,0.0019887832,-0.05296893,-0.040529486,-0.1291202,0.044409055,-0.13214087,-0.07254747,-0.14282921,-0.04459908,-0.15272227,0.10280923,0.023241196,-0.15607785,-0.12210112,0.02686597,0.021291718,-0.0053075855,0.013622968,-0.06263477,-0.07118734,-0.088512614,-0.07861158,0.0077102734,-0.042848203,0.10088325,-0.024097266,0.016214656,-0.016944889,-0.111788034,-0.035106163,0.059334684,0.14272457,0.058659837,-0.14541337,-0.09467708,0.040677033,0.011688364,0.11918522,0.13942167,-0.13884917,-0.022482574,-0.0705975,-0.059734672,-0.08345563,-0.121886216,0.040195864,-0.126467,-0.034152564,-0.05044365,-0.020681102,-0.088179246,0.052746754,-0.038134694,-0.09122825,-0.11903039,-0.11980052,0.053136617,-0.08065143,-0.09954938,0.057664867,0.026016384,-0.074525304,0.06336048,-0.10006996,-0.07772753,-0.13192198,0.14898829,-0.13284099,-0.0010519093,0.05076299,-0.068397306,0.1073952,0.06208178,0.008177577,-0.030880956,-0.084466316,0.06472931,-0.08804845,-0.102156565,-0.054948106,0.032452166,-0.03062098,0.06635951,-0.15084068,-0.086821,-0.0119140595,-0.0485562,0.09215263,-0.10901278,0.078245595,0.0014072942,0.04912586,-0.08289607,0.15510026,0.08070865,0.07523149,-0.0458924,0.017144375,-0.11288836,-0.010260208,0.033078246,-0.13812655,-0.08856544,0.056364514,0.011056138,0.06292374,-0.009151658,0.02233817,-0.012398469,-0.08258938,-0.017786866,-0.10626847,0.042726886,0.0044086296,0.052655417,0.0040661218,-0.057420623,-0.024779383,0.0024657003,-0.064258546,0.04354057,0.023922296,0.04620766,-0.1357115,-0.14103606
13,-0.14740399,-0.11220413,0.17278303,0.07287193,-0.06895073,0.07183192,-0.013338217,-0.11219164,-0.00913949,0.016041774,-0.11493531,-0.09146943,0.11153284,0.015988255,-0.02736676,0.038850583,-0.10359322,-0.017621044,0.005207023,-0.012535751,0.031878106,0.011706712,-0.019423295,-0.13556491,0.11889355,0.015373839,-0.15023115,-0.16485192,-0.08028431,-0.026352879,-0.008964978,0.039968826,0.048556264,-0.10868251,-0.14026092,0.026929999,-0.027793493,-0.027438834,0.16066231,0.12744784,0.05805145,-0.08931095,-0.057594318,-0.018441884,0.06738752,0.016083442,-0.011485342,-0.003676825,0.1296185,0.00073518115,-0.10496829,-0.11629414,0.0422348,-0.06594901,0.10977961,0.1779084,0.07327033,0.039987568,-0.04616793,0.12857553,-0.050264563,0.08431342,-0.09248315,-0.028428325,0.04061304,0.089424804,0.07063178,-0.024079816,-0.094192006,0.037094813,-0.029003285,0.013559016,-0.033455804,-0.013595779,0.14070904,0.024929032,-0.10184312,-0.142568,0.04404812,0.108281866,0.12363402,-0.07690697,0.02587177,0.23843752,0.039934393,0.027527826,0.020277735,0.037583347,0.041515324,-0.14612518,0.098308034,-0.08937381,-0.03151278,-0.04391358,-0.06572854,-0.04816117,-0.0047894255,-0.12302984,0.0131462235,0.1432089,-0.122232735,-0.03693186,-0.07383137,0.07428058,-0.14334385,-0.0050733457,0.08956661,0.16810164,0.107907265,0.08374956,0.006689387,0.12086439,-0.14152916,-0.14353776,0.04208161,-0.114372544,-0.065320015,-0.076870784,0.16728617,0.022545353,0.08427633,0.048351288,-0.12566814,0.14873391,0.00888778,-0.04047082,-0.00885613,0.09273633,-0.10568726,0.10318142,-0.010626173,0.043986183,-0.072106004,-0.09309284,-0.0012695125,0.004200104,0.0060873535,0.083139375,0.14016686,-0.03359024,0.0024623673,-0.08346541,-0.080760576,0.12201636,0.011073503,0.025381539,-0.036528956,-0.015614029,-0.060120903,0.008959249,-0.046807703,-0.02192281,0.059250027,-0.1375171,-0.10914317,-0.04662789,0.1448215,0.01702372,-0.15935628,-0.0072241183,0.016292272,-0.034072664,-0.019557593,-0.055413026,0.07674089,-0.0010757467,0.037251923,-0.004326065,0.008522923,-0.16101778,-0.12254096,-0.13258575,-0.009904297,-0.031257316,-0.0032713795,0.048214745,0.076596804,0.10132207,-0.033331014,-0.004968967,-0.081133164,0.0075471927,0.026489494,0.03347674,-0.015959918,0.004333152,0.12868515,-0.055658054,0.051472235,-0.09645256,-0.09309292,-0.00071521866,0.07395133,-0.17488141,0.07304358,0.038688693,-0.110222675,0.0062474883,0.06620838,-0.023966055,0.011296219,0.04660448,-0.014120287,-0.011895482,-0.13393469,-0.06911602,-0.08301089,-0.09066336,0.020660283,0.03725125,0.08780674,0.040038753,-0.01335287,0.032718536,0.10483297,0.05100071,0.12853551,0.10924004,-0.0903989,-0.10303846,-0.056974996,-0.12469058,-0.14842196,-0.03380153,-0.12162421,0.1043924,-0.03543531,-0.0009938119,0.054760404,-0.071459346,-0.2507075,0.027149836,-0.06881635,0.026272051,0.056585066,0.1026784,-0.034274157,0.11660785,-0.028991962,-0.12601052,0.029554348,-0.037343357,-0.09528113,-0.052351367,-0.13227266,-0.039795548,-0.19271033,0.09912895,0.097386315,-0.09414813,0.10131221,-0.026652774,-0.050905954,-0.060403824,0.058089964,0.03783604
14,-0.13940173,-0.026565995,0.00030954817,-0.14366347,-0.04416012,-0.09731747,-0.03286465,-0.16511588,-0.037365574,-0.049348895,0.0022132713,0.009882382,-0.12320277,-0.15114456,-0.10204803,-0.051418334,-0.05852779,-0.049847983,-0.19354539,-0.10461863,-0.047822427,-0.011027608,0.036845386,-0.11580789,0.10446942,-0.080587745,0.069835484,0.12446152,0.1436446,-0.0765522,-0.016819917,-0.036953963,-0.06604238,-0.048199795,0.05581539,-0.012820651,0.031723283,-0.5213858,0.04508297,0.004889138,-0.1621971,-0.044860624,-0.113027155,-0.12969954,0.014763607,0.027483568,-0.04529779,0.08892163,-0.061163027,-0.053699423,0.07564847,-0.07859901,-0.02662643,-0.09158429,-0.14587215,0.018177222,-0.08097738,-0.020487335,-0.14775932,-0.1481443,0.044365358,-0.08158275,-0.014761313,-0.018867554,-0.003483146,-0.028021978,-0.022631938,-0.07438665,-0.0058286926,-0.021594172,-0.059855837,0.008038253,-0.022564042,-0.15260799,-0.01042736,-0.12214587,-0.0058491193,0.14701404,-0.016051356,-0.036705747,-0.1599826,-0.06848245,-0.038050264,0.08995747,-0.06602502,0.04482347,-0.013237189,-0.08373566,-0.15129156,-0.021997029,0.038780678,0.010747492,0.04378244,-0.17310415,-0.045744956,-0.08814241,0.10019105,0.055312112,0.13737142,0.030056909,-0.08566645,0.05849162,-0.13857798,0.033174533,-0.11839829,0.002598186,-0.024366936,0.034357898,-0.12642647,-0.07813061,0.044007532,-0.13319902,-0.05237417,-0.04175985,0.099850185,-0.03212642,-0.0337621,-0.012174706,0.011202837,-0.059376776,-0.010124966,-0.06992841,0.094678074,-0.022519456,0.01629891,-0.04662821,-0.09210928,-0.057575796,-0.11951566,0.025091698,-0.12628339,0.037329275,-0.06505091,-0.03959582,-0.0004630794,-0.08131609,-0.15394916,-0.07449723,-0.13029738,-0.0014256771,0.012797307,-0.021951316,-0.021849032,-0.10154264,-0.11971517,0.01059554,0.015769264,-0.17943886,-0.03714412,0.015765678,0.07757968,-0.055509962,-0.10259978,-0.12715253,0.015154128,-0.13760214,-0.05308412,-0.1659778,-0.14136164,-0.02946254,-0.06621634,0.07887634,0.0636884,0.1427506,-0.11253551,-0.1493972,-0.09037838,-0.07341146,-0.024100637,-0.16542888,-0.15309346,0.15906435,-0.0903271,0.011974864,-0.042598896,-0.07005752,-0.087166004,-0.065147854,0.07364508,-0.03610648,-0.07213035,-0.12886916,0.045247708,0.105927974,0.028638406,-0.12457568,-0.15694307,0.088535644,-0.06393437,0.16517177,0.017142646,-0.043487873,-0.19284354,-0.08364602,-0.14297317,-0.086270556,0.026689861,0.004521059,-0.15116565,-0.05971683,-0.06778294,-0.053416476,-0.09286044,0.14239672,-0.08347002,-0.018101541,-0.01728032,-0.040290084,0.02728522,0.056072943,-0.06620779,-0.030467343,-0.08713848,-0.16749324,-0.15276322,-0.03943445,-0.015027589,-0.07564245,0.1330303,-0.13092625,-0.11011758,-0.090247706,-0.1464879,-0.013573102,0.12860577,-0.06795437,-0.13210982,0.012864195,-0.0075619137,-0.0074210158,-0.017135264,0.011125004,-0.02200169,-0.006351362,-0.13761184,-0.033030096,-0.047428265,0.026426377,-0.038012147,0.14640711,0.020848539,-0.05476486,-0.1359737,-0.062494732,-0.048523437,-0.095191635,-0.15772882,0.010965757,-0.11212649,0.11946268,-0.040872686,-0.029098012,-0.10431389,0.036404368,-0.09970029,-0.05218333
15,0.021325288,-0.17425604,0.0115841795,-0.038851738,-0.15037936,-0.1516976,-0.10127095,-0.17812687,0.041433774,-0.053575367,-0.009399331,-0.025498688,-0.122648165,-0.012968423,-0.13155709,-0.023280766,-0.028448038,-0.22067197,-0.25739023,-0.038757835,-0.074282885,0.015874648,-0.16024372,-0.124586664,-0.13191678,-0.10572614,-0.15644395,-0.10988334,-0.14915267,-0.08917178,-0.1307856,0.012463032,-0.17420861,-0.16406335,-0.11638179,-0.101571,-0.01172438,-0.049563438,-0.15065585,-0.05582656,-0.17471582,-0.058398552,-0.10877096,-0.0646627,-0.0014801031,-0.01708989,0.029591715,0.019097982,-0.11262021,-0.12704864,0.038267724,-0.0043144627,-0.06999597,-0.07897136,-0.0939924,-0.07349306,0.018696694,0.009638755,0.03546678,-0.03991188,-0.16616459,0.03258955,-0.27710998,-0.0986026,-0.11710145,0.0012656609,-0.15092622,0.017117167,-0.03162356,-0.1433385,-0.13976364,-0.1006421,-0.009453131,0.025758613,-0.0256509,-0.0429941,-0.13176644,-0.061829966,-0.109440684,-0.06618219,-0.18863715,-0.008940574,-0.10467872,-0.06692873,-0.17579459,-0.13753787,-0.16277938,-0.069892675,-0.0069773025,-0.12483088,-0.0843402,-0.027298646,-0.05700728,0.013351878,0.03647312,-0.15789008,-0.12849241,-0.009313333,-0.020391872,-0.082769886,-0.093576394,-0.10870824,-0.13787685,-0.07532111,-0.08372657,-0.094042294,-0.0838232,-0.030762244,-0.14718196,0.016839767,0.042227317,-0.15270625,-0.07635003,-0.008138302,-0.16404578,-0.1263136,-0.12677683,0.002190244,-0.034890883,0.027000485,-0.010972312,-0.09541717,-0.10686656,0.032119107,-0.010582418,-0.18840362,-0.10036374,0.017096432,-0.0043282406,-0.0535832,-0.0943382,-0.07782832,-0.1327382,-0.07325334,-0.17532544,-0.17040826,-0.17260236,-0.008824027,-0.05006101,-0.15784523,0.011844522,-0.019175844,-0.050568536,-0.05348746,-0.17548613,0.025154004,-0.060915504,-0.17256781,0.0023675994,-0.0955053,-0.004337598,0.0149377845,-0.02130715,-0.1504583,-0.12385419,0.011853419,-0.1662781,-0.1587476,0.0009205145,-0.0052567096,-0.004246188,-0.17189594,0.03100859,0.009662586,0.019703366,-0.12872809,0.019986702,0.0070559513,-0.0034946685,-0.018638652,-0.072230056,0.031575177,-0.12181192,-0.19434984,0.02476919,-0.094965875,-0.05417967,-0.0925602,-0.09303573,-0.106736615,-0.05697971,-0.056639787,-0.074963905,-0.039876096,0.027535452,-0.034754615,-0.010059995,-0.083134346,-0.05314489,-0.084744945,0.04357662,-0.0967533,-0.12890372,0.016640138,-0.15892243,-0.065270126,-0.101721294,0.03539793,0.025814006,-0.15819216,-0.10440755,-0.07053506,-0.03684168,-0.11263272,-0.081097774,-0.050374016,-0.18623361,-0.11206855,-0.11834212,-0.245393,-0.13431187,-0.013797619,-0.04250025,0.010976582,-0.01581796,-0.042232905,-0.08106014,-0.0384057,0.023164261,-0.1701005,-0.009246451,-0.060693853,-0.13005908,-0.004895791,0.0051666764,-0.08166024,0.020890282,-0.09759706,-0.046852376,-0.095979966,-0.16592912,-0.00858565,0.024909282,-0.027820783,-0.16821505,-0.14614177,-0.1388174,-0.16454372,-0.082473814,-0.10929304,-0.09714259,-0.032168034,0.005825638,-0.0036079895,-0.13681436,-0.111539334,-0.11669208,-0.050516833,-0.13925438,-0.12089227,-0.019565705,0.033699322,0.00596219,-0.14501338,0.005181049,-0.029820213
16,-0.08649687,-0.009737336,0.051613618,0.066876054,-0.034853764,-0.15959752,-0.123908095,-0.09594876,0.106762305,0.1558213,0.028032817,-0.1250081,-0.0005692272,-0.009967866,0.068740316,-0.042402115,-0.082333714,0.10122135,-0.21293879,-0.16380472,-0.09991037,-0.017725883,-0.091974564,-0.16537605,0.08925743,0.029327469,0.03012759,0.030565625,0.07775445,0.009266171,0.06851478,-0.0046804147,0.06498089,-0.04894142,0.100245886,-0.011914411,-0.019387413,0.07994086,0.0632676,0.07511712,-0.00075493543,-0.06706825,0.0054689925,0.0035135064,-0.106812164,0.071658015,-0.035155177,0.15359034,-0.1284106,-0.027499123,0.009704957,-0.030455237,-0.03209718,0.004977823,0.045103278,-0.0065500713,-0.13832399,-0.01969328,-0.13009134,-0.09483653,0.085400075,-0.00806471,-0.1485575,0.09177377,0.009408643,0.030455325,0.015499031,0.085463725,-0.065543,0.14037506,-0.09171317,-0.16237831,0.007984123,0.046268582,0.019813808,-0.039505634,-0.03152385,0.02453396,-0.1796308,0.025868744,0.10292534,0.12589653,-0.06776728,0.0077971183,-0.106831595,-0.01282895,-0.043777004,-0.14377432,-0.07971239,-0.041780464,0.0025693062,0.08500963,0.04214596,0.03524474,-0.0059335213,0.07072429,0.13553202,0.119416535,0.08889233,0.027571522,-0.14428237,-0.068212725,-0.12861982,0.05865471,0.078353405,0.07218487,0.01879791,-0.053899135,-0.12821114,0.10069129,0.13406819,-0.06975595,-0.06880539,0.10717,0.11124376,0.06751441,-0.05277759,-0.122376695,0.1911139,-0.12321669,-0.090284504,-0.097552665,0.08822949,0.15989858,-0.024779687,-0.029977834,-0.089818925,-0.016678803,-0.054649673,-0.13022327,-0.13760585,0.051402397,-0.02776465,-0.16737917,-0.054266304,0.0025531221,0.062387764,-0.1424847,-0.074273296,0.0028698992,-0.026038717,0.11321599,0.14672627,-0.091953136,-0.16973527,-0.1475439,0.16584055,-0.07130349,-0.06129338,0.113154694,0.034621824,-0.09931143,-0.09309817,-0.048013452,0.06160289,0.025675423,0.097939506,-0.04809508,0.07007695,-0.09665387,-0.16354933,-0.047571372,0.027397064,-0.03632682,-0.09983288,-0.038220674,-0.1343712,-0.043854717,0.15702881,0.06499175,-0.115837045,-0.03584394,-0.058644492,0.013868943,0.003949509,-0.08512682,0.070700094,0.15951435,0.011983751,0.019979961,-0.043794036,-0.037951812,-0.10218814,-0.033975553,-0.15303919,-0.11311962,-0.10481961,0.15429132,-0.01015497,0.039064936,-0.014551945,0.06964736,0.016184397,-0.029520143,-0.13939245,-0.034101713,-0.12596393,0.056910455,-0.03855991,-0.09323522,-0.006185645,-0.01761532,0.13839392,0.11150261,-0.051086828,0.120004885,-0.16700177,0.12590504,-0.040193647,0.06612995,0.04309062,-0.14526159,-0.2971393,0.029689172,0.055268697,-0.11856756,-0.052704114,-0.007974802,0.08999194,-0.119917355,0.034728553,0.000418127,-0.023875836,-0.009786525,0.041935895,-0.045366522,0.052124064,0.10697027,0.012378956,-0.15020788,0.11354759,-0.0013012635,0.038881004,-0.016995631,-0.15369576,0.05898698,-0.13704492,0.009649316,0.020620042,0.08475675,-0.09397926,-0.14876917,0.011564273,-0.044167522,0.24786009,0.026789375,-0.20876694,0.052335706,-0.06607875,0.13927865,-0.053546704,-0.0072635664,0.025586015,0.08510736,0.1034374,-0.008587028
17,0.0569765,0.06913525,0.06314551,-0.047696248,0.003409974,0.0416662,-0.010493849,0.1414621,0.024837682,-0.066164315,-0.08642648,-0.039458122,0.108589835,0.025903454,0.085840344,-0.09631977,-0.03398656,-0.040893685,-0.12536384,-0.012868498,0.095258646,-0.14327794,0.10413791,-0.22740024,0.047045406,0.14287725,-0.16028541,-0.003447809,0.004351452,-0.03811579,-0.070684694,0.16276047,-0.15075806,0.10285263,-0.14541239,0.016852938,-0.12948866,-0.36468884,-0.14579587,-0.027814081,0.0056768837,-0.026750404,0.05350117,-0.094604,0.09829173,-0.14978015,-0.03764009,-0.15066022,0.010079671,-0.02472562,0.03262369,-0.07035913,-0.010071827,0.07633412,0.12721612,0.008168337,0.027985306,-0.0327019,0.059293922,0.004180167,0.0059439605,0.061729666,-0.3052066,0.027434075,-0.09091294,-0.011288489,0.020068469,-0.026363183,0.0459323,-0.13931993,-0.11473167,0.032149006,0.058547456,0.1450732,-0.029022532,0.084168084,-0.081908904,-0.15401182,0.105949685,0.023108186,-0.07841312,0.029843139,-0.041114397,0.057049483,-0.046365175,-0.0111298775,0.05886285,-0.0243808,0.061025977,-0.014488973,0.056789998,0.006989442,-0.15130569,0.1093707,0.004716308,0.11988756,0.0025448427,0.022656899,-0.112870574,-0.048706014,-0.031189516,-0.04787741,0.008650033,0.041396186,0.08950707,-0.008237775,0.066000685,-0.056431737,-0.073113285,0.07023571,0.010983861,0.008608346,-0.043343585,-0.06870029,-0.15251455,-0.0058096256,-0.05751688,-0.04162053,0.15495525,-0.023521598,-0.028544875,0.06273482,0.034173973,-0.056754626,0.0760723,0.0036385092,-0.016014718,-0.06868415,0.07490286,-0.025002485,0.017373346,-0.07216531,0.0047804136,-0.007251302,0.08616648,0.13367464,-0.017254904,0.07559804,0.093393125,0.082271814,0.061121915,-0.0921778,0.015471015,0.09004848,0.14280002,0.07691114,-0.0031812603,-0.037803486,0.040984686,-0.071040876,-0.08524217,0.09825888,-0.043557093,-0.0023625519,-0.1471841,0.023091562,-0.14416233,0.07368315,0.058323573,0.015233195,-0.018848352,-0.12512365,-0.15740165,-0.0531178,0.010220027,0.11070217,0.08433391,0.019696103,-0.05599236,0.02789728,0.061745096,0.010457777,-0.034948297,0.2045416,0.16010393,0.048814476,0.02684384,-0.066410705,-0.08796799,0.16400532,-0.102456406,-0.023688667,0.08386068,-0.036454644,0.083680384,-0.044038925,0.01718177,-0.04706435,-0.07724396,-0.08139665,-0.10942145,-0.1311359,0.09728679,0.0367732,0.08533916,-0.021810766,0.112744495,-0.019124676,0.10926453,0.03716239,0.10853408,0.027763017,0.031649612,-0.062004764,0.016695937,-0.10593741,0.080255106,-0.07648301,0.09449824,-0.032608066,0.08532256,0.11755835,-0.3689611,0.105498195,0.056627985,0.123641595,-0.04757346,-0.0145333195,-0.145041,-0.05533741,-0.063878074,0.06717418,0.013018809,-0.007881792,-0.051656183,-0.07387716,-0.10541899,-0.14829125,0.074331515,-0.034419697,0.0005260603,-0.017208429,0.08061032,0.025048345,0.12610804,0.04473505,-0.046466243,0.118777595,-0.13926725,-0.0039791907,0.11467697,0.08387291,-0.053395826,-0.037152283,0.36508912,0.026239526,-0.13075964,0.13636442,0.12876998,-0.017571263,0.04249148,-0.022865659,-0.049942054,-0.051274832,-0.06551649,0.0026875888
18,0.07902876,0.05343069,-0.054336436,0.09877493,0.15434001,0.04294621,0.14573658,0.036891177,0.15948549,-0.0051305923,0.036359265,-0.035356622,0.16898298,0.15245624,0.0090107,0.023762014,0.05132577,-0.1451165,-0.068212666,-0.010291718,0.16429931,0.15493543,-0.10375474,0.08118827,-0.14779338,0.041920125,0.021594409,-0.008786188,-0.13239408,-0.08941449,0.03866306,0.08813881,0.002590837,0.01795903,0.085850075,0.0045073885,0.0042902427,-0.16036181,0.13240221,0.14472592,0.049173247,0.037651088,-0.005818379,0.061369136,0.014158362,0.041062355,-0.13364418,-0.13297161,0.016151818,-0.12771143,-0.04128534,0.21199822,0.069821976,0.0337264,-0.01734239,-0.16079344,-0.059022125,-0.03808228,-0.006654816,0.03152735,0.010297636,-0.043322966,0.07767938,-0.092973374,-0.13770226,0.040464625,-0.08643139,0.05150828,0.056126837,0.05677779,-0.08959624,0.10080429,0.10332275,-0.03897643,-0.033980682,0.06404587,0.009658625,0.08055034,0.09483025,0.029530415,-0.13612062,-0.013170673,0.01412438,-0.1939055,0.1102384,-0.011030532,0.039291438,0.21421489,0.13826565,0.032219786,-0.026978344,-0.14934285,-0.0065607647,0.003139574,-0.0426156,-0.19596371,-0.09903805,0.07947071,0.10012533,0.10604804,0.15810545,0.110531956,0.022698319,-0.13271423,0.1913883,0.12613326,0.1833246,0.12216941,0.05803286,-0.029252222,0.13359608,0.01509511,-0.02189968,0.018583214,0.13231406,-0.05593761,0.17260541,0.13989246,-0.17677785,0.0010728188,-0.017017318,0.14077824,0.09463028,0.032007862,0.014687005,0.06897511,0.15353918,0.10505625,-0.22257344,0.059709497,-0.05426928,0.039515894,0.08624681,0.05352493,0.11358705,0.0055379756,0.044393964,-0.0033568097,0.011978947,0.1295276,-0.05253533,0.0023193643,0.027610222,-0.017218174,-0.023186907,0.035182595,0.041910846,0.12427538,0.0006721727,-0.28807655,0.16691282,0.19225226,0.14117964,0.19435723,0.14226095,-0.017234445,0.03622761,0.021144927,0.2268017,-0.03281489,-0.0086127985,0.15962212,-0.0071058637,0.04602528,-0.10159924,-0.02800619,0.023278868,0.019994665,0.022551104,0.035602234,0.14840265,-0.14652511,0.13272394,-0.2641938,-0.16297676,-0.09539064,-0.03408745,-0.019756552,0.06779533,0.0754732,0.024161778,0.063752234,0.08872722,0.03127726,0.18074214,0.1607338,0.12852599,0.12806271,0.0899393,-0.022305155,0.14040703,0.038813908,-0.011652898,-0.0071241315,0.122207426,0.14137642,0.095984966,0.018037194,-0.011011746,0.08111104,-0.070769034,-0.054113984,0.1333047,0.028584734,0.19188057,-0.09683395,0.0040631853,0.032518726,0.055710774,-0.32702523,-0.016985675,0.23454304,0.035228305,0.065472454,0.11783108,0.11635816,0.07853438,0.14712295,0.124972016,-0.05450118,0.03700461,0.18157567,0.111353956,0.04320692,0.038880154,-0.28173214,-0.059637237,0.14212725,0.11112331,0.072198674,0.15223655,0.23126413,0.059777703,0.03688033,0.06600017,0.11408911,0.0014157154,0.0012992304,-0.055756576,0.11087395,0.059978258,0.012055876,0.04414792,0.032858282,-0.17428948,-0.00176849,0.0043831132,0.13580187,0.09265709,0.02757275,0.16449471,0.12708086,0.008823982,-0.04404543,-0.077140644,0.08689916
19,-0.037845947,-0.05280049,-0.06975136,-0.023132784,0.046394385,0.0738283,0.043683253,-0.078747824,-0.012026956,0.08306914,0.119178265,-0.045013856,-0.07108661,0.091183245,-0.03248461,0.0062422957,-0.11985611,-0.062191296,-0.09531707,-0.14112157,0.07664025,-0.011162537,-0.09553434,-0.14534134,0.090927154,0.007584538,-0.023955205,0.050867096,-0.030647993,-0.012129963,0.0024546047,0.023028605,-0.0012152791,-0.070009425,0.025411986,0.04022978,0.12170921,-0.14214319,-0.0342409,-0.0045770216,0.032678355,-0.1199848,0.04085649,-0.108954,0.04969737,-0.01954935,-0.005357023,0.1415774,-0.013753009,0.05874599,-0.037939783,0.14184025,-0.0052579674,-0.0057642777,0.0011843019,-0.08686352,-0.016435785,0.0121536115,-0.11556917,-0.053279888,-0.018535292,0.06391012,-0.21894062,0.15208936,-0.15468891,0.055033512,-0.022599213,0.06674566,0.0124280965,0.009064758,-0.09487003,0.026483709,0.040384024,0.0023535253,-0.12710069,0.0010138804,0.15132955,0.041579615,0.019064086,-0.024975764,-0.15735714,0.09176702,-0.010766707,0.16711129,-0.15089881,0.020909242,-0.098026894,0.043207377,-0.01712188,-0.0025450534,0.045144722,0.028062202,-0.015809916,0.06894796,-0.097694814,-0.056809165,-0.01685756,0.09818355,0.06154185,0.005242834,0.06469983,-0.07025146,0.0025479912,-0.038400594,0.033222944,0.06254562,-0.124709316,-0.09594775,0.03153719,0.0112296585,0.05449762,-0.098058105,-0.061288197,0.113562256,0.13220792,0.084204406,-0.11450647,0.01823811,-0.032924324,0.027708322,-0.032655172,0.052260257,0.12033422,0.1557469,-0.054961935,-0.069260046,-0.15776448,0.12796462,-0.05886935,-0.035762936,-0.10027407,-0.034777027,-0.04255167,-0.0083973305,-0.10253559,-0.118507504,-0.033963956,-0.12321203,0.0037859979,0.052201066,0.017623423,0.07390271,0.020655863,-0.12899898,0.009648745,-0.0024229684,0.0025739418,-0.13950887,-0.028262418,-0.10638815,0.13344319,-0.10593495,0.023296764,0.038288835,-0.034013435,0.1387735,-0.022987422,0.024144951,0.0076098163,-0.09345081,0.08264099,0.02862039,0.011298409,0.008765352,-0.060595743,0.006661955,-0.0724483,-0.031564925,0.11044246,0.155333,-0.010142025,0.0485546,-0.12769797,0.15782839,-0.095554195,-0.07366444,-0.008667668,-0.027823182,0.1546931,-0.08255302,-0.12357687,0.069209434,-0.11925342,0.0341849,-0.04813689,0.025674922,-0.07353949,-0.028679736,0.04701184,0.12830842,0.003806088,0.04393746,-0.00715309,0.14749007,-0.08687043,-0.066012874,-0.008303381,0.10350447,-0.14320834,0.03650503,0.048966005,-0.031849734,0.06630744,0.08567136,0.003310237,0.11875948,-0.13097489,0.061654523,-0.0018682955,-0.12141022,0.02816029,0.05355136,-0.3800475,0.06613855,-0.106739625,-0.09128876,-0.12805186,-0.025315378,0.058541756,-0.17048655,0.16297477,0.07159465,0.023280375,-0.04904913,0.16029961,0.043835882,0.001747883,0.07784599,0.057301942,-0.11491994,0.046725586,-0.11960578,0.04956346,-0.10017421,0.04070805,-0.012393474,-0.062487293,-0.05145659,0.1622777,-0.0482383,-0.05035574,-0.058628265,-0.012474371,0.05532281,0.20393515,-0.006223864,-0.12813729,0.062398974,-0.114608586,0.06894024,0.06278417,-0.0108300345,0.019396195,0.10885544,0.029837491,0.072977655
20,-0.13693662,-0.045389056,-0.04801411,-0.015731541,-0.10843614,-0.12827387,-0.038721435,-0.09552956,0.055361714,0.09077516,-0.058046233,-0.07335195,0.07281318,0.011191027,0.1005026,0.0863291,-0.07116726,0.032929838,-0.07227418,-0.085158125,0.05789607,0.087008804,0.047533788,-0.18710619,0.054259982,-0.0006925328,0.1641601,0.0670638,0.0820088,-0.08543681,0.09281291,-0.03741756,-0.03570577,-0.045831945,-0.044598274,0.050917376,0.1644771,-0.24587995,0.106267005,-0.013014103,-0.07784608,-0.14020962,0.0068756295,-0.13774055,-0.04389886,-0.027315088,-0.0080995485,0.0676943,0.021817066,0.09085492,0.1282711,-0.115448914,0.06439331,0.1746705,-0.015315371,-0.003305311,-0.001347445,0.16784917,0.07210862,0.051904034,-0.047684636,0.13881306,-0.013513897,0.14711297,-0.10209021,0.035266694,0.027096806,0.09919387,-0.087034434,-0.00831669,-0.1045567,-0.12445487,-0.03388641,-0.023813855,0.025227707,0.032416437,0.063354194,0.15502948,-0.012288974,0.003125422,-0.021814257,0.0169307,0.002660141,0.17520866,-0.16490959,0.16371779,-0.099824205,-0.1411325,-0.095411964,-0.012715134,0.08295545,0.0745248,0.08550607,0.060091052,-0.12228828,-0.14250456,0.06498188,0.102414355,0.06656637,0.012173662,-0.18125653,0.0872966,-0.059583474,0.11931173,0.09115206,0.11698807,-0.12773629,0.15210356,0.16285782,-0.08226328,0.14855102,-0.013514068,-0.10713548,0.11740125,0.14848128,-0.028957697,-0.13494402,-0.028673524,0.05091244,-0.090449184,-0.031317733,-0.019594444,0.08364726,0.08380465,0.021933084,-0.03670943,0.049807124,0.11523898,0.011449383,-0.11588895,0.11381517,-0.020925747,-0.108153485,-0.028321866,0.04186674,-0.0113091795,-0.09397444,-0.1200166,0.08280784,-0.012604568,0.13547134,-0.016175333,-0.042401526,0.06744627,-0.1735197,-0.028533185,0.004387865,0.11882742,-0.0045993323,-0.12107924,0.11583575,-0.14675981,-0.1072468,0.011279189,-0.026345484,-0.043050416,0.040010583,0.055169668,-0.03198245,0.15695374,-0.0906097,0.10524535,0.06869511,-0.004603279,-0.17457247,0.027001293,-0.04250985,0.07907855,0.004078666,0.10187472,0.006202595,0.109514594,-0.006643477,0.007524629,0.04854963,-0.2077816,-0.076022066,-0.03120764,0.10492332,0.03270356,0.055294752,-0.026052777,-0.05497558,-0.009989028,-0.08695538,0.0037048017,0.11731788,0.07531216,-0.13740398,-0.013328518,0.0014915719,-0.0010253707,-0.13811953,0.010688879,-0.003574832,-0.02328965,-0.113222815,0.029676357,-0.009571137,0.0010202503,-0.0653983,-0.0441604,0.053061187,-0.027641807,-0.084456466,0.0020512317,-0.01604887,0.11632179,-0.1599275,-0.05239182,0.058825042,-0.010405407,-0.26524395,-0.04132653,-0.025069065,0.04891252,-0.038921066,-0.062474612,0.070871145,0.044911265,0.0133950235,-0.090780966,-0.050255507,-0.15851018,0.16318837,0.02692428,-0.061196554,0.036954142,-0.01960597,-0.081137255,0.10188007,-0.15588123,-0.16364436,-0.037947584,0.06032302,0.020850165,0.004264793,0.14314425,0.0095936395,0.044607274,0.022690471,-0.028545767,-0.09768566,-0.06044221,0.016453803,0.013932936,-0.16242373,-0.03106484,0.09995114,0.05598988,-0.04600637,0.00090714305,0.09941041,0.08027362,0.07249671,0.036010027
21,0.011010561,-0.18332522,-0.14968674,-0.10717155,-0.07023437,-0.0368941,0.0054216674,-0.07255334,-0.055000808,0.04189489,-0.010919344,-0.08848639,-0.15091504,-0.009965102,-0.013040176,-0.027119784,-0.1232829,-0.17646551,0.07947313,-0.05243232,-0.109223746,0.0010450977,-0.17610839,0.108439244,-0.07417175,-0.140024,-0.0026896996,0.009274748,-0.0035084684,-0.13580537,-0.09172199,-0.014306161,-0.15393619,-0.1552135,0.09924131,0.026976835,-0.056273617,0.47611123,-0.0338501,0.12899862,-0.12609364,-0.014762008,-0.025216756,0.20339839,-0.14605978,-0.1337064,-0.08658539,-0.036167443,-0.05204032,-0.14484522,-0.15524104,-0.05607022,-0.15759619,-0.11083714,0.022540543,-0.05420294,-0.03463868,-0.069455735,-0.16339977,-0.15960553,-0.06611057,-0.07855503,0.019330632,-0.12735708,-0.16584304,-0.06730206,-0.1829306,-0.16283613,-0.028498402,-0.0019759738,-0.042768713,-0.010941593,-0.02286939,-0.16788675,-0.01476077,-0.17626922,-0.057401054,0.036614213,-0.16871071,-0.16175926,-0.042302743,-0.07570186,-0.15928413,-0.14761011,-0.13860796,0.031041946,-0.10646932,-0.09182481,-0.11263222,0.018285275,-0.08486375,0.04136827,-0.036751896,-0.07956482,-0.028046936,-0.029134238,-0.12220403,-0.13429356,-0.03681821,0.016508084,0.01751404,-0.013951269,-0.18603842,-0.024254529,0.027178815,0.03159794,-0.09575081,-0.022606375,-0.16665266,-0.15801749,0.0080968505,-0.1351654,-0.12519664,-0.0022700913,-0.13945957,-0.11665589,0.014467041,-0.1716539,0.031384435,-0.1592046,-0.059901655,-0.053060137,0.02357394,-0.053148117,0.02089111,0.03819721,0.028379159,-0.16267931,-0.007731137,-0.02494533,0.046139497,-0.053402793,-0.0206767,0.0010639093,0.014215943,0.026458783,-0.020586057,0.01796282,-0.1312171,0.013883721,-0.09167292,-0.041920334,-0.040323302,-0.043378476,-0.16003306,-0.016909875,-0.11619677,-0.101815246,-0.0071996166,-0.1865056,0.0041019255,-0.13796201,-0.015116217,-0.099173136,-0.15125144,-0.04832656,-0.115407124,-0.14328478,0.06363656,0.027867127,-0.0936605,-0.014195037,-0.07358328,-0.068405986,-0.038735665,-0.023977114,0.038004275,-0.014439155,-0.05065179,-0.0398176,-0.1832394,0.0045767105,-0.026828928,-0.115836345,-0.14409722,0.06189222,-0.078396365,0.01192026,-0.041113093,-0.024892032,-0.0028314304,-0.02765532,-0.06431334,-0.08600419,-0.018762467,-0.12051287,-0.06701117,0.010116002,-0.17765573,-0.09046911,-0.1292857,-0.14161691,-0.1595199,-0.069457754,-0.10582948,-0.10608665,0.005912222,-0.030632583,-0.16280942,-0.15187626,-0.007990877,-0.09283178,0.017473074,-0.018740121,-0.15804826,-0.02071114,-0.18741083,-0.026559321,-0.048492946,-0.10345426,-0.110124335,-0.16227236,0.19337605,-0.13230701,-0.082807444,-0.022467505,-0.037261374,0.047764726,-0.009013501,0.021302901,0.045688543,0.013609992,-0.014036161,-0.08874958,-0.11977147,-0.08819543,0.037371535,-0.07005625,-0.017118508,0.013911072,0.0398105,0.015687687,-0.023052623,-0.11799075,0.05968139,0.048346005,0.017438892,-0.023489032,0.031059802,-0.11173188,-0.0909067,-0.122268885,-0.087104216,0.026814085,-0.04314841,-0.14857365,-0.08910188,-0.15618184,-0.058823515,-0.028091691,-0.12430649,0.030852046,-0.044030678,-0.08369546,-0.14360034,-0.09418113
22,-0.0922079,-0.022984758,-0.10239088,0.048730753,-0.02841928,-0.027446562,-0.090326,0.023494521,0.026896594,-0.020282766,0.11489221,-0.12745766,0.025790669,0.055303823,-0.13355228,-0.026651686,-0.05440786,-0.009391445,0.006527685,0.06317167,-0.08808989,0.047851402,0.040259395,-0.11408696,0.10628428,-0.049411103,-0.0054766308,0.1477173,0.14051653,-0.09591464,0.09646405,-0.0028721085,-0.09686425,-0.09129196,-0.16813582,0.041273918,0.049397524,-0.26094073,0.05774165,0.015714737,-0.08445559,-0.028085181,-0.054892678,-0.0656842,-0.019408848,-0.038642775,-0.0096752765,0.038259648,-0.12636103,0.088470764,-0.0052991365,-0.033973403,-0.044560544,-0.11790269,-0.049082566,0.044556852,-0.06326994,-0.063863024,-0.0775708,-0.08383504,0.13896137,-0.0475115,-0.12072515,0.1364911,0.08013618,0.03157844,0.07966514,0.016333958,-0.036325406,-0.03424033,-0.11487797,-0.103149325,0.064110324,0.037177753,-0.026700543,-0.038836088,0.1322522,0.03983146,0.030913725,0.061917398,0.059577882,0.14759053,0.04294844,0.200292,-0.05470286,0.07276157,-0.1418085,-0.13864005,0.05550898,-0.038567368,0.044678576,0.12753251,0.15007716,0.0475376,-0.07622863,0.005020073,-0.009718794,-0.015018021,0.094455145,-0.0346985,0.0060083396,-0.031694748,-0.09651186,-0.026287865,-0.12249315,0.015569348,0.009612102,-0.2937237,-0.12720503,0.15960714,0.07013731,0.0019747382,-0.07504724,0.051545344,0.14076656,0.110018715,-0.09440843,-0.017849155,0.10483824,-0.13871431,-0.0110979555,-0.110755,-0.04537241,0.13639021,-0.06225072,0.10190319,-0.123246804,0.11821185,-0.116970226,-0.09179936,-0.06577009,0.05663083,-0.066235244,-0.06015226,-0.06471912,-0.059344377,-0.03266129,-0.055807352,0.016619712,-0.062324576,-0.045855816,0.023240978,0.051565606,-0.15430853,-0.12202573,-0.13522696,0.15863198,-0.043478172,-0.11315129,-0.114570476,0.14735356,-0.09516888,-0.10770688,0.035996843,0.04464765,0.09744753,0.05041912,-0.047355145,-0.0043153493,-0.039089397,-0.03934057,0.11636162,0.08696491,-0.008673925,-0.04181612,0.055974673,-0.0028982058,0.059996083,0.05657871,0.04889631,0.07233586,0.13093776,0.0065202713,0.21464454,0.022482287,0.024468577,0.3613211,0.061438926,0.16809508,0.07268867,0.058765754,0.01673335,-0.069767274,0.000892941,-0.11935561,-0.11561021,0.030406812,0.05574918,-0.1568474,0.07975266,0.030141767,0.021337727,-0.07709255,0.027093178,0.039795734,-0.09289848,-0.040097453,0.0034255253,-0.14483409,0.0015416059,-0.020886017,-0.019037869,0.10681296,0.10937046,-0.13156046,-0.025129596,0.0043286486,0.1411698,-0.11671478,-0.01592945,0.02320707,0.0608057,-0.10490949,0.031907696,-0.0041471925,0.053122528,0.032755435,0.038094997,0.058268968,-0.11432128,0.12547314,-0.113392785,-0.004222625,-0.05610031,-0.08956569,0.07075056,0.017264498,0.07869034,-0.091897756,-0.04281356,0.032083437,0.0591896,-0.045710534,-0.049316715,-0.12835781,-0.013032168,-0.08003844,-0.10540447,0.018481128,0.07313197,-0.12204325,0.021400474,0.011626558,-0.030651204,0.18786532,0.05318578,-0.12308897,-0.12071461,-0.04740111,0.11194735,-0.09982737,-0.14487728,0.0686834,0.16445075,-0.04792669,0.012783461
23,-0.21357544,-0.099070854,0.1250199,0.0187778,-0.08009772,-0.11779006,0.0010338775,-0.111369304,0.087408684,-0.09492277,0.04767219,0.07517423,-0.003921845,-0.07410827,-0.050981954,-0.0137805585,-0.20934479,-0.44253814,0.006309791,-0.055404045,-0.03332026,-0.1655699,-0.2281348,-0.050234456,-0.008629459,0.07233714,-0.122016676,-0.0016391674,-0.07700717,-0.201396,-0.023202248,0.10249758,-0.059683397,-0.1736759,-0.022510478,0.11041614,-0.034192868,0.014178738,-0.04037559,0.020536646,-0.072722964,-0.08649343,-0.2940773,0.025490448,-0.07844649,-0.018109776,-0.27995005,0.010112112,0.12378706,-0.066654004,-0.041902244,0.087301016,-0.048306607,-0.027227338,-0.0054150512,-0.5440679,-0.06215039,-0.044108264,0.0964985,0.12946244,-0.046711344,0.08096499,0.1780407,0.15416726,-0.13435681,-0.06883935,0.0893352,-0.10950396,-0.05881221,-0.1320643,-0.20522964,-0.2601898,-0.08559067,0.013198761,0.010028857,-0.08707971,0.0787198,-0.120819956,0.035281636,0.059615865,-0.102892905,0.020440334,-0.042539943,-0.34249038,-0.2539344,-0.09411089,-0.043990213,0.08891568,-0.15297227,-0.24828044,0.025897536,-0.060760364,0.013802408,0.004489996,0.087283485,-0.5259631,0.052643318,-0.051016223,-0.123153135,-0.050932854,-0.24428888,-0.09300179,-0.40159142,0.032893308,0.13231234,-0.01619652,0.029534323,0.197819,0.15009591,-0.07865892,-0.12890488,0.07015337,-0.31108692,-0.10178386,0.019437669,0.023377668,-0.056720927,-0.089772195,-0.3956206,-0.1709932,0.035473578,0.12309981,0.021783756,-0.15089151,-0.07252221,0.02258182,0.018978534,-0.06310515,-0.32563642,0.13234514,0.04220662,0.06288318,-0.0025559098,-0.14386393,0.055657428,0.0042276825,0.06679625,-0.06896596,0.0038267886,-0.009316538,0.08158534,-0.14848737,-0.017738495,-0.037533917,-0.18387823,0.043045837,0.015646037,-0.0425312,-0.24392077,-0.41893762,-0.08221909,-0.102777,0.008807007,-0.08678421,0.015121436,-0.12946482,-0.08701463,0.16758543,0.14692709,0.13496974,-0.028131107,-0.11642296,-0.023161784,-0.069159724,-0.29134908,-0.056761645,0.104567796,-0.009897858,-0.045931883,-0.07712442,-0.16205855,-0.12000233,-0.037833422,-0.49748752,-0.22002715,-0.17428847,0.033312075,-0.0021719036,-0.13290879,-0.28095588,-0.062145665,0.0540762,0.021953689,-0.027643416,-0.0052236165,0.0757344,0.008573866,-0.02922074,0.0034398779,0.111098185,-0.06828316,-0.108578615,-0.4655222,-0.010988794,-0.032159377,0.022516487,-0.10790501,-0.050925504,-0.005790529,-0.19026588,-0.09584356,-0.21262217,-0.060567666,-0.051624935,0.06509132,-0.12849225,-0.16508192,-0.16551144,0.049672335,-0.490093,-0.03269468,-0.037790574,-0.06221949,0.036354207,0.01653882,0.027614672,0.052963283,-0.06291249,0.097109474,0.08572476,-0.057296608,-0.004726826,-0.027869027,-0.2666602,-0.14777863,0.068606846,-0.17452134,0.041943498,-0.08754727,-0.08372669,-0.27380738,0.06271753,0.0500897,-0.0184633,-0.052639324,0.13008161,0.04587362,-0.02817087,0.04575173,0.0465336,-0.06501098,-0.23121515,-0.06651784,0.09608162,-0.5789462,0.040883806,0.059594583,-0.043602403,0.10544594,-0.11873616,0.1045636,0.13885191,-0.12735151,-0.052497853,-0.1274004,-0.2907656
24,-0.09594701,-0.15654679,-0.12555298,-0.10241179,-0.05095109,-0.120458856,-0.120217085,-0.015570001,0.0093639605,-0.026235297,-0.14912592,-0.123834655,-0.06420781,-0.05258283,-0.15876707,-0.15610243,-0.12619263,-0.18811679,-0.15441187,-0.18397024,0.011868104,-0.063733675,-0.107367456,-0.06320639,-0.059203643,-0.038540397,-0.108471856,-0.15776749,-0.022821574,-0.06111108,0.008162313,-0.11021698,-0.15358233,-0.020622835,-0.0558173,-0.065728426,0.042996187,0.14561129,0.03717324,0.029412033,0.01341986,-0.08570175,-0.20878431,0.10323524,-0.17239322,0.03263581,-0.15329333,-0.07052109,-0.048778296,-0.017104937,0.01983735,-0.03429402,0.019367894,-0.029478585,-0.17936477,0.035546318,-0.16339013,-0.11709274,-0.06430234,-0.032718144,-0.122940674,-0.17925327,0.013022941,0.031101769,0.07646783,-0.035841495,0.061574966,0.02873049,-0.15756987,-0.036345318,-0.17004369,-0.090563394,-0.014249966,0.0067740506,-0.0075283404,-0.10638987,0.037919816,0.03857389,-0.18601479,-0.02817357,-0.035798136,-0.077219695,-0.04300409,0.0023493592,-0.042614017,-0.026473504,-0.16396615,-0.08782726,-0.1592576,-0.048753962,-0.06650814,0.017601287,-0.14650531,-0.16351841,-0.10073755,-0.15802747,-0.06789093,0.00536907,-0.08631919,-0.09416491,-0.22564937,-0.020828765,-0.034684148,-0.12860526,-0.15110828,-0.05374491,0.0035449755,-0.020242622,-0.0035729103,-0.08777192,-0.074573874,-0.18290761,-0.013642427,-0.10941027,0.01501237,-0.04995036,-0.03436491,-0.13133875,-0.13804023,-0.17482682,-0.20443471,-0.037401427,-0.13263083,-0.13678391,-0.16082358,-0.16383627,-0.11260443,-0.130463,-0.2145205,-0.06057141,-0.039388992,-0.080858506,-0.049797118,-0.09485959,-0.044259317,-0.08101891,-0.12625206,-0.16088174,-0.12382897,-0.06821806,-0.051482636,-0.08041696,-0.038995266,-0.18606216,-0.017289342,-0.104760006,-0.16760927,-0.07782301,-0.18520743,-0.18230598,0.030079292,-0.1893287,-0.047242884,-0.12624477,-0.040051956,-0.041990817,-0.1516516,-0.10498968,-0.043379724,-0.08961231,-0.13493602,0.027552104,0.0055718143,-0.115384415,-0.08138331,-0.10521621,-0.07257829,-0.1597253,-0.00077583827,-0.04176968,-0.14320439,-0.027763689,-0.021532817,-0.053335126,-0.015005842,-0.095722444,-0.10092749,-0.024487508,0.026534494,-0.11281831,-0.0659138,-0.11056055,-0.04465872,-0.027550483,-0.1677432,-0.14868045,-0.080360435,-0.13575076,-0.053836834,-0.11713055,0.03869748,0.0077644535,0.0038652858,-0.09770825,-0.024231216,-0.13687637,-0.08535213,-0.057555113,-0.1539147,-0.14881857,0.0008768109,-0.10368679,-0.059779096,-0.10417178,-0.047319345,-0.078914575,-0.05269274,-0.004866417,-0.12369605,-0.09768804,-0.0090372,-0.16827574,0.0754544,-0.19304132,-0.010135742,-0.15593468,-0.03238671,0.03461558,-0.13047403,-0.069303095,-0.022555033,-0.20264743,0.03547546,-0.17532,-0.06841679,-0.085387714,-0.12929146,0.04723919,-0.068406515,-0.13090807,-0.020447979,-0.1873589,-0.18705714,-0.01861867,-0.15605444,-0.12070158,-0.10435497,0.024839565,-0.15979433,-0.11448791,-0.1679407,-0.06418282,-0.015858447,-0.1874161,-0.14924021,-0.17021137,0.005210216,-0.11393933,-0.18537247,-0.09585385,-0.10313255,-0.13022414,-0.09796774,-0.09298786,-0.05206609,-0.120289326
25,-0.080531284,-0.035815928,-0.018720599,-0.060096517,-0.015658375,-0.04247469,-0.06878951,-0.15789421,-0.027723271,0.03821942,0.15482488,-0.097553745,0.06073054,0.07936846,-0.100491874,-0.018233635,-0.004457344,-0.09483299,-0.15635303,-0.008427387,0.0076015005,-0.0202499,-0.034580443,-0.27834803,-0.02335995,0.021220382,0.118528344,-0.01919406,-0.04518158,-0.04861148,0.11778212,-0.047113296,-0.009055346,-0.107320204,0.103270285,-0.09366722,0.14738081,-0.21289639,0.060589902,0.07886908,-0.061403286,-0.097942196,-0.027013354,0.13809334,-0.05440429,0.036646586,0.017513245,0.005474828,-0.03600379,0.096493736,0.040004164,0.027705377,-0.05795279,0.0606398,-0.014569749,0.011552157,-0.054514125,-0.07610864,-0.12226482,0.002824089,0.01359206,-0.047782872,-0.13592951,0.12971996,0.053788397,0.014148298,-0.030832749,0.13362305,0.03671283,0.08240664,-0.13371478,-0.013939149,0.052426066,0.02474908,0.05584996,-0.030812945,0.020737348,0.076125644,0.012704132,-0.016208885,-0.018507946,-0.041212615,-0.13595599,0.0063411463,-0.09932692,0.13952397,-0.021660555,-0.14636971,-0.094384156,0.034899168,-0.07718427,-0.03462435,-0.02742747,0.0015223644,-0.0022690655,-0.015557214,0.045831434,-0.0035903885,-0.020965813,-0.05515102,-0.012004188,-0.051857237,-0.0056525744,0.11008639,-0.016460372,0.16213942,0.0099011585,0.030866746,0.06596071,0.13029741,0.009628805,-0.047733143,-0.09670526,-0.009163213,0.16271357,0.09128607,-0.11473076,-0.13327496,0.090080194,-0.10718281,-0.044615563,0.00039072943,0.043844145,-0.008713676,-0.13162208,-0.046037905,0.018430997,0.0152634,-0.05886754,-0.08303437,0.02531405,0.09109197,0.021962926,-0.058251012,0.03309041,-0.08221005,0.028108163,-0.11016328,0.034517247,-0.0013767829,-0.029314283,0.08238984,-0.0060438532,-0.062045317,-0.16358675,0.008825031,-0.010519889,-0.07997026,0.0027510994,0.03298921,0.07641955,-0.032673895,-0.058725115,-0.12631875,-0.02996461,0.040925507,0.12864609,-0.034655996,-0.10046488,-0.0072345207,0.030402878,-0.019910615,0.045190245,0.08594821,-0.067171015,-0.038761985,-0.09179308,0.02732244,0.14739539,0.08417525,-0.028936276,0.11829393,-0.017893478,0.09281698,-0.093358204,0.039074827,-0.025159983,0.057811204,0.02903599,-0.1291112,0.096357115,0.03692022,-0.03061094,0.07251638,0.017458798,0.041747607,-0.049672913,0.12550312,-0.15188044,0.022077236,0.10135317,-0.0054089385,-0.069760256,0.040554006,-0.08992671,0.04502805,-0.0016670104,-0.008804785,0.041142303,-0.0384873,-0.0948957,-0.098491244,0.14849217,0.0125813,-0.03355457,0.014627048,-0.07570965,0.004733785,-0.043517176,0.07612015,0.00053814834,-0.072197266,-0.27367267,-0.10935588,-0.053637087,-0.13936487,0.029937355,-0.14228497,0.11042429,-0.11165053,0.09461513,-0.022864703,0.1257645,-0.08997415,-0.038627222,-0.039444912,0.06613228,0.10887874,0.03525473,-0.10789996,0.116160065,-0.02464407,-0.042000093,0.05625202,0.05587042,0.010732383,-0.11073556,-0.0739661,-0.0052258293,0.06795031,-0.11068758,-0.17038669,-0.087951206,-0.04348587,0.054365195,0.015187497,0.03807044,0.009070374,-0.04814433,0.07149557,-0.108669005,-0.13453937,0.14840662,0.16738369,0.09856284,-0.0056147682
26,-0.0437147,-0.13017009,-0.14405194,-0.09566655,-0.20827119,-0.07616847,-0.09491688,-0.083409764,-0.16839467,0.024673963,-0.13771224,-0.08913431,-0.13301234,-0.13422966,-0.0058880793,-0.003987024,-0.083202355,-0.17407343,-0.16812961,-0.10449455,-0.12558272,-0.14419128,-0.09119601,-0.06699257,-0.07571065,-0.02119775,0.030573798,-0.14202249,0.04508134,-0.10285681,-0.012121632,-0.19389994,0.025671711,-0.15817036,-0.07001993,-0.038394056,-0.08494409,-0.13027541,-0.120089605,-0.041194234,-0.16868688,-0.18202,-0.091997236,-0.085987024,-0.039099634,-0.12113058,-0.14424159,-0.08318983,-0.15983114,0.04722463,-0.0041598026,-0.16164005,-0.19041169,-0.10433265,-0.04033197,-0.1414529,0.01645518,-0.057672348,-0.0009554222,-0.070500396,0.04004564,-0.111227676,-0.1839267,-0.10028692,0.04698548,-0.109970175,0.036297258,-0.04139179,-0.0832006,-0.09467846,-0.12932535,-0.23104505,-0.06390476,-0.015793297,-0.17277074,-0.19406568,-0.11961858,0.04606052,-0.030321492,0.014025438,-0.07276921,-9.4328647e-07,-0.1615781,-0.12813307,-0.05487979,0.0080308365,-0.10049752,-0.15209131,-0.1409066,-0.024387874,-0.060806174,0.037090335,-0.08494917,-0.15723522,-0.025151318,-0.12869115,-0.038856238,-0.03647001,-0.0038351684,-0.026957113,-0.22541757,-0.14363681,-0.07803237,-0.10899954,-0.10153938,0.036631536,-0.094607286,-0.13744393,-0.062361088,-0.15237057,-0.15636681,-0.07044294,-0.08381346,0.0030919772,0.04542216,-0.08900203,-0.19655694,-0.023263032,-0.055929616,-0.103808545,-0.19324888,-0.14541495,-0.07407566,0.04048958,-0.11552256,-0.14893167,-0.11570793,-0.08101927,-0.047174923,-0.0982171,-0.008356735,-0.083801694,-0.06383137,-0.24558489,-0.058502134,-0.14935885,-0.16984713,-0.15438177,-0.07842755,-0.16253763,-0.055962518,0.010425799,-0.054726724,-0.15496571,-0.090705805,-0.06840479,-0.13724111,-0.042075533,-0.12447322,-0.06443661,-0.042468596,-0.08691717,-0.07759948,-0.1607379,0.0353904,-0.15248682,0.0005608946,-0.061169025,-0.0014872425,0.01176597,-0.15260528,-0.12428073,-0.016226811,-0.12441914,-0.13594748,-0.06753537,0.021799868,-0.008780019,-0.04348481,0.042001102,-0.17064042,-0.027895948,-0.2202914,-0.05535509,-0.16428174,-0.13012734,0.047224704,-0.11279483,-0.13836677,-0.22547632,-0.046665456,-0.13986997,-0.0010063897,0.02428802,-0.14001107,-0.033908136,-0.057428595,0.04259711,-0.097541586,-0.041573368,-0.06292486,-0.12550983,-0.22557463,-0.017248377,-0.15382873,-0.17128918,-0.23573603,-0.02423201,-0.11370515,-0.034313552,-0.13821141,-0.045595147,0.0068078768,-0.14896345,-0.04060444,-0.14413978,-0.043361004,-0.14236572,-0.14005096,-0.052510034,-0.17869961,-0.19574207,-0.11887624,0.0040569454,-0.16996709,-0.15856494,-1.7800292e-05,-0.041123632,0.032531068,-0.17781872,-0.14747408,-0.048316274,-0.09288,-0.115047395,-0.079480834,-0.031672884,-0.16682427,-0.11316119,-0.08875878,-0.120335296,-0.03148612,-0.17467311,-0.016493691,-0.14782093,0.031131726,-0.023714213,-0.032416347,-0.10313903,-0.0219303,-0.10001152,-0.18110968,-0.11510999,-0.10664551,-0.12307968,-0.16896799,-0.10653762,-0.18617807,-0.025294531,-0.03604753,0.017907415,-0.083145715,-0.078595854,-0.07243598,0.0059404406,-0.1348592,-0.08490025
27,-0.02355143,-0.2282674,0.030116918,-0.038860638,-0.061855238,-0.033008505,-0.11882131,-0.008144191,-0.10646582,0.13008668,-0.03168176,-0.18559137,-0.035788428,0.0027012182,0.049049966,-0.0010546113,-0.08282731,-0.058446273,0.014355261,-0.14740734,-0.20112294,-0.13656846,-0.19822825,-0.07446343,0.011686584,-0.022831008,0.03599132,0.004722182,-0.15773323,-0.13508283,-0.14275475,0.017507583,-0.14813855,-0.072363466,0.07547522,-0.06562219,0.043752342,0.16231827,0.02659455,-0.05078008,-0.014189839,-0.11073433,-0.028090104,-0.07814518,0.0036132585,0.024271552,-0.022069326,-0.11101473,-0.13945615,0.031258486,-0.165159,-0.036130358,-0.06983309,-0.032381494,-0.109733805,0.11845238,0.04714783,-0.15058921,-0.05615596,-0.101745926,0.038681608,-0.069473356,-0.0076402244,0.031561967,-0.08980997,-0.016631687,0.060899727,-0.0832549,-0.11559142,-0.012891325,-0.15114348,-0.1876773,-0.06210642,-0.09430203,-0.1951849,-0.07356704,-0.130535,-0.16529939,-0.17929323,0.006005744,0.014680133,-0.0065930565,-0.10913901,-0.13377301,-0.066750035,0.034485895,-0.046805754,-0.07931804,-0.18896446,-0.18988732,-0.068245776,-0.16141501,-0.06357235,-0.08643639,-0.094623074,-0.01632942,-0.039497398,-0.02203662,-0.08312507,-0.1933693,-0.19424917,0.004409899,-0.03424869,0.005993065,-0.08353071,-0.06279504,-0.21393567,0.07971484,-0.016016548,0.001722588,0.046827223,-0.09196237,-0.009569353,0.002501076,-0.12457337,0.006360198,-0.10656317,-0.06379116,-0.022284124,-0.03539195,-0.17586324,-0.056678046,-0.077092774,-0.10943844,-0.17086613,-0.03475007,-0.16018361,-0.09093337,-0.14087258,-0.07606024,-0.20491491,-0.11867784,-0.21342556,-0.15577632,-0.1254909,-0.17317283,-0.19726643,-0.104783036,-0.16470656,-0.04228747,-0.03164465,0.12131044,-0.05948658,-0.1307346,-0.056821223,-0.061486814,-0.076641515,0.008113474,-0.087226436,-0.0075853365,-0.12110757,-0.1832287,0.0012840843,-0.09315035,-0.08938942,-0.03532656,-0.1599036,-0.13643679,-0.048070364,-0.055502627,-0.047531486,-0.0829717,0.022380343,-0.15573165,-0.06674802,-0.10099153,-0.028287796,-0.15377082,0.010538991,-0.16236608,-0.20847644,-0.003598879,-0.18670656,-0.20388472,-0.15227364,-0.052585386,0.11636388,-0.09475058,-0.07993306,-0.05866331,-0.17711961,-0.001181227,-0.1482426,0.025230978,-0.13266781,-0.064382456,-0.116198406,0.029726135,-0.020561451,-0.02354595,-0.098749936,-0.047242597,-0.04878069,-0.14329402,-0.15685749,-0.11283745,-0.07673168,-0.08565734,-0.15805577,-0.09710787,-0.18709622,-0.033487964,-0.029848808,-0.14406916,-0.022097634,-0.15322126,-0.18049468,-0.038398195,-0.08161176,-0.18315011,-0.20682178,-0.1430103,0.17063147,-0.16677655,-0.091412,-0.19031891,-0.16482733,-0.0028378626,-0.09715452,0.18256888,-0.07847752,-0.15945086,-0.11040691,-0.059625033,-0.16449328,-0.043117642,-0.073974326,-0.1554215,-0.17799471,-0.116011165,-0.1369527,-0.09434274,-0.10827472,-0.1521421,-0.09793988,-0.1534013,-0.07422015,-0.15891889,-0.15414815,0.07282231,-0.074633546,-0.15610942,-0.09716121,-0.20895468,-0.0749205,0.011548265,-0.18707584,-0.09046676,-0.15172063,-0.09092761,-0.13415718,-0.15570596,0.007839396,-0.11213259,-0.009513638,-0.036495805
28,-0.02305856,0.009181825,-0.14108583,-0.037941825,-0.15718986,-0.18880203,-0.0031593626,-0.10826635,-0.12168476,-0.024020271,-0.13492996,-0.0639602,-0.15034023,-0.20418794,0.06181675,0.0033905332,-0.1353908,-0.008900854,-0.110080466,-0.06344646,-0.051142104,-0.020499025,-0.07527037,-0.09696135,-0.05611854,-0.13160333,-0.0703648,-0.040810373,-0.04037942,0.0012369561,-0.14968264,-0.01676384,-0.06758156,-0.12457206,-0.058005583,0.0016434379,-0.09852038,0.07369427,-0.029147908,-0.1554342,-0.15191,-0.2324158,-0.09410316,-0.0020923796,0.002229554,-0.13854101,-0.19210301,-0.030654805,-0.14170222,-0.06738862,-0.01839048,-0.015136554,0.048442382,-0.04818096,-0.19614615,-0.0518676,-0.16536236,-0.129876,-0.111410454,-0.11944674,0.029052703,-0.054027975,-0.19011943,-0.02376746,-0.04099994,-0.08210136,0.0034168763,-0.10278441,-0.006422506,-0.07280485,-0.17836863,0.02272618,-0.003161819,-0.07625299,-0.122873455,0.023497421,-0.04550031,-0.014341129,-0.035335243,-0.06320687,-0.1704658,-0.06919186,-0.03761458,-0.06303612,-0.1263869,0.010766408,-0.15787718,-0.028916238,-0.0659136,0.0030846267,0.022911686,-0.02049112,-0.10740159,-0.05340468,-0.07309423,-0.27686155,0.006664055,0.031384192,-0.0117455935,-0.076503396,-0.12565932,0.023041768,-0.11603601,-0.13243945,-0.108971976,0.048025664,-0.055190865,0.016079158,-0.04166145,0.014198656,0.035526022,-0.032482743,-0.18317302,-0.13475038,-0.113015406,-0.061058123,-0.10087098,0.005365722,0.01052134,0.034077514,-0.07361641,-0.12811013,-0.051202606,-0.01869186,-0.0561845,-0.035595603,-0.12064996,0.024085682,-0.0055035106,-0.0042459695,-0.0041324673,-0.12607665,-0.10905176,0.023645137,-0.15202515,-0.060601026,-0.05390273,-0.06937318,-0.06738037,-0.10282613,0.017368207,-0.089553885,0.013198013,-0.14103562,-0.06929821,-0.020375803,-0.12732796,-0.072508484,-0.17123552,-0.10414108,0.032395907,-0.13614856,-0.060607046,0.01778849,0.04041529,-0.102265745,-0.015931005,-0.016484234,-0.08571146,0.015862277,-0.048362922,-0.16575965,-0.116264395,-0.02012714,-0.011313984,-0.03555338,-0.06187256,-0.13830848,-0.065157115,0.047884785,0.004843867,0.03733962,-0.027302736,-0.11195006,-0.012854656,-0.08685571,0.030314013,-0.03031791,0.01543939,-0.19102886,-0.20505895,-0.116318285,-0.004235086,-0.031982657,-0.078534745,-0.12442972,-0.09239339,-0.08117592,-0.11879473,-0.050452188,-0.16767862,-0.16046885,-0.03858988,-0.081705965,-0.13044241,-0.011665039,-0.096185856,-0.14129923,-0.051920604,-0.073880695,-0.16078068,-0.017962921,-0.11387314,-0.11768903,-0.17084399,-0.09320073,-0.1243325,-0.041606266,-0.026464837,-0.20594847,-0.0002458305,-0.05228218,-0.0021114668,-0.020691602,-0.139191,-0.037834052,0.00381258,-0.04415659,-0.09533282,-0.15985292,-0.002435302,-0.09578007,-0.09250786,-0.14774707,-0.06859329,-0.1650833,-0.052877415,-0.01574992,-0.019910848,-0.105211355,-0.059379168,-0.092172444,-0.13077193,-0.0041430453,0.020384908,-0.14611514,0.01864347,-0.115750566,0.037189875,0.015494561,-0.056392975,-0.0059822695,-0.15687172,-0.142542,-0.20778185,-0.09924883,-0.1446602,-0.16207826,-0.043234028,-0.07759294,-0.047835264,-0.078588285,0.030548163,-0.08108747,-0.028772132,-0.13912162
29,0.14191931,0.057103224,0.093939364,0.13506342,0.040440336,0.006862622,0.10644007,0.070799105,0.051469594,0.09127349,0.13080284,0.05284226,0.11265572,0.08804831,0.15702751,0.060559273,0.09818318,0.12158072,-0.25775188,-0.004271909,0.016814591,0.013377682,0.04569997,0.0730496,0.1051754,0.15588446,0.05254738,-0.030985164,0.12456413,0.105517074,0.039833732,0.15788509,0.011551818,0.15438086,0.023520615,-0.030304683,-0.008475715,-0.29115573,0.062109083,-0.026871951,0.09211668,0.0963289,-0.002309189,-0.02665611,0.14300321,0.14743501,0.055114593,0.07280202,0.03300461,0.018414916,0.011127168,-0.049485076,0.10982506,0.08377102,0.12503426,0.13093583,-0.02971826,0.060076047,0.11882107,-0.008055118,0.08994241,0.041745216,-0.12720007,-0.021140436,0.10598221,0.18622012,-0.014818657,0.062288955,-0.010256676,-0.018776966,0.081589326,0.12665275,0.1527249,0.12436624,-0.04516385,-0.021958867,-0.0149014,0.08792452,0.08089884,0.10036754,0.06469333,-0.04564177,0.009907661,0.32613105,0.07891724,-0.04772596,-0.05313214,0.032144304,-0.0027744167,0.02996812,0.0010047636,0.044392597,-0.026597893,-0.047275767,0.034453347,0.3270975,-0.009453927,0.11400102,0.10584764,0.13633862,-0.061943132,0.037613966,-0.025031459,-0.044220332,0.18128216,0.14243348,0.13968512,-0.16794315,0.034644112,0.13577487,0.04851705,0.11661129,0.1141418,0.093662545,0.093528554,0.11750351,-0.021797596,0.077626176,0.5350804,0.017821882,0.034042362,-0.027413776,0.06264361,0.16137443,0.14115772,0.04889804,0.12459841,-0.03207319,-0.123067185,-0.028334703,0.049263917,0.16413191,0.19499302,-0.019515784,0.07991695,0.023780659,0.042414635,0.103184715,0.14469786,0.26603332,-0.02762743,-0.017651279,0.11718922,0.051236007,0.13157345,0.051583096,0.14188801,0.1714332,0.18829674,0.18330227,0.04595391,-0.045715064,0.1440027,-0.010488556,0.0029753179,-0.01975784,-0.013227846,0.0165019,0.023303412,0.08250606,0.09792374,0.048886698,0.05257994,0.12168085,0.076311894,0.028269641,-0.016744878,0.11619479,0.017115204,-0.0358148,-0.052256875,0.16744745,0.04022284,0.35752484,0.12378263,0.13037287,0.05581212,0.1142586,0.053502545,0.13445127,0.34062013,0.11655182,0.15739015,0.06268907,0.12435817,-0.030567124,-0.030999502,0.053751722,0.040021796,0.1253368,0.14310849,0.034975544,0.15733503,0.10225083,0.022107868,0.15536283,0.09169514,0.025850529,0.10273,0.14559516,0.05114628,0.15216902,0.029599065,-0.0065883766,0.0047223936,0.050901312,0.050001707,0.0814097,-0.048032954,0.13832092,0.16699569,0.084451556,0.20624089,0.019418959,0.036826164,0.029023243,-0.04470181,0.04069057,0.11802142,0.28125617,-0.024808338,0.04633027,0.015677253,0.12864412,-0.0017377733,-0.0270432,-0.039161224,0.019427655,0.048490543,-0.03287299,-0.058522146,0.01451886,-0.013229618,0.08217783,0.1730119,0.011920996,0.0649705,0.08384429,0.026663212,-0.017903894,0.0023255025,0.1397624,-0.04666006,0.050865088,0.56479406,0.117063984,-0.08464084,0.16159919,-0.01654363,-0.0050708726,0.036155663,0.13712549,0.0661669,-0.011702846,0.06966236,0.07962982
30,-0.08150242,-0.1621871,-0.03315699,-0.09226602,0.010156872,-0.039513294,-0.09769329,-0.0185043,-0.12770589,-0.033716712,0.034215137,-0.095286176,-0.13378905,-0.14486645,-0.12124687,-0.158558,-0.20033772,-0.14741014,-0.040863153,-0.0794061,-0.13705415,-0.07225043,-0.041169997,-0.07849051,-0.017756471,-0.04964942,-0.059177965,-0.062300898,-0.15615961,-0.040204756,-0.05208028,-0.175832,0.0070986575,-0.12569235,-0.024896484,-0.014475089,-0.08498464,-0.08864446,-0.035730727,0.00957711,-0.0065331925,-0.12977996,-0.11053896,-0.16488633,-0.209577,-0.13196166,-0.160153,-0.06543802,-0.1739079,0.0058205836,-0.07688902,-0.1457083,-0.04275021,-0.1168784,-0.17516506,-0.12889801,-0.037329376,-0.15567636,-0.07443873,-0.078299016,-0.121437356,-0.0026997696,-0.04518278,-0.046706926,-0.112119846,-0.12745383,-0.09673076,-0.095908746,-0.1250562,-0.0014261509,-0.14561552,-0.034079816,-0.15268087,-0.10101569,-0.103976294,-0.08128699,-0.14658871,0.0058737993,-0.008118404,-0.079746835,-0.132854,-0.13815694,-0.08398284,-0.15889964,-0.04276865,-0.08137996,-0.14086834,-0.17624168,-0.050417222,-0.06419641,-0.12337498,-0.0073418883,-0.10518947,0.010589103,-0.11362154,-0.14194551,-0.059958518,1.1145045e-05,-0.095851064,-0.038204156,-0.12485632,-0.01661999,-0.17217726,0.004537869,-0.14144592,-0.08220873,-0.18017086,-0.07028064,-0.0828706,-0.066470474,0.021548286,-0.1940447,0.0077092764,0.044731822,-0.06723791,-0.111342,-0.038729295,-0.15193507,-0.034525044,-0.14353658,-0.06839654,0.025397139,0.030597843,-0.13815178,-0.130269,-0.15911086,-0.15959753,-0.06602534,-0.12986937,-0.121589564,-0.11930947,-0.033916224,-0.045693252,-0.19233441,-0.015265257,-0.2070448,-0.09357737,-0.009139191,-0.0639781,-0.21106517,-0.047594793,-0.14434765,-0.13853632,-0.13301256,-0.043478485,-0.18215974,-0.14140636,-0.053957645,-0.11400852,-0.18621552,-0.068777025,-0.18030632,-0.011507659,-0.1623715,0.037177518,-0.0028260152,-0.057199128,-0.062049188,-0.013508915,-0.035463013,-0.13329265,0.015814424,-0.13451305,-0.1217354,-0.20230874,-0.07975938,-0.16201955,-0.16057535,-0.12469651,-0.16120166,-0.1590491,-0.104064904,-0.06682338,-0.10267251,-0.17763874,-0.093260035,-0.037619803,-0.08570913,0.038248684,-0.18867809,-0.2029555,-0.19830272,-0.18104862,-0.06989177,-0.17047787,-0.17423198,-0.16912548,-0.015877197,-0.14478698,-0.08416991,0.046618607,0.032425523,-0.19375668,-0.029231481,-0.12781595,-0.06778274,-0.03755189,0.043715242,-0.011544551,-0.13772301,-0.19700813,-0.15190545,-0.12510295,-0.017757801,-0.13008939,0.029189453,-0.15975828,0.020851262,-0.15992445,-0.21042107,-0.18184215,-0.20924295,-0.067842215,-0.14376351,0.005635561,-0.1951572,-0.16557467,-0.08895993,0.04451602,-0.23758423,-0.01033791,-0.14218357,-0.020714186,-0.015142597,-0.101309,-0.04696919,-0.1671457,-0.15360507,-0.21275702,-0.08549446,-0.06241776,-0.10189042,-0.19724464,-0.11768985,-0.17883396,-0.09912934,-0.12439675,-0.006218423,-0.096884206,-0.10264369,-0.026175033,-0.05161512,-0.12152465,-0.12093978,-0.1361857,-0.021261463,-0.035905533,-0.14433227,-0.08867994,-0.07561772,-0.1928455,-0.14791355,-0.010985145,0.0356412,-0.1280906,-0.027406594
31,0.052364852,0.034289118,-0.11994236,0.0599055,-0.15083621,-0.00016377457,-0.15221448,-0.029983975,-0.016325802,-0.018993802,0.1037634,0.013505239,0.019927857,-0.057468295,0.09306972,0.010174521,-0.11321622,-0.048873924,-0.18477923,0.0019647637,-0.092264086,0.0820029,-0.06248476,-0.20524715,0.0809718,-0.054192636,-0.013856853,-0.027592327,0.13632053,-0.12623253,0.010902083,0.0035969862,0.12927713,-0.11186627,0.07883847,-0.15520138,0.15308557,-0.16673166,0.15269917,0.09236473,-0.011907791,-0.02202542,-0.0099510485,0.072178334,-0.05494493,-0.044905435,-0.0643838,0.0715037,0.013575054,0.12887193,0.021119807,0.050474286,0.015265347,0.11712175,0.07852384,0.24931055,0.02219561,0.15070848,-0.0051693027,-0.043606296,0.14781374,-0.04316635,0.041691683,-0.014871557,-0.0039766673,0.16573115,0.074101314,0.05587139,-0.06394395,-0.006715196,-0.0005965594,-0.09121389,-0.11296708,-0.06720424,-0.076536104,-0.11302431,-0.03461863,0.04094471,-0.13000274,-0.07738106,0.07478679,-0.030993717,-0.16685896,0.20702228,-0.008584016,0.010918897,-0.0054526646,0.03466895,-0.085037485,-0.03517417,-0.09789975,0.08974872,0.096098736,-0.15954696,-0.13454708,-0.015277629,0.069907054,0.10056946,-0.026785403,-0.0070179836,-0.14687279,-0.06312161,0.0699344,0.05172098,-0.084762014,0.008484852,-0.05141811,0.06722487,-0.011596663,0.06255642,0.062365487,-0.06543944,-0.12842992,0.027836224,0.10801851,0.034912813,-0.0834716,-0.052842103,0.1695576,0.01965412,-0.09949252,-0.0142642865,0.05114412,0.1354282,0.0008829055,0.023778446,-0.062102024,-0.025372531,-0.06266139,-0.023586167,0.03497231,0.076712996,-0.015232692,0.027558923,-0.13905609,-0.008585102,0.015865557,-0.15676792,0.050206196,0.049248416,0.04120389,0.14988856,0.16725972,-0.037270516,0.0038051843,-0.06403518,0.06436419,-0.06841808,-0.14733335,0.049982987,0.024918273,-0.095130965,-0.040611804,-0.04283922,0.08664982,-0.066085994,0.089719504,-0.027359964,-0.09544309,0.13874722,-0.009004366,0.049672592,0.13920484,-0.047131475,0.03611191,-0.15756266,-0.11673558,0.00048744306,0.12954947,0.14968802,-0.02551978,0.0933948,-0.062370945,-0.08905811,0.045920726,-0.06098366,0.083317734,0.08431498,0.07723241,-0.09125068,0.054324467,-0.011359832,-0.077294834,0.14564313,0.015104771,-0.10052003,-0.10206403,0.16154274,-0.14963807,-0.035880126,0.022974048,0.08254837,-0.027272917,0.12869619,0.019032242,-0.1110377,0.021253228,-0.006722238,-0.08419536,-0.13917653,-0.15459174,0.0030491573,0.08650662,-0.046443127,-0.12452328,0.03502174,-0.07179109,0.101927154,-0.056628328,-0.006275459,0.040706232,0.018917399,-0.12653638,0.051182024,-0.11458823,-0.10163731,-0.068658866,-0.13481258,-0.014966459,-0.09421113,0.11607728,-0.022277683,-0.02427262,-0.09732444,0.121410586,0.07161014,0.03146418,0.14712383,-0.037198823,-0.11524239,0.01365446,-0.034409508,-0.16946232,-0.07932678,0.014998816,0.022464845,0.013722702,-0.050363477,0.03232265,-0.04219463,-0.023015523,-0.012639167,-0.111510746,0.014829923,0.055413324,-0.01440642,-0.16723472,-0.0806516,-0.09436222,0.052987546,-0.02999071,0.005015857,0.019395497,0.1460269,0.051018864,-0.030941395
