,0,1,2,3,4,5,6,7,8,9,10,11,12,13,14,15,16,17,18,19,20,21,22,23,24,25,26,27,28,29,30,31,32,33,34,35,36,37,38,39,40,41,42,43,44,45,46,47,48,49,50,51,52,53,54,55,56,57,58,59,60,61,62,63,64,65,66,67,68,69,70,71,72,73,74,75,76,77,78,79,80,81,82,83,84,85,86,87,88,89,90,91,92,93,94,95,96,97,98,99,100,101,102,103,104,105,106,107,108,109,110,111,112,113,114,115,116,117,118,119,120,121,122,123,124,125,126,127,128,129,130,131,132,133,134,135,136,137,138,139,140,141,142,143,144,145,146,147,148,149,150,151,152,153,154,155,156,157,158,159,160,161,162,163,164,165,166,167,168,169,170,171,172,173,174,175,176,177,178,179,180,181,182,183,184,185,186,187,188,189,190,191,192,193,194,195,196,197,198,199,200,201,202,203,204,205,206,207,208,209,210,211,212,213,214,215,216,217,218,219,220,221,222,223,224,225,226,227,228,229,230,231,232,233,234,235,236,237,238,239,240,241,242,243,244,245,246,247,248,249,250,251,252,253,254,255
0,0.052680854,-0.07558292,-0.1220176,-0.053926904,-0.3783913,-0.020777779,0.064793214,0.53481823,-0.117686786,0.1038263,-0.26686335,-0.63806015,-0.008070593,-0.10712797,0.057151534,-0.103615746,0.06651333,0.11706612,0.15950646,0.02695205,-0.20858482,0.2573388,0.11612925,-0.17315707,-0.13438699,0.10184978,-0.07255188,0.015377088,-0.4455076,0.0071546054,0.3112363,0.11303834,0.06877843,0.2935385,0.028833902,-0.12876678,-0.13769406,0.15189935,-0.0809352,0.010302701,0.052626617,-0.14303154,0.04861198,-0.10487152,0.27570522,-0.00654372,0.13351646,0.094473764,-0.15567786,-0.110475495,-0.20135874,-0.11278759,-0.05781834,0.15020594,0.07416827,-0.15273811,0.12292371,-0.117225796,0.024217002,-0.13988158,0.005235066,-0.014244715,0.07941501,-0.043311927,0.12653415,0.07720628,-0.1368738,-0.13664313,-0.028979547,-0.37272757,-0.14811341,0.0671549,0.21903427,0.1225816,-0.015537576,-0.1734126,-0.1921858,-0.27366623,-0.22523,-0.0629981,0.47132415,-0.045700952,-0.021107951,0.20786008,-0.007217691,-0.17160396,0.26471397,0.1682064,0.12503187,0.37991083,0.00947162,-0.034475498,0.34864917,0.45348433,-0.10450234,-0.16126214,-0.21276462,0.46755725,0.103318885,-0.019958325,0.056752875,0.34704837,0.11555953,-0.08537377,0.03225671,0.07164002,0.2881943,-0.44782418,0.31533524,-0.025126152,0.061546825,0.13763121,0.16150369,-0.04145913,-0.33412826,0.018698392,0.24929182,-0.09976203,-0.15142491,0.1860518,0.012411931,0.13038538,-0.029606001,0.0022998361,0.06841307,-0.14722024,0.06889613,0.3629361,0.04605135,-0.39408788,0.026385192,0.20329608,0.12564738,-0.1377253,-0.012051536,-0.11382365,0.02378671,-0.16952385,0.028395671,-0.13469088,0.4127998,0.042383075,0.053960074,0.018254882,-0.111850336,0.18518758,0.3117945,-0.17445287,0.093845285,-0.047021534,0.27992612,0.06212099,-0.096612304,0.20070302,-0.052303527,0.03383182,-0.42723712,0.0519671,-0.29383355,0.036835756,-0.2005821,0.18673998,0.16885321,0.11378056,-0.09630774,-0.26819444,-0.09684559,0.0055374233,0.10503092,0.15203384,-0.086336724,-0.035550904,0.26856068,0.45218542,0.09923711,-0.024472678,-0.065324366,0.06253651,0.09327697,-0.2923413,0.0137799885,0.07694682,0.2063897,-0.0769925,-0.07578588,0.29444146,-0.036696274,0.0532674,-0.06405144,-0.09929371,0.35353786,0.21478316,0.059254773,-0.06835832,-0.04251038,0.020698192,0.09930323,0.047648117,0.31380692,-0.32068294,0.10528358,0.37072322,0.64839065,-0.0073170685,-0.12309512,-0.28760538,-0.29556686,0.10919423,0.026567347,0.087324,-0.2440404,0.07776679,-0.21250638,0.11368605,0.06337452,0.31591615,6.890241e-05,-0.081611894,-0.11846516,0.65288466,-0.11549671,-0.15861073,-0.03555689,0.22670966,0.10087741,-0.025814086,0.008590772,0.0386705,0.03993166,0.0007193301,0.19157341,0.34991246,-0.056736145,0.0838851,0.15142438,-0.39615214,0.30451927,0.036167927,-0.30959255,-0.02111683,0.10301827,-0.092589356,0.18807107,-0.061965235,0.088993676,0.07778679,0.2436321,0.057646245,-0.37059256,-0.02619578,0.20063116,0.082161404,0.08607728,-0.16305944,-0.2440849,-0.05095456
1,0.0337828,0.4479636,-0.19643076,-0.013123388,-0.16098982,-0.076502606,0.41224697,0.31203067,-0.052300725,-0.071955726,-0.1445147,-0.12598392,0.45520848,-0.14098227,-0.10750949,-0.1697632,-0.05923022,0.09860749,0.13892744,-0.09807351,-0.305594,0.18312445,-0.10257597,0.0128595475,0.009356466,-0.08096457,0.060508404,-0.06546728,0.08288976,-0.26652297,-0.113144584,0.160374,0.058944758,-0.20447575,-0.05037253,-0.14390944,-0.2479487,0.12350082,-0.0031115753,0.051937934,-0.10041767,0.14112596,-0.052948445,-0.16357756,-0.3272531,0.5150434,0.022936666,0.08006778,0.24654213,-0.28304467,-0.44777107,-0.0076447204,-0.17594022,0.013298407,0.07413927,0.26886854,-0.024659975,-0.109066255,-0.1078946,-0.0018029606,-0.003525494,0.020403083,0.019450994,-0.17808983,0.055298552,0.51941466,0.18005882,-0.06712786,-0.32418272,0.30109096,0.19258715,-0.12418139,-0.13748167,-0.02747224,0.19405574,0.109135754,-0.26763,-0.044052415,0.11548576,0.20739968,0.6439506,0.040575374,0.0796002,-0.02507406,0.09717322,-0.222384,-0.105632916,-0.35064006,-0.010606712,0.11229798,-0.095558435,-0.07906568,-0.33594176,-0.42051572,-0.13077492,-0.16603231,-0.08491487,-0.12077305,-0.2018828,0.14207162,0.37466297,-0.12512714,0.33508065,-0.011854128,0.04739218,-0.11768607,0.2462381,0.1288438,0.4976481,-0.2225453,-0.016768498,-0.16983855,-0.06342645,-0.5354434,-0.11948731,0.07237749,-0.19051412,-0.014806698,-0.006868207,-0.076594874,-0.039022777,-0.25806752,0.3943852,-0.15154752,0.17812623,0.1978913,-0.045080245,0.10311879,-0.19914767,0.54906094,-0.09903559,0.024751497,-0.08731352,-0.2568981,0.23923972,-0.22976948,0.0012006352,0.4716525,0.0497365,0.15049323,0.030665383,0.26441395,0.03876133,0.02391288,-0.06985863,-0.52277917,0.21775441,-0.19459353,-0.3098985,0.07218363,-0.19220856,0.1878219,-0.07394596,0.006857779,-0.20293005,-0.10048078,-0.14596818,-0.13281785,-0.27327865,0.06732351,-0.11396029,-0.10655377,-0.039556783,0.63801855,0.013261463,0.16898628,0.19253433,-0.042633247,-0.48630127,0.005364407,-0.032595735,-0.78767985,0.03294937,-0.07393187,0.04119305,0.3756089,0.084027015,-0.011249962,0.07735549,-0.034991276,0.32487318,-0.005568234,0.060007066,0.0031870203,0.0009967266,-0.22859618,-0.06133758,0.04412535,0.10259985,-0.024380995,-0.15371633,-0.10405681,0.068699464,0.46834868,0.20593609,-0.4217768,0.008703665,-0.2438443,0.1656177,0.0015633467,0.06277504,-0.12183652,-0.16683125,-0.024665821,-0.16145302,0.15783936,0.20817697,0.010044172,0.021607319,-0.060418945,-0.041687336,-0.0836784,-0.028824564,0.026216825,-0.13041973,-0.118652456,-0.17172016,-0.18814677,0.045752365,0.3698948,-0.014644419,-0.26309803,-0.100205615,-0.087876216,0.063826606,-0.011265591,-0.13549273,-0.021980884,-0.11117398,-0.082811445,0.06638177,-0.3980691,0.029102769,-0.07794758,0.11162927,0.46311593,-0.062212285,-0.15980275,0.15952702,0.012115711,0.038135458,-0.23116553,0.055480994,0.013331125,-0.15403792,-0.15166195,0.3074792,-0.036266297,-0.11722767,0.16204397,-0.0048072813,-0.17078127,-0.009513274,-0.110388234,0.091718495,-0.29016185
2,-0.17863886,-0.12269014,0.08710564,-0.16395542,0.5870378,-0.13019037,0.00921147,0.0999626,-0.11475747,-0.073572725,0.0045633917,1.208759,-0.29737264,0.0137025155,-0.024552546,-0.18389075,-0.04283313,-0.1558684,-0.15153071,-0.14524332,-0.21185435,-0.21272872,-0.636121,-0.123280264,-0.53332853,-0.18588872,0.025382712,-0.15279312,-0.09838712,-0.11571267,0.20478904,-0.28651112,-0.26404285,-0.041230794,-0.049656235,0.120498836,-0.09150328,-0.24420461,0.048750762,-0.020132778,-0.42054918,0.00091388816,-0.20214,0.13238871,-0.100401714,-0.12984756,-0.01592624,0.41659236,-0.03056615,0.7106201,0.15859272,0.06741818,0.101567365,0.15580519,0.035154432,-0.07795413,0.5186768,0.69273275,-0.079669505,-0.06272067,0.063447,0.111238174,0.009986764,-0.13069133,-0.15371063,-0.068392485,0.052447457,-0.47195327,-0.33396998,-0.05578684,-0.06295307,-0.12457342,-0.2194383,-0.1417075,0.11797005,-0.12609877,0.17399517,-0.23268048,-0.16172768,0.2957245,-0.02659404,-0.013465854,0.0042205327,-0.39952144,0.030415002,0.21302703,-0.25993878,0.1477826,-0.33636037,-0.2532239,-0.17576933,-0.35229018,-0.1743069,-0.22008796,-0.0011419341,-0.05438134,0.0149161555,-0.14117095,0.013125034,-0.02481722,-0.016067699,-0.16904022,0.13060096,-0.20142046,-0.40280947,0.042811885,0.1466529,-0.31832194,0.0060695014,0.221576,-0.14465795,-0.101969905,-0.027989587,0.0155853415,0.37923998,0.106723845,-0.4155578,0.029592874,-0.091449946,0.8415169,-0.1487527,-0.035685465,-0.019046672,0.1996631,-0.06354992,0.038935028,-0.1528522,-0.0964434,-0.012872705,-0.22406131,-0.0005076182,-0.39513698,-0.10448251,-0.037506297,0.12731257,-0.12769769,-0.43247,-0.31009358,-0.09989212,-0.32577914,-0.093706265,0.12399329,-0.5945926,0.025426492,0.050313316,-0.07791945,-0.18465766,0.04667217,-0.1673824,-0.1034448,0.28817302,-0.3802362,-0.24682245,-0.1429128,-0.13384102,0.038038258,0.26837116,-0.22163035,0.10193633,0.09740235,-0.33011904,-0.14936344,-0.1041394,0.3046633,0.037878793,0.08194432,-0.0008968478,-0.030086966,-0.022642644,-0.57103366,0.13039002,-0.118379205,0.13724983,0.02450391,-0.29675996,0.01850452,0.15289906,0.024284264,-0.005456998,-0.104507625,0.082932755,-0.096382916,-0.37526885,0.2153288,-0.04776257,-0.07507642,0.00995548,-0.058616392,0.07259086,-0.19584657,0.02196325,-0.14602116,-0.070129015,-0.015035894,-0.056451134,0.10901987,-0.06239747,-0.42132887,-0.22294708,-0.66443264,1.1153684,0.074185565,0.028681317,0.097570516,0.116334625,-0.07471027,-0.10377622,-0.011971728,-0.30441752,0.007831454,0.6921838,0.036167238,0.100786485,-0.12194288,-0.12057775,-0.08376877,0.015004326,0.0141540235,0.3412259,-0.22418025,-0.08585554,0.6008167,-0.16720308,-0.31686282,0.13221939,-0.034831777,0.92857283,-0.10641402,0.11566795,-0.26194653,-0.077817425,0.015962591,0.12713003,-0.037627462,0.09935945,-0.027475405,-0.3726784,-0.018887263,0.015648697,0.14024061,-0.10819367,-0.17538893,0.012450613,0.053795878,-0.36342794,-0.23487286,0.19124588,-0.14428367,0.42376614,0.35396194,-0.14045931,-0.32979468,-0.12357721,0.36052033,-0.14609039,-0.243726
3,0.11750743,-0.30959958,0.062988326,-0.01726305,0.053611256,0.14749178,-0.42455873,0.09762702,0.0061183665,-0.021717777,-0.4427421,0.10717808,-0.26303437,0.1853093,-0.029043028,0.2864143,0.11442118,0.04898441,0.02279232,0.09631148,-0.034279663,-0.047879916,0.02907783,-0.2523945,-0.33747438,0.08591125,-0.35338116,-0.062033344,-0.23355125,0.27343664,-0.34591654,0.092044346,-0.08601854,-0.21964349,0.12827635,-0.050690625,-0.04491851,-0.048838902,-0.02789551,0.02496646,0.14081722,-0.01197825,0.07493506,-0.14597142,-0.18805775,-0.25208455,0.13293979,0.06507958,0.1379726,-0.08245796,-0.21110551,-0.10836481,0.045714397,-0.25590444,0.12935387,-0.38830283,0.30555347,-0.062153954,0.031394735,0.039065536,-0.10236824,0.061820187,0.051427588,0.08622052,-0.011700359,0.13079229,-0.19694954,-0.15610911,0.14767835,-0.15791239,-0.20650622,0.060990535,-0.04712324,5.3780263e-05,0.054546062,-0.6695027,-0.39584163,0.093433626,-0.4102337,-0.21935053,-0.40706614,0.04403383,-0.019091932,0.054541104,-0.01777585,-0.0633052,0.12369061,-0.48021656,-0.53638464,0.12369574,0.05008695,-0.0070597,-0.23705961,0.0702562,-0.0776857,-0.13148175,-0.070568144,-0.5293884,0.117863454,0.06336702,-0.29311144,-0.0035707317,-0.07323097,0.013350685,0.15527293,0.050929174,0.19334535,-0.28638968,-0.032582745,-0.04653535,0.048450056,-0.522126,0.032824114,-0.13158356,0.16712134,0.06379919,-0.09881573,0.09226663,-0.21272682,-0.26684397,0.13583566,-0.17718408,-0.53904516,-0.36006573,0.023860106,-0.03544319,-0.06682951,-0.14528011,0.08696362,-0.31483632,-0.005191513,0.11616078,0.05749188,-0.119761,0.36249676,0.09659057,-0.317015,-0.5845156,-0.2152244,-0.05919879,-0.25721827,0.105360694,-0.3288238,0.11755804,0.1637448,0.21626414,0.29959103,-0.015691169,-0.13565648,-0.12822346,-0.03624463,-0.011024331,0.18895857,0.043196708,-0.054516263,0.14171554,-0.14420086,-0.08581335,-0.21649744,0.06729714,-0.53625923,0.09836994,-0.009768492,0.022655653,0.028725237,-0.27439275,0.0725415,-0.042807188,-0.3913402,-0.3692897,0.39343986,-0.6115321,-0.15724978,-0.3004363,0.042796873,-0.34548864,0.21166854,0.11610233,0.024486048,-0.19919345,0.21180484,-0.05306833,-0.022558527,-0.093589045,-0.12034092,-0.030270817,0.102624595,-0.099683836,-0.23484981,-0.007522189,-0.42638257,-0.05214443,-0.009829915,-0.21894176,-0.350522,0.0064729075,0.068656646,-0.15626732,0.113593794,-0.71264946,0.21478504,-0.3229201,-0.47106814,-0.26980355,-0.19468094,-0.4948665,-0.5078387,0.046856802,-0.041801553,0.14301053,0.19283637,0.090158455,0.05382443,0.06952495,0.026145672,-0.45853257,0.09459615,-0.09181894,-0.09751201,-0.28552324,-0.3654335,0.2160111,0.05182083,-0.0153308045,-0.038529303,0.02303696,0.010498044,0.085723184,0.05498357,0.063909635,0.06245897,-0.14939228,0.06841945,0.0037490607,0.009891781,-0.21509731,0.084706955,0.2888569,-0.6472391,-0.0616829,-0.06012005,-0.038336232,0.15525171,0.11821123,-0.09110452,0.12553637,0.073516466,0.016504839,0.08397204,0.36028275,0.13018076,-0.23271464,0.13268507,0.15306814,-0.26711857,0.036963895
4,-0.22787961,0.7431234,-0.19242495,-0.21639739,0.36196125,-0.08766201,1.1492548,0.13448837,0.087558396,-0.22361901,-0.38371992,0.17722191,-0.123204276,0.05906206,-0.2086467,-0.094290555,0.10150751,-0.42584276,-0.32565302,-0.14490598,-0.23182175,-0.46369484,-0.2851935,-0.18351912,-0.4378752,-0.2290221,-0.42506057,-0.17275985,-0.46784246,0.01881713,0.029553233,-0.4521639,-0.4811385,-0.23577021,-0.11945566,0.054659672,-0.0030090031,-0.35535654,0.12743777,0.03566244,-0.039573092,0.14229095,-0.45852557,-0.2194024,-0.08830759,0.26800054,-0.2536926,0.13180292,-0.09551333,0.38602623,0.014652676,0.09789128,-0.451443,-0.043408267,-0.29824734,0.90035963,1.2670842,0.3275309,-0.2071717,-0.0419365,-0.02390872,0.00607933,-0.23358548,-0.054181084,-0.26883247,-0.060393576,0.042596903,-0.2822944,-0.27529797,0.41431037,-0.08000445,0.102197066,-0.34320495,-0.20467575,0.06533908,-0.09188611,-0.014205102,-0.34575593,-0.37091717,-0.002936318,0.30330616,-0.21466017,0.053396232,-0.50151706,0.010374212,-0.0900399,-0.37707862,-0.54020774,-0.2775805,-0.39658776,-0.40305534,-0.33387396,-0.38417158,0.17856988,0.16812919,0.11616079,-0.39721256,-0.3438152,-0.017776418,0.15960257,0.63331336,-0.12586305,-0.047778573,-0.15338907,-0.15026864,0.16326718,0.07820095,-0.4066061,0.07843138,0.02845244,0.14534757,-0.28835788,-0.35325217,-0.055594146,-0.2112859,-0.04147742,-0.3044956,-0.0025995274,-0.21082671,0.5092162,-0.18988852,-0.14820354,0.28935996,-0.34330368,-0.31710118,0.10567612,-0.23423417,-0.07515262,-0.1875241,-1.060999,-0.25298864,-0.44451812,-0.12166012,-0.12382618,0.12230862,-0.25379106,-0.84508103,-0.10294317,-5.9168942e-05,-0.13176362,-0.112923875,0.07928156,-0.108996116,-0.14023957,0.044502493,0.77038497,0.008128514,-0.14649898,-0.25865906,-0.3627262,-0.10706448,-0.33983794,-0.33648518,-0.21053506,-0.4192617,-0.2465165,-0.30586442,-0.39938042,0.04233375,0.04223277,-0.47664708,-0.22969109,-0.28606057,-0.11893631,-0.03580152,-0.36192465,-0.094796315,-0.054295838,-0.21691254,-0.35342038,0.1421304,-0.52483374,0.21082595,-0.17520505,-0.332945,0.20288798,0.10266465,0.003243137,0.031962976,-0.1194039,0.28459287,0.30029,-0.4218215,-0.1503096,-0.1870347,0.005090787,-0.038376622,0.18082127,0.12045068,-0.3810222,-0.38377598,-0.19108135,-0.24706319,0.5212901,-0.2820947,0.15330161,0.12891239,-0.1343632,-0.47130412,-0.5138022,0.041627865,-0.3821888,-0.32821077,-0.140013,-0.2692531,-0.40297908,-0.38593608,-0.28234884,-0.37625748,-0.2242867,-0.14021054,-0.28263134,0.18482304,-0.37141737,0.16156812,-0.25630382,-0.0476751,-0.26378232,-0.08654735,-0.30094588,-0.39241135,0.17040901,-0.3666339,-0.33335057,-0.029762847,0.00080779905,0.0035876743,0.13741776,-0.020833716,-0.300319,-0.20854113,-0.01633464,0.008882526,-0.23255628,0.03375453,0.22583435,-0.08521034,-0.17178541,0.88142884,0.090550095,-0.19189382,-0.55347526,-0.35296312,4.05128e-05,-0.24987376,-0.2266566,0.16152382,-0.3413134,-0.28823045,0.32137504,-0.42334044,-0.43285587,-0.10111381,-0.08281061,0.046358798,-0.3209779
5,0.27562973,-0.03781079,-0.020677308,0.04319122,-0.16747607,-0.0060146195,0.31841663,0.1794531,-0.10263843,0.20539215,-0.048437905,-0.03536467,-0.18948786,-0.14800145,0.08393714,-0.0994768,-0.084664725,0.20920035,0.08012028,0.12583388,-0.16910686,0.3989008,0.021639127,0.072063625,-0.22083114,0.1063063,-0.038286738,-0.08587051,-0.13057327,0.011227479,0.36424345,0.23678654,0.110598795,0.1468602,-0.055578817,0.002251813,-0.11346174,0.33940113,0.010044074,0.026435113,-0.08680381,-0.039577104,0.28558347,-0.14466558,-0.0038225064,-0.033254348,0.10491785,0.16807555,-0.30968145,-0.03390679,-0.23750958,0.019397503,0.011922692,0.34646708,0.020318603,-0.077871665,0.33548972,-0.12822929,0.15215778,0.02151514,-0.02425398,0.1661249,0.08549301,-0.15111227,0.2364806,-0.15056373,-0.08365529,-0.2423402,0.057504974,-0.03323505,0.042772166,-0.005702967,0.3421104,0.06575594,-0.008231693,-0.042464826,-0.038755327,-0.11031676,-0.06929907,-0.16595173,0.34396955,-0.028018583,0.109225474,0.33708215,-0.03527681,-0.16232553,0.12229705,0.44364494,-0.0036676393,0.50694704,0.23182873,0.0031150782,0.53869635,0.3666227,-0.06551356,0.0898858,-0.21254238,0.5197077,-0.09531011,0.11215879,-0.03183845,0.3800084,0.24332258,-0.20177664,0.13775745,0.03252671,0.06464885,-0.14271043,0.08395586,0.23626082,-0.17169593,0.17775618,-0.054625183,0.061779663,-0.21552248,-0.012178192,0.14848971,-0.023877108,-0.1262256,0.045332503,0.19866787,0.24241416,-0.010172023,0.037854094,0.20064893,-0.14085636,0.18184634,0.38869515,0.3420646,-0.32314202,0.080762245,0.2831366,-0.036772244,-0.0228015,-0.113020495,0.06317417,0.32340577,-0.024703272,0.26057547,-0.32764283,0.38798755,0.07419955,-0.21824922,0.15017228,-0.0024427967,0.23287347,0.102486424,-0.22126657,0.19891727,-0.067335896,-0.012841562,0.23116891,0.18101709,0.060965933,-0.22474137,-0.25633687,-0.23969954,0.028487835,-0.08054321,0.0872328,0.02430603,0.065326266,0.15211631,0.312122,0.023814118,-0.099594355,-0.12529203,-0.06685665,-0.0674692,-0.11778606,-0.14790806,-0.037068415,0.18257429,0.59472346,0.095773146,-0.11150188,0.13503768,-0.037349317,-0.03189238,-0.24980175,-0.26541024,-0.0926563,0.49801576,0.03707241,0.031287227,0.15455785,-0.058117643,0.07933628,-0.052965205,0.16649583,0.5544065,0.0049153804,-0.03832485,-0.25925294,0.051850013,0.12123606,-0.043127984,-0.014765923,0.49807498,-0.09163083,0.19925329,0.42532766,0.44270298,-0.07724728,-0.31087044,0.12617213,-0.12433111,0.09003169,-0.04658274,0.03522834,-0.038799446,0.07996837,0.038132057,0.06542555,-0.06105599,0.41941363,0.010578208,-0.27406338,-0.015614944,0.31495818,-0.06823173,-0.04264479,0.05413313,0.049758684,0.04742628,-0.008579482,0.08824463,-0.14092435,0.016769854,0.028166573,0.15171754,0.1112741,-0.012499355,0.09551182,0.020594822,-0.2508267,0.29926145,0.28900015,-0.20320015,0.011585772,0.08902776,-0.04065663,0.15667465,0.14682779,0.12603496,0.24719495,0.016887024,0.22015193,-0.11473401,-0.14489023,0.12109634,0.12778412,0.06096173,-0.056239597,-0.106975876,-0.094211474
6,-0.10442558,0.8234821,-0.030151399,0.039295048,0.2427294,-0.14515223,0.63615984,0.13355727,-0.072230496,-0.023765294,-0.20787726,0.079573885,0.2727332,-0.14912039,-0.02575317,-0.121755764,-0.012523419,-0.06324651,-0.17784686,-0.02925774,-0.13624327,0.04389486,0.0046172393,-0.21568462,-0.06682155,0.056775805,-0.06671029,-0.16658722,-0.20840399,-0.3053118,0.04034814,0.034242768,-0.02891287,-0.58796126,-0.14051138,0.06919593,-0.115943894,-0.12586364,0.01482925,0.135194,-0.17760581,0.0970241,-0.014852851,-0.08721841,-0.4227102,0.6788939,-0.021075351,-0.02920507,-0.037850615,0.06440338,-0.27515772,0.031017412,-0.40188816,-0.003747836,-0.060887635,0.60852134,0.26635966,0.11958531,-0.15481071,-0.07048154,0.13051471,0.0028887328,0.0470366,-0.06762005,-0.13889007,0.1748142,0.14088532,-0.14681682,-0.0628348,0.5057974,0.5595414,-0.15159307,-0.044517357,0.07681182,0.12725727,0.22341405,0.104401305,-0.12517671,0.12936866,-0.057193078,0.94108975,-0.053244974,0.10085362,0.17059638,0.01577227,-0.087041914,-0.059768766,-0.48569363,-0.22523262,0.070594855,-0.22547492,-0.089110225,-0.26722765,-0.033988185,-0.030137453,0.06618174,-0.0063777417,-0.32307014,0.027952373,0.04284169,0.38485214,-0.4120293,0.26027566,0.039654624,-0.11089486,-0.076540455,0.31507313,0.2307409,0.27647325,-0.21926767,-0.14868082,-0.56386167,0.06826258,-0.38558418,0.008343648,-0.0447548,0.0544719,-0.028941434,-0.17842434,-0.19842897,-0.16605045,-0.155266,0.3587644,-0.108704746,-0.08380875,-0.042602614,-0.09412321,-0.40452048,-0.17859654,0.06567504,-0.018297136,0.041460294,0.0013893376,-0.14168996,0.02927655,-0.15287106,0.89252394,0.1659949,-0.056959026,0.08258725,-0.29026338,0.1854798,-0.019413332,0.16299196,-0.0045387037,0.06576013,0.13776232,-0.29119852,-0.18268387,-0.06741909,-0.37507898,0.07023047,-0.14183916,-0.05472559,-0.17344825,-0.19074064,-0.20310548,0.06634394,-0.17809682,0.030443203,-0.18631314,0.021905683,-0.07142166,0.5220171,-0.0755918,-0.15863739,0.14865808,-0.02065354,-0.50744176,0.26526147,-0.16046685,-0.19738823,0.14035554,-0.6428554,-0.048796453,0.23644203,0.11029339,-0.12357186,0.002390656,-0.12287552,0.1617139,0.019716201,-0.09449578,-0.07999857,-0.06961121,-0.06612018,0.057623263,-0.0077121127,0.10761233,-0.00528499,-0.5817829,-0.13142005,0.020440098,0.2656172,-0.2718297,-0.0068019843,-0.051657926,-0.21677954,-0.029014671,0.08700949,0.0016499199,-0.020741997,-0.18998729,-0.16931498,-0.05029484,0.085351124,0.26838556,-0.1604461,-0.1532525,0.029713737,0.01706868,-0.068627045,0.34607232,-0.0028285822,-0.13922665,-0.33885783,-0.1462487,-0.14947055,-0.1680016,0.66628635,0.10541056,-0.01672053,-0.094357565,-0.09830423,0.032076735,-0.0733755,0.015908634,-0.07011114,0.06958151,-0.18148302,0.027366182,-0.5460852,0.12854515,-0.113643415,0.07414288,0.5469122,-0.51997864,-0.16372456,0.49146438,0.021156855,-0.018742206,-0.36280265,-0.08675388,0.08116406,0.0037555026,-0.23980775,0.10307115,0.08876553,-0.06692989,0.16566488,0.10600709,-0.36275995,0.026860667,0.050144084,-0.044501703,-0.15806769
7,-0.019363767,-0.10236167,-0.019608537,-0.14871785,-0.046547122,-0.09293815,-0.025985241,-0.08771683,-0.072767794,0.040229812,-0.1009183,0.114853464,0.03496659,-0.08978846,-0.09822855,-0.07741452,-0.15320128,-0.19995396,0.022415707,-0.07843886,-0.10879837,-0.13888444,-0.14670867,-0.032075174,0.41556746,-0.09625014,-0.054843068,-0.009534472,0.17952555,-0.10499125,-0.167742,0.16388743,0.14445446,-0.05814072,-0.1771927,-0.048158847,-0.0049725208,-0.040357593,-0.028230447,0.03917769,-0.28476894,0.028408602,-0.056101464,0.008206404,-0.0294852,-0.34858882,-0.15527494,0.04043683,-0.110626966,0.022162404,-0.108471185,0.03667314,-0.13792732,0.045298774,-0.0932141,-0.113061376,0.3113207,0.013183394,-0.12125541,-0.053182244,-0.08361692,-0.15809672,-0.0811374,-0.18336235,0.06944191,-0.31665972,-0.18944551,-0.12200323,0.32448003,-0.113120854,-0.15613565,-0.05030794,-0.026415985,0.047785003,-0.09346353,-0.14287877,-0.25197804,-0.06202073,0.08360467,-0.004411259,-0.20457548,-0.18251492,-0.13513741,0.06654175,0.11301902,0.034710295,0.068696626,0.11438215,-0.13503304,-0.14194947,-0.040793296,-0.06056174,0.053310037,-0.13731782,-0.17193036,0.12801297,-0.12649609,0.068525136,-0.031217242,-0.010442443,-0.083292395,-0.03865158,-0.004179855,-0.19051994,-0.28486815,-0.010233863,0.15479264,0.2569095,0.062747955,-0.07528022,-0.023248844,-0.11136535,0.0107649965,-0.14308791,-0.058373865,-0.034679398,0.25639692,-0.027063895,0.08233631,0.21553609,-0.28836933,-0.08456761,-0.13536869,0.17159605,0.24233133,-0.20314752,-0.14169733,-0.092466466,0.0026486677,-0.016924068,-0.09385679,-0.23421197,-0.04467619,-0.17265286,-0.21241973,-0.21952663,-0.18144497,0.016061783,-0.12638712,-0.18380803,-0.022770165,0.3656124,0.06693214,-0.014722076,-0.029659538,0.13997853,0.012955944,-0.037174463,-0.02158065,-0.021816302,-0.07792508,-0.09837073,-0.1762421,-0.17038584,0.06393815,0.06259094,-0.055029783,-0.12683465,-0.2503934,-0.15621048,0.004421106,-0.12609322,-0.11741296,0.04366667,-0.14337681,0.1121064,-0.30504793,-0.021238906,0.09643413,0.26246366,-0.23230267,-0.4070366,-0.16920571,0.08749651,0.23088549,0.011995455,-0.05828396,-0.062753625,0.0013177091,-0.08095312,-0.21752456,0.023608755,-0.023637764,0.0012373955,0.042054754,0.22788501,-0.04218645,-0.02652653,-0.14509071,0.013540186,0.015856527,-0.11851383,-0.08674122,-0.11696856,0.030441193,-0.020852992,-0.1694967,0.00096526026,-0.24091375,0.38498318,0.052308895,0.12265095,0.05199926,0.0056927414,0.047095485,-0.22869107,0.08360897,0.012484261,0.1518364,-0.16264284,0.2538102,-0.07692248,0.060456216,-0.20242067,-0.10985962,-0.01961066,-0.12398128,-0.13553226,-0.13057971,-0.015174422,0.0048765894,0.08680644,-0.15710358,0.0026498162,-0.05912405,-0.04004283,0.10073894,-0.03992203,-0.061926384,-0.028955577,0.007241269,-0.14600813,-0.058522083,0.10264355,-0.073037155,-0.021314925,-0.07864778,-0.34937173,-0.28908467,0.039462447,-0.16326901,0.13633311,0.08544668,-0.08058276,-0.06624408,-0.20207866,-0.23521358,-0.15573755,0.08670276,-0.32801253,-0.15716974,0.022634044,-0.2714125,-0.034522347,-0.03731487,-0.14575133
8,-0.084809706,-0.012387876,-0.019862456,0.052642528,-0.06183701,-0.08414703,-0.06671528,0.04818745,0.025567604,-0.15828796,-0.07073597,-0.027462825,-0.18639247,0.011034547,-0.047027968,-0.05351738,0.05580938,-0.21659864,-0.37318227,-0.018514317,-0.16992424,-0.26839057,-0.2336591,0.061728787,-0.18155669,0.0287771,-0.24564165,0.02184179,-0.117335126,-0.09386909,-0.010406452,-0.18274361,-0.21168794,-0.053457733,-0.05004959,0.0991672,-0.061793994,-0.18749036,0.027200656,0.0072088507,-0.108301386,-0.07593258,-0.054077677,-0.11141885,-0.04761876,-0.294588,-0.10404923,-0.09562417,-0.10414105,-0.090670004,-0.07055663,-0.11555767,-0.1781497,-0.15024874,-0.085171044,-0.15467949,-0.013014039,-0.14941406,0.01048382,0.04116393,-0.016825557,-0.16091962,-0.04408924,-0.06285727,-0.19576651,-0.009327996,-0.12743437,-0.08779948,-0.15897925,-0.07370084,0.018473085,0.04590179,-0.15847372,-0.099801876,0.05089159,-0.18971565,0.08951317,0.048953753,-0.096860684,-0.10315069,-0.0068809823,-0.1616151,-0.13529493,-0.21356054,0.101227544,0.029413728,0.028008992,-0.03707453,-0.04470083,-0.17727646,-0.08319724,-0.0331261,0.087637976,-0.011443526,-0.115694426,-0.15906835,0.015060885,-0.06957767,-0.14442375,0.085167594,-0.16488513,0.01341952,-0.0055956915,-0.19560286,0.03756058,-0.03497893,-0.02181099,0.017802358,0.0062273876,-0.24445227,0.011826402,0.021883242,-0.13679495,-0.13934806,-0.07641679,0.14109558,0.02224331,-0.12776773,-0.05967692,0.0372773,-0.027582798,-0.06706244,-0.18153235,-0.06468879,-0.004980126,-0.13709064,0.0066539603,0.16667579,-0.102933474,-0.010593158,-0.018767485,-0.16924703,-0.13504963,0.022026846,-0.14896575,-0.11304625,0.019031297,-0.12596396,-0.117233984,-0.057107273,-0.08903374,-0.029272642,-0.28137538,-0.0458451,-0.14221175,0.03762642,0.012368022,-0.11761285,-0.0849898,-0.25343543,-0.09695263,-0.14820348,-0.0028403306,-0.043388657,0.022825405,-0.0929754,-0.15429728,-0.17844568,-0.008215543,-0.003580611,0.05878981,-0.079896785,-0.06170235,-0.18337451,-0.05067942,-0.22031662,-0.06076922,0.06725473,-0.09895018,-0.1949594,-0.046586167,-0.21909066,-0.026823703,-0.037300497,-0.13843726,-0.11653143,-0.06640732,-0.07170165,0.024281066,0.03290086,0.011326058,-0.05572657,0.03606279,-0.12897718,0.13582969,-0.095298894,-0.09531274,-0.009232135,-0.27671236,-0.23235978,0.059211947,0.029647011,-0.1750482,-0.16205277,-0.17700417,-0.09713526,0.022734659,-0.086608894,-0.10659379,-0.10879059,-0.10072237,0.12647949,0.1318801,-0.03153599,-0.0900835,-0.090768695,-0.017315399,-0.15677415,-0.1574279,0.01792163,-0.15168862,0.023879938,-0.10012152,0.03981006,-0.12223252,0.14359987,-0.14904013,-0.14140795,-0.100829914,-0.24490911,-0.097760744,-0.1476847,-0.027089959,-0.14266765,0.13402662,-0.090629324,-0.2001168,0.03821129,-0.021867234,-0.14028713,-0.13024741,-0.05052155,-0.10354113,-0.1621618,0.026310498,-0.13298734,-0.11379257,-0.030547488,-0.10940817,0.079242885,-0.16018434,-0.20173325,-0.09429813,-0.013367946,-0.009050454,0.051665083,0.02697515,-0.15226007,-0.27109087,-0.09304409,-0.023138119,0.15124506,-0.13881053,-0.0527482,-0.02601124,-0.13473332
9,0.27886063,-0.54472464,-0.16367094,-0.06441413,-0.090877555,-0.03768368,-0.1181863,0.1755073,0.16342382,-0.15126619,-0.4656023,-0.3723624,0.16293819,-0.003913293,0.07649296,0.03785532,0.16931944,-0.08484208,-0.005920347,0.13021848,-0.32487345,0.22519842,-0.03248519,-0.10236557,-0.3633842,-0.030085618,-0.05530128,0.07230761,-0.16028456,-0.14943047,-0.060651306,-0.084825225,-0.0996632,0.08626276,-0.05161834,0.04125432,0.044608857,-0.14552745,0.080812,0.11599052,0.040435698,-0.047850303,0.14392322,-0.103663266,-0.16687116,-0.57147723,0.1269144,0.10659961,-0.0043554627,0.022569317,-0.049993966,-0.033432804,0.025133139,-0.14821954,0.08358718,-0.27929097,0.6515308,0.20483191,0.010773769,0.099084504,0.13300957,-0.011025999,-0.14431907,0.014911914,-0.29875854,-0.17377426,0.17369114,-0.11046485,0.04758725,-0.328604,0.062615134,0.074623875,-0.024107983,-0.10968797,0.15539797,-0.3073569,0.17402455,-0.050387982,-0.00067108835,0.068211436,-0.45863348,-0.008022371,0.16205318,-0.15823005,0.12343101,0.018069765,0.0066112513,-0.12349244,-0.48522034,0.15137662,-0.10526291,-0.038242444,-0.21502456,0.22054027,0.14351137,0.14901952,0.10683573,0.051334072,0.016315574,0.024652122,-0.082585424,-0.10227377,0.30561918,0.12572551,0.10095528,0.10787728,0.019230101,-0.0970279,0.3744948,-0.35505608,-0.0037385102,0.06879776,0.018331809,-0.35682106,-0.0774149,0.05388595,-0.22118162,0.06505465,-0.26734388,0.13274428,-0.0099811675,0.025529249,-0.090288,-0.048578233,-0.17278554,0.122825764,0.032147203,-0.17228937,0.00041234048,-0.24416453,0.08929057,-0.12435652,0.13950232,-0.12331825,0.064321145,0.105340704,0.67347825,-0.12529472,-0.18732698,0.116205975,-0.037408717,-0.05016409,0.16233644,-0.012013643,-0.019767966,0.22571485,0.24658929,0.04970649,-0.26485655,-0.0019104921,-0.13865374,0.08988707,-0.044328794,0.08644093,-0.20617735,-0.0066692885,-0.1520486,-0.026136585,-0.080868624,-0.026562497,-0.71978563,0.020615056,0.11032676,0.16766869,0.16393493,-0.14277023,-0.17093064,0.077903174,-0.1603636,-0.17774406,0.1442601,-0.46841696,-0.028210923,0.012471712,-0.09949691,-0.03651874,0.11869987,0.10084637,0.003404531,-0.10421709,-0.056341194,-0.07023227,0.10973195,0.041901812,-0.52915275,0.2721015,0.020580696,0.10357329,0.13565394,-0.09957016,-0.21719064,0.026362969,0.14570437,-0.22426018,-0.20788321,0.036950663,0.03564667,0.19677477,-0.026569732,-0.3425346,0.089017294,-0.07206497,-0.03632427,0.12041377,0.0017046917,-0.2512848,-0.08609635,0.1447103,-0.107578546,0.17067371,-0.038565442,0.1684018,0.14220962,-0.11909113,0.12818332,-0.17069104,0.005978299,-0.08318055,0.22441497,0.35616356,-0.04069568,0.07303882,0.0783934,-0.046407938,0.03903007,0.08980718,-0.15482002,-0.027713368,-0.040367205,-0.3785583,0.053363495,-0.00057858624,0.08948061,-0.016489197,0.035604876,-0.030716483,-0.31083244,0.16262902,-0.50218946,0.13177937,-0.080242656,0.058272164,-0.034341663,0.09854211,-0.059123598,-0.031186773,-0.42479664,0.06378705,0.016211292,-0.3369431,-0.1173204,-0.5433602,0.020937685,-0.043366894,-0.20108652,-0.19622481
10,-0.13770948,-0.08822485,0.28208125,0.18407357,0.73208946,0.017622696,0.30883548,-0.31362972,-0.106804155,0.09943669,0.0697971,0.6118439,0.04140152,-0.032620005,0.13391736,-0.08098924,-0.021540547,0.14863525,0.14242667,0.13349181,0.031675167,0.20351866,-0.18892436,0.13375701,0.2933502,0.059918653,0.09786021,0.014463031,-0.0028507193,-0.4105843,-0.18138568,0.10572298,0.011884624,0.22065245,-0.015594444,0.16781084,-0.00869659,0.13331293,-0.030286163,-0.052038956,0.01445361,-0.030156355,0.10920737,-0.029959098,0.32242277,0.11118482,0.051243663,0.22047612,-0.46293172,0.5694797,0.19916907,-0.04495438,-0.20603223,0.18977794,0.059382714,0.08856746,0.3304011,0.44812676,-0.19935577,0.020139268,-0.1414486,-0.14070557,0.15318018,0.003375316,0.19268848,-0.54683244,-0.030340154,0.051482372,0.19311434,0.317226,0.06680749,0.022663862,0.067219675,-0.029799996,-0.15613705,0.097953655,0.43378943,0.10611992,-0.030265149,0.015252155,0.3575392,0.09727056,-0.010773847,0.1416806,-0.036663484,0.1898365,0.0933496,0.30757245,0.06546759,0.007991601,0.03714778,0.08222698,0.45591065,-0.10505737,-0.11213071,0.0064803623,-0.23255368,0.13162045,-0.13656306,0.025240114,-0.18189995,0.19619924,-0.062393438,0.077187784,-0.14203237,-0.13334447,-0.20383735,0.06436317,-0.2368505,0.2177846,-0.11030799,0.17320928,0.06412919,0.837357,0.32629457,-0.13672884,0.12890854,-0.07287401,0.037212927,0.026198765,0.018691998,0.060167544,0.23576333,0.21943085,-0.0029369532,-0.15948175,0.12484581,0.07130138,0.0023083112,0.08892534,-0.030257182,0.11869568,0.006226174,0.09732312,-0.44180596,0.06360782,0.09200824,0.1262969,-0.115542985,0.18037781,0.005837489,-0.27643657,0.4107319,-0.08067981,-0.0056325677,0.56543076,-0.29325876,0.07949621,0.26283646,-0.0053538484,-0.039309505,0.08608659,0.104777575,0.15566337,0.15532354,-0.1392146,0.42638808,-0.05254007,0.0087908665,-0.06275513,0.032256752,-0.07921014,0.14606367,0.05965325,-0.066229425,0.20256598,-0.38855928,-0.09139857,0.09707398,0.45867538,-0.36236104,0.53522366,-0.42403904,0.06648433,0.13369153,-0.20300962,-0.23068197,-0.10625488,-0.14927204,0.18777192,-0.5343914,-0.18753469,-0.047796715,0.07021056,0.31272432,0.2019817,-0.027619777,-0.115203455,0.20489433,0.11708731,0.24733469,0.14828913,0.10178693,-0.2911115,0.15542832,0.14361978,-0.037473027,-0.24983323,-0.017205333,0.042120785,0.16196904,0.13068062,0.26318422,0.15764283,0.044638377,0.04561331,0.0582943,0.14063488,-0.00052766624,0.15259384,0.34350395,0.04529287,-0.33326644,0.15531084,-0.084178925,0.3403095,0.29228488,-0.012714705,0.20962957,0.13145706,-0.17666687,0.18100663,0.076728955,-0.029332979,-0.014801196,0.06384725,0.23555411,-0.03670822,-0.10532928,0.17692442,-0.032445956,0.10017592,-0.13836409,0.048462365,-0.013681343,0.057845384,0.09843076,0.086138174,0.37850633,0.03740377,0.12286602,0.018987365,0.033717576,-0.04783936,0.13042791,0.050270237,-0.2796105,0.023004726,0.23633029,-0.4467241,0.065022625,0.07775696,-0.120941214,0.26775387,0.0005660321,0.45758963
11,-0.17595401,0.38553712,-0.042642657,-0.26512647,0.5814778,-0.069579534,0.5171091,-0.0547161,0.0846378,-0.26084208,-0.507673,0.20179467,-0.45539564,0.009203824,-0.24034818,-0.13545029,0.09984964,-0.2808479,-0.1996962,-0.16304755,-0.3564673,-0.2110392,-0.5394908,-0.25116408,-0.44676954,-0.26124194,-0.43135154,-0.11853242,-0.39075485,-0.07913416,-0.5355943,-0.21685831,-0.26292804,-0.05606698,-0.016916892,-0.10997543,0.0014810874,-0.2417856,-0.027690863,0.020237273,-0.054926764,-0.064363934,-0.31942534,-0.107473806,-0.07704164,-0.2045637,-0.090232514,0.17715518,-0.16636536,0.9216026,0.027237311,-0.1411383,-0.14508352,-0.17033847,-0.22906289,0.3706702,1.2338738,0.5517605,-0.24726486,0.11324911,0.01585517,0.032587856,-0.292706,-0.22546753,-0.2687179,-0.2244488,-0.16064435,-0.58897793,0.093502335,0.06312719,0.007224096,0.014583692,-0.2085092,-0.17083867,0.042914167,-0.109036095,0.044704158,-0.13201742,-0.500407,-0.35577297,0.5345334,-0.09307183,-0.08375041,-0.26904002,-0.15477672,-0.046432488,-0.18310599,-0.23238891,-0.5013342,-0.18164288,-0.2601222,-0.20997815,-0.12088524,0.24256004,-0.03616705,0.1631073,-0.23200208,0.13446884,-0.068072625,-0.0897232,0.6694743,-0.083176486,0.042344343,-0.5095525,-0.30177054,0.08500239,-0.08349326,-0.6750041,0.0066851475,0.16220826,-0.009249143,0.048671722,-0.23492217,-0.057218827,0.14578703,-0.10233837,-0.50433767,-0.00791878,-0.19148843,-0.13878375,-0.19407162,0.05544174,0.31640762,-0.01713777,-0.18029252,-0.091436155,-0.21813206,-0.09482438,-0.18375261,-0.21786016,-0.11424028,-0.25513658,-0.21341665,-0.13661434,-0.15621808,-0.18311621,-0.96509105,-0.17501883,-0.20776169,-0.7694786,-0.05553706,0.23398279,-0.36699224,0.052951556,0.061478987,0.9354489,-0.12724444,-0.20891087,-0.11394009,-0.19781478,-0.27436158,-0.34031352,-0.26469702,-0.13206314,-0.4017245,-0.08946536,-0.21021599,-0.3285499,0.096685074,-0.07829232,-0.6642206,-0.115175724,-0.24935402,0.23051858,0.085728735,-0.3868473,-0.18460849,-0.050345447,0.015022928,-0.0228869,0.14345807,0.29747826,-0.26330888,-0.07156532,-0.3039371,-0.4193604,-0.07321149,0.15000124,-0.09357663,-0.3523964,-0.1203278,0.064394295,-0.40729788,-0.06370489,-0.17382903,0.50086987,0.10713094,0.11005616,-0.03314509,-0.2975221,0.09353495,-0.09616938,-0.07329348,0.20573083,-0.4754273,0.0024166321,0.1281617,-0.12020594,-0.19710839,-0.6912855,0.25251397,0.104254566,0.11240857,-0.41051757,-0.20592698,-0.2964357,-0.1795236,-0.16919431,-0.106425494,-0.19215928,0.21343686,-0.24489681,-0.057260532,-0.23889974,0.033417214,-0.17743644,0.039157458,-0.22230254,0.008118112,-0.18567055,-0.7308115,0.74122703,-0.34945148,-0.19754663,-0.070525065,0.08173327,0.41131383,0.10589564,-0.07745629,-0.2733962,-0.16311914,-0.048714783,0.074288584,-0.27460364,0.07654466,0.0022796306,-0.015619553,-0.22352654,0.7556676,-0.14331403,-0.25970432,-0.39993545,-0.27449125,-0.09134612,-0.13402513,-0.2604084,-0.0342895,-0.14740288,-0.04653896,0.23363374,-0.30315393,-0.64476883,-0.040908683,-0.035173748,-0.47817743,-0.1734466
12,-0.16234095,0.44165483,0.10727419,0.05045632,0.40616107,-0.053200856,0.51312387,-0.14569694,0.31346112,0.17017335,0.03577979,0.38154432,0.06979734,0.1805453,0.09710947,0.0059295865,-0.11433552,0.0698285,0.2195237,0.24432401,0.040306114,0.07227436,-0.18680346,0.02543769,0.037009507,0.16385904,-0.31028193,0.1573565,-0.14572442,-0.53670955,-0.37955213,0.04575816,-0.04843139,-0.058671106,0.083499886,-0.11461587,0.15084408,-0.07803452,0.0300164,-0.15443034,0.11452475,-0.07654286,0.019586803,-0.035318706,-0.070159666,-0.7569827,0.21232584,0.37473497,-0.18256027,0.2776618,0.3137067,-0.0941206,-0.5930076,-0.2231202,0.18479462,0.6105467,0.54172647,0.17087889,0.00069581764,0.05662722,0.021253409,-0.010604259,0.19659166,0.018308785,-0.011557649,-0.40692806,-0.08713228,-0.017136458,-0.40180677,0.4178588,0.051823687,0.22933389,0.043352876,0.17725413,-0.007902593,0.068031214,-0.006118335,0.08232298,-0.12508686,-0.03799983,-0.11726597,0.098726004,0.040660232,-0.15177822,-0.03139589,0.30774367,-0.028878886,-0.42537412,-0.07324501,-0.036854453,0.07475662,-0.07766451,-0.16234516,0.09888419,-0.0813238,-0.14131305,0.015624206,-0.56137913,-0.049656805,-0.1591765,0.09453493,-0.16494173,-0.01615495,0.2152817,0.047952272,-0.0730322,-0.2273174,-0.10759243,-0.08895161,0.13265637,-0.16584647,-0.33989125,0.24252816,0.19190273,0.10959144,-0.008634042,-0.19570306,0.009057946,0.08549941,-0.34947142,-0.095561706,-0.079267144,0.23264924,-0.009342983,-0.0092580365,-0.2680152,0.12453231,-0.3978279,-0.08869325,0.015008892,0.16421454,-0.064854704,0.15824376,-0.109011024,-0.5137029,-0.025245158,0.063299894,0.25825137,-0.33390936,0.2109058,-0.43693116,-0.09280019,-0.23916228,-0.16026768,-0.10483569,0.33499134,-0.038135763,0.15084454,-0.07445867,0.1416919,-0.2285608,-0.030081613,-0.00856521,0.09933786,0.24833308,0.08864533,0.34118906,0.025064265,0.14443617,-0.063264,-0.067958,-0.102259904,0.11769493,-0.30007476,-0.014394204,-0.121636815,-0.4741998,-0.06575807,-0.09552089,0.083307326,-0.37627393,0.07799826,-0.46750656,-0.45344436,0.09709894,0.058722336,-0.09839412,-0.088542156,-0.1656934,0.0696879,-0.26821968,0.05905358,-0.1299841,0.1967328,-0.24666,0.054867525,-0.018972844,0.11238282,0.26887366,0.115027554,-0.42481253,0.10656085,0.2710892,-0.39436483,-0.12658645,0.09042153,0.050452065,-0.26839304,-0.053993072,0.045502238,0.09689416,-0.32062525,-0.50094783,0.024564702,0.09041747,-0.05822666,0.26239246,0.13888034,0.15670215,0.16861816,0.1248321,0.062464606,-0.12509117,0.066549085,-0.32279268,-0.23553802,0.25390595,0.14344089,0.21631445,-0.21226837,-0.13117284,0.21484943,0.04122335,-0.18854956,-0.06374359,-0.006896896,0.040122274,0.006758573,-0.036399778,0.09590972,0.09668371,-0.17949112,-0.14906721,0.21072541,-0.0035513889,0.34174418,-0.277015,-0.09360249,0.52966815,-0.11242656,0.16140367,-0.26855496,0.07353035,-0.004364593,-0.03750545,-0.052746397,-0.4563862,-0.06543212,0.2452411,-0.56247014,0.06267647,-0.23560375,-0.124628074,0.32324684,0.08125383,0.24769041
13,-0.15185219,-0.024948921,-0.1352072,-0.015396635,-0.12673676,-0.09860796,-0.03270609,0.111828305,-0.025908407,-0.106552415,-0.05344238,-0.22030197,-0.11118374,-0.09961276,-0.06905215,0.009115934,-0.12530924,-0.104185656,-0.18134901,-0.15871632,0.002968768,-0.05671231,0.09050519,0.02536456,-0.07875824,-0.05623829,0.07258207,-0.13492543,-0.10826585,-0.14885807,-0.037360333,-0.061969843,-0.1448478,-0.08877773,-0.12176903,0.1548213,0.022922006,-0.15709001,-0.10408892,0.0065132086,-0.019873163,0.019001253,-0.009715872,-0.15514062,-0.062774494,-0.07821721,-0.15131694,-0.04333547,0.0010300277,-0.08490645,-0.1860505,-0.026005337,-0.049745973,0.110204175,-0.12971051,-0.14570192,-0.10744526,0.012394584,-0.11167162,-0.07998925,0.09362608,-0.16115974,-0.1464062,6.78347e-05,-0.041797444,0.08925847,-0.07441635,-0.11936475,-0.09255317,-0.03452156,-0.1262226,-0.020397536,-0.15514931,-0.15521735,-0.00669244,-0.12498723,0.031509157,-0.1165246,0.046262197,0.0002423695,-0.032994565,-0.15117648,0.0008078432,-0.09015444,-0.035958048,-0.21181951,-0.13085048,-0.039115112,-0.04209087,0.009180668,-0.057273015,-0.063728124,0.034240585,-0.11694094,-0.13325351,0.11451428,-0.037502006,-0.05774068,-0.14406607,-0.011007181,-0.15598094,-0.020528106,0.016472362,-0.09654111,-0.043893,-0.010524422,0.13138285,-0.017358193,0.03461108,-0.10167213,-0.06368245,-0.024730386,-0.11774565,-0.09545864,-0.07761679,-0.01407977,0.07366635,0.091443524,-0.14596991,-0.10479665,-0.06992783,-0.06040112,-0.04494437,-0.02164764,-0.09854443,-0.16132858,-0.103030026,0.030598598,-0.16664083,-0.013291401,-0.16577315,-0.06046179,-0.017014578,-0.105779104,-0.10918479,-0.1576496,-0.042871915,0.11567505,-0.044254538,-0.22505212,0.15987675,-0.090795994,-0.18617827,0.0023561544,-0.056011014,-0.13414508,-0.044964284,-0.15388253,0.02443695,-0.08486348,0.018749755,-0.17051724,-0.04999295,-0.15345654,-0.35401133,-0.08431133,-0.068711534,-0.08054115,-0.020869797,0.13638948,-0.14579119,-0.101322986,-0.0726818,-0.107060805,-0.07531609,-0.11480591,-0.028504256,-0.021845814,0.024557287,0.09748472,0.006688143,-0.111877225,-0.0003633998,0.05772442,-0.14132722,-0.1620637,0.12183774,-0.02032139,0.13201742,-0.11150778,-0.05074204,-0.1701512,0.032663185,-0.16286463,0.038608007,-0.030859949,-0.17325184,-0.12776135,-0.074506775,-0.210524,0.15304838,-0.15165994,-0.029149504,-0.07016751,0.09046082,0.12707913,-0.00564898,-0.08249183,-0.04445009,0.22878328,-0.11271407,0.03945759,0.08541778,-0.229888,-0.2371614,0.040654596,0.024479767,-0.051871527,-0.00412392,-0.15796918,-0.1665543,-0.16217352,0.0480313,-0.1275432,0.020160904,-0.03621998,-0.17318332,-0.11176986,-0.07880147,-0.008124641,0.022408344,0.040505353,-0.11514858,0.034876447,0.08370544,-0.1488385,-0.089396834,-0.09965252,0.06194638,-0.13869841,-0.1715383,-0.13465478,-0.014659339,-0.0797371,0.05543168,-0.16992563,-0.044454977,-0.06719533,-0.010117994,0.0020425224,-0.09849735,-0.12053496,-0.08829672,0.04151061,-0.17224361,-0.15344433,-0.032458216,-0.04527401,-0.08379732,0.043150447,-0.12048065,0.056659874,-0.03181169,-0.15494631,-0.037418503,-0.1517563
14,0.13390341,-0.5972526,0.2685004,0.19684166,-0.1928907,-0.063913725,-0.5010378,0.03813034,0.052508175,0.044634804,-0.20941499,0.16888462,0.4739102,0.022258006,0.02967672,-0.029209038,-0.0044308486,-0.029754667,-0.112491205,0.019181488,-0.34117907,0.06913906,-0.02450788,0.08880423,-0.22899114,-0.058228713,0.06397273,0.0251908,-0.27287105,-0.07869729,0.114749804,-0.0010712993,-0.044602554,0.40732667,-0.11926633,-0.12890066,0.0714581,-0.06952619,0.11325204,0.0383132,-0.21163446,0.02942832,0.09371729,-0.011612503,0.18700966,-0.6386241,0.15443015,0.22618988,-0.22765929,0.37186438,-0.22584982,-0.017418636,0.3181218,0.29715747,-0.09090256,-0.6276058,0.16026044,0.15443893,0.2480934,0.004147848,0.14509754,0.15190065,0.08997155,-0.012515635,-0.08440854,-0.07758244,0.25472167,-0.16270989,0.44655308,-0.38544825,0.28082782,-0.024915842,0.016436914,0.18475956,-0.009693855,-0.1356275,0.3428015,-0.028579814,0.45600292,0.020386957,-0.59271675,-0.010769205,0.055139445,0.07397319,-0.04799306,-0.195505,0.014456637,0.44186836,-0.241443,0.16616079,0.18367751,0.055006094,0.12080263,0.4463344,0.15691346,0.07990178,-0.13046718,0.606714,0.12382133,0.051135484,-0.22850089,0.11642293,0.04868638,-0.035064675,-0.10700091,0.05681949,0.016207723,0.1992172,0.02726316,-0.06886324,0.11348228,0.38046965,0.09123013,-0.03496262,0.208543,0.011469281,0.058837127,-0.018053446,-0.24375272,0.4281134,0.08818324,0.3677233,0.014680805,0.5350121,0.22684413,-0.105464004,0.11145865,0.23209342,0.09176724,0.05019346,0.034632005,-0.15389778,0.044656124,-0.12513046,-0.22571772,0.1664343,0.37321872,0.11971629,0.26374587,0.04982182,0.29423594,-0.23457117,0.2580805,-0.049178004,0.11632178,0.088243514,0.14183481,-0.09045469,-0.14334878,-0.08001691,-0.09018316,-0.002729643,0.22368532,-0.08196971,-0.2622515,-0.0009367498,-0.039599128,-0.021194832,-0.17516564,0.089951985,-0.46814436,-0.090486534,0.11334517,0.110187456,0.073979415,-0.103353776,-0.7731785,0.045018233,0.41781005,-0.33092195,-0.014055602,0.10649744,0.082300276,0.4474389,0.074995555,0.31158096,0.09754984,0.14861621,0.027409729,-0.20333248,-0.26340607,0.09038694,0.126391,0.111529626,-0.011950447,0.49846625,-0.039380047,0.03048111,0.1403737,-0.0604328,0.5897465,0.02791063,-0.077633135,-0.690194,-0.063733555,0.1352823,0.09375839,0.392621,0.14150959,-0.1022345,0.5036807,0.34804425,0.27408123,0.11353609,-0.09701216,-0.08874015,0.015465646,0.102956355,0.05405005,0.1611509,0.27994794,0.1886111,0.4008983,-0.049359716,0.11346574,0.19648427,0.090720765,-0.33829126,0.092859,0.9495766,-0.26859024,0.15283236,-0.13512759,-0.022418873,0.07989881,-0.045297194,0.24522999,0.16133662,0.082452945,-0.06508264,0.15462391,0.2269998,-0.019058106,0.028669737,0.16244952,-0.37831187,-0.072376,0.042994656,-0.5386174,0.10595729,0.025605088,0.13667469,-0.025041819,-0.012072713,0.12798302,0.2599186,-0.1805082,-0.063517004,0.23059738,-0.3945872,0.042809576,-0.16837952,-0.1754907,0.13153209,-0.30484805,-0.13341911
15,0.20146763,-0.12629463,0.063152656,0.10055139,-0.026069319,-0.013682685,0.28108683,0.22835118,-0.017164385,0.13897285,-0.03921841,0.09217881,-0.21639886,-0.13594069,0.05565111,-0.09113744,-0.06715309,0.32921022,0.11957054,0.14397861,-0.13927443,0.37395445,0.0099012,-0.13759935,-0.06376984,-0.03322485,-0.029113574,-0.020499984,-0.050005052,-0.12467038,0.31970567,0.21736662,0.2371599,0.24693458,0.086302154,0.023419501,-0.2035797,0.35423148,-0.055330086,0.16352925,-0.037090853,-0.007374417,0.27724946,-0.118443035,0.0971636,0.057026155,0.049398962,0.08284123,-0.36693215,-0.02906939,-0.13290049,-0.05352873,-0.042626876,0.15614547,-0.022752218,0.04811884,0.4305285,-0.014083695,0.29680616,-0.09750292,0.07618295,-0.047573406,-0.019590465,0.021685982,0.29283845,-0.05478238,-0.090853445,-0.20105559,0.07140807,-0.046403967,-0.09777797,0.08026719,0.18749683,0.24206783,-0.024572747,-0.07312451,-0.2778951,-0.019161396,-0.08095253,-0.070147015,0.12501094,0.036658116,0.10405699,0.1982193,0.16528942,-0.34418988,0.27875102,0.46442303,0.13118373,0.52405435,0.22765796,0.014171657,0.37449104,0.27933612,0.05920204,0.052956227,-0.08976607,0.42650202,-0.10516045,0.11684631,0.11730999,0.13531388,0.13652886,-0.11790095,-0.06522543,0.02482896,0.09901391,0.010871663,0.32489172,0.40067056,-0.03770443,0.15521947,0.060820654,-0.13747254,0.11866649,0.061587274,0.13486414,-0.026509874,-0.10046268,-0.05082691,0.18269345,0.10560888,-0.112032466,-0.04464796,0.23409346,-0.2517182,0.10485209,0.3483718,0.17751971,-0.14348924,0.11451047,0.35788167,0.17204517,-0.18791436,-0.23288828,0.0971707,0.165661,-0.18484066,0.12814598,-0.35058233,0.3892097,0.09956663,-0.10669783,0.07708134,-0.07099362,0.19995973,0.17593557,-0.22818059,0.143753,0.091819026,0.056281585,0.3656917,0.06355894,0.090088,-0.2127689,-0.070370555,0.046577856,0.1593932,-0.24643409,-0.04525683,0.013738771,0.15029714,0.14025779,0.2078776,-0.010440413,-0.1548124,-0.13710783,0.018262014,-0.045812454,0.025802651,-0.23470436,-0.11732625,-0.03283264,0.4537501,0.21401066,-0.05880091,0.14681126,-0.10151208,0.09601306,-0.23885582,-0.14568795,-0.118170656,0.58711714,0.24458075,0.07274934,0.0047756364,0.010056598,0.07675169,-0.3989781,0.17263635,0.433395,-0.0089042075,0.058508743,-0.14968774,-0.014128891,-0.008725236,-0.062069498,0.18168217,0.36334255,0.03220059,0.09412085,0.48668513,0.688651,-0.09803703,-0.2762438,0.0049731173,-0.007463332,0.09139468,0.12494608,0.09771351,0.17707321,0.16188529,0.04736566,0.1975164,-0.020883989,0.41927975,0.11964891,-0.15361652,-0.15016943,0.17546602,-0.070380285,0.0579517,0.31276456,0.21281229,0.04440888,0.046369426,-0.0028182948,0.055723015,-0.044835992,0.30929527,0.057055514,0.15228172,0.059540883,0.04628908,0.059716355,-0.30863026,0.21204925,0.12014571,-0.2015575,0.05744296,-0.023723442,-0.16880605,0.019605024,0.05931088,0.17525116,0.15396458,0.087010175,0.23745131,0.03856826,-0.10274595,0.11866063,0.15111461,-0.008770275,0.0059533333,-0.10218063,0.0396242
16,-0.039337393,-0.15112516,-0.08263469,-0.14441088,-0.16785872,-0.024129855,0.04245071,0.008715902,-0.01765101,-0.13600172,-0.11753016,-0.0942825,-0.25073692,-0.16164221,-0.18904938,-0.025684323,-0.12254862,-0.11878162,-0.1475304,-0.0775829,0.046473365,-0.09929668,-0.13012643,-0.05072095,0.07922392,-0.10882573,-0.18231162,-0.012777586,-0.010742721,0.021365236,0.023206348,-0.061037775,-0.04774161,-0.10889031,0.036311317,0.065117136,-0.15491645,0.016381787,-0.14051576,0.14547735,-0.11212021,0.030499248,-0.070043296,-0.19999969,0.053420067,0.042219207,-0.022690991,-0.18042527,-0.09970785,-0.096223354,-0.15197888,0.108279854,-0.12839484,0.0422515,-0.015774697,0.0217433,-0.06839237,-0.12781674,-0.08636802,-0.007905232,-0.05438378,0.07809949,-0.16000007,-0.025961863,-0.14675304,0.053622175,-0.184407,0.08986822,-0.107813075,-0.11547083,-0.028303208,-0.084441975,-0.12522171,-0.08694965,0.125556,-0.037452377,0.107417196,-0.043583672,-0.12989543,-0.12747999,-0.15517053,-0.08201575,-0.03685199,-0.1552889,-0.050871138,-0.23499882,0.005625582,-0.020614997,-0.062349103,0.054976493,0.02259801,-0.12139233,-0.036881525,-0.10101565,-0.040624402,-0.039206415,0.005722404,-0.0371916,-0.055829357,-0.14167403,0.04242946,-0.22286521,-0.038109496,0.031498086,-0.033050265,0.0517694,-0.036404055,0.008361659,0.1418612,-0.188475,-0.005901142,-0.074287474,-0.09616286,-0.001879526,-0.17627014,0.11725682,0.052457694,-0.1549942,-0.0040914314,-0.27761182,-0.17357768,-0.15932867,-0.13847162,-0.06096666,-0.22988307,-0.13029808,-0.033348333,0.12637043,-0.004294716,-0.14217712,-0.016907645,-0.091128685,-0.12047535,-0.21650423,-0.10551349,0.021249715,-0.002725831,-0.16964626,-0.06702776,-0.20200378,0.023147712,0.0019552235,-0.018472308,-0.1163651,0.038984463,-0.12538418,-0.047197323,-0.12396624,0.0014648918,-0.20501669,-0.017937634,-0.012978975,-0.10317287,-0.2121648,-0.103219986,-0.000789261,-0.04030262,-0.094038405,-0.120353565,0.06304258,0.15184185,-0.030782359,-0.10587077,-0.26836067,-0.0009973216,-0.076434776,-0.12758869,0.027819647,-0.09101344,0.20933005,0.04180271,-0.22913551,-0.060423013,-0.086192146,-0.025757423,-0.10409833,0.081229,-0.031315565,0.08395772,0.036506347,-0.108394794,-0.036643595,-0.17050533,-0.12096333,-0.12242193,-0.17129742,-0.055606816,-0.095601015,-0.15248683,-0.2503101,-0.04395268,-0.078271486,-0.13678893,-0.13418345,-0.012317377,0.16040808,0.013260265,-0.13271213,-0.043899413,0.08657608,-0.17021066,-0.07448572,0.13941544,-0.120308556,-0.26115417,-0.107892506,-0.018811094,-0.17271422,-0.11512015,-0.08513874,-0.08430917,-0.08586054,0.09952958,0.008838134,0.026158944,0.10075376,-0.028237209,-0.16855709,-0.21051443,0.16872022,-0.10853637,-0.11865368,0.0030120958,0.025848713,0.032112222,-0.018672906,-0.1116709,0.058289066,0.14417352,-0.010333494,-0.027673783,-0.15004522,0.09000809,-0.07725787,0.00075468596,0.03112837,-0.1829254,-0.13554676,-0.14167026,0.15621337,-0.043127194,-0.27834848,-0.15089299,-0.002293018,-0.037819665,-0.121895745,0.08966205,-0.18191077,0.028323453,-0.16750906,-0.1314168,0.018853826,0.0237628,-0.08550615,-0.045781992,-0.023736225
17,0.33891222,-0.085115604,-0.23511724,0.07725715,-0.4976067,0.14996551,-0.1322053,0.2624768,0.039183427,0.21774223,-0.39852205,-0.69499713,-0.19319889,0.056185033,0.1542595,0.2666581,0.117357545,0.018689895,0.10354333,0.036641184,-0.21824995,0.059992265,0.016621666,-0.22970319,-0.4076059,0.095056385,-0.23370379,0.11636819,-0.32813153,0.36332494,0.08523532,0.1948953,0.0003623908,-0.108878374,0.248247,0.059720244,-0.22232829,0.04190316,0.11392371,0.032025993,0.1805924,-0.14476141,-0.02412938,-0.0588842,0.021473797,0.04973108,0.2541516,-0.089398675,0.31369668,-0.28925958,-0.34233636,-0.08787147,0.20085216,-0.2524245,0.114930175,-0.16323905,-0.07792483,-0.36967283,0.37191197,0.03324799,-0.16580155,-0.10998417,0.055149943,0.30654198,0.08547966,0.3879263,-0.07986881,-0.19541429,-0.21092689,-0.17277905,-0.2261307,0.02931873,0.21460092,0.06969227,-0.05235291,-0.51172996,-0.4238615,0.03155959,-0.11474388,-0.22163193,-0.21684518,0.084098466,0.14051725,-0.021123042,-0.12894745,-0.3175521,0.1945819,-0.32578692,-0.37466577,0.18077941,0.11004489,0.09356308,-0.45950618,0.35545397,0.10173275,0.09587422,-0.049246754,-0.27392668,0.02225489,0.018867884,-0.17960057,0.05523864,0.088701405,0.121798314,0.07430319,0.042325642,0.21935502,-0.43932873,0.29076484,-0.3562122,-0.0035903093,-0.17099874,0.20866105,-0.27008766,-0.18509886,-0.017511595,-0.22665235,-0.05334594,-0.2867923,-0.03156105,0.22143373,-0.13342595,-0.4674613,-0.12738925,0.10930565,-0.0063980003,0.097962126,-0.037568115,-0.018990068,0.2629971,0.16777723,0.11630931,0.05312805,-0.30005988,0.122538805,0.20093518,-0.8637973,-0.51968473,-0.10751819,-0.11786546,-0.08989163,0.0010363227,-0.28587618,-0.06884561,-0.039693926,-0.14491673,-0.014779246,-0.20036371,-0.092265904,0.041029613,0.06377637,0.15580179,0.2868748,0.14456744,-0.0033669756,0.034734488,-0.27779132,0.12981488,-0.48264858,-0.09883242,-0.36933604,0.20167723,0.24618019,0.18187696,-0.08771616,-0.29049334,-0.03129501,-0.11233453,-0.11448267,-0.69563603,0.37953275,-0.5813908,0.07764599,-0.162605,0.10509861,-0.123318754,-0.06142841,0.083733924,-0.022556143,-0.23435049,0.27978578,-0.044710115,0.109855376,-0.110875055,-0.21707264,0.038074847,-0.08567654,-0.012903889,-0.16480656,-0.035688654,-0.29903513,0.17822224,0.13436906,0.038935736,-0.25424162,0.0052523813,-0.06399549,0.0017934156,0.073918454,-0.47627205,-0.1956659,-0.0728723,-0.12174146,-0.12159677,0.120514445,-0.4222705,-0.5514972,0.10405747,0.027408691,0.106748894,-0.27539682,0.18937758,0.59081376,0.1217868,-0.12756363,-0.14310698,-0.22148827,-0.1396492,-0.21037383,-0.36594352,-0.27495623,-0.37201986,0.22443402,0.09302271,0.1046905,-0.009256602,-0.22445953,-0.07848966,-0.016765358,-0.051559333,0.08962779,0.05450211,-0.0055438606,0.14471786,-0.13240564,-0.26630324,-0.0908622,0.24352692,-0.50430936,-0.166571,0.16719589,0.014961688,0.22530986,-0.055349562,0.057012975,0.26697633,0.016874151,0.23086557,-0.2886333,0.11491107,0.10826742,-0.15160497,0.29777262,-0.32538968,-0.110233285,-0.27831143
18,0.06707543,-0.17064886,0.53206223,0.19338332,0.25048783,0.25242427,-0.043723237,0.0110789705,-0.030998433,0.20864308,-0.09196739,0.70484126,0.068241924,0.10158657,0.14198323,0.25385925,0.114586346,-0.042497493,-0.05166495,0.039808422,-0.13770254,0.25406414,0.01574,-0.07204382,-0.10075115,-0.0352684,-0.08222147,0.01904226,-0.13659081,-0.16025347,0.13253173,0.07297883,0.11462041,0.40936872,0.058142487,0.007618726,0.123624444,0.06280024,0.015613389,-0.12191904,-0.0073667113,0.0833122,0.22564046,-0.021397592,0.09522922,-0.5874397,0.28087333,0.23170155,0.21924736,0.55359006,-0.14059848,-0.16041014,0.053748686,0.37489277,0.12843722,0.11331087,0.055424284,0.3670559,0.2030249,0.1015478,0.04995111,0.12833986,-0.08060853,0.18361287,0.02531452,-0.3775688,0.017415864,-0.15601492,0.13275832,0.31317088,0.30642888,0.15798682,0.0993938,0.14181067,-0.09796162,0.076684676,0.3341577,0.026907796,-0.016612276,-0.05033155,-0.19101454,0.19421919,0.028029438,0.08373511,0.0523296,-0.15726177,0.093790404,0.4271319,-0.10171826,-0.010151658,0.19365624,0.15430497,-0.29923427,0.13571273,0.14190857,0.013143938,-0.16792583,0.27996454,0.067412235,0.1504767,-0.10532568,-0.23535767,0.017325437,-0.1185176,0.066243365,-0.017916128,0.13084161,0.05533186,-0.07097091,-0.36195904,-0.0074177193,0.19753717,-0.07217356,0.1297964,0.41640618,0.0067762905,0.041835614,0.01779241,-0.076919645,0.509936,0.29557994,0.17195776,0.27156737,0.416227,0.34658432,-0.010076992,0.33862147,0.1786212,0.24417327,0.24197288,0.17639567,-0.0071622184,0.12463452,-0.06794299,-0.048758198,0.24801046,0.09332792,0.0935666,0.16856526,-0.040529523,0.24198812,-0.12976894,0.3401251,-0.12539253,0.08764517,0.18808447,-0.08562009,0.07228984,0.029652523,-0.02139522,-0.048767556,0.16196068,0.28764752,0.07822413,0.00954666,-0.14585392,0.23176736,0.02723247,-0.006074626,0.0891395,-0.17328714,0.06761216,0.118575394,0.0712575,-0.0022993942,-0.08303173,-0.2603381,-0.044250328,0.3384909,-0.29768467,-0.16537197,0.26425508,-0.42040303,0.25294107,0.044500638,0.22387369,-0.01608818,0.14963476,-0.03076565,-0.007625789,-0.09817508,0.09060494,-0.20734555,0.29578197,0.1777875,0.4716184,0.16859029,0.08885502,0.0320961,0.19867495,0.47642374,0.12540641,-0.006035286,-0.29673415,0.028830724,0.2521815,-0.038577877,0.44596472,0.068965115,-0.08842965,0.6237637,0.36256278,0.35786045,0.071021125,-0.13273384,-0.11333437,0.12615864,0.18620692,-0.0011142435,0.046345513,0.6977362,0.1973144,0.23348655,0.290298,-0.0568737,0.11465844,0.3779186,-0.12179136,-0.019853508,0.29480168,-0.045457594,0.40429342,-0.08392839,-0.04433414,-0.047555853,0.05695975,0.45208585,0.17783426,0.12183414,0.04846056,0.16158389,0.15226278,-0.023168404,-0.018879177,0.22688824,-0.17431068,-0.12940836,0.15634044,0.33930632,0.050328333,-0.07608737,0.015280031,0.32988486,0.0044007865,0.19304964,0.21920246,-0.114467256,0.08662994,0.41530856,0.064352706,0.14556663,-0.25642833,0.008935804,0.5568512,-0.083416484,0.1326883
19,0.09859111,-0.512178,0.33909905,0.10901542,0.051304486,-0.060558863,-0.33618572,0.1570499,0.055946276,0.06051333,-0.2969959,0.3695741,0.23742028,0.13329501,0.27705726,0.043225914,0.17285223,0.21976459,-0.05106506,-0.12447387,-0.26194003,0.18141316,-0.0051794373,-0.05630938,-0.36897898,-0.1246039,-0.059194934,-0.07063354,-0.28530705,-0.0008044165,0.3907573,-0.16355579,-0.03588387,0.3050289,-0.020068983,0.037669662,-0.0011517683,-0.015124623,-0.0016519327,0.0058554993,-0.23350109,0.13918084,0.18951604,-0.20656563,0.15515889,-0.4961539,0.14906652,0.22464624,0.09542237,0.31654334,-0.18730296,-0.028553305,0.22079633,0.38779587,0.07458559,-0.41875318,0.20589349,0.18219574,0.0613645,0.19517559,-0.0507814,0.002805895,-0.09127321,0.07240986,-0.15520714,-0.099976234,0.19077106,-0.13348265,0.38115665,-0.1901107,0.44248766,0.013070967,0.119309634,0.19988099,0.14187087,-0.24071966,0.23075402,0.040465605,0.07526756,-0.07995491,-0.2398615,0.01110446,0.01650332,-0.044065196,0.014413409,-0.083097875,0.112556495,0.4137867,-0.28615275,0.1405778,0.19865255,0.19538188,-0.114520654,0.35679415,0.1414907,-0.05388868,-0.25606096,0.48252293,0.12523963,-0.000721977,-0.08875262,-0.031361185,0.021118885,-0.045543756,-0.07767562,0.020627936,0.15875895,-0.025462056,0.13419677,-0.35705942,-0.018348662,0.36661753,-0.10401086,-0.026497647,0.2401292,-0.0205429,0.08096973,-0.0030343751,-0.16764174,0.46159494,0.10656438,0.19584574,0.119218275,0.44214678,0.36580637,-0.055626824,0.34630182,0.21248277,0.19645168,0.11882884,-0.052868273,-0.07634171,0.10118596,-0.13525178,-0.20703721,0.393396,0.55674857,0.03946916,0.32899052,-0.02498208,0.267184,-0.119986616,0.35700476,-0.014067197,0.15868156,0.17423144,0.11648857,0.049055114,-0.014950645,-0.14838222,-0.123431444,0.050240565,0.07888923,-0.055626255,-0.040277198,0.067715,-0.100602135,-0.0030093556,-0.085028745,-0.020558203,-0.25770065,-0.09280356,0.04361893,0.14990455,0.079854324,-0.19426346,-0.4017566,0.0032680058,0.34251502,-0.33121493,-0.09095967,0.23876157,0.09102209,0.58950245,-0.01908081,0.2901574,0.14158128,0.10485034,0.15170787,-0.050809056,-0.13090543,-0.09526558,-0.032082375,0.14877565,0.32115084,0.67191625,0.13335826,-0.05535827,0.104751766,0.040975645,0.65191275,0.016613452,-0.01781001,-0.36655718,-0.06373472,0.062232796,0.069502585,0.4841649,0.17957923,-0.16788378,0.54180217,0.43234923,0.4223257,-0.0130782295,-0.050106626,-0.16017388,-0.04990098,0.075173974,-0.13809037,0.060671646,0.28840184,0.24276322,0.32977125,0.08694364,0.078562096,0.2304901,0.21758513,-0.09202584,0.10965908,0.6029326,-0.23855758,0.04610994,0.042988136,0.07213169,0.026404083,0.08863479,0.24437353,0.15567946,-0.036448553,0.11891581,0.09813762,0.12175953,0.02709379,-0.054463763,0.078297146,-0.36562127,0.0439459,0.09512494,-0.03531043,0.08578408,-0.050544545,0.030635731,0.020624653,0.052947804,0.051592655,0.23082453,-0.121941544,-0.0744477,0.19786698,-0.14520466,0.0069076475,-0.18865523,-0.124109656,0.23708303,-0.28407174,0.04029438
20,0.0024269873,0.023623524,0.056961276,0.037988946,0.15070057,-0.020370118,-0.016030153,-0.024552843,-0.15742488,-0.02139432,0.00033667832,0.12867458,0.3674529,-0.15990587,0.21955585,0.04461705,-0.11148722,0.11901881,0.057360318,0.20884645,0.12588635,0.08451104,0.1632814,0.33993077,0.37619558,0.015179873,0.20624481,0.17468247,0.057768032,0.17950176,0.12798786,0.1156098,0.10505965,0.20152383,0.043912258,0.02900385,0.02231119,-0.00093286036,-0.047052454,-0.046376564,-0.122444056,-0.09600193,-0.018168746,0.10527127,0.13887945,-0.20619953,0.14621931,0.07368341,-0.4014698,0.03651105,0.3462471,-0.06711457,0.038620207,0.030100523,-0.0057825064,0.10873007,0.55938625,0.19713567,-0.09929128,-0.14956278,-0.013370972,-0.0717198,0.02256415,-0.017854827,0.18237196,-0.31878287,0.1483314,-0.05275011,0.26611844,0.10109021,0.15827762,0.06250761,-0.030647015,0.039577827,-0.083628096,0.33235124,0.14551881,0.15238816,0.22788692,0.30027196,-0.24575825,0.029800527,-0.0576334,-0.04168789,-0.1459906,0.438352,-0.021973636,0.1769477,0.33642998,0.026834145,0.12326048,0.028746316,0.28760678,0.12556416,-0.059290044,0.02709331,0.048619676,-0.049935643,0.2781012,-0.011447071,-0.40111408,-0.21987471,-0.09467993,0.123053804,-0.15127377,-0.03557087,0.18975633,0.4111905,-0.1925535,0.14296567,-0.12083816,0.07921363,0.07002528,0.20600566,0.16729984,-0.13196526,0.44939512,-0.15889364,0.2270053,0.44569072,0.05752373,-0.03740309,0.14636545,0.5105016,0.04951177,-0.501997,0.023131045,-0.28157368,0.09665743,-0.5804036,0.19916351,-0.001823945,0.02181562,0.19041614,-0.5111004,0.09636535,0.45270935,0.21524657,0.33125815,0.4209074,-0.18537171,-0.024032433,0.24820833,-0.115762025,-0.09264065,0.20059735,0.080780074,0.11409478,0.103705436,0.11118843,-0.26662314,0.039858356,-0.12335099,0.057746504,-0.0005143786,0.032614138,0.09107726,0.04862709,0.44396964,-0.14306685,0.12080206,-0.09611352,0.11290172,-0.13951968,-0.026679514,0.19236585,-0.024269082,-0.13812444,0.6358429,0.24595484,-0.49322113,0.31246418,0.28059036,-0.22483568,0.24188729,0.08479292,-0.08961701,-0.011389417,0.04615106,0.19895142,-0.28615126,-0.012818203,-0.10841826,0.1360257,0.14086159,0.25468528,-0.053970855,-0.017228533,0.20784202,-0.041135255,-0.15241778,0.21186341,0.07509978,-0.17061576,0.15793554,0.10033904,-0.15015846,0.2995898,0.049785003,0.30301178,0.14131811,0.18467915,0.25776199,0.2830755,0.26528713,0.04104807,0.5146846,0.119739875,0.19044329,0.109110974,0.041098163,0.016511023,-0.18984884,-0.032017663,-0.15771827,0.0008056061,0.08083415,0.13311534,0.3042935,0.6986233,0.29387936,0.5551884,-0.12740014,-0.20383242,-0.059421085,-0.001565289,0.09488729,-0.023327935,-0.03843645,0.113758266,0.044326168,0.18268834,0.031424597,0.034199942,-0.12978913,0.015937887,-0.095316336,0.078631595,-0.056969862,-0.12536433,0.015754538,0.064809375,0.08231286,-0.09374333,0.03984555,0.005777871,-0.39769244,0.08342503,0.19521233,-0.38615847,-0.09473459,0.20393254,-0.06500665,0.014889608,0.19052331,0.11352727
21,0.2447406,-0.16876408,-0.18356007,0.03624187,-0.34245527,0.110870644,0.08021647,0.2233124,-0.062359054,0.13269885,-0.24269898,-0.58290195,-0.2456016,0.0678464,0.155926,0.15749106,0.09787426,-0.15318759,0.054018818,0.2013106,-0.23226197,-0.0010178977,0.019067518,-0.2161533,-0.34052715,0.15275499,-0.026164459,0.11118271,-0.10527336,0.0038380153,-0.20820187,-0.06999778,-0.18322033,-0.15072697,0.18068561,-0.18538788,-0.18281251,-0.015319978,0.0107621085,-0.035449926,0.15922463,-0.05276152,-0.07049517,-0.17669468,-0.3165829,-0.25213426,-0.004072576,-0.087882176,0.1578404,-0.27666605,-0.23539288,0.11319721,0.13284555,-0.22052118,0.11275728,-0.120805435,-0.11955011,-0.11759495,0.04112334,0.10499371,0.015178305,-0.01821803,0.01059613,0.07809917,-0.0014507888,0.10371656,0.085620396,-0.21700343,-0.158654,-0.10503006,-0.060008693,0.05357148,0.07728605,0.0426081,-0.005842603,-0.5128867,-0.09013148,-0.17293297,-0.26141974,-0.077528276,0.07721798,0.053787857,0.05420028,-0.07826034,-0.009615123,-0.25548795,-0.056211237,-0.1969729,-0.14394312,0.09545549,-0.15845923,-0.19991125,-0.10559683,0.100371145,0.099277645,0.08820102,0.023734637,-0.07661183,-0.094680935,0.12756124,-0.01187907,-0.05933729,0.02753016,-0.036958206,0.0342358,-0.04620452,0.07986912,-0.36562708,0.18855909,-0.115280524,0.1386618,-0.33244598,0.069515765,-0.5057476,-0.1886059,-0.08903409,-0.11402106,0.098447464,-0.19998665,-0.12102623,0.1518186,-0.22476874,-0.29114696,-0.27055144,0.029947976,0.024503719,0.08041077,0.033122733,-0.12491049,-0.10972236,0.2314347,0.06647589,0.19664654,-0.1528496,0.27818027,-0.012082674,0.14210477,-0.3862788,0.05680255,-0.2565968,-0.21869989,-0.00585499,-0.17411959,-0.15171055,0.13886069,0.10304916,0.39628938,-0.14420836,-0.0074020545,-0.10981629,0.049623925,0.016331922,0.22979262,0.09723673,-0.122335546,-0.10594822,-0.34853768,-0.1879831,-0.33774057,-0.036083758,-0.2924581,0.27513245,0.1434468,0.09041022,0.14962381,-0.2935741,0.022296688,0.021601465,-0.3185338,-0.35747117,-0.003992267,-0.32479787,0.21334165,-0.05385123,-0.09520553,0.10886182,0.11066346,0.06357602,-0.09508751,-0.3129723,0.21191685,-0.07205319,-0.04114963,-0.034764264,-0.2734989,-0.008423057,0.020936867,0.069309495,0.06416947,-0.021155119,-0.30900997,0.15050267,0.095324405,-0.22770691,-0.16121377,-0.26609254,0.03142297,0.09377698,0.07859992,-0.24708353,-0.13662122,-0.1995197,-0.10663639,-0.12933503,-0.25485432,-0.35994825,-0.46614146,0.08539383,0.095182575,0.20250791,-0.1669847,0.12970336,0.11123013,-0.11331487,0.12039827,-0.30503103,-0.18584456,-0.21761036,-0.06827311,-0.33110854,-0.14733516,-0.29199332,0.018655686,0.1832269,0.017361697,-0.103353105,-0.25012827,0.02695007,-0.1038957,-0.25503185,-0.07601607,-0.13259773,-0.07089335,-0.03339476,0.03705479,-0.113451846,-0.2199594,0.16560729,-0.4383372,-0.038798034,-0.04950268,-0.030499663,0.18839717,-0.06478266,-0.18750663,0.20470302,0.12677637,0.07427998,-0.13908905,0.33314463,-0.06604791,-0.11323086,0.24843398,-0.16005327,-0.19345829,-0.14879031
22,-0.1530319,-0.51414496,-0.24297039,-0.021636406,-0.07477993,-0.06396203,-0.31895214,-0.16555306,-0.026914837,-0.04365185,0.11951979,-0.035868008,0.17876363,-0.05926413,0.05233984,-0.2018101,-0.07674476,-0.002986669,0.16844799,-0.048532687,0.23795268,-0.0021022623,0.33382705,0.16255368,0.28116813,-0.07085036,0.082912415,-0.084698044,0.13838582,-0.1868594,0.10992727,0.19336477,0.05487892,0.016500494,-0.25290245,0.09929645,0.14843228,0.047821324,-0.09495413,-0.11452713,-0.20734134,-0.058056653,-0.058812775,0.4564854,-0.0054090624,-0.59673196,0.07447325,-0.06520421,-0.24786693,-0.16494367,0.32261446,-0.08687064,0.31102774,0.1346746,-0.076556794,-0.35344136,0.5032248,-0.31498647,-0.1648277,0.019128047,-0.0069029583,0.021738447,-0.050287623,-0.21110629,0.094099425,-0.22761624,0.044182528,0.46027595,0.3962184,-0.4404816,0.12175698,-0.062242474,-0.23565607,0.033791717,-0.07402908,-0.014373191,-0.1150756,0.008978109,0.16938534,0.39217904,-0.36388794,-0.1378183,-0.027718615,-0.0077476907,0.14980628,0.19445944,-0.08158741,-0.1766786,-0.17077911,-0.17128654,-0.039992496,-0.11482171,-0.42609933,0.38548982,0.04023095,-0.07558403,0.30950493,-0.15442492,0.15513921,-0.10406118,-0.7302343,0.08017209,-0.33684668,0.19677061,-0.23484637,-0.0023043107,-0.27481368,0.22367355,-0.3417532,0.092087545,-0.052160446,-0.1807078,0.01215872,0.2601994,-0.13831791,-0.043117214,0.34034938,0.13957019,0.30489126,0.4586672,-0.05759433,-0.04598858,-0.074035205,0.34497255,0.046461735,-0.11396304,-0.12474672,-0.3444231,-0.13246451,-0.45094097,-0.08894715,-0.082032576,-0.11701483,0.016467623,-0.23836549,-0.0062334244,0.2575274,0.016576733,0.15657958,0.59932387,-0.30077684,-0.020209745,0.45560533,-0.042494845,-0.08826043,0.38456562,0.25044712,0.19177414,-0.12100875,0.09398398,-0.122171916,-0.07509554,-0.21235132,0.027992036,0.2705065,0.2621146,-0.16100228,0.0683279,0.21185553,-0.06617362,0.26263833,-0.17344198,-0.1311978,0.24628016,-0.039755963,0.21045075,-0.18497932,-0.009861655,0.29355994,0.33783874,-0.17947257,0.09859852,0.19432214,-0.030131219,0.16334076,-0.031216925,-0.28820205,0.006673458,-0.17479135,0.10719931,-0.18632415,0.13740307,-0.13068114,0.2001253,-0.12280273,0.87784135,-0.05814137,0.024750087,0.4315308,0.10245427,-0.026573807,0.093520746,0.049723413,-0.57647264,0.080414005,-0.0003631563,-0.13962638,0.48803908,-0.08870729,0.07838021,-0.30204308,0.018448729,0.049897198,0.3317874,0.37827694,0.060015175,0.06090568,0.05336562,-0.045016233,-0.046490233,-0.008271101,-0.035626,-0.09076457,-0.10771911,-0.10035692,-0.40394592,-0.06382755,0.41055536,0.35853216,0.35642588,-0.01851524,0.16816117,0.05321497,-0.13654064,-0.12556368,-0.095043205,-0.24720597,0.010775563,-0.03845918,0.05777611,-0.048080824,0.07790048,-0.18547522,-0.009313218,-0.18791583,-0.36069533,0.08136476,0.044966523,-0.56838864,-0.1408123,-0.029529879,0.16264403,0.118331075,0.026111403,0.033848982,-0.055401813,-0.21838495,-0.18918283,-0.0073904027,-0.3300352,0.019338632,0.17438036,-0.16088758,-0.052704755,0.4614788,-0.00084922893
23,0.014430975,0.0150377285,0.22935085,0.11280851,0.5034336,0.063712224,0.0027351985,-0.07534702,0.0066750986,0.12007642,-0.101643905,0.40949255,-0.037799496,-0.017247098,0.11866394,-0.03443935,-0.082164414,-0.10420509,0.15033446,0.114082366,0.13765927,-0.018489392,-0.07831764,-0.15250362,-0.065728635,0.123979315,-0.11994797,0.034996197,-0.026708644,-0.19433525,-0.052776292,-0.10674505,0.029199861,0.28983045,-0.14260846,0.027653946,0.15674439,-0.065308094,-0.09307022,-0.029500443,-0.16437793,-0.1537675,-0.03086721,0.30607942,0.34252107,-0.5245029,0.092275105,0.2600942,-0.4136475,0.46520013,0.27883092,-0.013515338,-0.035970613,-0.03761118,0.0054028076,-0.005978998,0.868745,0.4516463,-0.069080524,-0.11369686,0.04933039,-0.09127338,0.10109176,-0.12496541,0.05225264,-0.34728283,-0.21318263,0.052331667,0.2607791,0.07011121,0.21014735,-0.04453898,-0.057944093,0.03570525,-0.07606101,0.037443243,0.36554554,0.084647276,-0.18959387,0.09042454,-0.17680663,-0.00600269,-0.095492736,0.117325455,-0.11109727,0.30913186,-0.0843985,0.022271018,0.009407385,-0.07096667,0.083625115,0.02617259,0.012215855,0.3070625,0.008748135,-0.022822987,0.0977555,0.041835256,-0.09381206,-0.0062305178,-0.252039,0.046115343,-0.10658328,0.054772586,-0.12810649,-0.077846766,-0.0952919,0.042639725,-0.43454513,0.17854807,-0.107906535,0.30922022,0.054314036,0.29288766,0.2899799,-0.08784986,0.24374706,0.04115805,0.1742794,0.40073192,-0.048224308,0.15383786,0.09161096,0.2593429,0.08102883,-0.27725083,0.11572194,-0.07339197,-0.08844279,-0.3933381,0.043355197,-0.02344862,0.08392373,0.036477495,-0.5660226,0.12569931,0.18860573,0.0808168,-0.12878521,0.1938979,0.001284811,-0.2246941,0.33230373,-0.14365251,-0.15655732,0.4340961,-0.17311361,0.1833901,0.048444945,0.058728684,-0.16382149,-0.02468713,-0.15206854,0.1316668,0.19488424,0.02349215,0.17172061,0.024162633,0.2769535,-0.08615535,-0.12664899,0.0052322857,0.082797475,0.069240995,-0.11519539,-0.0045243897,-0.30791616,-0.15726711,0.5079771,0.3871428,-0.40054196,0.46822903,-0.043322742,0.0013064072,0.028301353,0.016963704,-0.10027063,0.01546567,-0.019782266,0.23683384,-0.19291988,-0.08691558,-0.212662,0.19851118,0.07498722,0.52942485,-0.04701102,0.049679697,0.056342255,0.015409393,-0.053475887,0.083018936,0.017199943,-0.37294585,0.14546867,-0.02059658,-0.022273716,-0.15286317,-0.04873712,-0.023521941,0.2635452,0.16569677,0.19237109,-0.021515539,0.2522085,-0.079437934,-0.025035929,0.115736775,0.104721665,0.0448085,0.3067656,0.10754753,0.20990188,-0.02299452,-0.074811265,0.15623939,0.05124999,0.19787128,0.114251375,0.047231033,-0.11090833,0.48118377,-0.12029396,-0.22917287,-0.13885082,0.010764148,0.43226328,-0.04502881,-0.056117527,0.090920635,0.11290132,0.26405042,0.062590376,0.18130629,-0.07338347,-0.030313406,-0.21199082,0.02741985,0.06777032,0.026968392,0.026150564,0.20698264,0.03587257,-0.011970682,-0.034889016,-0.07682729,-0.2731712,-0.11116136,0.31934908,-0.16392063,-0.067351244,0.076949805,-0.06595957,0.26368496,-0.07655995,0.3770437
24,-0.06563627,0.10492267,0.09981864,0.15017584,0.3994787,0.05248624,0.35527444,-0.2648163,-0.13983592,0.030461904,-0.06425163,0.532016,0.028679403,-0.093920015,-0.037783332,0.03713274,-0.018673345,0.07309869,0.22700547,0.045165554,0.058689993,0.14292924,0.021516206,0.032514494,-0.066057034,0.089744434,-0.09490839,0.048247676,0.1251901,-0.15680453,-0.17961776,0.10616647,0.14345315,-0.019983279,-0.1383339,0.0068233847,0.01504376,0.033181485,-0.047825355,-0.07278696,0.12141752,0.1649362,0.010431362,0.09749644,-0.056678794,-0.024115134,0.043416098,0.17391193,0.008709903,0.26205412,0.2677535,0.07154982,-0.10376017,0.0420424,0.08945089,0.23863283,0.36951256,0.20806728,-0.11531559,-0.025570242,-0.12223001,-0.0209436,0.011153892,0.068642855,0.0889566,-0.31936002,-0.048782956,0.04605234,-0.06823579,0.18179095,-0.023978805,0.13490102,-0.044010565,0.0052696024,-0.2149098,-0.03245917,0.2827954,0.094877474,-0.14145958,0.06882139,-0.13237974,0.15108135,-0.14697081,0.12342889,0.13571908,0.12162239,0.077417344,-0.12074196,-0.14429654,0.08775009,0.089175254,0.11809426,-0.20082775,0.11435197,-0.080744654,0.07405569,-0.09604617,-0.2844185,-0.21387161,0.1563099,0.11583905,-0.24276604,-0.2733295,0.03098637,-0.10832573,-0.1286448,-0.14172333,-0.06471486,-0.4391801,0.18711556,-0.08099926,-0.2199883,-0.0053660395,0.8244667,0.12523367,-0.029367542,0.05288881,0.13782708,0.18601368,-0.002343885,-0.08678035,0.13800526,0.06650837,0.14609373,0.18493801,-0.2481493,0.05064974,-0.18933502,0.061008517,0.14534384,0.09144555,0.17912515,0.016413163,-0.15165976,-0.32087454,0.058149397,0.03959364,0.06578324,-0.09202527,0.13869125,-0.3949755,-0.07326009,0.20650406,0.08987264,0.024281178,0.1696613,-0.60255545,0.13721958,0.018807797,0.08654928,-0.19431114,0.228894,0.13667059,0.1905359,0.13720149,0.101670675,0.28721857,0.10063481,-0.016352307,-0.10228664,-0.16717297,-0.029361565,-0.033447195,0.0995912,0.06258088,0.045474354,-0.31816655,-0.078283034,-0.025826422,0.29619834,-0.17337105,0.5688253,-0.24713285,-0.2561016,0.11846189,-0.23046376,0.08004219,-0.0738489,-0.09803219,0.0263495,-0.41245604,-0.042210236,0.090196595,0.076515876,-0.07436591,0.19539087,0.021266848,-0.02742653,0.19328922,0.24651316,-0.25954282,0.16945975,0.11888031,-0.036680494,0.04387312,0.21079765,-0.1745725,-0.2667698,0.025107073,-0.13316786,0.1825632,-0.15681006,-0.0299824,0.06762832,0.19084421,-0.19346064,-0.057768073,-0.07350991,0.0962211,0.1547426,0.19339783,0.012833544,-0.05105268,0.062405333,-0.13733324,-0.2525278,0.0013612626,-0.08061766,0.09975817,-0.12437605,-0.3296073,0.11112613,-0.16548823,-0.13113636,-0.07888965,-0.04169046,0.27616295,-0.032418523,0.031837758,0.01432561,0.14514942,-0.10927153,-0.14958824,0.15782088,-0.106601276,0.09407456,-0.24868421,-0.019760484,0.4012047,-0.049000274,0.09225598,0.0671667,0.16242677,0.0070471615,-0.088431686,-0.08510742,-0.17233391,-0.04215724,0.39868903,-0.37026367,0.15088618,-0.06103378,-0.036328223,0.24497862,0.061071653,0.18955113
25,0.2628905,-0.13190006,-0.11482244,-0.058002934,0.08969854,0.05899898,0.09005989,0.109436736,0.15371278,0.08391042,-0.38051668,-0.47911704,-0.058015265,0.08273577,0.0785213,0.0056428453,0.1699362,-0.027169231,0.10602566,0.19186297,0.28984168,-0.11360864,0.5767548,0.19477133,-0.48052186,0.11060862,-0.30143932,0.048152786,-0.2891188,0.15333737,-0.11061437,-0.2514104,-0.14487791,0.2640996,0.028261838,-0.027331239,-0.03245979,-0.034768317,0.12354406,0.14101027,-0.16268155,0.08276705,-0.029678354,0.09951914,0.27471665,-0.13796204,0.060009982,0.16138455,-0.21393362,-0.13568842,0.031276733,0.15335846,0.37281206,0.23252761,0.057820473,-0.42501566,-0.0458967,-0.14460088,-0.18964702,0.098821834,0.09448146,0.07824511,0.07679999,-0.100130305,-0.10175286,-0.26156524,0.18802306,-0.19701576,0.16500756,-0.12797269,0.3509306,0.15088934,-0.09206808,0.123995796,-0.01621961,-0.47563505,-0.17434019,-0.23791778,-0.036711108,0.26304862,0.12020114,0.12275809,0.06951332,0.21737553,-0.10802312,-0.019473607,-0.0728279,0.5951853,-0.40617785,0.009747866,0.09628833,-0.22360067,0.26632768,0.5014639,0.1717145,-0.16244304,0.051026292,0.4881098,0.13286239,0.13711044,0.034417402,0.017885042,0.079816245,0.20502014,0.005621051,0.16328108,0.14443325,-0.41204944,0.15656283,-0.11448942,0.14133266,0.44802782,0.15333533,-0.20496234,-0.03092369,0.08133328,-0.6579268,0.012011357,-0.06175877,0.2737288,-0.014994244,0.26685232,-0.1888035,0.39656013,0.23734052,0.16052492,0.14306407,0.32375437,0.10320407,-0.2631499,0.04251173,-0.085990295,0.24128078,0.047125928,0.043704912,7.590079e-06,0.66529036,-0.26216438,-0.6646421,0.0502687,0.4638196,-0.039002143,0.38214862,-0.028716734,0.037268836,0.2953637,-0.0686009,0.12605986,0.039952453,-0.040833097,-0.1372716,0.026027694,0.06170765,0.0668174,0.15603496,0.3160126,-0.2875961,-0.03503678,0.019448938,-0.009757334,-0.6968792,0.10862025,0.05197632,0.465946,0.08585461,-0.29774764,-0.2465314,0.08520042,0.19180347,0.305617,0.11009718,0.42667216,0.29477426,0.7951501,0.023878394,-0.063397236,0.10510929,0.10532672,0.06424945,-0.15554325,0.07490872,0.008554656,-0.24046026,0.021525988,0.20652345,0.2918914,0.046577603,0.16977818,0.34598216,-0.048439465,0.7050308,0.031410594,0.088812485,0.1178081,0.09066157,0.08738853,0.04036355,0.44200218,0.037846494,-0.40807214,0.36793768,0.33876616,0.570163,-0.10456931,0.056495447,-0.514637,-0.47411773,0.011985619,-0.0385524,0.10122556,-0.18976264,0.13943385,0.26064995,0.010211071,0.010176753,0.47939447,-0.034057133,0.05046318,0.20698835,1.0076691,-0.32905236,0.0027063666,-0.1745272,-0.034462854,0.16062637,0.033756875,-0.17980407,0.014443751,0.10794712,-0.10087931,0.2045512,0.0790737,0.088129416,-0.055309772,0.1463583,0.11199328,-0.06759548,0.13216145,-0.11766321,0.0605069,0.13378763,0.4038612,-0.0027383347,-0.14239334,-0.013955564,-0.061172243,-0.08808474,-0.12127043,-0.20367765,-0.42762756,-0.24943794,0.17464003,-0.05441348,0.03206978,-0.09141371,-0.04498641
26,0.015051234,-0.045160916,0.038262732,0.039505105,0.20450631,-0.08652435,-0.03160676,-0.06479641,0.032007966,0.04126118,0.16175914,0.24630019,0.09955756,-0.02359474,-0.004604931,-0.030238412,-0.15121724,0.042408783,0.015788358,-0.083725974,0.11638013,0.018462462,-0.11355708,0.12133574,0.16836758,0.0926408,-0.22915427,-0.0633666,-0.01731479,-0.33385697,-0.24510348,0.11315694,0.14915684,0.26997662,-0.14925419,0.076307245,0.2772103,0.057133738,0.039643012,-0.10127875,-0.11481671,0.041685954,0.051098753,0.09881119,0.096297376,-0.6232629,-0.041979056,0.10096269,-0.3773807,0.05452961,0.24326202,-0.012131464,-0.105062604,0.0463829,0.12250265,-0.0089877965,0.48720425,-0.046548553,-0.032173805,-0.14777945,-0.16040286,-0.13424835,0.026077135,-0.008219475,0.1046171,-0.3013033,-0.035451483,0.00838316,-0.002724754,0.07002419,0.10505699,-0.01728902,-0.088795915,0.122081704,-0.17351203,0.11022391,0.5071394,0.036777224,-0.17468055,0.04272822,-0.26514694,0.10689789,-0.032566868,-0.045983817,-0.08135007,0.2556096,0.003465307,0.070953935,0.043940876,-0.025043972,0.027047843,-0.0032953895,0.14833106,0.023793206,-0.07864938,-0.035262145,-0.15900232,0.1133297,-0.06569967,-0.16045879,-0.14406411,0.19431874,0.043462746,-0.121200055,-0.1627936,-0.047103148,-0.19416694,-0.08554898,-0.49814302,0.19363357,-0.11843326,0.19548371,-0.047791112,0.5031767,0.0929349,-0.10391541,0.15704651,-0.15048954,0.15465955,0.10294655,-0.0046363026,-0.046863534,0.22765362,0.25946385,0.10256313,-0.30880237,-0.070993885,-0.11434805,-0.15055506,-0.1927848,-0.01648658,0.070528075,0.04473301,0.090921074,-0.5710471,-0.028596574,-0.01058171,0.15626946,-0.15963697,0.07411577,0.05427228,-0.18728425,0.487145,-0.004096365,-0.09854167,0.16751069,-0.2464919,0.161831,-0.07954343,-0.007609348,-0.1964159,0.08323449,-0.023175126,-0.0726004,0.25844005,0.01323901,0.14888541,0.069546334,0.21434964,-0.15704203,-0.0015540317,0.015127177,-0.083423086,0.057756077,0.010877822,0.19425131,-0.44007263,0.022120219,0.45206138,0.6501745,-0.5699837,0.7417987,-0.08879953,-0.08475225,0.06971812,-0.21708062,-0.052699607,-0.007025002,-0.034559,-0.023263462,-0.44207564,-0.019006463,-0.047871854,0.0448776,-0.03170261,0.13527773,0.0089309355,-0.046082277,0.23811099,0.019456202,0.08751478,-0.043327883,0.14178073,-0.35871032,0.13138717,0.032368008,0.011902264,-0.108619705,-0.053390414,0.19269356,0.11140924,0.09223005,0.22588852,-0.173631,0.20673965,0.02694731,0.107224695,0.050849892,-0.01623752,-0.010158122,0.081264175,0.12513036,-0.21350871,0.09417468,-0.069126174,0.21997969,0.15593916,0.20436828,0.22846085,0.16186984,-0.099570826,0.10333063,-0.07243191,-0.18567802,-0.0934424,-0.057582516,-0.029208345,-0.023824237,-0.11122513,0.08981258,0.029053941,0.24632795,-0.16675861,0.13384573,-0.16029105,0.16490076,0.13770543,0.07217931,0.15587455,-0.15845041,-0.014973942,0.08842937,0.028214106,-0.07996803,-0.01563332,-0.05779895,-0.41969103,-0.13684043,0.06411763,-0.53239554,-0.115835175,0.08327687,-0.19195509,0.19408841,-0.010689164,0.21537702
27,-0.045103725,-0.34052873,0.37303588,0.20756267,0.21769977,-0.07228268,-0.49987164,0.0004045645,0.016102148,0.0019629868,-0.097747944,0.51194876,0.35848874,0.12249432,0.0702795,0.039689053,0.18820263,0.09694132,-0.15549931,-0.039285764,-0.4100981,0.19964467,-0.13347365,-0.2139273,-0.31288654,0.075603954,-0.09827871,0.073286265,-0.13043535,-0.0863789,0.3797381,0.044381,0.0071560736,0.21897021,0.09314469,0.11210735,0.0616076,0.12438749,-0.022044275,-0.0005983072,-0.20028195,-0.0343087,0.12481002,-0.22804147,0.08188459,-0.76968896,0.1694539,0.29903582,-0.035331253,0.3015513,-0.24877132,0.077157214,0.22239241,0.46438822,0.15349862,-0.27358305,0.26764002,0.18430488,0.11128373,0.1335199,-0.022614019,-0.027292239,0.024033519,0.15922813,-0.07141101,-0.22163564,0.17032957,-0.25666532,0.31406412,0.09935512,0.24136998,0.10210971,0.09579309,0.2659946,0.14713396,0.12689397,0.037125535,0.13403106,0.14454588,-0.08815299,-0.39928925,0.09762329,0.0006305798,0.06489578,0.12287612,-0.0962857,0.028391808,0.2689101,-0.19363298,-0.17270462,0.2792097,0.11636321,-0.17764509,0.24433626,0.11459278,-0.026809905,-0.10393559,0.34642437,0.11438337,0.050897937,-0.21341875,-0.008623536,0.17735048,-0.12714586,-0.11594135,0.17400642,0.063204974,0.046926003,0.16932246,-0.3433081,0.029263627,0.26622096,-0.10157085,-0.07199789,0.35147524,0.03722134,0.004975764,0.03677509,-0.2092148,0.46841815,0.20144801,0.1724875,0.2832847,0.42814302,0.3675316,-0.094832376,0.29501748,0.19257101,0.30228674,0.14734457,0.08084822,-0.040846292,0.13274314,-0.2289119,-0.04553079,0.1993914,0.17289375,0.08876974,0.15048006,0.0066343914,0.22725748,-0.015550033,0.1968498,0.08179143,0.18052031,0.25485125,0.14106598,-0.054353755,0.03121446,-0.09936968,-0.2036336,0.0006660842,-0.022259457,0.08673019,-0.03620556,0.021030065,0.11733685,0.20627937,-0.056115966,0.06558693,-0.1909838,-0.15731007,0.16301312,-0.06627949,0.023827149,-0.037499215,-0.32325882,0.08182769,0.18017064,-0.25706813,-0.17421433,0.17885377,-0.022757167,0.35699278,0.14653116,0.29164407,0.0262949,0.0027285828,0.08912037,-0.15144183,-0.044151727,0.09358816,-0.20021562,0.36725175,0.23187712,0.5114851,0.07299455,0.16853142,-0.00059398264,0.06580073,0.3853018,-0.02950552,0.00024329475,-0.6932893,-0.14143278,-0.032177497,0.10051786,0.3408874,0.1023649,-0.22166798,0.61015177,0.2590781,0.28542688,-0.1288412,-0.09006956,-0.30239773,0.09531628,0.05937646,0.013791156,0.10445526,0.50588983,0.114791065,0.4582201,0.17419015,0.14766966,0.118990846,0.3700631,-0.25305405,-0.037345596,0.52675927,-0.22822149,0.26019785,-0.14040913,0.06807021,0.033364154,0.1522305,0.14526458,0.058535237,-0.03508355,0.09858917,0.11455852,0.016064966,0.014862633,0.03324087,0.17519471,-0.4072484,-0.2099317,0.0031031736,-0.12385895,0.13588464,0.04288604,0.05166654,0.043084186,0.13573213,0.03164123,-0.046672825,-0.15786357,0.08278574,0.41723767,-0.026517622,0.07706467,-0.19366896,-0.042114057,0.47262242,-0.26297867,0.089798674
28,-0.13217612,-0.05928007,0.062094375,-0.04368031,0.29342106,-0.11997217,-0.09894002,-0.16464254,-0.05034444,-0.046159923,0.21875802,0.24283123,0.19176076,-0.10181456,0.077465184,0.030670185,-0.07603764,-0.009664525,0.14509222,-0.023730448,0.17525974,-0.09752471,-0.10249084,0.17540632,0.23119225,0.10982671,-0.099571444,0.07948014,-0.02953908,-0.21175244,-0.21300569,0.15473717,-0.0064863497,0.3925311,0.00072325,-0.011759837,0.02928071,0.023636809,-0.068729304,-0.043346297,-0.08766659,-0.091425866,0.049689673,0.2387009,0.35957882,-0.62792736,-0.045695733,0.16878898,-0.49517477,0.17055073,0.2641642,-0.11681482,-0.07479425,-0.06569294,0.116223015,-0.11599368,0.3924009,0.12736036,-0.06235628,-0.092589594,-0.073016234,-0.09958382,-0.031961106,-0.0869309,0.14553809,-0.49912998,-0.050669145,0.022736847,0.17063227,0.12582043,0.14395407,0.038156264,-0.16433239,0.13370405,0.029387292,0.3247507,0.34326816,-0.11125763,-0.0066826115,0.21448128,-0.32687086,-0.04572991,0.020135978,0.08730076,-0.0172685,0.229518,-0.11224986,0.46799254,0.1616763,-0.04637455,0.0027599083,0.0013269235,0.30383828,0.13394025,-0.0999784,0.092215754,-0.051443502,0.20399229,-0.055514455,-0.06745655,-0.3740146,0.11304272,-0.022832446,0.11195474,-0.07823958,-0.05689827,-0.102561496,0.25085878,-0.21303459,0.11827152,0.0052482174,0.34437218,0.098418966,0.29608482,0.123597205,-0.033992548,0.4192896,-0.07097606,0.21272244,0.14063759,-0.122894034,-0.06880028,0.31510073,0.48084715,0.19794057,-0.38297555,-0.02928949,-0.07855067,0.059905436,-0.29083124,0.12184449,0.042559233,0.04729919,0.14890392,-0.6874013,0.0081531545,0.054383077,0.42256707,-0.11231964,0.15453716,-0.042340606,-0.12648289,0.31959853,-0.16715112,-0.092118286,0.078664415,0.077715695,0.06973203,-0.03486548,0.13797449,-0.2641202,-0.1129949,-0.06790898,0.09541685,0.17892681,0.025718272,0.08465463,0.019679887,0.12163047,0.004059761,0.28078172,-0.044702567,0.034297183,-0.01193023,-0.031510517,0.20971759,-0.5611015,-0.043842345,0.39342123,0.7269781,-0.573658,0.54121363,0.112269625,0.21007884,0.1378649,-0.021610161,-0.14532569,-0.06916579,-0.1578646,0.18972163,-0.56731504,0.002169531,-0.18720658,0.1017263,0.4042535,0.14502595,-0.0031404376,-0.006850602,0.3562496,-0.003334801,0.33622962,0.13881415,0.0921379,-0.6638661,0.36306378,0.09362198,-0.105148576,-0.006133876,-0.12769122,0.31574145,0.101595685,0.18586667,0.5010767,-0.054217916,0.22610223,0.19791993,0.14688845,-0.026280867,0.04620623,0.10577786,0.11667736,-0.048591323,-0.30185866,0.031507373,-0.12151142,0.2500102,0.1260853,0.10873903,0.29249135,0.14184043,0.100907795,0.20280409,0.019797653,-0.08204532,-0.1064543,-0.1627748,0.09087312,-0.10250654,-0.052207954,0.12870272,0.05186116,0.23438044,-0.02595411,0.18322289,-0.16003907,-0.04592309,0.12398114,0.07766696,-0.04223223,-0.060161255,0.11980462,0.10583719,0.11187475,-0.109869614,-0.031515513,0.032952644,-0.45179972,-0.111730844,0.1851632,-0.34120476,-0.07969653,0.4334759,0.017310547,0.31594393,0.05690947,0.16996379
29,0.09294661,-0.3306227,-0.18341522,-0.014266756,-0.58863455,0.09453755,-0.57664895,0.14960817,-0.025784187,-0.115923546,0.20609963,-0.53690875,-0.19837633,0.09628861,-0.06595072,0.07440315,0.09396733,0.120306894,0.09832704,0.03642659,0.11993932,0.059651196,0.03148841,0.21090578,0.1017901,0.050399084,0.36856416,0.018020894,0.061064392,0.2765023,0.46721733,-0.038754277,-0.07414353,-0.22509342,0.08025689,0.14546137,-0.027656877,0.1399622,0.0519132,0.06493294,0.039585445,-0.08721004,0.13063732,-0.17345569,-0.25954995,0.96635705,0.02833645,-0.39505976,0.5693614,-0.59720457,-0.11810152,-0.052877042,0.28405327,-0.08742487,-0.024443172,-0.33882725,-0.56210524,-0.71302474,0.121114254,-0.008983871,0.17609172,0.12470227,-0.110680126,0.06550491,-0.0001939015,0.45247382,0.26777002,-0.028552437,0.0006508963,-0.102559425,0.515425,-0.0861768,0.19832794,-0.0020201316,0.18410426,-0.22933502,-0.79126936,0.07446143,0.24430534,-0.24037634,0.04193505,0.058915112,0.045538884,0.12509863,0.1434621,-0.23679096,0.18671021,0.14978437,0.023695216,0.14388773,0.032137673,0.06914651,0.5496068,-0.70171416,0.12672459,0.17627935,0.06558777,-0.1679021,0.05160958,-0.008316898,0.2559735,0.31020594,0.025463125,0.039605375,0.07556285,0.0028430151,-0.13080889,0.266049,0.024987485,-0.22498561,0.15195504,-0.5289261,-0.06411614,-0.09769259,-0.21585672,0.15254915,0.80512846,-0.07283661,-0.14176516,-0.39430502,-0.050524034,-0.15463863,-0.5565096,-0.25532743,0.0013464054,0.70310104,-0.04107922,0.2121262,0.14676358,0.2132063,0.05292065,0.19107118,-0.051777963,-0.08677553,0.4003453,0.0025131411,0.73684466,-0.42219377,0.20995745,-0.11595839,0.14169051,0.22519824,0.24589226,-0.04430883,-0.020048812,-0.42706552,-0.04197647,-0.037800774,-0.011345893,0.07578024,0.40723,0.05457578,0.04521004,-0.09404006,0.12599558,-0.12784392,-0.27304068,0.13081667,-0.13843353,0.039863147,0.55366856,0.013873356,-0.066334434,-0.66766167,0.049426816,0.056066714,0.8995344,0.12304326,-0.17297581,1.2739189,0.26508155,-0.46785682,0.5716097,-0.14766459,0.03483762,-0.04973429,-0.07894766,-0.049717695,0.067481324,-0.14133826,0.4069254,0.025773125,0.17408718,-0.10684865,0.23288289,-0.6700479,-0.02380974,0.14466077,-0.017204272,-0.016656637,-0.42068496,-0.09573845,0.0069164224,0.4883646,0.10535896,0.15280549,-0.06332749,-0.20279914,0.1762948,-0.017723681,-0.30279893,-0.30059934,-0.53929174,0.15770894,-0.25348085,0.28294435,-0.30305788,-0.031099766,0.023403255,0.05901257,-0.33710793,-0.10933778,0.032526437,-0.102216385,0.17010128,-0.36825895,-0.06583934,-0.2680801,-0.03721292,0.68099505,0.40977007,-0.07292329,0.15137011,0.14625537,-0.029543877,0.15917598,-0.55804384,0.12306029,-0.010117613,-0.06056493,-0.066681124,-0.18490416,0.07953796,-0.05909009,0.013289194,-0.32272378,0.4500889,0.17540352,-0.26033258,0.027887458,-0.07355299,0.25194496,-0.13452764,0.03481044,0.18354242,0.09941411,0.5985895,0.13064137,-0.35483554,0.22998023,-0.011267842,0.48634645,0.02502835,-0.26823038,-0.016135436,-0.10557716
30,-0.37709615,-0.44521728,-0.29953453,-0.16803093,-0.25153375,-0.15230335,-0.375086,-0.022774335,-0.044307373,0.04257153,0.6419588,-0.30112773,0.50684327,-0.087196425,-0.04048344,-0.2588676,-0.17239162,-0.028062372,-0.012489471,-0.035338048,-0.39759174,-0.08436059,-0.17771648,0.31725916,0.6492564,-0.04057671,0.4422613,0.04897538,0.21908227,-0.3276003,-0.24816158,-0.1349038,0.0072037913,0.3557518,-0.35701945,0.13656744,-0.07381301,-0.05882852,-0.057457473,0.0012997306,-0.50250965,-0.023140335,-0.26167285,-0.10130338,0.39447016,0.07400703,-0.09999354,0.02364674,-0.28543472,-0.27647856,-0.2928759,0.029972386,-0.10675739,-0.0028514045,-0.03038204,-0.28803292,-0.45833516,-0.61040175,-0.35926923,-0.051857516,-0.15110889,0.0037515191,0.11389325,-0.32459798,-0.013281747,-0.21536507,0.46698377,-0.041658334,-0.34118912,-0.5658519,0.8038888,-0.009348714,-0.06817053,-0.19870491,-0.001546449,0.54147726,0.22173631,-0.37792942,0.61036247,0.21053727,0.026209652,0.10022729,0.028554685,-0.14965755,-0.09545678,-0.16863899,-0.2929181,0.53159374,0.4226702,-0.29379255,-0.11733343,-0.2598629,0.19656204,-0.1339513,0.031253606,0.08694043,-0.23571512,0.12633471,-0.2238398,-0.046093278,-0.29891586,0.39087713,-0.27710292,0.07113028,-0.22695632,0.0069321366,-0.36879534,0.5281247,-0.31808785,0.17244112,-0.061218813,0.31086248,-0.00957657,0.24645895,-0.2324605,-0.16515957,1.1030883,-0.03586525,0.075394094,0.42585966,-0.42262,0.0025217352,0.6940118,0.48788056,-0.054110732,-0.3016194,-0.07188075,0.4665501,-0.23571374,-0.55534106,-0.037847925,-0.10616494,-0.02634612,-0.35024393,-0.22065428,-0.42632172,-0.16709185,0.48474395,0.21250184,0.06944576,0.5056325,-0.24452129,0.8220175,-0.085946105,-0.12517679,-0.32980046,-0.3132381,-0.118549734,-0.06911914,-0.06615496,0.19361483,-0.29301003,-0.5004285,0.05882908,-0.10053103,-0.23211321,-0.16268355,-0.07916938,-0.30707803,-0.061132945,0.5057175,-0.2892497,-0.061472055,-0.10199687,-0.06229162,0.274702,-0.25981638,-0.034518346,0.58900774,0.8964913,-0.1645416,0.47762448,0.31695792,0.19927461,-0.040493235,0.63428956,0.056351434,-0.13214023,0.035527747,-0.055373125,-0.27648202,0.113713086,-0.30171305,-0.08486785,0.44218513,0.038124662,0.006096956,-0.17522171,0.1699713,-0.2632703,0.21070999,0.0708398,0.028184334,-0.17665266,0.5215419,-0.08764828,-0.1114696,-0.22669505,-0.21164402,0.5204415,0.15862764,0.22501814,0.1654333,0.20401691,-0.059474498,0.33315426,0.22339146,0.074566014,-0.010527162,0.038671374,-0.27785757,0.033195723,-0.29533914,-0.13854472,0.033421118,0.27740118,-0.18682946,-0.29787883,0.28873807,0.7982277,0.7543272,-0.7156801,-0.38390106,-0.16713162,-0.06264876,-0.086515754,-0.39712095,-0.063949525,-0.056853086,-0.13181728,-0.10402346,0.42424685,-0.021657843,-0.07460146,-0.065201834,-0.22695327,0.025328163,-0.28532895,-0.43782523,-0.0890531,0.107420474,-0.12347341,0.0562962,-0.009187641,-0.22983207,-0.37159055,-0.19240086,-0.16638213,-0.03402592,-0.06909714,-0.18637295,0.7393886,-0.4927747,-0.01570291,0.05085556,-0.13536207
31,0.34615952,-0.19868489,0.14359447,0.20984875,0.13873462,0.12879153,-0.03202439,0.10881892,-0.0034579316,0.21883185,-0.6015201,0.31217954,0.07713573,0.08058056,0.19732481,0.26294196,0.10536212,0.057111952,0.03571489,0.19334745,-0.47655153,0.19984944,-0.15236992,-0.20659982,-0.4409639,0.12938417,-0.3049761,0.15393034,-0.3063979,-0.14620233,-0.52356476,0.063866034,0.16407673,-0.12991528,0.2545055,-0.045210928,0.07350405,0.2717588,0.08021782,0.14846806,-0.040053554,-0.086649366,0.16744867,-0.04971802,-0.07842207,-0.458638,0.09711342,0.11025895,0.13096368,0.1524433,-0.13174054,-0.012666533,0.122028485,-0.2345535,0.1191127,-0.0025877072,0.17100067,0.22992644,0.34265986,0.106841095,-0.13195854,0.05001479,0.09568944,0.25907597,0.03778185,-0.6031756,0.065548256,-0.32703334,0.043054115,0.10360039,-0.15910217,-0.004922541,0.214224,0.08832401,-0.08161652,-0.25219503,-0.007565202,0.2550144,0.11629021,-0.07064966,0.020846205,0.040383544,-0.07038722,0.046007168,0.027076669,-0.096917674,0.24400602,-0.63514984,-0.10181631,0.34785905,0.22916579,0.4099254,-0.59805614,0.03232721,0.18392348,-0.13939446,-0.10548377,-0.31494322,0.059266973,-0.12277727,-0.13118191,-0.18576491,0.30394208,-0.0043318374,3.3990094e-05,0.12023801,0.048944633,-0.1875242,0.013605898,0.10766541,0.021172311,-0.15349536,0.16977818,-0.12718487,0.23370376,0.08738888,-0.08940239,-0.083175346,-0.2144686,0.12007277,0.35969588,-0.04692788,0.103967294,0.040973604,0.018307166,-0.26616788,0.123104766,-0.8618061,0.13176994,-0.048603624,0.250315,0.35603216,0.23672616,0.06414841,-0.18987094,0.150991,-0.31979403,0.1181286,-0.18031958,0.08195418,-0.6793207,0.16384724,-0.24591827,-0.15994272,0.076068275,0.15194175,-0.00092353957,0.060833804,-0.032653447,0.034621984,-0.18595168,0.28210023,0.23459631,0.16981496,-0.15451178,0.08391527,0.23105925,0.26333913,-0.0890213,-0.03147014,-0.80343074,0.19175263,0.14176947,-0.21823944,0.11707229,-0.20123546,-0.551007,0.04312688,-0.038160995,-0.5049144,-0.14447896,-0.7820702,-0.29593262,-0.5424822,0.21803398,0.1237722,0.052824568,0.06718123,-0.1596379,0.024606925,-0.18581878,-0.0951726,0.5325491,0.025476506,-0.43940648,-0.059883237,0.17317343,0.19497761,0.11975148,0.16605881,-0.6795148,0.12365137,0.109352455,-0.23273227,-0.5044465,-0.11825496,-0.030989705,0.19171998,0.35361996,-0.25948352,0.28810382,-0.623929,-0.7739481,-0.12532596,0.020502558,-0.50186497,0.09163052,0.081082046,0.2090918,0.049443815,0.18020828,0.12939726,-0.076881215,0.13386953,-0.034938436,-0.7291724,0.27037692,-0.16080463,0.1419498,-0.24752055,-0.33690622,0.35095114,0.35893258,0.1508221,0.12163813,0.02219937,-0.0007152702,0.050867572,0.005466704,0.17884937,0.039695635,-0.029333977,0.011173321,0.12357253,-0.06363587,-0.054915305,-0.22750714,0.15786499,0.15117201,-0.07057822,0.0736303,0.00038845273,0.12970372,0.009662785,0.28845316,0.4374958,-0.7058025,0.38251683,0.27222317,-0.5298034,0.20536698,-0.86907786,0.105655976,0.18618755,-0.26406294,0.23928562
32,0.21449588,-0.79276866,-0.041093055,0.102869965,0.077577345,0.16851756,-0.30587864,-0.11418005,0.054862183,0.078866206,-0.5098268,-0.22966309,0.054738253,0.019666186,0.13017544,0.23234648,0.0103814,-0.07947226,0.17400727,0.23075676,-0.15714201,0.293783,-0.02278001,-0.015778814,-0.36893177,0.13998495,-0.29290846,0.13707039,-0.12882364,0.0092232125,-0.38891554,-0.26099956,-0.28040493,-0.15581237,0.122046135,-0.019277897,-0.06662087,-0.027897816,0.18426903,-0.1039222,0.094658,-0.121190324,0.057370927,0.00030801998,0.030702734,-0.19181831,0.31653154,0.09749217,0.13888454,-0.0116655035,-0.14947861,-0.13127318,0.023615878,-0.13996783,0.087538436,-0.24569681,0.06365254,-0.076649055,0.026794242,0.11921169,-0.20336251,0.029290756,0.12150377,0.11243815,-0.15779535,-0.45437256,0.124612086,-0.38029826,-0.16379458,-0.16018131,-0.03602852,0.10031087,0.09227624,-0.02872361,-0.12258685,-0.69505525,0.09806833,-0.043256365,-0.1518085,-0.0014911041,-0.6003784,0.15634061,-0.10283611,-0.0672469,0.007221955,0.033844832,-0.013344101,-0.5059566,-0.5733813,0.45170492,0.026227497,0.07216279,-0.8239832,0.029647386,0.0028745006,0.13817915,0.034637,-0.2866602,0.025464633,-0.15696973,-0.12512009,-0.24852447,0.15922214,0.02279228,0.18991107,0.033513892,-0.011824172,-0.29802814,-0.025866022,-0.31788683,0.113813534,-0.12869692,0.12102704,-0.33295432,-0.009544298,-0.08437847,-0.37395027,-0.07712342,-0.17631352,0.14240035,0.15809083,0.05564867,-0.18390536,-0.038508605,0.10022744,0.062197477,0.32960308,-0.1707521,0.14462307,-0.3612047,0.14796132,0.16017802,0.09563253,0.013849587,-0.114943884,0.13321945,-0.12759712,-0.35216525,-0.12148303,0.16088943,-0.24202698,-0.050585132,-0.047131456,-0.094009295,-0.020302573,0.23679674,0.1270336,0.05628076,-0.091800846,0.0029366945,-0.088200964,0.24646732,0.09350608,0.10688338,-0.07563037,0.1548348,-0.38893983,-0.108568765,-0.014184385,-0.15264857,-0.60294676,0.24043067,0.13987003,-0.06660011,0.042005815,-0.20098585,-0.54707134,0.05169421,-0.0983192,-0.21492286,0.033192974,-0.27839398,-0.16441528,-0.41312984,-0.09259218,-0.027439537,-0.05865703,0.01725167,-0.14992107,0.046785332,0.026962148,-0.024649357,0.04780461,-0.028148888,-0.6968043,-0.036385633,-0.043374475,0.21252213,0.13137317,0.021924872,-0.3378959,0.20861582,0.24281748,-0.20752534,-0.20770088,-0.39154723,0.047077097,0.1624681,0.1423476,-0.3775653,0.18657967,-0.39343658,-0.45047152,-0.06400614,-0.04932235,-0.68153775,-0.3228284,0.10081608,-0.12991633,0.09024867,-0.122779615,0.15152821,0.081230074,0.122178175,0.0481857,-0.4887015,0.027880957,-0.018640554,0.13007456,-0.08261016,-0.28582212,-0.04233036,-0.04974766,-0.10398182,0.004182087,0.116701156,-0.2578975,0.07122629,-0.13323753,-0.19482465,0.21771505,0.06922869,-0.10447565,0.018533615,0.02166412,-0.006422553,-0.5348601,0.17234337,-0.4124166,-0.16610353,-0.0102825025,0.034800123,0.23775762,0.047909774,0.03210547,-0.06492097,-0.6271939,-0.05041378,-0.15458545,-0.45251948,-0.23263162,-0.3861565,0.20315781,0.19609211,-0.085970685,0.012308192
