,0,1,2,3,4,5,6,7,8,9,10,11,12,13,14,15,16,17,18,19,20,21,22,23,24,25,26,27,28,29,30,31,32,33,34,35,36,37,38,39,40,41,42,43,44,45,46,47,48,49,50,51,52,53,54,55,56,57,58,59,60,61,62,63,64,65,66,67,68,69,70,71,72,73,74,75,76,77,78,79,80,81,82,83,84,85,86,87,88,89,90,91,92,93,94,95,96,97,98,99,100,101,102,103,104,105,106,107,108,109,110,111,112,113,114,115,116,117,118,119,120,121,122,123,124,125,126,127,128,129,130,131,132,133,134,135,136,137,138,139,140,141,142,143,144,145,146,147,148,149,150,151,152,153,154,155,156,157,158,159,160,161,162,163,164,165,166,167,168,169,170,171,172,173,174,175,176,177,178,179,180,181,182,183,184,185,186,187,188,189,190,191,192,193,194,195,196,197,198,199,200,201,202,203,204,205,206,207,208,209,210,211,212,213,214,215,216,217,218,219,220,221,222,223,224,225,226,227,228,229,230,231,232,233,234,235,236,237,238,239,240,241,242,243,244,245,246,247,248,249,250,251,252,253,254,255
0,-0.03914627,-0.0112249805,-0.32472336,-0.25922737,-0.047893096,0.014619837,0.041825466,-0.21701877,-0.14167246,-0.17152683,-0.07576533,-0.10191333,0.014306367,0.04283809,-0.111455925,-0.20243199,-0.009227838,0.030399727,-0.088472895,-0.13873957,-0.16578598,-0.017342767,-0.35160226,-0.0011382904,-0.25676695,0.05174175,0.052001074,-0.13324276,-0.063959114,0.050920457,-0.14905788,0.09841781,-0.05709773,-0.16378957,-0.15227011,-0.15337655,0.04682432,0.039853938,-0.08674096,-0.10006242,-0.02874011,-0.17039934,0.00767064,0.09144521,-0.07958393,0.050442986,-0.096032895,-0.12058132,-0.1524764,-0.16961741,-0.35576066,0.1434121,-0.12944369,-0.14465679,-0.07070684,-0.08519145,-0.19409335,-0.08784315,0.10777925,-0.1575952,-0.16949481,-0.012969545,-0.0037346107,0.06252614,0.12955213,-0.1188658,-0.08605799,-0.116169594,-0.10042662,-0.04421488,0.030828325,-0.07589358,-0.20500453,-0.13314274,0.04513748,-0.052269347,-0.26578483,-0.0031081266,0.03621647,-0.1711862,-0.04686153,0.22917157,-0.10948567,0.050804723,-0.21455635,-0.05118476,-0.19010104,-0.0017287595,-0.10774844,0.05422342,-0.17021193,-0.08412039,-0.060331617,-0.10086713,-0.12667164,-0.1318512,-0.1474554,-0.19322182,-0.01104037,0.008658793,0.019790113,0.002021556,-0.03329324,-0.15161552,-0.021631828,-0.049951382,-0.41323966,-0.02024061,-0.14476517,-0.030094422,-0.14191963,-0.06760403,-0.17551044,-0.18674965,0.05611404,-0.31824514,-0.11921694,0.005309935,-0.05113606,0.045059167,-0.08581457,0.036971036,-0.07638582,-0.24272719,-0.022713162,0.07044754,-0.0076073413,0.014674836,-0.0013743993,-0.13750634,-0.08392169,-0.28650314,0.002658219,-0.09769627,-0.08467072,-0.07910224,-0.1424461,-0.07207826,-0.19978516,-0.12554927,-0.14646716,-0.037057783,0.05509306,-0.06540617,-0.03371838,-0.15108879,-0.001239939,-0.17880282,0.017692808,0.05275423,0.017142404,-0.105345875,-0.32843342,-0.09324754,-0.08143967,-0.36097318,-0.09196995,-0.038514763,-0.2242797,-0.17243682,-0.110682175,-0.12230103,0.012726085,-0.042699866,0.41565108,-0.20037016,-0.2392849,-0.04241535,-0.19979496,0.045070373,-0.11120474,0.020929929,-0.114853375,-0.081054375,-0.0713322,-0.03065764,-0.25515983,-0.049518384,0.07346838,-0.070958264,-0.05138989,-0.027909378,-0.023582114,-0.062959686,-0.028639378,-0.19889142,0.050759632,0.03892425,-0.09057832,-0.17685843,0.024800736,-0.15454051,0.0043481532,-0.07086004,0.045237012,-0.11194335,0.008323028,0.02444518,-0.16436058,-0.020644752,-0.11002247,-0.25235298,-0.10397455,-0.18543553,-0.20066126,-0.26044115,-0.13274641,-0.001506959,-0.11438654,-0.22362295,-0.13755636,-0.030717261,-0.07477238,-0.16466302,-0.05112552,-0.31337136,-0.12363819,0.007059475,-0.002455115,-0.21359028,0.03769027,-0.14686966,0.026194444,-0.13552381,-0.08679814,-0.14628302,-0.072532386,-0.07861558,-0.38877237,-0.03604036,-0.063804135,-0.2912348,-0.041100718,-0.30988935,0.032987237,-0.28276503,-0.12026841,-0.32069796,0.013514298,-0.27442917,0.056045495,-0.15145168,-0.113914125,-0.24967773,-0.035228413,-0.06534499,-0.09759791,-0.107851826,-0.041605107,-0.13408406,-0.08038553,-0.035742246,-0.0053985748,0.00865935,-0.07874957,-0.10293088
1,0.023054754,0.04933171,-0.25794423,-0.121664144,-0.0182752,-0.06287493,0.09161182,0.011398289,0.100144245,-0.023490472,0.15550144,0.0968884,0.08018927,0.057657614,-0.09963147,0.11124265,-0.09266853,0.068442315,-0.10760875,-0.030408124,-0.08634522,-0.06835202,0.21189536,-0.03943644,-0.35373193,0.008937174,-0.075747885,-0.026198009,-0.06061687,0.044072248,-0.105228,-0.18419306,0.11220894,0.106810026,0.06529458,0.0029592712,-0.028459929,-0.11919779,0.03769437,0.022671727,0.056235816,0.060690906,-0.033299666,-0.26883754,-0.08957884,0.023548465,0.031286083,-0.07394213,-0.04731635,0.04022089,-0.23220575,0.07553671,-0.03313645,0.14470531,-0.073829584,-0.0068387906,-0.14651765,-0.047880277,-0.09190541,0.020068204,-0.0118893655,-0.13592438,0.056465145,0.5110532,-0.39531875,0.14062126,0.075425245,-0.07821498,-0.03909352,-0.061540227,0.09692177,-0.081484385,0.003093696,-0.061232354,-0.16008575,-0.07429028,0.22748286,-0.15427107,-0.115187936,-0.06600267,-0.066718504,0.09897049,-0.06668984,0.06333106,-0.046165545,0.111177646,-0.004433074,-0.0281168,-0.026448108,0.04717875,-0.081589006,0.10141006,0.05949436,0.098615564,-0.09962113,0.048672765,0.080955036,0.1273365,0.0010877103,-0.11380878,-0.062210828,0.06266243,-0.04749886,-0.1710488,0.11930611,-0.16440599,-0.09786681,0.07969704,0.049995065,0.06529244,0.010425257,0.013484827,-0.021337707,0.027964596,0.13274744,-0.6768101,0.056255728,-0.19594514,-0.09493957,-0.13854608,0.040422693,0.009827722,0.0010869548,-0.163459,0.08319432,-0.1063066,0.0045947516,-0.10053043,0.088291995,-0.24157278,-0.15929404,-0.32544795,0.13007966,0.19110572,-0.035337802,-0.11405732,-0.07473429,0.066251464,0.049936607,-0.015368025,-0.09260136,-0.12657094,-0.05539177,-0.03725422,0.06452198,-0.16007262,-0.0042232927,-0.08719077,-0.05885873,0.00046303993,-0.11945493,0.04532178,0.14539145,-0.14813438,0.032326102,-0.0039244588,-0.15055753,-0.11781631,-0.022557361,-0.088930875,0.14776045,0.09085111,-0.17234327,-0.010759099,-0.3612522,-0.20867017,0.18694644,-0.083433874,0.022385033,-0.25620216,0.27445823,-0.20397715,-0.08060659,0.0764663,0.013907854,0.072018385,-0.20324518,-0.03964528,-0.25368115,-0.0013170459,0.0056289793,0.04640771,-0.05997223,0.16386749,-0.13629134,-0.0065772217,0.048617292,0.07246681,0.17122367,-0.06915137,-0.10057085,0.029116869,-0.08329792,0.024116365,0.018560644,-0.09965506,-0.050501943,0.015958786,-0.23858002,-0.1598252,-0.12020016,-0.4964374,-0.018583085,0.22651577,0.061380032,-0.07394126,0.104940444,-0.0011929858,0.0103731975,0.045236725,0.1662797,0.06686019,-0.12769635,-0.10096217,-0.012929044,-0.07826266,-0.15836897,-0.0011477404,-0.11155962,-0.076648846,-0.2433156,-0.041331407,-0.08714891,-0.1589799,0.057382155,-0.25408208,-0.118564695,-0.0012206477,-0.08244345,0.07836723,0.059650917,0.07736443,-0.13644357,-0.20500545,-0.13522847,-0.032074336,-0.007104518,-0.23246987,0.019748569,0.03765338,-0.17600162,-0.0105336085,0.0625076,-0.07048046,-0.19717833,-0.009172749,-0.047061484,-0.06098215,0.12852257,0.016012836,0.04839853,0.04681171,-0.000100803125,-0.02229351,-0.0028513947,0.045522545
2,-0.14913163,-0.053516895,-0.32086372,0.04246113,0.02873492,-0.058805466,-0.19258927,-0.13617046,-0.05563724,0.08468919,-0.10538889,-0.0630823,0.016383406,-0.13872454,-0.12503654,-0.12303934,0.006800901,-0.08769152,0.0019334997,-0.17885672,-0.05729695,-0.04838268,-0.05265587,-0.18583502,-0.006822422,0.025009353,-0.07629835,-0.18948498,-0.025999367,-0.0063463445,0.07773615,-0.16465856,0.0060900236,-0.077169634,0.07707234,0.059948742,-0.047880158,-0.014444944,0.016478198,-0.051969565,-0.02082968,0.034363393,-0.071994424,0.10354942,0.011845219,-0.17587255,-0.06280367,-0.15405244,-0.017545233,-0.07442913,0.036979087,0.000104840554,-0.068618,0.0557498,-0.087700725,0.04628685,-0.14333504,-0.08838331,-0.06357329,0.052960664,-0.08908328,-0.07241053,-0.17673108,0.008744592,-0.22592686,-0.13142733,-0.073349215,0.048205324,0.09787379,-0.057695653,0.026825448,-0.12581497,0.048938546,-0.14497587,-0.011022676,-0.09611417,0.019152163,0.0053174626,0.05376529,-0.03919475,0.050509684,-0.010006635,0.04744619,-0.10420619,-0.07469051,0.019336315,0.0025783393,0.055643436,-0.19237898,0.02148513,-0.054646976,-0.12048491,-0.13294838,-0.068016306,-0.0046552923,-0.014833085,-0.00166715,-0.0908961,-0.053990074,-0.11138471,-0.12079594,-0.12303402,-0.04306876,0.0183496,-0.23928654,-0.034695182,-0.13254991,-0.13872854,0.035382226,-0.07553476,0.010689081,-0.1645457,-0.07816315,-0.07497792,-0.0916064,0.0076776077,-0.06858104,-0.03775418,0.09925838,0.018065488,-0.013704579,-0.036665894,0.055415653,-0.08616307,-0.07018705,0.016051628,-0.006140827,-0.16836074,-0.16033828,-0.1455587,-0.18656193,-0.03477232,-0.19493894,-0.14655487,-0.060207512,0.0032779537,-0.08911512,-0.090504855,-0.12360643,-0.14863846,-0.007633262,-0.08507934,-0.122416474,-0.13589253,-0.02961495,-0.013850951,-0.011023007,-0.19390938,-0.11328056,-0.020121368,-0.14961854,-0.030157715,1.7438728e-05,0.043713406,-0.06292198,-0.10678731,-0.054661475,0.036607645,-0.058380045,0.046008527,0.021732742,0.013752809,-0.05952679,0.019157838,-0.10505377,-0.0067851366,0.045337226,-0.0959492,-0.042673726,-0.072404034,-0.09002693,-0.12650287,-0.014515806,-0.117787905,0.026488356,-0.12826914,-0.1544864,-0.016637225,0.05784785,0.009441249,-0.058459546,-0.06957437,-0.057444464,-0.15303245,-0.13444808,-0.12619017,-0.047191944,-0.11792728,-0.2121136,-0.026975026,0.0063365996,0.02697306,-0.06208167,-0.04960276,-0.11897376,0.05684676,0.045405705,0.008643285,-0.08897891,-0.26113886,-0.07222445,0.22529814,-0.057744138,-0.11005061,-0.05101026,0.07136018,-0.019182391,-0.0019483787,0.028261984,0.024484122,0.0374487,-0.0036703285,-0.07206963,-0.09399189,-0.062450197,0.037340887,-0.020932352,0.022796888,0.050549082,0.014452753,-0.060588032,-0.019069659,-0.14202291,-0.29986256,-0.053014882,-0.082246184,-0.01550203,-0.06076799,0.08691455,0.033130683,-0.008760567,-0.1043759,0.027297532,-0.21789575,-0.0015505773,-0.08845471,-0.12570746,-0.10385584,-0.06778989,-0.1587533,-0.007766653,-0.061077844,-0.15095653,-0.0023010178,-0.11819208,-0.029243644,0.07173483,-0.01734786,-0.03943547,-0.07526577,-0.10341203,-0.04096049,-0.10341268,-0.07627318,0.015572264,0.0588969
3,-0.11920554,0.009015245,-0.77668816,-0.5462844,-0.095865645,0.045578722,-0.12764645,-0.12987879,-0.08936559,0.018026032,0.0067583486,0.03104404,0.0070184735,-0.13200347,-0.033932876,0.059004217,0.07708059,0.01413892,0.061000586,-0.22101317,0.1433379,-0.15706387,-0.2303708,0.0854977,-0.07547818,-0.08218977,0.09858787,-0.16543536,0.15845753,-0.020575175,0.005773896,0.11034409,-0.0025362412,-0.015405447,-0.06546247,0.16519727,-0.0431714,0.105376475,0.005785153,-0.038468976,0.03978402,-0.049991116,0.13618472,0.045823034,-0.03478653,0.12433355,0.16830376,-0.19680282,-0.08807815,-0.13700381,0.30305436,0.13334982,-0.11759456,-0.060219288,-0.06228828,0.08657773,0.06832906,-0.018254448,-0.010140355,-0.027529912,0.025490964,0.0934591,0.084588476,0.24498025,-0.04910424,-0.19859217,-0.16622505,0.10072224,-0.08355477,0.075020134,0.08502921,0.0032602798,-0.058015417,-0.13613251,0.07223187,-0.03251935,0.39307696,0.009092374,-0.07227055,-0.1998952,0.13162202,0.042159222,0.035141245,0.010952675,-0.21236081,0.07224405,0.036945075,-0.25801343,0.16902612,0.13573815,0.004394812,-0.029203143,-0.019609453,0.042790756,0.0027239178,-0.02827875,0.09386506,-0.02579679,0.0760428,-0.031905413,-0.10245471,-0.1288324,-0.039148673,-0.05467246,-0.20199828,-0.043547537,-0.28812712,0.11089762,0.08370647,-0.052022673,-0.09231092,0.09227069,-0.13053395,0.030381542,0.03561389,-0.3637006,0.04506165,0.08791048,0.005631746,0.05056778,0.0493553,0.11164937,-0.11071009,0.23353143,-0.07300449,-0.018412128,-0.028136984,-0.06563261,0.018815279,-0.11858451,-0.09272255,-0.2033608,0.051803324,-0.16914195,-0.08898128,-0.06630999,-0.043908264,-0.08047574,-0.042938348,0.14365125,0.15805453,-0.2508618,-0.090440564,-0.09771231,-0.11784504,-0.118192226,0.053937938,-0.013414904,0.10003184,0.07964671,-0.03106095,-0.13206144,-0.31500795,0.014685055,-0.1492185,-0.2612275,0.18211502,0.04243921,-0.19556747,-0.120714016,-0.143056,-0.02306945,0.060369957,-0.08028302,0.03936962,-0.4190482,-0.005565827,0.08494483,-0.07226199,0.053484503,-0.037343167,-0.19458996,-0.020094818,0.11663685,-0.010130878,-0.1625384,-0.16103949,0.05208824,0.049448486,0.1010412,-0.039319567,-0.041539755,-0.12467582,-0.17060554,0.023728993,0.033148438,0.13349849,-0.029908024,0.10919408,0.028430711,0.05192997,-0.055411916,0.037899166,-0.052671544,0.027939513,-0.1301563,-0.150259,0.083140805,-0.09871639,-0.09687379,-0.0850844,0.4780083,-0.03600624,-0.0924459,-0.14045306,0.12732737,0.05874523,0.021929285,0.2651928,-0.040383425,0.077497095,-0.13100195,0.044812445,0.1299828,0.0069524087,-0.32813036,-0.00050541695,-0.009969237,0.04387322,-0.05846513,-0.034226142,-0.08213473,-0.16820408,-0.24057236,-0.103261776,-0.27049485,0.000821427,-0.078013,0.06723803,0.059357874,-0.039143052,0.3783642,-0.08225285,0.41051912,0.010787536,-0.30623043,0.04295285,-0.38973984,-0.019348964,-0.25251284,0.1423223,0.10608328,-0.16629861,0.14253496,-0.016476272,-0.12368981,-0.03999387,-0.0705044,0.015567023,-0.040119935,0.13590525,0.029953623,0.06285397,-0.001510986,0.0018714769,0.028385026
4,0.021900604,0.14359474,-0.34627637,-0.14715785,0.05786793,0.035444852,0.05769262,0.09701096,0.14375532,0.0058479635,-0.068792254,0.2521266,-0.04435856,-0.061232403,-0.046465367,-0.23787387,-0.124060825,-0.0084396405,-0.1163062,-0.11455779,0.099949196,-0.101376556,-0.1998796,0.09749593,-0.5816624,-0.07134824,0.14713499,0.18885325,0.12469202,-0.0035844184,-0.14809789,0.17421487,0.06048295,0.019738413,0.07042939,0.12724394,-0.06570775,0.045252573,-0.037882347,-0.12597807,0.03835224,-0.002054505,-0.042308137,-0.1975672,0.07374071,-0.08181147,-0.055271074,-0.12790157,0.061173722,0.14420259,-0.11207368,-0.21999998,-0.18148263,0.0323273,-0.0819641,0.079828724,0.01551272,-0.013238674,-0.0686949,0.01876424,0.12813982,-0.065061025,0.115845144,-0.031315263,0.04169823,-0.0027777103,-0.12509064,0.0194396,-0.045768786,0.16520084,-0.04335391,0.04648633,-0.26704845,0.02843479,0.16622733,0.015511137,0.044878386,0.15214205,-0.039365374,0.095404714,-0.016849007,-0.101508036,0.0005464542,-0.10530323,-0.01930647,-0.12383519,0.07628468,0.088822424,0.16957939,0.05439384,-0.12482363,-0.0074759107,0.081209876,0.02730856,-0.099081464,-0.079916485,0.024042604,-0.0058655892,0.15829737,-0.20182912,0.1320668,0.030560508,0.0009901987,0.12610967,0.18314804,0.082708426,-0.40903637,-0.05903512,0.11806983,-0.026642382,0.044903662,0.037301943,-0.015760593,0.03925863,0.1199236,-0.39501435,0.08097258,0.005101685,-0.23074357,0.13979028,-0.026605528,0.06825345,-0.08897027,-0.13893281,-0.097508065,0.021962233,-0.020359842,0.15464126,-0.026018985,0.020407703,-0.039948415,-0.4165799,0.06783087,0.023880893,0.12519667,0.066435866,0.1846219,0.06911824,0.21071833,0.14046034,0.13373429,-0.22573173,0.044646725,0.091894716,-0.00097506464,-0.01716236,-0.035977006,-0.1511834,0.10055626,-0.063292906,0.04676236,-0.06949793,0.057222884,0.09368349,0.023541087,-0.2799305,0.002426727,-0.11249262,0.030659309,-0.18844141,-0.04793498,-0.11650388,0.069528386,0.10926713,-0.1353485,0.027682867,0.3303519,-0.047921993,-0.2519352,-0.11380012,0.33184358,-0.3597679,-0.10114996,0.044097345,-0.17503323,-0.020601675,-0.30437514,-0.036703628,0.031806108,-0.05908758,-0.18343018,-0.06374051,-0.09183448,0.24937423,0.04104276,-0.0030904114,0.1278857,0.1301762,0.2611054,-0.0316038,-0.036761913,-0.14679247,-0.013418356,0.022775957,0.09033875,-0.15756565,-0.06745083,-0.042904627,-0.042029075,0.06253583,-0.1472915,-0.15216029,-0.039434455,0.12299756,-0.13207403,-0.078449436,-4.5172626e-05,0.17775603,-0.2530266,-0.06858288,0.09170759,-0.040355764,-0.015168735,0.07259824,0.007927682,-0.13224968,0.14090738,-0.052940667,-0.055963192,-0.15710631,0.029827083,0.025696475,-0.08080257,-0.3437197,-0.1019208,-0.22087182,-0.00240318,-0.021261858,-0.4215112,0.034656685,0.091366775,0.17055157,-0.03053175,-0.41674367,-0.037474778,-0.11160569,0.002537505,-0.0116709545,-0.21706207,-0.017762333,0.1152987,0.07542897,0.11859735,-0.15619029,0.10064351,-0.064137556,0.03472279,-0.22350669,-0.00834591,-0.0009784842,-0.024418296,0.049472325,0.052088924,-0.045267545,-0.09053597,0.17544354
5,-0.053329613,-0.041830312,-0.2583786,-0.05779739,-0.16570602,-0.14158875,-0.15048537,-0.12353629,-0.06300968,-0.1875524,-0.2723365,0.03187862,-0.10709065,-0.04371735,-0.11551919,-0.12642208,-0.24342766,0.04276495,-0.113412686,-0.102733,0.0064595602,-0.10478241,-0.48405233,-0.0144355735,-0.28091034,-0.13870554,0.079625204,0.064673044,-0.08083784,-0.06853461,-0.06637372,0.16749679,-0.159899,0.116076656,-0.13121389,0.049164925,-0.31267375,-0.16164824,-0.015656559,-0.16441791,-0.08792026,-0.032470446,-0.123071305,0.043263804,-0.09632745,-0.14809713,-0.008836439,-0.53959787,-0.09991061,-0.09322974,-0.045062322,-0.1224365,-0.06850779,-0.07100624,-0.15766779,-0.123598665,-0.0742102,-0.15921162,-0.052925423,0.030513804,-0.13499787,0.021916928,-0.09848433,0.036808208,0.19641916,-0.09516702,-0.44585454,0.065687425,0.0021343927,-0.15950327,-0.1552152,-0.034170296,-0.23995943,-0.18582268,-0.03980664,-0.17210725,0.012847646,-0.015566483,-0.02375608,-0.17772149,-0.09295456,-0.27203846,-0.14234383,-0.08601404,-0.20812741,-0.16063468,-0.17313221,-0.1933196,-0.11299212,-0.049602278,-0.30479217,-0.06737368,0.03490529,-0.17465849,-0.07077458,-0.21443698,-0.14441355,-0.3640327,-0.02298761,0.05844356,-0.11411062,-0.25356594,0.052528653,0.0627602,-0.23529804,0.05322868,-0.5774058,0.07222535,-0.01946951,-0.1466849,-0.22265717,0.06424832,-0.08787573,-0.15478043,-0.10439174,-0.5211744,-0.0752373,0.08812459,-0.15431693,-0.087954156,-0.066740714,-0.13149342,-0.13484626,-0.18641564,0.008350892,0.0029205396,-0.13086079,0.04296116,-0.169444,-0.066488765,-0.058397427,-0.11406333,-0.0447981,-0.09508856,-0.013502602,-0.0657179,-0.056116655,-0.12250952,-0.09607037,-0.020458633,-0.08794062,-0.15200017,-0.1358982,-0.12321498,-0.21180935,-0.0618106,0.007461441,-0.23502848,-0.105688974,-0.042677984,-0.047623027,-0.21071988,-0.44991413,-0.18675968,0.020628722,-0.3025159,-0.122177646,-0.12729724,-0.15476261,-0.06141229,-0.17697616,-0.11483541,-0.11324681,-0.0063977404,-0.0877996,-0.12565993,-0.029128298,0.0032380316,0.19425137,0.07463481,-0.20328113,-0.32954293,-0.1379292,-0.14326987,-0.24474724,-0.20520101,-0.34384874,-0.16867965,-0.056694455,-0.09304457,-0.18007287,-0.09745546,-0.09680463,-0.05355058,-0.08572338,-0.27301913,0.042720903,-0.16854894,-0.18449739,0.026766794,-0.01786283,-0.014253603,-0.090733886,0.0028655156,0.011986735,-0.08152072,-0.3595127,-0.045700923,-0.06623844,0.05483708,-0.085130356,0.7533814,0.05584327,-0.21534365,-0.26081115,-0.090957664,-0.044186696,-0.0025052442,-0.10527979,-0.105299704,0.01468899,-0.26751485,-0.16339646,0.007847205,-0.24479713,-0.014923953,0.04206653,-0.04285848,-0.14705694,-0.20584741,0.23090734,-0.02055841,-0.20094463,-0.38946652,-0.04878657,-0.13589352,-0.052805256,-0.01927796,-0.074575596,-0.04542267,-0.01231662,-0.043594208,-0.1446008,0.26107967,-0.12617126,-0.31777275,-0.10969941,0.12062658,-0.04103208,-0.22319312,-0.11285632,-0.12154482,-0.2247914,-0.17504323,0.034709357,-0.19902362,-0.11576098,-0.23011883,-0.07222004,-0.06342229,0.052690864,-0.0018868786,-0.12647834,-0.22354513,-0.19360457,-0.11327029
6,-0.16934162,-0.08099801,0.050047286,0.020174358,-0.053024083,-0.12177777,-0.0057885577,-0.20633523,-0.01542032,0.019274857,-0.10935081,-0.071006246,-0.04551572,-0.08688402,-0.075921446,-0.11485999,-0.14528549,0.047161356,0.076106295,-0.08407039,-0.03852644,-0.013761303,-0.04913822,-0.15598729,-0.042917654,0.0032746196,-0.17562221,-0.3408518,0.015799528,-0.043792408,0.013074652,0.0035626828,0.05519789,0.07951272,0.09970595,-0.07617575,-0.019648155,-0.06339024,-0.059098043,-0.014481868,-0.14353193,-0.013779283,0.056961585,-0.12344011,-0.031881027,-0.085238054,-0.030104652,0.083956726,0.069016434,0.0709423,-0.036303382,-0.00036471023,-0.16515611,0.06279989,-0.23728208,0.025756104,-0.16050576,-0.046239175,-0.15433356,-0.0268243,-0.10070011,-0.1780228,-0.11352875,0.02340511,-0.15116805,-0.04184196,0.024465455,-0.05369742,-0.025315862,-0.08818413,0.046815686,-0.07533174,0.11432818,0.05177642,-0.03406665,-0.108641565,-0.086051874,-0.050555333,0.017125487,-0.09366997,-0.06297576,0.0071572587,-0.1208632,-0.023768714,-0.2070859,0.009121449,-0.0026540314,-0.13588074,-0.17231457,0.0009737035,-0.074823216,-0.10778219,-0.023714526,0.0069866357,-0.14955129,-0.0061982786,-0.076883376,0.011996583,0.07220792,-0.15889814,-0.032831464,0.029991914,0.022995394,0.031138103,-0.21496022,0.0017500784,-0.23234315,-0.10640776,0.011435069,-0.082951404,0.043792922,-0.10439486,-0.010884143,-0.009626497,0.013395218,-0.22454093,-0.16186082,-0.1426959,-0.13417225,-0.05987612,-0.13633154,0.05139102,0.043362882,0.04939944,-0.12436103,0.07678038,0.09024959,-0.16006432,-0.17240928,-0.15178314,-0.16812658,-0.20029245,-0.09259875,-0.016242182,-0.043851472,-0.13096432,0.034899645,-0.2800787,-0.16025881,0.036919914,0.0017377958,-0.14608991,0.062491097,-0.021343863,-0.03709379,-0.104723744,-0.17999719,-0.15236212,0.0051148976,-0.04693128,-0.14777224,0.0713557,-0.19416419,-0.18013366,0.04466179,-0.08302025,-0.114282615,-0.0011226406,0.0010178193,0.009471703,-0.005339876,0.021471174,0.0034458688,-0.083291635,-0.03261257,0.17809914,0.041416287,-0.025504084,-0.035295587,0.003059988,0.013631319,-0.21229747,-0.012526567,-0.03759231,-0.009044147,0.08155445,-0.16507316,-0.030173078,0.02122938,0.0759755,-0.13467757,-0.017234791,0.04732887,-0.00498232,0.026722884,-0.071985476,-0.018445058,-0.17063159,0.03507006,-0.055832785,-0.017909352,0.08476946,0.073817566,0.029558185,-0.106724076,0.00561832,-0.14123338,0.025488056,0.05171909,-0.23170932,-0.10322748,0.241545,-0.01681396,-0.009513589,0.034815367,0.08998156,-0.057864744,0.015017221,-0.066700436,0.0019494732,-0.12787537,-0.03156218,-0.094747566,0.024498653,0.037324946,0.13063407,-0.09994958,-0.15236828,0.06969314,-0.02721649,-0.06750144,-0.10210146,0.041197654,-0.3166777,-0.03650774,-0.024802871,-0.061700538,0.034915302,0.015682574,-0.042881526,0.049088012,0.0022769647,0.028115695,0.12027581,-0.060450006,-0.093513995,-0.13435291,-0.032795787,-0.103064746,0.06389545,-0.13710147,0.06360412,-0.064052194,0.06279459,-0.06684099,-0.10309644,-0.048795424,-0.08155246,-0.17565466,-0.072506815,-0.058586817,-0.021532185,0.06580179,0.10384496,0.019157456,-0.15388697
7,-0.08628951,-0.09490853,-0.12999283,-0.4067006,-0.053252913,0.062173434,-0.19876215,-0.11102834,-0.027555674,0.03515499,-0.15615524,-0.02350647,-0.15302317,0.032326657,-0.047898814,-0.045464985,-0.08879947,-0.013133895,-0.055218276,-0.019147621,-0.027542187,0.03940424,0.06656049,-0.08519927,-0.046788763,0.026547376,-0.08883824,-0.43085924,0.054754887,-0.10240636,0.102075554,0.056737814,0.02341532,0.0075018783,0.061979797,0.035392143,-0.03142125,0.033262763,-0.16798633,-0.01585467,-0.15240951,-0.034430694,-0.0070442315,-0.04230515,-0.1054021,0.037435826,-0.1471219,-0.0132061755,0.051734615,0.052705254,-0.10517722,0.00785175,-0.13804086,-0.16635785,-0.2659145,-0.11272216,-0.027307024,-0.13817255,0.104861185,-0.0202797,0.013309643,-0.10161173,0.031109747,-0.013443376,-0.1265545,-0.122491375,0.07745809,-0.08057029,0.08276436,-0.0929599,0.021160588,0.0039985264,-0.037831437,0.025207754,0.02047766,0.01554651,-0.007384036,-0.0020280203,-0.035460033,-0.12095958,-0.024283288,-0.09769671,-0.03518291,-0.079859965,-0.07509094,0.0030891157,0.0335361,0.025725404,-0.1669569,0.019117499,-0.037434135,-0.025136147,-0.02892111,-0.11851736,-0.10514272,0.026054945,-0.03911851,-0.091349006,-0.08395571,-0.0879522,0.055013936,0.03395638,-0.16800676,-0.15629745,-0.20308645,-0.06257278,-0.036710523,-0.15042134,0.009078833,-0.09991324,-0.068803914,-0.12483485,-0.073943816,-0.07391501,-0.1386961,0.0768315,-0.086819224,-0.17487024,-0.003797843,0.02113687,-0.015313949,-0.053981114,-0.091554284,0.018090315,0.03790935,-0.110341646,-0.1273043,-0.1720129,-0.09162528,-0.05734819,0.033814956,0.038907446,0.03881855,-0.06633126,-0.19129439,-0.13107863,-0.04207149,-0.2606232,-0.21960402,-0.046069995,-0.07481398,-0.05969299,-0.029876856,0.03383009,-0.10964551,0.009424752,-0.16174676,-0.068485886,0.050661683,-0.041108407,-0.040309004,-0.18193804,0.0007100534,-0.15427089,-0.08524949,-0.07455397,-0.04596318,-0.013013377,0.057056718,-0.092681676,0.0039660884,0.049037013,-0.07905542,0.0522994,-0.17328623,-0.1590868,-0.050748423,-0.08927032,-0.15940258,0.07566241,0.013175217,0.062301364,0.070885874,-0.14957337,-0.18237676,-0.0776283,0.04608784,-0.13590537,-0.007376947,0.021373836,0.042083714,-0.13934816,-0.0007780173,-0.17991556,0.046297073,-0.047511015,0.055904046,-0.044462975,-0.20567071,-0.12855254,0.012184123,-0.12992954,-0.06793268,-0.037240062,0.03664262,-0.020466514,-0.1630794,-0.069323085,-0.1632404,-0.31523165,-0.19481537,-0.07405418,-0.14769228,0.015782261,0.043936335,-0.08109807,-0.12116497,-0.17069347,-0.081451334,-0.04581142,-0.09863969,0.00831225,0.013860273,0.0033154485,0.12008598,-0.25217274,0.060649633,-0.06875609,-0.08975494,-0.18260992,-0.047810778,-0.055753667,-0.01022321,-0.17467263,-0.10493929,-0.108779356,-0.105188906,0.06620109,-0.052449487,-0.14120878,-0.03892777,0.03135915,-0.15235071,0.22890449,-0.04213682,-0.084000304,-0.07654542,-0.039832775,0.004834264,0.06752852,0.016818106,-0.053674135,-0.25148898,0.07059373,0.023025237,0.04366963,0.041185025,-0.18615443,-0.12983333,-0.034539502,-0.15764222,-0.11573391,-0.10269748,-0.007671414,-0.020586167,-0.10134837
8,0.12250697,-0.12465328,-0.5346384,-0.85093176,0.12780961,0.14773856,-0.266244,-0.40081483,-0.04809712,0.015360252,-0.081913754,0.1790846,-0.032752633,-0.023344954,-0.08197058,-0.09847248,0.069047,0.15183684,0.104228996,-0.25107452,0.16317664,0.073699825,0.33844486,0.029538851,0.06014468,-0.100948475,-0.067627475,-0.43254128,0.116077594,0.01772632,-0.10748062,-0.102319546,0.16019367,0.018575493,0.11231561,0.05857643,0.0011862601,-0.0055062147,0.0024557079,0.40649828,0.057970367,0.08485314,0.02708718,-0.13671808,0.12417439,-0.021262353,0.086300835,0.17918701,0.07626743,-0.012925071,0.13484691,-0.037106782,-0.1461169,0.31181082,-0.3380719,0.05432421,0.057660826,0.052998368,-0.019258153,0.14535086,0.042183127,0.074653976,0.0013427457,-0.478346,0.11228807,0.12294306,0.067153566,0.047107052,0.012210367,-0.27109483,-0.0779959,0.2532733,0.20627066,-0.026068725,-0.027382886,0.12192128,-0.14649539,0.049629748,0.07687861,0.25060716,-0.008430495,-0.10531615,-0.045202184,0.11457206,-0.13595478,0.08471838,0.11806782,0.15870674,-0.25171906,0.14020488,0.090035476,0.23224306,0.06191551,0.04849779,-0.025825482,0.23182252,-0.03663509,0.04706039,-0.060163,-0.029170072,-0.11144649,0.10565591,0.04588267,-0.06127116,-0.067729264,-0.048117984,0.08670775,-0.099954806,-0.0058669797,0.09263846,0.12504391,0.075451426,0.075730346,0.023100806,-0.054656282,0.0498912,-0.036914326,-0.27403563,0.053866673,0.17507459,-0.07917206,0.115768686,0.0186819,0.0914139,-0.07462747,-0.06692424,0.09090311,0.14864084,-0.23633681,-0.36326978,0.07854694,0.20605287,0.0014498013,0.20146003,-0.1835447,0.004770036,0.16032849,-0.38558158,-0.16877617,0.15300506,0.08192874,-0.25962052,0.11762547,0.0840307,0.2100557,0.09867375,-0.097199865,0.037749983,0.12678751,-0.04415871,0.072225235,0.23476832,0.30329025,0.15557154,0.0047003287,-0.009491335,0.11184237,-0.14265616,0.077336475,0.1332676,0.17301412,-0.039079167,0.08478553,-0.021849258,0.20359981,-0.18797927,0.30282864,0.0963124,0.018244179,0.05992308,0.21147309,-0.10688795,-0.03300872,0.017443711,0.002524994,0.22876143,-0.09153195,0.0509454,0.05351908,-0.081745304,-0.056787457,0.05134777,0.12036482,-0.3393786,0.11337911,0.1881059,0.09039399,0.05058991,0.005993835,0.048631396,0.0033232875,0.1712456,-0.023967663,0.09582312,0.0074213846,0.08177548,0.021966156,0.0056623733,0.20645072,-0.41964746,-0.0035144296,0.66694,0.08346675,0.2804611,0.10908734,-0.04662649,-0.03898182,-0.097414866,-0.054303065,0.47743577,-0.0039718254,0.1234311,0.14025089,0.022397803,0.032988027,-0.7649751,-0.019891432,-0.036754336,0.071418785,0.016438337,-0.23316605,0.025215728,0.15769567,-0.105433166,0.083770566,-0.15919016,-0.06885659,-0.108995244,-0.018834995,-0.028255124,-0.0027222848,-0.17265648,0.32186997,-0.15115812,-0.028532239,0.15898855,-0.03276282,-0.99420214,-0.033417687,0.24588455,0.00758675,-0.04686265,-0.1558248,-0.08719853,-0.25328818,-0.004521161,-0.04759977,0.3513961,-0.07293176,0.057723302,0.059373807,0.10415315,0.013771332,0.060927883,-0.25457555,0.05966036
9,-0.06545654,-0.077678725,-0.04251461,0.115535446,0.041889034,0.13199882,0.069056965,0.07611622,0.21358386,0.05313652,0.077830195,0.06291688,0.04529435,-0.12652215,0.015163282,-0.021113627,-0.09247794,0.049521185,0.034637116,-0.048489437,-0.069101065,0.00038607218,-0.24269629,0.054235596,0.1026422,0.07570012,0.20408916,-0.036029708,0.054100256,0.15449499,-0.10088415,-0.12272838,0.029031472,-0.1086717,0.016833013,0.13154984,0.17960007,-0.010718341,0.06140601,-0.19551592,0.04625289,-0.07630933,0.08624337,-0.17236644,-0.014169978,0.0959859,0.039842594,-0.12961991,0.1628823,0.19672737,-0.033286482,0.3215886,-0.1523603,0.06271888,0.14844345,0.12835126,-0.088808954,0.06891312,-0.16068602,0.16475375,0.0075145103,0.14941122,0.043097857,0.4925962,-0.07453814,-0.07998112,-0.1584617,0.04942471,0.034225058,0.08251707,-0.047678694,0.03801749,-0.14731884,-0.044487026,0.04163176,-0.01391517,0.08589885,0.16954958,-0.046919644,-0.044978928,0.092160314,0.57091343,0.14986363,0.07798511,0.05045605,0.04565258,0.17442453,0.009899771,-0.14625144,0.12434781,-0.39552706,-0.043775816,0.07722377,0.03842282,0.020055054,-0.121288545,0.020291276,0.06731447,-0.11297516,-0.115021676,-0.028156366,0.012401251,-0.021642417,0.0848822,0.33237025,0.16024302,-0.15913868,0.035652958,0.0533947,0.112622686,0.025240028,-0.059246693,-0.2032032,0.030457536,0.008874152,-0.31756476,0.12140039,0.024552269,-0.059361763,0.02275895,0.0808271,0.046476644,0.15744169,-0.05719855,0.05467736,0.10207898,-0.14869107,-0.039311178,0.1544553,-0.12549263,0.12621455,-0.04928396,0.10785539,-0.037063453,-0.17475258,0.039539196,0.14384536,-0.07002858,-0.0583571,0.0818983,0.1218192,-0.18324035,0.22259058,0.18960446,-0.13744646,0.10283349,0.37571767,-0.21360664,-0.008189613,0.005108923,0.112717375,0.021186467,-0.15137371,-0.0038542198,0.06021352,-0.28118926,0.06566121,-0.009289112,-0.12859233,-0.09463117,-0.044639245,-0.03808777,0.0045679756,0.08408898,0.16282544,-0.05178417,0.13088597,-0.042352676,-0.20574212,-0.16009319,0.026484767,0.042577684,-0.06605687,-0.09611782,-0.05835741,-0.10648515,-0.62303066,0.01374589,-0.1993768,0.07453895,-0.12863712,0.025245601,0.07085463,0.15387177,0.1832455,0.013916396,0.08546313,0.07434946,0.012655794,0.1563189,0.074429795,-0.039618563,0.11409344,0.0033226663,0.0926572,0.03457009,0.03516549,0.042527862,-0.11007564,-0.004955047,0.079205304,0.28252655,-0.03180295,-0.06032195,0.0037448918,-0.11684401,0.043423437,-0.0014684275,0.40656438,-0.12687634,0.23349537,0.008469247,0.14300562,-0.037956618,-0.027448494,-0.03970972,0.010250669,0.1621822,-0.15529603,-0.09381162,-0.118745886,-0.12038853,-0.13043892,-0.269406,0.02773838,-0.20577848,0.10559428,-0.030238489,-0.37743795,-0.0065793972,0.11782674,-0.1295095,0.055577934,-0.28934255,-0.0007930399,-0.0058622966,-0.107696906,-0.050268393,-0.08948692,0.03759973,0.106549956,0.024102502,-0.008970282,-0.26899886,-0.23523162,0.0040999833,0.07971285,-0.16872838,-0.03880964,-0.0106269885,0.17630334,0.11711675,0.076777495,-0.12320701,-0.017952839,0.1290013
10,0.11058784,-0.15313432,0.36427927,0.1908564,0.041395105,0.025599498,-0.1663243,-0.037803434,-0.0045482223,0.01905034,0.0824866,0.0032817863,-0.050111398,0.010568609,0.13410136,0.06445214,0.06671026,0.09218441,0.09686533,-0.03799814,0.14595538,-0.0063742967,0.045579966,-0.06623528,-0.047146525,0.06614793,0.13714924,-0.02938696,0.09863109,-0.034187537,-0.061765715,-0.23728187,-0.035407495,0.111801624,0.083901554,-0.014604996,-0.07057668,0.08409136,0.11855722,-0.072531246,0.11066944,-0.104001254,0.04177598,-0.12121283,0.1819249,-0.030308742,0.010337715,-0.22050545,0.06446663,0.0062001073,-0.051601343,-0.08764868,0.037634507,0.09139289,-0.06678157,0.050250117,0.069049746,-0.11893989,-0.17351288,0.077593826,-0.03136755,-0.007070432,-0.005442219,-0.022869077,-0.4185479,-0.071612895,-0.08135278,-0.0059015546,-0.09942052,-0.069939,0.13351339,0.12388748,-0.0357801,0.0854886,-0.005441513,0.1318614,-0.029786645,0.1750417,-0.09487856,-0.09255756,0.112149805,-0.07721616,0.013138235,-0.042748634,-0.013960155,0.07986263,0.17874095,0.0099319955,0.01368781,0.024204696,0.11849595,-0.07834645,0.12779002,0.0020741727,0.06389595,-0.0033724832,-0.07663035,-0.039121624,-0.06404271,-0.06369728,0.009262235,-0.03408402,-0.044010703,0.14385183,0.0047191484,0.16147596,-0.12261838,0.066484794,0.06756871,0.10433807,0.017884327,0.08190064,-0.0127924485,0.015422997,0.12159492,0.061442602,0.12234152,-0.15372288,-0.10942883,-0.019414434,0.035887882,0.012185981,0.13396388,0.04526546,0.123084635,-0.077596165,0.005660497,-0.029122097,-0.097956926,0.12709667,0.16405846,0.16950735,0.10633133,0.1083026,-0.2120592,0.09283441,0.11490102,-0.08142659,-0.14623396,0.103360884,0.14285412,-0.07647048,-0.013671107,-0.03703899,0.11084718,0.041322876,0.15200542,-0.037919227,-0.00723594,-0.060887564,0.04264347,0.021115938,0.07449604,0.12419993,-0.13016585,0.12401701,-0.0124984095,-0.15362567,0.033448312,-0.05719225,-0.10649147,-0.1154483,-0.046295267,0.1321597,-0.20603965,-0.027858188,0.05836342,0.10982972,0.031449758,-0.10890975,-0.09031117,0.060742553,-0.13062482,0.10564453,0.032399096,-0.075550035,0.1627856,0.105287775,-0.2099168,-0.011087431,-0.020294767,-0.113116905,0.09157187,-0.11374352,-0.015380797,-0.09367071,0.060009245,-0.039536666,0.058040526,0.1295537,0.020809963,-0.013548184,-0.010714927,0.11789394,0.14296997,-0.10880142,-0.06654244,0.12647913,0.106414996,0.05832895,-0.08906617,-0.2602728,-0.0932387,0.10685059,-0.1207238,0.053190477,0.055113368,0.003619871,0.06729606,0.058362704,-0.027784081,-0.11644095,0.076579526,0.15987486,-0.2580609,-0.15801951,0.04229228,-0.062758036,0.060418952,0.040803708,-0.28233966,-0.10881596,-0.065514565,0.043535806,0.054707758,0.02462581,0.15885833,-0.08214074,-0.07368961,-0.032063343,0.16203153,-0.20973335,-0.012933967,-0.42151013,0.1438591,-0.15737447,-0.020269291,0.08046836,-0.13913009,-0.10581598,-0.065399386,0.12215598,-0.06779007,0.002511827,-0.110838376,-0.17266922,0.1318041,0.036409203,0.016169796,-0.018414222,0.14931649,0.040755697,-0.0018233977,0.05973092,0.078801006,0.09123234
11,0.16212307,-0.12917586,-1.0648538,-0.854621,0.17953327,-0.008778719,-0.15881547,-0.46864203,-0.05471049,-0.007872532,-0.16232519,-0.14673296,-0.36512634,0.057987146,-0.07384898,0.0065087792,0.03282329,0.20181055,0.020860326,-0.03350253,0.11729867,-0.037531663,0.32298204,0.168833,-0.06164399,-0.19777559,-0.046820685,-0.24710879,0.031525057,-0.042178564,-0.23221649,0.25495073,-0.13342632,0.0045683514,-0.054760404,0.114937,0.04042361,-0.046904564,-0.033186715,0.32024327,-0.045502078,0.09434961,0.1330863,0.024838334,0.12797336,0.021731159,0.15755987,0.20823203,0.023932008,-0.11441784,0.009696099,0.017434485,0.22685787,0.0055723335,-0.25039387,-0.03906067,0.00059534237,-0.06415779,0.10924338,0.040061127,-0.05206958,0.095107794,-0.04288446,-0.44426882,0.36467266,0.15360294,0.21112311,-0.018558003,-0.19710536,-0.24005689,0.018941613,0.025066076,0.2928171,-0.18446401,-0.0443853,0.11786692,-0.09024472,-0.06327894,0.114353515,0.03204679,-0.032541733,-0.4509015,-0.025725804,0.20338406,-0.120649315,-0.05919703,0.090287745,0.18001263,-0.15145718,0.086904906,-0.1199616,0.028995447,0.1708896,-0.07645243,-0.036821444,-0.11325315,0.011380823,0.20544645,-0.21642654,0.19454122,-0.0004781214,-0.07475727,0.15845437,-0.064145915,0.05129773,0.16967176,0.015863843,-0.16582435,0.10384624,0.07594287,-0.08779857,-0.09838677,-0.15580708,0.16051398,0.025942879,0.51672715,0.05681465,-0.108081475,0.09513531,0.12455508,0.051679768,0.07793438,-0.13755418,0.12575215,-0.04234227,-0.21396552,0.21567123,0.0721295,-0.00018098565,-0.46176368,0.07815068,0.17721216,0.08127913,0.29262474,-0.021980936,0.16913389,-0.052472744,-0.29579324,-0.13173018,0.16323914,0.025029711,-0.25451687,0.10253786,0.1864393,0.29859555,0.11709101,-0.025425028,0.19347113,0.15083393,0.11024196,-0.012958827,0.26238835,0.34496334,0.030514581,-0.086791635,0.010702083,0.05941667,-0.046243962,-0.032036263,0.2538685,-0.09419644,0.08889585,0.16361348,0.13991423,-0.0882222,-0.26920938,0.32595524,0.05460251,0.089899,-0.012217379,0.36984634,0.26820415,-0.06391727,-0.01527529,-0.052567996,0.21107918,0.0791567,0.011843725,0.2588966,0.051285345,0.110388964,-0.22326662,-0.15209156,-0.18811622,0.098900594,0.07501012,0.04515462,0.031757988,-0.16742575,-0.051081702,0.14461894,0.036726344,0.13980842,0.06654779,0.14025956,0.22438525,0.28285608,0.054755762,0.046398696,-0.5184951,0.06743171,-0.39953506,0.035058327,0.5125159,0.1477719,0.12741637,-0.22598912,-0.21464281,-0.34356675,0.29507625,0.01729157,0.19844432,0.016559875,-0.062024813,0.11001696,-0.60841936,-0.015170726,0.15401626,0.10871296,0.08769467,0.07696474,0.20103511,0.111132085,-0.13172062,-0.08411455,-0.103480056,0.09438753,0.020361844,-0.016013082,-0.037749276,-0.04476817,0.120108545,-0.08096667,-0.018687872,0.042369917,0.4335783,-0.08764623,-0.6757559,0.22287628,0.32107925,-0.035682295,0.012026813,-0.14908527,0.07906808,-0.1284865,0.23682119,-0.12255444,0.38492623,-0.004471496,0.2328811,-0.020244217,0.09091846,0.00947827,-0.066797644,-0.48479122,0.012495898
12,-0.11998801,-0.22166148,-0.21531522,-0.25493172,-0.16920194,-0.10262753,-0.1580855,-0.13989595,-0.22813405,-0.051787592,-0.16720225,-0.06816387,-0.17481236,-0.052346364,-0.008737431,-0.07114987,-0.14192094,-0.12113822,-0.1220341,-0.11415859,-0.1151712,-0.057054095,-0.10791286,-0.053532824,-0.07351904,-0.17848387,-0.16148491,-0.2610788,-0.07335688,-0.01694527,0.07639963,-0.11689474,-0.1059199,-0.026348203,-0.019315548,-0.14023946,-0.15479448,-0.18602712,-0.14974467,-0.08253732,-0.033409953,-0.0244312,-0.030832844,-0.12559366,0.038587492,-0.033970766,-0.04321118,-0.08703791,0.025274849,-0.032028936,-0.06636985,-0.15224026,-0.09800266,0.020072136,-0.21119611,-0.0598236,-0.052227005,-0.15086247,0.013417855,0.03776787,-0.06934142,-0.16449751,-0.14545497,-0.14204873,-0.06988569,0.0039259014,-0.045899685,-0.17867698,0.029229768,-0.055999354,0.0458078,0.053598292,0.036017206,-0.16012438,-0.04086545,-0.027376397,0.04163543,-0.09624439,-0.015542579,0.026651165,-0.13279462,-0.004341683,0.04354562,0.08198566,-0.23993702,0.029184574,-0.07668253,-0.055646088,-0.18318225,-0.17935723,-0.0049681794,-0.15474388,0.009605159,-0.042363342,-0.14207354,-0.05546785,0.07395773,-0.010816136,-0.14753863,-0.18738683,0.051625773,-0.13630022,-0.00052601803,-0.11341377,-0.102682896,-0.01291674,0.07778805,-0.03069906,-0.09400617,-0.032692276,-0.034946226,-0.14735171,-0.084469944,-0.025608098,-0.13915391,0.041188236,0.0062522306,-0.17926337,-0.1713861,-0.07344766,-0.055735666,-0.006563033,-0.07282371,0.036767125,-0.13505647,0.063498445,-0.111174084,-0.004262296,-0.096300356,-0.1019163,0.0055190423,-0.04116262,-0.011019619,0.026066897,-0.25569794,0.038519323,-0.14886756,-0.050090346,-0.12073638,0.029183244,-0.0076050037,-0.11026667,-0.075874306,-0.06590601,-0.11187298,0.036082745,0.057613567,-0.10564245,-0.124092676,0.0014277671,-0.06713683,-0.15810432,-0.046068113,-0.15784363,-0.18930607,-0.11355929,0.008559613,-0.19659148,0.06329287,-0.07808279,-0.049997814,-0.13794684,0.051952023,-0.16812421,0.049356434,0.002617724,0.06300714,0.03923393,-0.13676383,-0.10337614,0.025602615,-0.18393065,-0.03958674,-0.08197468,-0.1288087,-0.111226015,-0.15979995,0.017721854,-0.011844229,-0.12326266,-0.14855817,-0.081861675,-0.108640894,-0.06974337,-0.117968224,-0.11178789,0.027252847,-0.122948065,0.008282174,0.0016408048,0.03713417,-0.1384071,-0.17643999,-0.0764907,0.025515767,0.046914607,-0.14639622,-0.17644283,0.059550624,-0.23029767,-0.122925624,-0.1447327,-0.10117817,0.06309863,0.021028988,-0.14578286,-0.15776572,-0.14520818,0.044549488,-0.03849621,-0.10010111,-0.18875042,-0.022553949,-0.060390327,-0.13805616,-0.016511356,-0.048487846,0.018825581,0.08769858,-0.15516716,-0.16399947,-0.05395845,-0.026273996,-0.20509554,-0.104876816,-0.04214395,0.03629105,-0.120833896,0.009302671,-0.112443686,-0.059479177,-0.05882516,0.025601756,-0.19290394,0.01737037,0.010003243,-0.110094465,-0.14244494,-0.0795419,-0.082136996,-0.019679464,-0.053669233,-0.2682415,-0.09789452,-0.18721567,-0.06848431,-0.049395468,0.055748798,-0.08502565,-0.020713344,-0.052335765,-0.008911167,0.0018374574,-0.06383219,-0.16106409,-0.07011758
13,0.09960193,0.014401266,-0.39337692,-0.29048893,-0.23491906,0.15523702,-0.07315055,0.03442465,0.011013298,0.054279413,-0.031218704,-0.16753358,-0.06385385,0.027932543,0.060526535,-0.12307492,-0.009737238,-0.070152394,0.0340195,-0.06308981,0.020684853,0.04383039,-0.26715216,0.10316017,-0.17390493,0.0067353346,0.013912623,-0.260317,0.08268083,-0.09645654,-0.22210689,0.21781822,-0.03185849,0.06226034,-0.116347946,0.1277817,-0.053874142,-0.010836669,0.13614391,-0.20028572,-0.17016752,0.008138561,0.13938332,-0.05571917,-0.06983181,0.027577914,0.032729343,-0.047397617,0.1200888,0.1567389,-0.017367879,0.17852697,0.0602522,-0.097256556,-0.2357646,-0.0010882958,-0.093535885,-0.059507437,-0.00066417526,0.1044489,-0.00024444962,-0.04953857,0.10519717,-0.04989482,0.1736005,-0.057632897,-0.03009871,0.08986425,-0.14742401,-0.060045633,-0.007746079,-0.07445824,0.04250365,-0.057809107,0.10715214,0.0790753,0.04127982,0.105393425,0.036014646,0.043638937,0.04039681,0.0115794195,-0.039780945,-0.2158035,-0.115042664,0.06796089,-0.02326518,-0.067938104,0.14096878,0.0799672,-0.18755533,-0.11972053,-0.02709911,-0.036938507,-0.09534724,-0.012987979,-0.060326546,-0.23814899,-0.15211011,0.09186881,-0.06645557,0.07111954,0.013163699,0.0046736626,0.1719114,0.10790505,-0.19182909,-0.06134105,-0.013479645,0.09415772,0.04283002,0.12517509,0.05091974,0.1245739,0.0018356702,0.06401433,-0.06644561,0.02151879,-0.09029945,-0.044474106,-0.088490896,0.11557477,-0.09254496,0.014321661,-0.14477724,-0.10224434,-0.04140741,0.1549736,-0.025092334,-0.01382522,0.07045758,-0.19465134,0.08854105,-0.20348713,-0.044502188,0.10362527,0.06200214,-0.11325345,-0.0052233124,-0.034459174,0.04413829,-0.19329122,0.07414084,-0.014299994,-0.22015381,0.08094953,0.0040449086,-0.0015844364,0.07591308,0.04241899,0.09731925,-0.23345086,-0.35370728,-0.01816187,0.060844135,-0.20589194,0.16905077,-0.109945185,0.063499145,0.06854372,-0.06507631,0.016857002,-0.03997499,0.094548374,0.07009923,-0.24003197,-0.04616688,0.15041894,0.05192182,0.055066172,-0.17736381,0.14086479,-0.15481295,-0.0143057285,-0.011682413,-0.049529858,-0.033025596,0.062271614,-0.0032505172,-0.012377046,-0.07081945,-0.09240619,0.004177584,-0.13733141,-0.053695083,-0.062881246,0.07311111,0.1293244,0.13394293,0.17796311,-0.021642184,-0.107338615,-0.04023878,-0.0037086734,-0.06609675,-0.042207796,-0.08855165,-0.04984285,0.07398738,-0.33667043,-0.014344214,0.5187934,-0.10134376,-0.36662602,-0.065892816,0.013103334,0.045834944,-0.12328353,-0.16569954,-0.1774878,0.040892124,-0.18421394,0.0014464357,-0.04576079,-0.18036383,-0.07106979,0.029818412,0.03185681,-0.072399795,0.13435374,0.11212785,-0.09702792,0.07419039,-0.3982384,-0.052986145,-0.25790507,-0.053932164,0.016766224,-0.17375018,0.08533327,-0.044235617,0.008127164,0.07206127,0.07508722,0.043457843,-0.2923167,-0.005986874,-0.12913996,0.0227326,-0.2152737,0.12252829,0.03888368,-0.06313021,0.016439792,-0.05389397,-0.08270887,0.10726242,-0.22047518,0.041953404,-0.1863415,-0.05446834,-0.062663466,-0.07396529,0.048722237,0.049354073,-0.056612004
14,0.09531806,-0.06607645,0.4863179,-0.16947505,0.0074986187,-0.019220477,0.2533965,-0.05294418,0.0074406853,-0.10225824,0.11408055,-0.09537584,-0.049204163,0.056679655,0.11558976,0.05763923,-0.14746787,0.011211046,-0.04167176,0.0125513375,-0.054068945,-0.11173024,-0.10345004,0.17877927,-0.29662427,0.056583583,0.012077361,0.0032962179,0.08818828,0.06590252,-0.03151359,-0.3114458,0.10317368,0.060993463,-0.011900946,-0.0067748837,-0.009521249,0.055688195,-0.097553425,-0.18933372,-0.01905548,0.07410724,-0.051946744,-0.25408557,-0.11345805,-0.073391885,0.1078107,-0.3494933,0.25210866,0.20129254,-0.22219291,-0.43788904,0.09528042,-0.031554233,0.38497564,0.09521581,-0.014032422,-0.103019096,-0.20257829,0.029283034,0.13148355,-0.013199585,0.0040437668,-0.5557763,-0.69410944,0.032053128,-0.07464703,0.04670521,0.039844155,0.088216536,-0.06628677,0.10721075,0.025414316,-0.030213844,0.036100503,-0.06176605,0.007911134,-0.01261584,0.07034325,0.00025474594,0.16280083,0.02065931,0.021361927,-0.0525472,0.032031126,0.09268211,-0.0444295,0.12052857,0.073966265,0.1840078,-0.027647832,-0.14177549,0.0812259,-0.049616773,-0.10421,0.08801008,0.061350387,-0.039946064,-0.091850206,-0.113783486,-0.03790854,-0.04669749,0.16645737,0.13594754,0.35337636,0.030474557,-0.21440625,0.07433093,0.0033533606,-0.1614766,0.055631522,0.010492588,-0.08864207,-0.09398456,-0.055203095,0.33207104,-0.06405802,0.14402996,0.0036614244,-0.041855842,-0.0012483994,0.16712599,-0.052918147,-0.30672124,0.12584218,-0.050165705,-0.1211238,0.11982949,0.046705116,0.2635145,0.11328351,0.43861386,-0.013352414,0.34418958,-0.07937951,-0.1782663,0.06580244,0.31308457,-0.029868802,0.062758185,0.12966046,0.27223802,0.07991793,0.19190526,-0.14601542,0.12662126,0.9292371,-0.10226946,-0.006749301,0.17890042,0.07381554,0.043837547,-0.16997199,-0.005040888,-0.030063992,0.17491524,0.040514443,-0.059312187,-0.06728792,-0.02304715,0.035310484,0.08653097,0.008743195,0.031554,-0.5479046,-0.13326257,-0.12822288,-0.014865993,-0.115583606,-0.22099723,0.09786746,-0.068314485,-0.02603984,0.08196613,-0.058571536,0.057856675,-0.057807043,0.04126341,0.04345426,0.13435085,-0.026627887,-0.086931825,-0.010465111,0.08657383,0.013303647,-0.08026751,0.11845143,0.07388894,0.08730895,0.08349333,0.07931273,-0.0053743985,0.108812585,0.18832749,0.035215635,-0.051897906,0.07366679,0.091949195,-0.04018427,0.26132417,-0.06295019,-0.8515069,-0.059851762,-0.005895387,-0.033318315,0.04712559,-0.004119143,-0.11359146,-0.14657542,-0.19267987,-0.1194507,0.03908311,-0.09959751,0.14440684,-0.047514893,-0.10464974,-0.037508387,0.14402513,-0.028438857,0.09330087,-0.099853106,0.048728928,-0.13517497,0.17401646,-0.06329938,-0.10511515,-0.07897457,0.00039496314,-0.48804814,-0.066924915,0.07952242,0.030123057,0.06754989,-0.019136075,0.081676595,0.038048927,0.016751328,0.16177325,-0.08307834,0.0892275,0.14494157,0.19464979,-0.013643776,-0.61195445,0.107866466,-0.09692647,0.09884445,0.14517449,-0.034819122,-0.13559195,-0.038885906,-0.0048707165,0.055525605,0.07641739,0.9009986,0.11234957
15,0.099934936,-0.20854603,0.21753708,0.16771607,0.07543786,0.13450067,-0.22833368,0.04732431,0.019339077,0.02034448,-0.07537339,0.11017587,-0.07088714,-0.010658883,0.07039145,0.15041642,-0.14589506,0.06727883,-0.095685646,-0.22481503,0.16547121,-0.052392974,-0.11663816,0.0495898,0.044827573,-0.057377107,-0.039448977,-0.21687391,-0.03601434,0.13760883,-0.072815716,-0.069179736,0.051822525,-0.05272365,0.08574209,-0.056274895,-0.032164846,0.11126643,-0.04888146,-0.08775705,-0.13146266,-0.082130276,0.12181798,-0.13096029,0.01944126,0.14700356,-0.013377561,-0.018291904,0.068186864,-0.07915167,0.09338372,-0.065119006,0.02562793,0.064002484,-0.33806688,0.15029189,0.048330966,0.09651082,-0.23129353,0.12102,0.0077317255,0.11579791,0.073665835,0.15632166,-0.1151325,-0.103025176,0.03627349,0.041166335,0.024103886,-0.050932,-0.09295779,0.028393071,0.038180638,-0.05774346,0.08382628,-0.04555364,0.08068581,0.07086365,-0.035759654,0.08331094,0.15389669,0.17501892,0.1280919,0.009776478,-0.23496822,0.021161249,-0.010695052,-0.0013254861,-0.13522448,0.052924804,0.30495572,0.023647541,0.032867912,0.020169133,-0.07267958,-0.041180104,-0.06269337,-0.02915808,-0.017921176,-0.031422857,-0.0070396555,-0.024169017,-0.024761947,-0.05499872,-0.026806185,-0.027266717,-0.056317806,0.06448494,-0.03834328,0.058905173,-0.033356953,-0.034224246,-0.08814161,0.09027258,0.023643767,-0.07141955,0.1256013,-0.36124596,-0.07478907,-0.041048657,0.08088172,0.16859101,0.1437787,0.0598155,-0.09205039,-0.07230218,0.058920786,-0.047992874,-0.19119431,0.13669859,0.016004093,-0.07010341,0.011653307,-0.036647283,-0.051566266,0.047227915,-0.06118981,0.068644,-0.14882863,0.15657867,-0.028948667,-0.1401287,0.1378535,0.09756074,-0.008111091,0.0066504166,0.02781569,-0.13640307,0.11579232,0.14759962,0.08414973,-0.18746784,-0.13449162,0.13808134,-0.16124752,0.092888504,0.14328033,-0.122731864,0.22583199,-0.06611011,0.024432853,-0.034161706,-0.028960222,0.16653813,0.034249328,0.09391766,-0.08110474,0.13001947,-0.21151103,-0.13852096,0.0343824,0.023380797,-0.0401867,-0.00096838304,0.29466206,0.053096112,0.14949061,0.15163496,-0.050365236,-0.015212952,-0.075932994,0.062212598,0.08780167,-0.33416513,-0.05952002,0.0049224603,-0.040122297,0.012755146,-0.0051982757,0.08129171,0.16354045,-0.060022593,-0.020605922,0.045168206,0.08029845,0.03099211,-0.15634014,0.12250164,0.13551855,-0.31246644,-0.28476772,-0.37088263,-0.16368203,-0.09851283,0.05515361,0.054188285,-0.05029468,-0.07580573,0.11630752,-0.0006531517,-0.13335064,0.12705772,0.09719917,0.15454972,-0.096975155,-0.0049384576,0.11525136,0.04993853,-0.0020385846,0.021948481,-0.3052118,0.12020909,-0.14032261,-0.056972932,-0.072298296,0.27839166,0.051879916,-0.10695337,0.037660945,0.10806573,0.17231366,-0.12033306,0.13284975,-0.053979494,0.07349739,0.010648233,-0.07567434,-0.03902873,-0.07741307,-0.04408037,0.17642829,-0.055823248,-0.12792055,0.035081893,-0.23291957,0.038449373,0.045422204,-0.11541631,0.068874955,-0.09184734,0.13891812,0.025095029,0.042798817,-0.023974137,-0.037163932,0.015619374
16,0.12867843,-0.05297863,0.27626467,0.36175245,-0.06372737,0.086021766,-0.32862884,0.080926456,-0.10007894,-0.0015357726,-0.025759878,0.00052284176,0.11180304,0.114413485,0.039179448,-0.055708796,-0.0055825617,-0.15315434,-0.037623607,-0.10178359,0.06376325,-0.013120856,-0.2008662,0.05173029,0.13696258,0.3845064,0.031561308,-0.5202249,0.11257452,-0.09193086,0.05231039,-0.09801112,0.12925264,-0.11176847,-0.0022186188,-0.058036044,0.0010458966,0.16361973,0.07095923,-0.11712701,0.10063499,-0.03544882,0.00078984635,-0.007635851,0.09818855,0.004027082,-0.014945537,-0.07708747,0.19890921,0.15779401,0.2382952,0.08922156,0.0054071457,0.005505555,-0.3208307,0.097658575,0.04770205,0.065976344,-0.122021645,-0.03662537,0.15701154,0.030078596,-0.06531333,0.38820612,-0.06780593,0.049574763,0.0961742,-0.05540329,0.09336448,-0.23181641,0.071548566,-0.17701294,-0.1748769,-0.07747625,0.108219825,0.02128174,0.13929622,-0.038103566,-0.13064548,-0.06905274,-0.0075843064,0.16233468,0.12988132,-0.050423626,-0.22677158,0.10873673,0.08099422,-0.08972955,-0.14829692,-0.023246204,0.016231274,0.044289514,0.14962786,0.09859367,0.11762333,0.05353237,0.045548238,-0.016243229,-0.10188606,0.04021563,-0.024898376,0.043449044,0.07982464,0.08371865,-0.3105348,0.021813676,0.057944197,0.060923938,-0.024269586,0.06441588,-0.019031435,0.113678366,0.14464264,-0.0028018388,-0.022952357,-0.37434012,-0.049528796,-0.15222363,-0.032858014,0.01576442,0.1344692,0.10187408,0.1774082,0.0070888074,0.08764951,0.0656781,-0.06311961,-0.0038062953,-0.21494243,0.052140653,0.1355398,0.0051261187,0.043294083,-0.08456257,-0.07626606,0.045003872,-0.055447754,-0.16796619,-0.10552395,-0.05775097,0.0020593475,-0.37803304,0.07284468,-0.0058838846,0.08069854,-0.0449423,-0.03166563,0.017751036,-0.066377945,-0.009328769,0.17941768,-0.07150752,-0.066203624,0.071227446,-0.04621526,-0.2497866,0.12001146,0.033710103,0.26499054,0.020208007,0.111245245,0.12631312,0.15284012,0.17739199,0.10610315,0.10998986,-0.06494246,0.093547374,-0.051495746,-0.19552459,-0.1352604,-0.33760867,0.046794157,0.059481736,0.103658855,-0.01872964,-0.097296596,0.048519224,-0.15598638,0.085845836,-0.04167152,0.08999931,0.24443714,-0.49687576,0.028028622,0.05035682,0.14012766,0.03076618,-0.023291219,-0.036958274,0.012394525,-0.12050214,0.094789244,0.06717781,-0.028598664,0.006549508,0.11133378,0.069737606,0.09192068,-0.52482975,-0.18592504,-0.3603719,0.07992011,-0.18406889,-0.05217449,0.16888665,0.0060103126,0.034147598,0.38913015,-0.14567837,-0.30823624,0.00070911687,0.17237101,0.059987273,-0.07179228,0.11855342,0.081757,0.005283631,0.030721746,0.05174678,-0.2221423,-0.011384181,0.04500528,-0.26441756,0.0323811,-0.17231178,0.10886848,-0.13076617,0.10252981,0.10415579,0.04302431,0.12403074,-0.10122129,0.08700531,-0.010517488,-0.17354572,-0.01878243,0.15381803,-0.11351198,-0.0896279,0.08261275,0.050587445,-0.28193265,0.124537684,-0.079907864,-0.12969454,0.005062892,-0.17262913,0.08472444,0.043502223,0.10145129,0.047811773,-0.0133620035,0.089709535,0.08013011,-0.010435072
17,-0.10192524,-0.15030311,0.5021397,-0.03893334,-0.1726005,-0.065609224,-0.15223049,-0.010293188,-0.20614713,0.0398728,-0.056820862,-0.11633894,-0.14112194,-0.043800842,-0.06990136,-0.020848645,0.0334611,-0.027933978,-0.1307286,-0.14359573,-0.023940768,-0.02765017,-0.062509514,0.0449704,-0.18212916,-0.012205741,-0.13092531,-0.21332365,0.04190807,0.07713019,-0.09608495,-0.27531412,-0.17296065,0.07980685,-0.1625508,-0.03459489,-0.16447718,-0.087620676,0.021826489,-0.10251838,-0.16968234,-0.18305685,-0.08908837,-0.070945226,-0.04227354,-0.15013991,-0.04287965,0.05022844,-0.1698986,-0.007977515,0.0100018745,-0.023474008,-0.11776406,-0.15905759,-0.06923763,-0.050131798,-0.04027634,0.055366598,-0.1274238,-0.03381678,-0.17195976,0.015494188,-0.07385843,-0.12318786,-0.09695471,0.048903286,-0.09498077,-0.0704366,0.060867388,-0.024407027,-0.060954466,-0.048105232,-0.018896297,0.008356355,-0.17954057,-0.082587175,-0.15316826,-0.07590039,-0.112957515,-0.08251088,-0.0735135,-0.029494826,-0.15926883,0.026030313,-0.1768433,0.015178372,-0.061459713,0.022560908,-0.040713206,0.02520128,-0.13429257,0.017141523,-0.09044781,0.030892994,-0.036589377,0.032978006,-0.14623372,0.07208756,0.028362332,-0.12211605,-0.17839101,0.044615008,-0.025174899,-0.108300716,-0.2742325,-0.08295978,-0.21607432,0.03914077,-0.12686177,0.028805729,-0.091079116,0.010932434,-0.05823765,0.012775403,-0.06839104,-0.10164038,-0.10663599,-0.0011381431,0.029077712,-0.021260826,-0.08341118,-0.13776553,0.032726057,-0.09494085,-0.08487773,0.08058427,-0.03739301,-0.020811567,-0.17791057,0.12809223,-0.052677244,-0.08344699,0.17858562,-0.05437498,-0.05857174,-0.006117497,0.027815893,0.030751027,-0.0065519665,0.03731852,-0.11570197,-0.064913504,0.06009568,-0.050246533,-0.15738729,-0.1630949,-0.10936945,0.045904264,0.07319596,-0.15993612,-0.0117172515,-0.16435742,-0.1265022,-0.11257191,0.043673392,-0.06250117,-0.10569401,-0.19558704,0.01103217,-0.028373301,-0.1659351,-0.10210911,-0.09033183,0.028049354,0.099652015,0.05301137,-0.042089503,-0.021175332,-0.092787586,-0.11250044,-0.09476024,-0.014809163,-0.08932465,0.024009595,0.0028438945,-0.031994898,-0.061588034,-0.14400242,-0.116434395,0.084578685,-0.03232557,0.02743481,0.04907314,-0.046019997,-0.14955282,-0.00079635903,-0.1494983,-0.114909105,0.0072369366,-0.06545728,0.05579129,-0.13520044,-0.031000936,0.045304142,-0.06607077,0.06379376,0.059292603,-0.005991338,-0.0686681,-0.2769733,0.027019978,-0.12884535,0.034813084,0.00091551646,-0.027908921,-0.08270641,-0.050457254,0.03837633,-0.15765205,-0.046358183,-0.17463958,-0.11050225,-0.041618377,0.069008075,-0.061250273,-0.0682809,0.01233579,-0.03842308,-0.01230361,-0.13781232,-0.14994974,0.004545415,-0.14966445,-0.026250722,-0.08490291,-0.18387847,-0.19334608,0.024342563,-0.11807048,-0.12485145,0.08206306,-0.08931703,0.0034078169,-0.084528156,-0.06642033,-0.0054429313,-0.11218922,-0.15928848,0.010703608,-0.08509303,0.01787933,0.021284958,0.035092216,-0.22412837,-0.023405137,0.01268688,-0.104409866,-0.004318045,-0.11666286,-0.14148998,0.04382646,-0.0372175,0.0603997,0.017809108,-0.018434953,-0.18515643
18,0.06169704,0.12632595,-0.576319,-0.45510954,-0.24039759,0.045474548,-0.3669301,-0.262633,-0.07640365,-0.18163237,-0.083124705,-0.248654,0.2982846,-0.119581506,-0.017434651,0.052667767,0.19391558,-0.2403312,0.0046460065,-0.23812695,-0.05729928,0.0025174615,-0.078784764,0.05585696,0.31486604,-0.11011595,-0.045720965,-1.0489734,-0.15806027,-0.0007654424,0.19389328,-0.038525123,-0.08040455,0.03052404,-0.030205578,-0.18452938,0.28261602,-0.14275831,-0.08313026,-0.40809554,0.12523177,0.0515065,-0.050492268,0.06559611,0.022889778,-0.05576793,-0.13715306,0.0684174,-0.14994232,-0.27316684,-0.019227512,-0.099628784,0.0061412803,-0.0043115388,-0.2842001,-0.13867839,-0.11712938,-0.08045554,0.16769578,-0.15901938,-0.15112133,-0.029064087,-0.15427339,0.618829,0.12643245,-0.0376231,0.27929932,-0.009611757,-0.16249424,-0.11303799,0.07645783,-0.173486,0.08024015,-0.0745076,0.017139371,-0.101009816,0.19502878,-0.03651542,-0.21172473,-0.21359456,-0.051898364,-0.08732984,-0.040660117,-0.26019445,-0.15606463,-0.0021685993,-0.073337756,-0.41473815,-0.015667552,-0.097931564,-0.07022889,-0.37983328,-0.0068177762,0.06784567,-0.027545707,-0.11232779,-0.054031815,-0.36374775,-0.018598378,-0.062527075,-0.13259289,-0.011032089,-0.15714486,0.050302103,-0.20408215,-0.03938287,0.12497107,0.3311323,-0.021207798,-0.15840474,-0.06049569,0.007772314,-0.006117159,-0.124224894,-0.028610323,-0.53599006,-0.027212996,-0.22493912,0.05642434,-0.1554905,0.04432008,0.032110516,0.42984435,-0.050726764,0.13038415,-0.10518214,0.23140639,0.014415891,-0.39395234,-0.32349837,-0.13953115,-0.114720754,0.05369132,-0.1342608,-0.031862054,-0.034758206,-0.020465257,-0.30430344,0.030667882,0.04849607,-0.12221739,-0.30837426,-0.12680584,0.036856487,-0.13129383,-0.018244155,0.06705751,0.13157779,0.012474059,-0.06292035,-0.14873086,-0.12456526,0.00917769,-0.056774285,-0.16819108,-0.07933954,-0.12277936,0.118859254,-0.079871535,-0.06733703,0.13206954,-0.03820061,-0.018013986,0.0145322485,0.16082181,-0.3845772,-0.12525952,-0.13701525,8.778771e-05,-0.10085741,-0.14630085,-0.1221677,0.124960385,0.033762626,-0.11271692,-0.2994504,-0.042903047,0.026743568,-0.08730105,0.056572396,-0.101410195,0.13705303,-0.04399837,-0.8311712,-0.09709756,-0.1909654,-0.09482153,-0.13355036,-0.028919665,-0.005022538,-0.13066854,-0.3042348,-0.06116314,0.0031055855,0.0010813893,0.10450137,0.22980583,-0.023931773,-0.10106863,-0.61654097,-0.14581108,-0.578393,-0.017206388,-0.031404786,0.28181228,0.14587376,-0.069295384,0.050728943,0.3014878,-0.11241759,-0.5647495,-0.4094875,-0.06661881,-0.13662718,-0.441558,-0.029615764,-0.16282964,-0.15199418,0.18099698,0.32538638,-0.11729366,-0.14682166,0.25245935,-0.12668793,0.27061042,-0.22857435,-0.14673765,0.24808066,0.34331638,-0.0015832937,-0.0919921,0.11629558,-0.28331253,0.29277557,-0.028769957,0.02365364,0.13435088,-0.015857756,0.086788185,-0.22940762,0.057663787,-0.1753026,-0.2679844,0.17723545,-0.0709041,0.07555444,-0.07430782,0.046816688,-0.0017291938,-0.30387536,-0.03205178,-0.02008309,-0.02667157,0.103103384,-0.62365836,-0.16010956
19,-0.060560018,-0.124689616,-0.5299641,-0.70996743,-0.08908097,-0.06552201,-0.024657747,-0.08154844,-0.22688954,0.058196586,-0.062331744,-0.050778188,-0.17201994,-0.1377242,0.07918249,-0.105176695,-0.08944693,-0.16126002,0.02329534,-0.13475719,-0.074849665,-0.27395493,-0.5879348,0.060524452,-0.1672948,-0.20756456,0.08286494,0.17774408,-0.004557074,-0.14188628,-0.13092811,-0.036586992,-0.016524589,0.02299936,-0.123281,0.01820242,-0.04582834,-0.18528396,-0.1636691,-0.18441685,-0.12813912,-0.051433027,-0.15417573,0.13397957,0.0397358,-0.17720674,-0.10117036,-0.27298862,-0.11504648,-0.09894751,-0.15317194,0.011946508,-0.022239447,0.043054014,0.010780986,-0.053577345,0.0855163,-0.073443405,0.05709254,-0.12738916,-0.107876636,-0.085135065,-0.16788279,-0.132566,0.039137878,-0.213443,-0.2692456,-0.14909808,-0.071573436,-0.04311232,-0.013029329,-0.1927656,-0.15462816,0.115115404,-0.1399614,0.006043132,-0.23193252,0.048145734,-0.063205086,-0.080983445,-0.17316927,-0.083736025,-0.15807718,-0.19461206,-0.113366775,-0.17080785,0.037016343,-0.015034867,0.07659456,-0.0076363585,-0.08756284,0.037868943,0.03181705,0.021295693,-0.04668333,-0.10072859,-0.16490598,-0.061448663,-0.03623203,-0.10350634,-0.032761317,0.039975822,-0.1506301,-0.07849347,-0.10341719,-0.008741761,-0.2099273,-0.20447809,0.0093410835,-0.016588526,-0.08840046,0.0648222,-0.14091635,-0.1319818,-0.079793826,0.035063118,-0.08530183,-0.024167202,-0.09474506,-0.052267224,0.05373362,0.060585845,-0.06914396,-0.17379145,0.06543624,0.049743,-0.10889407,0.04554493,0.047329914,-0.24630368,0.021408983,0.016347304,0.01995027,-0.07215932,0.029394729,-0.045664962,0.046563398,-0.06974651,-0.10300136,0.0058999225,-0.11326176,-0.053235184,0.046688877,-0.015445454,-0.19043258,-0.040328845,-0.022497877,-0.052735083,0.0035789162,-0.0719816,-0.1600547,-0.2020524,-0.4968475,-0.0974459,-0.059268296,-0.18648732,-0.122838475,0.03999629,-0.04109723,-0.26355156,-0.13184005,-0.057576727,-0.03433997,0.042663127,-0.103789255,-0.49053392,-0.16420785,0.0007693987,0.10437997,0.09175409,-0.2774872,0.17462966,-0.032461826,-0.026500585,-0.0028639212,-0.12894511,-0.17866655,0.043541957,0.11974623,-0.11784252,0.034500506,-0.023274036,-0.16290188,-0.03565912,-0.070290685,-0.24079451,-0.1782395,-0.14949587,-0.26140985,0.032846928,-0.11515051,-0.114485495,-0.024754392,-0.17868166,0.0200301,-0.16044733,-0.2647993,-0.10529608,-0.014239269,0.042706635,0.051920947,0.059973914,0.092128605,-0.10478997,-0.3397055,-0.14166787,-0.17547296,-0.11683784,-0.26761147,-0.10295862,-0.124427184,-0.07161972,-0.013918739,-0.0960456,-0.12648971,-0.5652167,-0.14623976,-0.019948877,-0.13418846,-0.24045157,0.091172524,-0.070517085,-0.240051,-0.0411972,-0.19410084,-0.12451715,-0.13519286,-0.09227468,-0.045693755,-0.15259317,-0.12010828,-0.22619952,-0.03800149,0.16357322,0.012693641,-0.46686956,-0.019871434,-0.8029191,-0.155477,-0.46380094,-0.13811798,-0.05180892,0.03831335,-0.0861662,0.015377452,-0.16779196,-0.15659636,-0.25709,-0.055117678,-0.16483225,-0.091214,-0.013237583,-0.094652206,-0.1472282,-0.13745569,-0.05807483
20,0.038202435,-0.012759698,-0.4609901,-0.7999297,-0.06390986,0.021961896,-0.07941359,-0.30948368,-0.016098693,-0.1680686,-0.08478279,-0.11471739,-0.01443442,-0.09238525,0.06653733,-0.15196815,-0.16116494,-0.09714725,-0.21163519,-0.115310594,-0.040694606,-0.14474377,-0.17403658,-0.02120392,-0.5015204,0.12204576,0.08197954,-0.1033114,-0.036515184,-0.060183145,-0.123349234,0.4316495,-0.048356097,-0.101765305,-0.09416317,-0.14781,-0.04524761,-0.055073034,0.010889869,-0.2366308,-0.17639299,-0.09956697,-0.05110216,0.13897468,0.004351124,-0.09669152,0.039883386,0.05348767,0.081684604,0.29647055,0.10935176,0.37587398,-0.097285055,-0.1551005,-0.20438477,-0.064051405,-0.10617264,-0.14623287,0.028284043,-0.05227975,-0.00900607,-0.04954695,-0.15515676,-0.42245832,0.77735037,-0.1181827,-0.12892073,0.031797286,-0.03906856,-0.07810663,-0.11677198,-0.007885282,-0.11481425,-0.17685181,-0.06822563,-0.015984742,-0.011655272,0.011530058,-0.106514,-0.01712024,0.036918886,0.068579644,0.047078643,-0.17856342,-0.07159842,-0.09323873,-0.08274813,-0.08004553,0.021118863,-0.14034922,-0.018422445,-0.098327264,-0.08816358,-0.10204408,0.053654857,-0.0726781,-0.1687217,-0.119823076,-0.023702132,-0.15085568,0.032298744,-0.09315981,-0.010058402,-0.11922829,-0.10833441,-0.1081571,-0.28387272,-0.0950985,0.05007439,-0.016759753,-0.15194951,-0.004475525,0.026022654,-0.075040035,-0.0017155709,0.55277616,-0.14883655,-0.0025795726,-0.18816803,0.017155996,0.051228076,-0.13005164,-0.065346226,0.25967088,-0.049785763,-0.03769063,0.08593803,-0.030676786,-0.03797827,-0.61228377,0.051846407,-0.030993802,0.052263446,-0.1182235,-0.103707656,0.016697066,-0.0670381,-0.04789277,-0.096580304,0.041431025,-0.16028444,-0.19546138,-0.100437276,0.012748555,-0.09636421,-0.35637864,-0.22455552,0.060976993,-0.16908985,-0.1382304,-0.05553401,-0.011778013,-0.030698832,-0.06742674,0.048622493,-0.316889,-0.043249454,-0.19226928,-0.08433001,-0.18985824,-0.18040617,0.006415747,0.038125955,-0.059571825,0.3742086,-0.8650943,-0.37167403,-0.10126605,0.08935304,-0.12606166,-0.18982626,0.47446388,-0.023415944,0.046415217,-0.03763016,-0.1799212,-0.18926907,-0.17722717,0.13240297,-0.064865835,-0.033788964,-0.19528094,0.06374662,-0.16764893,-0.057918318,-0.12404095,-0.010067612,0.025550546,-0.2234541,-0.15862298,-0.008321835,-0.074712664,-0.027670002,-0.07506778,-0.05278924,-0.20027907,0.0388954,-0.022547461,-0.16692741,-0.33358383,0.0006492933,-0.03410354,-0.039712466,-0.26412967,-0.04074736,-0.08922948,-0.22502092,-0.02981846,-0.28545457,-0.09048095,0.04082811,-0.009898015,-0.053552184,0.038469214,-0.11912332,-0.75502133,-0.004395048,-0.18590267,-0.046284974,-0.18715361,-0.0910238,-0.14834909,-0.07668114,-0.3809429,-0.23406143,-0.11902744,-0.2494716,-0.16274127,-0.13257445,0.0019123299,0.044581346,0.16349423,-0.28386873,0.040321857,0.019779215,-0.1941741,-0.12461616,-0.70165277,-0.02260555,-0.13727506,-0.12203686,-0.102430984,-0.05166532,-0.009064262,0.04691256,0.02264386,-0.17533533,0.08173922,-0.012432234,-0.11421284,-0.11284584,-0.055060223,-0.16980678,-0.19926016,-0.16358246,-0.045702007
21,-0.11775655,-0.2658448,0.22725447,-0.13148756,-0.16745573,-0.07407947,-0.17812368,-0.17795505,-0.17944215,-0.11567618,-0.16530323,-0.20152523,-0.15487896,0.0036364014,-0.10007362,-0.0659685,-0.12516779,-0.14823434,-0.03537209,0.07508838,0.056583673,-0.04364838,-0.010534921,-0.11803137,-0.12546095,0.055925064,-0.037048403,-0.068457656,-0.07725185,-0.14250755,-0.12098636,-0.073199905,-0.07236548,0.06953583,-0.08717313,-0.15112586,-0.11470078,-0.13584174,-0.004341472,0.0044542127,-0.15141651,-0.24597232,-0.09050835,-0.029086798,-0.17661342,-0.18905948,-0.13560075,-0.06478265,-0.06438359,-0.10979834,-0.11039232,0.06591301,-0.069080904,-0.023787523,0.0031092549,-0.008692153,-0.13568655,-0.09275605,-0.12681498,0.049305834,-0.049365964,-0.15642066,0.0102898115,-0.12606633,0.039851207,-0.17023163,-0.19774695,-0.042712245,-0.08091437,-0.068999104,-0.03506336,-0.07367837,-0.061089262,-0.04151997,-0.16531686,-0.045938533,-0.24631022,-0.15244205,-0.09192639,-0.083449535,-0.009025095,0.06595968,0.02359837,-0.05356129,-0.17221074,-0.10502562,0.038322214,-0.13444142,-0.23499359,0.050781634,-0.13775972,-0.04231964,-0.14233276,-0.106888205,-0.036337208,-0.10328875,0.050610576,-0.0010481654,0.010621654,-0.229896,-0.13210827,-0.1167999,0.048598733,0.03744699,-0.029000053,-0.1626322,0.008927779,0.01674849,0.014653004,-0.08652744,-0.19029963,0.039120648,-0.17118488,-0.014825617,-0.13955314,-0.15413119,0.051094282,-0.026484342,-0.18108404,-0.11255681,0.010811349,-0.103491694,-0.002224817,-0.055561677,0.0035240469,-0.058860995,-0.06942641,-0.07288284,-0.24483953,-0.21741454,-0.08901425,0.0058028763,-0.06573294,-0.050765436,-0.047208983,-0.13168427,0.007119949,-0.13888288,-0.20575511,-0.06032068,-0.10378776,-0.015843848,0.054445468,-0.10468065,-0.115581185,-0.18704633,-0.18123278,-0.15294379,-0.08024493,-0.022829486,0.013863097,-0.080484465,-0.1620077,-0.022228599,-0.22129166,0.009409798,-0.14015563,-0.22350508,-0.10195871,-0.17594105,-0.10578946,-0.045869045,-0.07174955,-0.0062594083,0.23173332,-0.06734257,-0.035508275,-0.09431263,-0.084183484,-0.1776423,-0.0312519,0.03323413,-0.17385103,-0.07907914,-0.0072569274,-0.17887881,0.062954634,-0.13669886,-0.19311015,-0.052158687,-0.17378947,-0.1250356,0.011157954,-0.10390906,-0.13695723,-0.045494623,-0.092116565,0.01566426,-0.066305,-0.17138495,-0.08235532,-0.10620766,0.051199567,-0.13251217,-0.06257215,-0.13894047,-0.026849998,-0.12933546,-0.08266447,0.15570877,-0.22486013,-0.057424024,-0.14676319,0.03747587,-0.18742932,-0.081626415,-0.14887975,-0.0361188,-0.095801815,0.057112914,-0.24018595,-0.012043423,-0.05645671,-0.18577303,0.032487106,-0.21814832,0.021643197,0.05910385,-0.20024474,-0.20913132,-0.27255228,-0.21730973,-0.157802,0.12956107,-0.1575609,-0.023350708,-0.09915813,-0.096254066,-0.087197885,-0.061274834,-0.13119477,-0.15818015,-0.12891832,-0.32840902,0.0130746,0.038088977,0.017090008,-0.22270773,0.011230426,-0.027705181,-0.020147942,-0.081260026,-0.09978361,0.024986181,-0.11934962,0.02357883,-0.112030484,-0.052260768,-0.18717158,-0.08660176,-0.021719432,-0.09253191,-0.021067882,-0.032631747,-0.1797992,-0.064641036
22,0.13163559,0.04620648,0.24676207,0.04968717,-0.027476875,0.12115272,0.016064458,-0.04191232,0.22145687,0.028743554,-0.2173647,0.2930187,-0.0017658863,-0.15407844,-0.02871837,-0.22625686,-0.027474752,-0.15409108,-0.16382961,-0.007002496,0.025425417,-0.13254489,-0.21970075,0.07127004,-0.6007329,0.046053767,0.19056916,0.018485866,-0.041555822,-0.045154706,-0.120798886,0.095249,0.035280753,0.0373918,-0.14431226,0.06770187,-0.085024215,-0.033322655,-0.012083576,-0.047388867,-0.003979936,-0.03706552,-0.029488929,-0.0046797274,0.13973545,-0.08936102,0.13382746,-0.28684443,0.12003978,0.25009704,0.032611176,-0.1145344,-0.00023014231,0.06830595,-0.10970618,0.031594582,-0.0039472184,0.026074551,-0.042888537,0.034024216,0.1733091,0.14270627,-0.0024938802,-0.022361966,-0.15022704,0.051501866,-0.17255504,0.16649415,-0.18033385,0.04383572,-0.012970089,-0.053114843,-0.35937345,0.07850201,-0.045186505,0.13160767,-0.030888613,-0.03648291,0.016198695,-0.086453095,0.080357715,0.14286537,-0.010744277,0.062298134,-0.16448659,0.10285606,0.09866876,-0.1552841,0.17046846,0.056159575,-0.16337913,0.060290307,-0.025935974,-0.081866905,-0.0613935,-0.07582579,-0.12705304,-0.093050934,0.1853702,-0.024182322,-0.0394964,-0.11091128,-0.058460236,-0.018707745,0.31789866,-0.030744318,-0.5844148,-0.04846381,-0.014661657,0.15278988,-0.010560819,0.033862405,0.042692218,0.057084017,-0.04503248,-0.03959768,0.1521893,0.032827966,-0.0401593,0.089523405,0.14433004,0.028445166,-0.15756407,-0.12082218,-0.088391356,-0.12739733,-0.23050505,-0.044317264,0.25864702,0.086781025,0.04281997,-0.249683,0.050042283,-0.13262847,0.08882357,-0.102841705,0.110524386,0.15775555,0.077501565,0.080989085,0.13274835,-0.21449572,0.10370488,0.10950701,-0.05657407,-0.48670924,0.124113135,-0.25717416,0.14807835,-0.057528898,0.1357685,0.05202558,-0.11109161,-0.047237497,0.13589448,-0.23931551,0.17202275,-0.018779373,-0.041870948,-0.07650035,-0.11646182,-0.05558936,0.0055485577,-0.06349796,-0.042899642,0.015741678,0.08717222,-0.05628827,-0.01588378,-0.1574751,0.2721014,-0.05692982,-0.030803561,-0.07271399,-0.10280003,0.036720265,-0.25188056,-0.043522473,-0.08330752,0.029897537,-0.08370961,0.04578168,0.002457717,0.23255108,0.010386183,-0.07440374,0.13405392,0.045869417,0.16685677,-0.057223275,-0.011161339,-0.12081742,0.11594547,0.009228204,0.12836933,-0.030317165,-0.1834156,0.12767443,-0.16266578,0.12590358,-0.031217564,0.08772364,-0.04410305,0.22537978,-0.27251768,0.03615865,-0.07441238,-0.008295127,-0.21933185,-0.011438418,0.123657845,0.036633555,0.072761685,0.13734,-0.07432531,-0.067008264,0.04854885,0.101471364,-0.018696712,-0.19072448,0.10096637,0.028492583,-0.17319281,-0.54479295,-0.12840718,-0.19187583,0.033474315,-0.101525836,-0.51620644,0.008179532,0.18173096,0.2249073,-0.08265023,-0.3892363,0.059693348,-0.1704331,-0.044302955,-0.07313415,0.006893311,0.06103553,0.08732849,0.020285659,0.12939012,-0.18200566,0.025854815,-0.0035835758,0.12725282,-0.16894896,0.0074143284,0.008697757,0.0951092,-0.06455799,-0.09727631,-0.18080641,-0.06987169,0.043049596
23,-0.015920628,-0.12639084,0.62424874,0.57705295,0.046235353,-0.010734746,-0.1468076,0.31433004,-0.19660778,-0.072005756,-0.12553088,0.07561961,0.06592992,-0.017005451,0.13462968,-0.1054661,-0.13385059,-0.19067624,-0.12041584,-0.11411983,0.01300582,-0.12355761,0.12487212,0.13185354,0.051416453,0.5390451,0.15681331,-0.5003435,0.17671667,-0.030494355,0.02031886,-0.025858015,0.06513782,-0.032098994,-0.08318509,0.120987095,-0.06354869,-0.023300791,0.13410826,0.06932269,-0.11476581,-0.12896684,0.012814151,-0.013637339,0.13687079,-0.15247315,0.09275093,0.16689903,0.15073714,0.47853145,-0.21268974,0.054489095,-0.03560276,0.011916883,-0.5941595,0.044789378,0.04119201,0.028486721,-0.09776821,0.096394904,-0.012180797,0.063582115,-0.050737806,-0.078121655,0.05780257,0.032457285,-0.06586286,0.16484207,-0.11557608,-0.22676468,-0.07147468,-0.080599606,-0.0041765436,0.03479275,0.014270929,0.027160376,-0.077324875,0.10174447,0.059847042,0.092484854,0.077891424,-0.14038791,-0.04167402,-0.06901233,-0.2941777,-0.027261756,0.12409497,-0.21417536,-0.26614848,-0.068599366,0.0475084,-0.036097687,0.014352478,-0.18284413,0.05863082,-0.028119348,0.099357635,0.12584299,-0.1783226,-0.019387823,0.0013319104,-0.01642278,-0.024131482,-0.039191034,-0.3206526,-0.04516869,-0.09047459,-0.02170263,0.18563756,0.061474413,0.12657604,-0.051904734,0.25493512,0.1643574,-0.08281995,-0.111340754,0.103615224,-0.25024205,-0.13207087,0.060640916,-0.01753058,-0.02253954,0.06687209,-0.057190295,-0.051198117,0.04620694,-0.14542675,0.020862842,-0.08557991,0.44856602,0.025764503,0.14787199,0.097541645,-0.23929003,-0.108524166,-0.0012342868,0.10624005,-0.14742038,-0.16065589,0.04332736,-0.0058292476,-0.27771658,0.10666649,0.13103266,-0.017337441,-0.23300809,-0.1700301,0.06857165,0.14191473,0.17897959,0.11766512,-0.06293897,0.042869687,0.11720452,-0.11223621,-0.33439577,-0.025221264,-0.0053232154,0.8336053,0.01421973,-0.09847823,0.06964579,0.0012702433,0.11745334,0.06810673,0.3488562,-0.2232225,0.07583809,-0.042030387,-0.077090226,0.031793714,-0.19533083,-0.06984191,0.0074035716,0.045649022,0.051908262,-0.09000717,-0.008296047,-0.10495675,0.14900027,-0.10634915,-0.05890096,0.26778713,-0.29451108,0.23290564,0.09635798,0.05300225,-0.023687715,-0.21750346,0.1596355,0.010857829,-0.0061027356,0.07189052,0.1123581,0.085714884,-0.0018195284,-0.10917469,0.005879281,0.06435145,-0.61632955,-0.20628516,-0.8592978,-0.05172441,-0.19905163,-0.041462805,-0.074317396,0.07003798,-0.15736759,0.0035236015,0.009484058,-0.24186428,-0.103169404,0.12969089,0.036789548,-0.012964359,0.32147822,-0.021657735,-0.026936475,0.038670618,-0.06947476,-0.17283665,0.05986535,-0.050513193,-0.383251,-0.09201469,-0.072202854,0.18380001,0.014575121,-0.14438014,0.06752201,-0.0222809,-0.26741558,-0.20272356,-0.4215065,0.12692766,0.061987516,-0.038048133,0.4922428,-0.04596244,-0.029506316,-0.07032769,0.18186292,-0.11802998,-0.021977045,-0.33067295,-0.06461961,0.09486367,0.00089331117,0.12571105,-0.034219127,-0.0102619575,0.050265167,0.0799496,-0.112328604,0.667885,0.0009184704
24,-0.07396884,-0.16683215,0.48067904,0.50967705,-0.22697282,-0.18567532,0.034733355,0.0973645,-0.30084285,-0.17630419,-0.18221727,-0.030484552,-0.10284551,-0.07849569,-0.043135747,-0.380297,-0.1563347,-0.1816133,-0.014000893,0.003607278,-0.18380062,-0.11097086,-0.1768621,-0.1783241,0.033509452,-0.09785167,-0.10795826,0.2886022,-0.025317399,-0.18613335,-0.1311972,-0.2439811,0.015619763,-0.09110858,-0.23383799,-0.12251113,-0.079884514,-0.18213417,-0.018566728,-0.16625538,-0.18090285,-0.17241368,-0.08915332,-0.23082083,0.018793723,-0.19296661,-0.07231708,-0.14880216,-0.17449002,0.024426464,0.01428354,-0.17995386,-0.060388677,0.0044472152,-0.14098018,-0.12614568,-0.095061086,-0.19283336,-0.17031005,-0.05612399,-0.025137588,0.013824652,-0.10240441,0.013281527,-0.10293175,-0.17635098,-0.1326792,0.04612665,-0.07114325,-0.13702115,0.06317949,-0.07815174,-0.23245774,-0.15337226,-0.06938351,-0.03292545,0.020748459,-0.09548139,-0.12674366,-0.40803424,0.055193886,-0.07996329,-0.11937182,-0.08435067,0.0040979674,-0.011371182,0.015514085,-0.09976812,-0.15393876,-0.13047156,0.08817631,-0.014291388,-0.007935857,-0.16023806,-0.19137588,-0.016212018,-0.14824118,-0.23266488,-0.2875604,-0.13196014,0.03303013,-0.1653519,-0.033484083,0.05376937,-0.42061985,-0.16956683,-0.073706195,-0.03374457,-0.059032235,-0.02786013,-0.18408126,-0.07535555,-0.108661525,-0.031878803,-0.08607495,-0.24535812,0.03301022,-0.040057182,-0.06726656,-0.14047763,-0.18545705,-0.09154986,-0.13992617,-0.067667805,-0.047916602,-0.11957207,-0.21059005,-0.0026174698,0.017848434,-0.054719508,0.025169024,0.051535998,0.007550794,-0.14622016,-0.20929144,0.02526364,0.019960841,-0.2374976,-0.0018108976,-0.018432096,-0.12606244,-0.02225037,0.002795136,-0.038278777,-0.07475501,-0.11760474,-0.07281673,-0.01712966,-0.044256486,-0.116795555,-0.15440643,-0.06672733,-0.15502214,-0.12075437,-0.003616064,-0.04116531,-0.0150015615,-0.17687292,-0.1425022,-0.11652703,-0.20445426,-0.17526476,-0.07417837,-0.15080279,-0.18604034,-0.089549534,-0.11098475,0.02758166,-0.07883986,-0.21143678,-0.12014851,-0.011542036,-0.09037263,-0.10238986,-0.117426746,-0.0041101677,0.04370994,-0.08643773,-0.22419421,-0.0939637,-0.23387463,-0.22210528,-0.0221108,0.09176869,-0.010122129,-0.15146743,-0.07230601,-0.036639325,-0.17117004,-0.09533996,-0.08664865,-0.20501058,-0.18234508,-0.17832255,0.033650678,-0.011489925,-0.008709445,0.05475599,-0.031703904,0.0072971215,-0.112375036,0.4149104,-0.20324083,-0.042383987,-0.13973165,0.013288611,-0.14034536,-0.12570187,-0.16400154,-0.18856195,-0.22872856,-0.2018537,0.055788133,0.012213388,-0.160477,-0.00042560181,-0.03123046,-0.1869316,-0.03755822,0.008190693,-0.18360518,-0.23715088,-0.27847052,0.091590166,-0.16496223,0.12829277,0.013831569,-0.08735677,-0.008512294,-0.0947152,-0.04403963,-0.067915626,-0.025407972,-0.14024161,0.022217032,-0.27528322,0.0072769998,0.1033624,-0.16954352,-0.32742476,0.007507226,-0.15899746,-0.105198205,-0.07285409,-0.16631323,-0.21681292,-0.14452755,0.01909256,-0.29071835,-0.057475906,-0.08456003,-0.08973584,-0.10638342,-0.0842707,-0.23633322,0.023475816
25,0.13776031,0.060654342,-0.3508093,-0.3217359,-0.08337528,0.15480797,-0.16865699,0.14073968,0.013024909,-0.1130269,-0.002058983,0.11241793,-0.15264714,-0.03794636,-0.073028475,6.607018e-05,-0.10266335,0.07799946,0.05888621,-0.30440253,0.15098678,-0.22019017,-0.27012336,0.096110396,-0.56152815,-0.001134869,-0.042092934,0.19553052,-0.01325393,0.14129125,0.077839546,0.24467276,0.02703484,0.025089117,0.023255857,0.07066182,-0.14966685,-0.05119473,-0.05850028,-0.00390251,-0.16738956,-0.12041928,-0.042289004,-0.33283854,0.049087897,0.128848,0.070766345,-0.2858589,0.035669368,-0.057860237,0.34205505,0.09470704,-0.25535685,-0.110275924,0.08671919,-0.019953428,-0.16787651,-0.07508675,-0.22710519,0.13153379,0.1044097,0.08775928,0.16908847,0.0382964,0.057602536,0.103543,-0.33972436,0.11397557,-0.093915,-0.1578781,-0.024271546,0.070014425,-0.11232892,-0.08763567,0.033854093,0.1168102,0.4096744,-0.024126712,0.008434202,-0.11727259,0.114061326,-0.3355181,0.17036077,0.017984478,-0.06124038,-0.0336128,0.03458501,0.1333718,0.019003658,0.105402626,-0.31638286,-0.02277854,0.12818953,-0.13191381,0.056062713,-0.0053893984,0.105468765,0.09435149,-0.17954399,-0.14439106,0.11455475,-0.016273627,0.08115382,0.0648899,-0.005655998,0.14990005,-0.5641483,0.00066355005,0.013717135,0.06885336,0.08302496,0.02638342,0.07428365,0.0758326,0.01729773,0.12544769,0.013756,-0.06692086,-0.045620564,0.116281986,0.081338644,0.048967365,-0.031650323,0.33749703,0.10905837,-0.18579231,-0.24411906,0.13040076,-0.01949259,-0.12327643,0.060103953,-0.0012132758,0.17537124,0.017630707,-0.08446062,-0.038954567,-0.0075137685,0.04306304,-0.0028327217,0.065771945,-0.058626156,-0.16005313,0.15037653,-0.08661334,0.13196841,0.0691786,0.08534916,-0.18050693,0.08662796,0.1397268,0.15375042,0.07284929,0.06783408,0.12961386,-0.15224199,-0.204938,0.08977451,0.1401497,0.018342301,-0.25105718,-0.29402405,0.0692286,0.13522749,0.036229555,-0.25535488,-0.061801415,-0.02664904,0.044006564,-0.18667236,-0.3668227,-0.047166742,-0.3437428,-0.24635473,-0.0043412405,-0.16684297,0.010765463,-0.22386687,-0.06410619,-0.24671406,0.1784857,-0.13034418,-0.04227038,-0.09664538,0.19951223,-0.010609627,-0.034876473,0.16238315,0.16272864,0.15759847,0.062083766,-0.0016357546,-0.18690492,0.07148458,0.08997594,-0.035935573,-0.07815953,-0.08478399,0.057070594,0.07177153,0.021074414,-0.17167419,0.58633465,0.008937513,0.13889985,-0.28702447,0.27984378,0.036957603,-0.07743912,0.17477237,0.036518756,0.19398731,0.06837244,-0.022973219,0.085941285,-0.08975112,0.011224452,0.006007591,-0.049951203,-0.17866386,-0.14442134,-0.09093482,0.100512035,-0.23078234,-0.25387824,-0.19295907,-0.35074744,0.17892149,-0.17117994,-0.038475756,0.107746735,0.087339625,0.42415538,-0.04924359,0.28077117,-0.03364722,0.023972755,-0.07392385,-0.05115825,-0.21923053,0.107214384,0.039078075,0.043391135,0.012635952,0.03876952,0.10116089,-0.42768064,0.117967404,0.027296463,-0.007176261,0.021509457,0.04578575,0.06105359,-0.056516383,-0.25113934,0.02025985,0.030210359
26,-0.049600057,-0.16514412,0.20081277,0.16748063,0.2306432,-0.08795364,-0.36175126,0.14933524,-0.042871132,-0.017949086,-0.201267,-0.010730717,-0.25369564,0.15952083,-0.08661472,-0.19564539,-0.21273138,-0.12257715,-0.08343816,-0.3035047,-0.051388074,-0.1795431,-0.026588159,0.032078177,-0.013074775,-0.36067635,-0.10910533,-0.3978009,-0.057340022,-0.13078985,-0.09746548,-0.47264358,-0.12506194,0.07035763,-0.048435815,0.05772928,-0.23515823,-0.07191096,-0.070465915,-0.13799442,-0.018122306,-0.08566936,-0.118837945,-0.287464,-0.026399313,0.15387502,0.017069507,-0.06708732,0.006523987,-0.26352176,-0.03536014,-0.24354471,-0.1651724,-0.14034645,-0.43234885,0.03398873,-0.1671408,0.008976371,-0.36840498,-0.13888983,-0.11742712,-0.03365224,-0.06626748,-0.18153764,-0.42340353,-0.03810969,-0.20698528,0.020802261,-0.020555334,-0.10172508,-0.09811358,-0.025027713,-0.14981018,-0.124691166,-0.010293885,-0.039177854,-0.1283637,-0.057136577,-0.04311963,0.20039637,-0.11019339,-0.056272406,-0.030538091,-0.13850491,-0.23844388,-0.15357481,0.036837175,-0.18826199,-0.32435256,0.009269427,-0.18114795,-0.01058123,-0.068614475,-0.13062738,-0.09928447,0.085266314,-0.09872265,0.19844484,-0.23645873,-0.12929727,-0.13172758,0.03001261,-0.023052577,-0.022360494,-0.19273528,-3.8850572e-05,-0.12282768,0.08967305,0.06186995,0.048767794,-0.026069293,-0.09256339,0.036083546,-0.08211168,-0.027502289,-0.2180662,-0.12163155,-0.37550586,-0.1908836,-0.12849759,0.09492101,-0.08604981,0.079350635,-0.15154421,-0.124772474,0.004888865,-0.110822886,-0.15089452,-0.2545073,-0.16048035,-0.11040883,0.04030521,-0.054227512,-0.1287949,-0.21929656,0.03900091,-0.07516389,-0.16265567,-0.16662031,-0.09844766,-0.15169665,-0.40674657,-0.17688058,0.05539591,-0.00088857126,-0.071949,-0.20513421,-0.24867354,0.0011766702,0.043995548,-0.024742618,-0.20997292,0.093187675,-0.01707503,-0.12785865,-0.1895293,0.017901871,-0.011590792,0.034037374,-0.018825,0.029968241,-0.0022082513,-0.058734715,-0.09344963,-0.33053717,0.155467,-0.19762108,-0.064240895,-0.08215911,-0.03753725,-0.16336265,-0.1932207,-0.10204261,0.004768446,-0.26450434,-0.20184079,-0.1930936,-0.16860294,-0.12624119,-0.11113329,-0.16345873,-0.07277685,-0.09305861,-0.40692723,-0.11941248,0.013300452,-0.0048498563,0.013383062,-0.010878191,-0.17376377,-0.09439946,-0.009690821,0.026587363,-0.13321611,-0.18006165,-0.1742356,-0.25818422,-0.06638816,0.045457114,-0.20502418,-0.32045582,-0.040425118,-0.1872126,-0.01912892,-0.20632088,0.010918748,-0.10866131,-0.22176838,-0.07401445,0.043202646,-0.06280379,0.13476586,-0.0978962,-0.005488794,0.10852686,-0.058992315,0.0016913872,-0.056479506,-0.1309615,-0.41368034,-0.36656317,0.07414197,-0.14985894,-0.3226579,-0.11006543,-0.06658215,0.06459845,-0.12334791,-0.15570758,0.07470102,-0.18141523,-0.15867695,-0.10240267,-0.3605935,-0.004047579,0.07241148,-0.12748766,0.15447503,-0.11349903,0.33253404,-0.02193052,-0.0657765,-0.24568044,-0.19520754,-0.33497146,-0.037629895,-0.13117065,0.013958462,0.07632016,0.0042237737,0.02622614,-0.116768144,0.05286294,-0.010701008,-0.3294208,-0.06447293
27,0.07255595,0.07487309,0.35011658,0.14120193,-0.2514366,0.058815118,-0.22264402,-0.09814134,-0.043037698,-0.11638195,-0.044730723,-0.074281946,-0.0033746397,-0.066202246,-0.086750105,0.050252028,-0.09559198,-0.21645847,-0.03958638,-0.12228218,0.039780747,-0.19557652,-0.49294943,0.16620383,-0.15773912,0.28126413,0.12750062,-0.26311138,0.08087673,0.05953497,-0.37835726,0.31210476,-0.11775408,0.04210307,-0.11438712,-0.049839985,0.060556542,0.05708082,0.10014245,-0.053516682,-0.23408905,0.08255283,0.10578949,-0.086256325,0.0016142016,-0.087721996,0.13610436,0.046177402,-0.07047928,0.54031354,0.09970049,0.33774126,-0.07603212,-0.09358462,-0.15098298,0.007823831,0.04160181,-0.026934622,-0.035816118,-0.029107062,0.084419705,0.00022162918,0.10144008,-0.38623244,0.61702484,-0.13860068,-0.033800736,-0.039874453,-0.0029551156,-0.07032382,-0.1209039,-0.14031994,-0.075654775,-0.15196702,0.10483375,-0.019094482,-0.05960747,-0.010753043,-0.11886026,-0.10930072,0.004554375,0.3425353,0.06891683,0.010849607,-0.36126992,-0.0067098686,0.01523803,0.39376828,-0.111151494,0.0613294,0.11409152,-0.06594424,0.026206365,-0.16767082,-0.016463645,-0.07092751,-0.036922727,-0.22396575,-0.14833054,-0.12068973,0.09177896,0.00688834,-0.025903394,0.04600583,0.08754637,0.053011462,-0.20963956,-0.23688863,0.12098092,0.14759295,-0.1402211,-0.077925,0.016815986,0.16179782,0.068324514,0.4919739,0.13222536,-0.0006721207,0.03781992,0.052713923,0.011183141,0.016318418,-0.22219905,0.35890043,0.0829347,-0.14664334,0.028411245,0.17907146,-0.21783689,-0.09579401,0.07926358,0.056424983,0.07410128,-0.1981395,-0.0002764371,0.07092421,0.10034214,-0.19254394,0.11854385,0.12053798,-0.015150409,-0.39606437,-0.0089409845,-0.06708243,-0.1516664,0.37068245,0.2605531,0.19548663,-0.023948962,0.16749902,0.11680948,-0.07445293,-0.46413356,0.05998388,0.040702697,-0.07744152,0.13815872,-0.22262393,0.21318953,0.03526571,-0.19836123,-0.097187124,-0.013369634,0.053984117,0.41499993,-0.095388465,-0.17600231,0.049322825,0.03738933,0.0025761153,-0.048987597,0.570347,-0.16065013,0.020615628,0.07938661,-0.122481346,0.1281782,0.046859715,0.20960544,0.08287199,0.06513445,-0.09684779,-0.16293088,-0.21098512,-0.041584916,-0.17684713,-0.048111655,0.089443825,-0.046611805,-0.008096783,0.001745863,-0.022035232,-0.09475845,0.004471824,0.007612889,0.034542408,-0.12370296,-0.0982549,0.115646124,-0.14498909,-0.03849505,-0.2374299,0.0441808,-0.22134022,0.037113946,-0.19904543,-0.04634123,-0.064384915,-0.35759842,-0.24639596,-0.05052554,-0.10259955,0.14270148,0.015503075,-0.21431348,-0.20846027,-0.013297981,-0.031255897,-0.10737631,0.054976672,-0.03019042,-0.11751519,0.026255287,-0.43730244,-0.26005447,0.043055482,0.058486488,-0.025386669,-0.064022,-0.04392341,0.060397323,0.18551189,0.17242533,-0.10718202,0.08716145,-0.3958285,0.07260927,-0.09333225,-0.27825838,-0.40568236,0.12033467,-0.0017062867,-0.04116348,0.23258552,-0.15142699,-0.10353454,-0.016352382,-0.14012256,0.013947146,0.03517811,0.01319786,0.04889195,-0.10692196,-0.24257144,0.22376955,0.15140633
28,-0.18452139,-0.3640269,0.55279446,0.1454141,-0.16216767,-0.13934603,-0.15217151,-0.08286559,-0.24153298,-0.0083269635,0.09803629,-0.10721432,-0.11403991,-0.16169056,-0.09795643,-0.13256192,-0.18617575,-0.08612125,-0.056766216,-0.32798758,0.014089439,-0.028804297,-0.0893833,-0.13789867,-0.085941054,0.040911987,-0.044522125,-0.13222526,-0.043861136,-0.17897911,-0.110140495,-0.2246213,-0.14295907,-0.13693747,-0.07592146,-0.07305763,0.029988665,-0.14139573,-0.045727573,-0.118856415,-0.2137324,-0.19781801,0.04713793,0.004459818,0.02228611,0.013995518,-0.0073162406,-0.14626165,0.044247113,0.09551546,-0.1545512,-0.027666131,-0.019783983,-0.12728809,-0.008775686,-0.011800829,-0.105940364,0.0053526224,-0.1421249,0.015710913,0.0064138514,0.011098971,-0.1311356,-0.07076904,-0.03552857,-0.100175045,-0.17554463,0.05281683,-0.16981219,-0.28122744,-0.02537348,-0.045615897,0.0070131947,-0.19454078,-0.0010116457,0.0063143205,-0.08561932,-0.0067411982,-0.047205955,-0.002845768,-0.07243018,0.064452045,-0.00077800144,-0.03251294,-0.011157804,-0.11526115,0.06234908,-0.009651913,-0.43310577,-0.16747051,-0.2138315,-0.02478982,-0.15825036,-0.07972664,-0.09725153,0.089835204,0.026236147,-0.1590138,-0.15321171,-0.114500746,-0.112694286,-0.13362764,-0.124692194,-0.1614026,-0.27305946,0.05878303,0.04880161,0.07672532,-0.05064164,0.027692378,-0.04952568,-0.16962484,-0.095916554,-0.042348318,-0.093090765,-0.08445717,-0.18149209,-0.37852564,-0.25932923,-0.07174377,-0.056144305,0.028171603,-0.000609605,-0.11280986,-0.11062458,-0.1495078,-0.16901983,-0.12307273,-0.25566724,-0.095823556,0.020760069,-0.053744394,-0.14076298,-0.045748267,-0.51027226,-0.13743466,-0.062195964,-0.19439559,-0.29476532,0.049364064,-0.14663231,0.07846036,-0.0021164464,0.06316312,0.015084903,-0.029235061,-0.07201367,0.0542212,0.00081196683,-0.15120544,-0.10799374,0.039974872,-0.04305538,0.029506875,-0.15542027,-0.097428426,0.0051738755,-0.20938942,0.0049497862,-0.11886641,0.042899136,0.061342303,-0.124221675,0.050557986,0.16330779,-0.3217676,-0.19161098,-0.017087067,-0.057529394,-0.044695124,-0.0012184102,0.071463905,-0.10800674,-0.017208323,-0.2587691,-0.012176002,-0.28466251,-0.1246624,-0.22693677,-0.12262366,-0.013620276,-0.050250266,-0.05636499,-0.3086675,-0.028663995,-0.22378756,0.032352824,-0.10440421,-0.29133007,0.06240145,-0.037101302,-0.10124185,-0.069114946,-0.14423326,-0.104101114,-0.06784674,-0.2032478,-0.16161571,0.057600442,0.019955728,-0.35054994,0.03010382,-0.050277136,-0.02760339,-0.14621511,-0.12893765,-0.13542314,-0.27073735,-0.10672356,-0.037093256,-0.1421495,0.04061119,-0.054444924,-0.1388109,-0.19534561,-0.21349241,-0.017199965,-0.12861043,-0.016768431,-0.14192589,-0.22880481,-0.043899555,0.06703905,0.38683122,-0.07541277,-0.3032883,-0.07257807,-0.12375383,-0.07830107,-0.014079657,-0.02483037,-0.16153967,-0.13261484,-0.43953067,0.059659336,0.023614679,-0.10178652,-0.31972107,-0.0980733,-0.0031234627,0.045585763,-0.13631545,-0.14186904,-0.09201047,-0.44029355,-0.097182855,-0.008692607,-0.07850196,-0.07120342,-0.12895519,-0.035209753,-0.07361439,0.022743478,-0.07939435,0.061396588,-0.018242994
29,-0.08245788,-0.23325501,0.17139527,-0.05960037,0.03074746,0.0643561,-0.20868488,-0.00042263855,-0.018147651,-0.06465639,0.035690226,-0.06573832,-0.059248377,-0.1515025,-0.014087473,0.03310916,-0.08877497,0.0010868643,0.011142705,-0.29640397,-0.003452128,-0.18532363,0.04933512,-0.0029375197,-0.16373321,0.03006765,0.14890702,-0.25620666,-0.044674132,0.07511388,-0.06575355,-0.20637368,-0.065339506,0.0017771629,-0.020582305,0.022669144,-0.06760378,0.049062822,0.10475158,-0.041338004,-0.023478195,-0.07870482,0.14831647,-0.13569373,0.118977375,-0.104916014,0.026806483,0.023193983,-0.014883004,0.038903262,-0.04991702,0.013001105,-0.115625165,-0.061242737,-0.10846597,0.07522927,0.007370135,-0.07191936,-0.23516057,-0.053621344,-0.028015886,-0.03532511,0.06576153,0.14732277,-0.04365014,-0.14880942,-0.14926,0.17822047,0.070636824,-0.20573083,0.008879335,0.058870982,0.027828602,-0.2613497,0.024021588,0.08927745,0.0155845685,-0.046438906,-0.036439173,-0.16654871,-0.0004400046,0.1399643,0.13383946,0.008118213,-0.16558191,0.05470932,-0.07818243,0.0074222567,-0.27830434,0.026545225,-0.08382179,0.050472084,0.100545324,-0.19065784,0.013634714,-0.0039462475,-0.03978168,0.0011580025,-0.073285446,-0.12609531,0.043301154,-0.014280235,0.07511097,0.12633768,-0.06914024,0.14167258,-0.1261532,-0.0037967802,-0.024968745,-0.05432115,0.059562474,0.105462216,-0.040288106,-0.04349902,0.043724027,0.04535883,0.02092045,-0.2359967,-0.28499085,0.09884983,-0.0921573,0.0727,0.048937883,-0.060704127,-0.15400733,-0.25934398,-0.16681384,0.06165881,-0.11553947,-0.107224874,0.10692449,0.026513422,0.053849153,0.05699697,-0.21616636,0.059820555,0.04237008,-0.02315809,-0.24619098,0.001398822,0.03615689,-0.04408726,0.014695971,0.16677262,0.13778372,0.0850722,-0.041499153,-0.20940444,0.17546992,0.14042582,-0.04240559,0.011956723,-0.015504516,0.07268598,-0.19201916,0.061422937,0.056453895,-0.032456797,-0.060691305,-0.018426785,-0.14207308,-0.07210243,0.11915482,0.036311544,-0.018882142,-0.31650814,-0.10448891,0.14140391,-0.07346782,-0.17930926,-0.0044619646,0.005492968,-0.13880731,0.036921486,0.0364997,-0.15355432,0.1115095,0.09991195,-0.29070193,0.20402178,-0.012349832,0.033038206,-0.0034160356,-0.017873364,0.06945958,-0.19086944,0.16037305,0.18210511,0.0010340115,0.044444147,0.0017613551,-0.1693108,0.087009996,0.16359772,-0.039787352,-0.037314393,0.06765828,0.006659559,0.11597118,-0.086721174,-0.21613406,-0.033242825,-0.07937516,0.045988053,-0.15172043,-0.06318093,-0.1590462,-0.05557204,-0.03974823,0.085925035,-0.08473169,0.045757387,0.157702,0.14109384,-0.1681055,-0.12769361,0.09051679,0.18074507,-0.17518437,0.03773565,-0.15831736,0.051488645,-0.010295405,-0.05234626,-0.13428499,0.026252056,-0.06707792,-0.06152002,-0.0037299856,-0.040632643,0.18515243,0.16174276,-0.018100936,0.028199125,0.09976788,0.104139715,-0.08653032,-0.062342115,-0.08546467,-0.059040997,-0.03643968,0.031111868,-0.09569028,0.059396368,-0.22935577,-0.1493426,0.09130147,-0.07030169,0.051299144,0.054524817,0.09828196,0.11237583,0.057621736,-0.03280563,-0.023427708,0.062302314
30,0.09995074,0.20502207,-0.26814303,-0.052774772,-0.10207438,0.1336297,-0.012260962,0.25726306,0.12653565,-0.012959615,-0.019706337,0.01262977,0.009877511,-0.19271582,-0.08595764,-0.1559904,-0.1680646,-0.15742998,0.09590306,0.10336262,-0.0531479,-0.12180996,-0.18048686,0.13127527,-0.3540728,0.38846037,0.15681395,-0.06774518,0.07926154,-0.022534372,-0.28075227,0.1789665,-0.03073781,-0.03915652,-0.2543341,-0.009897819,0.19071354,0.07797718,0.08496555,-0.44060668,-0.18075632,0.07481303,-0.031070847,-0.13434567,0.041955456,-0.12621659,-0.02553064,-0.0229259,0.10690212,0.32525665,-0.029819475,0.110385835,-0.014983943,-0.10604436,-0.045575634,0.14194496,-0.1141521,0.030099703,-0.12265318,-0.018707745,-0.0495281,0.16597573,0.06020563,-0.14797705,0.10396686,-0.11168581,-0.12967381,0.1585897,-0.16499124,0.0431546,0.06532698,-0.068770714,0.010575245,0.11338959,-0.014168461,-0.010133169,0.13607568,-0.005433811,-0.10812998,0.108541355,-0.047902837,0.42526987,0.14804392,-0.27971056,-0.13240297,0.034866087,0.13855736,0.30954802,0.0950648,-0.032692757,-0.25186568,-0.13599645,-0.0010274414,-0.013186102,-0.06764691,-0.10287074,-0.10722912,0.047662746,0.16094486,-0.23186715,0.024152461,-0.025836853,0.16480803,0.087501325,0.19491112,0.08082406,-0.43483728,-0.16680196,0.18281527,-0.000625899,-0.16233996,0.10742484,-0.00769241,0.14176981,0.11290601,0.50804347,-3.1938347e-05,0.102024235,-0.030714978,0.07677262,0.060756687,0.05390347,-0.154201,0.10993615,0.032096386,0.0009397381,0.109682135,-0.05060565,0.08220271,-0.28387493,-0.024564493,-0.030282674,0.01384563,-0.32124627,-0.016406363,0.103953645,0.04097736,-0.047625456,0.19628385,-0.0015186394,0.15932807,-0.34209278,0.16911037,0.01611242,-0.18873313,0.35270604,0.2166365,0.091407135,0.0018908703,0.026137164,-0.04820387,-0.1673405,-0.22608916,-0.009957435,-0.010743467,-0.30083373,0.03304769,-0.2638576,0.0011855292,-0.05755831,-0.18794285,0.02357101,0.17372915,0.15248334,0.10338061,-0.4662455,-0.23601782,0.14967467,0.067531206,-0.0035193542,-0.24381994,0.08051218,-0.054269563,-0.12942655,-0.009043867,-0.2995855,-0.34406006,0.044837378,0.078066915,0.20748736,-0.076587066,-0.09059819,0.096738406,0.15903258,-0.010796791,-0.100206375,0.16771507,0.09449723,0.03397167,-0.010460381,0.17827404,0.0013479379,-0.071000814,-0.018324964,0.14734511,-0.086262606,-0.16789754,-0.062570564,0.06643622,-0.06690514,-0.12839855,-0.46398497,0.053794015,-0.24618985,0.044032536,-0.2736254,0.06496207,0.080342084,-0.25764412,-0.29752886,0.29286563,-0.0511843,0.02222006,-0.061861444,0.13668951,0.19332816,0.06444375,0.007715995,-0.14457616,-0.015319982,0.12719573,0.0116141215,0.114618935,-0.53200746,-0.3459407,-0.24597465,-0.08338299,-0.11014607,-0.3296417,0.15541892,0.06636256,0.26442543,0.3488871,-0.3107574,0.062683895,-0.3250167,-0.079995565,0.36983684,-0.15910682,-0.2997112,0.010904835,0.1323505,0.15602781,-0.04885517,0.12432402,-0.089208126,0.059108566,-0.49166337,0.038475007,-0.11969294,-0.049069684,0.14573798,0.060481194,-0.24629426,0.5831471,0.11009275
31,-0.017081065,-0.12906325,0.08516062,0.16485727,-0.05165424,-0.07034497,-0.08026495,-0.074713394,-0.03920644,-0.06781774,0.0030270533,0.10318003,0.09736738,-0.12586029,0.07251556,-0.05420913,0.00027133504,0.0145406285,-0.15746194,-0.21343005,0.007821841,-0.0037116825,-0.046296105,-0.09630891,0.02149809,0.060181454,-0.065368496,-0.029001815,0.062148094,-0.06601224,-0.039831933,-0.1739644,0.08350214,-0.06954237,-0.041141234,-0.069500744,-0.07391303,0.040279776,-0.10692073,-0.15782788,-0.0728228,-0.0558407,-0.013337732,-0.19792822,-0.16580267,-0.09832378,-0.16117814,-0.07334999,0.028862927,-0.1542872,-0.09866816,-0.059543766,-0.18628778,-0.048894294,-0.03143546,0.011309336,0.003307268,0.040372517,-0.21254654,0.05619923,-0.03848292,-0.018211832,-0.041951306,0.038200345,-0.33861753,-0.15955484,-0.16802913,-0.08487545,-0.13484335,-0.115658544,-0.01049106,-0.067817315,-0.1420745,-0.018376486,-0.06427749,-0.03194387,-0.25039825,-0.07130224,-0.072354816,-0.02413074,-0.107357435,-0.08414407,-0.022258677,0.017931368,-0.21838668,-0.18767482,-0.07596601,0.040989444,-0.168384,-0.069255926,-0.1890998,-0.1520218,-0.1044589,-0.032514993,0.07300193,-0.0621731,-0.040381953,-0.06683308,-0.11766222,-0.011088306,0.07049912,-0.1701755,-0.04820366,0.048094854,-0.37125564,-0.016500201,0.04826959,-0.013222014,-0.13814268,-0.0039829896,-0.11043713,-0.11825162,0.02450493,-0.03241929,0.083991125,-0.1146242,-0.018385736,-0.07298816,-0.10119573,0.060999874,-0.008595259,0.019844174,0.0018994595,-0.19534536,0.024436742,-0.12028876,-0.14756891,-0.10501534,-0.20033489,-0.027957218,-0.05404365,-0.026194774,-0.18611065,-0.036106072,-0.235501,-0.044278946,0.06638672,-0.17952177,-0.20388305,0.016527249,-0.060795937,-0.04235425,-0.1431111,-0.030376425,-0.06229923,-0.072988704,-0.0033073889,0.068954945,0.02175435,0.04638966,0.040539723,0.0035981985,-0.06111739,-0.029445428,-0.1224532,-0.075142615,-0.10120551,0.020058129,0.01113826,-0.07456003,0.008592918,-0.071584634,-0.06830059,0.03437635,-0.20922746,-0.15013412,0.026785986,-0.0597313,-0.07894064,-0.21387713,-0.022987142,-0.21942572,0.036055632,-0.043767646,-0.07864285,-0.016457323,-0.03705021,-0.032072883,-0.052379336,-0.09922081,-0.093906134,-0.09639703,0.01844723,-0.10773379,-0.031668466,-0.15297511,0.042113647,-0.016163243,-0.0678678,-0.066778965,-0.028722664,-0.20014754,0.09652687,-0.14900045,-0.1652277,-0.12656796,0.047364816,0.0311762,-0.1791974,-0.21744406,-0.21243572,-0.013712054,-0.19456907,0.010547861,0.07459269,-0.1756091,0.037219327,-0.15053006,-0.13566244,-0.10260157,-0.12954511,-0.08759639,-0.07769102,-0.08586679,-0.24671838,-0.0065679443,0.015245916,-0.10548822,-0.0062002284,-0.041206304,-0.2456206,-0.07903829,-0.17231517,-0.04181239,-0.08213576,-0.03795751,-0.09247965,0.03769258,-0.15929948,0.00095815404,-0.015218333,-0.14328758,-0.020571392,-0.41825476,-0.16402361,-0.03555131,-0.0638546,-0.17376749,-0.13026229,0.028402876,-0.17750384,-0.14561123,-0.0112635465,-0.23731352,-0.14959335,-0.1003425,0.030934202,-0.10796442,-0.0068002343,0.047967236,-0.024759173,-0.15190889,0.077553816,-0.01859262,-0.075192675,-0.108028136
