,0,1,2,3,4,5,6,7,8,9,10,11,12,13,14,15,16,17,18,19,20,21,22,23,24,25,26,27,28,29,30,31,32,33,34,35,36,37,38,39,40,41,42,43,44,45,46,47,48,49,50,51,52,53,54,55,56,57,58,59,60,61,62,63,64,65,66,67,68,69,70,71,72,73,74,75,76,77,78,79,80,81,82,83,84,85,86,87,88,89,90,91,92,93,94,95,96,97,98,99,100,101,102,103,104,105,106,107,108,109,110,111,112,113,114,115,116,117,118,119,120,121,122,123,124,125,126,127
0,-0.028515404,-0.04037772,0.04852918,0.023727572,0.06934806,-0.14580956,-0.078231655,0.063177526,0.01537192,0.03376163,0.08139892,0.014855581,0.043863762,-0.07465362,-0.123547725,0.10806566,-0.0065188524,-0.12879017,-0.15109728,-0.048744366,-0.106943205,-0.06530218,0.113506846,0.13098778,-0.12928313,0.020442136,0.040605903,-0.15965518,-0.07529953,-0.07132159,0.105914384,-0.14841582,-0.022142611,-0.13870372,-0.10362371,-0.22100227,-0.08183435,0.019152304,0.18599205,-0.08328175,0.07281674,0.038436387,-0.16282384,-0.012164744,-0.23627855,-0.08710933,-0.15830202,0.0407151,-0.11760864,-0.13952678,-0.12959951,-0.114205845,0.029703539,-0.19509442,-0.009078565,-0.055084243,-0.05037401,-0.3382652,0.19210376,-0.0081232255,-0.108492084,-0.05129305,-0.24659628,0.017126925,-0.32744056,0.03527232,-0.20828782,0.024609238,-0.014758885,-0.07849037,-0.12778154,-0.10945525,-0.07457415,-0.09726068,0.040984016,-0.13810307,-0.107144475,0.042029224,0.36091816,-0.10943781,-0.12574677,-0.011274758,0.0066956133,-0.14737822,-0.058612164,-0.057160046,0.16172032,-0.13271469,0.028851299,-0.1980935,0.007718129,0.06776596,0.0047833477,0.10136321,-0.18401597,0.020559795,-0.16048373,-0.020432277,0.07323995,0.06617889,-0.0772272,-0.021123318,-0.17461514,0.021542922,-0.109409206,-0.07693767,-0.092649326,-0.11744036,-0.33211446,0.096098654,-0.11403614,0.0859795,-0.17407595,0.111332275,0.029063474,0.02898812,-0.0380787,-0.048540894,-0.22887139,-0.15046501,0.054949906,-0.18915462,-0.106758095,-0.0047090156,-0.07921918,0.07396909,-0.00019587262,-0.057375465
1,-0.21727286,0.30299973,-0.009602248,-0.17451678,0.18442298,-0.2761782,-0.040886953,-0.16486482,-0.07006635,0.18154237,0.06314984,-0.013866196,0.060705043,0.032267045,0.12597853,-0.075838186,-0.10948114,-0.016120989,0.30919406,-0.2947575,-0.09489716,-0.1032133,-0.06585482,-0.100630134,-0.47671345,0.1045991,-0.04950769,0.11714242,-0.058155335,0.043563534,0.022168202,-0.20235135,0.14652663,0.2075461,-0.21264344,-0.33607507,0.13949083,0.070622206,-0.25046414,0.15081872,0.04457172,0.05685352,0.026227517,-0.16257657,-0.65931016,0.17048986,0.035817727,-0.1675227,-0.2460486,0.018460324,0.014405988,-0.24598691,-0.051547166,-0.042308476,0.046811424,-0.09602806,-0.40769786,-0.09873954,-0.4468579,-0.21236406,-0.18685521,0.5181391,0.11231712,-0.019406786,-0.4775986,0.092005424,-0.1474844,0.094955,0.005249742,0.012729011,0.10172047,-0.15547636,-0.24010943,0.2398052,-0.04957764,0.23261617,-0.200749,-0.19456054,-0.8070482,-0.23450486,0.027487911,0.07986559,-0.34429988,0.075637214,0.00041347643,-0.015690392,-0.56496674,-0.36123452,-1.061242,-0.5450322,0.0015570485,0.01274163,0.043762177,0.08166213,-0.138389,-0.0006173727,0.15738186,-0.5124897,0.2119755,-0.13686144,-0.07036384,-0.050246876,-0.11889431,0.13582928,-0.34562227,-0.28249773,-0.023721512,0.09827443,-0.041595872,0.02869113,-0.19429103,-0.077630766,0.3710132,-0.09458066,-0.15204975,0.061501045,-0.02066038,-0.00026259376,-0.16026044,-0.064930074,-0.10421493,-0.06353115,-0.1020062,-0.13720647,-0.052369617,-0.019451208,0.2948261,-0.16048446
2,0.056029525,-0.04226461,-0.06116075,-0.10678712,-0.11610957,0.035099417,-0.029214764,-0.13036254,-0.1778433,-0.050122995,-0.00019839001,0.000533621,-0.08004535,-0.03169734,0.069886245,0.040623214,-0.10745243,-0.05936755,-0.16052935,0.07054526,0.059618477,-0.021669686,-0.20955803,-0.13879195,0.17033105,-0.20266068,-0.072808184,-0.11607948,-0.0026033034,-0.15081069,0.06330826,-0.14431477,-0.087630495,0.027492037,-0.09007241,-0.1314883,-0.18551253,-0.062806316,-0.16553599,-0.13810842,-0.10857255,0.055880893,-0.014311499,0.03616615,-0.022205675,0.0057880124,0.08445069,-0.084897816,-0.027080994,-0.09636962,-0.099587515,-0.068269305,0.08508032,-0.1711615,-0.03228917,-0.042939607,-0.19790159,-0.11869895,0.0194275,0.107438184,0.07618795,0.039181557,-0.21109,0.02670601,0.23556145,-0.07863282,-0.06950299,0.024660073,0.061435636,-0.20659931,0.054160833,0.059084225,-0.081131905,-0.21045844,-0.018210955,-0.04434377,-0.18137453,-0.11339631,-0.020648373,0.09156403,-0.065575175,-0.34005734,0.061406296,-0.07161102,0.059768297,-0.1722824,-0.09723578,-0.13812311,0.21890618,-0.11829924,0.06509701,-0.04970776,0.011358364,0.077017166,0.09695183,-0.044304788,-0.16970068,-0.15533863,-0.11205923,-0.1368032,0.034782354,0.104145125,-0.056280702,-0.011957976,-0.16897719,-0.03354279,0.15971947,0.09758357,-0.07311483,-0.008338378,0.2453689,-0.1802502,-0.012824017,-0.07352456,0.07295448,-0.16215728,-0.054626152,-0.0033359453,-0.083639696,-0.2228633,-0.07812387,0.06821676,-0.17455529,-0.17106956,0.063726924,0.08933719,-0.021904087,0.05794008
3,0.0939866,-0.05931136,0.014631423,0.027482087,0.028866652,0.054987628,-0.01650996,0.1892404,-0.0876402,-0.112287596,-0.013323267,0.06710998,0.18545386,0.08708453,-0.09352584,0.06853758,-0.02033493,0.0084034,-0.0022387344,0.25949994,0.1438314,-0.0070606326,0.026600936,-0.09228245,-0.28791615,0.052231636,0.0892534,0.06370221,-0.033599623,-0.10649627,-0.12021026,-0.020062983,-0.11100594,-0.0193796,0.048903167,-0.093869075,-0.18504952,0.1815076,0.15399149,0.05433618,0.013256217,0.12916853,-0.0117231505,-0.015479402,-0.10209194,0.031760857,0.0015221911,-0.101649076,-0.20338081,0.19430138,0.02530326,-0.15806653,-0.04525751,0.17063035,0.044796955,0.1046712,0.009652013,-0.19910194,-0.11961186,-0.05012537,0.06854105,-0.20631252,0.07195357,0.1873156,-0.19675232,0.067847416,0.027593253,-0.12456613,-0.08582774,0.07845914,0.11344635,-0.11928361,-0.033842873,0.118947245,-0.0096528595,-0.09944035,-0.12081784,0.17863241,0.38487557,0.021436632,0.12641926,0.06565243,0.02651437,0.058874097,-0.1997383,-0.010201146,-0.10222052,0.09689707,0.17502585,-0.1918973,0.02959792,0.18158408,0.104025275,-0.16551027,-0.17318243,-0.011284736,0.051672585,-0.19086829,-0.041702423,-0.017742977,0.057158336,-0.09567731,-0.06415001,-0.1408095,-0.15219007,-0.08832823,-0.017161518,-0.10648565,-0.21439292,-0.03105192,0.21563411,-0.046473455,-0.14211738,0.17448081,0.122944415,-0.06694748,0.043741316,-0.09663277,0.008429663,0.043312542,0.09693176,0.08613512,-0.017181978,0.012914117,-0.16207623,-0.014447688,0.32839963,0.08049341
4,-0.15299168,0.15033448,-0.018273357,-0.043908622,0.09015099,-0.36106533,-0.028623994,0.0912629,0.061445873,0.039567985,-0.015872516,-0.038484745,0.1863102,0.05748476,0.036608133,0.09114147,-0.15999322,0.069681056,-0.001089956,-0.5501897,-0.040146094,0.040942583,-0.06784114,0.0974351,-0.088841915,0.1203959,0.26892737,-0.21353766,-0.012128442,-0.027603058,0.11625262,-0.0875049,0.105782695,-0.16209272,-0.037881702,0.010950869,0.2491493,0.09816581,-0.11813709,0.17116833,0.0036724454,0.0010114532,-0.065643765,0.002471435,-0.1225035,0.00011891901,0.05327379,0.060534365,-0.17739502,-0.0685301,-0.09024076,-0.08393783,-0.08635229,-0.12610361,-0.029985296,-0.0028857666,0.038280617,6.4539585e-05,-0.13671558,-0.22814187,0.007441776,0.21132015,0.13616538,0.087155685,-0.2980703,0.1319475,-0.23797676,0.018835105,0.11572796,-0.079150125,0.044326805,0.032480713,0.06992063,0.5022025,0.0044246293,0.037627142,0.11636249,0.100096464,-0.08405137,0.054572538,0.11930161,-0.01218502,-0.16901001,0.10754351,-0.18511422,0.06129222,-0.32922652,0.2242346,0.047269773,-0.28099015,-0.122435264,-0.03998265,0.13646208,-0.028214095,-0.10575149,0.030144615,-0.21243925,-0.1857356,-0.04796891,0.16550986,0.17380756,0.04215683,0.01570899,-0.07455305,-0.08085561,-0.13645975,-0.02348693,0.08153358,-0.21409537,-0.20452452,-0.23384579,0.17720297,-0.08384956,0.09373333,-0.15755717,0.13077116,-0.0154120475,0.035472825,-0.06869847,-0.07704293,-0.13060255,-0.04810285,0.006315394,-0.03887958,0.038062207,-0.1319453,0.11226489,-0.079507254
5,-0.03080611,-0.11292708,-0.07587535,0.060334682,-0.051244203,-0.10341857,-0.14468299,0.059989624,-0.16671263,-0.02214605,0.09339574,-0.0012876611,-0.054504,0.05555923,-0.07938891,-0.10658402,-0.08282578,0.0021020875,0.113928825,-0.0044286777,-0.17997298,0.0709364,-0.14201677,-0.046481356,-0.2203055,0.093225926,0.072996944,-0.026139325,-0.11454264,0.09063254,-0.019939385,-0.054348994,-0.0058802776,0.011395942,-0.16281599,-0.35714996,-0.16097735,0.015630329,0.077805586,-0.18186836,-0.085042566,-0.22640611,-0.21745193,-0.07571487,-0.23624897,-0.20619743,-0.19174096,-0.095827125,-0.29141915,-0.020857066,0.010304801,0.015521061,0.0047955774,-0.14650096,-0.0028428661,-0.19500157,0.0018882289,-0.09292248,-0.22878222,-0.1999319,0.16216592,-0.044593018,-0.1487365,-0.1956865,0.1348899,-0.09926332,0.07730927,0.019027496,-0.104046986,0.081658326,-0.12965146,-0.0290877,-0.18363051,-0.064657435,-0.114127,0.14568833,-0.088709615,-0.03344413,0.21183574,-0.004021198,-0.059365943,-0.018375184,0.34064803,-0.046067514,0.06584078,-0.20588171,-0.2751829,0.058461357,0.17651026,-0.23466314,0.14393905,-0.002788834,-0.20486253,0.24014749,-0.23966375,0.014944964,-0.11896488,-0.27342057,-0.08345919,-0.045161556,-0.16402029,-0.066328935,0.038052313,-0.1745203,-0.02160643,0.10719002,0.19230755,0.083876416,-0.16251855,-0.19585656,0.1602668,0.028890798,-0.18718837,-0.09994345,-0.15419967,-0.12998381,0.09209884,-0.12186145,-0.0018232352,-0.0915259,-0.0011729503,-0.17926271,-0.15522273,-0.21870019,0.024602128,-0.12677383,-0.02034076,-0.01182702
6,-0.11705258,-0.19159019,0.07192209,0.13860875,-0.0003700689,-0.15716453,-0.19500701,-0.19305386,0.038936518,-0.0484543,0.10825582,0.09703646,0.08019161,-0.14919472,-0.14220773,-0.07018156,-0.09049509,0.058607724,-0.09882336,-0.13719411,-0.10105995,-0.1284148,0.08757151,-0.17215863,0.0065196846,-0.03947274,-0.1349492,0.08067429,-0.020523584,-0.09217345,0.07834696,-0.09438671,-0.11215054,-0.11711999,-0.20599273,-0.090314336,-0.37370303,-0.15818964,-0.11487046,-0.07054996,-0.028311055,0.020668913,-0.13303997,-0.042872686,-0.071873985,-0.09879688,0.08382421,-0.08045488,-0.1012739,-0.121377036,0.09726161,-0.14026214,-0.01285259,-0.20706816,-0.1837027,-0.1060997,-0.31555313,-0.007213183,-0.11441996,0.03447175,0.061274003,-0.081973754,-0.12678634,-0.05081401,0.055223253,-0.20661117,-0.15579459,-0.14159752,0.005169564,0.08243137,-0.15405321,-0.0813397,-0.011966524,0.13661487,0.0067600044,-0.14776741,-0.2032855,-0.1485836,-0.1978973,-0.14440876,-0.2110948,-0.4005762,-0.004424603,0.0779852,-0.074521415,-0.1673726,-0.026265366,-0.046200804,0.013493043,-0.0338629,0.09310241,0.020582056,0.058752697,-0.00043670362,-0.16438806,-0.1779617,0.005893691,-0.06932464,-0.16841139,-0.15906255,0.07170125,-0.013001833,-0.029427469,0.039360102,-0.09247702,0.090087205,0.019169895,0.047706973,-0.16770431,-0.15278159,0.28222868,0.03033614,0.1218838,-0.08416248,-0.13669685,-0.13967797,-0.032322105,-0.12880772,0.037782423,0.05535974,-0.09907778,-0.07168111,0.04481649,-0.011497396,0.03654791,-0.011278459,-0.030535659,0.05588228
7,-0.12082533,0.031266026,-0.092355795,0.118841015,-0.07593388,0.00021363993,-0.12087407,-0.14308898,0.13981818,-0.024582399,0.076268196,-0.010038215,-0.10436271,0.059003517,-0.15688416,-0.08877489,0.05596285,-0.123114936,-0.115851,-0.19808377,-0.00051889865,-0.18584226,-0.061533697,0.06046888,-0.08542794,-0.20300661,0.031678934,0.08185875,-0.17057464,-0.060948793,-0.18187316,0.009080171,-0.020813115,-0.049796782,-0.17608231,0.058417536,-0.3614211,-0.029896172,0.06866752,-0.07083348,-0.19652171,-0.09899727,-0.12020465,-0.03896966,-0.047808316,0.0073929895,0.10003708,-0.0715627,-0.17268515,-0.03989535,0.06348537,-0.118044734,-0.15235087,0.07812286,-0.065937944,-0.096894495,-0.035593897,0.029591428,0.13056958,-0.10047978,0.0055539743,0.06142859,0.095061705,-0.11597193,-0.2326177,0.0550308,-0.12322362,-0.17414135,-0.20667708,-0.021201616,-0.08178791,-0.049062226,0.0066415826,-0.07492273,-0.048914526,-0.20234643,-0.117918044,-0.0024893756,-0.26582718,-0.03990772,0.005890931,-0.18216471,0.051077925,0.06288349,-0.20779909,-0.07550275,-0.16868193,0.052332696,0.028605448,-0.19807753,-0.06445393,-0.04676512,0.07496074,-0.06835727,-0.09229167,-0.14863297,-0.06267388,0.037733264,0.06158243,-0.16125998,-0.00881077,0.038741253,-0.0009894297,0.06280979,-0.14224823,0.1838505,-0.11501581,0.07163219,0.08364748,-0.032342184,-0.087202765,-0.0403132,-0.09920196,-0.11345782,0.03222427,0.06778412,-0.0041882033,-0.0039111464,-0.17305307,-0.025676213,0.049214043,-0.18096808,0.024457134,-0.14262,-0.19350334,0.07302052,0.030199403,-0.106390886
8,-0.007767144,0.04859606,0.24148455,-0.11556357,0.007634273,0.12282894,0.16489959,0.14850247,-0.089118525,0.057725612,-0.08079316,0.04765461,-0.07561444,0.1097213,-0.09951804,0.15844506,-0.07395786,0.057552796,-0.20361897,0.13870282,0.33737904,0.2064133,-0.07901414,0.1592002,-0.06255884,-0.024272136,0.12503837,-0.018161764,-0.088240914,0.055310555,-0.086170845,0.11969674,-0.25062978,0.09936211,-0.04560032,-0.016626652,-0.20801583,-0.023013843,-0.084006295,-0.25736675,-0.057250913,-0.16890016,0.038400635,0.086637445,-0.06292768,-0.16422184,-0.05408828,0.14239839,-0.02836543,0.17424735,-0.12646966,0.15964468,-0.10509462,0.16291526,0.033816166,-0.09236333,-0.27451572,-0.11781096,0.040338967,-0.010166621,0.050807685,-0.022935007,0.121654555,0.12473681,-0.6613454,0.18482909,0.28436175,-0.0010079572,0.108919516,-0.17960745,0.027584251,-0.044208586,-0.72638476,-0.19732994,0.06640167,0.09399211,0.058647815,0.19332719,-0.037571877,-0.011982711,0.19751337,-0.29667458,0.028271835,-0.004052621,0.1486315,-0.07084116,-0.12599055,-0.13246089,-0.09742372,-0.124364756,0.038381465,0.20808415,0.14966886,0.094061285,0.19298077,0.42762193,-0.18419078,-0.19621016,0.024981234,0.10456223,0.037046984,-0.13268325,0.18923071,0.20406231,0.10031803,-0.061766554,-0.3551472,-0.08809575,-0.07964671,0.07101634,0.15425672,-0.062009946,0.020221878,0.13861446,0.18183596,-0.039561916,0.042338047,-0.13232791,0.00074560806,-0.15932004,0.123712495,0.03430028,-0.023282044,-0.13824348,0.015937332,-0.16771825,-0.17727795,-0.19478938
9,0.1913387,0.1574482,0.03638307,-0.12011043,0.15298854,-0.15079686,-0.048606735,-0.11165712,0.08412212,-0.15561223,-0.15189524,0.015142166,-0.07273902,0.024747929,0.13509098,-0.01522853,-0.12230708,-0.037736412,0.16430451,-0.07850235,-0.1665765,0.18663411,0.031213382,0.068560004,-0.32112393,0.20518832,0.29825956,-0.0060897996,-0.16007172,0.10738049,0.1964714,0.09532796,-0.016664963,0.070357494,-0.003541877,-0.15466395,0.24469204,0.07750102,-0.0016882712,0.12521447,0.12023779,-0.027397592,-0.11697574,-0.23305333,-0.40024742,0.11764227,0.038077,0.048154734,0.015752539,0.11745264,-0.17526379,-0.0828087,-0.27457458,0.11590255,-0.025880162,0.050157018,-0.14700289,0.043655496,0.004409308,-0.08420205,-0.1450473,0.36805952,0.13674237,0.17817892,-0.40740442,0.049478866,-0.15223786,-0.048600633,-0.03069486,0.12888701,0.014883104,-0.08585859,-0.06431955,0.09468887,-0.030089231,0.114278995,0.20837715,-0.07257258,0.10112418,-0.11019092,-0.060081992,0.17396648,-0.06434804,0.05617049,-0.11564498,-0.09919772,-0.35090408,-0.16116531,-0.15960138,-0.06739022,-0.10250414,0.11686521,-0.18183377,-0.046898827,-0.11739779,0.102494024,-0.06307901,-0.5088797,-0.047174517,0.02522418,0.1800153,0.055777434,-0.040000506,0.06271184,-0.08405526,-0.31927046,0.12517695,-0.122149035,-0.21023782,-0.10627731,-0.20144685,0.11032985,0.3676423,0.10622342,0.09377655,-0.08050788,0.13651054,0.0209408,-0.029880697,-0.14323018,-0.015584899,0.20587334,-0.0344725,-0.017285738,-0.005087455,0.087902576,0.12673515,-0.067655675
10,-0.029819664,-0.114592046,-0.06220576,0.012841156,0.0011396939,0.14622065,0.05220975,0.20784317,-0.15938613,-0.19363417,-0.02339862,-0.15203454,0.109073594,-0.08903627,-0.2384034,-0.17248973,-0.101195745,0.062341776,-0.02381435,0.1684668,0.08250789,0.10750814,-0.2275148,-0.17749049,-0.027381422,-0.05487666,-0.035666797,-0.010275877,-0.05755168,-0.08009513,0.02842508,-0.061682187,-0.0017119043,-0.17178597,0.13362221,-0.039818864,-0.1884347,-0.0055742906,-0.29791066,-0.14449802,0.033903882,-0.05325686,-0.10732361,0.10449202,0.07700721,-0.19225343,0.026594378,-0.16759297,-0.02645293,-0.08376054,-0.14668417,0.032748643,-0.14753257,-0.028263519,-0.07687455,-0.0043676817,0.04620261,-0.13236235,0.16639121,-0.002099977,-0.04045617,-0.13880599,0.0036716294,0.003211091,0.066237405,0.13999116,-0.06934504,0.02857565,0.23556314,-0.12610817,-0.17906317,-0.20566584,-0.21715371,-0.26176935,-0.1581747,-0.19635245,0.067669004,0.17420278,-0.2746704,-0.12431592,0.033308495,-0.3116161,0.028564354,0.08590286,-0.04347806,0.043345425,0.23686586,-0.06385855,-0.4731131,-0.12766705,0.0744466,0.14724109,-0.19749527,-0.1334715,-0.1515587,-0.106966704,0.0028794778,0.055453047,0.057916798,-0.0025985222,0.105363265,0.07774559,0.11292958,-0.09692264,-0.18812683,-0.26749408,-0.18167199,0.12321848,-0.002893755,-0.055062827,-0.18138224,0.021330427,0.082179666,0.09028661,-0.0658853,0.052451413,0.031658724,-0.090820685,0.03212419,-0.027320296,-0.18268904,0.17333059,-0.08750016,-0.16028994,-0.16864266,-0.08710215,0.13832028,0.029079752
11,-0.10506955,-0.17430821,0.03151709,-0.04358068,-0.06929466,0.2624407,0.17588714,0.07378241,0.077857465,-0.039093412,-0.08111967,0.091309294,0.15741032,0.079836875,-0.14228083,0.02418504,0.07116801,0.081614345,-0.47237846,-0.2187161,-0.022342766,-0.0926011,-0.24017605,-0.14198446,-0.12498347,-0.03267568,0.5009352,-0.09232447,-0.104296446,0.1177687,0.0024908683,0.12810455,-0.34528166,0.04060902,0.15446612,0.009155829,-0.17363138,0.087141156,-0.21480867,-0.2109667,-0.008675119,-0.0908094,-0.10527336,0.07905887,0.071619175,-0.13663341,0.085806176,-0.09575339,0.0022023704,0.052353945,-0.09677198,-0.29855844,-0.03314536,-0.06392605,-0.11488978,0.15651354,0.17808653,0.45581716,-0.16975683,-0.053837333,0.026183652,-0.056452967,-0.0025721295,-0.048351042,0.072590075,-0.06653567,0.22889997,-0.2569512,-0.13411379,0.028344806,0.044233166,-0.02640218,-0.2524182,0.12349674,0.0974566,-0.17656317,0.057844304,-0.0053775026,-0.50185996,0.14302172,0.10700019,-0.19936287,0.20077802,0.058151513,0.014508908,-0.14653938,-0.29918793,0.21845987,-0.3062034,-0.0050885477,0.09655126,0.15822937,0.07942286,-0.075837284,0.01742042,0.30543453,0.06738631,-0.089901224,0.05913404,0.08774021,0.23760904,0.12127371,0.12246195,-0.1031132,-0.1137585,0.031279985,0.65529585,0.04611599,-0.11011425,0.08248651,0.11122818,0.14434709,0.08068505,0.04493782,-0.25136542,-0.13378139,0.04523569,0.010484291,0.057767738,-0.22255914,-0.029882997,0.20127942,0.2363902,-0.054483134,0.0011845583,0.07620139,-0.21002622,-0.10287494
12,0.02484162,-0.104487,0.047675785,0.04871249,-0.024671039,-0.06882882,-0.05451141,-0.061092794,-0.061372157,-0.20932172,0.06079455,-0.15576978,0.06467698,-0.15153855,0.062254135,-0.15885927,-0.030439021,-0.080021806,0.015504165,-0.1453429,0.05555634,-0.042061515,-0.09016063,-0.06326012,0.004626203,-0.18743569,0.012024914,-0.12325724,-0.0933011,0.0927037,0.022195438,-0.0930718,0.018792363,-0.14827156,-0.046591174,-0.026479682,-0.11504265,-0.02149477,-0.14051104,-0.15881924,-0.13539883,0.086365834,-0.16237435,-0.1554917,-0.16046487,-0.053019844,0.06552449,-0.105387114,-0.014936755,-0.0012646702,-0.06890962,-0.045647275,0.077840835,-0.20676884,-0.009870776,0.049292866,-0.18706885,-0.007879115,-0.018193094,0.027355637,-0.15611345,-0.20608716,-0.16322562,-0.04153568,-0.1473695,-0.15519615,-0.040065397,-0.06580729,-0.13134244,-0.087808885,-0.16371311,-0.15132205,-0.1451398,-0.0073182425,-0.20167471,-0.2395769,0.092132665,-0.14293823,0.027075171,-0.15533222,-0.15812032,-0.07994737,-0.104157776,-0.12261754,-0.09398175,-0.12611389,-0.16579701,-0.15959454,-0.08135875,0.07005732,-0.14386143,0.025307175,-0.12524456,-0.11395134,-0.1548765,-0.14602649,-0.21105775,-0.020490522,-0.15711303,-0.0887438,-0.012920252,-0.072250076,-0.0324465,-0.015286109,0.0122158555,-0.02332177,-0.10955818,-0.19028424,-0.13711615,-0.21558762,0.03628808,-0.16556269,-0.10980623,0.07621355,-0.13247398,-0.17055681,0.021097451,-0.06882559,0.081691206,0.051119234,-0.03858755,-0.027840057,-0.029370854,-0.10830616,0.07988227,-0.05311812,-0.11869778,-0.12053204
13,-0.0059446646,-0.03950514,-0.036360398,-0.10094214,0.04319557,0.18516801,0.1963202,0.009642118,0.046998713,-0.012227395,0.06819543,0.03535174,0.14146368,-0.22714283,-0.06299378,0.061813258,0.009114057,0.090721875,-0.10741551,0.13614604,0.18456316,0.08546319,0.015116773,0.04811231,-0.04169622,0.12577757,0.10330943,-0.04141469,0.047087923,0.03544682,0.12856413,-0.013083287,-0.1412693,-0.053853698,-0.043100115,0.002947264,-0.033730954,-0.018952299,-0.13779193,0.07776451,-0.13948753,0.03561882,0.006046261,-0.027467445,-0.20058857,-0.07165794,0.16658512,-0.2240673,-0.15434855,-0.095358156,-0.107907236,0.03830935,-0.08082448,0.12868428,0.113000154,0.15241614,-0.008995189,-0.18961611,-0.050066672,-0.2130452,-0.044668417,-0.012402828,-0.017301554,-0.06386781,-0.27714625,0.14922385,0.14718181,-0.07420427,-0.0761505,-0.09968748,-0.12651539,-0.0017742047,-0.19085726,0.30032164,0.10045431,-0.029089563,-0.037102174,0.11588417,0.124097906,0.05662714,0.081890926,0.18353635,0.122788936,0.023117647,0.20148644,-0.2118491,-0.1208681,0.20127311,-0.11047722,-0.064179026,0.1336012,0.15373068,-0.10730976,0.01989244,-0.052201834,0.16259886,-0.19836958,-0.04042826,-0.15939485,-0.11287539,0.078800954,-0.082829356,0.046205573,0.0379909,-0.08408094,0.041564804,0.035639156,-0.1499116,-0.05509722,0.05641465,-0.120993555,-0.10838423,0.05142832,-0.013983074,0.0071225394,0.042432632,-0.07407067,-0.09527911,0.16115378,0.14059073,-0.20729439,-0.05961261,-0.025745403,-0.11365911,-0.19926783,0.019498682,-0.091163255,0.023874395
14,-0.02573202,0.025401324,0.29592678,-0.17552707,0.051541828,-0.047985308,-0.19143105,0.04012738,0.032151483,0.021270432,-0.016232708,-0.05861649,0.09123385,-0.0659114,-0.13002329,-0.09292827,-0.020924155,0.034780204,-0.33757776,-0.34026593,0.08063113,0.48040977,0.054729473,-0.016574137,-0.043699957,-0.17231621,0.0084559545,-0.1355254,0.11975635,0.08565453,0.0755509,0.19042712,0.11506951,-0.09124348,0.12965624,0.063761696,0.22611523,0.08394175,-0.13059297,0.10768024,-0.12260119,0.010481893,0.28472164,-0.68127286,0.070615254,-0.1668319,0.10098681,0.08690403,0.15115622,-0.0032302395,-0.0075209364,-0.31559688,-0.18862356,0.10370194,0.012583478,0.017059619,-0.3385697,-0.16813305,-0.042026736,-0.13452543,0.052507903,-0.20819074,-0.05299509,-0.084144585,-0.3658659,0.17045432,0.12042813,-0.13906617,-0.07185851,-0.07294344,-0.03856372,-0.06544317,-0.0667516,-0.20388067,-0.052215908,0.08564433,-0.009549252,-0.0601356,-0.28910613,-0.60336196,-0.113258235,0.016940119,-0.2890094,0.03987037,-0.16513112,-0.039467186,0.29808354,0.024074778,-0.6773217,-0.16454346,-0.08831589,0.15045778,0.09629835,0.14024577,0.106327616,-0.047557272,0.029141527,-0.3440477,-0.002613908,0.07201646,-0.20089543,0.08776829,-0.05755461,-0.10360283,-0.9355313,-0.2026782,-0.06255479,0.087218456,0.15971698,0.08398904,-1.4311717,0.46397623,0.048908677,-0.09763947,-0.08109812,0.06743219,0.20637657,-0.022918146,0.061538577,-0.066009,-0.0629567,0.09541409,-0.078663655,-0.017847862,-0.10786891,-0.030689951,-0.28474036,-0.16848321
15,-0.013968906,0.09190639,-0.0399709,0.017062668,-0.20056665,-0.04783514,0.052769303,0.06861028,-0.113101915,-0.17507039,-0.10485204,-0.057974853,0.036371987,-0.04622569,0.09562772,-0.09704252,-0.060153726,-0.014924632,-0.08491442,0.19695905,0.0794507,0.1600776,-0.20468599,0.010351818,-0.095750764,-0.057389475,0.06816151,0.16598922,0.08413425,0.11097209,-0.08016362,0.18897772,-0.028354011,-0.091204286,0.030264007,0.0028854327,0.026346825,-0.041186307,-0.19197021,-0.03095788,0.009380303,-0.11159739,-0.03769147,0.35944882,0.30098334,0.01870942,0.17486113,0.0605128,-0.089525156,-0.093137555,-0.10208383,0.06363983,0.047260594,0.13315904,0.09799392,0.055512376,0.31965682,-0.10439434,0.06534187,-0.023164261,-0.064751595,0.1911416,-0.046405,0.164874,0.018892381,0.0043121427,0.06995202,0.020914253,0.2287957,-0.12612486,-0.0496502,-0.051136203,-0.00094991055,-0.15815364,-0.17419183,-0.07681698,0.1005751,0.19839667,-0.06104018,0.058765218,0.075274915,0.042282235,-0.15024951,0.17150658,-0.014186181,-0.10449758,0.26463842,-0.13691892,-0.16513632,0.059643406,-0.14470851,0.05331987,0.017037993,0.017328644,-0.14394476,-0.09144235,0.0698598,0.2978856,-0.10230146,0.08058542,0.17333691,-0.014535874,-0.034837153,0.0008215964,0.25439397,0.00061973074,-0.1184307,0.056794614,0.037584037,0.008309228,-0.14171459,-0.1097663,0.0027417275,0.0648148,-0.20905544,-0.11010318,-0.048448876,0.034542736,0.059883796,-0.14079143,-0.08296295,0.12899573,0.07362344,0.018618938,-0.1952944,0.034070026,0.09679416,-0.08252072
16,-0.07089056,0.15940396,0.10832529,0.06845554,-0.17038761,-0.12248048,0.10764479,-0.040424462,-0.09366917,-0.10582332,-0.05818472,-0.080670275,0.059463426,-0.08286169,0.016110495,0.14101638,-0.17942704,0.097096555,-0.024278043,-0.00536851,-0.1937985,-0.013007056,-0.19963533,0.09363733,0.11986922,-0.11243017,-0.09668516,0.029835919,0.0114024915,0.075054795,0.030082466,-0.05722108,-0.06466678,-0.1719591,-0.011492057,0.0068602134,-0.26160336,0.081858195,-0.1037613,-0.23188153,-0.14035842,-0.25111443,-0.08140385,0.08646378,-0.031822987,-0.14921373,0.18321393,0.008681728,0.10239826,0.07351797,-0.008802446,0.04980255,-0.10050601,0.097811654,0.035000708,0.18743703,0.007775217,-0.16977608,0.16805287,-0.19865005,0.050547067,-0.078076966,0.110154256,0.13499244,-0.023697045,0.0066291266,-0.12485474,-3.3326654e-05,0.07443632,0.09565906,0.11357953,-0.13247125,0.0635396,-0.2552232,-0.117819056,-0.028591651,0.00028263498,-0.0073201214,-0.10075539,-0.14349744,-0.08993154,-0.23473425,0.050553076,0.06759793,0.1388346,0.025454437,-0.007505589,0.0004904366,-0.11261208,-0.038066804,0.027939873,0.037587304,-0.070775576,-0.09291802,-0.058087505,-0.3357011,0.051363293,-0.0064020813,-0.10610213,0.054121286,0.13976955,-0.060731955,0.16548564,-0.0084475735,0.14505929,0.05037366,-0.036100645,0.111519866,0.16601057,0.005275474,-0.18628676,-0.066485256,0.015773965,0.055409998,0.20490415,0.10204085,0.17840607,-0.02686795,0.011125102,-0.058379866,-0.08915854,0.056087043,0.2005621,0.09280249,0.104808815,0.12864669,0.24581084,-0.10236725
17,-0.11671968,0.077743,0.010578775,0.043190256,-0.09541673,-0.0065664123,0.09415217,0.0077480637,0.0072070225,0.0028009303,0.022672031,-0.062178764,0.07569582,-0.1477562,0.038329195,-0.12517543,-0.0882139,-0.20244496,0.042711467,0.023608351,-0.17924932,0.072860025,-0.02536519,-0.17611438,0.043148544,0.093045816,-0.04406201,-0.07302922,0.07006318,0.08445385,-0.16263267,0.09015317,0.05039692,-0.18511266,-0.1018054,-0.019968336,-0.24480607,-0.05601064,0.04883911,-0.011250808,-0.04376255,-0.008863391,-0.065062195,-0.2059993,0.18693416,-0.017387817,0.09665375,-0.046325993,0.11537033,-0.022108313,-0.104930274,-0.10113658,-0.012936819,0.11439109,-0.05747352,-0.18194729,-0.08511934,-0.17370291,0.16989805,-0.15578836,-0.028388895,-0.15854645,-0.11312174,-0.17589243,-0.30998564,-0.13532487,0.07193993,-0.18988234,-0.21529949,0.06299402,-0.040127542,0.106518075,-0.16405518,-0.017292589,-0.19176732,0.05761939,-0.1474331,0.013538159,0.006376052,-0.12725188,-0.2023783,-0.088160075,-0.11360888,-0.006534705,-0.0657386,-0.11461283,0.5632273,-0.23387846,-0.2268068,-0.04536879,-0.04752053,-0.16309237,-0.0010323595,0.15415849,0.095403776,-0.027703406,-0.12959042,0.11287194,-0.061728854,0.08115576,-0.028732646,-0.015435189,0.031603724,-0.05799923,-0.19087452,0.20510986,-0.14972845,0.044494182,-0.15110233,-0.11555788,-0.23452356,-0.058322154,-0.122388445,-0.12464174,-0.02350305,-0.081599906,0.0007757145,-0.17608024,0.13567743,-0.1076402,-0.02540939,-0.18227914,-0.0559735,0.08318852,-0.034615967,-0.008942562,-0.08541573,-0.2020132
18,0.09252365,0.055098902,-0.04907055,0.071596295,-0.35661572,-0.1645441,-0.06836087,0.08676706,-0.22135955,-0.15275583,-0.09161352,-0.022242706,-0.09613473,-0.39739093,-0.2383426,-0.014955762,-0.025676461,-0.056293212,-0.028608706,-0.06992351,-0.36600837,0.051715847,-0.114871256,-0.1466143,-0.2365131,-0.06713957,-0.03301203,-0.29557282,0.107655235,0.09647181,-0.40555006,-0.044076897,0.139003,-0.07441608,0.0022725903,-0.22767538,-0.24780023,-0.18346468,-0.0793685,-0.19078454,0.10878318,-0.21360454,0.053146485,-0.094071336,-0.08265896,-0.09729867,-0.12467802,-0.24971391,-0.048461717,-0.123428926,-0.050712086,-0.30066615,-0.0024513754,0.09435402,-0.19317998,-0.010511295,-0.0035579896,0.018974882,0.0005516425,-0.22227453,0.105863854,-0.08448283,-0.0048428955,0.031410936,-0.23477127,-0.21621163,-0.09533582,-0.054510217,-0.04248937,-0.03138261,-0.15070765,0.05333728,0.03543308,-0.5658657,-0.037651025,-0.0971317,0.054815073,0.07399695,-0.14355724,-0.11743119,-0.06951796,0.0031685294,-0.05934125,-0.1134262,-0.20810749,-0.004230331,0.19147791,-0.055433266,-0.1426551,-0.055256557,-0.113018215,-0.19470048,0.013087125,-0.14633735,-0.1520784,-0.49604166,-0.14229964,0.01626279,-0.24070965,-0.3004274,-0.14621867,-0.12596898,0.042849664,-0.26584238,0.0088816015,0.04998882,-0.17706643,-0.07291271,-0.03251616,-0.02679338,0.010631329,0.089662835,-0.18589076,-0.101211496,0.3085687,0.022676187,-0.13682476,-0.02907807,-0.014963933,-0.09785403,-0.0032738629,-0.09951985,-0.20109086,-0.09877561,-0.21811326,0.11851218,0.20740713,-0.076178156
19,-0.20167749,-0.2704625,-0.0010326272,-0.08276426,-0.07007208,-0.1367127,-0.17806815,0.08002804,-0.08257769,-0.03810517,-0.12298277,0.2159715,0.0033934084,-0.08779146,-0.17609407,-0.028128259,0.041663796,0.0061321035,-0.28289542,-0.15634316,0.045116235,-0.17790182,-0.026029749,-0.0031608779,0.038718723,-0.22038667,-0.20005025,0.34575495,-0.0174722,-0.06415242,-0.06884082,-0.114368066,-0.19117014,-0.26185995,-0.07848817,-0.08191572,-0.2769011,-0.01196455,-0.03165078,-0.18631938,-0.050027154,-0.050886545,-0.036401715,0.034806985,-0.15531577,-0.18372189,-0.038836792,-0.20310064,-0.22029392,0.00077684596,0.09582734,-0.21374862,0.035156585,0.02494777,-0.22165985,-0.12380937,-0.08398981,0.04514997,-0.24716045,-0.15494639,0.00019384835,-0.028539069,-0.07043001,-0.11519537,-0.36259884,-0.080624625,0.24333267,-0.05129624,-0.1489645,-0.015560933,-0.030553466,-0.047643587,-0.066989765,-0.19611919,-0.27923137,-0.19654375,-0.17255697,0.0058067874,0.054823436,-0.17413384,-0.08231162,-0.20423107,-0.08354718,0.010984606,0.008849937,-0.27842516,-0.4824989,-0.111849524,0.049855076,-0.047062617,0.006190221,-0.19901365,-0.17088138,-0.12360871,-0.20100929,0.18775761,-0.06893665,-0.45301652,-0.20731711,-0.04127749,-0.15905933,-0.038670212,0.056628168,0.03654772,-0.17695126,-0.13744639,0.031868268,-0.008843366,-0.104914814,0.13723084,-0.017216485,-0.033867776,-0.14668354,-0.17343608,0.033526096,0.011294559,-0.053012908,-0.26936436,-0.06880591,0.027247839,-0.13051897,-0.06092799,0.07725839,-0.025925357,-0.13621888,-0.17123847,-0.2837738,-0.08982529
20,-0.2477357,-0.046373684,0.050157145,-0.060074195,-0.22265692,0.010895622,-0.10195897,-0.034684584,-0.15948631,0.009619728,-0.124601044,-0.09605864,-0.10552952,-0.0078423,-0.10776843,-0.16307385,0.001605506,0.05632778,-0.5370821,-0.20937996,-0.17755026,-0.16386801,-0.10921226,0.055408556,-0.48103032,-0.21572538,-0.20383234,-0.011423027,-0.27276433,-0.031946834,-0.0155654345,-0.07614661,-0.14868908,-0.009518322,0.04547915,-0.18487298,-0.1303454,-0.17578833,-0.24145295,-0.019699981,-0.26374984,-0.17239271,-0.0926951,-0.11167173,-0.3773758,-0.22700246,0.051034402,-0.12444569,-0.19664134,-0.025698561,-0.14192854,-0.29886,-0.06487404,0.0071912324,-0.057952262,-0.09664238,-0.23165329,-0.20690669,-0.17390703,-0.020273943,-0.07878282,-0.2468015,-0.09961255,-0.1710698,-0.8783442,-0.08882305,-0.005860045,-0.116423056,-0.17039771,0.07240123,-0.05016374,-0.00940702,-0.1961856,0.3370863,0.009719767,-0.051386986,-0.078236744,-0.2132343,-0.5614891,-0.099753916,0.0057236846,-0.32249814,-0.16250366,0.009023166,-0.1726897,-0.013025719,-0.6293226,-0.2828665,-0.93016845,-0.32347193,-0.045896586,-0.1068185,-0.03369945,0.031480167,-0.12350235,-0.07527165,-0.1482352,-0.44045126,-0.19425657,-0.08527161,0.004399295,-0.0052558114,0.013692012,-0.20123348,-0.31601614,-0.023807626,-0.36035478,-0.106390335,-0.26452476,-0.21389449,-0.39983222,-0.05395022,-0.094397515,-0.1674713,-0.0004034608,-0.056665163,-0.1225993,-0.07023852,0.11303103,-0.16128352,-0.010844202,0.021220997,-0.03722466,-0.055659972,-0.07858883,0.08899053,-0.46848187,-0.24480689
21,0.101284094,-0.029250339,-0.101261325,-0.19842371,0.07137157,-0.04502181,-0.0689197,-0.19888327,-0.088200666,-0.24064367,-0.21406992,0.022239577,-0.13708653,-0.07964835,-0.10734081,-0.15222512,0.054983206,0.02807578,0.011915595,-0.057081517,0.0063916333,-0.1602553,-0.16008776,-0.04647837,-0.1761622,-0.110028364,0.0017237097,-0.21879944,-0.18369259,0.06382486,0.05623192,-0.1243093,-0.054204058,0.013922099,-0.012922181,-0.20762758,0.116902925,-0.20136867,-0.01855015,0.1333978,-0.19415872,0.064216025,0.0034093864,-0.023247473,0.04773818,-0.07341348,0.07705734,0.058553275,-0.18623516,0.0027589512,-0.044607636,0.010267468,-0.17917645,-0.16146491,0.06059317,0.031191938,-0.11243622,0.07556887,0.17596342,-0.21638355,-0.19861625,0.010989639,0.017351015,-0.13817249,-0.5069335,-0.15645154,-0.047921244,-0.015040418,-0.050578825,-0.12023374,-0.22837698,-0.026464067,-0.07778804,-0.03438283,-0.01633722,-0.27626458,-0.1708022,0.07781885,0.160691,0.051465813,-0.1374472,0.19276372,-0.10833063,-0.0016767593,-0.06754768,-0.10445089,0.2167587,-0.10084951,-0.11503973,-0.06470467,-0.24105829,-0.07083936,0.014578736,0.06994906,-0.07028205,-0.17098707,0.05320073,0.02439116,0.037370414,-0.06317986,-0.18783484,0.05112917,-0.07764999,-0.21446155,-0.05013195,-0.22119343,-0.08265012,-0.038428307,0.0014069283,-0.055231113,-0.112614,0.015434306,-0.25653565,-0.21774927,-0.12615357,-0.071930066,-0.0075398814,-0.21731561,-0.20326024,-0.1410417,0.053732384,-0.21287975,0.001737695,-0.036715522,-0.18108855,0.049323294,-0.09279724,-0.19835773
22,0.05818234,0.18835975,-0.097344175,0.113404535,0.14612125,-0.19036092,-0.056039583,0.066651285,0.04287813,-0.1426112,-0.27896717,-0.12980883,0.13212574,0.036032073,0.037694126,0.020707987,-0.10335185,0.0978201,0.104067855,-0.10142267,0.064698346,0.031248404,-0.088999555,-0.06122028,-0.26986438,0.028808745,0.20080322,-0.05817698,-0.41510814,0.1031706,0.14576688,0.09529994,0.03793299,0.042502772,-0.060303546,-0.21397057,0.09644049,0.15960677,0.0928585,-0.021846587,-0.110355005,0.030824441,-0.10460252,-0.11719019,-0.27062133,0.17662759,-0.011769711,0.12400295,-0.39697024,0.18914835,-0.15056957,-0.17184255,0.002709952,-0.076450005,-0.19057366,0.0433586,-0.12612206,-0.011191498,-0.2662846,-0.09902011,-0.18589813,0.16392328,0.016933719,0.05902847,-0.34241605,-0.11921393,0.16896428,-0.14166659,-0.061751787,0.1615769,0.046576858,0.020513507,-0.09999002,0.38700792,-0.074826986,-0.08453815,0.17256185,0.1170346,-0.3522348,-0.025394596,0.105228506,-0.15426669,-0.24605766,0.10410479,-0.2371948,0.07778587,-0.21097486,-0.08469169,-0.27165344,-0.42509454,-0.00058339624,0.039613754,0.05893092,0.026417175,-0.13497566,0.32843685,0.04779438,-0.18074678,-0.03524959,0.09972662,0.05615849,0.135459,-0.07518605,-0.13752533,-0.23912112,-0.13208082,-0.17669077,0.00045240528,-0.22550818,0.043397635,-0.72697246,-0.22361471,0.024147773,0.0017772849,0.045385264,-0.0057951557,0.057617247,-0.076587304,-0.09048059,0.017502788,-0.019417733,-0.02116485,-0.23991357,0.17325947,-0.15629707,0.047975443,0.07086671,-0.1556892
23,-0.0011455959,-0.13161457,0.08701251,0.123433314,-0.16652457,-0.12473711,0.07608661,0.09360926,0.03693984,-0.20626295,0.07263615,0.07060825,-0.08898644,-0.013929036,-0.1750841,0.14593856,-0.06638436,-0.092746235,0.013799828,0.21953733,0.074895255,0.06729034,-0.039229926,-0.16829799,-0.33928967,-0.17485058,-0.21322243,-0.048120696,0.75590104,-0.04198314,-0.0119498065,0.105624,-0.004545533,0.04824424,0.18713143,-0.29513124,-0.22010015,0.034541335,0.12425213,-0.19135503,0.12566121,-0.040370636,-0.0041641737,0.27040607,0.008386392,0.059327994,0.17331864,-0.096225366,0.27418435,-0.067890644,-0.11658739,0.12426995,-0.060911253,0.21539581,-0.122937985,-0.0012447451,0.027738433,-0.6084899,0.08911284,-0.09530796,-0.041280434,0.073282786,0.12485169,0.19353886,-0.17332956,0.10042105,-0.06558628,0.08300301,-0.010400868,0.09659478,-0.023205735,-0.032103527,-0.18818083,-0.25670373,0.0390245,0.11721839,0.116756566,0.085093625,-0.15771966,-0.04579234,-0.038856085,-0.07169034,-0.33716536,-0.07368631,-0.03840839,0.04559542,0.5035776,-0.36631984,-0.37160397,0.7000298,0.017415537,0.028877728,-0.05079227,-0.09572068,0.031325445,0.22285332,0.003960909,0.32278082,0.07214697,0.011936101,0.13313995,0.007544355,0.007882721,0.09330585,0.6346048,0.053112756,0.022565404,-0.07962575,0.5145803,0.033409372,-0.28895408,-0.030481925,-0.07453214,-0.00833441,0.058428533,-0.09430243,-0.076233305,0.06967301,-0.08950885,-0.016129605,0.065729015,0.025960611,0.14890306,-0.077757664,-0.0062850085,-0.045706578,-0.059358243,-0.14086983
24,-0.15568486,-0.118509434,-0.024736086,-0.16598009,-0.13885093,0.039701547,-0.12319799,-0.21008258,-0.20839591,-0.03512491,-0.17305826,-0.2521147,0.011693024,-0.05424696,-0.27304888,0.002113084,-0.1364974,-0.18133008,-0.04561989,-0.0859218,-0.14195698,-0.13011177,-0.31223297,-0.13524124,-0.10062942,-0.02304662,-0.10913944,-0.22705263,-0.2369078,-0.05354024,-0.19196397,0.04945642,-0.1757487,-0.18601125,-0.07416839,-0.039327167,-0.35532162,-0.0010977098,-0.19915593,-0.15770257,0.10224375,-0.25267175,-0.13062471,-0.24363428,-0.25675368,-0.28657892,-0.106982395,-0.1622918,-0.035098057,-0.17972404,-0.01452052,-0.21469547,0.18492885,-0.026015602,-0.2350598,0.025629159,0.13797034,0.18191597,-0.45017058,0.031155363,-0.19557568,-0.049694825,-0.17429893,-0.10457934,0.533852,0.043226697,-0.19764787,-0.027792009,-0.13956955,-0.15690559,-0.026850276,-0.09078669,0.13770442,-0.13264035,-0.059260435,0.06764879,-0.008649124,-0.08856389,-0.49164078,-0.0723578,-0.13160127,-0.2819424,0.14982201,0.050695777,-0.16004644,-0.2315474,-0.5558954,0.03335367,-0.03194571,-0.34007317,0.058791976,0.09062741,-0.1830733,-0.18043184,-0.008850443,-0.24691254,0.02955888,-0.45229936,-0.20703101,-0.18948378,-0.05936367,-0.28369388,0.08821286,-0.21588637,-0.34550926,-0.043891,-0.24377055,-0.0057071187,-0.37473002,-0.13374732,-0.11399704,0.071771294,-0.056088943,0.0806439,-0.08078871,-0.25017294,0.06853384,0.05950004,-0.12547274,-0.1548308,-0.11089505,0.02490891,-0.0037144215,-0.11297926,-0.13778166,-0.18441065,-0.11662086,-0.019583374
25,0.020840783,-0.15812449,0.15008366,0.016816817,0.058826365,0.20904979,-0.070804894,0.0042484975,0.05368911,0.0005473589,-0.20931943,-0.19498792,0.059560247,0.061685495,-0.118169144,-0.16833723,0.092235796,0.07751383,0.09381385,-0.24787928,-0.0023720362,0.15931445,0.060369395,0.05037967,-0.21898614,-0.07958354,0.20797129,-0.19673286,-0.193356,0.10392554,-0.15792693,0.061774887,0.32206488,-0.15010895,-0.05707375,-0.0115886405,-0.062017057,0.104541495,-0.0396386,-0.037752464,0.23444505,0.061839767,0.18195769,0.18552607,0.027409509,-0.08698705,0.118734576,0.053739194,0.06632448,0.20965753,-0.08520415,0.12993442,-0.2345248,0.20524177,-0.23538023,-0.0056479042,-0.032221317,-0.078991726,0.07183354,-0.19389561,-0.031502496,0.07054079,0.12580836,0.19182122,-0.37430608,-0.037700485,-0.1375868,-0.13507597,0.043206416,0.019990135,0.0987337,0.13745598,-0.00023208557,0.21626379,-0.23269448,-0.17408568,-0.06463094,0.15042669,-0.023665182,-0.021903262,0.023128739,0.14962815,-0.0743258,-0.07833395,-0.10941687,-0.08442351,0.106118836,-0.25795773,-0.060010057,-0.13039574,-0.16706045,0.18518256,-0.038601156,0.046771344,-0.13994564,0.022092402,0.063669614,-0.01477859,0.07605252,0.07170746,0.05021917,0.1096303,0.06371374,-0.14827722,-0.24693175,-0.009303317,0.100956574,0.07894269,0.0444558,0.060336724,-0.1463137,0.18598662,-0.18176089,0.10401188,-0.14961396,-0.10730978,0.19873816,0.05092145,0.03951833,0.15045631,-0.057449006,0.009206209,0.012785964,0.14978601,-0.21802245,-0.16883093,0.5494353,0.008901344
26,-0.076455966,-0.22345129,0.024968829,-0.122987494,-0.25791243,-0.16595827,-0.1305575,-0.20564109,-0.05174803,-0.10147509,-0.35324553,-0.2374251,-0.072445184,-0.052867875,-0.18578711,-0.10414486,-0.29429066,0.004581826,-0.026851643,-0.044045303,0.0746201,-0.16486509,-0.10246079,0.1079398,-0.30974346,-0.018165756,-0.0014490699,-0.12587456,-0.19899803,-0.20974654,-0.14733514,-0.138334,0.0673158,-0.15654078,0.04142201,-0.35722524,-0.29283768,-0.18039823,-0.07102115,-0.25875086,0.094312824,-0.04704132,-0.20818833,-0.20655571,-0.085964344,-0.20146924,-0.17906901,0.19644885,-0.25683385,-0.14047171,0.050428107,-0.051958762,-0.050954133,-0.13379833,0.025274685,0.061289493,0.046849288,0.01499418,0.0045899786,0.09867123,-0.19697563,-0.14383788,-0.110507436,0.08802332,0.12222089,-0.12085948,-0.20388955,-0.2413633,-0.02645684,-0.055965114,-0.062378727,-0.20727734,0.21044092,-0.14763473,-0.19652985,-0.22037128,0.008787836,-0.014158958,-0.2902412,-0.15390411,-0.0645597,-0.13176887,0.11228527,-0.033220723,-0.19215493,-0.061915196,-0.2374947,-0.07368969,-0.07710899,0.034389503,-0.036313843,-0.039454307,-0.0402589,-0.07402071,0.003413119,0.042325035,-0.2504886,-0.33150226,-0.05149618,-0.019110318,-0.02646554,-0.25260246,-0.06955907,0.28150508,-0.108396985,-0.19970194,-0.07577886,-0.060756925,-0.13243364,-0.053448297,-0.16225295,0.077901945,-0.011356088,0.055243045,-0.032615677,-0.12815145,0.049925826,0.039693255,-0.07802911,0.16200225,-0.2711732,-0.1089805,-0.016903812,-0.16821538,0.020612042,0.0021442955,-0.21776615,-0.24465105
27,0.07257326,-0.07730136,0.048518497,-0.043785725,-0.24389915,0.037933435,0.025714606,-0.015649017,-0.11966714,-0.03163279,0.11219516,0.027477805,-0.03192382,-0.18498679,-0.069865204,0.109223075,-0.23907936,-0.15882303,-0.6068585,0.24885501,0.28872305,0.122958764,-0.09469912,-0.17830789,0.14390169,-0.12213721,-0.075699985,0.0073740575,0.13507329,0.09173543,-0.029143441,0.03664227,-0.38174903,0.026595423,0.008762462,0.09056684,-0.18205771,-0.0142697655,-0.023954006,-0.0012829548,-0.25967455,-0.19202347,-0.07155153,0.3837886,0.19526802,-0.02557326,-0.07802998,0.064048626,-0.10868469,0.17086287,-0.04008045,0.09500731,0.05430283,0.03668228,0.029255273,0.055023253,0.06697819,-0.23283455,0.02958728,-0.15074258,-0.15810303,-0.010509224,0.0808713,0.19022922,0.17601055,0.061799295,0.20468166,0.061116148,1.3987203e-05,-0.026976466,0.14409634,-0.19031754,-0.0037947453,0.206223,-0.20375454,-0.036904387,0.16782653,0.0921364,-0.029666536,-0.19632657,0.012765988,-0.26131874,0.08811284,0.12998444,-0.10570824,-0.0032679795,0.17966388,-0.24171065,-0.36428428,0.2878381,0.08066273,0.01926238,-0.10289569,-0.20764554,0.0208898,0.2441947,-0.042892642,0.21138336,-0.07567243,-0.1561223,-0.013553962,-0.13315897,0.0452793,-0.016468193,0.49935752,0.16963588,-0.20295484,0.101397455,0.03952718,-0.11450137,-0.341711,0.06273417,0.013013094,0.037395775,-0.10475495,-0.09909259,0.15765908,0.004397602,0.12526126,0.0030755382,-0.10623247,-0.080178626,-0.12870452,0.026337918,-0.22833788,-0.017675683,-0.38149118,0.02742849
28,0.04268707,0.01297021,0.016185025,-0.22782864,0.06389215,0.035005327,-0.14174232,-0.10564237,-0.16991672,-0.012337068,-0.18649204,-0.19502413,0.08775445,-0.037787408,0.022901352,-0.07561742,0.006585899,-0.15726762,-0.17587045,-0.073898576,-0.18682933,0.0071245357,-0.15130612,0.04548067,-0.11319474,-0.057287373,-0.054840133,0.113458134,0.08030273,-0.0127148675,0.11540387,-0.17433167,-0.107057266,0.21041001,-0.19374599,-0.076702274,0.26251203,0.0731158,-0.2083435,-0.010218816,0.06145433,-0.09580678,0.11391964,0.01553429,-0.043949362,0.09179886,0.051409934,-0.056139044,0.2546669,-0.1147506,-0.008475273,0.08815603,-0.022437042,-0.18452954,-0.13750438,0.0020978379,-0.12825245,0.010546318,-0.25130183,0.65682775,-0.24784832,-0.042996094,-0.1166418,-0.15750492,-0.093838535,-0.16249248,-0.06763568,0.032021135,-0.0966234,-0.09216621,-0.21677892,0.04806356,-0.15663587,0.2563194,-0.021061301,0.25640824,0.05182195,0.08636689,-0.23851565,0.088320225,-0.017141007,0.34631863,-0.026202256,-0.21198054,-0.20321286,-0.03131934,-0.53606945,-0.17292143,-0.10127301,0.24080431,-0.32624525,-0.13664912,-0.23872326,0.054017726,-0.1475476,-0.15056741,0.124014445,-0.075634554,0.14155066,-0.18971625,0.013632726,-0.05134935,-0.13718177,-0.05093168,0.24298,-0.14523225,-0.05691296,-0.13691248,-0.009774913,-0.08622494,-0.12440797,0.113008045,0.22637594,-0.1941807,-0.081837066,-0.039638143,-0.0019280867,-0.10871595,-0.18341002,-0.0502272,-0.10525661,0.080160365,-0.19109043,-0.21651526,0.04665634,-0.039974183,-0.07897518,-0.23423459
29,0.008854283,-0.0039739315,-0.02233062,-0.25713512,-0.091281556,-0.027639031,0.131381,-0.045453187,-0.12601706,-0.12779234,-0.1988001,-0.15558355,0.087497704,0.038591094,0.030009992,-0.06579435,-0.0647327,0.12431923,0.1069572,0.20416862,-0.035853013,0.1806446,-0.07968842,-0.021439308,-0.11880605,-0.19191207,-0.053681172,0.0036368598,0.5023418,-0.02584453,0.06373011,0.13922293,0.13491836,-0.09375512,0.20846432,-0.047330994,0.07829726,0.18986885,-0.17179264,0.21674933,-0.034816466,0.09812079,0.12070024,0.23392904,0.13103859,0.0062146555,0.17251018,-0.25459462,0.30384275,0.033873625,-0.09825316,0.025106087,-0.08577671,0.12232247,-0.12388643,0.19057773,0.0840385,0.031961087,-0.050297186,0.15182957,0.006703685,0.11264222,-0.05391069,0.17805338,-0.14187822,0.113570996,0.17366825,0.07790141,-0.137592,0.08792228,0.056400567,-0.13907267,-0.10403951,-0.02498082,-0.040030576,0.053890742,-0.018726183,0.06724736,-0.0034926017,0.19401656,-0.06430334,0.10063108,-0.14418156,0.079863094,-0.04579508,-0.0232623,-0.023829961,-0.056143727,0.06925326,0.37753332,0.08884006,0.08251564,0.0563026,-0.08199731,0.1477057,0.1666768,0.030642828,-0.010471867,-0.12014768,-0.040014416,-0.0061711986,0.026235921,0.20947438,-0.11787073,0.21343577,-0.055805713,0.082912214,-0.14408651,0.18272977,-0.11224904,0.16149291,0.08133308,-0.13169006,0.062063683,-0.038271703,-0.19723693,-0.08218887,-0.106936894,0.124143,0.06335917,0.030177515,0.14678541,-0.058226135,-0.025756432,-0.054671217,0.021696357,0.017532194,-0.23223658
30,-0.029112097,0.39421442,0.16625006,-0.088070706,0.2820904,-0.10673593,-0.03443106,0.11034603,-0.1400435,0.23815218,-0.12231935,-0.18158165,0.08036871,-0.10754471,0.0403415,0.056051537,-0.11813665,0.11008527,-0.06655244,-0.23615655,0.25047782,0.07528718,0.24364768,-0.22018279,-0.13595141,-0.042529073,-0.16383237,-0.056558266,-0.10055139,0.03883846,0.3308005,-0.0024926146,-0.07748024,-0.100837894,0.07845773,-0.04218514,0.33615205,0.028984679,0.07172619,0.17001969,-0.11970069,0.18032756,0.007832656,0.043593418,-0.22204739,0.14299035,0.21677591,-0.048146617,0.045117676,-0.0016991172,-0.25219822,0.012763024,-0.25073352,0.18669535,-0.0005879574,-0.0049430234,-0.21279708,-0.26976913,0.009433678,-0.08665386,-0.10807393,0.27677134,-0.07348095,-0.016737778,-0.85025585,-0.04017314,0.015747333,0.06639932,-0.117738664,0.05875505,0.022933297,0.17583543,0.035059813,0.2838612,-0.06558204,0.1295309,0.03925307,0.1658883,-0.23778452,-0.20502518,0.17810957,0.09236547,-0.25883913,0.07893146,-0.0055681905,0.13306677,-0.26803878,0.1722322,-0.07272785,-0.115058616,-0.14667618,0.11265184,0.008328012,-0.0375949,0.05938024,0.36924598,0.120500386,-0.27552062,-0.093794025,-0.049630713,-0.049463127,0.043048374,-0.013121622,0.010465414,0.017137507,-0.12884319,-0.13939431,-0.07419472,-0.115423605,-0.11136981,-0.1922647,0.172297,0.21091613,-0.062076375,0.053341404,-0.07970642,-0.07173206,0.07260649,-0.011251878,-0.12936227,0.105258964,0.11947264,-0.14673305,0.17026432,-0.040250167,0.10397352,0.076355256,0.09864514
31,0.12788525,-0.117653266,0.004187228,-0.19097269,-0.17941624,0.07047955,-0.008904588,-0.089075446,-0.05108453,0.0058422647,-0.15986846,-0.08255039,0.067712225,0.0072306637,-0.21743728,-0.12762128,-0.20750335,-0.031624448,-0.11516816,-0.036929775,-0.1525468,-0.01619431,-0.1514519,-0.055395354,-0.07166649,-0.036208294,-0.20236522,0.1047934,-0.0035984868,0.081691705,-0.04551637,-0.047514837,0.03601245,0.0069069983,-0.19406284,-0.072192974,-0.53067625,-0.057639766,0.019844389,-0.36828122,0.0005755969,-0.23750062,-0.17750894,-0.010490515,0.051572625,-0.0960933,0.0075003356,-0.08991604,0.03265904,-0.013898312,-0.18429786,-0.13236926,-0.04682856,0.069558226,-0.086297534,-0.014473576,0.0018284408,0.043369513,0.017400732,-0.062864006,-0.035127465,-0.11649572,-0.04081915,-0.03545182,0.32080647,-0.050399505,0.09036337,-0.13379633,0.04840399,0.0053487057,-0.08607896,-0.23660254,-0.029441876,-0.16922864,-0.08603809,0.007620395,0.06566603,0.09267663,-0.070871025,-0.12359023,0.04466902,-0.47929877,-0.11927958,-0.19434126,-0.026349625,-0.08529035,-0.26134905,-0.06583249,0.24855089,-0.031865053,0.012394528,0.03414191,0.032580514,-0.16955513,-0.090547614,-0.019426981,-0.23326658,-0.19164248,-0.05227455,-0.15962057,-0.090823956,-0.15052827,-0.1282448,0.013990114,-0.12183912,-0.078832634,-0.012089269,0.0686946,-0.2054288,0.04999786,0.17858809,-0.16996811,-0.13097481,-0.16696891,0.013333429,-0.23668087,-0.14196266,-0.10042967,0.038123067,0.13245896,-0.20208362,0.027445957,-0.112852015,-0.1319213,0.076111384,-0.100090854,-0.0024646595,-0.043914918
32,-0.18328701,0.14621685,-0.02290115,0.057045545,-0.2258846,-0.27384344,-0.07093383,-0.086162634,-0.04941161,-0.019108253,0.0027384849,0.060519192,0.04468604,-0.22957015,-0.08435795,-0.13220626,-0.15707245,-0.13781215,0.29252008,-0.2178985,-0.51362205,-0.013808614,-0.08614917,-0.013719922,-0.24512228,-0.19792166,-0.07351396,-0.13760471,0.012469783,-0.091293514,0.004038943,0.011121914,-0.09499833,-0.03597054,-0.023834405,-0.16985327,-0.1971661,-0.14180814,0.0970483,0.043877244,0.113181286,-0.06390777,-0.058957152,0.07210482,-0.10586312,-0.16219433,-0.06978289,-0.044895224,0.057051644,0.041752916,0.09416963,-0.48394567,0.08056002,0.008645691,-0.020447021,-0.0025582793,0.032138597,-0.018003589,-0.11446781,-0.11589919,-0.06799684,0.08981404,-0.13986066,0.026109342,-0.8239839,0.0063631106,-0.34459764,-0.08028659,-0.010652892,0.008032947,0.05835796,0.017064378,-0.112857945,-0.5490483,0.02740331,0.014274572,0.08686073,-1.4624112e-05,-0.12943143,-0.3234754,0.14085303,0.2677018,-0.039124288,0.18337531,-0.019826476,0.030507179,0.13021076,-0.08797247,-0.27092057,0.5056519,-0.008364717,0.08943796,-0.14594303,0.023648892,0.05067654,-0.5626727,-0.121456705,-0.28897497,-0.14980975,-0.093470134,0.050080013,0.101059824,0.007591877,-0.22014213,0.0077031413,-0.08835758,-0.0025894318,-0.021598442,0.060311243,-0.060039613,0.06605416,0.10222714,-0.12871289,0.087687396,-0.07985806,0.11073981,0.047193754,-0.1680832,-0.08935858,-0.14756028,-0.07655989,0.04791984,0.07839231,0.04567124,0.022132367,0.061928947,0.219468,-0.10986934
33,0.065731734,0.22536041,0.27912194,-0.15487765,0.22356789,-0.07759236,-0.008975636,-0.15357904,0.016945058,-0.08230533,-0.18526724,0.11097714,0.13808618,0.029791623,0.04903925,-0.12766398,-0.009719785,-0.14102419,0.0009234128,-0.26056594,-0.08365735,0.08597901,-0.047149796,-0.061706576,-0.40872222,0.10782735,-0.022855453,-0.14314835,-0.112319134,0.06744172,0.15803272,0.16914538,-0.001256209,-0.04106066,-0.11564387,-0.10074713,0.39898401,-0.064146206,-0.07390381,0.438605,-0.112851076,0.19856451,0.10909159,-0.29448128,-0.23885973,0.11147866,0.033758745,-0.113164775,-0.090965316,0.25586873,-0.13293046,-0.3645976,0.015216537,0.023565494,-0.022701778,0.009339111,-0.39500496,-0.021146849,-0.08264532,-0.06667273,-0.08532711,0.13982707,0.007839797,0.02465934,-0.34908146,0.053967293,0.11301533,0.085184716,0.114520304,0.048692774,0.0054129157,-0.03660852,-0.16419847,0.31004393,0.07579352,0.07894212,0.21881603,0.104586005,-0.42255852,-0.41153187,0.0720027,0.23582143,-0.36162063,0.024267416,-0.30902177,0.12830421,-0.18681213,-0.2212032,-0.6806545,-0.20068902,-0.2295678,0.016763758,0.041089036,0.047363713,-0.0799733,0.08060519,0.049063202,-0.2954782,0.0991955,-0.06939646,-0.06919731,0.008797622,0.16363643,-0.14918546,-0.3972757,-0.13965596,0.11884915,0.05098354,-0.41405746,-0.19364655,-1.0782149,-0.06500428,0.03254516,-0.0050313333,0.034796167,0.010405411,-0.0032122412,0.041139994,0.011340204,0.0112319635,-0.19763139,0.058619935,-0.118805885,-0.065256596,-0.15128352,0.05211122,0.09553636,-0.031287752
34,-0.014686954,-0.10019051,-0.119245484,-0.17925403,-0.029077483,0.030016413,-0.20918952,-0.11774304,-0.19020846,-0.030890001,-0.09916369,-0.085521035,0.07687332,-0.020145228,-0.007866052,-0.10081719,-0.07616883,0.021499444,-0.043548837,0.06930074,-0.10395242,0.06394656,-0.24098565,-0.064671785,0.05100889,-0.23332341,-0.22852506,-0.111693956,0.054173872,0.05391526,-0.15349188,-0.07379967,-0.15108697,-0.15321064,-0.1943355,0.047992494,-0.37511542,0.041971777,-0.19043997,-0.07992902,0.026777104,-0.01623803,-0.061474934,-0.016253496,-0.09439838,-0.2527205,0.06645416,-0.025547057,0.030472618,-0.22165477,-0.21098012,-0.18492611,0.006813693,0.039002713,-0.16592678,0.08492331,0.047013674,0.06737228,0.13583268,0.2774857,-0.00040155786,-0.033332366,-0.018202722,-0.04811182,0.14853235,-0.007400348,0.02702047,-0.116485514,-0.086059876,0.03006522,0.046812754,0.00038141457,0.08487479,0.007065701,-0.18250124,-0.035511967,0.022864828,-0.04319443,0.08370937,0.099703275,0.0762585,-0.09978879,-0.043890942,-0.16919586,-0.08424493,-0.0869442,0.3271615,-0.19028215,0.17002138,0.06399036,0.25089592,-0.033186466,-0.25173092,0.06916378,-0.11622583,-0.16166247,-0.25524285,0.0073442697,-0.094977796,-0.06730412,-0.15202071,-0.1673937,-0.01562874,-0.17175697,0.026674954,-0.15526854,0.1868122,-0.12893873,-0.03363966,-0.17790127,0.07965235,-0.23759377,-0.10701279,0.06099037,-0.1092864,-0.006802636,-0.051503055,-0.019447898,-0.19104108,0.07960113,-0.27306002,-0.14687318,0.08059718,-0.18380928,-0.19328278,-0.0058467058,0.06388684,-0.20873518
35,-0.09959506,-0.05049319,-0.0045693726,-0.12904751,-0.2441422,-0.0075526824,-0.013815968,0.0048819757,-0.08866602,-0.033985227,-0.047692597,0.0047199796,-0.12708645,-0.012547785,-0.091961846,-0.20579833,-0.2019804,-0.009640563,-0.24435204,-0.19995175,-0.034080043,-0.14467934,-0.030319627,-0.043868072,-0.018490871,0.073294416,0.10375779,-0.21747072,-0.431274,0.046172626,-0.16901693,-0.021602765,-0.11989295,-0.23488237,-0.21783565,-0.13550912,0.055105004,0.061449684,-0.3712397,-0.23302782,-0.15798555,-0.07579493,-0.07854297,-0.3864449,0.01938458,-0.20904985,-0.19699575,-0.23900296,0.06591324,-0.061131235,-0.027513186,-0.34337857,0.07562585,-0.020323101,-0.24964193,0.026638243,-0.1756315,0.10828132,-0.7231228,-0.18702811,-0.38108185,0.21507138,-0.22256279,-0.046912547,0.34207985,-0.029210445,-0.12775841,-0.09612429,0.080851994,-0.10124637,-0.00022697501,-0.1868113,0.03615897,-0.43215755,-0.15198621,-0.103355646,-0.048852116,-0.12375193,-0.33795103,-0.19390029,0.073582344,-0.16691263,-0.25019655,-0.12612817,-0.647988,-0.220023,-0.5855481,0.068932556,-0.107518986,-0.492858,-0.3555719,0.01424964,-0.071672596,-0.09413307,-0.19641735,-0.08231616,-0.114426374,-0.17512468,0.08260183,-0.10637269,-0.091599844,-0.15491845,-0.0536764,-0.19753504,-0.34468073,-0.08021006,-0.13071586,-0.07909447,-0.3578937,-0.08417024,-0.55012614,-0.19961312,0.021185147,-0.14771792,-0.0017274681,-0.065134436,-0.017214825,-0.10468292,-0.33895817,0.12987602,-0.13743016,-0.20745416,-0.041256983,-0.028153932,-0.17934407,-0.051139154,-0.15109418,-0.16053648
36,-0.19170266,0.19258025,-0.017969664,-0.30452523,0.2982525,-0.26685545,-0.12448727,-0.08558321,0.059860785,0.094266176,-0.005231699,-0.206538,-0.05562536,0.018774472,0.059839353,-0.22354315,0.07416269,-0.13389279,-0.27043477,-0.5077357,-0.0275379,-0.10232623,0.11831413,-0.0847601,-0.16054998,0.06926535,0.051516514,-0.23446453,0.08009372,0.041072607,0.111500286,-0.13240455,-0.08605404,0.14911212,-0.083478466,-0.046246987,0.1967796,-0.16928478,-0.08662382,0.11014127,0.01805147,-0.10810955,-0.045311447,-0.35891184,-0.29609165,0.2390884,-0.115982495,-0.2657494,-0.13077322,-0.036439724,-0.10258445,-0.32990128,-0.025472663,0.035971884,0.0019723778,-0.05493683,-0.35229436,-0.07946963,0.090434104,0.018088669,-0.09611023,-0.20228137,-0.007383287,-0.048384346,-0.4185844,0.027218577,-0.057929773,-0.132342,-0.07206276,0.0048575783,-0.056806955,0.12404943,0.019778842,0.15383938,-0.11947659,-0.0066137626,-0.08749665,0.0961814,-0.14958291,-0.22284144,-0.16415824,0.067615695,-0.10356415,-0.0566637,-0.37870315,0.1604865,-0.026244989,-0.22187051,-0.14481536,-0.29845953,-0.24721661,-0.18845952,0.031957354,-0.046594437,-0.07580509,-0.09100879,-0.023166647,-0.040221967,0.08306446,-0.10557418,0.04827178,-0.098411806,0.008759597,0.0666384,-0.2690463,-0.079044215,-0.16328795,-0.21218401,0.002659997,-0.08617345,-0.33272606,-0.009509569,-0.15894905,-0.19526955,-0.14337528,0.03837625,-0.04254618,-0.20456657,-0.27825046,-0.022168813,-0.10019175,-0.05083557,-0.055411555,0.030549726,0.024142982,-0.032989517,-0.07273994,-0.21995726
37,-0.11195098,-0.05904195,-0.13534349,0.09929477,-0.14061153,-0.087449364,-0.12667468,-0.04765837,0.09223883,-0.16784301,0.06672002,0.009127515,0.091312446,-0.13514417,0.036049563,0.027052393,-0.029657077,-0.12049351,-0.16099328,-0.122755215,-0.105316766,0.05455323,-0.025400406,0.10376574,-0.21156928,0.031576592,0.014276414,-0.0010480314,0.12840346,0.057814922,-0.12057046,-0.16137469,-0.0877009,-0.20908237,-0.09759699,-0.107937865,0.26568827,-0.021911955,-0.084302925,-0.11701959,-0.06499171,0.027384324,-0.050124567,0.02933702,-0.1134853,-0.07292245,-0.05951745,-0.12810884,-0.14049031,-0.009347176,0.030675102,-0.06945857,-0.043822188,-0.13180281,-0.16025476,0.009445879,-0.26087397,-0.09571597,-0.11490922,-0.029254118,-0.10275317,0.08436538,-0.026360188,0.056097273,-0.10864137,-0.040476076,-0.14773656,-0.04898217,0.04625196,-0.013750028,-0.1941537,0.030537158,-0.19304219,-0.08834542,-0.17021303,-0.066146106,-0.06367001,-0.039061375,0.08747268,-0.21375865,-0.17142516,0.24160083,-0.050155167,0.08542431,0.06232599,-0.12536038,0.00903875,0.0010699205,0.0016227964,-0.035780273,-0.10904654,0.08447923,0.0072253817,-0.106374845,-0.1520364,-0.12753713,-0.18190616,0.04058862,-0.13119368,-0.1656569,-0.13436833,-0.003573471,-0.18471155,0.035355385,0.04943671,0.05720557,-0.094622724,-0.028531047,0.036401916,-0.081436545,-0.01011786,-0.14560647,0.015041512,0.01827938,-0.13828775,0.039481256,0.057221476,-0.0911053,0.08689553,-0.05629231,-0.04729558,0.025226148,-0.18081555,0.045923166,-0.07027165,-0.0569159,-0.15361568,-0.2510103
38,-0.16973537,-0.2413499,-0.068055004,-0.22702146,-0.08892983,0.16559812,0.017128501,0.12512802,-0.17741323,-0.08012447,0.17964362,0.031291172,-0.054261137,0.06621927,0.07326345,-0.0722491,-0.10368734,0.09568812,0.010478604,0.25153518,-0.19414836,0.12728357,-0.17413004,0.056137074,0.0054689683,-0.08886971,-0.23536342,-0.059352398,-0.11234802,0.11108069,-0.03859927,0.12548243,-0.049227968,-0.16354147,0.041366648,-0.030880067,-0.06088702,0.0879301,-0.150766,-0.13542262,-0.02008082,-0.08645418,0.12998597,-0.104468174,0.062576085,-0.15121959,0.15490831,-0.16715339,-0.1601027,0.15140834,0.06442954,-0.060662903,0.007652547,0.011264832,0.14536187,-0.004249811,-0.2446158,-0.08968533,-0.06536577,0.0089199655,-0.17197476,-0.14084525,0.010088484,-0.08601997,-0.11460457,-0.16869417,0.2681693,0.16561358,-0.033306517,-0.026032867,0.056418575,-0.08285108,-0.23742667,-0.4297642,-0.08828218,-0.052720916,0.02611631,-0.06034679,0.91682935,-0.028864756,0.024096545,-0.024651837,0.0058171027,0.06719817,-0.024516417,-0.118016526,0.16798267,0.2657195,0.7694948,0.23377793,0.09355809,-0.010284302,0.06987284,-0.053389978,-0.27089214,-0.26271066,0.089754224,0.17381707,-0.005625072,-0.20544481,-0.120686986,0.070287965,0.018300517,0.020915354,0.1111841,-0.09275832,-0.037105992,0.14088975,-0.13780095,-0.21354835,0.45494363,-0.121213295,-0.10087044,-0.102217466,0.097089715,0.022769123,0.20822617,0.019445146,-0.086767554,-0.197189,-0.028939787,0.13222937,0.26317197,-0.033779997,-0.09645972,-0.16828871,0.09311355,0.16585751
39,-0.018168228,0.14776663,-0.12634665,-0.07944517,0.118961304,-0.5472425,-0.17271245,0.077994496,-0.027253276,0.1556861,-0.18863952,-0.17966677,0.041760523,0.1451934,-0.012146845,-0.18956722,-0.044005677,-0.17498904,-0.07258385,-0.29497156,0.12761042,0.08830456,0.14232838,0.08189041,-0.25916243,0.08172537,0.0050261207,0.08595122,0.019583346,-0.12477685,0.28229117,-0.13096541,-0.02137521,0.043374125,0.04328161,-0.045632884,0.14865293,-0.041216016,-0.16990122,0.16837417,0.08007923,0.11669677,0.022560846,-0.39502758,-0.05293073,0.17465925,0.03480187,-0.047327135,0.025437662,-0.009105157,-0.2342184,-0.31013727,0.064166516,-0.09042672,0.12267223,-0.08386356,-0.19730474,-0.09235823,-0.028845435,-0.16103746,-0.11517922,-0.024852926,-0.008392554,-0.13580395,-0.43364033,0.048315804,-0.2702765,-0.12905166,0.122246616,-0.13765627,-0.16325502,0.070341185,-0.108281426,0.31756964,0.021436507,-0.20435013,-0.20195661,-0.11839994,-0.35084724,-0.025925756,-0.13012475,0.1221634,-0.18924463,0.023522766,-0.19720364,0.083935134,0.13662186,-0.28925976,-0.17418797,-0.1338725,-0.08740342,0.009162976,-0.07255128,-0.107353486,-0.03317433,0.2382405,0.1462941,-0.015204973,0.08001009,0.008572919,-0.048381306,-0.12037272,0.09024556,0.1282162,-0.20737703,-0.16742177,-0.036699764,-0.061989326,-0.16108833,-0.07658578,-0.28911084,-0.027276598,0.052480783,-0.21177174,-0.19722278,-0.018465603,-0.19852178,-0.1217569,-0.10215235,0.15717335,0.04853122,0.08018014,-0.16034861,-0.07245077,-0.07726013,-0.04073965,-0.014126556,-0.1847128
40,-0.052556492,0.14649811,-0.064527296,-0.07673473,0.16417433,0.14503114,0.11702316,0.0022550526,0.0017338127,-0.011958318,-0.08323422,-0.104319155,-0.022251312,-0.1811054,-0.119492285,0.112812534,0.06973957,-0.15509954,0.03891889,-0.054714337,-0.2561017,0.034060445,0.18130955,0.034558803,0.35783404,0.007273921,0.24331015,-0.058818433,-0.21413796,0.07055028,-0.06537327,-0.059007425,-0.12391274,-0.057190176,-0.077107996,0.09677499,-0.28227288,0.09851048,-0.04548407,-0.040731113,0.018097335,0.026158594,0.003721383,-0.22241254,-0.19384941,0.0897931,0.048218805,0.0407121,-0.019307548,-0.07129874,0.048728064,0.30975124,-0.17745245,-0.0021956915,-0.13701947,0.010428789,0.038209025,0.18401147,-0.12820046,-0.17609796,0.060896024,0.04186327,0.10266086,-0.04218159,0.19868062,0.05617659,-0.23668857,0.11951242,-0.124219045,0.043187845,0.07849251,-0.04191632,0.04028211,0.14340027,-0.06453454,0.02207676,0.17645803,-0.015803821,-0.5399213,0.16295165,0.09800391,-0.45150238,0.22726613,0.1522197,0.32290226,0.1042035,-0.13990903,-0.034957048,0.3761771,-0.245539,0.11999099,0.083382525,-0.08020163,0.2451934,-0.13029285,-0.14780726,-0.14634891,-0.25088203,0.1666587,-0.15884495,0.02117101,0.022770636,0.1672545,-0.09528257,-0.45031676,-0.021508235,0.4136807,-0.0013980196,-0.04276717,-0.040050935,0.55835783,0.12120826,0.10723815,0.21400753,0.04338657,-0.12912071,0.13081768,-0.16212426,0.016065074,-0.23409437,0.012568365,-0.050036553,0.116893396,-0.13985497,-0.21874331,0.091746904,0.2666805,-0.04368807
41,-0.16292831,0.16546538,-0.14950025,-0.059042733,0.09598677,-0.20404196,0.00019680831,0.16456561,0.069983505,0.15284792,0.019743716,0.02125946,-0.1663527,0.0020691922,0.11955741,0.012019381,0.025621526,-0.07560215,0.13673338,-0.28579473,-0.029694889,-0.0144210635,-0.076143876,0.06721246,-0.78494054,0.13392131,0.13462935,-0.14203198,-0.30709103,-0.123624645,0.015147995,0.051587623,0.09018962,0.09720637,-0.11387536,-0.53918105,0.07451418,-0.110844515,0.015084847,0.043928254,0.10020672,0.037686627,0.037826963,-0.23937559,-0.6135847,0.0692925,0.076387525,-0.0051523065,-0.23636554,-0.03738063,-0.1310807,-0.045760296,-0.019668387,-0.09097073,-0.021971658,-0.071075134,-0.44384038,-0.26089245,-0.120486096,-0.12872769,0.095278494,0.1347911,-0.19450334,-0.04485462,-0.7134098,0.015662182,-0.26052803,0.054943472,-0.09985873,0.06847565,-0.17461047,0.123543814,-0.10761161,0.06296752,-0.031738676,0.027125856,-0.12915502,-0.16202748,-0.48146033,-0.36011484,-0.19410852,-0.03247745,-0.4808683,-0.11682953,-0.080564044,-0.016389353,-0.4132614,-0.19182585,-0.5014271,-0.7518102,0.104978204,-0.04809601,0.06487425,-0.12120053,-0.14974321,-0.18602893,0.115056366,-0.5878853,0.011360608,0.010251401,0.044776283,-0.16735832,0.050739944,-0.085558444,-0.4382051,0.13831548,-0.3216568,-0.14550735,0.1261251,-0.11456884,-0.47387123,0.11116665,0.016798817,0.044772938,-0.011937367,0.15018578,-0.012705005,0.00760769,-0.04337949,-0.40106297,-0.12991622,-0.10591155,-0.22563569,-0.121346265,-0.12307122,0.120242946,0.3725374,-0.06033857
42,-0.10635959,0.028229248,-0.16062655,-0.04577936,-0.114563234,-0.09857567,-0.060045995,0.08856078,-0.076992586,-0.062409546,-0.010584587,-0.12049923,-0.21124567,-0.1710471,-0.1548165,0.06847522,0.059260655,-0.0694815,-0.23547006,-0.09373973,-0.17354257,-0.16271836,0.004093231,-0.1321424,-0.39157355,-0.16911688,-0.18945526,-0.19226715,0.22431615,0.04205575,-0.19568421,0.062492564,-0.09384016,0.07816977,-0.056118578,-0.12579115,0.049771514,-0.17769194,0.09540017,0.063173056,-0.04294188,-0.18359901,-0.18127117,0.098487675,-0.20728217,-0.064642794,0.023623105,-0.22000508,0.21374497,-0.1313235,-0.014112123,-0.025510028,-0.10273894,-0.022718986,0.046125896,-0.035045378,0.018776624,-0.17220764,0.15570964,0.105194904,-0.14304121,0.0072042113,-0.005552772,-0.13307746,-0.23149821,-0.091042385,0.009825542,-0.05361709,-0.013557331,-0.11281799,-0.101496145,0.0110711055,0.044471424,-0.0090197055,0.037224434,0.0648504,-0.01949644,-0.16027822,-0.1901255,-0.13929796,0.04175675,0.1158717,0.0063370382,-0.012449921,0.0811306,0.053283013,0.16280968,-0.15340783,-0.048468526,0.012202852,-0.1813767,0.04875396,-0.11333796,-0.08416953,-0.120587125,-0.15975624,-0.19317175,-0.0974663,0.072188675,-0.061091583,0.03208943,0.033095222,-0.2019324,0.06954611,0.28754318,0.041146655,-0.101526044,-0.069296375,0.22379392,0.01162206,0.072912574,-0.073833294,0.102535546,-0.1538663,-0.14317633,0.07407462,0.040580314,-0.05660642,0.060258254,-0.2074139,-0.10382136,-0.021445928,-0.12408659,-0.17678523,0.039670166,0.10545176,-0.13351032,-0.090798326
43,0.14516765,0.18305638,-0.1411316,-0.17954269,0.0032947466,-0.20864879,-0.014339982,0.053861547,0.030689748,-0.16369751,0.11410254,-0.13340768,-0.036366608,-0.22532977,-0.15464556,0.05068443,-0.31096324,-0.15569562,-0.2087242,-0.065883696,-0.08655647,-0.12523988,-0.028434496,-0.012229682,-0.12915367,-0.10059421,-0.05519363,-0.03400237,-0.071178935,-0.24044089,-0.04379472,0.084749505,-0.11558601,0.0027277875,-0.009575001,0.04813449,0.1549356,-0.15149099,-0.2166924,0.11154572,-0.08092191,-0.07346663,-0.13779667,0.3370837,0.29613602,0.064461894,-0.10911637,-3.844235e-05,-0.074091114,0.03351256,-0.30504248,-0.049003378,-0.11193905,-0.01039346,0.057407945,0.082074836,-0.013194854,-0.20133716,0.8210026,-0.02185237,-0.21906094,0.12635282,-0.12885338,-0.07505432,0.11741839,0.0026998997,-0.10534846,-0.13206464,-0.08859584,0.034908112,-0.004318805,-0.29563588,-0.27110967,0.05740687,-0.010483379,0.051191457,-0.0786432,-0.015295777,0.060837876,-0.08555549,-0.0046026115,0.41307142,-0.1246969,-0.11414138,0.024887582,-0.15743592,0.39377218,-0.26510838,-0.22443235,0.24669869,-0.12753484,-0.09910725,-0.24354883,-0.12562706,-0.101922035,-0.081114665,0.036986697,0.37688664,-0.0928433,-0.1033383,0.01114943,-0.12842089,0.028273927,0.026874227,0.58867246,-0.033199918,-0.26932025,0.035804316,0.16941547,-0.080509566,-0.22338149,-0.2166988,0.15408182,-0.10399053,-0.26550412,-0.14898084,-0.20316336,0.04954391,0.06634983,-0.071436696,-0.40022483,-0.21130827,-0.08355897,0.06958671,-0.23532514,-0.24951567,-0.13287145,-0.24883088
44,-0.22583549,-0.28529692,-0.1995789,-0.26204044,-0.24617095,-0.25720862,-0.059907563,0.042972416,-0.15132251,-0.24345851,-0.0017569828,-0.09964281,-0.06998856,-0.061921597,-0.015735121,-0.04413219,-0.11707878,-0.08900941,-0.33952647,-0.6356565,-0.19208477,0.054942068,-0.22885205,-0.058737773,0.2247675,0.042972047,-0.7484394,-0.004583001,0.13731112,-0.048594706,-0.3130465,-0.004380459,-0.015187005,-0.042857196,0.07770906,0.04681093,0.040173903,0.058682106,-0.037132118,-0.05922024,-0.1619362,-0.12619826,-0.11914248,-0.3322628,0.037038613,-0.038639057,-0.26398206,0.013838801,0.09801819,-0.12516347,0.020301947,0.18812917,-0.23142754,-0.0557573,0.11416156,0.05073188,-0.32502362,-0.6015657,0.016494622,0.10017208,0.012653621,0.056861036,-0.17504945,-0.078383066,0.18689868,0.047695242,-0.014328839,0.041692868,-0.061617006,-0.020963319,-0.047070168,-0.13073584,-0.333274,-0.75843334,-0.03483653,-0.15274225,-0.23277387,-0.10398944,0.0992131,-0.33762434,-0.0060700397,-0.14083757,-0.3994936,-0.21590324,-0.118715,0.025424266,-0.048598833,0.18117931,-0.3796296,0.4072233,-0.28143522,0.12242368,-0.17370658,-0.06718425,-0.23785484,-0.021826351,-0.12753595,0.15960611,-0.1459736,-0.027043253,-0.52000034,-0.0053569647,-0.0021645112,0.003768972,0.33932284,-0.091989115,-0.7719043,-0.21709955,0.19850482,-0.17210566,-0.54975396,0.42689243,-0.17777334,-0.16975538,0.01861469,-0.127876,-0.0065717697,-0.13144557,0.042159665,-0.16959788,0.026289674,0.06360441,-0.06250256,-0.21932498,-0.18555465,-0.056564163,-0.6195863,0.034082294
45,0.08693523,0.06218411,0.1356221,0.1755406,0.037105657,0.04527063,-0.009618525,0.13322961,-0.19944759,0.057164494,0.0462721,0.0583792,0.067314774,0.12553295,0.09657745,0.07093402,-0.16560322,0.15942675,0.014790115,0.004119711,0.20875408,0.04710996,-0.051173702,-0.106617175,0.16488925,0.09344682,0.07514169,0.0059601096,0.0738991,0.05639949,0.15039715,0.07553029,0.29684687,0.0023994895,-0.06672543,0.18567514,-0.058030706,0.0630138,0.05135966,-0.16760628,-0.074407056,-0.023327788,0.20622535,-0.15257663,-0.16290767,0.12205367,0.20856896,-0.057312664,0.111918084,0.05693509,-0.21190159,0.011350838,-0.026086792,0.045070317,-0.23862933,0.14200437,0.054167412,0.07015488,0.24385226,-0.3245391,0.061268948,0.13907102,0.064499766,-0.009604002,-0.13980706,-0.054874267,0.12180266,-0.040581875,0.047410183,0.14516218,-0.14029989,0.04239746,-0.21252652,0.09235114,-0.07868856,-0.003199224,-0.034591038,0.15878308,0.39311543,-0.020269776,0.043186635,0.017892936,-0.040061884,0.20286149,0.058364,0.009274155,0.11179273,0.10964981,-0.13033378,-0.016423406,-0.29411137,-0.02113479,-0.11522904,0.14246157,-0.15389307,0.2589038,-0.056316,0.07165925,0.09750935,-0.032080352,0.14457488,0.048201777,-0.01899047,0.015612162,-0.14358252,0.134224,-0.20968466,-0.034506794,-0.1157307,0.14348175,-0.34142613,0.16021849,0.15138268,-0.0007957501,0.070578255,-0.07786009,-0.051359866,0.083263785,0.27476418,-0.05718591,-0.04284315,0.07058211,0.05767869,0.058257684,0.02837362,0.02022287,0.17945848,-0.16941601
46,-0.18540059,0.08896661,-0.09780135,0.06929201,-0.055827033,-0.17375998,-0.116140194,-0.18191558,0.075157076,0.016818449,0.12298939,0.08833947,-0.039151933,-0.025542026,-0.18019687,-0.0030507452,-0.018085927,-0.017439693,-0.022287,-0.09259261,-0.0072955675,0.052968483,-0.0066383374,-0.13949688,0.034711223,-0.16867135,-0.035370238,-0.16858919,-0.028408162,-0.023802124,-0.15165998,0.07529674,-0.13755818,0.042666588,-0.12425302,-0.14703234,-0.19695964,0.034400947,0.0812516,-0.14828685,0.055906378,-0.17924605,-0.021070836,0.0042292397,-0.13470633,-0.0072513754,0.069215134,-0.1488996,-0.16125545,-0.020582471,-0.21042448,-0.059383597,0.051637184,-0.18151963,0.031546533,-0.13078861,-0.13123062,-0.10785392,-0.08556498,0.06754562,0.046352208,-0.06736626,-0.20714413,-0.1322674,-0.13083048,-0.18501936,-0.080554865,-0.0018878832,-0.107306324,-0.10780812,0.086955905,-0.0734726,-0.23128541,-0.11085326,-0.11359111,0.078160785,-0.15670553,0.047787704,-0.112055935,0.029815951,-0.11311291,-0.04444983,-0.110555075,-0.1362562,0.047707476,-0.078185834,-0.21442886,-0.14850366,-0.13936315,0.04608709,-0.16403165,-0.016253443,-0.098407485,0.11863618,-0.064426534,-0.037449855,0.023499725,-0.041426055,-0.039559778,0.036878865,-0.032283682,0.041844595,0.008909316,-0.053537276,-0.1795808,-0.21023643,-0.10433691,-0.11834574,-0.18702829,-0.115094274,0.011326903,-0.10941645,-0.1718175,-0.032089297,0.03651642,0.020290183,-0.062283568,-0.19109921,0.01239504,-0.20678653,-0.07557069,-0.09765557,-0.19404545,-0.020484839,0.021617144,-0.15639116,-0.14226805,-0.0767842
47,0.03361418,0.0319661,0.22108778,-0.043347776,-0.03404656,-0.06591762,-0.0020276497,0.19371292,0.03876281,0.09925789,-0.08124213,0.0993529,-0.08156377,0.03846331,-0.08033945,0.16114545,0.15889017,-0.054146018,0.2564158,-0.0271428,0.12106023,0.17913072,-0.013610402,-0.07979504,0.02549642,-0.01848628,-0.34527045,0.07142411,0.6480375,-0.07928871,-0.15086335,0.20203808,0.12087566,0.08025903,0.23088019,0.09825352,-0.123808585,-0.030793762,-0.18428472,-0.11910581,-0.072846174,-0.037425894,0.039052486,-0.043507066,0.09130533,0.01784526,-0.046250638,-0.03245187,0.22276697,0.1566186,0.033297367,0.1508861,-0.05132406,0.009944549,0.04247724,-0.0128784245,-0.28512767,0.058320235,-0.05722939,0.05777101,0.07466908,-0.11717099,-0.08485876,0.02990748,-0.24768148,0.2041748,-0.106881045,0.07827752,0.11541509,-0.020252202,-0.1686927,-0.20657463,-0.3306449,-0.6031939,-0.1294429,0.071049236,0.20774177,-0.040332083,-0.3647918,-0.08248335,0.19470681,-0.31099552,-0.3353327,0.016341457,0.097689494,-0.0010433621,-0.14987743,-0.076529,-0.14849718,0.10847366,0.07909499,0.087342516,-0.06960562,-0.014349254,0.19715317,-0.12462641,-0.043392725,-0.034036495,-0.0013714372,0.16491888,-0.11181573,-0.08680847,0.12356151,-0.06913813,0.37102145,0.022311745,-0.2838175,0.15662469,0.45225146,-0.06000065,0.16590054,0.07384416,-0.06460517,-0.040485617,-0.08528833,-0.034370173,0.11628537,-0.046272848,0.262709,-0.080179706,-0.028821874,0.06945858,0.3910625,-0.086024866,0.11878712,-0.033802725,0.23215206,0.019199003
48,-0.2102395,0.52086246,0.04893056,-0.059384707,0.08627134,-0.08913503,-0.040123656,-0.06316942,-0.15017338,0.048460867,-0.094613746,-0.08226736,-0.09624185,0.15989992,0.07843029,-0.10607277,-0.0023030941,0.015265191,0.0982358,-0.31655326,-0.22982973,-0.21197908,0.07089765,-0.0357604,-0.033702012,0.06228924,-0.116692424,-0.061785538,0.2260182,-0.048788205,0.020541633,-0.1011772,-0.15602084,0.16291855,-0.033658966,-0.13547535,0.12042005,-0.12006551,-0.060599502,-0.021305671,-0.14227758,0.23870446,-0.037915602,-0.091699675,-0.32509395,0.09298174,-0.18746781,-0.1370168,0.19741341,-0.12613022,0.065029524,-0.11322406,-0.112760805,0.046102732,0.008766362,-0.17440511,0.053758465,-0.19734079,-0.27125904,0.095192544,0.027406618,0.27151385,-0.06458123,-0.1747981,-0.40012497,-0.108604684,-0.29198533,0.07176476,-0.05364738,0.035019286,-0.011757185,-0.21574347,0.006679152,0.31022274,0.010238003,0.30125368,0.0026493357,-0.05482749,-0.015193735,-0.11308902,-0.03302325,0.038844954,-0.06981099,-0.03287002,0.045317363,-0.0017785216,-0.41668436,-0.06635796,-0.3356566,0.07641722,-0.11660212,-0.15310979,0.055409964,-0.0993904,-0.10639294,-0.367849,0.04122964,-0.50201136,0.05417895,-0.13544266,-0.102581844,-0.11273271,-0.13930938,0.02783092,0.1769631,-0.062086225,0.021461634,-0.1143863,-0.110612996,-0.09876858,-0.008161986,0.12425144,0.33231312,-0.15722476,-0.09600222,0.038758557,-0.116887234,0.09598574,-0.12573332,0.043552894,0.010743499,-0.013117891,-0.12818518,0.047900975,-0.116207734,-0.07548131,-0.14812095,-0.00021588831
49,-0.16273606,0.035980467,-0.12138134,-0.17088363,-0.042327695,0.02984237,-0.16125344,-0.034430332,-0.13294229,-0.09482362,0.11046968,-0.15712492,-0.06747977,-0.07782823,-0.14667039,-0.19690341,-0.020943131,-0.21019726,-0.13633223,0.083240606,0.06118904,0.041704968,-0.007939177,-0.2358729,-0.22580728,0.056370363,-0.15343231,-0.103417456,-0.2038152,-0.03610685,-0.19399473,-0.009683209,-0.1854052,-0.12851982,0.060961515,0.012873266,-0.14638086,-0.1636781,0.16468762,-0.18289424,-0.0019315719,-0.19073977,0.05523055,0.06928793,0.08576109,-0.15393476,-0.006993654,-0.047816135,0.03129731,0.048210356,-0.16430487,-0.016654374,-0.035702743,-0.15854052,-0.026823813,0.0026987335,-0.17021154,-0.048157956,-0.11257302,0.12657842,-0.20908277,-0.028171761,0.0012459178,0.041832227,-0.3421927,0.089370765,-0.015525281,0.052591532,-0.01020033,-0.16150507,-0.07750051,-0.10966068,-0.021550477,0.046567332,-0.04872494,-0.011858325,0.02939491,0.055483937,0.025968995,-0.067556605,-0.15562578,-0.3097682,-0.1192945,-0.07677285,-0.127334,-0.119827785,0.108535975,-0.18914236,-0.07437906,-0.020521872,-0.21827918,-0.0031080348,-0.15532817,-0.19367869,-0.19174048,0.059811004,-0.1278788,0.05514465,0.008030561,0.017518261,-0.09985424,0.08784895,-0.027197015,-0.15507041,0.03746783,0.06794248,0.02648627,-0.21156648,0.027943578,0.04671058,-0.20807043,-0.1958179,0.015777934,0.08383569,0.039718047,-0.06795973,0.013978625,-0.07041498,-0.17639217,-0.11089648,-0.12793489,-0.17770274,0.019368364,0.007556276,-0.05099342,-0.16733702,-0.19502512,-0.14155254
50,-0.10998501,0.16602142,-0.017957492,-0.083898984,0.08569738,-0.13426426,0.06078041,-0.01596766,0.07337264,0.025800442,0.013508475,0.054803472,-0.016328262,-0.032392606,-0.17689776,-0.012939844,0.034840155,-0.11700355,-0.049242705,0.10062155,-0.05678272,0.059840307,-0.081982285,-0.14164469,-0.06814943,-0.012793529,-0.05474705,-0.07802873,-0.13635962,-0.038969312,0.05634182,0.054706126,-0.032015957,0.13551323,0.16966407,0.037867222,-0.22733593,0.09054148,0.05110651,0.023624048,0.10035612,-0.08210261,0.038588572,0.08619858,-0.17645311,-0.035429742,0.16018662,-0.008842879,-0.096301384,-0.03487996,0.067653015,-0.056190826,-0.09925863,-0.08874356,-0.17280725,0.18400806,-0.023967927,-0.20842929,-0.30412528,0.018851008,-0.15931448,-0.22746305,0.004379128,0.09237745,-0.19111377,-0.053627826,0.12217515,0.12085658,0.053207085,-0.16667593,0.011342595,0.1671321,-0.021706637,0.030811174,-0.020470094,-0.06375501,0.15497561,0.03843864,-0.16673103,0.022935854,0.20476545,-0.017343327,-0.00031152007,0.14652045,0.12996861,0.090752296,-0.17204063,-0.07751943,-0.33940592,0.025336066,0.02056115,0.067115664,-0.04741847,-0.1338994,0.08243477,-0.050700024,-0.01449069,-0.04898606,-0.083373286,0.08739074,0.05416635,0.08036536,-0.03614283,-0.13300833,0.03750335,0.28673327,-0.12513594,0.056968823,-0.112990834,-0.03388274,-0.110463396,-0.07292171,0.02450682,-0.021200644,0.0577143,-0.047682807,-0.020133404,-0.05438952,0.18214352,-0.027266715,-0.12961727,-0.044312593,-0.021011923,-0.203197,0.059151426,0.093550295,0.049053635,0.060859423
51,-0.08942603,-0.27579796,-0.17149936,-0.03512156,-0.21289007,0.18401456,0.024470303,-0.288692,-0.13652836,-0.054479647,0.14668179,-0.08952945,-0.030354409,0.08908879,-0.09457217,-0.24357589,0.041397635,0.09609456,-0.5856549,0.5874486,-0.011871434,0.10431314,-0.098004304,-0.12774299,0.76512563,-0.009131339,-0.6227451,-0.033685755,-0.08190579,0.090901695,0.021620411,-0.21076864,-0.007380589,0.039217085,-0.013386866,0.65433943,-0.1596926,-0.0038183287,0.10935455,-0.06500259,-0.16060938,-0.04226636,-0.2137931,-0.35371137,-0.17693642,-0.0901616,-0.017342163,-0.20126976,-0.23295501,-0.05641611,0.018820021,0.1221588,-0.09137378,-0.060003616,0.10558202,-0.02632219,0.00879118,-0.56308293,-0.14768453,0.052978463,0.061710764,-0.019172087,-0.13667335,-0.15201937,0.07985211,-0.08819095,0.303328,0.048412398,-0.07868974,0.11762865,-0.060606845,0.008410615,-0.12158681,-0.10474338,-0.028652746,-0.13801926,-0.126375,-0.029314341,0.15505034,-0.07155737,-0.10856341,-0.3157518,-0.32078984,0.009145751,0.23893248,-0.16686803,-0.26610377,-0.09712079,-0.09745183,-0.13773164,0.055606857,-0.0585356,-0.040966604,0.1875755,-0.19359851,0.15511994,-0.18739595,-0.073799536,-0.053335372,-0.16819766,-0.37686056,-0.16002072,-0.08107204,-0.14839618,-0.25546426,-0.1992189,-0.32587588,-0.048923988,-0.18620875,0.024652159,-0.094659425,-0.27078918,-0.2280373,-0.29470503,-0.019771744,-0.08754066,0.18310963,-0.08860825,0.37174404,-0.18112838,0.094206125,-0.08698479,0.34305626,-0.10524609,-0.13923393,-0.24423899,-0.50288,-0.16507015
52,0.06744509,-0.105960876,0.16041416,-0.1142539,-0.19147784,0.030994654,0.04815429,-0.055233017,-0.10783426,-0.18102662,-0.15540563,-0.10757477,0.1722633,0.10032869,-0.14929613,-0.17023528,-0.19362326,-0.06632204,-0.074074656,-0.030337743,-0.07853012,0.13568513,-0.11925782,0.079834566,-0.1694727,-0.15402755,0.004643688,-0.031655177,0.089333996,0.036169283,-0.030689172,0.17706491,-0.13191172,0.014803409,-0.06553619,-0.29623705,-0.09554291,0.04589988,-0.16261251,-0.10591617,0.05028415,-0.09049411,-0.042884625,-0.031691633,-0.004865883,0.04223494,-0.087383844,0.03360241,0.1175056,-0.041373227,0.028301207,-0.08050021,0.0063301832,0.0958426,-0.15830322,0.17684734,0.12288241,0.0597787,0.22362183,0.15090472,0.032191366,0.20253198,0.11406355,0.13555247,0.16008748,0.1068998,-0.0067295325,0.11582897,0.16192934,0.037568923,-0.045067366,-0.21929274,0.0020460573,-0.25649732,-0.014656272,-0.17207612,0.16838934,0.019484648,-0.06094384,-0.049424276,0.18014395,-0.025119027,-0.13134976,0.13549317,-0.061868295,-0.14855924,0.018883655,-0.09262016,0.054496888,0.2552387,-0.16269247,-0.09505112,-0.14564995,-0.12736152,-0.024194453,0.12388128,-0.06933318,-0.044102013,-0.11722158,0.020112969,0.06495688,0.04323715,0.007193196,0.16838586,0.22042507,-0.22459194,0.14100082,-0.051429,0.14622003,-0.1798431,0.06123521,0.16463016,-0.022656417,-0.07493645,0.05002186,-0.17626345,0.073518656,-0.018515775,-0.10035639,0.14059654,-0.22058137,0.20189454,0.15261875,-0.1788345,-0.076830745,-0.07449313,0.032787103,0.033883423
53,-0.07954725,-0.06727079,0.09258548,-0.18439463,-0.042892713,0.12549177,0.06193533,-0.096147455,0.09355141,-0.048426855,-0.011605361,-0.01733399,0.026963526,0.09733621,-0.11994451,0.1145713,-0.100757115,-0.015715139,-0.113179244,0.008373012,-0.07601194,-0.030383991,0.064881854,0.07343498,-0.18893616,0.087650046,-0.18266056,-0.08128568,-0.017782152,-0.08855892,-0.013495806,0.005814019,-0.05535681,-0.10385083,-0.020604162,-0.15603937,-0.09992274,-0.063461736,-0.08321144,-0.18396543,-0.10027864,-0.09573658,-0.1838784,-0.113722496,-0.05785623,0.018536815,-0.0739573,0.053416226,-0.060527314,-0.022176316,-0.023388159,-0.09663805,-0.04102374,-0.19229347,-0.16255695,-0.16377363,-0.17521638,-0.03093095,-0.19234365,-0.16034603,-0.0018992766,-0.20414716,-0.08198054,0.04769905,-0.22146259,-0.090615556,-0.07907081,-0.05767894,-0.06653129,0.06783953,-0.14989643,0.12568696,0.055432633,-0.05280212,0.0248005,-0.049772054,0.0769264,-0.08180762,-0.24528605,-0.09073024,-0.18317509,0.002008877,-0.04353653,0.0842984,0.052583728,-0.021668382,-0.1989112,-0.12057098,-0.010438995,-0.17019193,-0.2012521,-0.201935,0.12056366,-0.13606933,-0.007780062,0.036287963,-0.12819172,-0.18382792,0.06780526,0.027504044,-0.20032005,-0.18211414,0.04391592,0.1084587,0.013903981,0.13061787,0.032380756,0.10877589,-0.1730772,-0.16269016,-0.16395958,-0.0824443,-0.014199444,-0.073815286,-0.07600546,-0.10034305,-0.065602675,-0.03704086,-0.2093171,-0.17841785,0.039617613,-0.09508705,-0.16075905,0.026935654,0.1106076,-0.014220494,0.019594727,-0.12058996
54,-0.23300534,-0.11180864,0.11181955,-0.11618014,0.024454214,-0.41113117,0.14533456,0.15861066,-0.018233187,-0.04356067,-0.08450262,0.08572122,0.0637937,0.13208663,-0.08516155,-0.09124864,-0.07511924,-0.07595852,-0.14601138,-0.64503735,0.05194044,-0.010573887,0.006351216,0.09084305,-0.37767228,0.1449102,-0.20503613,-0.052942343,-0.14260386,0.027905263,-0.04797967,0.13413839,-0.08295489,-0.16957583,-0.109982595,-0.4613112,0.15084715,-0.06013571,-0.11026783,0.2629505,0.016064972,-0.042144552,-0.04582539,-0.11376136,-0.065948494,0.031373274,-0.060686346,0.050139718,-0.20343858,-0.07833406,-0.21607587,-0.15816164,-0.12690349,0.05076969,-0.047872066,-0.097651355,-0.27584454,-0.2645901,-0.18075326,0.035935204,-0.17474568,-0.36568704,0.0827353,0.17386004,-0.51777434,0.15839572,-0.12991679,-0.10338747,-0.10458509,0.10653234,-0.11937897,-0.012012584,-0.12726136,0.6213062,0.12583742,-0.076688096,0.044157334,-0.062408533,-0.20106378,0.090281345,0.0065089143,-0.050028723,-0.18007126,-0.074347034,-0.5044825,0.059639018,-0.049853936,-0.0330506,0.21526335,-0.2821671,0.00443974,0.20790572,-0.056330513,0.014190342,0.011204939,0.019026518,-0.15735629,-0.18729143,0.01174539,-0.0633398,-0.14563546,0.024929479,-0.0581553,-0.030467678,-0.53484493,-0.044481397,-0.1463799,0.0025468054,-0.39578533,-0.07580536,-0.56014663,0.12848596,-0.013216822,0.17570177,-0.07175425,0.06635421,-0.168214,0.10683249,-0.2659432,0.0086706905,0.040223032,0.09623933,-0.017075716,-0.091229275,-0.093062244,0.120161116,-0.13347548,-0.18660155
55,-0.1448723,0.021607371,0.10417645,-0.19553246,0.033509042,-0.11929599,-0.1848659,-0.11427097,0.0037903425,0.019641057,0.14911503,-0.12752952,0.090298235,-0.0075153164,-0.07093595,-0.039915137,0.10440519,0.0047730333,0.06795056,-0.039115325,-0.04131284,-0.1661847,-0.0602741,-0.059987668,-0.03588588,0.14152625,-0.18360503,0.06296296,-0.24208911,-0.044858605,0.101482734,0.043846752,-0.034583203,-0.04123967,0.012671853,-0.10038801,-0.29103887,0.03793152,-0.013229971,-0.26527384,0.013381437,-0.17762429,-0.17126307,-0.15433913,-0.15695164,0.08754529,-0.02852825,-0.16169448,-0.19277194,-0.056226246,0.065945685,-0.05686525,-0.1436156,-0.14930262,-0.16097479,-0.029851716,-0.15697399,-0.04818026,0.090095125,-0.09737653,0.10719739,-0.07731519,-0.055417247,-0.10992523,-0.2622174,0.015885897,-0.00071639876,-0.16898352,0.08822636,-0.0062510893,-0.062674746,0.060483046,-0.2032715,-0.16101533,-0.007844619,0.074422345,0.041402392,0.025876028,-0.16705042,-0.16585462,0.06564513,-0.3553718,-0.007125132,0.0025484913,-0.17126195,-0.21735135,0.093072586,-0.102474555,-0.19935112,-0.07179472,-0.15964943,0.030161817,0.05240344,-0.16642162,0.08217623,-0.11750933,-0.081064865,0.018416572,-0.04897256,-0.038368106,-0.007451088,0.09488763,-0.07603882,-0.0074710627,0.0025887494,0.0075285644,-0.020291355,0.11063916,-0.12871014,0.14242192,-0.19064489,-0.05926477,-0.10353395,0.015370946,0.17370543,0.12725078,-0.06607251,-0.045746718,0.07533043,-0.08158428,-0.13012734,0.09422193,-0.13478643,-0.12306523,-0.09625465,0.0079927705,-0.032150384,-0.17636897
56,-0.07297902,0.098980926,-0.0783499,-0.1141894,0.14199571,-0.02089266,-0.1825701,-0.07578844,-0.0581777,-0.040295534,0.011428143,0.09879426,-0.19524965,-0.16499373,-0.17988172,-0.08937637,-0.3002438,-0.04876207,0.05942131,-0.1457991,0.008518387,0.023514543,-0.17502864,0.21359026,-0.013780636,-0.15754157,0.2211108,0.074137285,0.18978873,0.0651763,0.056580022,0.059781946,-0.13443388,0.07509792,-0.23224725,-0.30936235,0.089192964,-0.12602887,-0.5102498,0.035349466,-0.04436001,0.2510898,-0.056673095,0.40951148,0.044144347,-0.04925253,-0.19930652,0.26892522,-0.024790188,-0.16480814,-0.015960904,-0.024517324,0.09772911,-0.12961398,-0.09370417,-0.13113248,0.18644965,-0.33836886,0.21905929,-0.047963988,-0.06457351,0.16590591,-0.021053618,-0.07944086,0.2666406,-0.13342549,0.017974079,-0.21351047,-0.29974037,0.011472465,0.1271621,-0.20609088,0.06077609,-0.39979208,-0.1595218,-0.14144498,-0.069848195,-0.18034297,-0.2507729,-0.15868866,-0.023214303,0.21046838,-0.035845105,0.08912866,0.19323505,0.020646714,-0.38236254,0.037880905,0.35371247,0.046632756,-0.24763809,-0.122281775,0.0813957,-0.032142177,-0.20496567,-0.094802335,-0.18945102,0.067647964,-0.15211345,-0.15175594,0.03917343,-0.0496991,-0.20638429,0.45139048,0.34172836,-0.11013582,0.017148985,-0.073310316,0.25328216,-0.022937255,-0.21213065,0.06028764,0.25622588,-0.061951,-0.18116862,-0.13202809,-0.058340315,0.10923912,-0.016617948,0.034535166,-0.20185684,-0.009438471,0.021770524,-0.22228375,-0.24277563,0.14173105,-0.22461204,-0.24634221
57,-0.11175169,-0.16993165,-0.10057964,0.075244755,-0.12506989,0.4446487,0.09528464,-0.1002457,0.03251235,-0.13954554,-0.11496719,-0.010838423,0.0338279,0.01210966,-0.16408047,-0.114269145,-0.0914888,-0.18630628,-0.1380656,0.04508815,-0.29632315,-0.1043118,-0.0783627,0.05720719,-0.4357614,0.026661772,0.39003432,0.011013567,-0.4015921,-0.032741703,0.006703087,-0.07628012,-0.2028766,-0.14916435,-0.08541172,-0.256272,-0.15485232,-0.005862021,-0.06209451,-0.25930917,-0.09057637,0.06973034,-0.42843613,-0.26975098,-0.1519408,0.08253677,-0.04727028,-0.022508347,-0.247111,0.09324852,0.017555442,-0.058820706,-0.04815471,-0.14147428,-0.011188289,-0.003532669,0.010144373,0.15115392,-0.36026287,0.030395428,-0.14284934,-0.089761324,-0.19781439,0.016540142,0.06801764,0.0560834,-0.12612404,-0.21602328,-0.019080942,-0.1103617,0.06683816,-0.06757685,0.17619513,0.03547242,0.01617193,0.032273605,0.004717729,-0.0058370596,0.4093608,0.27737764,-0.009073347,0.23844506,0.11455317,0.07657856,0.077055335,-0.009131289,0.08588534,0.27014527,0.40674838,0.20560753,0.061509013,-0.23771143,-0.015497246,-0.038192254,-0.1361337,-0.046984203,0.059354693,0.051653806,0.021528948,-0.072907045,-0.13214529,-0.0450225,0.083252795,0.061408553,0.19684586,-0.16265401,0.13968004,-0.05398967,-0.2004084,-0.05934967,0.36057594,-0.22605331,-0.19334784,-0.073706076,0.07864606,0.03323704,-0.17120104,-0.048384156,-0.22041254,-0.017946571,-0.09714001,-0.103148125,0.03820568,-0.18198876,-0.14770894,0.002248134,-0.19886126,0.028991358
58,-0.18577501,-0.36962813,-0.054887492,-0.09803996,-0.01794955,-0.20472378,0.0070555303,-0.121855505,-0.22151837,-0.14647046,0.14400621,-0.100247666,0.090037465,-0.17493904,-0.19237247,-0.083946265,0.039770238,0.016584868,-0.73138076,0.5057709,0.34523663,0.025738923,-0.0074127642,-0.23638135,0.6744526,-0.2502341,-0.84472084,0.0047246683,-0.038746666,0.034202877,-0.2732879,-0.123323984,-0.09108391,-0.039145883,-0.11089448,0.5151376,-0.0021523559,0.112009615,-0.10856107,0.06617354,0.03307826,-0.29421034,-0.169289,-1.2422204,0.44966617,-0.33192122,0.13006938,-0.15402949,0.31388816,-0.025038887,-0.11859714,0.6021232,-0.054609664,-0.050939385,0.059374854,0.039958257,-0.8320397,-1.7676086,0.27260906,-0.027300803,-0.09019008,-0.28463933,0.15581253,-0.021362273,0.41126868,0.15022594,0.51420254,0.05219026,-0.1675369,-0.15590337,-0.054883644,-0.14857729,-0.15847611,-0.631766,-0.15834443,-0.36650154,0.17845143,0.09835291,0.9479898,-1.2243121,-0.09238274,0.10377381,-0.9542516,0.12959477,0.55813617,-0.14813615,0.6860374,0.29025283,0.35716942,0.2257777,-0.30997318,-0.007879363,-0.2467839,-0.14017576,-0.10103864,0.3352856,-0.08461779,0.55018353,-0.2785371,-0.09202244,-0.36652014,0.057591684,0.014009343,-0.12514766,-0.1697193,-0.24443664,-1.733369,0.052204546,-0.051256113,0.0041886317,-1.2563773,-0.11372662,-0.30332997,-0.06453285,-0.12995529,-0.07272605,-0.03259979,-0.2713828,0.6439792,-0.4864678,0.021472665,0.15644528,-0.095271975,-0.16671918,-0.1869843,-0.024480265,-0.5800538,-0.19428419
59,-0.04686656,0.3434826,0.07002776,0.08342696,-0.00750125,0.43971503,-0.106578246,-0.044634536,0.0364422,-0.01363741,0.022773065,-0.030582633,0.10417593,-0.07124132,0.057649523,0.05370051,-0.12851688,-0.0300509,-0.36111847,-0.04885564,0.027393676,0.019738255,-0.044841494,-0.0505407,0.0076316763,0.08156029,0.15618305,-0.123082355,0.24454555,-0.0752417,0.024992924,0.19843853,-0.026027136,0.041350994,-0.024544222,-0.20139186,0.13028659,-0.029379213,-0.102028675,-0.022373293,-0.20828536,0.01988858,-0.024704158,0.32815224,-0.31264207,0.10648608,-0.071793556,-0.16662374,0.29010868,0.0012421919,0.001103759,0.053674128,-0.13578856,-0.09758108,0.03048909,0.07323179,0.3485638,0.14589146,-0.06355055,-0.008019848,0.19243595,0.4633014,-0.065467626,0.042328976,0.35515904,0.0066088983,0.1745696,-0.08942074,0.04053716,-0.02950834,-0.13919033,-0.04000119,0.2919464,0.19392623,-0.061973337,0.16240242,-0.047869124,0.08379345,0.13761355,0.14843693,0.037203636,0.20041871,0.419772,0.00032293904,0.070957914,-0.28683618,-0.1912653,0.07106586,0.022786815,0.22936656,-0.06593283,-0.07479666,0.082263015,-0.09443178,-0.19478661,0.09819217,-0.08701425,-0.07251724,-0.027187726,-0.10758878,-0.08112078,-0.012496521,0.011316403,-0.0721007,0.23969465,0.006048885,0.30783993,-0.011696531,0.19653307,-0.08913291,0.19356185,0.09413502,0.27022085,0.18997851,-0.11009997,0.11657519,-0.07029236,0.064897224,0.0033630773,-0.07879467,0.048613172,0.19389932,-0.051488653,-0.1499504,-0.15057486,-0.05047609,-0.18180577,0.01564275
60,0.030522188,-0.14292346,0.13476287,-0.022312373,0.02402266,0.2736252,0.059074316,0.07782591,0.08450108,-0.15959959,-0.25591272,-0.015605829,0.15575571,-0.18239404,-0.2141459,-0.2005054,-0.13782547,0.037979558,-0.11682252,0.030283906,-0.10192309,-0.09320577,-0.14013676,-0.057923768,-0.022964815,-0.19180517,0.13684697,0.08567917,-0.037334792,0.11155467,0.0006575015,0.11633286,0.00634398,-0.121804155,-0.17732573,-0.18502253,0.08990905,0.113721475,-0.09490779,0.14144245,-0.014238687,0.020933768,-0.1597506,-0.05511626,-0.13597119,-0.16999817,-0.09393844,0.14280477,-0.08609958,-0.0627939,-0.056713477,-0.1527002,-0.029408908,-0.02032279,0.04704892,0.078677304,0.34112582,0.02690115,-0.12866819,-0.06228358,-0.2379053,-0.06290965,0.0646606,0.1946505,0.05065531,-0.082586266,0.010968393,0.10822,0.09659069,0.014233155,-0.08480043,-0.14348261,0.07654213,0.0024498797,-0.14643101,0.025939016,0.16592373,-0.06965771,0.13031471,0.14915912,0.12004749,-0.014919807,0.13599868,0.11747717,-0.03005573,-0.07855993,-0.18135084,0.10181433,0.19897799,0.098844066,-0.08097679,0.14391825,-0.0011797504,0.08665663,-0.12070588,-0.12527922,-0.08797345,0.10185059,0.07218856,-0.09105734,0.14900436,0.09590973,0.120801516,0.026129324,0.0855294,-0.041367672,0.019092131,-0.06288236,0.062701486,-0.23253642,0.24742025,0.1350005,0.009700183,0.1300067,0.04186218,-0.0250909,0.13054512,-0.10548541,0.0027975363,-0.043821223,0.105142936,0.010021014,0.1647382,-0.22798374,3.9572264e-05,0.013961025,0.109567344,0.027583405
61,0.009290951,0.37210143,-0.16831046,-0.08802786,0.078371175,0.07100216,0.021700462,0.068675205,-0.14473186,0.07054715,-0.14968228,-0.16066739,0.10090203,-0.04530081,0.10705346,0.11541608,-0.13958365,-0.09946694,0.24862528,-0.13738875,-0.12433316,-0.09504524,0.23479421,-0.17072251,-0.06550092,-0.086867616,-0.13821834,-0.18066457,-0.29726884,0.08728575,0.18521945,-0.056435924,0.044953518,0.13248244,-0.14687915,-0.08460782,0.11756429,0.045874614,-0.09770565,0.027909616,-0.1837785,0.17304087,-0.08610739,-0.14652887,-0.47387233,0.11564034,-0.21401407,0.0061141076,-0.07912611,-0.14322235,-0.0823547,-0.12149801,0.00768977,-0.104622826,0.0009217838,-0.1853835,-0.16640215,-0.24318087,-0.13450174,-0.29787886,0.10215294,0.3959573,-0.23794194,0.050629318,-0.32519087,-0.16436985,-0.3300586,-0.008328284,-0.029577116,0.008491946,-0.028261216,0.08123033,-0.16493733,0.13204466,0.10794426,0.14298633,-0.1301772,-0.024751611,-0.4526405,-0.119173266,-0.106677085,0.02591644,-0.09699698,0.064555,-0.089614704,-0.0044669276,-0.6315183,-0.33705315,-0.749054,-0.38299406,-0.019325536,-0.20811626,0.02888333,-0.12845099,0.07733995,-0.34403333,-0.1092195,-0.5516391,0.109368764,-0.08241298,-0.07971759,-0.030051623,-0.15865785,-0.14363363,-0.33433238,-0.1273337,-0.113014504,-0.115109734,-0.32465002,-0.16402282,0.06771544,-0.0016511673,0.40397832,-0.024042938,-0.037627418,-0.03831052,0.030467903,-0.10071689,-0.10065022,-0.063306466,-0.17940183,-0.20188573,-0.067541115,0.081846744,-0.13534681,-0.10671424,0.19834536,-0.054505497
62,-0.07041679,-0.16759957,-0.15573367,-0.026544962,-0.11487509,-0.100080766,-0.00087354606,-0.21724811,0.05219269,0.014807496,-0.041982546,-0.035756275,0.08720951,0.103553995,-0.18258332,-0.029346338,0.014646357,-0.1904762,-0.040278733,-0.08658704,-0.028521141,0.029849876,-0.06359671,0.02675591,0.051461607,0.021817615,-0.08955838,0.057361107,-0.13586122,0.033838477,-0.14937472,0.027944604,0.03158647,-0.0445709,-0.1825276,-0.20742258,-0.023123406,-0.0053177034,0.13513948,0.0010036958,0.026073297,-0.1187541,0.06420257,-0.28452474,0.030311199,0.04183701,-0.13889605,0.003790912,-0.100737154,-0.033821683,-0.105748385,0.25090322,0.029307304,0.067230135,-0.14160392,-0.08295182,-0.16478616,-0.061347216,0.16376846,-0.1813797,-0.15501614,-0.24174303,-0.10013888,-0.09542877,-0.27909335,-0.1804554,-0.017462304,-0.13443543,-0.03835119,-0.11381339,-0.031080736,-0.12927102,-0.053020224,-0.5102889,-0.021835076,0.018248795,0.017738152,0.038549766,0.37123206,-0.12052096,0.06307718,-0.03155909,-0.106215306,-0.066526644,-0.058562405,-0.07664745,0.22761658,0.08638397,0.061714407,-0.025406446,-0.08483832,-0.17700417,-0.1879011,-0.06540784,-0.08526889,-0.0505314,-0.091296785,0.121369086,-0.0027332332,0.0073665627,0.021975394,-0.12633172,-0.09716515,-0.15688469,-0.55894357,-0.06386962,-0.057353735,0.042933807,-0.17987075,0.026417576,-0.059916694,-0.16064894,-0.13130179,-0.03633699,0.05021858,0.10001547,-0.13060528,-0.0032614374,-0.015040134,-0.26735824,0.033250432,-0.029080555,-0.05067185,-0.05351659,0.0034945817,0.09095687,-0.19832571,-0.060393527
63,0.08361638,-0.17611387,0.025455978,0.0752826,-0.1543133,-0.10776423,-0.013585932,-0.093221255,-0.096523404,-0.20581219,-0.05623106,-0.08990662,-0.20644198,-0.12621768,0.08968874,0.01286132,-0.12229982,-0.20029703,0.0011195205,-0.1704678,-0.008781617,-0.16249149,-0.10401703,-0.1398377,-0.087946065,-0.13686478,0.06327534,0.0022468152,-0.23983242,-0.11699228,0.028370198,-0.039302744,-0.2428362,0.044386495,0.013972491,-0.07884138,0.060577855,-0.11142936,0.15431833,-0.048141908,-0.18012129,0.048450712,-0.19871297,0.035589248,0.004425697,0.07098773,-0.11356101,0.034905076,-0.1291148,0.0056524393,0.13426733,-0.17212372,-0.052024744,-0.14519244,-0.0069721555,0.04315115,-0.14863667,-0.07509265,-0.22330514,-0.097721025,-0.2631427,-0.10895375,0.011107058,0.059704937,-0.19506413,-0.09731481,-0.17161556,-0.12102076,-0.016469557,0.08334836,-0.033016514,-0.109535016,0.07890659,0.059200007,0.06601682,-0.19358602,-0.104852,-0.11057052,0.060420394,0.014494649,-0.03923619,0.07464802,0.032276046,-0.11362091,-0.027867302,0.054905154,-0.103980616,-0.045112435,-0.14055197,-0.05763828,-0.13866493,0.030005993,0.061723657,-0.12091991,-0.025211027,-0.22146487,0.020714493,-0.08538959,-0.13995989,0.012288696,0.055884153,0.08619576,0.016558047,0.015410289,-0.1256273,0.041619226,-0.14053072,-0.1920043,-0.03651001,0.009166445,0.011017806,0.053588286,0.050782923,-0.08859912,-0.15956515,-0.19169314,0.0039362228,-0.22024904,-0.075063765,-0.20328929,-0.07123749,-0.12404661,-0.10449382,-0.0019540342,-0.1365917,-0.122610405,-0.10056396,-0.18635835
64,-0.10979316,0.10621958,0.044222143,-0.15006912,-0.2866137,0.44316515,-0.050913453,-0.14350852,0.0022473591,-0.15308578,0.237821,-0.2142018,0.0362353,-0.1994914,-0.10577501,-0.12473113,-0.05031689,-0.016331704,-0.50883126,-0.17562635,-0.31511813,-0.05003701,0.0323271,0.28420952,1.086397,-0.12459402,0.19186683,0.10962761,0.047640353,-0.1949365,0.032717586,-0.1824401,-0.017538048,-0.02420407,0.24786004,0.12845719,-0.09341218,-0.16822314,-0.38048574,-0.05329911,-0.17258884,0.05677921,-0.02293581,0.5560868,-0.058779586,-0.3005638,-0.02093649,-0.113512784,-0.33955306,0.020776337,-0.16565561,-0.13552053,0.42880705,-0.061290037,-0.13744187,-0.11258795,0.90817064,0.55487436,-0.1975337,0.15127446,0.33721548,0.2842871,-0.31232715,-0.09224562,0.60836565,-0.2693598,-0.19855055,-0.09960516,-0.17978022,-0.18925247,0.33803383,-0.18162662,0.4671802,-0.5112325,-0.02138114,0.4876157,-0.181968,-0.17909913,-0.20798302,0.8590558,-0.21182017,-0.14042263,0.8529829,0.031539455,1.1824259,-0.12438426,-0.67613864,0.3180893,0.65290606,0.37326464,0.58524126,0.012399671,0.21276262,0.08321002,-0.13325176,-0.46827617,-0.047704894,-0.3648618,0.001336943,-0.13366711,0.043901686,-0.39042798,-0.061881956,-0.094278134,0.54088956,-0.18531749,0.57360685,-0.011787552,0.1111448,-0.07447504,1.4568154,-0.0030052236,0.09385258,0.031409957,-0.09609704,-0.16039434,0.27966705,0.26545382,0.3611432,0.4920515,-0.018818406,0.08532129,0.7880131,-0.10229382,-0.010023502,0.014593976,-0.28386784,-0.078228995
