,0,1,2,3,4,5,6,7,8,9,10,11,12,13,14,15,16,17,18,19,20,21,22,23,24,25,26,27,28,29,30,31,32,33,34,35,36,37,38,39,40,41,42,43,44,45,46,47,48,49,50,51,52,53,54,55,56,57,58,59,60,61,62,63,64,65,66,67,68,69,70,71,72,73,74,75,76,77,78,79,80,81,82,83,84,85,86,87,88,89,90,91,92,93,94,95,96,97,98,99,100,101,102,103,104,105,106,107,108,109,110,111,112,113,114,115,116,117,118,119,120,121,122,123,124,125,126,127,128,129,130,131,132,133,134,135,136,137,138,139,140,141,142,143,144,145,146,147,148,149,150,151,152,153,154,155,156,157,158,159,160,161,162,163,164,165,166,167,168,169,170,171,172,173,174,175,176,177,178,179,180,181,182,183,184,185,186,187,188,189,190,191,192,193,194,195,196,197,198,199,200,201,202,203,204,205,206,207,208,209,210,211,212,213,214,215,216,217,218,219,220,221,222,223,224,225,226,227,228,229,230,231,232,233,234,235,236,237,238,239,240,241,242,243,244,245,246,247,248,249,250,251,252,253,254,255,256,257,258,259,260,261,262,263,264,265,266,267,268,269,270,271,272,273,274,275,276,277,278,279,280,281,282,283,284,285,286,287,288,289,290,291,292,293,294,295,296,297,298,299,300,301,302,303,304,305,306,307,308,309,310,311,312,313,314,315,316,317,318,319,320,321,322,323,324,325,326,327,328,329,330,331,332,333,334,335,336,337,338,339,340,341,342,343,344,345,346,347,348,349,350,351,352,353,354,355,356,357,358,359,360,361,362,363,364,365,366,367,368,369,370,371,372,373,374,375,376,377,378,379,380,381,382,383,384,385,386,387,388,389,390,391,392,393,394,395,396,397,398,399,400,401,402,403,404,405,406,407,408,409,410,411,412,413,414,415,416,417,418,419,420,421,422,423,424,425,426,427,428,429,430,431,432,433,434,435,436,437,438,439,440,441,442,443,444,445,446,447,448,449,450,451,452,453,454,455,456,457,458,459,460,461,462,463,464,465,466,467,468,469,470,471,472,473,474,475,476,477,478,479,480,481,482,483,484,485,486,487,488,489,490,491,492,493,494,495,496,497,498,499,500,501,502,503,504,505,506,507,508,509,510,511,512,513,514,515,516,517,518,519,520,521,522,523,524,525,526,527,528,529,530,531,532,533,534,535,536,537,538,539,540,541,542,543,544,545,546,547,548,549,550,551,552,553,554,555,556,557,558,559,560,561,562,563,564,565,566,567,568,569,570,571,572,573,574,575,576,577,578,579,580,581,582,583,584,585,586,587,588,589,590,591,592,593,594,595,596,597,598,599,600,601,602,603,604,605,606,607,608,609,610,611,612,613,614,615,616,617,618,619,620,621,622,623,624,625,626,627,628,629,630,631,632,633,634,635,636,637,638,639,640,641,642,643,644,645,646,647,648,649,650,651,652,653,654,655,656,657,658,659,660,661,662,663,664,665,666,667,668,669,670,671,672,673,674,675,676,677,678,679,680,681,682,683,684,685,686,687,688,689,690,691,692,693,694,695,696,697,698,699
0,0.050334856,-0.26061878,-0.28621843,-0.44850072,-0.41778734,-0.12067941,-0.25968462,-0.30753666,-0.040717673,-0.03515115,-0.07769535,0.02565774,-0.17569739,0.032510817,0.00456108,-0.018540325,-0.12272555,-0.0474589,-0.11555135,-0.11190412,-0.19069232,-0.0585145,0.049923845,-0.089335516,-0.05651542,-0.10914637,0.0031398418,-0.011128837,0.038880486,0.02365953,-0.10599525,-0.017441284,0.06696254,-0.05199828,-0.12308713,0.0438562,-0.035444845,0.16669464,0.04315361,0.017810531,-0.018054843,0.08980323,0.04182401,0.16890718,-0.043340374,0.028277993,0.33504677,0.010683544,0.51029676,0.22946233,0.17334607,0.19142301,0.035040043,0.107408404,0.25234023,0.056836247,0.014351305,-0.018686825,0.25606066,0.16753477,-0.047933362,0.19342639,-0.09516301,0.08041769,0.098540895,-0.047365006,0.1970838,0.056602538,0.10487529,0.043650053,-0.10196708,-0.035126474,0.08872739,0.12317777,0.0711742,0.023972971,0.18582897,0.043862946,0.093555264,0.021780042,0.040112868,0.077461354,0.08610828,0.09740202,0.08822698,-0.03359751,0.106978334,0.26311335,0.06315351,-0.13755655,0.14834101,0.22918005,0.0876367,-0.010342533,0.10558603,-0.032492336,-0.0018306981,-0.0055303164,0.029672176,0.08287862,0.122906394,0.34585398,0.037722494,0.18214096,0.31125736,0.31448284,0.16709803,0.0136410855,0.111027725,0.032208357,0.35867202,0.14528248,-0.03957173,0.20731238,0.09498582,0.15172373,0.022768846,0.23293556,0.17065251,0.011410559,0.13221486,0.12860067,0.10680204,0.18581206,0.13365717,0.12209892,0.10407028,-0.060378395,0.04568043,0.21594737,-0.06497909,0.28076723,0.09955034,0.25629693,0.07674806,0.21906865,-0.01853342,-0.020777863,-0.009345985,0.26809418,0.2165886,0.089730985,0.17202929,0.31499183,0.1403452,-0.07346848,0.24358904,0.1813229,0.07426927,0.047611676,0.12442805,-0.21880685,0.19441572,0.226219,0.23281838,-0.0044985353,0.31626984,0.05594842,0.19373047,-0.06288926,-0.11594905,-0.041406382,0.14402628,0.12803452,0.18051392,-0.2824612,0.092699334,0.20901039,0.13663507,0.23290658,-0.054404404,0.14537536,0.27865756,0.26916948,-0.060731426,0.17841533,-0.018362056,0.20519994,-0.022356622,-0.0019306233,0.1961344,-0.055553127,0.010075992,-0.13091326,-0.32135218,0.021307206,0.3850058,0.21747033,-0.051538024,-0.07592132,0.023814961,0.14253457,0.43255052,-0.08254861,0.08962992,-0.06503323,-0.11205578,-0.08705688,-0.11115387,0.11804839,0.00025147654,0.04855339,0.054257713,-0.0083449725,0.063078046,-0.13987769,-0.4844302,-0.03147208,-0.07045904,0.010129589,-0.21665552,-0.24491827,-0.117184855,-0.1777302,-0.18751796,-0.4132216,0.057812806,0.15548207,0.05590274,-0.23994523,0.20423464,-0.18655416,-0.4054975,-0.04816232,-0.2082762,0.1601955,-0.28297648,-0.04805301,-0.097024545,-0.025160486,-0.29249948,-0.12853263,-0.38483712,-0.51753795,-0.123360984,-0.30583832,-0.43082786,-0.11396961,-0.16764538,-0.1293023,0.15229847,-0.34646025,-0.058758385,-0.39758435,-0.46734372,-0.2356962,0.039246585,-0.24710217,-0.0035402167,-0.1501966,-0.42539486,-0.21489982,-0.5726244,-0.33769846,-0.3175451,-0.3505212,-0.64485174,-0.25188527,-0.2646394,-0.20056887,-0.12058423,-0.6558744,-0.24666367,-0.33696145,-0.27707437,-0.4206529,-0.2018108,-0.2455162,-1.3026905,-0.2637667,-0.14282233,-0.49782574,-0.25292107,-0.3736576,0.17911014,-0.3351376,-0.21828982,-0.50831217,0.025800994,-0.39157566,-0.5205291,-0.5071477,-0.45433816,-0.83976,-0.35377094,-0.29727724,-0.3704223,-0.3272913,-0.74295384,-0.18101425,-0.36555916,-0.12694651,-0.052596945,-0.3018096,-0.3919083,-0.22403324,-0.19143544,-0.85269815,0.020378932,-0.5303111,-0.35307556,-0.13784909,-0.88353944,-0.30455378,0.26213235,0.10887328,-0.5315782,0.027837962,0.10990932,-0.33129063,0.046808455,-0.109637044,-0.35382357,-0.034185126,-0.5162904,-0.37106034,-0.2670788,-0.27563193,-0.16839086,-0.3790447,-0.51737803,-0.15978004,-0.3542304,-0.06083312,-0.17659022,-0.022413777,0.31636038,-0.11160984,-0.46981823,0.034165762,-0.031410426,-0.07020094,-0.31680763,-0.828347,0.11384057,-0.7274104,-0.11816479,-0.14501704,-0.54070574,-0.42316177,-0.20618738,-0.18681286,-0.5888382,0.1606646,0.09894876,0.23108654,0.09216567,-0.5426159,-0.2940039,-0.6273925,0.22486822,0.16485332,-0.061945546,0.2729989,-0.23007241,-0.6750965,-0.47751275,-0.029857272,-0.39771745,-0.17679557,-0.13979171,-0.686619,-0.190159,-0.012466769,-0.1395416,-0.68707323,0.042519726,-0.06627985,-0.63698965,-0.41418275,-0.61577475,-0.45391533,0.08772089,-0.634782,-0.94456464,-0.14430985,-0.28885844,0.18649122,-0.4963348,-0.19467162,-0.63435614,-0.6076684,0.13395911,-0.0453379,-0.41424155,-0.5930233,-0.2998552,-0.40322882,-0.36974102,-0.512835,0.0106884735,-0.04606384,0.5274046,-0.010381763,0.091460824,-0.5725252,-0.09494898,-0.4121109,-0.34409347,-0.1717349,-0.21014687,-0.06498762,-0.18464792,0.058816947,-0.88119704,-0.19018307,-0.3192773,0.02891276,-0.255759,-0.40489772,-0.2552006,-0.21019822,-0.0049513634,0.17434086,0.1309319,-1.0822757,-0.8809438,0.16594596,-0.04991684,-0.085775554,-0.44038773,0.24537914,-0.5440987,-0.53229976,0.37082782,-0.20226899,0.2731553,-0.4049466,-0.5820743,-0.44295722,0.36631632,-0.1395956,-0.025051072,-0.6634305,-0.30878258,0.24669743,-0.61018574,-0.34556264,-0.1648582,0.21849556,-0.94781566,-0.42814812,-0.75041103,-0.97563934,-0.5992676,-0.646868,0.31464788,0.071271986,0.08818076,-0.025366647,0.10901769,-0.4574686,-0.5461354,-0.3253726,-0.29834262,-0.55821097,0.25581068,0.6307482,0.3666288,0.088698454,-0.38894886,-0.32862863,-0.72138196,-0.10263462,-0.2033609,-0.31498507,-0.5907245,0.025868181,-0.15395315,-0.5366266,-0.51207304,-0.15131232,-0.19738422,-0.35670877,-0.6101256,-0.031568475,-0.27393177,-0.30127817,-0.34894505,0.39030087,0.35564208,-0.36007565,-0.5020268,-0.41560024,-0.37440044,0.27966887,-0.34957287,-0.05205514,0.42605966,-0.18550645,0.13160701,-0.22728911,-0.051771645,-0.38896674,-0.79072386,-0.110818736,0.40974775,-0.25333735,-0.26986983,-0.023773763,-0.4698339,-0.7108699,0.7781905,-0.22440861,-0.75826114,-0.04830373,-0.41540095,0.05394621,-0.1953816,-0.8288522,-1.0184511,0.53314006,0.1557831,-0.3916061,-0.66394097,-0.59947735,-1.1419879,-0.2003748,0.250017,-0.5505628,0.023685373,-0.34472963,-0.04240951,0.19400832,0.48998988,0.095143676,-0.7994568,0.33448848,-0.32049862,-0.9687388,-0.18849313,-1.0435638,-0.20428923,-0.33051205,-0.3514633,-0.18917604,0.08755047,-0.37506467,-0.21980737,-0.08206085,0.613052,-0.68926066,0.016583335,-0.8368521,0.73365915,0.08434037,-0.26583457,0.038093932,0.2879385,-0.33928555,-0.27922443,-1.0714735,0.16863286,0.4888433,-0.027868034,-0.7250517,-0.22841631,-0.0036921168,-0.781767,-0.5659554,-0.39354554,-0.035690304,0.0060151736,-0.11904656,-0.7008325,-0.16224818,-0.5715907,0.29064634,-0.2539924,-0.10838722,0.102670304,-0.08480177,-0.31644645,0.91814744,0.02530414,-0.2563953,-0.9115096,-0.73317665,0.15341488,-1.3173574,0.26368365,-0.14045016,-0.12775305,-0.25809383,1.0487504,-0.52517885,0.21163644,0.265168,0.26885954,-0.098453686,0.27051505,-0.14318386,-0.28079346,-0.25476804,-0.29114547,0.6337336,0.6369639,1.0410763,-0.36320713,0.668881,0.34746423,0.33638573,-0.14496024,-0.15093495,0.12957132,0.75400877,0.108359836,0.39367613,0.13924797,0.25558418,-0.0658839,0.842499,0.012875583,-0.13129665,0.99958193,-0.06255134,0.11880304,0.4121781,0.34389687,-0.08526549,-0.14372309,-0.09443726,-0.26703227,-0.5749682,0.13641901,0.12551765,-0.49423775,-0.8729613,0.8431424,0.44586396,-0.11709358,-0.3986678,0.40263182,-0.20060854,0.46378464,0.35093206,0.28948042,0.17934565,0.07121478,-0.5057502,0.066261455,-0.5187776,0.25295442,0.69326717,0.448557,-0.10952046,-0.31687084,-0.34940237,0.15916827,0.66907823,0.10103029,0.7318289,-0.53281945,-0.4306972,0.4862895,0.5135928,0.28758365,0.16925877,0.13946417,-0.34206286,-0.41969642,-0.41045704,0.64325744,-0.13622965,0.33526573,0.121030286,-0.31488338,0.6268245,0.380236,0.20750843,0.40940833,0.046172135,-0.8062901,0.29227412,-0.12178791,-0.33137402,-1.0278462,-0.2631014,0.1537103,0.48137462,0.80226374,1.0783553,0.41344392,0.8476362,0.32330146,-0.37290168,-0.2832449,-0.06386369,0.49430305,-0.042710945,-0.25417778,0.018866953,0.4758055,0.5141436,0.20597343,-0.024856487,0.08735622,0.12583683,0.1544057,-0.21996625
1,0.058829516,0.49107307,0.29256028,0.6063869,0.65814424,0.26515627,0.4438631,0.47216925,0.48735723,0.26451832,0.33234257,0.41311553,0.1528262,0.47809577,0.20991093,0.23097603,-0.19924681,0.31026345,0.31229463,0.40501514,0.2949712,0.13230759,0.18029672,0.3623592,0.22345904,0.05212335,0.24279529,0.07470656,0.17074718,0.06674024,0.011641434,0.120096475,0.044473927,-0.2332017,0.0935336,-0.1438199,0.11793995,-0.20141748,-0.22996487,-0.05076898,0.07479082,0.18466704,0.09091056,-0.01655922,0.023917558,-0.08708774,-0.1532236,-0.07783808,-0.21067114,-0.16986753,-0.1961166,-0.11407813,-0.021197239,0.06573854,-0.12323026,-0.12738132,-0.09147914,0.026539395,-0.0750179,-0.31591955,0.04081722,-0.12654804,-0.07963437,0.06494272,0.071036175,0.17911598,-0.11975127,-0.08866901,-0.101991355,-0.18446328,0.01751574,-0.17799214,-0.34540755,-0.14085047,-0.16642852,-0.15374954,-0.14485654,0.02605612,0.15394543,0.016904937,-0.11459485,-0.20445679,-0.011784794,-0.44339618,-0.23486887,-0.0150231635,-0.19644491,-0.19227812,-0.021132555,-0.025544213,-0.033500284,-0.34327632,0.16034125,-0.20760903,-0.20246701,0.008732994,0.18072213,-0.32531452,-0.1300842,-0.22264673,-0.38914716,-0.23767976,-0.1350641,-0.23483856,-0.12851942,-0.10383218,-0.16801211,-0.53502834,-0.21132635,-0.13031082,-0.16221999,-0.28867695,-0.067866325,-0.096942954,0.019308025,-0.194637,-0.29334936,-0.4018018,0.15272588,-0.2638574,-0.12970838,-0.32787323,-0.06960401,-0.16227755,-0.19905654,0.095746264,-0.2930605,-0.17963511,-0.2590041,-0.22273646,0.027060358,-0.363258,-0.21908711,-0.37414107,-0.19374155,-0.27548605,-0.09790449,-0.2831065,-0.1637899,-0.12258522,0.14705302,-0.4273443,-0.32981303,-0.23745547,-0.33321342,-0.08956444,-0.26313,-0.7769687,-0.0152347125,-0.16258715,-0.3114076,0.2563677,-0.24014962,-0.26498944,-0.40794152,-0.49341747,-0.22214662,-0.3242767,-0.6318502,-0.10017503,-0.45780864,-0.16606872,-0.2878304,-0.36192757,-0.32382768,-0.37574798,-0.38837776,-0.33117956,-0.4535139,-0.49949548,-0.008266076,-0.43282592,-0.42586693,-0.52797395,-0.5892462,-0.7790047,-0.509609,-0.7646254,-0.3131722,-0.51761836,-0.5289379,-0.60453665,-0.6507599,-0.40258232,-0.4562674,-0.43567878,-0.75768465,-0.90902394,-0.1511089,-0.29365504,-0.35556194,-0.32934713,-0.39424863,-0.34356597,-0.9456207,-0.5170245,-0.3668398,-0.8624839,-0.48792773,-0.37537235,-0.6774674,-0.48040834,-0.64183205,-0.80721,-0.45268154,-0.456372,-0.3752759,-0.3224156,-0.7081381,-0.5290935,-0.548471,-0.32475325,-0.3025165,-0.62181425,-0.27890605,0.08178764,-0.31319955,-0.43248925,-0.24717517,-0.32232442,-0.4345448,-0.4711628,-0.47714058,-0.79027677,-0.71272635,-0.35144374,-0.36427155,-0.5565229,-0.34290895,-0.4585991,-0.3494545,-0.09654007,0.044211246,-0.26549944,-0.37836903,-0.34055382,-0.040324576,-0.3663716,-0.09724635,-0.6869196,-0.27676493,-0.38731286,-0.0062511265,-0.076698095,0.0732048,-0.1922655,0.34407774,-0.28677315,-0.279234,0.015050547,-0.038655788,0.021061651,-0.00049144326,0.25742128,-0.26389256,-0.008151235,-0.004235203,0.016258514,-0.028823422,0.3210975,0.09139567,-0.19796225,0.15045135,-0.47554296,-0.41573626,-0.09884996,-0.25785622,0.014272452,0.091597416,-0.10298929,0.21091019,-0.2739356,-0.0022046943,-0.17720875,-0.45009673,0.4236592,0.2716706,0.088168904,-0.029398104,-0.011572665,-0.3191306,0.03985095,0.12947282,0.2779045,-0.34041354,-0.22006631,-0.3625837,-0.40366226,-0.2327064,-0.3021124,-0.5189376,-0.15038979,-0.4239107,-0.3624084,-0.07257574,-0.4299275,0.23873208,0.22478421,-0.0657493,0.26258737,-0.29974625,-0.3254834,-0.46087828,-0.023928424,0.06529881,-0.6081306,0.50414115,0.044385485,-0.41423228,0.50232154,-0.4147654,0.16540428,-0.5200065,-0.31973293,-0.23796579,-0.10102154,-0.1212911,0.36413136,-0.2689307,-0.16209406,0.033535194,-0.124184415,0.020308534,-0.015139991,-0.42884248,-0.05803882,0.010154776,-0.7800254,-0.550723,-0.40583178,0.0820093,0.3287069,0.03866918,0.2764726,-0.2406937,-0.25999025,-0.42981154,-0.5044883,-0.049037624,0.4035567,-0.37698907,-0.08293444,-0.44283238,-0.11921015,0.14893718,-0.41833523,-0.5580246,-0.44774127,-0.12416188,-0.63120174,-0.8489883,0.14125103,0.029801348,-0.5433285,-0.19745669,0.26651648,-0.09497457,-0.41056564,-0.6068796,0.06083627,-0.19366118,-0.14504303,-0.16744879,-0.20891759,-0.7621218,-0.7730293,-0.023910617,-0.8645491,0.03685207,-0.21192539,-0.30329272,-0.7249681,-0.8753036,-0.017186478,0.40055767,-0.48864788,0.03161082,-0.5277487,0.110260926,-0.206907,0.014755927,0.27043,-0.68458897,-0.10704525,-0.16385031,-0.2986472,-0.64461356,-0.07647487,0.8258997,-0.39777416,-0.19383036,0.26370767,-0.026928373,-0.20896122,-0.049582224,0.27260432,-0.6851946,-0.8672153,-0.12854044,-0.4418287,0.014539573,0.23945352,-0.8861342,-0.3430442,-0.33313468,-0.07770801,-0.47037864,-0.055428337,-0.30061004,-0.37263,-0.5925806,-0.38761583,-0.7210296,-0.11437764,-0.1200826,-0.28610763,0.2265498,-0.27177295,-0.32107887,0.38216227,-0.23981741,-0.71001935,0.23210908,-0.45458758,-0.9200177,-0.4270338,-0.3257598,-0.14963225,-0.0113359485,-0.37159473,-0.4457777,-0.3360126,-0.3806403,0.6802495,0.5249443,0.23999086,-0.03530343,-0.54994,-0.56232834,0.21742308,-0.5150838,-0.5916657,0.42530283,-0.2615545,-0.34398118,-0.0045423787,0.12351857,-0.6795325,0.38721594,-0.25508264,0.034828596,0.38795397,0.07353699,-0.101922505,-0.16562968,-0.02852521,0.38019156,0.26628387,0.18259138,-0.29738817,0.44336057,0.3828289,0.3390713,0.09559995,0.20723006,0.40271172,-0.4303462,-0.040321574,0.2499373,0.17514384,0.22037575,0.52436286,-0.31935146,-0.19198345,-0.21646772,0.37996522,0.18515772,0.21798244,0.019841934,0.50689137,0.34590852,0.653982,-0.23807707,-0.21023183,0.029272046,-0.06319401,-0.08486199,-0.113039605,0.2686172,0.357225,0.23803103,0.2943329,0.0884006,-0.05594017,0.0120919375,0.29830953,-0.2911081,-0.4025993,0.17263645,-0.030707112,0.04829054,-0.0654926,-0.20537323,-0.58686036,-0.07407163,-0.0995743,-0.07444875,0.23165171,-0.2838841,0.2968855,-0.20951317,-0.070299104,-0.21789148,-0.20517105,-0.39255592,0.41507697,0.37509015,0.09630707,-1.0361359,0.06208529,0.12909634,0.10416757,0.14985898,-0.6351877,-0.51369965,-0.1387672,0.052251037,-0.08552591,0.05666594,-0.40571073,0.036789022,-0.22740282,-0.11517284,-0.2891213,0.23004472,0.041763052,-0.49709076,0.11550818,0.06208107,-0.62335175,-0.16681758,0.3431413,-0.18407871,0.04918962,-0.10744418,0.14196554,-0.260953,-0.27527818,-0.10829235,0.06653243,-0.044336088,0.34790307,-0.08183532,-0.28499052,-0.40917787,0.19783016,0.25352532,0.3397391,0.21869898,0.04166837,0.31085768,-0.13079485,0.29141632,-0.15280037,-0.247677,0.16628075,0.26916882,0.21902671,-0.19740489,0.1423026,-0.21509932,0.18599786,-0.46942645,0.32450226,0.40270144,-0.31741914,-0.13662301,-0.053984974,0.163308,0.35408965,-0.17696144,0.7000417,-0.283699,0.54568017,-0.7603889,-0.12305407,-1.013421,-0.32391417,-0.36849266,-0.15280606,0.23375982,-0.5232395,0.81666046,-0.048557833,0.601658,0.039036013,0.4383074,-0.9008282,0.22372536,-0.78335965,0.018973356,0.29033193,0.17394449,-0.08192212,0.2058464,0.12309938,0.1910575,-0.5605983,0.19216047,0.15413798,0.578584,-0.6498369,-0.437876,-0.20796251,0.60655254,0.21584557,0.53314376,0.017043758,-0.42096338,0.35080218,0.6280385,-0.8274915,-0.32568538,-0.38822436,0.09193251,0.02035538,-0.25910848,0.49968344,-0.042572312,-0.5487568,0.26257065,0.3011521,0.6317516,0.49584392,-0.26247525,0.3966062,0.34066576,-0.0889733,0.35251713,0.89064276,0.12834352,-0.2345935,0.23929067,0.10466854,-0.86616,-0.16646065,-0.55489707,-0.11544119,0.83553886,-0.31087583,-0.036466807,0.24400443,0.104004845,0.8459535,-0.55401164,0.44708964,-0.13442633,-0.6045962,-0.52844167,-0.2926661,0.21339649,-0.2587978,-0.073699735,-0.41976404,-0.34870264,0.6380726,-0.2718705,-0.44621372,0.5427558,0.74104744,0.6562136,0.3819025,0.3234391,0.09701692,0.010557931,0.27497602,0.70152986,1.2464479,0.37559542,0.415591,-0.4261542,-0.40496236,0.38603324,0.28499952,-0.21464984,0.87589824,0.42357484,0.7942656,-0.12433347,0.121907726,0.47855398,0.09650471,0.2432548,-0.42423767,-0.054680787,-0.36426395,0.6812242,-0.24608198,0.22698466,0.42038855
2,-0.006932549,-0.1989872,-0.2508319,-0.15310019,-0.12277447,-0.19100493,-0.21337187,-0.323189,-0.08426052,-0.15329693,-0.2724992,-0.13060437,-0.2953792,-0.24944444,-0.12635791,-0.23103724,-0.20572126,-0.3783738,-0.22975795,-0.2994815,-0.32444456,-0.29939538,-0.21407944,-0.15245803,-0.2533853,-0.42182457,-0.40673152,-0.122053586,-0.24380834,-0.19280703,-0.2598898,-0.27658898,-0.084461644,-0.28199777,-0.2870731,-0.14837831,-0.09938257,-0.2764616,-0.26235312,-0.20128994,-0.13652587,-0.09061634,-0.20438556,-0.31212655,-0.18057665,-0.29883927,-0.14316076,-0.19954991,-0.25744712,-0.2256953,-0.09050761,-0.18855312,-0.043600354,-0.2575687,-0.20319434,-0.1668053,-0.3455761,-0.18346627,-0.113529086,-0.26215377,-0.24028835,-0.28841978,-0.19902551,-0.17858025,-0.2530504,-0.19092731,-0.24723399,-0.11520976,-0.2076715,-0.16584057,-0.33742526,-0.20726803,-0.19044137,-0.12970547,-0.19679181,-0.1954913,-0.114029974,-0.11201302,-0.1368564,-0.109283686,-0.11224434,-0.17832842,-0.24001785,-0.21479513,-0.15078104,-0.22845507,-0.26785764,-0.23551528,-0.25284687,-0.14976224,-0.16022281,-0.19161944,-0.15871313,-0.1360777,-0.10088341,-0.23683369,-0.17773554,-0.28591928,-0.11465016,-0.080888174,-0.16740942,-0.20107898,-0.2698728,-0.18390258,-0.13969225,-0.1817245,-0.06448065,-0.11199852,-0.27841702,-0.21295486,-0.24244173,-0.13794073,-0.22658816,-0.13377178,-0.22220142,-0.13689578,0.0026115924,0.036724903,-0.13799056,-0.13007362,-0.1863786,-0.15860566,-0.2059162,-0.088078044,-0.15005769,-0.15314917,-0.12262249,-0.11386828,-0.07024864,-0.15656543,-0.09480486,-0.11115731,-0.06887565,-0.110606305,-0.2098768,-0.14779724,-0.046719305,-0.16941883,-0.16376229,-0.21665718,-0.013683256,-0.18639925,-0.03022829,-0.1575561,-0.07534566,-0.18521638,-0.15623005,-0.19185975,-0.23585829,-0.19439524,-0.16070035,-0.15401185,-0.21051653,-0.060203563,-0.33282888,-0.18328005,-0.14849485,-0.13952318,-0.08410124,-0.08220213,-0.3356585,-0.1960791,-0.22043283,-0.20275946,-0.20552571,-0.09903798,-0.1754439,-0.25021908,-0.056501545,-0.29530486,-0.08129616,-0.24044812,-0.22336012,-0.2541797,-0.20767088,-0.25948668,-0.20022936,-0.21048318,-0.18092571,-0.21361688,-0.14354703,-0.22103874,-0.24723025,-0.21126287,-0.10798585,-0.157971,-0.0948449,-0.2171247,-0.094903,-0.27023882,-0.18358347,-0.31744885,-0.17609638,-0.28360066,-0.21163912,-0.14990388,-0.11958105,-0.29807603,-0.18652987,-0.19074953,-0.106205225,-0.30689418,-0.3606898,-0.27081174,-0.2873447,-0.45922276,-0.29583535,-0.341507,-0.17439783,-0.36741224,-0.15660642,-0.15796113,-0.1864599,-0.18237147,-0.2603169,-0.3044449,-0.4180306,-0.19509444,-0.13753338,-0.062170427,-0.38873664,-0.14341392,-0.34474882,-0.24234053,-0.23487617,-0.051971167,-0.103534095,-0.011485337,-0.21503833,-0.32240877,-0.08629913,-0.1766495,-0.27663153,-0.119662754,-0.07424775,-0.19941618,-0.13515493,-0.21349488,-0.28471774,-0.14079864,-0.16278085,-0.10326496,-0.1440701,-0.27526146,-0.094817735,-0.38026217,-0.16645679,-0.22887133,-0.20450032,-0.15442885,-0.010772492,-0.068326496,-0.10432912,-0.24874912,-0.016768482,-0.054102078,-0.11277226,-0.03194561,-0.19000994,-0.15711652,-0.101353616,-0.23720804,-0.09043572,-0.12391825,-0.07972536,-0.15949956,-0.29340687,-0.091820665,-0.018656755,-0.16832732,-0.06996712,-0.2524955,0.10125748,-0.16872771,-0.12121467,-0.21077283,-0.18552229,-0.2929939,-0.10134523,-0.10257777,-0.1330392,-0.1977874,-0.0774796,-0.19579124,-0.230435,-0.039571594,-0.1361453,-0.32463017,-0.13230552,-0.17936759,0.010890175,-0.41580793,-0.2786556,-0.10774592,-0.06979177,-0.14010048,0.0070752306,-0.299547,-0.115704775,-0.3152661,-0.07773383,-0.32389718,0.023028983,-0.15659098,-0.09151857,-0.26659915,-0.06888452,-0.0700831,-0.22986613,-0.3743129,-0.30469552,-0.13120544,-0.16391414,-0.082351886,-0.07886683,-0.14861344,-0.31967142,-0.048236296,-0.08449513,-0.244973,-0.1516536,-0.18116179,0.15476678,-0.03310808,-0.029988559,-0.522633,0.059392057,-0.01003995,-0.1865784,-0.041284665,-0.09946434,0.0029855084,-0.26803547,-0.22703938,-0.13296078,-0.3361693,0.010117489,0.048725516,-0.5106818,-0.054888733,-0.3489875,-0.14834857,-0.07305383,-0.22299603,-0.29464197,-0.14639781,-0.27600273,-0.40230098,-0.22393036,-0.12179761,0.019403394,-0.11797211,-0.014437475,-0.17548412,-0.12010895,-0.17383702,-0.24099998,-0.15876666,0.05482554,-0.31472364,-0.21989137,-0.37812734,-0.06652459,-0.004015166,-0.12937772,-0.14287992,-0.27315834,-0.23995982,-0.19678026,-0.19182916,-0.41697246,-0.13889046,-0.011646227,-0.20568906,-0.2369304,-0.2451509,-0.13085577,-0.50700474,-0.22021279,-0.25830764,-0.21209103,-0.35760978,-0.2240124,-0.07718044,-0.17182823,-0.09603722,-0.24644941,-0.18125485,0.042589355,-0.18808305,-0.50981635,0.014966302,-0.22581139,-0.29686195,-0.2606055,-0.13287869,-0.06132858,-0.21996452,-0.26820236,-0.21141502,-0.07315411,-0.2920562,-0.042105243,-0.31252122,-0.08841801,-0.24686402,-0.33397704,-0.31332618,-0.3225197,-0.22377907,-0.16780035,-0.24917991,-0.18364957,-0.40040728,-0.046476062,-0.43305972,-0.16298755,-0.17981213,-0.42077363,0.010158954,-0.02883789,-0.21096484,-0.23784159,-0.29306048,-0.39332432,-0.24146324,-0.0898482,-0.25981602,-0.2531138,-0.36968666,-0.31410232,-0.3074494,-0.3363117,-0.31803545,-0.20229954,-0.15996581,-0.08190509,0.014028519,-0.08777501,-0.28727448,-0.2372246,0.15404628,-0.111835785,-0.1662758,-0.05437416,-0.14456193,-0.7624674,-0.30056047,-0.73541015,-0.20026061,-0.30829263,-0.14821404,-0.3560714,-0.1781976,-0.25321808,-0.096458286,-0.08234688,-0.21265504,-0.13817409,-0.33239177,-0.23231071,-0.4673719,-0.31345892,-0.17083171,0.027416185,-0.18501835,-0.21794732,0.006256767,-0.15287165,-0.06613207,-0.26172003,-0.3247649,-0.14282452,-0.22475359,-0.27611116,-0.43042594,-0.34157616,-0.20167477,-0.2613807,-0.3014792,-0.2909806,-0.4224087,-0.2904008,-0.29956222,-0.23035038,-0.15602103,-0.38871163,-0.37714124,-0.43256387,-0.28321725,-0.39714932,-0.091358654,-0.06729114,-0.07262837,-0.18270156,-0.17473991,-0.1739727,-0.27367193,-0.3577983,-0.27730027,-0.23545799,-0.24511826,-0.28054506,-0.31697202,-0.20693085,-0.21221219,-0.19013974,-0.44073573,-0.2122531,-0.3209316,-0.06728069,-0.29730088,-0.16195463,-0.22052033,-0.19170055,-0.5113698,0.01592713,-0.2583071,-0.23132989,-0.2859354,-0.09005306,-0.38761476,-0.4015005,-0.4813578,-0.52724624,-0.27266723,-0.017843327,-0.22350733,-0.16634442,-0.25223422,-0.1451636,-0.3248857,-0.3528878,-0.11033562,-0.1505606,-0.47237113,-0.31942403,-0.34255886,-0.096512124,-0.30621493,-0.17788601,0.17166233,-0.37153447,-0.26330996,-0.33328858,-0.2536487,-0.3231837,-0.4375261,-0.22147597,-0.16598359,-0.38401937,-0.25503188,-0.14831528,-0.06791082,-0.12984061,-0.3452031,-0.12733343,-0.08691331,-0.028771944,-0.26207685,0.05178152,-0.3543652,-0.3861643,-0.23503757,-0.21397172,-0.16302808,-0.2786856,0.086238675,-0.28600633,-0.43874672,-0.031236775,-0.26422203,-0.24088477,-0.27765325,-0.5382843,-0.21917585,-0.2766753,0.095335044,-0.35819083,0.14367907,-0.2773903,-0.06479789,-0.35402134,-0.17989229,-0.21617523,-0.23208086,-0.3788366,-0.104892634,-0.029467538,-0.1589505,-0.059194487,-0.31367257,-0.083515584,-0.25085297,-0.23479511,-0.34898522,-0.124469206,-0.24539468,-0.05700956,-0.22549534,0.006853088,-0.0029216856,-0.06671432,-0.2736347,-0.19518183,-0.2951893,-0.22730662,-0.23979877,0.07352866,-0.40670106,-0.27063635,-0.13075814,-0.3293441,-0.17827491,-0.37522292,-0.21878435,-0.14960146,-0.058630615,-0.17782548,-0.17883123,-0.30012107,0.116474055,-0.1382272,0.106129766,-0.116365165,-0.07925373,-0.1573296,-0.19397236,-0.12787017,-0.121188164,-0.19291669,-0.17095235,-0.08872323,-0.39972013,-0.61621684,-0.30013177,0.26307786,-0.09496677,-0.2856028,-0.061639674,0.010947892,-0.078542285,-0.15607962,0.047865685,-0.24065581,-0.43378162,-0.19758065,-0.19882546,-0.10139209,-0.38528612,-0.3548003,-0.5164362,-0.22440988,-0.22252902,-0.25462574,-0.20125955,-0.17738841,-0.42091528,-0.10030507,-0.1663714,-0.111646235,-0.16702466,-0.08891627,0.14363624,-0.21660888,-0.38915816,-0.2904049,-0.33408663,-0.27069005,-0.24425915,-0.42831865,-0.07931386,-0.012003863,-0.18691957,-0.29982135,-0.18946792,-0.22547592,-0.51091665,-0.21978588,0.017689181,-0.21134156,0.12476861,-0.14298624,-0.22374876,-0.24446787,0.0048196623,-0.27094814,-0.22841609,-0.1365945,-0.034207635,-0.13855492,-0.22096087,-0.24565588,-0.13100548,-0.2688883,-0.2526582,-0.053016704,-0.06925972,-0.31562042,0.06076715
3,-0.072315246,0.0908466,0.14108713,0.31693998,0.11632944,0.1664255,0.3397544,-0.010265772,0.18062998,0.07023663,0.25521204,0.052773595,0.034709375,0.26243052,0.18410602,0.38004896,0.4284588,0.249004,-0.024631115,0.05547609,0.25715348,-0.036264095,-0.1057179,0.17639038,-0.18308866,0.32064342,-0.078674555,-0.05732401,-0.021066148,-0.0030373354,-0.16984619,-0.05901114,-0.26101488,-0.035994,-0.09898673,-0.12486919,-0.073406085,-0.021913104,0.1322877,-0.033202447,0.07989996,0.07661367,0.127104,-0.090339944,0.013389681,0.13398989,-0.09828804,-0.096937075,0.21815842,-0.05933348,-0.024756871,0.009597229,-0.1291627,0.20192271,0.018394606,-0.10875022,0.08806377,0.019319182,0.096400484,0.19165386,-0.14856042,-0.17681941,0.02548137,0.063589945,-0.086143464,0.09107221,0.0050304746,0.022454115,-0.10457636,0.19695799,0.0009168293,0.05025995,-0.051639445,0.10396286,0.2560816,-0.06294289,0.29511443,0.15899839,0.16717783,0.32363433,-0.062298097,-0.18974188,0.19805008,0.26417196,-0.019066332,0.0088703325,0.09224622,-0.00093275297,-0.042637676,0.20163299,0.044485666,0.062200293,0.11078271,0.2295168,0.2631937,0.23817804,0.16811462,-0.0948729,0.24933553,0.1000897,-0.20175202,0.28857344,0.008073848,0.09061393,0.04517282,-0.00943564,-0.1947904,0.17764993,-0.021007195,0.056819297,0.22668903,0.0127946455,-0.029749721,0.042948738,0.3820364,-0.015948206,0.37875715,-0.068682246,0.18900523,0.4781827,0.49834794,0.25706562,0.29008,-0.031102821,-0.035225805,0.5306386,-0.19801979,-0.0035596103,0.2669246,-0.014803133,-0.057957996,-0.08080927,-0.17410067,-0.016388668,0.049091224,-0.1823483,0.3361887,0.24721304,0.0024246173,-0.1832749,0.062162567,0.21922453,0.18348885,0.13233945,-0.29201356,-0.06500805,-0.096681036,-0.27588132,-0.2084199,0.044662986,0.18096499,-0.40262362,0.25650674,-0.094687566,-0.32508868,-0.14317088,-0.4073194,-0.5427193,-0.25894558,-0.21028216,-0.039994527,0.012528613,-0.45156473,-0.33379042,-0.36827782,-0.0677796,-0.38182697,-0.5110759,-0.05305388,-0.22908616,-0.7758404,-0.26116827,0.21047741,-0.6439034,-0.25976184,-0.5556303,-0.4723616,-0.36978137,-0.66755366,-0.39496398,-0.4586966,-0.32685417,-0.6110501,-0.92263776,-0.3964139,-0.5591396,-0.63537735,-0.66689056,-0.7372623,-0.85665715,-0.82266545,-0.6503794,-0.71629786,-0.9522963,-0.4424724,-0.47292942,-0.6986727,-0.7105024,-0.77486354,-0.936007,-0.6091399,-0.9170402,-0.71470577,-0.82563394,-0.5413228,-0.36757198,-0.6727046,-0.5367653,-1.2702925,-0.37861073,-0.8645678,-0.18864962,-0.6838999,-1.2706252,-1.222682,-0.9445825,-0.81779563,-0.9396081,-0.52186215,-0.2649816,-0.77295417,-1.0208712,-0.60811895,-1.0252429,-0.5707727,-0.87220204,-0.59275573,-0.69254774,-1.2125125,-0.5090897,-1.041905,-0.9864326,-0.50749713,-0.6660952,-0.6806878,-0.2859662,-0.38372958,-0.65848565,-0.47910503,-0.45272,-0.6716224,-0.8131544,-1.0879303,-0.17555974,-0.34723973,-1.0236026,-0.1298241,-1.2668604,-0.7612324,-0.69804615,-0.7007182,-0.10924845,-0.81051856,-0.2654261,0.21995,-0.69341904,-1.1633612,-0.5150981,-0.30157414,-0.6862012,-0.5156196,-0.5838431,-0.8678034,-0.0026132897,-0.3691891,-1.0645661,0.2130147,-0.1632478,-0.078326106,0.171811,-0.836791,-0.5740965,-0.33325258,-0.22650276,-0.3116227,-0.08211753,-0.67712027,-0.0856773,-0.7638012,-0.776957,-0.10778748,-0.26343685,-0.5669747,-0.44224086,-1.1705431,-0.434892,-0.44362748,-0.25329983,-0.37808788,-0.22133915,-0.695053,-0.4663979,-0.7967728,-0.28907064,-0.86184883,-1.0246836,-0.4027987,-0.6003798,-0.4583339,0.122236125,0.21229185,-0.49467885,-0.37419975,-0.02378464,-0.50860965,-0.6477378,-0.09034979,-1.0053605,0.111818165,-0.75490713,-0.23689823,-0.18749727,-0.3777527,0.14978951,-1.0373728,-0.16165996,-0.4011523,0.1507312,-0.43525705,-0.19002843,-0.832895,-0.4578912,-0.003741808,-0.13392113,-0.18719205,-0.29478598,-0.5770822,-0.40968648,-0.10304588,-0.51778513,-0.69301087,-0.1293832,-0.67552674,-0.70247364,-0.8657723,-0.6405651,-0.5803011,-0.3684678,-0.4946362,0.022716133,-0.6359138,0.22029585,-0.39358777,-0.3440979,-0.9269899,0.013143536,-0.9293799,-0.28959227,-0.48049727,-1.1187687,-0.3295875,-0.13805723,-0.037032966,-0.19922446,-0.60415226,-0.42602468,-0.301582,-1.2423795,-0.5087427,-0.3606549,-0.9985171,-0.6706683,-0.195347,-0.43371955,-0.36917463,-0.8868583,-0.5837726,-0.58855313,-0.897208,-0.66045964,-0.9658766,-0.92539734,-0.87241274,-0.4234525,-0.22005454,-0.9314864,-0.3437811,-0.9550396,-0.90090674,-0.97251153,-1.2141005,-0.6812607,-0.64935476,-0.933706,-0.4758325,-1.0927163,-0.4597328,-0.57002217,-0.31362578,-0.45314157,-0.41167232,-0.39079913,-0.28936675,-0.6529916,-0.6813947,-0.15055029,-0.76957464,-0.58979094,-0.04758366,-0.97583556,-0.7484468,-0.91365653,-0.9866688,-0.53916097,-0.7675632,-0.32442644,-0.3743707,-0.08891517,-0.98416436,-0.5524128,-0.8986071,-0.75242925,-0.7698069,-0.44370726,-0.6213647,-1.1346525,-0.2600774,0.016278664,0.23186916,-0.15674937,-0.0309513,-0.33772427,-0.5486218,-0.11994677,-0.39167458,-0.48141062,-0.23219153,-0.28292215,-0.8883829,-0.68396246,-0.12916052,-0.42955136,-0.6354515,-0.4703275,-0.33364704,-1.1331277,-0.1583297,-1.3188171,-1.3291382,-0.24401966,-0.31043437,-0.44436738,-0.6362868,-0.026812226,-0.72438484,-0.19590078,-0.2517009,-0.20400323,0.2403744,-0.81573176,-0.1330532,-0.1691997,-0.58883643,-0.8824938,-0.6829894,-1.2145318,0.07017729,-0.11522084,-0.038567346,-1.0028162,-0.7259668,-1.0788254,-0.23930264,-0.52541584,-0.14222285,-0.6544877,-0.7857335,0.35630128,-1.1463156,-0.40072334,-0.4743338,-0.43011108,-0.27252847,-0.5412485,-0.80663407,-0.32945865,-0.49736115,-1.1765608,-1.2484648,-0.5510928,-0.48309717,-1.2711954,-0.7495885,-0.6570728,-1.1418716,-1.2218623,-0.99663824,-1.1282676,-0.81860405,-0.78516847,-0.49798977,-0.6345284,-0.8681335,-1.5714191,-1.1177531,-1.0784073,-1.5147185,-1.1484126,-1.2344722,-1.1496657,-1.0696402,-1.1695164,-1.3222015,-0.95976126,-0.8828358,-1.3622247,-1.4579368,-1.2819495,-1.2834349,-1.6017771,-0.94214296,-1.4647416,-0.8595549,-1.0662724,-0.9829304,-1.042549,-1.2297062,-1.4999967,-1.3757079,-1.7305802,-1.1500345,-1.6279377,-1.8419895,-1.4149075,-1.8367243,-1.2584692,-1.3826966,-1.4848937,-1.3184063,-1.7212672,-1.7521281,-1.0727884,-1.537342,-1.6384754,-1.1775209,-1.7329502,-1.6366726,-1.0250881,-1.6206055,-1.7087133,-1.5028293,-1.329884,-1.2155197,-1.0048412,-1.531521,-1.867022,-1.3499377,-1.1561562,-1.1256062,-1.6336572,-1.5381132,-1.4476556,-1.7454354,-1.1858889,-1.4751831,-1.329598,-1.6989597,-1.2981567,-1.0756688,-0.8783607,-2.2147958,-1.0202236,-1.0012091,-1.427856,-1.0298172,-1.4487998,-1.1091303,-0.96154666,-0.8496586,-0.0751759,-1.2558482,-0.89215785,-0.5346607,-0.31455097,-0.5871517,-1.4677647,-1.3491278,-0.80783826,-0.105301954,-0.5289934,-0.50485444,-1.117304,-0.35131094,0.009347865,-0.39474174,-0.67603153,-0.58841974,-1.0854111,-0.059837468,-0.4547957,-0.34993365,-0.35713065,-0.056025375,-0.45796752,-0.3445532,0.043444864,-1.1216669,-0.60514563,-0.6277544,-0.75871444,0.14849946,-0.5469434,-0.4300916,-0.21045883,-0.6382779,-0.11429359,-0.49598897,-0.29259527,0.046960816,-0.4715002,-0.62028325,-0.56194836,-0.7495907,0.31120372,0.15484431,-0.08437322,-0.99402577,-0.24046458,-0.52570087,-0.38605404,-0.70450187,-0.36092982,-0.06226722,-0.39130375,-0.84221107,-0.83248764,-0.6064084,-0.9117509,0.07290433,-0.31698912,-0.056319032,0.18541709,-0.34213263,0.4000356,-0.32361037,-0.12225532,-0.017259581,-0.18894283,0.16834322,0.050110646,0.38275167,0.37725133,-0.06924263,0.09242118,-1.0656865,-0.7509597,-0.053903714,-0.23495303,0.15336329,-0.2061389,-0.10783924,-0.07873331,-1.0897908,-0.112503335,0.35203326,-0.36868468,-0.04975093,-0.22259203,-0.16618842,-0.043858998,0.6249249,-0.2783125,-0.5690838,-1.150458,-0.14008075,0.051944908,-0.24673165,-0.21168914,-0.114238285,-0.651771,0.074895054,-0.11507145,-0.11337276,-0.9480386,0.28235576,-0.54636776,0.2024087,-0.3933748,-0.46082464,0.44628876,-0.203412,-0.42766774,-0.8203165,-0.34732133,-0.5167222,-0.17203063,0.097411,-0.3041443,-0.114601724,-0.015739705,0.25139698,-0.1994884,0.13209766,0.015480391,-0.20382906,-0.7266981,0.4731067,0.119602785,-0.046928868,0.13496631
4,0.028672025,0.017293049,-0.018316554,0.06540502,-0.013960337,0.19861211,-0.12601346,-0.07422561,-0.05939024,-0.13035694,-0.005564524,-0.05886435,-0.12266553,-0.18117863,-0.19467539,0.033661366,0.0509713,0.053668562,-0.11236721,-0.31948647,-0.09413411,-0.04507453,-0.17726299,-0.1510894,-0.12423081,-0.18329641,-0.21427803,-0.16478574,-0.13720481,-0.123261854,-0.06283033,-0.22965197,-0.08875906,-0.15599021,-0.34459782,0.00458801,-0.13409899,-0.16102995,-0.17060493,0.12753382,-0.20693459,-0.15183747,-0.09248048,-0.12782156,-0.25278077,-0.07733545,-0.15359099,-0.19409218,-0.18820275,-0.05394646,-0.040646378,-0.1443712,-0.05785672,-0.1447748,-0.1297487,-0.1147968,-0.31597528,0.01918895,-0.12904425,-0.19148871,-0.20744626,-0.11425828,-0.27247965,-0.11597307,-0.014938785,-0.100189604,-0.122340046,-0.22169252,-0.17858191,-0.08144337,-0.26604202,-0.19087225,-0.06516282,-0.1514498,-0.2114806,-0.17985116,-0.1514073,-0.24756642,-0.17687584,-0.21993244,-0.21307008,-0.14249383,-0.08413227,-0.027618743,-0.23002157,-0.1854103,-0.16208464,-0.11857309,-0.17092665,-0.23052168,-0.12936299,-0.13627513,-0.23019032,-0.27474037,-0.12565148,-0.07742949,-0.1526179,-0.2671472,-0.16494347,-0.19782935,-0.26057425,-0.113012485,-0.18091694,-0.10351516,-0.2751725,-0.13771132,-0.20024754,-0.0054579154,-0.13663249,-0.06806272,-0.14374831,-0.016026324,-0.20669821,-0.24945249,-0.1257225,-0.171611,-0.13044973,0.101358674,-0.164535,-0.060589533,-0.22500809,-0.16342656,-0.05597984,-0.1768479,-0.040155597,-0.12179145,0.022131283,-0.22266929,-0.12102915,-0.14912896,-0.17501734,-0.116361186,-0.06326625,-0.109408356,0.03991349,-0.026189236,-0.123093046,-0.10167219,-0.05689491,-0.017199155,-0.15880585,-0.23990192,0.0414829,-0.025308007,-0.13100539,-0.08304889,-0.28294358,-0.06202634,-0.11959755,-0.14394288,-0.09715894,-0.0971102,-0.32230583,-0.020554943,-0.017165406,0.14009205,-0.23722056,0.040905453,-0.1534832,-0.31573284,-0.13332178,0.07661671,-0.086073264,0.13473706,-0.17874363,-0.17805192,-0.14450772,-0.032875456,-0.028600844,-0.27487046,-0.19181767,0.11496449,-0.009849262,-0.19174616,0.067799985,-0.19989069,-0.08567276,-0.091417536,-0.13756627,-0.25949395,-0.14887479,-0.10065149,-0.10080718,-0.30759683,-0.26447812,-0.33705795,-0.06390019,-0.2576653,-0.08743199,-0.15031733,-0.05562582,-0.09262483,-0.36241978,0.009359646,-0.2504302,-0.01710833,0.0160354,-0.21504761,-0.08033469,-0.12185441,-0.21645007,-0.1840466,-0.26045653,-0.15943968,0.0025717386,0.028978445,-0.42183974,-0.27023268,-0.20749287,-0.1673685,-0.11170525,-0.20107912,-0.11537689,-0.21361558,-0.20124926,-0.29378647,-0.45648205,-0.2829064,-0.0791817,-0.30695227,-0.25062943,-0.36497715,-0.26047832,-0.23210715,-0.18352175,-0.2439617,-0.12439112,-0.3247683,-0.063976794,-0.22299261,-0.5475133,-0.15138619,-0.22188222,-0.35256255,-0.19867612,-0.26212063,-0.40546042,-0.27763623,-0.33819804,0.088983685,-0.30034587,-0.24033007,-0.11785514,-0.15729274,-0.17382598,-0.24420153,0.0076161204,-0.3539725,-0.02051011,-0.50870913,-0.13179561,-0.20845354,-0.32166213,-0.31711584,-0.36273935,-0.40753242,-0.5401473,-0.42485,-0.11059067,-0.4053566,-0.48986465,-0.5095423,-0.47093102,-0.27604362,-0.18777567,-0.07077649,-0.21344002,-0.22801153,-0.32386085,-0.50297713,-0.095187075,-0.3158232,-0.47538245,-0.48840657,0.09682644,-0.43775663,-0.2169383,-0.1477398,-0.28840506,-0.39301035,-0.19723499,-0.20673719,-0.021192035,-0.6423342,-0.22119111,-0.27333435,-0.46531665,-0.32774442,-0.32331613,-0.08781945,-0.07661572,-0.24340437,-0.19159226,-0.26774386,-0.53005165,-0.1862079,-0.16879255,-0.19428307,-0.16901392,-0.10132172,-0.25237325,-0.5291978,-0.23621824,-0.1470713,-0.20709404,-0.14782207,-0.34604168,-0.33867088,-0.06736582,-0.16345881,-0.100843005,-0.39120093,-0.25603503,0.123537295,-0.013447099,-0.06491184,-0.24397032,0.014380297,-0.12199214,-0.22347395,-0.18224289,-0.33164024,-0.14048307,-0.4173781,-0.29150617,-0.2792851,-0.31176102,-0.07750183,-0.40028122,-0.2496418,-0.31574944,-0.22187205,-0.10453944,-0.14439778,-0.03868016,-0.09887743,-0.267478,-0.22917886,-0.0022043376,-0.20187712,-0.6193651,0.2342733,-0.09478357,-0.20833921,-0.3371839,-0.22674324,0.06821899,-0.17460996,-0.081105486,-0.4925791,-0.0791992,-0.29483414,-0.4940082,-0.24116461,-0.2944853,-0.41921353,-0.66568875,-0.102752715,-0.15164214,-0.23900738,-0.13221945,-0.29532477,-0.41827437,-0.11927542,-0.4094886,-0.1542454,-0.1945432,-0.44066748,-0.18677366,-0.26742238,0.10936288,-0.117769524,-0.08364277,-0.2766063,-0.4587006,-0.42056918,-0.42640227,-0.39781263,-0.076529756,-0.01880047,-0.0074866107,0.07541277,-0.5806842,-0.5089923,0.09123973,-0.16911517,0.07457627,-0.19703157,-0.32521647,-0.2057854,-0.23262663,-0.16961749,0.069001816,-0.15649955,-0.26985714,-0.19133583,-0.20419618,-0.2602205,-0.23769125,-0.29432628,-0.30677754,-0.45282176,-0.09118733,-0.21871448,-0.5594129,-0.343798,-0.067428306,-0.2965402,0.010255153,-0.15105757,0.0066464934,-0.117299154,-0.17456208,0.068861224,0.15608314,-0.27587634,-0.34748355,-0.019801171,0.049413703,0.05357456,-0.052303556,0.09525114,-0.27537036,0.08519543,-0.117870234,-0.042853776,-0.20884795,-0.38613275,0.15117525,0.048358906,-0.05455904,-0.19977358,-0.12520649,-0.31314218,-0.10384077,-0.16689438,-0.13497615,-0.16478021,-0.16061194,-0.33459646,-0.096481316,-0.18180701,-0.22546212,-0.32308808,-0.102231935,0.3277039,-0.33957458,0.19974248,-0.0846308,-0.014237559,0.0006409958,-0.18119489,-0.04129928,0.014516836,-0.19752254,-0.093613885,-0.051554494,-0.10551404,-0.28612626,-0.13150926,-0.07226684,0.060864165,-0.37401485,0.14306448,0.0097453715,-0.21191978,-0.03355835,-0.046686858,-0.21009687,0.0495487,-0.4364061,0.048129164,-0.06320408,0.04179852,-0.18284675,-0.13445778,-0.051252563,-0.11456165,-0.36605433,0.19466142,-0.064183354,-0.016463995,-0.6000312,-0.3895723,0.10490284,-0.12870751,0.05555834,-0.14669992,-0.1979582,-0.16071397,-0.21790937,-0.23874591,-0.3555907,-0.11492634,-0.41182497,-0.21515723,0.22960451,-0.059153743,-0.29005823,-0.13577417,-0.30243388,-0.16684718,0.0073763337,-0.42610067,-0.1848938,-0.08060371,0.10004414,-0.23069961,-0.36474845,-0.2805129,-0.2969931,-0.12297135,0.371471,0.08300314,-0.42701417,-0.18855911,0.05831969,-0.3211007,0.05955229,-0.18537168,-0.13244967,0.04928263,0.12973091,-0.18277748,-0.06671106,-0.0908857,-0.07192669,-0.11392234,-0.12183545,-0.16405335,-0.3111438,0.21777083,-0.42463616,-0.23236841,-0.17133717,0.050743077,-0.080774926,0.06333788,-0.20525742,-0.5126313,-0.053905442,-0.15498687,-0.16090752,-0.35495692,-0.349978,-0.05522842,-0.6176761,-0.23759004,0.08014597,-0.014899172,-0.23806874,-0.2537648,-0.03085241,-0.41454825,-0.36264187,-0.3529367,-0.50768334,-0.16825517,-0.35190362,-0.41272697,-0.3595724,-0.53702796,-0.34009942,-0.18695165,0.09770678,-0.12647466,-0.28756326,0.13328198,0.17381366,-0.2523717,-0.21489671,0.09450195,-0.30040473,0.31996545,-0.3361464,-0.57994646,-0.34911984,-0.10155685,-0.66073346,-0.22019313,-0.076340534,0.5235952,-0.3643167,-0.11662907,-0.07143839,-0.20761098,0.13599081,0.36882734,-0.123501,-0.3848327,-0.023253527,-0.23098058,-0.1635502,-0.16948937,-0.39577243,-0.05879886,-0.024569342,0.44962028,-0.6564408,0.5302352,0.17583641,-0.20471956,0.13816385,-0.21003664,-0.027494153,0.08454738,-0.0043854634,-0.0201929,-0.39179868,-0.3379907,-0.28512254,-0.28938672,-0.4759044,-0.23441857,-0.15605785,-0.045030713,-0.25916183,-0.23729219,0.038410913,-0.43017396,0.21163549,-0.20453124,-0.13237391,-0.28731784,-0.31584418,-0.13421446,-0.18669458,-0.59842044,0.022884168,-0.1340585,-0.18047255,0.2321561,-0.4797294,-0.33082724,-0.10445533,0.099312134,-0.15549776,-0.2725308,-0.011427585,0.08149327,-0.14227839,0.38518894,-0.5083646,-0.05495343,0.030882133,-0.13471717,-0.16522028,-0.147513,-0.11551635,-0.6822776,-0.40403557,-0.2500468,-0.28271946,-0.5845759,-0.22256714,-0.12243209,-0.43760777,-0.1330937,0.06447394,0.32166165,-0.24812739,-0.2307981,0.005674292,-0.539613,-0.31959903,-0.030129049,-0.13443738,-0.20745651,-0.29714373,-0.4081321,-0.14641337,-0.29261795,0.0024383299,-0.32584056,-0.024973728,-0.3771156,-0.56126904,-0.0056300657,-0.06628557,-0.26665166,0.017198337,-0.3372949,-0.50527436,-0.20534351,-0.21871442,-0.24820721,-0.04159107,-0.7181652,-0.3979049,0.13666272,-0.06391466,-0.16708766,0.11548788,-0.11488101,-0.15802057,-0.11981283,-0.50183594,0.18230988,-0.26731145,-0.09931415
5,-0.035634436,0.19819802,-0.041485846,0.099407315,0.35726953,0.16801561,0.06513248,0.11741136,0.09006615,0.19188894,-0.10841405,-0.047652952,0.08102485,0.10655634,0.021516528,0.028095435,0.107232384,-0.06256102,0.096723005,0.16367678,-0.00981839,0.072863124,-0.06009782,-0.03921415,-0.15615903,0.096572384,0.18373872,0.17106746,-0.06600088,0.05290222,0.1901948,0.02201215,0.14187388,0.06592021,0.11289952,-0.08300093,0.15561292,-0.10245373,0.15629788,0.23849832,0.16028558,0.17514591,0.08945108,0.19091026,0.13088378,0.25383565,-0.10489374,0.0003140791,0.04762507,-0.05452307,0.15020481,-0.14147457,-0.1714548,-0.049454946,-0.08748291,-0.07387491,-0.19311428,-0.002943055,-0.12884441,-0.15190493,-0.055157963,-0.2774712,-0.24311225,-0.238445,-0.12561479,-0.2494284,-0.008470195,-0.21423718,-0.15322417,-0.068462744,-0.064914286,0.0072469166,-0.06011408,-0.027882023,-0.1045379,0.018245868,0.14606358,-0.09586248,-0.05475398,-0.0072758584,0.033907473,0.046900187,0.082049556,0.09353885,-0.060109146,0.14706388,0.048693083,0.042576753,0.16955084,-0.04163678,0.29975334,-0.0829027,-0.028399639,-0.07578538,0.09306043,-0.090798974,0.008922297,0.089087985,-0.25072205,0.027744308,0.025639078,0.03673917,-0.103653885,-0.22695714,-0.10724427,-0.26107442,-0.28646073,-0.1459586,-0.26062372,-0.13021564,-0.15012611,-0.109134614,-0.24068896,-0.21352239,-0.016849553,-0.1446737,-0.17804758,-0.17352065,-0.10674029,-0.10265796,-0.19891386,-0.36025053,-0.039649073,-0.21527904,-0.14378321,-0.24291418,-0.36339846,-0.30633643,-0.09726093,-0.3645398,-0.12775299,-0.18641485,-0.23809916,-0.17619967,-0.1723308,-0.22976547,-0.19385017,-0.2373282,-0.30024973,-0.42532307,-0.3321458,-0.34767658,-0.18648027,-0.3556596,-0.36756155,-0.25013378,-0.21067852,-0.52207315,-0.4285083,-0.43809637,-0.18827353,-0.6209602,-0.5080815,-0.5835433,-0.6231461,-0.43453377,-0.47242644,-0.6116697,-0.65542907,-0.5148866,-0.4320968,-0.7085134,-0.55385697,-0.606295,-0.5320996,-0.5415597,-0.7306151,-0.6391717,-0.62592834,-0.7016899,-0.6383498,-0.6355243,-0.48037943,-0.6864238,-0.56741726,-0.6282318,-0.48531514,-0.673992,-0.58100194,-0.55796,-0.72938645,-0.7094602,-0.3060106,-0.5912923,-0.70376235,-0.37521338,-0.6805131,-0.5871091,-0.5476425,-0.509949,-0.5691656,-0.56236315,-0.57650024,-0.2226823,-0.60170496,-0.34371886,-0.4098751,-0.32407236,-0.13284604,-0.16634423,-0.23191741,-0.16412757,-0.2967946,-0.092889495,-0.16799639,0.06400202,-0.27263948,-0.09190214,-0.011962202,0.062211573,0.027462019,0.04046673,0.06454411,-0.08692321,-0.10714702,0.03375068,0.12869038,0.24629852,0.11291421,0.17954198,0.20842199,-0.033051804,0.16153964,0.30365676,0.25915763,0.114418425,0.25490576,0.47883683,0.37019226,0.35306534,0.24830832,0.19707203,0.30680424,0.36032882,0.32775232,0.23736948,0.35299316,0.27446288,0.25674415,0.55189306,0.35723904,0.43713284,0.30732444,0.12132067,0.54800546,0.50944036,0.31517255,0.42193672,0.48178443,0.49073938,0.07451103,0.26258323,0.32595438,0.4047555,0.3549609,0.42379466,0.29300356,0.47912577,0.27129814,0.51571757,0.29807258,0.39613643,0.462396,0.3622228,0.31719404,0.23919038,0.46633336,0.3235273,0.17554672,0.45602918,0.57549715,0.4694471,0.41731703,0.13196759,0.18389753,0.45742738,0.08511752,0.27398422,0.23259261,0.30906725,0.50552994,0.44094205,0.30280304,0.3191534,0.41178912,0.43797836,0.27032822,0.41597268,0.5384508,0.35093525,0.22987023,0.61347705,0.55582225,0.18902421,0.5091741,0.4421396,0.41854197,0.2491458,0.27226397,0.25739518,0.40731105,0.4823615,0.46755928,0.47840264,0.29861587,0.3285362,0.60798204,0.45530567,0.67718816,0.65362006,0.7511991,0.67224985,0.7009691,0.33337766,0.40143505,0.7875154,0.7845594,0.70650005,0.45865554,0.18016836,0.64276385,0.7180672,0.5780294,0.90085536,0.65744543,0.20845401,0.58024114,0.6197375,0.37740391,0.29853395,0.28690195,0.62088335,0.5364329,0.5203452,0.34812295,0.5377252,0.27898803,0.47094452,0.17975225,0.13611808,0.6884847,0.29610997,0.6275511,0.6905764,0.19289678,0.15611674,0.16143738,0.4976103,0.110111564,0.14972699,0.22954763,0.4241601,0.30117998,0.084631845,0.3170362,0.0710172,0.32651633,-0.08395988,-0.074868955,0.1045122,-0.016134148,0.32300353,0.2381899,-0.001680589,0.008108703,-0.028675439,-0.077470385,-0.18922155,0.32212856,-0.20522636,-0.17043538,0.06486704,-0.14655595,-0.31413218,-0.19693911,-0.27744696,-0.018530115,-0.030381696,0.3325987,-0.31165692,-0.014759776,-0.3218006,0.025633661,-0.6568143,0.062685154,0.02018833,-0.40219772,-0.36657795,-0.15043427,-0.28217265,-0.5119461,-0.56051445,-0.21483885,-0.2562042,-0.33298573,-0.32357916,-0.5642526,-0.3755795,-0.14413296,-0.2787704,-0.5441884,-0.2893339,-0.13025194,-0.55387354,-0.36957252,-0.25650632,-0.17879727,-0.47195816,-0.81417936,-0.27231252,-0.38051277,0.0983676,-0.065884106,-0.25239697,-0.08880252,0.063779876,-0.113594495,-0.33545506,-0.27066708,-0.13441606,-0.5404953,-0.41146874,-0.5673154,-0.49901292,-0.15412433,-0.6115894,-0.14819984,-0.56021345,-0.025824985,-0.3637928,0.06084341,-0.42297456,-0.13627775,-0.40015134,-0.68949026,-0.59295297,-0.0858909,0.5221812,-0.38869217,-0.5753147,-0.3143856,-0.32845274,-0.22283493,0.20025866,0.41934615,0.09821363,0.1259454,-0.037381504,-0.30829144,-0.097627886,-0.03561749,0.2398643,-0.29193366,-0.027406698,0.17645514,-0.15421659,-0.47493774,-0.33239636,-0.2979912,-0.440175,0.5963763,0.28233898,-0.0249099,-0.11951156,-0.2894163,-0.20299557,-0.12934577,-0.08246621,0.069745004,0.6246275,-0.13491298,-0.1888612,-0.07914989,-0.016399,0.2559153,0.5852527,-0.26825085,0.26721638,0.06513735,-0.21782401,0.34126118,-0.51897025,0.5168916,0.0842516,0.30836415,-0.046555873,-0.06615037,0.4102986,-0.15607475,-0.42006284,-0.18002516,0.056897804,0.23496655,0.1548083,-0.31671995,-0.41375124,0.0533947,0.2605732,0.022211872,-0.15751436,-0.43118703,-0.0359421,-0.18125755,-0.5032806,0.3121854,-0.46018997,0.0753472,-0.5586809,0.16324578,-0.086580165,-0.13271591,-0.6045829,-0.4004269,0.037145786,-0.23844974,0.00825028,0.33343285,0.09442123,-0.26119792,-0.18655463,-0.46880978,-0.07943941,-0.2905508,-0.32850054,-0.6070056,0.16144231,-0.57224613,-0.43428764,-0.45729402,-0.5620959,-0.08731803,-1.0564572,-0.09929167,-0.18642442,0.31272036,0.023516057,0.3686674,-0.28391612,-0.2972578,-0.020266727,-0.4888984,-0.521483,0.40498057,-0.46891817,-0.4224384,-0.80454594,-0.43773007,-0.50316215,-0.6835847,-0.71718097,-0.21020503,-0.6948433,-0.3969396,-0.11307622,0.071112566,-0.4428351,-0.19765781,-0.22114386,-0.18365121,-0.84660864,-0.5749715,-0.42753273,-0.42282698,-0.43448222,-0.029401386,-0.35496557,-0.1734469,-0.35139897,-0.1406723,0.15047196,-0.53437126,-0.049968664,0.25522953,-0.29282153,-0.17096326,0.49427825,-0.3419119,-0.39973524,0.18568413,0.059961025,-0.4042236,-0.14345165,0.11219656,-0.32415238,-0.3238284,0.1289781,-0.50572145,-0.0852729,-0.31732845,0.15210082,-0.12056934,0.039910614,0.18468912,0.37789196,-0.2722035,-0.1325868,-0.5278503,-0.21849962,-0.22910781,-0.18068135,-0.08654878,0.14283572,-0.5189009,0.20560266,-0.6070003,0.47708923,0.032223925,-0.12838645,0.42065614,0.09213271,0.22922885,0.39387476,-0.022409244,-0.9144642,0.4426247,0.04938608,-0.49757472,-0.20963466,0.62211365,-0.29495603,-0.057217844,0.818109,-0.5593508,0.08068615,0.15474336,-0.82807106,-0.52551645,0.038412962,-0.46037832,0.14299488,0.09119729,0.84604084,-0.6470153,-0.6415,0.212488,-0.096198484,0.7476259,0.118049994,-0.21396299,-0.54553634,0.3789188,0.26999414,0.7331889,0.03021221,0.33107385,-0.1432815,0.24348801,0.51663125,-0.40047652,-0.47142038,0.61428285,-0.396914,0.25056186,0.06157128,0.14185537,-0.57163596,0.15418042,-0.22676763,-0.30932373,0.9432539,-0.890824,0.39702347,0.933772,0.19691451,-0.22249524,0.24366722,0.5315687,0.43397295,0.45528173,-0.16606514,0.07028736,-0.8027999,0.06238574,-0.484574,0.54700017,0.49439555,-0.5666308,-0.056188844,0.18095568,0.22829767,-0.04573439,0.7103574,0.024171943,-0.20695192,0.43214914,0.085469075,0.9253847,-0.11854757,0.16142866,0.2775597,0.5525852,-0.012761538,0.14358644,0.73359495,0.67246747,0.05750377,0.4479319,-0.3966254,0.16615848,-0.041483298
6,-0.060435038,0.14408648,0.25480193,0.32395113,0.23146416,0.16250314,0.3581109,0.33083165,0.2249177,0.43107814,0.31970417,-0.10341178,0.27390727,0.004363952,-0.14576253,-0.13181503,-0.08894253,-0.15042004,-0.22831634,-0.16638166,-0.32230613,-0.2025614,-0.12204461,-0.17339025,-0.37706044,-0.2343898,-0.28438202,-0.30014724,-0.28410813,-0.31488425,-0.28669432,-0.24420452,-0.1416978,-0.37786305,0.23237216,-0.27892274,-0.047684036,-0.43378878,-0.29213673,-0.33052555,-0.38597187,-0.22760017,-0.1459357,0.005931733,0.11598826,0.07650706,-0.10582078,-0.08098295,-0.11637194,-0.18884154,-0.1505696,-0.01729644,0.025294824,0.44241717,-0.16329427,-0.08750935,0.24837065,-0.027996475,-0.29011226,0.03223532,-0.012909185,-0.061508447,0.28079802,0.10647633,-0.14842014,0.059319265,-0.14314951,-0.28025326,0.22272733,-0.47099537,0.2173635,0.015531036,-0.37257892,-0.13006245,0.00095982716,0.09682333,-0.005281251,0.104608946,-0.41070056,0.0312219,-0.4451116,-0.44292888,-0.37614906,-0.2639544,-0.5207945,-0.31354263,-0.16965896,-0.14872287,-0.28126493,-0.42729446,-0.38643515,-0.60468,-0.53886133,-0.4653508,-0.20917799,-0.21632221,-0.2019134,-0.4959229,-0.33825552,-0.4270745,-0.2969447,-0.14942263,-0.09589211,-0.34707627,-0.67293054,-0.21642819,-0.51418155,-0.15642664,-0.41362566,-0.22290635,-0.456693,-0.37166053,-0.1364193,-0.3081459,-0.5358007,-0.35849252,-0.111626215,-0.6457332,-0.082603134,-0.09432584,0.08863035,-0.23255278,-0.32773423,-0.09827739,-0.37549892,-0.102073096,-0.4783858,-0.6046005,-0.18277104,-0.53034884,-0.34370744,-0.5849907,-0.34147188,-0.48857746,-0.33650318,-0.15536605,-0.4304483,-0.48586065,-0.15554026,-0.7383813,0.094159454,-0.571747,-0.48833293,-0.20677029,-0.13782778,-0.20128004,-0.41752818,-0.01580365,-0.12086515,-0.46322212,-0.19749571,-0.1276084,0.062825866,-0.30671027,-0.66808885,-0.13186961,-0.29532924,0.12699975,-0.5498426,-0.5046172,-0.19979845,-0.3247796,-0.5798412,-0.60547805,-0.5387521,-0.25960574,-0.4395577,0.10306584,-0.10282175,-0.27141565,-0.63923806,0.061176628,-0.0040297196,-0.6308037,-0.32686025,-0.701484,-0.47775903,-0.52148473,-0.18741547,-0.35714966,-0.26036727,-0.38988075,-0.4830689,-0.43318906,-0.57468396,0.32714167,-0.55744374,-0.818878,-0.21374726,-0.032254003,-0.76518214,-0.18429585,-0.4129437,0.05206982,-0.058285166,-0.2533132,-0.057981733,-0.5302452,-0.32751817,-0.23152904,-0.083975665,0.23883078,-0.60726815,-0.24031016,-0.033009093,-0.75205636,-0.28523275,-0.7129346,-0.16004695,-0.42684114,-0.15515058,0.07501638,0.108484216,-0.0854125,0.06523558,-0.3551934,0.008089178,-0.0040151495,-0.21645597,-0.46889076,-0.40031987,0.19645098,-0.24302325,-0.28077957,-0.5511302,-0.090862766,-0.83245426,-0.2911683,-0.1773737,-0.2592082,-0.5325132,-0.58917606,-0.2535542,-0.664599,0.16366623,-0.8051341,-0.8787234,-0.5933196,-0.58659667,-0.59117126,-0.76827246,-0.6546789,-0.4233318,-0.7936742,-0.56925243,-0.09955496,-0.6496688,-0.62181824,-0.6792992,-0.04553036,-0.519132,-0.48867878,0.11362536,-0.32915103,-0.2448958,-0.7781177,-0.26915213,-0.38462085,-0.8050411,-0.82163906,-0.44729146,-0.8695023,-0.35695204,-0.5419724,-0.28964362,-0.23997904,-0.5447663,-0.3968158,-0.2953919,0.1057243,-0.62872505,-0.2886663,-0.22675103,-0.093500756,-0.44105804,0.5261267,-0.34274113,-0.6046824,0.12248658,-0.48699534,-0.27001157,-0.3084216,-0.29605845,-0.08523418,-0.9394077,0.22466841,-0.3282507,-0.44368544,-0.057004783,-0.40269017,-0.7336518,-0.23723981,-0.33341584,-0.48473576,-0.17307833,0.025879443,-0.21989755,0.24077748,-0.40446153,0.24616747,0.18543257,-0.57414615,-0.09057298,-0.44546413,0.2584148,-0.626683,0.38256475,-0.13849072,-0.034888938,0.23623213,0.005624324,0.6339115,-0.14786555,0.16747686,-0.74942225,0.15913133,-0.34605882,-0.10583829,0.11473036,-0.15995374,-0.19283335,-0.08000388,-0.34392813,0.19990537,-0.21505566,-0.22366872,-0.54405767,-0.18146534,-0.534296,-0.37722853,-0.24726667,-0.2341207,-0.13815282,-0.2006884,-0.15799437,-0.40234894,-0.23217613,0.04424913,-0.48869866,-0.0011902702,0.15999146,-0.01912636,-0.47173053,-0.13924344,-0.05740046,-0.26893744,-0.3990849,0.6228098,-0.8265281,-0.33529457,0.077772304,-0.6924665,-0.08012929,-0.13146834,-0.06420489,0.25932068,-0.09096936,-0.29725876,-0.05208142,-0.2169091,-0.60048926,0.20412004,-0.13132595,-0.19486889,-0.21449451,-0.08173029,-0.42051148,-0.78558415,-0.2837382,-0.17126256,-0.7229681,-0.47236335,-0.60462296,0.31304792,0.15225329,-0.3210476,0.14752993,-0.5884243,0.17467088,0.19240445,-0.055202276,-0.1761249,0.17544599,-0.30386868,0.45917606,0.631044,0.3059563,-0.1988491,0.27251852,0.023821037,0.46823376,-0.41686478,0.39338055,-0.39243287,0.26548514,-0.14922951,-0.31371132,-0.123306155,0.34831658,0.2626523,0.1125134,-0.4738647,-0.28478312,-0.38217714,-0.41212288,-0.38077432,-0.4819323,-0.077269286,-0.021318197,-0.28230768,-0.13547955,-0.25301728,-1.0160301,-0.2925758,-0.43505037,-0.2698647,-0.035773803,0.1828723,-0.48185524,-0.9318914,-0.042089302,-0.31012738,-0.16223133,0.026820531,-0.59737474,-0.6742839,-0.56226164,0.41202936,0.17025466,-0.3352569,-0.11705723,-0.5318764,-0.4398197,-0.1752681,-0.21915534,-0.18563177,-0.10227965,-0.5565491,-0.28406224,-0.020670852,-0.19675505,-0.33779758,0.053901207,-0.13013855,-0.29046395,-0.27205735,-0.5210391,-0.49558324,0.5528032,0.29383227,0.33704597,0.19517805,0.29931414,-0.039176974,0.094833225,0.1550495,-0.09737009,-0.26652077,0.36931458,0.007970468,-0.021856442,0.29959452,0.47131714,0.36476615,0.3336975,0.55243117,-0.037434194,0.48244578,0.107350856,0.5226674,0.047479678,0.19006008,0.26553753,-0.34950015,0.30348748,0.19043478,0.8388602,-0.31922746,-0.092556685,0.5077848,0.20586072,0.5488111,-0.013665515,0.08725608,-0.12662877,-0.11332929,0.46754524,0.25069407,0.14859655,0.37972245,-0.06034805,-0.1839688,-0.06995423,-0.37582895,0.2310541,0.1452818,0.15534014,-0.03733391,0.1712389,0.2179681,0.16897328,-0.36838382,-0.4214548,-0.25929973,0.3853809,-0.10828204,0.33033645,-0.06779316,0.09788101,0.037182685,0.38983577,-0.31729457,-0.15788446,-0.48612335,0.02041638,0.024692865,-0.02804259,-0.11484754,-0.57659113,-0.5003191,-0.23129922,-0.5371805,-0.12868069,-0.5304891,-0.049331192,-0.08288297,-0.29671246,-0.25522903,-0.4569832,-0.31543788,0.040578175,-0.5117014,-0.42468062,-0.28156987,-0.25821802,-0.46634462,-0.28932992,0.05700365,-0.30053875,-0.43105415,-0.22578566,0.28959534,-0.45766282,-0.17414384,-0.47143084,-0.3221947,-0.04673088,0.17570566,0.32596448,-0.5866213,0.015274079,-0.32690257,-0.1942187,-0.45940822,-0.32529375,-0.41070145,-0.22754645,-0.011799903,-0.44472182,-0.20255548,0.42099732,0.40510193,-0.2597387,-0.84414846,-0.44480425,-0.3223181,-0.1599151,-0.24115296,-0.28265437,0.25633046,-0.71148074,0.25796396,-0.4992135,0.33657795,-0.0412137,-0.24283108,-0.0752683,-0.23378749,0.25296935,0.22692479,-0.34398627,0.07853156,-0.25509873,-0.025454927,0.038209062,0.10725946,-0.19483665,-0.3637776,-0.42942905,0.034100305,-0.13230596,0.23232403,0.14330603,-0.071656026,-0.15153702,-0.30997506,0.3069868,-0.119104765,0.19444266,0.2336803,0.22204179,0.008422156,-0.5937534,0.015358319,0.00858027,-0.3950473,-0.27481896,0.17870475,-0.35205066,0.03859943,-0.21900111,-0.32850727,0.05150071,0.40569568,0.5246626,-0.012102599,0.15914819,0.314166,-0.720283,-0.28100774,0.030465275,-0.18530056,0.33690166,-0.08178681,0.95505697,0.5251614,-0.5034301,-0.3447105,0.6907032,-0.066187836,-0.4772454,0.18063717,0.31909266,0.25295728,-0.060741734,-0.36947677,0.059161853,0.19909352,0.04740788,-0.17550898,0.037361972,-0.16961783,-0.099498935,0.22191104,-0.005983318,-0.56416494,-0.10903928,-0.5319651,-0.2843569,0.6582443,0.33068132,0.5980656,-0.14757007,0.41713166,-0.25497735,0.67397505,-0.05622394,-0.16584717,-0.16453192,-0.37372515,-0.4382767,0.19988976,-0.38262323,-0.57549727,-0.30558273,0.6570681,0.1733586,-0.48532486,1.0774177,-0.06305203,-0.65178216,-0.4135487,-0.0896512,-0.23642386,0.37534788,0.06343557,-0.27610636,0.30252165,-0.030059017,0.4053057,0.84238946,-0.21207899,0.05011779,0.32870683,0.5209175,0.940473,-0.058874525,0.30509758,0.5265832,-0.10822967,0.74421316,-0.6850334,0.063916534,0.2818622,-0.44297108,-0.27913406,0.43370724,0.17510298,0.10456416,0.3558738
7,-0.06776886,-0.014289442,-0.085926816,0.120205306,-0.049118273,-0.20971383,-0.048970766,-0.18733016,-0.27160457,-0.048302464,-0.00047225645,-0.22943771,-0.20637806,-0.14143293,-0.26298627,-0.09613285,-0.036083244,-0.082500935,-0.2773603,-0.1859476,0.01898444,-0.16862428,-0.20971203,0.098034,-0.050121646,0.02946065,0.04149295,-0.12312402,-0.011772703,-0.13987072,-0.052470837,-0.19192052,-0.04719847,-0.007476598,0.006983578,0.023784066,0.20560881,-0.065338686,-0.010933594,-0.011328642,0.12330446,-0.16424043,0.053103715,0.077814825,-0.10443424,-0.0041807876,-0.029274255,-0.016342182,-0.15039271,-0.0929842,-0.05591671,-0.14344107,0.060796842,-0.0005859717,0.12812722,0.044945914,0.032088734,0.05044414,-0.095560476,0.10966312,-0.049040116,-0.1831224,0.02510725,-0.10740071,-0.16857685,0.090001844,0.078928545,0.034875523,0.01989621,-0.11945812,0.16048706,0.13525051,-0.21950822,-0.057615303,-0.11976799,0.09290025,-0.20475574,-0.098528914,0.15003228,0.10746956,0.0049278247,0.11935858,0.0032958481,0.13227099,-0.06623544,-0.093518846,-0.067672946,-0.2786493,-0.13203138,0.11051423,0.1106445,-0.084259465,-0.19172305,-0.17380168,0.060596958,0.04516979,0.061313845,0.0715841,0.025144134,-0.010984436,-0.029291172,-0.086599894,0.12910855,0.13187893,0.24094178,0.040289134,-0.04565222,0.11425917,-0.118634924,0.03627182,0.23562264,0.13914314,0.122453995,0.20319638,0.08005706,-0.045672104,0.21324687,0.056570783,0.030514833,0.2027722,0.057229556,0.032472074,0.18855631,0.14738932,0.14088689,0.09848993,0.121223375,0.11561177,-0.048884127,-0.021105973,0.16351907,0.07768524,0.11933506,-0.13771546,0.0013053066,0.0487707,0.18628654,0.240972,0.17342538,-0.04344246,-0.04116771,0.049562693,0.14034292,-0.06235303,0.007530282,0.15002914,0.0042412947,0.072412,0.24333902,0.13569103,0.062138245,0.14493291,0.0603271,-0.05675887,0.09506434,0.047030482,-0.047162063,0.048093554,0.019153731,0.05362757,0.22683464,0.12010259,0.10477066,0.08662122,0.010202534,0.3819507,0.1953864,0.13330813,-0.021951523,0.049101397,0.02915887,0.18305017,0.20934665,-0.07007298,0.20809454,0.11377455,0.28368676,0.09724729,0.07399111,0.09187619,0.047264848,0.03040808,0.24391933,0.20261428,0.4844249,0.18184535,-0.054748632,0.114198275,0.14463262,0.28752974,0.29771662,0.047223154,-0.18599471,0.08501713,0.07650739,0.27067724,0.14940071,0.19148454,0.15647337,0.22559847,0.22631343,0.12480141,0.21351317,0.17426029,0.055744972,0.28116632,0.18946823,0.070640594,0.12769197,0.09912628,0.2838433,-0.06701827,-0.0031559486,0.07579414,0.014010918,0.21788503,0.029329885,0.23337066,0.1397391,0.1688022,0.24398872,0.23221283,0.13088813,0.05104211,0.028002117,0.17855495,0.08339594,0.26422414,-0.010681674,0.101059295,0.26490468,0.014316093,0.15939708,0.35582635,0.08291683,0.30637902,0.26948124,0.04918308,0.10711553,0.2366992,0.08653516,0.0032641254,0.2902045,0.0076417658,0.34857965,-0.1115612,0.07056345,-0.027132068,-0.05110215,0.006920273,0.13781655,0.10088934,0.024038482,0.016539969,0.31056106,0.15582706,-0.00017842426,-0.10897911,0.1328699,0.178237,-0.15972722,-0.013610893,-0.043448944,0.051712867,0.059533004,0.111598685,-0.016981559,-0.028114283,0.0396127,-0.12101966,-0.0766808,0.085915886,-0.06338723,0.22435172,0.030293213,0.11394536,-0.14711632,0.0890077,-0.06323847,0.15198699,0.24605161,-0.07071421,-0.04619077,-0.15424438,-0.02830203,0.31044063,0.06751381,-0.092311226,0.38440064,-0.06951341,0.04071367,0.043260105,0.010649909,0.085507,0.045226432,0.066483326,0.32368377,0.08005596,0.2580808,0.21714678,0.12130978,-0.0965858,0.42282355,0.17354003,0.1613621,-0.06327375,0.32357204,-0.064592734,0.20404316,-0.0142616555,-0.0005103884,0.16847166,0.20182453,0.019549614,0.23971142,0.4415989,0.28873208,0.1414037,0.26198226,0.4982239,0.2239642,0.13830048,0.29752108,0.42931578,0.5530954,0.24044453,0.0699715,0.31381586,0.2600385,0.28084314,0.43266168,0.18754987,0.083670594,0.48280135,0.635159,0.72666633,0.5150684,0.37569937,0.26941854,0.5727527,0.35867915,0.48041704,0.6256731,0.4455888,0.28133935,0.4938783,0.4597795,0.6431297,0.5321114,0.11673772,0.27019003,0.66505206,0.299189,0.26512328,0.55856854,0.28593937,0.7352653,-0.00589993,0.63634515,0.42485654,0.34872365,0.5954697,0.3728772,0.36655056,0.6494849,0.71219826,0.23496547,0.43451852,0.63439274,0.30583873,0.3847957,0.44174504,0.18585837,0.6115819,0.6534374,0.25429928,-0.01740386,0.5713422,0.4305514,0.39531255,0.36374348,0.29352134,0.7702343,0.22008643,0.28776708,-0.03346049,0.24168803,0.14371017,0.19680575,0.39472002,0.2691042,-0.15214427,0.017840968,0.24690017,0.5783901,-0.19302502,-0.24768218,0.19375876,0.19894253,-0.102697544,0.23488082,0.17600276,0.15848678,-0.001586519,0.34283096,0.09067166,0.404118,0.15463963,-0.5684416,0.27478093,-0.2772549,0.19815484,-0.010085577,0.20231055,-0.23025572,0.50609237,0.40446654,-0.108821176,-0.37133038,-0.17507194,0.13059168,0.37407863,0.19241339,-0.15436786,0.27500364,-0.025098743,0.24107173,0.2877229,0.33704764,0.22917989,-0.0064448216,0.008187598,0.17688248,0.6382734,0.10700498,0.38651899,0.8117802,0.3523007,0.22200373,0.101148255,0.6646128,0.45524305,0.2506828,0.49435315,0.38679412,0.31215,0.27406913,0.3235867,-0.020585505,0.011663783,0.6536142,0.43952662,0.35699457,0.023768904,0.21320905,-0.107505776,0.10466319,0.070523255,0.3565073,0.20105103,0.3974356,0.14706156,0.013055181,0.22225752,0.5400348,0.04668387,-0.010716827,0.59578574,-0.101213016,0.15632924,0.02800003,-0.25973725,0.28971455,-0.32379052,-0.2985614,0.46398762,0.250009,0.06301392,-0.12124919,-0.36229488,-0.11727407,-0.21212372,0.38250205,0.1575685,0.17949577,0.053690117,0.11942993,-0.37622643,-0.20553944,0.021520253,0.05852591,-0.17260984,-0.11473586,0.031023774,-0.42173317,-0.2794246,-0.33813953,-0.11004749,0.1360526,-0.32414043,-0.21740358,0.24893138,-0.6502567,-0.22490558,0.16990666,-0.11439047,-0.44860825,-0.31286633,-0.3884975,-0.40766308,0.20958143,-0.43115956,-0.69958353,-0.07340607,-0.6448778,0.07533321,-0.16952237,-0.12677997,-0.5261507,-0.14141926,-0.4198249,-0.6932407,-0.3838063,-0.5355042,-0.6284262,-0.2341586,-0.28720272,-0.27798736,-0.5773803,-0.34370574,-0.76925886,-0.4767237,-0.069590904,-0.39413956,0.031434115,-0.59196997,-0.29579395,-0.5375702,-0.12345628,-0.7748452,-1.2248286,-0.18339,-0.490388,-0.2311461,-1.1019515,-0.5970942,-0.6156037,-0.2416146,-0.35133702,-0.5376612,-0.644037,-0.27261868,-0.74267954,-0.11567164,-0.61154443,-0.18946142,-0.6424396,-0.7156536,-0.12015652,0.045014255,-1.2006603,-0.20680256,-0.5000365,-0.5950295,-0.1891973,0.048126973,0.085962445,-0.7936356,-0.0072962837,-0.018761069,-0.19418779,-0.20532063,-0.562263,-0.6977131,-0.37267026,-0.50442034,-0.1239907,0.034120265,-0.18902427,0.1464587,-0.0064004087,-0.8576602,-0.37594756,-0.03034079,-0.43713224,0.20854957,-0.021500058,-0.29964557,-0.18810086,-0.16449767,-0.19460543,-0.097912714,0.522688,0.10411282,-0.3856613,-0.3489912,-0.4550235,-0.232634,-0.016312076,-0.94468707,0.6639714,0.06994684,-0.6411905,0.49312627,-0.000754846,-0.33331534,0.007431988,-0.2761988,0.26203197,-0.43513024,-0.08383825,-0.47577447,-0.13976726,0.3266014,0.13280784,0.6318095,-0.2169667,-0.20985371,-0.22563146,-0.29398975,-0.4925896,-0.115933016,-0.32527536,0.071200676,-0.23824714,-0.2703232,-0.13170747,0.4622569,0.42262593,-0.06743524,-0.49205488,0.55021274,-0.11424873,0.3912994,-0.46020105,-0.3325549,0.03911875,0.17658511,0.5251863,0.012232325,0.45234215,-0.09334121,-0.44395772,-0.3230143,-0.59272826,-0.7678314,0.84873664,-0.5453536,-0.11300501,-0.9055015,0.31101063,-0.55380905,-0.12656352,-0.3595371,-0.08542423,-0.6849378,0.1968862,-0.09174491,-0.28637806,0.5355069,0.33682564,-0.44165695,-0.5610452,-0.430861,-0.18652448,-0.51365036,0.33272323,0.03864377,-0.32423797,-0.6217536,0.05998735,-0.5194972,0.0513032,0.2787853,0.45999202,-0.068818845,0.4196752,-0.1604205,-0.48453704,-0.41472706,-0.31530246,-0.6630014,-0.1528823,-0.3123295,-0.52038074,-0.038855802,0.56878906,-0.61469966,0.18843265,0.12356975,0.31227815,-0.16023487,-0.6158589,-0.8237216,0.28406528,-1.076772,0.15060402,0.42486942,-0.2113193,-0.20829749
8,0.054991364,0.15367256,0.0037149717,-0.2361562,-0.111011274,-0.08020467,-0.19904768,-0.16962413,-0.14645676,-0.3664542,-0.31282854,-0.1260484,-0.05743012,-0.25527358,-0.1265693,-0.36441812,0.082281835,-0.0940713,-0.12257203,-0.015216602,-0.39543265,-0.23160744,-0.1925282,-0.32031354,-0.22978115,-0.19088054,-0.28569305,-0.07479984,-0.15341586,-0.19529794,-0.081102714,-0.022502478,0.2256906,-0.005436592,0.058555834,0.07933609,0.09742169,0.3122914,0.14000058,0.3029999,0.015687073,0.12278975,-0.070941314,0.060620338,0.15216385,0.09030804,0.19101031,0.10871878,0.17734388,0.26465186,-0.048729297,0.06471823,0.068830796,0.008152578,0.14009333,0.1909634,0.10311957,-0.04612923,0.15723416,-0.028368989,-0.13117522,0.1389474,-0.15810357,-0.08299675,0.19536261,0.06246139,0.09945867,0.0487811,-0.09856739,0.078617215,0.024799278,0.117387995,0.28324446,-0.001099367,0.043887146,-0.04056014,-0.08473761,-0.014579597,-0.11274655,-0.23015639,-0.20276964,-0.07082496,0.01366694,-0.18066181,-0.071455106,-0.16991185,0.0016469959,-0.10025428,-0.19239992,-0.1128932,0.048835136,-0.077740945,-0.04401192,-0.16518219,-0.14576092,-0.07696901,-0.09745451,0.021699948,-0.06830903,-0.032143306,-0.08807354,0.06850771,-0.11620851,-0.037283573,-0.20762533,0.21249153,-0.107853584,-0.13264164,0.07382998,-0.19734633,0.035844374,-0.09265326,-0.29099923,-0.30444208,0.04625843,-0.21571201,-0.10822256,0.019141896,0.031358227,0.022980584,-0.051981002,0.05093041,-0.078966536,-0.09876116,0.0013514295,-0.10153446,-0.2632972,-0.17042935,-0.2209305,-0.2037119,0.0049915276,-0.26957464,-0.0032976666,0.103610866,-0.22255021,-0.0070405556,-0.07997879,-0.06262349,-0.003505337,-0.12969567,-0.2658067,-0.124652185,-0.15652688,-0.23495758,-0.26103282,-0.16359614,-0.096381925,-0.23015204,0.09988367,-0.13214073,-0.16140778,-0.095728435,-0.5078241,-0.106076054,-0.10211298,-0.15679675,-0.13573702,-0.045303546,-0.30274016,-0.21692969,-0.29826173,-0.22976197,-0.16708694,-0.013952026,-0.32136708,-0.17444547,-0.099146634,-0.33620998,0.20463617,0.112178825,-0.061958794,-0.27634373,-0.09527536,-0.3707518,0.007600615,-0.38122973,-0.28195658,-0.07519814,-0.37613186,-0.19211487,-0.10728745,-0.06473329,-0.017213821,-0.018390516,-0.2809476,-0.26696342,-0.16070193,-0.3885123,-0.35435784,-0.4934301,-0.060332812,-0.18040965,-0.27166855,-0.13504712,-0.47164008,-0.4168156,-0.12871696,-0.1042752,-0.24779318,-0.36671448,-0.14659703,-0.23089494,-0.38271227,-0.08408352,0.17307964,-0.28392395,-0.37563264,0.032122508,0.07405473,-0.26286143,-0.29609576,0.031929296,-0.12830617,0.07445225,-0.4320047,-0.37913465,-0.29773626,-0.26548386,-0.17631412,-0.13785961,-0.38102588,-0.27411366,-0.23813532,-0.199164,-0.4143948,-0.13780072,-0.46328107,-0.34556806,-0.09357609,-0.15941907,-0.43331045,-0.29539552,-0.32130235,-0.4421061,-0.09727405,-0.26992932,-0.40411103,0.035844363,-0.2810669,-0.4292966,0.06695684,-0.16274095,0.048602864,-0.16587049,-0.31984362,-0.33945662,-0.3175771,-0.25616005,-0.09649614,-0.019408228,-0.123030856,-0.11004692,-0.06616022,-0.29026115,0.035246305,-0.33922523,-0.17361358,-0.47365132,-0.18653291,-0.23072043,-0.16060968,-0.18334706,-0.02136473,0.13657443,-0.26694983,-0.18075725,-0.02281573,-0.13459656,-0.19271918,-0.04178126,-0.17826043,-0.3037831,-0.32541505,-0.5543046,-0.23295797,-0.21445306,-0.03023594,0.15680392,-0.34607974,-0.0042484,-0.089888796,-0.09565673,-0.08093106,-0.21774976,-0.05619563,-0.21004224,0.055960704,0.11551809,0.16133477,-0.107451744,0.17216922,0.121573254,0.08567589,-0.3123661,-0.006721316,-0.2709315,-0.086256966,-0.13064681,-0.2132123,-0.024090277,-0.1921715,-0.042691622,-0.21855408,0.16475302,-0.17847031,0.14037801,-0.14627135,-0.47488496,0.3089629,-0.024681203,0.38199568,-0.013524426,-0.012304852,0.10791666,-0.46356463,-0.19738582,-0.054582264,0.03559452,0.01720807,-0.12746651,-0.37868074,-0.2199273,-0.11837781,-0.014775166,0.37127313,0.33926454,0.003890374,0.28138593,0.36443427,0.19321854,-0.19631124,0.31795284,-0.033930477,-0.18461905,-0.047110945,-0.15178691,-0.2184588,-0.09754497,0.06542168,-0.11235418,0.13305555,0.080872856,-0.2054129,0.16403824,0.013836818,0.13506147,-0.10706617,-0.07317465,0.0798891,-0.2689844,-0.25405025,-0.08436802,-0.26867363,-0.26870656,0.09479504,0.062121104,-0.3124264,-0.17384933,-0.20457639,-0.043184843,-0.42817646,-0.497774,-0.1151669,-0.17912576,-0.33018807,-0.48760667,-0.15581599,-0.16141084,0.06544319,-0.38520053,-0.0871365,-0.34442192,0.058660932,0.15494198,-0.061381157,-0.2759177,-0.13811426,0.24886225,-0.018827448,-0.027396804,-0.24864249,0.10281755,-0.28356543,-0.049636956,-0.15460566,-0.5002818,-0.451644,-0.34027436,-0.09012833,-0.0704834,-0.44952422,-0.03526598,0.13552426,-0.2855212,-0.051641207,-0.00333379,-0.30366528,-0.057706468,-0.20588244,-0.4686143,-0.6466833,-0.012442189,-0.49266797,0.12931103,-0.09355491,-0.2017006,-0.23786215,-0.01923499,-0.15896368,-0.15213028,-0.089832716,-0.41003674,-0.03549542,-0.24939807,-0.026074061,0.071021765,-0.5281084,-0.06485046,-0.13176389,-0.06937897,-0.14186786,-0.080272004,-0.05736602,-0.76384926,-0.35085052,-0.12391908,-0.48309296,-0.115216464,-0.3281978,-0.21547762,-0.10026275,-0.18679155,-0.42630097,-0.14628081,-0.47748497,-0.15725242,-0.54280734,-0.5829559,-0.6929029,-0.24549377,0.083499,-0.31805587,-0.46306163,-0.15170732,-0.87100774,-0.39321434,0.15491247,-0.41223195,-0.07413071,-0.24447078,-0.2949243,-0.34275284,-0.15850465,-0.13231416,-0.42074716,0.08679073,-0.13399503,-0.07034416,-0.20246775,0.06584279,-0.17666022,-0.26537272,-0.4029186,-0.09671143,-0.24951898,-0.056009512,-0.35769266,-0.159821,-0.18096578,-0.21147816,-0.17885415,0.17858933,-0.06463411,-0.109204434,-0.62889224,-0.47305664,-0.22481406,-0.7879516,-0.42910635,-0.1684381,-0.3850433,-0.37201917,-0.14208792,-0.4423153,-0.026070569,-0.25042853,-0.23620385,-0.05436932,-0.2505624,-0.26698118,-0.4199828,0.20990591,0.17962609,0.025081448,-0.5140115,-0.3979348,-0.4786389,-0.06413348,-0.8249676,-0.52287287,-0.50223726,-0.5350364,0.34221205,-0.42199755,-0.073455736,-0.043718386,0.22705989,0.13512473,-0.43844685,0.07263736,-0.6523015,-0.45653623,-0.25639132,0.012287186,0.07172922,-0.42437324,-0.49051765,-0.52905935,-0.60268843,-0.33705714,-0.7227768,-0.8551646,0.051587317,-0.34557462,-0.14742783,-0.038001932,-0.36203802,-0.5315137,0.2769424,-0.24621499,-0.07998333,0.19680853,0.05107561,-0.5169885,-0.44687653,-0.48930398,0.21410465,0.26411337,0.04774668,-0.07371892,-0.07707897,0.24836008,-0.07980549,-0.81631,0.3820177,-0.68235564,-0.7122033,0.5002636,-0.08573884,-0.36862943,-0.257213,-0.21783866,-0.2998643,-0.17523831,0.2358056,-0.26249394,-0.18424061,-0.04439983,-0.074760266,-0.3378468,-0.024563145,-0.61112994,-0.45927477,-0.21716705,-0.23972403,0.027236639,0.18904638,-0.47220808,-0.02090855,0.14477149,-0.15048037,-0.46528277,-0.046981268,0.12454808,0.06866516,-0.02705769,-0.27176186,0.069896355,-0.05212679,-0.21600173,0.061110195,-0.24733508,-0.22018698,0.07064646,-0.42824268,-0.37191877,0.34360334,0.07124991,-0.11871907,0.053023808,0.057607874,0.079010375,-0.14569518,-0.23899007,-0.79501,-0.3048007,-0.598321,-0.14538272,-0.14691883,0.1670251,0.5411758,-0.68614036,-0.19258195,0.024801938,-0.089395225,-0.27053723,-0.64474905,-0.05760354,-0.039757214,-0.07554647,0.07828862,-0.5149971,-0.77612805,0.32962927,-0.20724373,-0.5281235,-0.011035183,0.20372881,0.7197457,0.25150812,0.049983148,0.3148937,-0.0721221,-0.6032602,-0.21132982,-0.20413563,0.40483025,-0.35925883,-0.16030718,-1.0180594,0.15616845,-0.3793347,0.31599164,-0.04122847,0.24679819,-0.15398276,-0.30340445,-0.25384045,-0.38370648,0.07760644,0.04806415,0.29970062,-0.11935868,-0.42636988,-0.33489564,0.026533134,-0.66736406,-0.4439179,-0.102542885,-0.134581,-0.30078962,-0.32494262,-0.27990016,-0.03872922,-0.24564293,-0.20740624,-0.13715135,-0.17254518,0.40903518,-0.250246,-0.17665146,-0.43547472,0.21314056,-0.3708076,0.16342174,-0.029554045,0.04838328,-0.6022967,-0.55275255,-0.43590605,-0.25321376,-0.2835967,-0.14368355,-0.38443756,-0.46410862,-0.7080104,-0.14003274,0.29146814,-0.39685395,-0.16798167,-0.3320297,0.033441145,0.26887023,0.025170362,0.08522659,0.01425667,-0.5675465,0.27231568,-0.16953027,-0.13188386,-0.41880265,0.11531215,-0.32211307,-0.29203555,0.22624145,-0.53111887,0.0024301552,-0.42060995,0.16624911,0.05639128
9,-0.06890734,0.012189232,0.15171301,0.24991673,0.23636265,0.2272868,0.14613973,0.33275852,0.0058305115,-0.051690083,-0.020587415,-0.1494347,-0.20188351,0.19116858,0.04836937,0.018376919,-0.0877252,0.16708505,0.11867741,-0.112147294,-0.1062735,0.018744374,-0.012010395,0.019344281,-0.093120374,0.05607085,0.06949535,-0.110786445,-0.09868397,-0.01639921,0.078170486,-0.07141093,-0.024703758,-0.081913695,-0.029395273,0.0018986039,0.04239574,-0.060158465,0.074068196,-0.013234147,-0.018867645,0.08132074,0.05299526,0.02066715,0.012739817,0.124513984,0.07094551,0.016919736,-0.0010708842,-0.21693112,0.044230342,-0.037898187,-0.010461578,-0.41804987,-0.07584618,0.03922712,0.027839238,-0.1865164,-0.11251716,-0.020543545,-0.14085256,-0.15415354,0.0923815,-0.20288263,-0.039237227,0.16832252,0.00970039,-0.024511049,0.07110877,-0.0115776025,0.19657654,0.061983105,-0.04610233,0.013428735,0.08358756,0.13022144,0.029180167,0.19010669,0.11774057,0.15442134,0.1086237,0.24155521,0.18955223,0.16961253,0.012252409,0.019357838,-0.10742275,-0.3105993,-0.12600212,-0.010837994,0.18696402,0.02227885,-0.20414548,0.035832085,-0.015899923,0.14159897,0.12743813,0.05951638,-0.13929303,-0.07611012,0.13146622,0.03997985,0.15305644,-0.13241164,0.118820034,-0.086311385,-0.0032368223,-0.025180956,0.066940136,-0.0003207336,-0.047416598,0.18892562,0.24482293,0.21080449,0.29760486,0.07327211,0.1303641,0.01978172,0.11046082,0.09998816,0.07210111,0.045636866,0.115935616,-0.017362997,0.00036724837,-0.0022785342,-0.0012548295,0.1260577,-0.05336987,-0.10295912,-0.06625935,0.044629168,-0.026046341,-0.008144116,-0.2547107,-0.17058742,0.2777558,0.12400939,-0.1789021,-0.098727405,0.057149913,-0.21853371,0.058482878,-0.09144217,-0.16834828,-0.1313451,0.110681355,-0.035189975,0.0007655221,-0.09385993,-0.03121389,0.038107064,-0.1538887,-0.052127846,0.033978194,-0.10929689,-0.17863533,0.042342942,-0.024023004,0.00886788,-0.028360913,0.07467638,0.06829931,-0.022208683,-0.028531183,-0.096243255,0.031338394,0.05040397,-0.19307652,0.025532741,-0.08452986,0.28677195,0.02131708,0.054800387,-0.08203702,0.14857529,0.100979395,0.1162806,0.33354068,0.043746367,0.21168035,0.20319684,0.33310226,0.22625645,0.32451254,0.121620856,0.017346622,0.12381863,0.023954697,0.3071984,0.15965037,0.11032205,0.002518762,0.080221206,0.1180125,0.10119583,0.23110738,0.21578468,0.38910297,0.17887212,-4.3394335e-05,0.17513673,0.19362742,0.21917808,0.17820445,0.16898674,0.106473565,0.2058356,0.384401,0.3721386,0.3836665,0.3061715,0.15247762,0.22254628,0.34453702,0.39283958,0.16207604,0.36829332,0.13647859,0.1895891,0.21679713,0.17142528,0.24367154,0.19745998,0.035253625,0.12356019,0.025271961,0.37552935,0.030120546,0.21131432,0.1178762,0.098761246,0.26784077,0.38685933,0.16560604,0.08133318,0.14182104,0.2222483,-0.020768283,0.20737368,0.012854565,0.043204643,0.175991,-0.14372642,0.21106349,0.032350704,-0.32042012,0.24214728,-0.09157378,-0.12623824,-0.0738641,0.03594773,0.12751985,-0.08081358,0.042536046,-0.21224682,-0.04815554,-0.11348209,-0.08391573,-0.07574456,-0.2511473,-0.24874805,-0.15554494,-0.31450123,0.13366602,-0.10834362,-0.29873455,-0.16372721,-0.32467234,-0.21373774,-0.13176554,-0.101930924,-0.036057748,-0.13188608,-0.15591888,-0.06916198,-0.15311593,0.043223847,-0.15363331,0.20889461,0.1517288,0.010832167,0.09116513,-0.2709817,-0.08187207,0.24698381,0.23681127,0.07250847,0.03949486,0.20916085,0.09099275,0.17746963,0.40669307,0.2610695,0.14434375,0.29260087,0.42797914,0.20306465,0.5983452,0.31688592,0.47184232,0.39896572,0.8789992,0.49865398,0.4314271,0.49169934,0.49563575,0.46733686,0.5145795,0.43702677,0.76513016,0.74471205,0.5586065,0.67001516,0.76926434,0.91428137,0.81884503,0.73473114,0.8565245,0.97465575,0.7381364,0.6481682,1.0133821,0.8393821,1.0001888,0.97388613,0.9268126,0.749522,0.6536996,0.80218667,0.7176718,0.50000846,0.51278627,0.7262561,1.0108479,0.98617554,0.57712287,0.651807,0.78721094,0.62886214,0.4735423,0.47105938,1.019227,0.5828783,0.5515208,0.2910221,0.39572525,0.41965753,0.6225495,0.52759457,0.5121529,0.40185228,0.3245845,0.18743068,-0.15284708,0.4900741,0.38300708,-0.18835723,0.032652855,0.2771934,0.34923404,0.38891655,0.22587927,0.18345027,0.333305,-0.10847832,-0.04309547,-0.24389783,-0.09673982,-0.13342439,-0.06266057,-0.4136359,-0.46295378,-0.047740538,-0.21572284,-0.4215446,-0.19756787,-0.11646678,-0.16214353,-0.7683686,-0.5047319,-0.32463065,-0.41083774,-0.57044816,-0.6065441,-0.6088066,-0.95388174,-0.72611517,-0.80788076,-0.47285306,-0.97526944,-0.66266865,-1.1824282,-0.74849784,-0.5205621,-0.9152466,-1.0857556,-0.835107,-0.8169582,-0.81226224,-1.0953099,-0.83651334,-0.5327289,-0.9834837,-0.851417,-0.6365657,-0.82537806,-0.5901627,-1.2819991,-0.87781197,-1.0005614,-0.9260999,-1.0084541,-0.82038283,-0.9442449,-0.628816,-0.796846,-1.3011671,-1.4156812,-1.1459727,-1.2172222,-0.7363173,-1.0626695,-1.1924163,-0.84060365,-0.7068775,-0.87257963,-0.5408342,-0.63434094,-0.90264577,-0.7869729,-0.9151288,-0.61801535,-0.24824673,-0.5931951,-0.27052474,-0.2817435,-0.38852155,-0.5124004,-0.05110644,-0.070562474,-0.095312424,-0.4076133,0.38214356,-0.11821948,-0.1307364,-0.14285776,0.11768522,-0.22924715,0.13508092,0.020363508,0.17558275,0.35547438,-0.12291665,0.32004857,-0.07425984,-0.3518496,0.22269876,0.5883676,0.38717964,0.41222987,0.69628936,0.25183144,0.31425482,0.44122908,0.31306097,0.4987745,0.84219855,0.19037957,0.93098634,0.7190461,0.7087197,0.3501372,0.09141679,0.18179588,0.4950641,0.607563,0.42679846,-0.1458574,0.39887297,0.25667298,0.4934037,0.59870476,0.39185804,0.31215623,0.39366063,0.31588814,0.52302235,0.7567382,0.38960892,-0.009383604,0.31420445,0.24897118,-0.5796712,0.1896455,0.7847066,0.15843794,0.33440498,-0.31491804,0.409721,0.475402,0.07858182,-0.06529666,0.18165754,0.14261863,-0.25938442,-0.4501568,-0.080852,-0.11179085,0.9613608,-0.23447974,0.020411877,0.45400512,0.016328508,-0.017474258,0.124162085,0.78441787,0.85602176,-0.53527623,0.49174398,-0.6778231,-0.42856357,-0.072011255,0.080992036,0.31279555,-0.3045145,-0.61438316,-0.48135802,-0.17063153,0.010267858,-0.7123449,-0.45570168,-0.15106606,0.17044085,0.13698336,-0.5341842,-0.69363844,-0.45264325,-0.1931976,-0.4034443,-0.27063695,-1.0124193,0.19508438,-0.2427921,-0.58097893,0.19057502,-0.34212664,-0.64683825,-0.48347893,0.0029156,0.16440216,-0.38976473,-0.06178217,-0.25347394,-0.5226199,-0.03658317,-0.6368725,0.18311553,-0.07990847,-0.6149552,-0.95699316,0.30336764,-0.18705453,-0.632485,-0.09414872,0.45142335,-1.1416228,-0.4864251,-0.031504095,0.054481708,-0.5340761,-0.54762596,-0.45052758,-0.24523616,0.6136887,0.20369759,0.10122764,-0.2470114,0.22415307,0.7077355,0.47861803,-0.46987903,-0.3865973,0.20456947,-0.32948554,0.5916024,-0.06020277,-0.7100523,0.1845523,0.56552356,-0.083240494,-0.91055423,0.27137515,-0.7287709,-0.6635396,-0.022162016,0.188673,-0.98750764,-0.8540152,-0.9962536,-0.22690624,0.21222496,-0.87117296,-0.705697,-0.6349484,0.013911451,0.14079447,0.6417556,0.03511204,-0.60188633,-0.34757814,-0.35110265,-0.3549797,-0.37115785,-0.43035084,0.26458505,-0.1476059,-0.03425646,-0.6762895,-0.18113974,-1.1095661,-0.8533928,-1.3689214,-0.28553498,-0.5292506,-1.3778188,-0.2815441,0.2636938,0.12057054,0.059831128,-0.502124,-1.1297655,-0.9126677,0.17351289,0.014622206,-0.6186097,0.31415367,0.67587733,0.23520155,-0.19853354,-0.5451621,-1.2271276,0.05870957,0.5620123,-0.5556777,-0.4288543,0.10651721,-0.21767929,-0.08284504,-0.56768745,-0.3681585,-0.42265776,0.1185296,-0.84866613,-0.7710383,-1.2236736,0.16989289,0.28962857,-0.7148942,0.19135474,0.5971614,-0.71538985,-0.90528995,-1.0840083,-0.390395,-0.43711534,-0.18414758,-0.24115302,-0.64149785,-0.1890839,0.12366343,-0.83596766,-0.18885832,0.54241997,0.16121048,-0.6465714,-0.29438534,0.5463669,0.3367628,0.13186733,-0.1732398,-0.34825268,-0.06578738,-0.80627173,-0.3714978,0.120636865,-0.15703647,-0.42377833,-0.49647966,-0.05559086,-0.37116566,0.033877224,-0.19053066,-0.56133306,-0.10628061,1.073064,1.0356975,-0.40660927,-0.34179634,-0.3538716
10,0.04786782,0.006677526,0.05349363,0.03447105,-0.041370165,0.25428316,0.059606455,0.019813119,-0.0013003496,0.056534268,-0.055729263,-0.23152068,0.028129391,0.18149713,-0.046525788,-0.032863148,-0.05166004,-0.016335571,0.03243682,-0.20163645,-0.0052290163,-0.12834688,-0.042446192,0.06701242,0.007851754,-0.0891191,0.12548815,-0.14987901,-0.08756672,0.1367543,0.066351645,-0.023395998,-0.30610687,-0.18131012,0.016512897,0.12706122,0.07642808,-0.12869515,0.058145344,0.07403922,-0.21916072,-0.11339045,0.07101481,-0.014952978,-0.12859075,0.035700027,0.13082355,0.13664784,0.109020166,0.30791286,0.18577433,-0.08663935,0.06266817,-0.011914084,0.010292951,0.16586375,-0.013355954,0.015875403,0.0055744033,0.08984611,-0.06593711,0.16516495,-0.0841138,-0.012141805,0.025963333,0.11350169,0.038468912,0.14325544,0.0068933824,0.059166934,0.058483336,-0.015414464,0.12726228,0.050177004,-0.032652806,-0.054349046,0.035135318,-0.079450876,0.060113817,0.03632047,0.0768047,-0.07750567,0.13644797,-0.16448203,-0.02683754,-0.16292672,0.0457422,0.046250694,-0.10150442,-0.044101167,-0.026782105,-0.10280226,0.08798907,-0.17026904,-0.26316705,-0.09415818,-0.02451318,0.02154318,0.112406336,-0.02552497,-0.095697545,-0.1025904,-0.14506017,-0.06044698,-0.11794618,-0.072395675,-0.14468059,-0.104386024,-0.004001341,-0.08503125,-0.103329144,-0.031476997,-0.21007662,0.1358121,-0.16644518,-0.09926053,-0.03688898,-0.17336379,-0.088843495,0.006389973,-0.25566974,-0.16533409,-0.13935216,-0.20683315,-0.1764298,-0.12383015,-0.07287185,0.019880963,-0.12818047,-0.1380428,-0.18567452,-0.12126656,-0.072220385,-0.15818428,0.05822957,-0.020662261,-0.04709311,0.055026315,0.010266329,0.13567597,-0.10990577,-0.24502702,-0.17656265,-0.24478137,-0.05773555,-0.19790632,-0.11593571,-0.10554717,-0.08200653,-0.18656582,0.026782561,-0.21792956,-0.24663809,0.11180267,-0.008659537,-0.1406437,-0.23803139,-0.17164728,-0.106339,-0.12106226,-0.038665634,-0.06113721,-0.21971528,0.020151338,-0.16952954,-0.19967085,-0.07282092,0.03388003,0.13254161,-0.12250614,-0.28426707,0.076574996,-0.21439694,0.06406075,-0.100464724,-0.03642245,-0.04798907,0.062621325,-0.10143833,-0.14947717,-0.097627796,-0.075828716,-0.064499095,-0.32015198,-0.12476179,-0.08883018,-0.0550705,0.0064954306,-0.05398657,-0.003014566,0.030836929,-0.1560166,-0.26370117,-0.20878263,-0.12554696,-0.08537897,0.010595503,-0.46526662,-0.16976947,0.009788049,-0.1812351,-0.07562488,-0.14633782,-0.19128332,-0.11508271,-0.10000835,-0.2583976,-0.31862426,-0.27428785,-0.17814687,-0.18308575,0.0037077805,-0.49015388,-0.2186032,-0.3035244,-0.17436042,-0.36769426,0.09759101,-0.029457921,-0.19454823,-0.104939826,-0.1474211,-0.36667454,-0.3257933,0.001041745,-0.1450849,-0.3156062,-0.37121347,-0.04920523,-0.0984786,-0.14981084,-0.3366987,-0.06301947,-0.15073484,-0.08499817,-0.33328617,-0.13522732,-0.4229721,-0.14865845,-0.03137105,-0.27088234,0.08046603,-0.18738472,-0.2007688,-0.34442848,0.077978075,-0.12573056,-0.026844447,-0.0062101,0.02537805,0.06158089,-0.3808796,-0.12398119,-0.07213964,-0.49154142,-0.31820342,-0.090229966,-0.19784607,0.045838356,-0.29499835,-0.12930822,-0.36480838,-0.24639492,-0.10626072,0.021923143,-0.21531175,-0.30540746,-0.031201482,-0.3379637,-0.51737165,0.0020456987,-0.25654167,-0.43811357,0.16916083,0.08738443,-0.16362545,0.20100304,-0.39350182,-0.2136477,-0.0005363904,0.0659853,0.085046165,-0.12866606,-0.42290276,-0.24412578,-0.21224539,0.18485582,-0.24162804,-0.32728496,-0.056118976,0.024236409,-0.1517853,0.069239125,-0.2898,-0.14672759,0.12131968,-0.15581256,-0.06579025,0.029704057,-0.34129056,-0.002010394,0.06418832,-0.3846304,-0.4222182,-0.1595822,0.07873983,0.15093641,0.19535741,-0.07719083,-0.024796082,-0.2797684,-0.08250212,-0.41188386,-0.26402378,-0.03615139,-0.27323627,-0.20614447,-0.22922012,-0.41094652,-0.36458823,-0.10863855,-0.39629313,0.045944158,-0.15523249,-0.05944535,-0.19694681,-0.1456251,-0.27811015,-0.3416214,-0.020592611,-0.12416573,-0.050301682,0.029561527,-0.36067894,-0.13245353,-0.320302,-0.096241646,-0.52676237,-0.1116394,-0.22673096,-0.2897105,-0.29631782,-0.1070434,-0.15801719,-0.2046807,-0.29608393,-0.24462639,-0.041224096,-0.22368209,-0.32113978,-0.3145317,-0.18043607,-0.3496068,0.07706155,-0.4231409,0.0012333154,-0.4093209,-0.4481265,-0.4597981,-0.12864286,-0.14529853,-0.024056444,-0.22917865,-0.32644665,-0.16052587,-0.4055817,0.015244782,-0.5826547,0.02709886,0.11244843,-0.3071808,-0.36285478,-0.2750323,-0.21432066,-0.59450525,-0.61915374,-0.19829686,0.003996385,-0.49607396,-0.07690856,-0.011247934,0.16735442,-0.36262634,-0.45109302,-0.161383,-0.13681301,-0.04980345,-0.49202433,-0.59595853,-0.09732651,-0.39848122,-0.102865934,0.05421575,0.100375146,-0.6451856,0.24895763,0.35132992,-0.1782724,-0.38039413,-0.5079717,-0.27519363,0.020818552,0.15577953,-0.22967833,-0.04717179,-0.34220928,-0.021224579,-0.15749893,0.13093178,-0.2854894,-0.37307948,0.3464588,-0.20458423,-0.078692935,-0.17068216,-0.27467856,-0.68449,0.079826914,0.08976113,-0.185851,-0.064755574,0.8093026,-0.10113109,-0.11880932,-0.23505518,-0.28287727,0.1444383,-0.0052761436,0.14671987,-0.22691856,0.33590588,-0.3817856,-0.12651624,-0.25718516,0.33941036,-0.06756681,0.10946153,0.45333478,0.17190129,-0.19574793,0.2365678,-0.3003918,-0.31062382,-0.11576275,0.077125534,0.08416151,0.28814948,0.18110912,-0.30450788,0.012394015,-0.21806152,-0.209252,0.24483006,-0.08151391,-0.017649246,0.29966357,0.3381607,0.19347958,0.15777464,0.36246705,0.5587445,-0.095025234,-0.6472474,-0.22195758,-0.13842547,-0.17686926,0.22237018,0.08580588,-0.4593728,0.08352516,0.032884818,0.10726723,-0.30862603,-0.056023616,0.0958415,-0.12866934,0.0031394141,0.39334884,-0.35893503,0.15293401,0.045267552,-0.22616331,0.115384236,-0.49781677,0.017624984,-0.07179301,-0.10498444,0.13687532,0.13208193,0.0954371,0.089235894,-0.11791258,-0.006299941,-0.200186,-0.5217112,0.03610626,-0.009092563,0.09243477,0.07487355,-0.023374716,-0.35988027,0.36072683,0.053761132,0.081898965,0.16670725,-0.30120972,0.2136562,-0.5615322,-0.23307443,-0.0134770805,-0.35108015,0.22406389,0.20713226,0.280474,0.22430682,-0.22312114,0.26058468,-0.17263122,-0.13142245,0.33496842,-0.0032780275,-0.19679746,-0.05230768,-0.26050088,0.027746577,-0.09854488,-0.31708845,0.34454766,-0.20842308,-0.5316188,-0.30715996,-0.7797982,0.38995057,0.08880048,-0.40763995,-0.22363165,0.027338557,-0.11290765,-0.11304811,-0.41063178,-0.098977834,-0.0440138,-0.04475486,-0.0018712495,0.24307679,0.02941119,-0.08054256,-0.13400583,-0.0037123135,-0.13397315,-0.6155595,-0.2708669,0.2344716,0.03829994,-0.24646825,-0.4761099,-0.27227488,0.19681032,0.46127284,-0.7012008,-0.06424029,-0.61030763,0.076469466,-0.1904319,-0.35736397,-0.1400738,-0.31719682,0.5837728,-0.36485824,0.19974294,0.30139613,-0.501475,-0.32981104,0.19997647,0.053085793,0.061585493,0.25531545,-0.40289274,-0.40507215,-0.66279304,0.04093182,0.13463531,-0.08283841,-0.23360328,0.042586785,-0.16210987,0.18968476,0.51142764,-0.13963076,0.39967453,-0.33526143,-0.15592605,-0.38966617,0.026709635,-0.23101622,-0.073044695,-0.26062134,0.14561544,-0.172923,0.30871817,0.44361004,-0.13397503,-0.087978676,0.07675783,-0.21522486,0.3964428,-0.23790984,-0.2990508,-0.24276285,-0.018643871,0.060866114,-0.31882915,-0.56538564,-0.7074117,-0.24205106,-0.5096432,0.12215985,-0.44740024,0.3107502,-0.05687879,0.186898,0.0630429,0.2688691,0.39446974,-0.2197732,-0.27020788,-0.4644888,-0.18609488,0.18835807,-0.008997245,-0.31515348,0.13432783,0.031723645,0.056739807,0.6576675,0.024296453,-0.43248552,-0.5581765,0.07037924,0.44117138,0.0922277,0.30138627,-0.18287946,0.04345784,-0.015088751,0.25139454,-0.031516783,-0.1189066,-0.044813238,-0.021355018,-0.284073,-0.2905708,-0.45206872,-0.22637641,0.25207266,0.37094414,-0.19859561,-0.27323228,-0.1550549,0.05403506,-0.45096707,-0.482338,0.11425805,0.09292927,0.18975616,-0.16195682,0.030499587,0.5498258,0.08581927,-0.17907007,0.15331873,0.10222978,-0.5493829,-0.03222777,-0.39757332,-0.65570503,-0.51864207,-0.0033406487,-0.037936453,-0.5928855,-0.10102431,0.21786904,-0.2910852,0.29871425,0.01123039,-0.22723328,-0.4647965,-0.123743705,-0.2572662,-0.4827894,0.009713328,0.04079941,-0.30960822,-0.09846298,-0.04264476,0.14080337,-0.1260228,-0.5548173,0.043068584,-0.24037948
11,0.0059911683,0.08175698,0.18394652,0.30053487,0.12172049,0.05002155,0.09632795,-0.0008987839,-0.02754274,0.008210242,-0.029535757,0.034202993,-0.06286649,-0.04307809,-0.12762468,-0.16455032,0.06545284,-0.07203024,0.03840624,0.06398392,0.028785156,-0.033803362,0.12049946,0.04647046,0.0956355,-0.07401569,-0.032064408,0.115690395,0.14744925,-0.0747803,0.21456626,0.10247645,-0.12534443,0.11289874,0.39090043,-0.104146466,0.19320948,0.119682185,-0.11467657,-0.08766043,0.02484161,0.019281313,0.113086574,-0.020876234,0.12697203,-0.005954374,0.009770672,-0.010513888,-0.15553953,-0.017227568,-0.119364426,0.039825898,-0.103577115,0.038846783,0.05518244,-0.096254215,0.013713956,0.008435732,-0.1780448,0.008541474,-0.105517134,-0.1878112,0.102401316,-0.046199765,-0.18958698,0.004203701,0.038441107,-0.002948674,0.16508141,-0.23051749,-0.019108897,0.16113132,-0.10177945,-0.14503074,-0.21039063,2.9465627e-05,-0.06917983,0.029116273,-0.03646398,-0.11440261,0.044593178,-0.15601915,0.12410547,-0.17500952,-0.104461804,0.0976674,-0.1463063,0.1243606,0.0066957576,0.061912138,-0.13173175,0.14565787,0.09929403,-0.013033353,0.07179489,0.098395385,0.03161973,0.008150149,-0.028218787,0.08517415,0.0040618316,0.012899567,-0.15539214,0.1017534,0.06889828,-0.12391572,0.047774483,0.2669073,-0.19321124,-0.055029728,0.06702872,0.016057119,0.1438175,0.024660375,0.016232032,-0.016730651,0.14149182,-0.16596767,0.06612448,0.33808553,0.093791634,0.023087012,0.1677667,0.06971869,0.28277057,0.08255541,0.16852815,0.13148835,0.112187244,-0.10067203,0.2523343,0.06420895,0.17058058,-0.014177933,0.19932121,0.1066527,0.22055097,-0.046247788,0.2577371,-0.18923597,-0.042173386,0.037175152,0.08596848,-0.0112649035,0.268782,0.22181255,-0.034649946,0.08935672,0.036815185,0.10661938,0.18622349,-0.016254716,-0.04735677,0.03632346,-0.1669821,-0.11449421,-0.055050142,-0.02312763,0.02275278,-0.10819605,0.07858401,0.1987009,-0.27061144,-0.039666735,0.0131788645,0.10156902,-0.34003684,-0.12779157,-0.09877342,-0.0086070215,-0.09645391,-0.09545419,0.0148089165,-0.20858324,-0.05447209,0.015513075,-0.031180158,-0.023410214,-0.2454193,-0.067349516,-0.5765505,-0.4050327,-0.07654534,-0.23846029,-0.31349114,-0.3980322,-0.36306405,-0.49140012,-0.2654419,-0.52383256,-0.4469648,-0.7633091,-0.58089334,-0.1866522,-0.29276064,-0.55594075,-0.7551158,-0.5548015,-0.59022844,-0.43965837,-0.20360316,-0.33764386,-0.52988255,-0.5950217,-0.4539991,-0.44209874,-0.5773366,-0.67313284,-0.71686107,-0.72705716,-0.74654156,-0.53608876,-0.3134453,-0.7907862,-0.601677,-0.48003376,-0.7430271,-0.3532343,-0.6634251,-0.3281246,-0.683807,-0.46611837,-0.300356,-0.44138607,-0.52326995,-0.4738496,-0.5577157,-0.7069116,-0.4693808,-0.6567305,-0.47115433,-0.5626118,-0.3605473,-0.3616341,-0.83022374,-0.5274431,-0.41491732,-0.9042441,-0.5638151,-0.48150894,-0.61181724,-0.4006784,-0.6801942,-0.45627445,-0.32192135,-0.14723843,-0.42379776,-0.6359924,-0.506002,-0.3558283,-0.82179964,-0.40692064,-0.65223414,-0.77577144,-0.9103248,-0.712109,-0.30719692,-0.26594737,-0.20820527,-0.5448039,-0.56954545,-0.15010546,-0.58705485,-0.35389933,-0.61724424,-0.41848361,-0.2373807,-0.35157445,-0.43391195,-0.18527357,-0.62768024,-0.6065069,-0.20858303,-0.4590699,-0.38974735,-0.14112829,-0.47040132,-0.31395727,-0.52075595,-0.57594675,-0.28712675,-0.29788536,-0.068145774,-0.23592916,-0.46474475,-0.47805792,-0.4879335,-0.5320044,-0.12825875,-0.6489443,-0.7056861,-0.38176575,-0.8461078,-0.63752383,-0.58371025,-0.31720173,-0.69549555,-0.6605244,-0.8399462,-0.4260931,-0.6045208,-0.7277552,-0.24375603,-0.34612998,-0.45997614,-0.8872452,-0.12932923,-0.50880843,-0.55045444,-0.14963822,-0.7990395,-0.5241517,-0.10639972,-0.56399333,-0.46806973,0.017873341,-0.5078807,-0.4040969,-0.6576643,-0.5754666,-0.44187832,-0.5594889,-0.5121912,-0.63866264,-0.36433873,-0.8044378,-0.22199458,0.06413567,-0.68565,-0.31862876,-0.35536888,-0.10631167,-0.10005706,-0.11258577,-0.56309086,-0.35538194,-0.41760758,-0.08333857,-0.38526714,-0.13316892,0.07601027,0.098626226,-0.3842407,-0.1528585,-0.34110987,-0.098156944,-0.15697648,0.22548126,-0.20048094,-0.1314201,-0.25948086,-0.1188875,0.2429276,-0.29884794,0.5827966,0.12748204,0.30316204,0.11317527,-0.19857347,-0.16135193,-0.34920707,0.12954316,-0.0019104263,-0.2738465,-0.095024705,0.042880014,-0.2167498,-0.0984753,0.22813602,-0.15629354,0.010925124,0.2868045,-0.41345033,0.25489113,-0.058192275,0.12706324,-0.18793404,0.4115634,-0.24542838,0.21225466,0.082542665,0.14888239,0.1056944,-0.1849714,0.22780679,0.15350889,0.37866196,0.42004132,0.05349777,0.000834809,0.4029571,-0.10787629,0.07893575,0.3241021,0.097463354,-0.5696811,-0.15451843,-0.48609146,0.19125028,0.058366537,0.041925535,0.2554032,-0.4549485,-0.011551669,0.49013686,0.058382135,-0.17236866,-0.14114818,-0.23657274,0.5394678,-0.115696594,0.10625185,-0.334621,-0.1348041,0.042789944,0.008952288,-0.4187944,-0.17015617,-0.47657278,-0.03037835,0.1282766,-0.5368225,-0.13563086,-0.30631188,-0.12664668,-0.0050060228,-0.28880012,-0.34197536,-0.021478802,-0.0602555,-0.47929892,-0.076550566,-0.18208772,0.084752336,-0.09545094,0.0007295731,-0.22681902,-0.07736326,0.015282296,-0.3476828,-0.87240934,-0.032215476,-0.1836264,-0.035956834,0.083616525,-0.5456397,-0.21890265,-0.38528505,-0.5251644,-0.12895918,-0.2141204,-0.15651041,-0.10032236,-0.8399759,-0.3707032,0.18105625,-0.32733813,-0.74458915,-0.5272738,-0.65909195,-0.20612547,0.32262683,-0.38705328,0.07852362,-0.38173458,-0.3053992,-0.21217462,-0.6388428,-0.37101626,-0.49617606,-0.61258256,-0.3855157,-0.20923609,-0.13831332,0.071783625,0.12521884,-0.6353205,-0.42761624,-0.18038309,-0.007357128,-0.44011086,-0.20795721,0.18510221,0.16732611,-0.25114006,-0.37617326,0.39134595,-0.19837661,-0.10267943,0.0027255248,-0.33769864,0.13092521,-0.45249876,-0.21556586,0.7876142,0.015428733,-0.20198523,-0.2831085,0.4657327,0.0059451372,0.5275296,-0.037259534,-0.5942627,0.1570518,0.2504132,0.6044925,-0.4412221,0.12317485,-0.11253338,-0.19070761,1.0333905,0.039416414,0.46301734,-0.08618912,0.44357353,0.22809573,0.1260846,-0.31460732,-0.2797069,-0.009088454,0.14557876,0.6298066,0.454199,-0.35622835,0.32844746,0.77957344,0.6191282,0.08385745,0.67641586,0.9313217,0.5923877,0.08962448,0.17598423,0.3605225,0.3003766,0.4830766,1.2320921,0.06721881,0.74797434,0.46497566,0.0792984,1.2386731,0.20133609,0.69376373,-0.40909243,-0.59289473,0.59225535,0.4835307,0.2985651,0.041874476,0.39640075,0.74473184,0.33680245,0.21087086,0.7406502,0.40813023,0.45291817,0.69453645,0.15949722,0.8141906,1.1848617,0.622963,0.19750373,0.08150783,0.67333424,1.0012896,0.81006134,0.25283903,0.5627196,0.20814109,1.0770761,0.3469179,0.50962394,0.14479063,0.29255143,0.45023182,1.0332239,0.27002716,0.18519779,0.82498574,0.18436939,0.1851813,0.2666514,0.4029622,0.22053578,0.3054965,-0.27924386,-0.18928713,0.40480086,0.16971642,0.38264242,0.72970855,0.6006989,0.37298313,0.8795873,-0.08468814,0.22719425,-0.32300317,0.2969461,0.18291378,0.33991638,0.2169078,0.56136,0.35929483,0.42789915,-0.12457079,0.3350414,0.0059995865,0.2915145,-0.3025537,0.59788096,0.19883496,0.43196172,0.74699193,-0.2720057,0.29313934,1.152284,-0.13237865,0.32008055,1.0543059,0.7379469,-0.3735308,0.8721878,0.30935422,0.15555578,1.0882388,1.1898636,0.38953662,0.6165206,0.10201531,0.44530752,1.4428701,0.14713036,0.50592583,0.0062369443,0.37249115,0.33105817,-0.120377906,0.46717292,0.2719955,0.43827975,1.0631064,-0.0996053,0.25613517,0.23327555,-0.19173895,0.57891655,0.3995145,-0.05038692,0.16517194,0.7274526,0.12725475,0.37749547,0.7694579,0.23603827,0.878711,0.2694299,0.10139548,0.43736684,0.43763295,0.29408428,0.5231087,0.2530687,0.8919777,-0.22372279,0.1175803,1.0792224,0.2659524,0.84857655,0.55351007,0.14288317,0.5099357,0.43680483,0.37196204,0.6070647,0.7316525,0.7441426,0.83764416,0.46749955,-0.1140405,0.13254178,0.1932009,0.6716257,0.5587324,-0.22458954,0.6675784,0.84417844,0.924772,0.4817861,0.16111247,0.5457598,0.008197889,-0.108553216,0.19776618,1.7537128,-0.3425022,-0.08132185,0.17543006,0.33499798,-0.36209238
