,0
0,0.08156313
1,0.07607323
2,-0.11153934
3,-0.05289532
4,0.05742291
5,0.004787126
6,-0.04485854
7,-0.0094607305
8,0.112012595
9,-0.044866595
10,-0.1284333
11,0.08048965
12,-0.043997284
13,-0.055125386
14,-0.013892041
15,-0.03960298
16,-0.068069816
17,-0.048515115
18,0.1623705
19,-0.039351333
20,-0.057358548
21,-0.08634717
22,-0.077925675
23,-0.057034884
24,-0.04083107
25,0.06902317
26,-0.14191371
27,-0.018410036
28,-0.03780094
29,0.11494253
30,-0.08086765
31,-0.03621922
32,0.05097438
33,0.10391915
34,-0.08389575
35,-0.039495084
36,0.07613266
37,-0.021039266
38,0.00538327
39,-0.12119687
40,-0.010883443
41,-0.039673157
42,-0.061345585
43,-0.021228634
44,-0.10912369
45,0.15287098
46,-0.019299125
47,-0.123031124
48,0.0007653891
49,-0.003926606
50,-0.057886846
51,0.04390425
52,0.13884212
53,0.04411748
54,-0.011667368
55,0.021228531
56,0.0912301
57,0.009643824
58,-0.017891157
59,-0.13500278
60,0.056550343
61,-0.003998187
62,-0.0014416616
63,-0.16472536
64,0.108791485
65,-0.032815862
66,0.10613878
67,0.08061466
68,-0.10852928
69,-0.03640141
70,0.049184687
71,-0.021475522
72,-0.101984225
73,-0.04380443
74,0.026480528
75,0.0775518
76,-0.085569546
77,-0.028092284
78,-0.08891117
79,-0.05858288
80,0.093997076
81,-0.0683518
82,-0.0707967
83,-0.04526977
84,0.005285719
85,-0.023845147
86,0.11934858
87,-0.08884315
88,-0.005017831
89,-0.11320811
90,-0.02723812
91,0.096034475
92,-0.064562365
93,0.114486
94,0.13390285
95,-0.025248738
96,0.052073535
97,0.018474108
98,0.02250812
99,-0.042196434
100,0.1987046
101,-0.013706731
102,-0.09010937
103,-0.05744941
104,0.11942359
105,-0.06117412
106,-0.10630988
107,-0.036492642
108,-0.033938978
109,-0.06037223
110,0.11031689
111,0.15622984
112,0.06030668
113,-0.05163585
114,0.09609983
115,-0.14804168
116,-0.013022017
117,0.1326656
118,0.12704255
119,-0.08002938
120,-0.034982704
121,-0.070925586
122,0.13434653
123,0.17633653
124,-0.027598482
125,-0.09697826
126,0.09619206
127,-0.037505418
128,-0.045071714
129,-0.09144726
130,0.10368137
131,-0.0020872743
132,0.15197323
133,-0.10707529
134,0.09985705
135,0.092891164
136,0.16142529
137,0.017346777
138,-0.06398046
139,-0.09174736
140,-0.075082235
141,-0.052221715
142,0.091337726
143,-0.035833396
144,0.10505047
145,0.11995387
146,0.014903692
147,-0.015268162
148,-0.07633623
149,0.10989053
150,-0.053956885
151,-0.017993959
152,-0.0791584
153,-0.10166833
154,0.14222006
155,0.08999237
156,0.15917999
157,0.078334376
158,-0.09431161
159,-0.069712184
160,0.0303033
161,0.007856499
162,0.05991843
163,0.093770586
164,-0.054460697
165,0.020228459
166,-0.0340749
167,-0.025156844
168,-0.08792129
169,0.10710799
170,-0.049985662
171,-0.10033659
172,-0.055961255
173,-0.06916088
174,0.07759375
175,-0.04090785
176,0.012947649
177,-0.08962537
178,-0.07448475
179,0.15920429
180,0.13741349
181,-0.030043023
182,-0.10438851
183,-0.033859085
184,-0.049210723
185,0.02964919
186,0.067015655
187,0.109935574
188,0.16308446
189,0.044267267
190,-0.0680913
191,0.06515918
192,-0.04127491
193,0.08913217
194,-0.10785782
195,0.022145795
196,0.0808536
197,-0.06959008
198,-0.014094141
199,0.13803075
200,0.08485089
201,-0.05491158
202,0.18753827
203,-0.03963754
204,-0.021652099
205,-0.04571229
206,-0.04107291
207,0.07488044
208,-0.04286001
209,0.05738664
210,0.008930086
211,-0.108861834
212,-0.025442274
213,0.07142402
214,0.03080197
215,0.0032984398
216,0.010578568
217,-0.022720192
218,-0.029651998
219,0.135254
220,-0.032608114
221,-0.037418477
222,-0.027318165
223,0.078640945
224,0.024957873
225,0.14214827
226,0.00095272023
227,-0.03284584
228,-0.009577649
229,0.10246702
230,0.037874192
231,0.10446452
232,-0.10740323
233,-0.049508583
234,0.076108545
235,-0.039252743
236,0.0752657
237,0.13021034
238,-0.028957454
239,-0.03630506
240,0.09669771
241,0.112326875
242,0.008677475
243,0.14210247
244,-0.04777039
245,-0.09331653
246,-0.039928306
247,-0.08774965
248,0.099109665
249,-0.03064358
250,-0.07222271
251,0.09653487
252,0.057931036
253,0.11476721
254,0.06540884
255,0.11133025
256,0.18598838
257,-0.059216727
258,-0.052580677
259,-0.07873038
260,0.13463642
261,-0.069021165
262,-0.018256342
263,0.19578412
264,0.07334648
265,0.10276103
266,0.11787603
267,-0.00201095
268,0.055268854
269,-0.014027915
270,-0.083964765
271,0.0704135
272,0.023182685
273,0.035632614
274,-0.05050273
275,0.07907441
276,0.17254803
277,0.14791475
278,-0.027052388
279,-0.05497779
280,-0.07920336
281,0.09226952
282,0.002011523
283,-0.15009376
284,0.057836
285,-0.08934248
286,-0.02895119
287,-0.056184135
288,0.034910023
289,-0.08520301
290,0.16315247
291,-0.11267066
292,0.05901726
293,0.13517438
294,-0.030421784
295,0.17523824
296,0.03456346
297,-0.063919224
298,-0.0011924382
299,-0.17536092
300,-0.036861833
301,-0.02214878
302,-0.0063063446
303,0.07878691
304,0.15050322
305,0.042694233
306,0.11075018
307,-0.007757451
308,-0.12481426
309,0.12702477
310,0.052193917
311,0.03150712
312,-0.057099547
313,-0.06166946
314,-0.083643496
315,-0.026332596
316,-0.019779203
317,0.005468936
318,-0.0624165
319,-0.07280606
320,-0.04722285
321,0.15529504
322,-0.063968696
323,0.044916574
324,0.07183289
325,0.024648463
326,0.11735892
327,-0.10902741
328,-0.01997611
329,-0.055302918
330,-0.08103004
331,-0.049029548
332,-0.09892857
333,-0.07355708
334,0.11914706
335,-0.07228683
336,0.08956609
337,0.05983504
338,0.110977866
339,0.1485745
340,0.035186343
341,0.08801193
342,-0.10734179
343,-0.029816115
344,-0.079387434
345,-0.004203164
346,0.09254758
347,-0.08968773
348,-0.1277555
349,-0.064692914
350,-0.12580475
351,-0.004456011
352,-0.009233362
353,-0.10612815
354,-0.07317056
355,-0.13502844
356,0.11204122
357,0.06640132
358,-0.036406998
359,-0.053881567
360,0.101062894
361,0.046192955
362,-0.054977514
363,-0.0018179041
364,0.16088153
365,-0.023510829
366,0.015417283
367,0.013964647
368,0.16805255
369,-0.09520559
370,0.14551364
371,0.067057714
372,-0.04515012
373,-0.061333075
374,0.039899796
375,-0.021696638
376,0.050137207
377,-0.033856574
378,0.0014940272
379,-0.068050526
380,-0.07437608
381,0.081289604
382,0.0073438035
383,-0.029493464
384,-0.04169315
385,-0.012558128
386,0.02266628
387,0.07492576
388,0.05667754
389,0.061218504
390,-0.13209724
391,-0.10213296
392,0.16636507
393,-0.021193555
394,0.02659897
395,0.091991216
396,-0.08401853
397,-0.11538656
398,0.056990627
399,0.05966773
400,-0.012768052
401,-0.06420854
402,-0.08542241
403,-0.101675995
404,-0.021944333
405,0.15002145
406,-0.0056219134
407,-0.11305956
408,0.12954974
409,-0.07876436
410,-0.06104483
411,-0.020930579
412,-0.057017546
413,-0.0697104
414,-0.07752207
415,0.038889684
416,-0.036149416
417,0.0054510306
418,-0.118693806
419,-0.091271594
420,-0.100072004
421,-0.033647005
422,0.07625324
423,-0.11373768
424,-0.044082135
425,-0.026121821
426,0.118419416
427,-0.070865445
428,0.10276279
429,-0.016473971
430,-0.06492432
431,0.08612903
432,-0.12864998
433,-0.026052207
434,0.087761186
435,0.07900131
436,-0.041964702
437,-0.0097125685
438,0.030378208
439,0.054754198
440,-0.016735205
441,0.03945699
442,-0.047206692
443,-0.06904531
444,0.009963543
445,0.1217572
446,-0.02261084
447,-0.07213918
448,-0.113609634
449,0.025704697
450,-0.08002797
451,-0.09457019
452,0.17673925
453,-0.03335392
454,-0.082740515
455,-0.005888944
456,-0.063410215
457,-0.05962792
458,-0.07560834
459,-0.09939522
460,0.10772238
461,0.016442569
462,0.0015260329
463,0.099870116
464,0.16258648
465,-0.04081704
466,0.009840346
467,-0.04201257
468,0.14937916
469,-0.090931624
470,-0.026535982
471,0.11070248
472,0.058479313
473,0.013604371
474,0.07083084
475,-0.014121815
476,-0.04390011
477,0.15732966
478,-0.06446973
479,0.0957023
480,-0.047479227
481,0.15154034
482,0.02518156
483,-0.04384259
484,-0.012855045
485,-0.094842985
486,-0.015917951
487,-0.064878605
488,-0.06238773
489,-0.10498188
490,-0.06497768
491,-0.08889782
492,0.09507668
493,0.08575014
494,0.11362066
495,-0.113181375
496,0.0301669
497,-0.017566543
498,0.06739378
499,-0.09916913
500,-0.10880864
501,-0.011391987
502,-0.071111456
503,-0.1302958
504,0.002199474
505,0.109511875
506,0.068458304
507,0.1548889
508,-0.007863712
509,-0.07775965
510,0.16609365
511,0.051989973
512,-0.0072065387
513,-0.008365985
514,-0.07016846
515,-0.028500343
516,-0.058817256
517,-0.061492056
518,0.05958831
519,0.036185358
520,-0.043325998
521,-0.041218944
522,-0.04646108
523,0.0002277474
524,-0.08090276
525,-0.093086615
526,-0.06366503
527,-0.03954297
528,-0.018066145
529,0.107757285
530,-0.05263887
531,0.006156911
532,-0.1372747
533,-0.019135077
534,-0.023520716
535,-0.09665204
536,-0.037741948
537,-0.04579386
538,0.016762247
539,0.067439795
540,0.0826255
541,0.038633265
542,-0.032018997
543,-0.003182018
544,0.10884818
545,0.019761944
546,0.111809395
547,0.13282911
548,0.030214608
549,-0.032636315
550,-0.03086624
551,-0.0036588379
552,-0.09230188
553,-0.08281489
554,-0.047221478
555,0.07012469
556,0.11764286
557,0.005072524
558,-0.10744639
559,0.0074093034
560,-0.050598547
561,0.056127798
562,0.17648251
563,-0.15246105
564,0.09501991
565,0.037695695
566,0.09273555
567,-0.015573562
568,-0.056128662
569,0.15771104
570,-0.04221639
571,0.027193474
572,-0.08483796
573,-0.017177336
574,0.02784251
575,0.048731394
576,-0.030860584
577,0.15653044
578,-0.06913582
579,0.0013232849
580,0.055966944
581,-0.059709202
582,0.022446338
583,0.04201849
584,-0.041837137
585,0.01476186
586,0.11314598
587,0.028540058
588,-0.064197496
589,-0.017284563
590,0.006925414
591,-0.047895122
592,0.103837706
593,-0.0006995888
594,-0.053346913
595,-0.0052759456
596,-0.00053748646
597,-0.026583223
598,-0.008762775
599,-0.10821789
600,-0.06273052
601,0.11090635
602,-0.07347817
603,-0.045333695
604,0.0047361027
605,0.10433756
606,-0.024161018
607,0.052195657
608,-0.011620844
609,-0.0723136
610,-0.068011716
611,-0.07894538
612,-0.069381446
613,-0.025593445
614,0.0041087773
615,0.053766526
616,-0.20664762
617,-0.06290893
618,0.14772563
619,-0.087224975
620,0.0044190544
621,-0.15436748
622,0.09304871
623,-0.0704556
624,-0.08745297
625,0.14349972
626,-0.000255689
627,0.11779419
628,0.14978747
629,-0.0119899195
630,-0.066587135
631,-0.13565357
632,-0.05098325
633,0.07380624
634,-0.1249077
635,-0.035018202
636,0.105850995
637,0.12342316
638,0.09257957
639,0.057308365
640,-0.059624292
641,-0.10062879
642,0.009846843
643,-0.061166786
644,0.004430401
645,0.11743993
646,0.10796713
647,-0.048292894
648,-0.060704805
649,-0.08848238
650,-0.04558124
651,0.072568305
652,0.07759659
653,-0.07364187
654,0.07743326
655,-0.041655295
656,-0.018517546
657,0.0653312
658,-0.05577895
659,0.069750644
660,-0.0038630601
661,0.039753314
662,-0.09371493
663,0.09620908
664,0.11761516
665,-0.008271619
666,-0.05010088
667,0.012136667
668,-0.0422152
669,0.0046654246
670,0.07505629
671,-0.1045347
672,-0.058211938
673,-0.012335427
674,0.1072231
675,-0.0011706206
676,0.165317
677,-0.04640885
678,-0.027979724
679,-0.08462728
680,-0.13791074
681,-0.056589738
682,-0.00055828545
683,-0.013823813
684,-0.03826548
685,-0.03981477
686,0.10892952
687,-0.0033833622
688,-0.021277847
689,-0.02941323
690,-0.023243539
691,-0.09315097
692,0.14440973
693,0.09389237
694,0.08209612
695,0.0793558
696,-0.032037005
697,-0.02655039
698,-0.055148106
699,-0.06249727
700,-0.028408201
701,-0.04259991
702,0.06981722
703,-0.017914414
704,0.09815685
705,0.09318287
706,-0.039892737
707,0.08601119
708,-0.013003264
709,0.11890644
710,0.0425525
711,0.15659644
712,-0.061414834
713,-0.053939264
714,-0.06641327
715,0.062774256
716,-0.027410865
717,-0.10662727
718,-0.0145387845
719,0.096118465
720,0.098912925
721,-0.15433525
722,-0.038186383
723,-0.075939216
724,-0.028840318
725,-0.077299915
726,-0.03480984
727,-0.0945477
728,-0.011554889
729,0.08987313
730,-0.022438105
731,0.10875071
732,-0.12867746
733,-0.024105271
734,0.024022978
735,0.1598996
736,-0.0695667
737,-0.08824374
738,-0.008405674
739,-0.06530631
740,-0.017563427
741,-0.059631392
742,-0.070257716
743,0.14550269
744,-0.0012942972
745,-0.041016806
746,-0.045203477
747,-0.10310005
748,-0.0104812
749,-0.08565749
750,-0.058694284
751,0.118767895
752,-0.075481504
753,0.011340974
754,-0.03049392
755,0.06918328
756,-0.16756813
757,-0.05189576
758,-0.046851438
759,-0.055135995
760,-0.0833205
761,-0.04336807
762,-0.06102289
763,0.033481754
764,-0.10717855
765,-0.041733533
766,-0.105295286
767,-0.062313393
768,-0.04734066
769,0.01997089
770,0.0552202
771,0.12357925
772,0.09118515
773,0.061255638
774,0.038290527
775,-0.09192707
776,0.10131812
777,0.08795551
778,0.09004666
779,-0.016236775
780,-0.044059303
781,-0.048879627
782,-0.07833715
783,0.18475717
784,0.0480193
785,-0.043831665
786,-0.06057239
787,-0.08793484
788,-0.07394163
789,-0.012658936
790,-0.029070867
791,0.025402837
792,0.07916202
793,-0.008566917
794,-0.068557724
795,0.075506255
796,-0.036513418
797,-0.00071768917
798,0.031106878
799,-0.10287754
800,-0.003171242
801,-0.048102114
802,-0.1176534
803,-0.02028576
804,-0.04509224
805,-0.07970335
806,-0.044763193
807,0.02921323
808,-0.037672542
809,-0.036917407
810,0.053616706
811,0.052889336
812,-0.020508815
813,-0.04056666
814,0.14824292
815,-0.0912387
816,-0.07366565
817,-0.1153688
818,-0.113218375
819,0.061891876
820,0.0033801834
821,-0.03265967
822,-0.020074835
823,-0.08801802
824,-0.023774866
825,-0.030099958
826,0.060941327
827,0.11019887
828,0.15434285
829,0.09959011
830,-0.043383587
831,-0.09092404
832,-0.0849597
833,0.07405716
834,0.14859001
835,0.12461913
836,-0.09925439
837,-0.020217799
838,-0.06736046
839,-0.045715097
840,0.07075618
841,-0.015990691
842,0.121445075
843,-0.022485992
844,-0.07804142
845,-0.055661563
846,-0.0720427
847,-0.031485412
848,0.11519685
849,0.021545785
850,0.15984443
851,-0.047813468
852,-0.04030051
853,-0.104277335
854,0.14751014
855,-0.010044307
856,0.051160797
857,-0.011602236
858,0.061595134
859,-0.087287426
860,-0.057919446
861,-0.008190111
862,-0.06013489
863,-0.05067861
864,-0.049056742
865,0.056950353
866,0.035455335
867,0.012578738
868,-0.043991294
869,0.19745566
870,-0.012185284
871,0.07168424
872,-0.100023694
873,0.13401897
874,0.004661488
875,0.041432913
876,-0.018586826
877,-0.011158596
878,-0.053073887
879,-0.039572243
880,0.089254215
881,-0.083098866
882,0.0548432
883,-0.055274576
884,0.15360199
885,-0.09764764
886,-0.071065776
887,0.058566924
888,-0.10763296
889,0.013215276
890,0.101928376
891,0.13735664
892,0.037816502
893,-0.13570322
894,0.14499727
895,0.10571571
896,-0.007940272
897,0.13142507
898,-0.06852386
899,-0.058459707
900,0.04800212
901,-0.04474196
902,-0.08241665
903,-0.06369943
904,-0.093672134
905,0.08007799
906,-0.0020864767
907,0.05156326
908,-0.08133192
909,-0.042648513
910,-0.079722434
911,0.048834864
912,-0.051754687
913,0.014286281
914,-0.024125343
915,-0.0828433
916,0.063082136
917,0.106053494
918,-0.02138006
919,-0.028865186
920,0.075996816
921,-0.040588163
922,-0.00045629145
923,-0.045386214
924,-0.07139276
925,-0.05557685
926,-0.053290233
927,0.080619566
928,0.13315484
929,0.012325286
930,0.066639535
931,0.040224135
932,0.061581798
933,-0.106189355
934,0.045538913
935,0.114560455
936,-0.027121445
937,0.073577225
938,-0.085454054
939,-0.027737733
940,0.006346021
941,-0.050240763
942,0.05851362
943,0.06711661
944,-0.03544222
945,0.13638526
946,-0.063473634
947,0.10199979
948,0.027659398
949,0.0063286764
950,0.12643296
951,0.04470464
952,-0.058662254
953,0.09040388
954,-0.035420496
955,-0.011151578
956,0.07193892
957,-0.065923385
958,-0.054077756
959,-0.008073552
960,0.02532217
961,0.044579573
962,0.059629336
963,-0.020397795
964,0.062735334
965,-0.030489715
966,-0.04910789
967,-0.018616037
968,-0.033488438
969,0.050621282
970,-0.0027009393
971,0.16736001
972,-0.053046316
973,-0.17809317
974,0.120476514
975,0.049665038
976,-0.0100026345
977,0.005016786
978,-0.030302348
979,-0.01530133
980,0.14745279
981,-0.009473952
982,0.092191786
983,-0.0497514
984,-0.03522596
985,0.040738177
986,0.10729389
987,-0.02662435
988,-0.03961693
989,-0.09186401
990,-0.083969995
991,0.10688486
992,-0.10075662
993,-0.089342505
994,-0.025065836
995,-0.017890554
996,-0.005719442
997,0.07106105
998,0.054695047
999,-0.0674292
1000,0.09589542
1001,0.1650665
1002,-0.037107464
1003,0.05865872
1004,-0.051593322
1005,-0.005708053
1006,-0.050360512
1007,-0.049504522
1008,-0.0391375
1009,-0.013029612
1010,0.032645356
1011,0.1819859
1012,-0.18090872
1013,0.0037720292
1014,-0.024100797
1015,-0.028265815
1016,0.0014260352
1017,-0.06296106
1018,0.06896148
1019,-0.08731399
1020,-0.09941201
1021,-0.013631718
1022,-0.02556416
1023,0.0070331125
