,0,1,2,3,4,5,6,7,8,9,10,11,12,13,14,15,16,17,18,19,20,21,22,23,24,25,26,27,28,29,30,31,32,33,34,35,36,37,38,39,40,41,42,43,44,45,46,47,48,49,50,51,52,53,54,55,56,57,58,59,60,61,62,63,64,65,66,67,68,69,70,71,72,73,74,75,76,77,78,79,80,81,82,83,84,85,86,87,88,89,90,91,92,93,94,95,96,97,98,99,100,101,102,103,104,105,106,107,108,109,110,111,112,113,114,115,116,117,118,119,120,121,122,123,124,125,126,127
0,-0.027113815769553185,-0.09862056374549866,-0.708873450756073,-0.11706634610891342,-0.042214278131723404,-0.11752588301897049,-0.5957083702087402,-0.40557539463043213,-0.04001367464661598,-0.13900229334831238,0.33806413412094116,-0.4912964403629303,-0.4413453936576843,-0.03016403317451477,-0.024895794689655304,-0.4441354274749756,0.9912892580032349,-0.5200384855270386,-0.499655544757843,0.5287600755691528,-0.3071613013744354,-0.47233307361602783,-0.24373647570610046,-0.14384160935878754,0.002303198678418994,-0.30835747718811035,0.15884163975715637,-0.03495905548334122,-0.26932141184806824,-0.656416654586792,-0.005407925229519606,-0.4499507248401642,-0.347751647233963,-0.4137638509273529,0.006456765811890364,-0.16346636414527893,-1.079424262046814,-1.0402264595031738,-0.15247058868408203,-0.16405323147773743,-1.0629464387893677,-0.3017328679561615,-0.4754667282104492,-0.2072867602109909,-0.4843560457229614,-0.433515727519989,-1.1696261167526245,-0.05467566102743149,-0.17633724212646484,-0.49176251888275146,-0.07374951243400574,-0.14422164857387543,-0.1534028798341751,-0.4564816951751709,0.9632734060287476,-0.23381933569908142,-0.48691022396087646,-0.3689489960670471,-0.23254989087581635,-0.0961790531873703,-0.1391659528017044,-0.4484090507030487,-1.2581340074539185,-0.3581187427043915,0.6364733576774597,0.042472437024116516,0.2594241201877594,-0.18436703085899353,-0.1069987490773201,0.11633864790201187,0.18155014514923096,-0.11277541518211365,-0.5093197226524353,-0.5135430693626404,-0.22938252985477448,-0.0511433482170105,0.07482341676950455,-0.44488921761512756,-0.07603498548269272,0.5352441668510437,-0.06375205516815186,-0.06214376166462898,-0.10945713520050049,-0.2874346375465393,-0.0716157853603363,0.6413677930831909,0.199077308177948,0.06305155903100967,0.06437645852565765,-0.023973653092980385,-0.17155927419662476,-0.2661261260509491,-0.08266287297010422,-0.12209418416023254,-0.12235934287309647,-0.1548289805650711,-0.5634744167327881,0.1801256388425827,-0.1650136113166809,0.03888332098722458,0.23186805844306946,-0.441626638174057,0.026979031041264534,-0.2363927960395813,-0.2694019377231598,-0.05195092409849167,-0.08788813650608063,-0.1055648922920227,-0.43543556332588196,-0.8473308682441711,-0.9095132946968079,-0.6634958386421204,-1.0605201721191406,0.35144296288490295,-0.18703411519527435,-0.36581215262413025,-0.7098634839057922,-0.7955971956253052,0.01284510362893343,-0.23400527238845825,-0.32808247208595276,0.6513497233390808,-0.5721119046211243,0.49747776985168457,-0.04763111099600792,-0.6692862510681152,0.2770416736602783,-0.13178090751171112
1,-0.5259470343589783,-0.25904327630996704,0.08588793128728867,0.16484853625297546,0.02906390093266964,-0.12220622599124908,0.01371744368225336,-0.02320285141468048,0.03663279861211777,-0.9348110556602478,-0.3419373631477356,0.4428800642490387,-0.39982953667640686,-0.24175481498241425,-0.4165668189525604,-0.16065286099910736,-0.33386245369911194,-0.003049753839150071,-0.16249676048755646,-0.3271172344684601,-0.7432447075843811,1.0399821996688843,-0.42026832699775696,0.7341310381889343,0.0609588623046875,-0.382646381855011,-0.6086105704307556,0.8786892294883728,0.779619038105011,-0.44446131587028503,0.4894123375415802,0.02709529548883438,0.3865925371646881,-0.3320128917694092,0.020422523841261864,0.04692623391747475,-0.11967409402132034,-0.3558470606803894,-0.23637819290161133,-0.218697190284729,-0.1480359435081482,0.7873631715774536,1.4963109493255615,-0.02313128113746643,0.9089832901954651,0.07751341909170151,-0.23947075009346008,-0.38482633233070374,-0.022721974179148674,-0.1304645985364914,-0.15669797360897064,-0.0773945227265358,-0.007096134591847658,0.37277963757514954,-0.31077998876571655,0.9638656377792358,-0.37713733315467834,0.29444462060928345,0.33826375007629395,-0.0923774391412735,-0.24944233894348145,-0.28439584374427795,-0.32593223452568054,-0.38538601994514465,-0.49621713161468506,-0.22200149297714233,-0.2009919285774231,-0.10552176088094711,0.45941808819770813,-0.6154845952987671,0.7270863652229309,-0.20457135140895844,-0.03355499356985092,0.5131469368934631,-0.4054642617702484,-0.07338018715381622,-0.6833584308624268,0.22744408249855042,0.30471867322921753,-0.5093239545822144,-0.20636612176895142,-1.3110369443893433,1.0260943174362183,-0.46294844150543213,0.13189597427845,-0.7055132985115051,0.30666160583496094,-0.3036156892776489,-0.12185802310705185,-0.3265284299850464,0.5142828822135925,-0.08341915160417557,-0.06609421968460083,-0.00962320901453495,-0.11682701110839844,-0.4305807948112488,-0.11101856082677841,-1.6152851581573486,0.00977516733109951,0.8740149140357971,-0.13273322582244873,-0.4244091212749481,-0.034968018531799316,-0.13236047327518463,0.3612380623817444,-0.25956419110298157,-0.2913440763950348,0.023801924660801888,0.12162917107343674,-0.47890812158584595,0.09357119351625443,-0.32217511534690857,-0.3434924781322479,-0.5783025622367859,0.001209627604112029,1.4193129539489746,-0.5010480880737305,-0.17912006378173828,-0.6951487064361572,-0.7140350341796875,-0.1652088612318039,-0.04837742820382118,1.6207116842269897,-1.4298971891403198,-0.23995564877986908,-0.18918971717357635,0.13487671315670013,-0.2889593243598938
2,-0.11136075854301453,-0.10475130379199982,-0.08877783268690109,-0.1683785319328308,-0.10562705993652344,-0.13055819272994995,-0.2519296407699585,-0.3037956953048706,0.1083664819598198,-0.19312377274036407,0.014874454587697983,-0.10727148503065109,-0.13770024478435516,-0.07930295914411545,-0.13046342134475708,-0.14177364110946655,-0.2356490194797516,-0.22744444012641907,-0.07262008637189865,-0.02781497687101364,-0.23757830262184143,-0.1586320549249649,-0.29748108983039856,-0.052348412573337555,-0.05160924792289734,-0.17518889904022217,-0.317985475063324,-0.1748875379562378,-0.3113614618778229,0.10298512130975723,-0.10111834853887558,-0.3089829683303833,0.06717435270547867,-0.10305426269769669,-0.14022862911224365,-0.047451529651880264,0.0003846361651085317,-0.2912255823612213,0.01794390194118023,-0.06905888766050339,-0.19849133491516113,0.13266479969024658,-0.1225484237074852,-0.2538372874259949,0.27140116691589355,-0.19320400059223175,0.034087639302015305,-0.198160782456398,0.06625083088874817,-0.15101665258407593,0.035575978457927704,-0.313602477312088,0.03513073921203613,-0.27946165204048157,-0.09453936666250229,-0.05166194960474968,-0.18983718752861023,0.0012508528307080269,-0.05052632838487625,-0.239092618227005,-0.10961659997701645,-0.21235138177871704,-0.08919350802898407,-0.10303319990634918,0.022255247458815575,-0.14272266626358032,-0.058507028967142105,-0.15485595166683197,-0.3730672597885132,0.011788132600486279,-0.09604457765817642,-0.3245548605918884,-0.018586376681923866,-0.06614875048398972,-0.2195112705230713,-0.0714915320277214,-0.09161116927862167,0.05669408291578293,-0.028216004371643066,-0.04379839077591896,-0.16736005246639252,-0.17318429052829742,-0.37264424562454224,-0.016391713172197342,0.2954826056957245,-0.10778521746397018,-0.14066164195537567,-0.07127244770526886,-0.12174651771783829,-0.11655408143997192,-0.04666498675942421,-0.03244645148515701,-0.19162103533744812,-0.26639556884765625,0.011034623719751835,-0.18145844340324402,-0.030543183907866478,-0.13056343793869019,-0.12433255463838577,0.14602679014205933,-0.1821669042110443,-0.17576442658901215,-0.3107002377510071,-0.054724641144275665,-0.26149335503578186,-0.17672064900398254,-0.17539918422698975,-0.09306319802999496,-0.2483636736869812,0.0810059905052185,-0.047049812972545624,-0.12096701562404633,-0.29873600602149963,-0.38711315393447876,-0.209980770945549,-0.13988232612609863,-0.27834588289260864,-0.12345392256975174,-0.17048391699790955,0.06303531676530838,-0.010202682577073574,-0.3198630213737488,-0.2944841980934143,-0.09510733187198639,-0.09946391731500626,-0.3264702558517456,0.02180437743663788,0.2553877830505371
3,0.204141303896904,-0.0019923679064959288,-0.013199592009186745,-0.1314861923456192,-0.17068159580230713,-1.100946307182312,-0.25512319803237915,-0.1569758504629135,-0.19197869300842285,-0.2654608190059662,0.10222131758928299,0.15148580074310303,0.27298659086227417,0.08214865624904633,-0.24224433302879333,0.6129063963890076,-0.3236282467842102,-0.2977452278137207,-0.16470925509929657,-0.4477420449256897,-0.573627769947052,0.1786298304796219,-0.21780864894390106,-0.04929272085428238,-0.28474971652030945,-0.6853674054145813,0.29950472712516785,0.16753751039505005,0.08362734317779541,-0.16909396648406982,0.07297667860984802,0.5118266344070435,0.20707061886787415,-0.17061975598335266,0.4306645095348358,-0.07772838324308395,0.3356238305568695,-0.42246466875076294,-0.08490781486034393,-0.35459139943122864,0.020610367879271507,-0.21376550197601318,0.0565260648727417,0.20704330503940582,-0.312225341796875,-0.451516717672348,-0.09954152256250381,-0.18105067312717438,0.09827584773302078,-0.09760633856058121,-0.14224055409431458,0.4332294166088104,-0.08504630625247955,-0.15288299322128296,-1.120093822479248,-0.17098070681095123,0.1701430231332779,0.44868141412734985,0.11208707839250565,0.4100659191608429,-0.2801051735877991,-0.21019011735916138,-0.9611963033676147,-0.11718274652957916,-0.6075243949890137,0.03464382886886597,-0.06914903968572617,-0.14285439252853394,0.29295942187309265,0.2989325225353241,0.6317673325538635,-0.032851360738277435,-0.24118416011333466,0.4122362732887268,0.24524644017219543,0.24377702176570892,-0.4350850284099579,-0.208268404006958,-0.13348862528800964,-0.15405398607254028,0.2017485499382019,0.6878097653388977,0.10379304736852646,-0.3422378897666931,-0.39099642634391785,0.13964849710464478,-0.4152061343193054,0.8185200095176697,0.010245159268379211,0.03793735057115555,-0.3732250928878784,-0.3742116689682007,-0.17544357478618622,-0.19842857122421265,-0.23646233975887299,-0.1339113861322403,-0.13314348459243774,-0.392426460981369,0.0036688735708594322,-0.09620700031518936,-0.24611428380012512,-0.15774647891521454,0.26992252469062805,0.1072714775800705,-0.35274726152420044,0.16812993586063385,0.2059721201658249,0.2726496756076813,-0.0918031707406044,-0.17863966524600983,0.3112857937812805,-1.011435866355896,0.1592731773853302,-0.10535254329442978,-0.24182194471359253,-0.057204846292734146,-0.2013079673051834,0.06734482198953629,-0.37307092547416687,-0.48926860094070435,0.12342330813407898,-0.9540151357650757,-0.031490858644247055,-0.6713899970054626,-0.08687611669301987,-0.3000718951225281,-0.18751029670238495,-0.749862790107727
4,0.5282294154167175,0.08339044451713562,-0.725793182849884,-0.17655855417251587,-0.04122745990753174,-0.47944504022598267,-0.39356130361557007,-0.2781883776187897,-0.16001573204994202,0.1453114002943039,0.40196335315704346,0.052448950707912445,0.36122769117355347,0.3521886467933655,-0.4132288694381714,-0.7865985035896301,-0.28408581018447876,-0.10658394545316696,0.09735439717769623,0.39583393931388855,-0.029867080971598625,0.02548660896718502,0.002232498023658991,0.08406711369752884,0.05519978702068329,-0.05301167815923691,0.3487686216831207,-0.011457979679107666,-0.40410396456718445,-0.6072788238525391,-0.24489161372184753,0.0552942119538784,-0.13559578359127045,-0.10125456750392914,0.2162594050168991,0.12457059323787689,-0.6938563585281372,-0.7652040123939514,0.18598966300487518,0.07949331402778625,-0.7644028663635254,0.09150555729866028,0.023844636976718903,-0.35124659538269043,0.16422291100025177,-0.018766827881336212,-0.187588170170784,0.2674480378627777,-0.35315635800361633,0.07209030538797379,0.26717013120651245,0.045623693615198135,0.07091528177261353,-0.2569570541381836,-0.39035123586654663,-0.11460848152637482,-0.0012620949419215322,-0.06368298083543777,-0.7497219443321228,-0.2139444351196289,0.32558614015579224,0.20140588283538818,-0.4271259605884552,-0.15003985166549683,0.13199034333229065,-0.03634386137127876,-0.14589276909828186,-0.08007203042507172,-0.22154220938682556,0.5363960266113281,0.19267363846302032,0.1343490332365036,-0.191294863820076,0.04871831461787224,0.18801020085811615,-0.3277139961719513,0.7106396555900574,-0.17376476526260376,0.27225667238235474,0.37444230914115906,0.19653719663619995,0.19880950450897217,-0.49744972586631775,-0.36744630336761475,0.2992287576198578,0.17652994394302368,-0.49598053097724915,-0.61570143699646,0.23421216011047363,0.0032752961851656437,0.14295624196529388,0.0072979493997991085,-0.11648605018854141,-0.05829327926039696,0.07187405973672867,0.20422160625457764,-0.11864905059337616,0.29532402753829956,-0.02046971395611763,0.06917616724967957,0.14114980399608612,0.29157984256744385,0.327330619096756,-0.015473118983209133,0.10865948349237442,-0.08072131127119064,-0.3536113500595093,-0.12440338730812073,0.03219939395785332,0.03416361287236214,-0.7970659136772156,0.161286398768425,0.17611929774284363,0.03977326303720474,-0.33946558833122253,0.10291742533445358,0.2723996639251709,0.0656861960887909,0.5543375015258789,-0.5389116406440735,-0.6279693841934204,-0.10368266701698303,-0.032684825360774994,0.08281248807907104,0.15557804703712463,0.2079765647649765,0.2734469175338745,0.35248416662216187
5,0.03332970663905144,-0.15480905771255493,-0.17174704372882843,-0.08416789025068283,-0.01170303113758564,0.19412823021411896,-0.09631845355033875,-0.3532412052154541,0.05527685955166817,-0.2023494690656662,-0.14535492658615112,-0.19583068788051605,-0.1642129123210907,-0.24920952320098877,-0.039089638739824295,-0.26938024163246155,-0.0945347398519516,0.054952140897512436,-0.29777097702026367,-0.005778983235359192,-0.05620534345507622,-0.037975139915943146,-0.27044913172721863,-0.16199111938476562,0.1493462473154068,0.10621149092912674,-0.19692665338516235,-0.3419800102710724,-0.4587600827217102,-0.36485767364501953,-0.3004896342754364,-0.19052693247795105,-0.15478983521461487,0.006619183346629143,0.16214051842689514,-0.18292342126369476,-0.3391014337539673,-0.0833413228392601,-0.27167242765426636,-0.18899540603160858,-0.1590128391981125,-0.18696247041225433,-0.366180419921875,-0.05609035864472389,0.00390339526347816,0.007223905995488167,-0.21147248148918152,-0.1779593825340271,-0.17675888538360596,-0.10413725674152374,-0.13861650228500366,-0.08809739351272583,-0.18428340554237366,-0.2852645814418793,-0.021014999598264694,-0.25449487566947937,-0.35345780849456787,-0.05397761985659599,-0.050334494560956955,-0.18989019095897675,0.07771134376525879,0.04407498612999916,-0.17409825325012207,-0.2557067275047302,-0.23185347020626068,-0.034605979919433594,-0.1709814965724945,-0.008214389905333519,-0.2671556770801544,-0.026028621941804886,-0.3909967839717865,-0.09606485813856125,-0.05891549214720726,-0.2747275233268738,-0.3581738770008087,-0.18780219554901123,-0.12117210775613785,-0.041088469326496124,0.0688459575176239,-0.25179311633110046,-0.1353897601366043,-0.33729448914527893,-0.6823545098304749,0.3041602671146393,-0.1454382985830307,-0.12992259860038757,-0.009810295887291431,-0.3402631878852844,-0.13001464307308197,-0.2210332453250885,-0.14485414326190948,-0.058139245957136154,-0.22451922297477722,-0.23469612002372742,-0.12338240444660187,-0.15979371964931488,-0.25057128071784973,-0.11037050187587738,-0.1813114434480667,-0.33506888151168823,-0.04392214119434357,-0.3006662428379059,-0.11225511133670807,-0.029116956517100334,0.08245089650154114,-0.11610063910484314,-0.2674780488014221,-0.09644743800163269,-0.2237669825553894,-0.2827957570552826,-0.40793344378471375,0.14919745922088623,-0.2490626871585846,0.008679107762873173,-0.09610436111688614,-0.18807464838027954,-0.10158577561378479,-0.022974688559770584,-0.09169162064790726,-0.2688360810279846,-0.03336486220359802,0.034297335892915726,-0.20322492718696594,-0.04253307357430458,0.09739657491445541,-0.37987178564071655,-0.04129239544272423,-0.22871455550193787
6,-0.0009155549923889339,0.3197023272514343,-0.8532817363739014,-0.21717414259910583,-0.013309433124959469,0.2692911922931671,-0.8903350234031677,-0.5173033475875854,0.10653618723154068,-0.48705270886421204,0.3052859902381897,-0.8609664440155029,0.2262600213289261,0.2625558078289032,-0.5255942344665527,-0.5725512504577637,-0.2563381493091583,-0.5145276784896851,-0.37299028038978577,0.36818933486938477,-0.31513893604278564,-0.7474896311759949,-0.4837079644203186,-0.5411052703857422,-0.17761535942554474,1.1072570085525513,0.03224414587020874,0.41080552339553833,-0.5509498715400696,-1.2873347997665405,-0.1432516723871231,-0.7565778493881226,-0.662108838558197,-0.6040897369384766,0.2795422375202179,-0.508124589920044,-0.5566095113754272,-0.5502042174339294,-0.03914732113480568,-0.7832605242729187,-0.4455905258655548,0.05568360909819603,-0.9639725685119629,-0.004763266537338495,-0.27984949946403503,-0.32949915528297424,0.27432382106781006,-0.4638688266277313,-0.13638968765735626,-0.3239704370498657,-0.029368065297603607,-0.15736395120620728,-0.21215756237506866,-0.5095969438552856,0.718341052532196,-0.3520156443119049,-0.1625056117773056,-0.7427669167518616,-0.08118629455566406,-0.29364508390426636,-0.31111547350883484,-0.2077101618051529,-0.6582742929458618,-0.48339876532554626,0.4048851430416107,0.1463598608970642,0.04129326343536377,-0.5413445830345154,-0.6765409111976624,-0.006155807990580797,-0.13950327038764954,-0.5332750082015991,-0.41416269540786743,-0.7652379274368286,-0.018819306045770645,-0.7538756132125854,-0.4293400049209595,-0.19813509285449982,0.2392895370721817,0.03662726283073425,-0.0499751977622509,-0.6420532464981079,-0.41401898860931396,0.4703579843044281,-0.2540532946586609,0.24935854971408844,0.04377206414937973,0.7945336699485779,0.30456045269966125,-0.06467212736606598,-0.3901156783103943,-0.38345134258270264,-0.27607572078704834,-0.4866407513618469,-0.18552231788635254,-0.4178452789783478,-0.11165747791528702,0.20118962228298187,0.06079292669892311,-0.6214179396629333,-0.009156432002782822,0.28494033217430115,-0.8499628305435181,0.05002884939312935,0.05645246431231499,0.014762499369680882,0.005482662934809923,-0.13411147892475128,-0.5760219097137451,-0.47809314727783203,-0.7881073355674744,-0.3413907587528229,-0.24452687799930573,-0.09651415050029755,-0.17450787127017975,-0.8138969540596008,-0.49002158641815186,-0.2937677800655365,-0.4352278411388397,0.023770539090037346,-0.16013304889202118,0.7165036797523499,-1.2911889553070068,0.2182338684797287,0.09354006499052048,-0.14443542063236237,0.03187457472085953,-0.3755037188529968
7,-0.13133899867534637,-0.49979618191719055,0.25678548216819763,-0.6083146929740906,-0.12480053305625916,-0.3758681118488312,-0.35698503255844116,-0.20476122200489044,-0.014857424423098564,0.035390276461839676,0.0657297894358635,0.11540672928094864,-0.7615922093391418,-0.2757660746574402,-0.5355516672134399,0.08876968920230865,-0.2040424644947052,0.08128618448972702,-0.14672793447971344,-0.5062397718429565,-0.1362997442483902,-0.3756623864173889,0.34001222252845764,-0.22595813870429993,-0.21133574843406677,0.1970236748456955,0.1380414068698883,-0.3510133624076843,0.05039897933602333,-0.932960569858551,-0.17956678569316864,0.24970369040966034,-0.26672717928886414,-0.11224456876516342,0.14015382528305054,0.020132390782237053,0.20977073907852173,0.1871759444475174,0.019948391243815422,-0.010778291150927544,0.17785881459712982,-0.5408561825752258,0.03805023431777954,0.11497895419597626,-0.10760045051574707,-0.10265360027551651,-0.1293898969888687,-0.05369469150900841,0.053114794194698334,0.14635765552520752,-0.15573106706142426,0.08238372951745987,-0.20983609557151794,-0.3157881796360016,-0.5974941849708557,-0.13798511028289795,-0.09295424818992615,0.313658744096756,-0.8329588770866394,-0.2934856116771698,-0.07887786626815796,0.31472721695899963,-0.3706915080547333,-0.24826078116893768,-0.8923949599266052,0.04941336065530777,-0.40517857670783997,-0.07344726473093033,0.5611239075660706,-0.033222492784261703,0.6260344386100769,0.04396898299455643,-0.2591116726398468,0.01033085398375988,0.7653915286064148,-0.21350497007369995,-0.61270672082901,-0.15596283972263336,0.1649625450372696,-0.17589432001113892,0.1373334527015686,0.7965103387832642,-0.326808363199234,-0.4620342552661896,-0.0005230895476415753,-0.4750294089317322,-0.8780327439308167,-0.7310050129890442,0.2471248209476471,-0.311145156621933,0.10367482155561447,-0.046677324920892715,0.11213009059429169,0.07751327008008957,-0.06054876744747162,0.15474961698055267,-0.4458063244819641,-0.09539702534675598,-0.03054916486144066,-0.07939574867486954,0.2468508780002594,-0.9730352163314819,0.375326931476593,-0.20694153010845184,-0.3749706745147705,0.14948350191116333,-0.4077313542366028,0.07290571182966232,-0.05378074198961258,-0.7036842703819275,0.3096478581428528,-0.15571309626102448,-0.28636953234672546,0.531015157699585,-0.06334242224693298,0.22499559819698334,-0.2119217813014984,-0.34117013216018677,-0.08206150680780411,-0.1608402281999588,0.24234774708747864,-0.46022236347198486,-0.2627802789211273,-0.38983720541000366,-0.44369837641716003,-0.20427004992961884,-0.48314887285232544,-0.41464963555336
8,-0.09802345186471939,-0.37856072187423706,-0.30270811915397644,-0.08503339439630508,-0.3307766914367676,-1.4341967105865479,-0.10044827312231064,-0.07805459946393967,-0.0179268941283226,-0.01272000651806593,-0.13771085441112518,0.2299344837665558,-0.6350950002670288,0.0007681157439947128,-0.08872167766094208,0.2848235070705414,-0.08997657895088196,-0.09451474249362946,-0.34639227390289307,0.07456983625888824,-0.4942927658557892,-0.22215114533901215,-0.045634157955646515,-0.5178135633468628,-0.07687309384346008,0.5193292498588562,-0.1902058720588684,-0.4415581524372101,0.09841952472925186,-0.25919806957244873,-0.011691219173371792,0.30562034249305725,-0.21757186949253082,-0.26109176874160767,-0.8291491270065308,-0.28927433490753174,0.31987690925598145,-0.47716379165649414,-0.24459314346313477,0.20362547039985657,-0.30972957611083984,-0.15883798897266388,-0.2564508318901062,-0.14265185594558716,0.9252268671989441,-0.17965082824230194,-0.25953924655914307,-0.287798672914505,0.05055111646652222,-0.1995745301246643,-0.165327787399292,0.0959971621632576,-0.1315397173166275,0.18828047811985016,-0.18674840033054352,-0.6406594514846802,0.15118320286273956,-0.013881777413189411,-0.221634641289711,-0.3266250193119049,-0.2555142343044281,-0.06697414070367813,-0.32194575667381287,-0.5240105390548706,-0.358235239982605,0.0900101289153099,-0.05200759693980217,-0.3548852503299713,0.2488238662481308,-0.2401624619960785,0.5801308751106262,-0.4820381700992584,-0.13863970339298248,-0.11745532602071762,0.28279370069503784,-0.17349404096603394,-0.3395596146583557,0.27485421299934387,-0.05970402806997299,0.028659269213676453,-0.06150783598423004,0.45461687445640564,0.29469209909439087,-0.9557892680168152,-0.04338667169213295,-0.10557754337787628,-0.1246422678232193,-0.3750319182872772,-0.12815986573696136,-0.6095169186592102,0.11024850606918335,-0.3668600618839264,-0.1994711309671402,-0.37931978702545166,0.019538383930921555,-0.2684829831123352,-0.09580586105585098,-0.3899402320384979,-0.17267446219921112,-0.10920942574739456,0.16976222395896912,-0.583121657371521,0.32835841178894043,-0.07949013262987137,-0.14783474802970886,0.1482924371957779,-0.44933947920799255,-0.1044779121875763,-0.19364260137081146,-0.07904086261987686,0.07065325230360031,-0.7121530771255493,-1.099947452545166,-0.08701683580875397,-0.03458612784743309,-0.36188453435897827,-0.7048662304878235,-0.4253004789352417,-0.4770309627056122,1.4081854820251465,-0.04460596293210983,-0.7232221364974976,-0.6508824825286865,-0.1767696887254715,-0.32193315029144287,-0.5853013396263123,-0.7518747448921204,-0.7296531796455383
9,-0.7469852566719055,-0.4194474518299103,-0.06241968274116516,-0.5036388635635376,-0.016477201133966446,-0.31615254282951355,0.0934707373380661,-0.37261801958084106,-0.14334222674369812,0.2965583801269531,-0.15772053599357605,0.2882418930530548,-0.365271657705307,-0.49852263927459717,-0.5189115405082703,-0.1310289204120636,-0.22061128914356232,-0.030399853363633156,-0.009562772698700428,-0.0846467986702919,0.1332869827747345,0.1688297688961029,-0.1173420324921608,-0.03267314285039902,-0.16300882399082184,-0.7066537737846375,-0.621519148349762,-0.0288049578666687,0.21295839548110962,-0.43502548336982727,-0.19268429279327393,0.35487034916877747,-0.27512845396995544,-0.29041215777397156,-0.2139560431241989,0.3029809594154358,-0.3985494375228882,0.061628472059965134,-0.16375339031219482,0.21357117593288422,-0.004259087145328522,0.17006371915340424,0.1753527820110321,-0.033035170286893845,-0.16657297313213348,-0.033071402460336685,-0.2567649781703949,-0.299819678068161,0.07872074097394943,0.053528718650341034,-0.06186700239777565,-0.6230859756469727,0.045197825878858566,-0.3451045751571655,-0.6487120389938354,0.16753900051116943,-0.6354526281356812,-0.10979611426591873,-0.3213142454624176,-0.049545831978321075,0.21208904683589935,0.13743473589420319,0.30449002981185913,-0.11526785045862198,-0.5043115019798279,-0.10594592988491058,-0.227500781416893,-0.08566193282604218,0.3370852768421173,-0.8531832098960876,0.17743366956710815,-0.10566375404596329,-0.23973210155963898,-0.2439574897289276,-0.7087802290916443,-0.11980931460857391,-0.0746927559375763,0.008111521601676941,-0.0003199653001502156,-0.47924014925956726,-0.47483736276626587,0.43852078914642334,-0.17827454209327698,-0.33967259526252747,0.003163165645673871,-0.6821120381355286,-0.5692419409751892,-0.42424461245536804,-0.4555359184741974,-0.2195269912481308,0.16343694925308228,-0.3627980649471283,-0.015509724617004395,-0.05278845876455307,0.035807669162750244,-0.08207541704177856,-0.3953498303890228,0.15244704484939575,0.0245438814163208,0.13003504276275635,0.11468342691659927,-0.4096966087818146,0.2892416715621948,-0.20482170581817627,-0.585404634475708,-0.4589357376098633,-0.17066533863544464,-0.4470296800136566,-0.17687729001045227,-0.3094768524169922,-0.48916396498680115,-0.06966833770275116,0.4116703271865845,0.1851263791322708,-0.10640586912631989,0.11775650829076767,0.0014261285541579127,-0.4117756187915802,-0.1757863163948059,0.02162071131169796,-0.11541098356246948,-0.30438801646232605,-0.22011592984199524,0.22219881415367126,-0.31168991327285767,-0.2945699989795685,0.07477817684412003,-0.3865409195423126
10,-0.05652536451816559,-0.03974415361881256,-0.33914539217948914,0.07488110661506653,0.2450537234544754,-0.5002466440200806,0.016663143411278725,-0.23322589695453644,-0.2459288388490677,-0.1033480167388916,-0.4651966691017151,0.29057419300079346,-0.2995397746562958,-0.6309643983840942,0.07385464757680893,0.02647489309310913,-0.5304667949676514,-0.3824992775917053,-0.1475163698196411,-0.05060134083032608,-0.17754235863685608,-0.18661169707775116,0.11108710616827011,0.05296197161078453,-0.26629310846328735,-0.23624803125858307,-0.24303939938545227,-0.31379270553588867,0.26674455404281616,0.34968048334121704,0.3981652855873108,0.011854558251798153,0.014679382555186749,-0.18344110250473022,0.30433663725852966,0.07716108113527298,-0.09233324974775314,0.11738087236881256,0.14796879887580872,0.07540388405323029,-0.18980249762535095,-0.2670231759548187,-0.13875934481620789,0.07070605456829071,-0.9076213836669922,-0.04063178971409798,0.11194661259651184,-0.10413021594285965,-0.14450475573539734,-0.15691997110843658,-0.046960752457380295,-0.3416368067264557,-0.04717963561415672,-0.04141579568386078,-0.36978021264076233,-0.36719563603401184,-0.4351074993610382,-0.005674172192811966,-0.2882693409919739,-0.36063337326049805,0.026092195883393288,-3.758116508834064e-05,-0.2134806364774704,0.1105879694223404,-0.5951395630836487,-0.11449004709720612,-0.24269887804985046,-0.05414452776312828,0.27964162826538086,-0.3549788296222687,-0.3029251992702484,-0.0756717100739479,0.14579439163208008,-0.15426471829414368,-0.7331319451332092,0.03055710904300213,-0.5678098797798157,-0.33467015624046326,-0.14895473420619965,-0.23801948130130768,0.13552626967430115,0.02128557115793228,-0.8119505643844604,0.3475087285041809,0.05838542431592941,-0.3289671540260315,0.020666394382715225,-0.5295525193214417,-0.2940742075443268,-0.37251681089401245,0.034812599420547485,-0.21471452713012695,-0.19612866640090942,0.03632974624633789,0.1352654993534088,-0.32972481846809387,0.10156328231096268,-0.2480333000421524,-0.08011596649885178,-0.24720202386379242,0.20531851053237915,-0.1898564100265503,0.07260510325431824,-0.05470534786581993,-0.25440195202827454,-0.3705494999885559,-0.0015725928824394941,-0.16509605944156647,0.2681753635406494,-0.051849089562892914,-0.37842071056365967,0.2673153281211853,0.33742302656173706,-0.04412934556603432,0.29247185587882996,-0.38752153515815735,-0.03240427002310753,-0.06280844658613205,-0.11633045971393585,-1.4993460178375244,0.19334188103675842,-0.4582296311855316,-0.2683161497116089,-0.12737451493740082,0.07501374185085297,-0.27394774556159973,-0.027040474116802216,-1.0645339488983154
11,-0.36931976675987244,-0.43397581577301025,0.3209250867366791,-0.9578379988670349,0.11763182282447815,-0.7483095526695251,-0.18409255146980286,0.13795115053653717,-0.10670805722475052,-0.743597686290741,-0.4059886634349823,-0.6112279295921326,0.12599892914295197,-0.20736165344715118,-0.846100926399231,-0.7745223641395569,-0.542313814163208,-0.384776771068573,-0.007432352285832167,-0.1251509189605713,-0.16498053073883057,-0.3191612660884857,-0.9000284671783447,-0.4513294994831085,0.012028372846543789,1.363559365272522,-0.5663542151451111,0.04711325839161873,-0.4951746463775635,-0.793571412563324,-1.1027498245239258,0.04898994788527489,-0.34846562147140503,-0.0891977995634079,0.17112639546394348,-0.38377803564071655,0.009646515361964703,0.37662896513938904,-0.11016631126403809,-0.13610711693763733,0.16058103740215302,0.11292310059070587,-0.7583551406860352,0.08576572686433792,-0.031062442809343338,-0.32785481214523315,-0.4802965521812439,-0.9868417382240295,0.0004022047796752304,-0.30557578802108765,0.15298619866371155,-0.5240707993507385,-0.035302262753248215,-0.5115926265716553,0.03958893194794655,-0.27503275871276855,-0.34193283319473267,-0.8624588251113892,-0.7648265957832336,0.18251243233680725,-0.117428258061409,-0.2240719050168991,0.35525307059288025,-0.5737091898918152,0.1871769279241562,-0.21536093950271606,-0.5260569453239441,-0.44287073612213135,-0.2713102102279663,-0.5951617956161499,-0.44253236055374146,-0.9431101083755493,-0.021236572414636612,-0.704092264175415,0.1775459498167038,-0.8712426424026489,-0.7187203168869019,0.4194274842739105,-0.282896488904953,-0.5586378574371338,-0.6600329279899597,-0.09745810180902481,-0.1633705198764801,-0.13513457775115967,-0.05707872286438942,0.2779363989830017,-0.5326501131057739,-0.6432300806045532,0.1580422818660736,-0.27483391761779785,0.016007574275135994,-0.9834194183349609,-0.5655121803283691,-0.9231924414634705,-0.04453177750110626,-1.0682274103164673,-0.03455715253949165,0.2031361162662506,-0.12103790044784546,-0.14558833837509155,-0.19660291075706482,0.625257670879364,0.07145543396472931,-0.06020395830273628,0.19128374755382538,0.18824738264083862,0.12430828809738159,0.14292284846305847,-0.898665189743042,0.27044478058815,0.4365002512931824,-0.9687260985374451,-0.12244178354740143,0.05461779609322548,-0.1717672199010849,0.09814241528511047,-0.09058872610330582,0.15437878668308258,-0.8232350945472717,-1.0459452867507935,-0.0030600596219301224,0.5744540095329285,0.02959652990102768,0.3247291147708893,-0.106943778693676,0.3872857987880707,0.04895227029919624,-0.769615113735199
12,-0.10954655706882477,-0.14608041942119598,0.039875105023384094,-0.44874101877212524,-0.11344384402036667,-0.9287039041519165,-0.33691170811653137,-0.004813751671463251,0.0225678738206625,-0.23230396211147308,-0.4558696150779724,-0.5165886282920837,0.022360386326909065,-0.27965444326400757,-0.2545197606086731,-0.218353733420372,-0.12670446932315826,-0.2836267352104187,-0.2384815514087677,0.003775036195293069,-0.2103951871395111,-0.27465301752090454,-0.380785197019577,-0.4191790223121643,0.060141172260046005,0.09446454793214798,-0.22485439479351044,0.06715155392885208,-0.6149179339408875,-0.08544988930225372,-0.47651633620262146,0.059211477637290955,-0.033421050757169724,-0.0119025195017457,-0.49701163172721863,-0.07751477509737015,-0.18299497663974762,-0.06035909056663513,-0.1813368797302246,-0.4125205874443054,-0.11260522902011871,-0.21984486281871796,-0.25642991065979004,-0.05299072712659836,0.008806540630757809,-0.3856797218322754,-0.24109742045402527,-0.38682931661605835,-0.10728184878826141,-0.024436891078948975,-0.038645919412374496,-0.4461172819137573,0.15038113296031952,-0.047650281339883804,-0.5420448184013367,-0.13341577351093292,-0.2928933799266815,-0.30748191475868225,-0.09428174793720245,0.2117401659488678,-0.2357243001461029,0.0009458918357267976,-0.8465132117271423,-0.24442030489444733,-0.4458659291267395,0.05994943529367447,-0.10343281924724579,-0.03413862735033035,-0.24728144705295563,-0.3816079795360565,-0.3100753128528595,-0.32836174964904785,0.03781239315867424,-0.1671791821718216,0.11424866318702698,-0.31842902302742004,-0.44512978196144104,0.1796552538871765,-0.173417329788208,0.010738853365182877,-0.26869210600852966,0.22543171048164368,-0.09024453908205032,-1.2274705171585083,0.1542220264673233,-0.35921230912208557,-0.09834582358598709,-0.8028671741485596,-0.17196737229824066,-0.41603735089302063,-0.21720807254314423,-0.4552270472049713,-0.1631864458322525,-0.457003653049469,0.0413014218211174,-0.30945277214050293,0.12310387194156647,0.23194193840026855,0.174064502120018,0.3108433783054352,-0.020191622897982597,0.34118184447288513,-0.1467786431312561,-0.02327677607536316,-0.24840235710144043,-0.28067532181739807,0.009994718246161938,0.008279629051685333,-0.1226041316986084,-0.5243462324142456,-0.2248368263244629,-0.6987696290016174,-0.44456544518470764,-0.17953737080097198,0.06930714100599289,0.009050319902598858,-0.354564368724823,-0.22175233066082,-0.32590073347091675,0.5280101299285889,-0.13064604997634888,-0.6039473414421082,-0.1355007141828537,0.09081646054983139,-0.23229126632213593,-0.1598561853170395,0.21885715425014496,-8.74638935783878e-05
13,-0.1706337034702301,-0.2620927095413208,-0.25108855962753296,0.4189959168434143,0.4827202260494232,-0.17112384736537933,-0.47849392890930176,-0.33945152163505554,0.03625622019171715,0.10215529799461365,0.4137468636035919,-0.35055026412010193,0.2951027452945709,0.11971674114465714,0.059611447155475616,-1.087661623954773,-0.29085463285446167,-0.24211139976978302,-0.17678231000900269,0.18473215401172638,-0.38900357484817505,0.1927887201309204,0.22009716928005219,0.15623697638511658,0.012831722386181355,0.3501306474208832,0.03832899034023285,-0.22423139214515686,0.11476901173591614,-0.3640410602092743,0.5739551186561584,-0.20767918229103088,0.23359926044940948,-0.1868990659713745,0.18363428115844727,0.241720050573349,-1.0664831399917603,-0.0902518481016159,0.5411934852600098,-0.19337749481201172,-0.5623482465744019,-0.0058919466100633144,0.5103030204772949,-0.41066381335258484,-0.5948134064674377,0.08200725167989731,-0.233937069773674,0.22990407049655914,-0.16137322783470154,-0.2915618121623993,-0.0867699384689331,-0.16555170714855194,-0.04901789501309395,0.008513848297297955,-0.16105709969997406,0.0695631206035614,-0.5323200225830078,0.5131680965423584,-0.0635799765586853,0.49912169575691223,-0.047393813729286194,0.013270992785692215,-0.6533336639404297,0.21500487625598907,0.08557886630296707,0.11842834949493408,0.4761134386062622,-0.013691402971744537,-0.1033509150147438,-0.11751648038625717,-0.05852380022406578,0.2573506236076355,0.28506460785865784,0.4338434040546417,-0.23661541938781738,0.4082995057106018,-0.12959499657154083,-0.09436213225126266,-0.17747019231319427,-0.1256006956100464,-0.17495572566986084,-0.00015415222151204944,-0.5619786381721497,-0.42951372265815735,0.23973526060581207,-0.09599137306213379,0.14122776687145233,-0.719214141368866,0.2953002452850342,0.0578656904399395,-0.0171275082975626,0.2980942130088806,0.5452948212623596,0.3009325861930847,-0.07822704315185547,0.210779070854187,0.23665322363376617,-0.09730082750320435,0.14609600603580475,-0.09532987326383591,-0.32820072770118713,0.02373671345412731,-0.23385325074195862,0.060730379074811935,0.12472297251224518,-0.22921063005924225,0.1882287710905075,0.054848842322826385,0.8288190960884094,-0.8855476379394531,-0.5292999744415283,0.464388370513916,-0.3796623647212982,0.2825745940208435,-0.28042492270469666,0.585913360118866,-0.3877749741077423,0.029731985181570053,0.14580577611923218,-1.4950604438781738,0.018304891884326935,0.02781594544649124,0.6215295195579529,0.1374599039554596,-0.24251657724380493,-0.24310369789600372,-0.40004777908325195,-0.8859814405441284
14,-0.07944011688232422,-0.46848997473716736,-0.09693273156881332,-0.0736175999045372,-0.08992491662502289,-0.5300880670547485,-0.08127334713935852,-0.05091296136379242,0.02370525151491165,-0.5893774032592773,-0.37930139899253845,-0.7096670866012573,0.12457980215549469,0.22945861518383026,-0.13093440234661102,-0.2377115786075592,-0.31235480308532715,-0.574451744556427,-0.17675484716892242,-1.0856125354766846,-0.3504199981689453,0.04029611498117447,-0.6938993334770203,0.10972005128860474,0.03021363914012909,-0.16192573308944702,0.005761012434959412,0.28424307703971863,0.3753975033760071,-0.011001565493643284,0.5360586643218994,-0.7466127872467041,-0.20296388864517212,-0.050599534064531326,-0.13948622345924377,-0.005180383566766977,-0.4904850721359253,0.18849322199821472,-0.042915891855955124,-0.5010133981704712,0.3270283341407776,0.07118067145347595,0.41602984070777893,-0.26674050092697144,-1.18074631690979,-0.48501378297805786,0.043015412986278534,-0.3084011375904083,-0.038844045251607895,-0.39645808935165405,-0.08770193159580231,0.021441524848341942,0.11408785730600357,-0.17236162722110748,0.023455996066331863,0.3045986294746399,0.2381528615951538,-0.49766045808792114,-0.08239157497882843,0.29676419496536255,-0.016143064945936203,-0.5284169316291809,0.06856397539377213,-0.24603241682052612,-0.1595345288515091,-0.05372069031000137,-0.630067765712738,-0.12713508307933807,-0.46726006269454956,-0.24112527072429657,-0.46723639965057373,-0.6938379406929016,-0.4299924373626709,-0.11808493733406067,-0.12834002077579498,-0.2759065330028534,-0.5319004654884338,0.1384938806295395,-0.19440563023090363,-0.13801690936088562,-0.09501691162586212,-0.5702680349349976,0.06205511465668678,-0.633240818977356,-0.0898144394159317,-0.3691317141056061,-0.060110874474048615,0.5305808782577515,-0.22172190248966217,-0.45961683988571167,-0.5279386043548584,-0.5260327458381653,-0.6124247312545776,-0.5468869209289551,-0.07475755363702774,-0.7262013554573059,-0.01801392063498497,-0.29787054657936096,0.030685294419527054,0.47882404923439026,-0.2545930743217468,-0.4010668694972992,-0.7327646613121033,0.03604628145694733,0.5554636120796204,0.12548847496509552,-0.21143418550491333,0.14305315911769867,-0.1214732825756073,-0.4043808579444885,-0.16969886422157288,-0.3856774568557739,-0.37387269735336304,-0.3964572846889496,-0.050344474613666534,0.3148634135723114,-0.19529695808887482,-0.35362714529037476,-0.577867329120636,0.3480200171470642,-0.11316630244255066,0.06736957281827927,0.5820667743682861,0.03239298239350319,-0.034411586821079254,-0.13812552392482758,0.2980138957500458,-0.05814746022224426
15,-0.07029520720243454,-0.14325620234012604,-0.3258454501628876,-0.34482887387275696,-0.14125989377498627,0.6942659616470337,-0.37110742926597595,-0.2364921271800995,-0.06729763746261597,-0.31946855783462524,-0.24182076752185822,0.06380853801965714,0.28934627771377563,-0.07691650837659836,-0.4077138304710388,-0.5890033841133118,-0.3956054449081421,-0.27126452326774597,-0.3776581287384033,-0.1604689359664917,-0.09644624590873718,-0.21020719408988953,-0.1930856704711914,-0.14179296791553497,-0.042525261640548706,-0.24622072279453278,0.033169057220220566,-0.1773255169391632,0.2677776515483856,-0.6601014137268066,-0.7201483249664307,0.0736941546201706,-0.025721129029989243,0.07650479674339294,-0.08333326876163483,-0.1386083960533142,-0.42673441767692566,-0.05038834363222122,-0.41299566626548767,0.24907205998897552,0.15712368488311768,-0.05229296162724495,0.16624750196933746,0.049556657671928406,-0.09162649512290955,0.11289478838443756,-0.36961957812309265,-0.56916743516922,-0.022800279781222343,-0.2839527130126953,-0.15512233972549438,-0.13118594884872437,0.11881759017705917,-0.16946521401405334,-0.24560204148292542,0.12096297740936279,-0.28973475098609924,-0.16059467196464539,-0.42678341269493103,-0.17638693749904633,-0.26170918345451355,-0.19253988564014435,-0.4881354570388794,0.06658509373664856,-0.4081854522228241,-0.05168692767620087,-0.24918031692504883,-0.14468039572238922,0.19670411944389343,-0.432293564081192,-0.11626613885164261,-0.3404746949672699,-0.007181920576840639,-0.13123297691345215,-0.4254915714263916,-0.646339476108551,-0.49962949752807617,-0.0984332263469696,-0.08934703469276428,-0.40091753005981445,-0.08858371526002884,-0.18920890986919403,-0.8816565871238708,0.09203609824180603,0.03114231303334236,-0.26111748814582825,-0.5443305373191833,-0.46426382660865784,-0.15720108151435852,-0.36710652709007263,-0.041979409754276276,-0.22868096828460693,-0.17575417459011078,-0.3654986321926117,-0.2790156602859497,-0.46538084745407104,-0.014356476254761219,0.23696111142635345,0.06492698937654495,-0.17998990416526794,0.1886439174413681,-0.37580907344818115,0.06376963108778,0.021053992211818695,0.32081860303878784,-0.1780436784029007,-0.4832807183265686,-0.1574733555316925,-0.4281402826309204,-0.9482323527336121,-0.28356316685676575,-0.465943843126297,-0.6129207015037537,-0.004985008388757706,0.14080975949764252,-0.08105085790157318,-0.3859752118587494,-0.54771488904953,-0.7193790674209595,-0.3121449947357178,0.20760075747966766,-0.30536675453186035,0.21055831015110016,0.2380729615688324,-0.29865434765815735,-0.8538140058517456,-0.0224628709256649,-0.2905421257019043
16,-0.1365300714969635,-0.05559276416897774,-0.2291409820318222,-0.49581336975097656,0.35910728573799133,0.37681421637535095,-0.0660409927368164,-0.1265333741903305,0.041437987238168716,-0.5597027540206909,-0.29645270109176636,-0.39095136523246765,-0.2784275412559509,-0.46368399262428284,-0.2545393407344818,-0.4367886781692505,-0.5178883075714111,-0.3927590548992157,0.389053076505661,-0.39064088463783264,-0.019228670746088028,0.20734204351902008,-0.48203182220458984,0.21468903124332428,0.22608451545238495,-0.5269267559051514,-0.2930775582790375,0.4240928590297699,-0.2184520959854126,-0.48491066694259644,0.1761036515235901,-0.27160561084747314,-0.2599128484725952,-0.3844492733478546,-0.1669241189956665,0.12886546552181244,-0.2588108479976654,0.09149234741926193,-0.5989326238632202,0.13929936289787292,-0.5846642851829529,0.35798758268356323,0.614841103553772,-0.09042353183031082,-0.785795271396637,-0.38092905282974243,0.1672232449054718,-0.2036694586277008,0.03607501834630966,-0.20188501477241516,0.19576887786388397,-0.0035109426826238632,0.14062005281448364,-0.18221011757850647,-0.039702076464891434,0.8256765007972717,0.018664134666323662,-0.219383105635643,-0.13516312837600708,0.1454765945672989,-0.02794063463807106,-0.3019236624240875,-0.3031426668167114,-0.14699102938175201,-0.7870808243751526,0.09012597054243088,-0.7523143887519836,-0.3822329342365265,-0.16391856968402863,-0.19568324089050293,-0.4289515018463135,-0.32331326603889465,-0.34965890645980835,-0.1872485727071762,-0.3902231454849243,-0.5264618992805481,-0.023964405059814453,0.07680203020572662,0.1251939982175827,-0.7249062657356262,-0.44291043281555176,-0.9597923755645752,0.5199768543243408,0.46439382433891296,0.5068472027778625,-1.223686695098877,-0.2407032698392868,0.3566073775291443,-0.1394447386264801,-0.5414624810218811,-0.14637257158756256,-0.4090043604373932,-0.4746941924095154,-0.3544694483280182,-0.1123948022723198,-0.5758229494094849,-0.1522546112537384,-0.5876603126525879,0.1481340527534485,0.22029967606067657,-0.1657833456993103,-0.1916435807943344,-0.318158358335495,-0.023739788681268692,0.4081561863422394,-0.12611916661262512,-0.2540069818496704,-0.04114711657166481,-0.5500343441963196,-0.22086907923221588,-0.0766725167632103,0.49201005697250366,0.11788970232009888,-0.5726196765899658,0.13800185918807983,0.4148642122745514,0.1343909054994583,0.20780105888843536,-0.1520761400461197,0.08361155539751053,0.3683622181415558,-1.087739109992981,0.6193177700042725,-0.7880691885948181,-0.2724526822566986,-0.1614578366279602,0.3331677317619324,0.23630794882774353
17,-0.32382506132125854,-0.40424981713294983,-0.309588223695755,-0.5336689949035645,-0.136618509888649,-0.11811207979917526,-0.4072944223880768,-0.39113497734069824,0.16845326125621796,-0.2601299285888672,0.05217881128191948,-0.12449987977743149,0.013170554302632809,-0.41823017597198486,-0.5480165481567383,-0.3694303631782532,-0.5219355821609497,-0.243257075548172,-0.7408199906349182,-0.21576154232025146,-0.17502707242965698,-0.24669216573238373,-0.191868856549263,0.2624775171279907,0.18556895852088928,-0.029928918927907944,-0.19954748451709747,-0.6553685665130615,-0.01085733249783516,-0.5536461472511292,-0.4327443540096283,0.07207255810499191,0.05054699629545212,0.10108207166194916,-0.026437418535351753,0.10766163468360901,-0.31410714983940125,-0.23984543979167938,-0.3109092712402344,-0.030304009094834328,-0.052463289350271225,0.15385663509368896,0.10259568691253662,-0.24002794921398163,-0.27608954906463623,-0.10309738665819168,-0.2541961371898651,-0.5798437595367432,0.03144983947277069,-0.2533211410045624,0.15438677370548248,-0.42001873254776,-0.10574407875537872,-0.4144786298274994,-0.27822381258010864,0.14309319853782654,-0.6754437685012817,0.03824646770954132,-0.5381521582603455,-0.028377698734402657,0.13747021555900574,-0.20722785592079163,-0.720312237739563,0.04954075440764427,-0.0578833669424057,0.1530800461769104,-0.597979724407196,0.024884022772312164,-0.13333943486213684,-0.3031153082847595,-0.02044946327805519,-0.34770286083221436,0.03284263238310814,-0.10140348970890045,-0.17776940762996674,-0.5388060212135315,0.19312946498394012,0.05604422837495804,0.005594177171587944,-0.2228228598833084,-0.5384938716888428,-0.08215375244617462,-0.6066504716873169,0.05199524015188217,0.2818848788738251,-0.3207627832889557,-0.6195104718208313,-0.639028012752533,-0.05031152442097664,-0.2975926399230957,-0.22594739496707916,-0.3111090064048767,-0.21125344932079315,-0.08941313624382019,0.008134092204272747,-0.4425758719444275,-0.11573774367570877,-0.02708258107304573,-0.025050120428204536,-0.5179005265235901,-0.3078870475292206,-0.04975469410419464,-0.08247397094964981,-0.05965856462717056,0.9769944548606873,-0.3030613362789154,-0.3191348910331726,-0.0993063822388649,-0.35206177830696106,-1.025124192237854,-0.5606539249420166,-0.37631934881210327,-0.9937815070152283,-0.1718709021806717,-0.23838411271572113,-0.3163304030895233,-0.5935308337211609,-0.3300517201423645,-0.46857455372810364,-0.5542598366737366,0.23574751615524292,0.14544406533241272,-0.1619543582201004,0.2032674252986908,-0.33677971363067627,-0.8143993020057678,-0.26034262776374817,-0.1011442020535469
18,-0.29732200503349304,0.15646876394748688,-0.08522997051477432,-0.09072685241699219,-0.14260722696781158,0.39844420552253723,-0.09718646109104156,0.4046899676322937,-0.04063279181718826,0.053151942789554596,-0.23312066495418549,-0.5372499227523804,0.5980685353279114,-0.24780410528182983,-0.11601457744836807,-0.2880621552467346,-0.13997885584831238,-0.5382612943649292,-0.04404290392994881,0.0412699319422245,-0.018396945670247078,-0.3606683909893036,-0.3499811291694641,-0.3076598048210144,-0.07751818001270294,1.0471848249435425,-0.3324362635612488,-0.3352423906326294,-0.6705510020256042,-0.7129079103469849,0.22482456266880035,-0.5320498943328857,-0.21543407440185547,-0.35536089539527893,0.26896125078201294,-0.5406528115272522,0.06307106465101242,0.09116644412279129,-0.04204373434185982,-0.6370764374732971,-0.08979003876447678,-0.43032971024513245,-0.24832555651664734,-0.19775575399398804,0.3934186100959778,-0.22510063648223877,1.0137385129928589,-0.04313898831605911,0.12142889946699142,-0.4154724180698395,0.2700463831424713,-0.3495578467845917,0.1548539102077484,-0.567084014415741,-0.2831169664859772,-0.5323676466941833,-0.1504306048154831,-0.39266514778137207,0.04617340490221977,-0.021395521238446236,-0.15680351853370667,-0.28537240624427795,1.1650384664535522,-0.25063356757164,-0.027738982811570168,0.17958469688892365,-0.19675664603710175,-0.5544244647026062,-0.36887305974960327,0.07197851687669754,-1.285887598991394,-0.11434302479028702,-0.02042430080473423,-0.3154352307319641,-0.1630968451499939,-0.3752289414405823,-0.0801980122923851,0.049295973032712936,0.09190317988395691,-0.0056937215849757195,-0.22783951461315155,-1.339523434638977,-0.12748126685619354,1.258211612701416,-0.050521038472652435,-0.2772305905818939,0.2563816010951996,1.0528539419174194,-0.4553062915802002,-0.13099972903728485,-0.5920870900154114,-0.20815852284431458,-0.18377920985221863,-0.28297653794288635,0.00942226592451334,-0.1778179407119751,-0.2530239522457123,-0.19594542682170868,-0.07608748227357864,-0.2816659212112427,0.08436556905508041,0.526756227016449,-0.5768956542015076,-0.1550580859184265,-0.8517393469810486,-0.04559381306171417,0.06036348268389702,-0.4752993881702423,-0.06413447856903076,0.4901718199253082,0.19851413369178772,0.03920301795005798,0.9347575902938843,-0.19467522203922272,0.004205532371997833,-0.4217521846294403,0.2740084230899811,0.1720391809940338,-0.2177814543247223,-0.32422763109207153,-0.14695340394973755,0.0860183909535408,-0.913798451423645,-0.33270585536956787,0.019157852977514267,0.6211530566215515,0.31440266966819763,-0.08173000067472458
19,-0.18662071228027344,-0.09521260857582092,-0.5164663195610046,0.0015457774279639125,0.037257228046655655,-0.6577093005180359,-0.4701291024684906,-0.05975472182035446,0.13554565608501434,-0.22596250474452972,-0.22249628603458405,-0.5384758114814758,-0.9031497836112976,-0.30820074677467346,-0.21812960505485535,-0.3096238076686859,1.178585410118103,-0.4615819454193115,-0.37738844752311707,-0.18511778116226196,-0.4878784120082855,-0.14840710163116455,-0.16005346179008484,-0.06919204443693161,-0.26721659302711487,-0.14338022470474243,-0.23543980717658997,-0.43722838163375854,-0.42384952306747437,-0.1097552701830864,-0.17656613886356354,-0.4657505452632904,-0.2994975447654724,-0.3577500283718109,-0.35870182514190674,-0.2600208818912506,-0.6924598217010498,-0.2093432992696762,-0.3311752378940582,-0.22843284904956818,-0.7335070371627808,-0.0005864890990778804,-0.1940244436264038,0.1548173874616623,-0.17389269173145294,-0.05551651120185852,-1.03456711769104,-0.24725821614265442,0.03572871908545494,-0.17781244218349457,0.1021764799952507,-0.6110448837280273,-0.3586714267730713,-0.22775031626224518,0.7528471350669861,-0.4478694796562195,-0.049775175750255585,-0.06372825801372528,-0.1775284856557846,-0.13906410336494446,0.23153458535671234,-0.20806066691875458,-0.712981641292572,-0.26585808396339417,0.8473641872406006,-0.05071808025240898,-0.5135477781295776,-0.28557777404785156,0.13107426464557648,-0.187821626663208,0.40090715885162354,-0.34116342663764954,-0.4618297517299652,-0.16288639605045319,-0.4810234606266022,0.031191300600767136,0.06332828104496002,-0.14426401257514954,0.12287082523107529,0.09447388350963593,-0.1767200231552124,0.41511744260787964,-0.8572929501533508,-1.1532357931137085,-0.15629889070987701,0.43551671504974365,-0.5472386479377747,0.12205776572227478,-0.06651686131954193,-0.12592512369155884,-0.14526018500328064,-0.32995766401290894,-0.0519893616437912,-0.28004369139671326,0.0008404229884035885,-0.3413403332233429,-0.27082931995391846,0.19726699590682983,-0.08849114179611206,0.004497809801250696,-0.17609542608261108,-0.5576069355010986,-0.298709511756897,-0.1007126197218895,-0.4724818468093872,0.05843597650527954,-0.1805608570575714,-0.31147295236587524,-0.49325960874557495,-0.7886024713516235,-0.6223465800285339,-0.21151435375213623,-0.38341784477233887,0.523105263710022,0.087338387966156,-0.20304767787456512,-0.12891916930675507,-0.3346429765224457,-0.3265061378479004,0.09737656265497208,-0.2436671406030655,0.959983229637146,-0.13763205707073212,0.5599517822265625,-0.4397566318511963,-0.5180509090423584,-0.034311071038246155,-0.14869876205921173
20,-0.17639906704425812,-0.0649675577878952,-0.28801846504211426,-0.8180015087127686,0.05679219588637352,0.27145668864250183,-0.6159332990646362,-0.3084598779678345,0.0036568529903888702,0.32483819127082825,-0.3133012056350708,0.22557583451271057,0.14191558957099915,-0.48535141348838806,-0.12917020916938782,-0.32295483350753784,-0.5478140711784363,0.23521053791046143,-0.2903449535369873,-0.3744000196456909,0.21695293486118317,-0.0151138911023736,0.0286323931068182,0.13877449929714203,-0.026935363188385963,-0.14722886681556702,-0.020053094252943993,-0.12418152391910553,-0.4756035804748535,-1.2872213125228882,-0.6098305583000183,0.44452589750289917,-0.20937009155750275,-0.18348747491836548,0.07407747209072113,-0.26706695556640625,-0.027837879955768585,-0.4631096124649048,-0.447578102350235,0.30619266629219055,-0.23355089128017426,-0.05829200893640518,-0.39155521988868713,0.09127447009086609,0.5111606121063232,0.2244478464126587,-0.20127877593040466,-0.010237624868750572,-0.05521217733621597,0.36187174916267395,-0.11776284873485565,-0.5011229515075684,0.01413092203438282,-0.2645793855190277,-0.0733678787946701,-0.055517181754112244,-0.29764699935913086,-0.12263604998588562,0.24015729129314423,-0.6807476878166199,-0.0580594502389431,0.33048149943351746,-0.2990969121456146,-0.20554591715335846,-0.5103755593299866,-0.14249160885810852,-0.5344799160957336,-0.28858551383018494,0.10378387570381165,-0.13640817999839783,0.029487233608961105,0.05733628571033478,-0.22992238402366638,-0.23059602081775665,-0.6322638392448425,-0.6164441704750061,0.573756754398346,-0.03603934124112129,0.1945151537656784,-0.2937507629394531,-0.43098747730255127,0.3400401771068573,-0.6269162893295288,0.08855418115854263,0.096479132771492,-0.4266234338283539,-0.8546745777130127,-0.36541664600372314,-0.22790616750717163,-0.23428498208522797,0.3040659725666046,-0.017863787710666656,0.07215350866317749,-0.056704796850681305,0.034748826175928116,0.07528175413608551,0.13582482933998108,0.33830466866493225,-0.048734936863183975,0.01274828240275383,-0.06220276653766632,-0.4683864414691925,-0.025399142876267433,0.019068166613578796,-0.1933482438325882,-0.6495782732963562,-0.6641055941581726,-0.42540115118026733,-0.00753391208127141,-0.390091210603714,-0.6753981709480286,-0.4925558865070343,-0.3910670280456543,0.06056077033281326,0.012638251297175884,-0.3267305791378021,-0.10947220027446747,-0.2932916581630707,0.1294570416212082,1.0742934942245483,0.16726060211658478,-0.26341405510902405,-0.33228909969329834,-0.7399707436561584,-0.32944902777671814,-0.9468245506286621,-0.04460931941866875,0.5617196559906006
21,-0.052267882972955704,-0.38158929347991943,-0.44640806317329407,-0.5534355044364929,-0.04663296043872833,0.05949115753173828,-0.04586615413427353,-0.5718693733215332,-0.15631482005119324,0.41626840829849243,0.29367339611053467,-0.006810251157730818,-0.16431190073490143,-0.006061558146029711,-0.15994061529636383,-0.7320905923843384,-0.9911150336265564,0.35680583119392395,-0.27701276540756226,-0.39075878262519836,-0.065085768699646,-0.0747169628739357,0.2155631184577942,-0.37336012721061707,-0.06597775965929031,-0.028448691591620445,0.1126907542347908,-0.6296753883361816,-0.22964319586753845,-0.010818117298185825,0.07845760136842728,0.19751769304275513,-0.4380519390106201,-0.3445506691932678,-0.057933662086725235,-0.4504000246524811,-0.585526168346405,0.058437131345272064,0.21777154505252838,-0.18350400030612946,-0.10306039452552795,-0.01366823073476553,-0.5565343499183655,-0.443962424993515,0.5305884480476379,0.12168435007333755,-0.14007622003555298,0.11451537907123566,-0.009344123303890228,0.21318596601486206,-0.048441082239151,-0.33985811471939087,-0.06358151137828827,-0.4014267921447754,-0.8663767576217651,-0.42005255818367004,-0.5655784606933594,-0.5939173698425293,-0.4133630692958832,0.07668817788362503,-0.10354326665401459,0.674313485622406,0.11212202161550522,-0.7832845449447632,-0.3602244555950165,-0.07364024221897125,-0.5376831889152527,-0.483891099691391,0.13361281156539917,-0.12959107756614685,0.23156902194023132,0.09640055149793625,-0.5301348567008972,-0.5220215916633606,0.6074889898300171,-0.5875512957572937,0.12092959880828857,0.14032678306102753,-0.12079553306102753,-0.36460229754447937,-0.32752615213394165,-0.0036158605944365263,-0.7604418992996216,0.22389593720436096,0.2600025534629822,-0.03873670846223831,-0.4700486361980438,-0.6767552495002747,0.2184053361415863,0.055878058075904846,0.4503825604915619,0.05299090966582298,0.075718954205513,0.08839234709739685,-0.21283383667469025,0.21030783653259277,-0.2951039671897888,0.44111621379852295,-0.1807660311460495,-0.779206395149231,-0.05194399505853653,-0.26740002632141113,-0.0376538410782814,-0.187671959400177,0.7619020938873291,-0.13566051423549652,-0.1265580654144287,0.3115319609642029,0.33498790860176086,-0.14599567651748657,-0.8172159194946289,0.23322929441928864,-0.7295246720314026,0.18306413292884827,-0.24817173182964325,-0.5512306690216064,-0.22782906889915466,0.22453725337982178,0.15221261978149414,-0.04816794767975807,-0.13655075430870056,-0.5779547691345215,-0.5239238142967224,0.026878586038947105,-0.08924734592437744,-0.4335968494415283,-0.35246741771698,-0.09064023196697235
22,-0.27567535638809204,-0.2185380905866623,0.0708908960223198,-0.3369697630405426,0.3184044361114502,0.38516107201576233,-0.05808531120419502,-0.1368822604417801,0.02983195148408413,0.3430216908454895,-0.34143415093421936,0.7913865447044373,-0.4624389111995697,-0.1710260808467865,-0.44275638461112976,-0.36191096901893616,-0.27125126123428345,0.2468564659357071,-0.15431515872478485,-0.010395108722150326,0.4164285659790039,-0.312263160943985,0.2917405068874359,-0.1671552211046219,-0.07206064462661743,-0.25864923000335693,-0.2344781756401062,-0.04915991798043251,0.6532918214797974,-0.118383027613163,-0.11929198354482651,0.3596670627593994,0.03486654534935951,-0.11850602924823761,-0.21023261547088623,0.09291960299015045,-0.6039307117462158,-0.09274304658174515,-0.23611819744110107,0.6708737015724182,-0.42641809582710266,0.09867868572473526,-0.04442286863923073,0.0335545614361763,-0.014716393314301968,0.5646631717681885,-0.7164738178253174,0.04932381957769394,-0.15644730627536774,0.21675510704517365,0.016696518287062645,-0.18430736660957336,0.023067902773618698,-0.14004778861999512,-0.09001971781253815,-0.41886717081069946,0.049458540976047516,0.04812624678015709,-1.217677354812622,-0.1367533802986145,-0.21967995166778564,0.1708279699087143,-0.5015710592269897,-0.265205055475235,-0.19059383869171143,-0.1938631534576416,-0.07988443225622177,-0.1822471171617508,0.6043081879615784,-0.5268417596817017,0.35422173142433167,0.10646120458841324,0.10931098461151123,-0.15258294343948364,-1.113324522972107,-0.11389514058828354,-0.06650323420763016,-0.05191836133599281,0.007237267214804888,-0.295856237411499,-0.1175798624753952,0.5031716823577881,-0.1932787299156189,-0.6491532921791077,0.4727246165275574,-0.5309328436851501,-0.29336339235305786,-0.8561646342277527,-0.6270582675933838,-0.09397706389427185,0.49788811802864075,-0.01879323087632656,0.05517212674021721,0.09862013161182404,-0.036209382116794586,-0.07045988738536835,-0.04724004864692688,-0.07595662027597427,-0.1131589263677597,-0.3141728937625885,-0.15188340842723846,-0.20820073783397675,0.661781907081604,-0.14638710021972656,-0.7456526756286621,-0.42907020449638367,-0.04715058207511902,-0.42536747455596924,0.27540457248687744,0.0084361732006073,-0.1526184231042862,0.7882331609725952,-0.20363737642765045,0.056507788598537445,0.029036613181233406,-0.08380673080682755,-0.027766389772295952,-0.0550953634083271,-0.04366607591509819,-0.5403335094451904,0.002718099392950535,-0.35121992230415344,-0.44816020131111145,-0.5193217396736145,-0.04634598642587662,0.09199792891740799,-0.06107824668288231,-0.35553157329559326
23,0.1883559376001358,0.0802711769938469,-0.20018045604228973,-0.5717634558677673,0.05696943774819374,0.7426000237464905,-0.041756853461265564,-0.20246244966983795,0.09974118322134018,-0.014440206810832024,0.4031301438808441,0.765677273273468,-0.0017443983815610409,-0.07340019941329956,-0.2583244740962982,0.4420293867588043,-0.12063752859830856,-0.16069652140140533,-0.22271175682544708,0.33497825264930725,0.09344935417175293,-0.2841782569885254,-0.2959625720977783,-0.34499040246009827,0.013327554799616337,-0.7485983371734619,0.1729142963886261,-0.14712737500667572,-0.3571762144565582,-0.35842621326446533,-0.12434355169534683,-0.07101714611053467,-0.6685072183609009,-0.4768909513950348,0.09536789357662201,-0.5435784459114075,0.3500436246395111,-0.26545193791389465,-0.1771315336227417,-0.043339814990758896,-0.030792169272899628,0.22258709371089935,-0.8864733576774597,-0.026503577828407288,-0.16852688789367676,-0.2199990451335907,0.8936569690704346,-0.3089352250099182,-0.18714343011379242,0.29000288248062134,-0.029209908097982407,0.4456925690174103,0.020412182435393333,-0.158902108669281,-0.2346595972776413,-0.40774908661842346,0.34930533170700073,-0.5412919521331787,0.02653152123093605,0.003798301098868251,-0.09169883280992508,0.4662677049636841,-0.2422913908958435,-0.44306740164756775,-0.4390797019004822,-0.20828214287757874,-0.26187753677368164,-0.19415724277496338,0.21573209762573242,0.07631279528141022,0.4039302468299866,-0.13375325500965118,-0.27581799030303955,-0.5087961554527283,0.16702167689800262,-0.2753496766090393,-0.06986314058303833,-0.2947123646736145,-0.04899159446358681,0.037115585058927536,0.1860884428024292,0.05798977240920067,0.12124665826559067,0.38968440890312195,-0.11072125285863876,-0.6220329999923706,-0.2047538459300995,1.2423537969589233,-0.17706836760044098,-0.00909038633108139,0.08445770293474197,-0.2773889899253845,-0.3218262791633606,-0.3525480031967163,-0.22572726011276245,-0.15758763253688812,-0.16559651494026184,-0.5624664425849915,-0.1379598081111908,-0.26273414492607117,0.10055664926767349,-0.23778149485588074,-0.5180494785308838,-0.15952666103839874,-0.4531903564929962,-0.19848087430000305,0.04850330948829651,-0.10372192412614822,0.10580138117074966,-0.15729272365570068,-0.0486411526799202,0.5896610617637634,0.28015467524528503,-0.4327355623245239,0.03911302983760834,-0.7916930913925171,-0.08977716416120529,0.23823268711566925,-0.3143453001976013,-0.5327028632164001,-0.3777645528316498,-0.8736449480056763,-1.0514249801635742,-1.1637060642242432,-0.05044747143983841,-0.0633208304643631,-0.04907486215233803,-0.07300039380788803
24,0.513563334941864,-0.18780024349689484,-0.7439765334129333,-0.6781678795814514,0.13816829025745392,-0.7104171514511108,-1.634384036064148,-0.7326230406761169,-0.08792869746685028,-0.15605294704437256,0.25216007232666016,-0.1311456561088562,2.040785551071167,0.003462167689576745,-0.8408685922622681,-0.5611620545387268,-0.06862489134073257,-0.1332750767469406,-0.7986984848976135,-0.0016921685310080647,-0.07689932733774185,0.3080872595310211,-0.06818556040525436,0.012836012057960033,0.04866170510649681,-0.12307380884885788,0.18714138865470886,0.40412667393684387,-0.23640891909599304,-1.142693042755127,-0.10381940752267838,-0.08154615014791489,0.1295706033706665,0.00985779333859682,0.7237704396247864,-0.1258554458618164,-1.8951444625854492,-1.1367937326431274,0.3168010413646698,-0.13699938356876373,-1.4088667631149292,-0.021811895072460175,0.18698951601982117,-0.14876997470855713,-0.2198769748210907,0.004249451216310263,0.08332791924476624,-0.18360747396945953,0.059390224516391754,0.2264867126941681,-0.12515804171562195,-0.40892598032951355,-0.021565208211541176,-1.0361995697021484,0.2419191151857376,0.542888343334198,-0.6458600759506226,0.0565386526286602,-0.609855592250824,0.511958122253418,-0.2686736583709717,-0.04141409322619438,-1.811524510383606,-0.21251557767391205,0.16786342859268188,-0.1280561089515686,-0.31542885303497314,0.055427636951208115,0.21672338247299194,0.06039156764745712,0.12693074345588684,-0.0784335806965828,-0.025837182998657227,0.2619157135486603,-0.7994316220283508,-0.46085694432258606,0.3235293924808502,-0.04852263629436493,0.05672142282128334,0.04303646832704544,-0.018356962129473686,0.1830606907606125,-1.688700795173645,0.4396180212497711,-0.23053979873657227,0.49945494532585144,-0.4823545813560486,0.9206682443618774,0.30336621403694153,-0.17162281274795532,-0.03106023371219635,-0.19716690480709076,-0.1822267472743988,-0.35276851058006287,-0.06632217764854431,-0.013570252805948257,-0.31409844756126404,0.5304731726646423,-0.10988344252109528,0.0027331688906997442,-0.03662606328725815,0.24573180079460144,0.33816519379615784,-0.019300026819109917,0.3643745183944702,-0.04034385085105896,0.18161414563655853,0.08980467915534973,-0.14405712485313416,-0.5858098864555359,-1.2238622903823853,0.04877585172653198,-1.777795433998108,0.46650394797325134,0.017233971506357193,0.11459755897521973,-1.0585923194885254,-0.7478657364845276,-0.026517555117607117,-0.6086282730102539,-0.05169708654284477,0.2517772316932678,0.30983883142471313,0.6028646230697632,-0.015575964003801346,-0.5769764184951782,-0.21331100165843964,0.06635794043540955
25,-0.43193140625953674,-0.24245893955230713,-0.516471803188324,-0.22706031799316406,0.06444334983825684,0.3349861204624176,-0.46869957447052,-0.1594689041376114,0.03669995814561844,-0.6138129830360413,-0.764201283454895,-0.23384340107440948,-0.45283186435699463,0.25517040491104126,-0.24544385075569153,0.35097092390060425,0.20309992134571075,-0.07875997573137283,-0.2610556185245514,-0.8800156116485596,-0.33632394671440125,-0.27759894728660583,-0.2580539286136627,-0.3267776370048523,-0.09961114823818207,-0.41822704672813416,-0.7312697172164917,0.33340397477149963,0.5525568723678589,0.026048095896840096,0.6988840103149414,-0.018673429265618324,-0.09080308675765991,-0.1263638734817505,-0.07896682620048523,0.21547207236289978,-0.008488737046718597,-0.5514187812805176,0.21989880502223969,0.09403342753648758,-0.14322735369205475,-0.2561340630054474,0.3231492340564728,-0.2601775825023651,-0.20763729512691498,-0.2608473300933838,0.24962985515594482,-0.5857665538787842,0.028606977313756943,-0.17760604619979858,-0.1743786633014679,0.1435135155916214,-0.16394779086112976,0.19880902767181396,0.05594741180539131,-0.17987798154354095,0.09503819048404694,-0.17551302909851074,-0.072086863219738,-0.3210606575012207,-0.046024300158023834,-0.5375130772590637,0.49479472637176514,-0.36340653896331787,-0.05996014550328255,0.00923490896821022,-0.6726598143577576,-0.015723660588264465,-0.04596182331442833,-0.3244643807411194,-0.17114895582199097,-0.5531842112541199,-0.29841336607933044,-0.032123859971761703,-0.8760881423950195,-0.26098230481147766,-0.8103495240211487,-0.004309058655053377,0.08242128044366837,-0.1884623020887375,-0.2520080804824829,-0.46661117672920227,1.077877402305603,-0.892504870891571,0.07676151394844055,-0.2920166552066803,-0.07273969799280167,0.7776361703872681,-0.677672803401947,-0.6966443657875061,0.02197972685098648,-0.6007000803947449,-0.23321153223514557,-0.3816440999507904,0.1897369772195816,-0.725820004940033,0.07902753353118896,-0.13004279136657715,-0.1897677332162857,0.3081152141094208,0.0009140658075921237,0.1206236332654953,-0.10849042981863022,0.014529971405863762,-0.12003713846206665,-0.2311989814043045,-0.3498229682445526,0.0007856430602259934,-0.07318189740180969,-0.5383991599082947,-0.16463147103786469,-0.988515317440033,-0.3672131597995758,-0.01603841222822666,0.15102745592594147,0.5824100375175476,-0.27752771973609924,-0.1915002018213272,-0.6003034710884094,0.3019881546497345,0.28096428513526917,0.2027587890625,0.49070069193840027,0.29436132311820984,-0.1064385399222374,0.004704594146460295,0.11072694510221481,-0.2886742055416107
26,-0.29700401425361633,-0.13282018899917603,0.05302853137254715,-0.1716882288455963,-0.04118698835372925,-0.18881678581237793,0.12205342948436737,-0.21281811594963074,-0.08835212141275406,0.05706770718097687,-0.10835225135087967,0.1774173378944397,-0.4751233160495758,-0.21841105818748474,0.1694009155035019,0.06926807016134262,0.01075848750770092,0.15379580855369568,-0.10500176250934601,-0.3509224057197571,0.18477492034435272,-0.1551833301782608,-0.2878519296646118,-0.06264349818229675,0.0480041466653347,-0.07387331873178482,-0.32755911350250244,-0.26600131392478943,-0.07311204075813293,-0.10084853321313858,0.22920317947864532,0.1975058764219284,-0.10804128646850586,-0.002375782700255513,-0.8389472365379333,-0.1400056928396225,-0.23104824125766754,0.11339219659566879,0.47606977820396423,0.011184274218976498,0.054894328117370605,0.10146483778953552,-0.05496736243367195,-0.29249465465545654,0.17108744382858276,-0.06992896646261215,-0.5072624683380127,-0.07024229317903519,-0.05835346505045891,-0.09400112926959991,0.10560602694749832,-0.24121052026748657,0.0784376934170723,-0.2620542049407959,-0.38452598452568054,-0.05968352407217026,-0.39195820689201355,-0.2443622648715973,0.30317577719688416,0.20387111604213715,0.146239772439003,-0.08143983036279678,-0.05854414030909538,0.021241823211312294,-0.3877919912338257,0.03595416620373726,-0.10100197792053223,-0.06878310441970825,0.14868025481700897,-0.48981234431266785,0.19277416169643402,-0.09125738590955734,-0.058441996574401855,-0.2493029534816742,-0.4579409956932068,0.02825186587870121,-0.07704503834247589,0.06044815853238106,-0.00021659432968590409,-0.2700211703777313,-0.3508205711841583,0.22053274512290955,-0.64458167552948,-0.6433155536651611,-0.07077062875032425,-0.4828283488750458,0.046581823378801346,-0.2742946445941925,-0.2072739601135254,-0.0038653919473290443,0.13579532504081726,-0.18875093758106232,-0.028384217992424965,-0.24378497898578644,-0.08679303526878357,-0.2901493310928345,-0.2916993796825409,0.32380297780036926,0.031024644151329994,-0.029583504423499107,0.28429320454597473,-0.031903959810733795,-0.0010562047827988863,-0.14134660363197327,0.7077085971832275,-0.13948947191238403,-0.3015463352203369,0.020423315465450287,0.12755191326141357,-0.2675821781158447,-0.12575876712799072,0.2398858666419983,-0.1281038373708725,0.06100715696811676,0.08893965184688568,-0.055752918124198914,-0.18557536602020264,0.14456619322299957,-0.19860883057117462,0.0214194655418396,-0.05095575004816055,-0.4881431758403778,-0.20808285474777222,0.08615406602621078,-0.23859155178070068,-0.3127880394458771,-0.08168799430131912,-0.1491718739271164
27,-0.02175314538180828,-0.060629915446043015,0.1869199126958847,0.26092639565467834,-0.1299608051776886,-0.8856290578842163,0.1326865255832672,0.09895087033510208,-0.034879617393016815,-0.704232931137085,0.20297883450984955,-0.016957774758338928,-0.4012233316898346,0.2988986074924469,-0.08773982524871826,-0.0842006653547287,-0.01234273612499237,-0.35770153999328613,-0.27847737073898315,0.1758304238319397,-0.5320634841918945,-0.3704051077365875,-0.4330011308193207,-0.09611157327890396,-0.06145256385207176,-0.09954098612070084,0.3245267868041992,-0.12989892065525055,-0.47007986903190613,-0.5394216179847717,0.10212294012308121,-0.3107931613922119,-0.17315751314163208,-0.3212466239929199,-0.03043118678033352,-0.20937518775463104,-0.4424179494380951,0.20627084374427795,0.14739255607128143,-0.31188082695007324,0.16295604407787323,-0.06851112842559814,0.009907972998917103,-0.24046477675437927,-0.49591442942619324,-0.6427635550498962,-0.2344685047864914,-0.36866214871406555,0.17700375616550446,-0.3436627984046936,-0.024096157401800156,0.0021784952841699123,0.15783095359802246,-0.2861829400062561,0.7217674851417542,-0.21397215127944946,-0.1328510046005249,0.29290446639060974,0.2143182009458542,0.31158098578453064,0.3019302785396576,-0.9405781626701355,-0.24930056929588318,-0.19995251297950745,0.5523110032081604,0.1024705097079277,0.4663819670677185,-0.32079654932022095,-0.49599313735961914,-0.290262371301651,0.0676368847489357,-0.36141547560691833,-0.23554274439811707,-0.2272222936153412,0.3620663285255432,0.19524216651916504,-0.3353593051433563,0.2568210959434509,0.27110403776168823,0.12396842986345291,-0.031212512403726578,-0.5044541954994202,-0.599747359752655,-1.190832257270813,-0.12796805799007416,0.37914618849754333,0.2741232216358185,-0.6064006686210632,0.3133094906806946,0.14263324439525604,-0.27763813734054565,-0.26653555035591125,-0.2558901906013489,-0.44274473190307617,-0.23819419741630554,-0.4679601192474365,-0.4550343155860901,-0.2059805989265442,0.09105610847473145,-0.2748948931694031,0.055030401796102524,0.1776866763830185,-0.30767542123794556,0.018862027674913406,0.21778930723667145,0.24047766625881195,-0.03393372893333435,0.2378215342760086,-0.37023860216140747,-0.09375733137130737,-0.008360235951840878,-0.035488732159137726,-0.6870368123054504,0.004385486710816622,-0.08982879668474197,0.15186052024364471,-0.13152991235256195,0.027318740263581276,-0.5696735978126526,0.481356680393219,0.15216723084449768,0.5715951919555664,0.11782197654247284,0.4094191789627075,0.2741236388683319,-0.18278929591178894,-0.07210240513086319,-0.434373140335083
28,-0.019677884876728058,-0.023642854765057564,-0.425605446100235,0.15582354366779327,-0.004175860434770584,-0.9735860228538513,-0.13021239638328552,-0.500484049320221,0.071223683655262,-0.24289153516292572,0.173505038022995,-0.7232888340950012,-0.001427775714546442,-0.8339424729347229,0.12926186621189117,-0.6848883032798767,-0.6883394718170166,-0.3814510405063629,-0.5711433291435242,0.22964124381542206,-0.44699859619140625,-0.09516451507806778,-0.25518450140953064,-0.26864734292030334,0.18989017605781555,0.05387505888938904,0.09555230289697647,-0.10820621252059937,0.14915485680103302,-0.6397820711135864,0.10376264899969101,-0.5223743915557861,-0.5987046360969543,-0.2944943308830261,-0.4899244010448456,-0.4983559250831604,-0.7730274796485901,0.31060779094696045,-0.8899708986282349,-0.3586844205856323,0.09845635294914246,-0.5920556783676147,-0.6167420744895935,0.09952755272388458,-0.7725659012794495,-0.30564355850219727,-0.021840853616595268,0.04957760497927666,-0.06450214982032776,-0.2149668037891388,-0.029204759746789932,0.041038863360881805,-0.055387772619724274,-0.6430752873420715,-1.4104708433151245,-0.06590938568115234,-0.3277953267097473,-0.6367183923721313,0.46277546882629395,0.10332778096199036,0.20583131909370422,-0.28355923295021057,-0.8014762997627258,-0.44255584478378296,-0.37541890144348145,0.0953761637210846,0.25687816739082336,-0.3141900300979614,-0.32668694853782654,-0.30071020126342773,-0.2370656281709671,0.12190733850002289,-0.11971981078386307,-0.4883550703525543,0.8243086338043213,-0.08624693751335144,-0.6496938467025757,-0.06765418499708176,0.16311874985694885,0.19608455896377563,-0.14211782813072205,-0.40358981490135193,-0.5764167308807373,-0.3861498236656189,0.29125192761421204,-0.4261086881160736,0.6927446722984314,-0.2717994749546051,-0.06561446189880371,0.15113110840320587,-0.36685287952423096,-0.23745614290237427,-0.3257206082344055,-0.07901623845100403,-0.10180147737264633,-0.19431763887405396,0.13377584517002106,-0.006168317049741745,0.11998779326677322,-0.5235080122947693,-0.1386307179927826,-0.05167075991630554,-0.4477810561656952,0.07157591730356216,0.732896625995636,-0.16735538840293884,-0.2586538791656494,0.04624491557478905,0.10798639059066772,-0.6795992255210876,-0.6494187116622925,-0.06102719530463219,-0.9879084825515747,-0.5068455934524536,0.0036294348537921906,-0.6690317392349243,-0.5232521891593933,-0.29636964201927185,-0.08248849213123322,-0.5177695751190186,0.11763608455657959,-0.4923471212387085,-0.27663394808769226,0.015668051317334175,-0.7068982124328613,-0.5674100518226624,-0.3662790358066559,-0.4156643748283386
29,-0.8977717757225037,-0.3780078589916229,0.09799379855394363,-0.6167274713516235,0.15489548444747925,-0.9012207984924316,-0.29524698853492737,-0.4880530536174774,-0.2386040836572647,-0.49723464250564575,-0.027788743376731873,-0.19525456428527832,0.1677750051021576,-0.6068384647369385,-0.8379281163215637,-0.39966103434562683,-0.5389424562454224,-0.08916091918945312,-0.23568902909755707,-0.21746021509170532,0.10599794238805771,-0.16816113889217377,-0.2854105830192566,-0.2900887727737427,0.0007202660199254751,-0.4567359983921051,-0.546693742275238,0.17716871201992035,-0.1589844673871994,0.4746628701686859,0.4972324073314667,0.17712172865867615,-0.46764713525772095,-0.2606956362724304,-0.6178720593452454,-0.6160415410995483,0.3525887131690979,0.6468411684036255,-0.5685718655586243,-0.08360324054956436,0.3987182676792145,-0.09356120973825455,-0.5843563675880432,-0.03441765531897545,0.14022782444953918,-0.22641350328922272,-0.3200230896472931,-0.9266037344932556,-9.002137812785804e-05,-0.03418027609586716,-0.03168517351150513,-0.2949453294277191,-0.015534180216491222,-0.7328031063079834,0.022289322689175606,0.013622479513287544,-0.49831274151802063,-0.46770572662353516,-0.5798782706260681,-1.188826084136963,0.07110035419464111,0.05857235938310623,1.3475568294525146,-0.2862023711204529,0.07918520271778107,-0.009020104072988033,-0.4109380543231964,-0.19513973593711853,0.36007577180862427,-0.23797959089279175,0.06669871509075165,-0.5932592749595642,-0.31532540917396545,-0.25029969215393066,0.48605668544769287,-0.8068952560424805,-0.40578266978263855,0.027136685326695442,-0.05036786198616028,-0.5457289218902588,-0.6239314675331116,-0.017074104398489,-0.06997408717870712,-0.09053031355142593,-0.4231472909450531,-0.11419224739074707,-0.47155675292015076,0.5682700872421265,-0.30514562129974365,-0.10532864183187485,0.1615460366010666,-0.5896549820899963,-0.5592932105064392,-0.6441303491592407,-0.18030549585819244,-0.7704682350158691,-0.008904838003218174,0.5725195407867432,-0.10790562629699707,-0.7586493492126465,-0.08781293779611588,-0.26493868231773376,-0.1757209300994873,-0.08573772013187408,0.016212526708841324,0.12005726248025894,-0.553032636642456,-0.5137889981269836,-0.6599353551864624,0.45943617820739746,0.07839864492416382,-0.45090702176094055,-0.09264685213565826,0.2675461769104004,0.1647479236125946,-0.19134198129177094,0.15957573056221008,-0.19992874562740326,-0.6959733963012695,0.189580038189888,-0.2938613295555115,0.332427054643631,-0.29653432965278625,0.5169792175292969,-0.4254739582538605,-0.33475810289382935,0.47598981857299805,-0.01939859241247177
30,-0.20346195995807648,0.2799586057662964,-0.18633431196212769,-0.4059932231903076,-0.03867173567414284,-0.11277256906032562,0.12108517438173294,-0.34846165776252747,-0.0637844130396843,-0.6539888381958008,-0.18750672042369843,-0.527426540851593,0.3007891774177551,0.19455593824386597,-0.1779211461544037,-0.04066912457346916,-0.10308186709880829,-0.5447890162467957,-0.25849440693855286,-0.09662894904613495,-0.45773401856422424,-0.1866714060306549,-0.5444484949111938,-0.43974682688713074,0.059341199696063995,1.0785390138626099,-0.010292940773069859,-0.4612787365913391,-0.551876962184906,0.6970455646514893,-0.3976607620716095,-0.5238159894943237,-0.4124167263507843,-0.2229384481906891,-0.19725090265274048,-0.5749509334564209,0.24424996972084045,0.6296069622039795,-0.054320454597473145,-0.7733380794525146,0.4351506233215332,-0.3975546061992645,-0.8316114544868469,0.09792580455541611,-0.04893765598535538,-0.3676038682460785,0.410805344581604,-0.5142701268196106,-0.23228341341018677,-0.4229145348072052,-0.19536451995372772,0.3643254339694977,0.04613686352968216,-0.33739781379699707,0.29254916310310364,-0.2847136855125427,0.6314556002616882,-0.6180976033210754,-0.14081236720085144,-0.052713535726070404,-0.2211797684431076,-0.5665661692619324,-0.1403316855430603,-0.15819549560546875,0.1747628152370453,-0.13691119849681854,-0.209174245595932,-0.3071110248565674,-0.4302564263343811,0.16936436295509338,-0.5849006175994873,-0.44559699296951294,-0.053290676325559616,-0.4097341299057007,0.5285713076591492,-0.18820762634277344,-0.39989086985588074,0.20573478937149048,-0.27086585760116577,0.05134079232811928,0.10083194077014923,-0.7826297879219055,-0.6021661162376404,0.5196459889411926,0.01899033971130848,0.12516315281391144,0.1366201788187027,0.2863301932811737,0.07475002855062485,-0.29845914244651794,-0.3512798547744751,-0.6661794185638428,-0.5627666115760803,-0.6445972919464111,-0.012773274444043636,-0.8681612014770508,-0.045683007687330246,-0.06878993660211563,-0.04281356558203697,-0.5076292157173157,-0.08872132748365402,0.4847021698951721,-0.7576892971992493,0.11477886885404587,0.20075656473636627,0.2196154147386551,0.04581017792224884,0.2498873472213745,-0.22103577852249146,-0.14170077443122864,0.2359907180070877,-0.7602461576461792,-0.22580288350582123,-0.36570653319358826,0.02808678150177002,-0.4483349025249481,-0.21181738376617432,-0.3977328836917877,-0.5827509164810181,-0.5228232741355896,-0.08870572596788406,0.22211283445358276,-0.6621291637420654,-0.04718983918428421,0.12281446158885956,-0.1849457174539566,0.04895709082484245,-0.38106194138526917
31,-0.7293395400047302,-0.38820376992225647,0.04912896454334259,-0.2108214795589447,0.06552194058895111,-0.09675627946853638,-0.03468509018421173,-0.11303038150072098,-0.009203574620187283,-0.08557012677192688,-0.42213353514671326,0.367098331451416,-0.35623085498809814,-0.4382723569869995,-0.5125910043716431,-0.04524252563714981,-0.44202303886413574,0.052744947373867035,0.042896024882793427,-0.3344368636608124,0.002480732277035713,-0.29430288076400757,-0.115401990711689,-0.1417965590953827,0.07489217817783356,0.15946701169013977,-0.5567458868026733,-0.47865283489227295,0.08791888505220413,-0.26289206743240356,-0.6901386976242065,0.4221302568912506,0.0025047287344932556,-0.02982841432094574,-0.3091540038585663,0.15069080889225006,-0.19609573483467102,-0.11339401453733444,0.11995475739240646,0.2789505422115326,-0.0023678981233388186,-0.11525111645460129,-0.020461320877075195,-0.022208794951438904,0.743272602558136,-0.10943343490362167,-0.6017646193504333,-0.5563614964485168,-0.1102311909198761,-0.0008500334806740284,0.11468184739351273,-0.4595038592815399,-0.052977170795202255,-0.4770078659057617,-0.24891987442970276,-0.30735278129577637,-0.21719539165496826,0.18626920878887177,-0.18648351728916168,-0.3981499671936035,-0.08528294414281845,0.07539866119623184,0.7459275126457214,-0.039002735167741776,-0.30037739872932434,0.05248187482357025,0.01786002703011036,0.10124565660953522,0.41565513610839844,-0.592610776424408,-0.11645017564296722,-0.23381192982196808,0.16733770072460175,0.20843292772769928,-0.559783399105072,0.16368332505226135,0.0107820900157094,0.05760132893919945,-0.22496630251407623,-0.5562692880630493,-0.43311065435409546,0.11687851697206497,0.03514466434717178,-0.5335880517959595,0.17783348262310028,-0.6248574256896973,-0.44925087690353394,-0.6328856348991394,-0.5367960333824158,-0.49565717577934265,0.3898163139820099,-0.2911585867404938,-0.08316747099161148,-0.34488245844841003,0.05323954299092293,-0.27662941813468933,-0.06833922117948532,0.23933856189250946,-0.04338042065501213,-0.13719956576824188,0.06286649405956268,-0.37441563606262207,0.025570180267095566,-0.2210347205400467,-0.4791433811187744,-0.3494724631309509,0.2619873583316803,-0.5214506387710571,0.005748473573476076,0.32873964309692383,-0.0631740391254425,-0.5735099911689758,0.42100414633750916,-0.11837701499462128,0.3185565173625946,-0.35638585686683655,0.16236642003059387,0.07525652647018433,-0.28780701756477356,-0.31318116188049316,0.12416333705186844,-0.5587255358695984,-0.36181938648223877,0.10250379890203476,-0.3231930136680603,-0.0030327567365020514,0.3429105877876282,-0.08998934924602509
32,0.062302153557538986,0.20043861865997314,0.007498390506953001,0.09901327639818192,-0.30210646986961365,0.5487193465232849,-0.13128957152366638,-0.20667634904384613,-0.013341064564883709,-0.4713129997253418,-0.175215482711792,-0.578680694103241,0.258046418428421,0.1129567101597786,-0.06106876954436302,0.12633198499679565,0.2777177691459656,-0.7567968368530273,-0.24451974034309387,-0.08920992910861969,-0.5852046608924866,-0.4855804443359375,-0.35995882749557495,-0.32413092255592346,-0.06955425441265106,-0.7147665023803711,0.022740129381418228,-0.14421014487743378,-0.07621993124485016,0.05754929780960083,-0.19622795283794403,-0.9076627492904663,-0.5299844741821289,-0.3197117745876312,-0.16264480352401733,-0.6998195648193359,0.2887763977050781,0.5696377754211426,0.15117096900939941,-0.9734282493591309,0.15068040788173676,-0.48295265436172485,-0.4198535680770874,-0.26547491550445557,-0.9232267737388611,-0.5638861656188965,0.13849584758281708,-0.3805061876773834,0.10668887943029404,-0.6536099910736084,-0.09853535890579224,0.12932327389717102,0.09507047384977341,-0.35420042276382446,-0.37324345111846924,-0.18143083155155182,-0.02389610931277275,-0.3055145740509033,0.7778673768043518,0.0633063092827797,0.2682702839374542,-0.7001123428344727,-0.42631399631500244,-0.22726033627986908,-0.14150525629520416,-0.0354323573410511,0.4409010112285614,-0.11822964251041412,-0.31996950507164,-0.2121565192937851,0.4388730823993683,-0.21919533610343933,-0.07215741276741028,-0.46859169006347656,0.6951166391372681,0.09286593645811081,-0.32086408138275146,0.05187879502773285,-0.3111884593963623,-0.1819712370634079,-0.017070550471544266,-0.4117787778377533,-0.12015280872583389,1.4289666414260864,-0.289742648601532,-0.4647592306137085,0.8867733478546143,1.0011955499649048,0.28817176818847656,0.18440385162830353,-0.5420266389846802,-0.09788589924573898,-0.10809610038995743,-0.19674907624721527,-0.23282943665981293,-0.15820914506912231,-0.12338658422231674,-0.2965671718120575,0.02926584891974926,-0.48330458998680115,-0.3169434368610382,-0.4635907709598541,-0.46768224239349365,-0.09532184898853302,0.6057920455932617,0.05236034467816353,0.14241638779640198,0.33547142148017883,0.13589221239089966,-0.22980311512947083,0.20249907672405243,-0.6037782430648804,0.1685076802968979,-0.6482784152030945,-0.18914590775966644,-0.29979372024536133,-0.28468242287635803,-0.26335716247558594,-0.5246052742004395,-0.7803249359130859,-0.045611899346113205,-0.6063369512557983,0.28390249609947205,-0.5697756409645081,-0.06127764657139778,-0.04241732507944107,-0.4306645095348358,-0.5927443504333496
33,-0.6657459735870361,-0.5031574964523315,-0.13897155225276947,-0.46554526686668396,0.0014410510193556547,-0.7781123518943787,-0.46572232246398926,-0.18798677623271942,-0.2884230315685272,-0.4864949882030487,-0.3863827586174011,-0.43459418416023254,-0.18195471167564392,-0.08912228047847748,-0.3202659785747528,0.16049771010875702,0.045848507434129715,-0.22813177108764648,-0.4035414755344391,-0.14473144710063934,-0.320927232503891,-0.45573046803474426,-0.3148728311061859,-0.513986349105835,0.14880560338497162,-0.2343961000442505,-0.4695471525192261,0.3826576769351959,-0.061699602752923965,-0.171390563249588,-0.34889498353004456,-0.0026787088718265295,-0.13359510898590088,-0.15084178745746613,-0.3355814218521118,-0.05461658909916878,-0.09083082526922226,0.0269484780728817,0.2942187190055847,0.03596839681267738,-0.01648584008216858,-0.21559657156467438,-0.28466713428497314,-0.19198812544345856,0.14226925373077393,-0.20832768082618713,-0.13538134098052979,-0.5413981676101685,-0.17094583809375763,-0.18583184480667114,-0.10399506241083145,-0.2895800769329071,0.049872659146785736,-0.30487456917762756,0.06934494525194168,-0.3922877311706543,-0.0865141972899437,-0.30888134241104126,-0.22069315612316132,-0.12809301912784576,-0.14599886536598206,-0.23544402420520782,0.5355187654495239,-0.12674589455127716,-0.05966981500387192,-0.11626530438661575,-0.4752883017063141,-0.33235183358192444,-0.48065802454948425,-0.2986829876899719,-0.24630007147789001,-0.3729439675807953,-0.12395726889371872,-0.5576547980308533,0.2709122896194458,-0.6001352071762085,-0.1079336479306221,0.27988916635513306,-0.10293266177177429,-0.45353129506111145,-0.2794562876224518,-0.30091607570648193,0.5020251274108887,-1.0149493217468262,-0.08120762556791306,-0.3479713499546051,-0.5601691603660583,-0.8747268915176392,-0.3068140745162964,-0.10570576786994934,-0.3191007673740387,-0.4721236824989319,-0.12204519659280777,-0.31675538420677185,-0.18703430891036987,-0.3706122934818268,-0.026117520406842232,-0.1602136343717575,-0.025987273082137108,0.15120933949947357,-0.05365617573261261,0.15303616225719452,-0.31905311346054077,-0.052420035004615784,-0.3717484176158905,-0.035974740982055664,0.18999972939491272,-0.3811981678009033,-0.1458612084388733,0.09599336981773376,0.09904475510120392,-1.0491943359375,-0.35272952914237976,0.02884570322930813,-0.004995443858206272,0.32735398411750793,-0.3273621201515198,-0.3087071180343628,-0.6133210062980652,-0.5013517737388611,-0.14953632652759552,0.17582423985004425,0.3194476068019867,0.3800462782382965,0.08863601088523865,-0.1984086036682129,0.3349829614162445,-0.39243534207344055
34,-0.04674925282597542,0.04440159723162651,-0.46916311979293823,-0.8214922547340393,0.026951445266604424,0.5024976134300232,-0.2336065024137497,-0.24764688313007355,-0.012804304249584675,0.31981462240219116,-0.17359068989753723,0.6196330785751343,-0.05289994925260544,-0.2255048304796219,-0.5151421427726746,0.15028195083141327,0.0748782753944397,-0.01746039278805256,-0.007960973307490349,-0.4317067563533783,0.3124195635318756,-0.26422804594039917,0.08982911705970764,0.04234456270933151,-0.205723837018013,-1.3382257223129272,-0.20593766868114471,-0.17251969873905182,-0.21635693311691284,-0.11606649309396744,-0.7988022565841675,0.20851491391658783,-0.06922195106744766,0.07236764580011368,-0.06867014616727829,-0.2780119776725769,0.10973603278398514,0.34501710534095764,0.09168462455272675,0.4158330261707306,-0.0927521213889122,0.020271405577659607,-0.3789113163948059,-0.15320929884910583,0.5259273648262024,0.21698054671287537,0.3647509813308716,-0.6830835938453674,-0.2493404597043991,0.04730062186717987,-0.02074252814054489,-0.029205258935689926,-0.0017127542523667216,-0.2590024769306183,-0.3536388576030731,0.04704184830188751,-0.28287702798843384,-0.18606743216514587,-0.5495132803916931,-0.06686071306467056,0.10286469757556915,0.24106256663799286,0.42905929684638977,-0.417074590921402,-0.6787062287330627,-0.12205852568149567,-0.7512392401695251,-0.03542616218328476,0.720860481262207,-0.3293069899082184,0.44261014461517334,-0.15147912502288818,-0.26048409938812256,-0.19638459384441376,-0.8113312125205994,-0.2286110371351242,-0.7712751626968384,-0.19778825342655182,-0.3161514103412628,0.17630186676979065,-0.09460765868425369,0.3930428624153137,0.013736307621002197,0.16774646937847137,-0.29921862483024597,-0.9395201802253723,-1.122421145439148,-0.5329999327659607,-0.4198891222476959,0.0076087480410933495,0.5475929379463196,-0.19736246764659882,0.01666095480322838,-0.09457087516784668,-0.022333525121212006,0.0014068158343434334,-0.15154069662094116,0.30247732996940613,0.004439909011125565,-0.27924177050590515,0.05855488404631615,-0.671081006526947,0.19361591339111328,0.03025764226913452,0.11254658550024033,-0.390611857175827,-0.2504708170890808,0.1020561009645462,-0.6580435037612915,-0.16930797696113586,-0.10385908931493759,0.4844420850276947,0.11314123123884201,0.1921023428440094,0.1410958468914032,-0.13434821367263794,-0.17093691229820251,0.18943768739700317,-0.5297989249229431,-0.2672407925128937,0.09688665717840195,-1.0512851476669312,-0.05937188118696213,-0.06063095107674599,-0.39589136838912964,-0.10522565245628357,0.04436302185058594,-0.2927999198436737
35,-0.263423353433609,-0.473838210105896,0.1343795657157898,-0.4605467915534973,0.12019678950309753,-0.3911299407482147,0.13685110211372375,-0.07131382822990417,0.059908799827098846,-0.12065386027097702,0.1406387984752655,-0.1525004655122757,-0.38162198662757874,-0.42276158928871155,-0.3196291923522949,0.05621693655848503,-0.1768944412469864,-0.005567170679569244,-0.09123912453651428,0.15864494442939758,-0.2850797176361084,0.3979816734790802,-0.5362281799316406,0.590417742729187,0.13254620134830475,-0.5869754552841187,-0.3624005913734436,0.6641576290130615,0.5369303226470947,-0.7899013161659241,0.18535710871219635,0.020622478798031807,-0.3200472891330719,-0.4900325834751129,-0.4554964303970337,0.0031160390935838223,0.0925271138548851,-0.12757650017738342,-0.5319949388504028,0.19419386982917786,0.08962459117174149,0.6267455220222473,0.6638448238372803,0.15828430652618408,-0.6226536631584167,0.06672175973653793,-0.49211201071739197,-0.5621703863143921,0.09714417904615402,-0.11665969341993332,0.044611942023038864,0.04398465156555176,0.06320185214281082,0.04084384813904762,-0.13769440352916718,0.6843829154968262,-0.02952066995203495,-0.29230841994285583,-0.4203924536705017,0.09133978188037872,0.120309017598629,-0.2064053863286972,-0.5760053396224976,-0.1936568021774292,-0.24053199589252472,0.08591147512197495,-1.2811864614486694,-0.21571609377861023,-0.2883552312850952,-0.07576652616262436,0.3167782425880432,-0.5043349862098694,-0.23623955249786377,-0.12013503164052963,0.040964264422655106,-0.6781402826309204,-0.13072606921195984,0.17150810360908508,0.11853960901498795,-0.5698332786560059,-0.21612723171710968,-0.4805779755115509,0.6640424132347107,-0.12433676421642303,0.3548066020011902,-1.1058460474014282,-0.46250101923942566,0.006547200959175825,-0.1452682465314865,-0.36873629689216614,0.33362123370170593,-0.38892582058906555,-0.5278315544128418,-0.4883675277233124,-0.0789557620882988,-0.5317001938819885,-0.23251894116401672,-0.9551919102668762,-0.009805125184357166,0.3033914864063263,-0.002762831514701247,-0.2714740037918091,0.3420816659927368,-0.006729327142238617,-0.04946635663509369,-0.1852550357580185,-0.26296791434288025,-0.02615826390683651,-0.08713442832231522,-0.07051683962345123,0.2397492676973343,0.23571713268756866,-0.45980510115623474,-0.9854695200920105,0.06744799762964249,0.556331992149353,-0.409344881772995,-0.479254812002182,-0.6866837739944458,-0.8083864450454712,-0.13739071786403656,-0.8558114767074585,0.5651646852493286,-1.1090891361236572,-0.4498177468776703,-0.2862701416015625,-0.020474249497056007,0.031514666974544525
36,0.4127250015735626,-0.052084773778915405,0.09611707925796509,-0.8255922198295593,-0.32715708017349243,-0.17222250998020172,0.14896683394908905,-0.04055717960000038,0.06771747022867203,-1.084486484527588,0.22474803030490875,-0.09376493096351624,0.571575939655304,0.17989294230937958,-0.6989362239837646,0.552110493183136,-0.04168565198779106,-0.4741947650909424,-0.35961779952049255,-0.03398787975311279,-0.06454098224639893,-0.3328668177127838,-0.8468908071517944,-0.10213306546211243,0.12515302002429962,-0.8098891377449036,0.2863752841949463,-0.23374859988689423,-0.6513487696647644,-0.020640656352043152,-0.5806267261505127,0.3227238059043884,-0.07086105644702911,-0.19918112456798553,0.26798900961875916,-0.6486477851867676,0.09060034155845642,-0.21849621832370758,0.4196578562259674,-0.44684281945228577,0.39081868529319763,-0.37080273032188416,-0.34245744347572327,0.08182498812675476,-0.3467862904071808,-1.0006102323532104,-0.09169939905405045,-1.225685715675354,-0.09368839114904404,-0.21519169211387634,0.08285702019929886,0.3999512791633606,0.10103460401296616,-0.38670432567596436,0.37754929065704346,-0.4038184583187103,0.30866095423698425,-0.27623215317726135,-0.3859774172306061,0.31982865929603577,-0.2147025763988495,-0.8407202363014221,-0.9854943752288818,-0.19451528787612915,-0.183035746216774,-0.0014186271000653505,-0.676382303237915,-0.1737033873796463,-0.14026406407356262,0.08765707910060883,0.39494046568870544,-1.0429468154907227,-0.5159223079681396,-0.31926438212394714,-0.15190356969833374,-0.18639136850833893,-0.7092967629432678,0.2158936709165573,0.29514339566230774,0.3304121196269989,0.46363145112991333,0.6029233336448669,-0.07586362212896347,0.1533437818288803,-0.1124754399061203,-0.2386719435453415,-0.7192187905311584,1.1964167356491089,0.30549079179763794,-0.5149691104888916,-0.3620075583457947,-0.7751266956329346,-0.9515385031700134,-1.0038641691207886,-0.17003990709781647,-1.16458261013031,-0.17770956456661224,-0.12959381937980652,-0.08985493332147598,-0.1711846888065338,-0.14674705266952515,-0.21536950767040253,0.1446055918931961,-0.2257644385099411,0.09402843564748764,0.24016782641410828,0.238005131483078,0.29063913226127625,-0.979341983795166,-0.36819398403167725,0.027778083458542824,-0.6397106051445007,-0.9823914766311646,-0.16124209761619568,-0.29557472467422485,-0.4894704818725586,-0.6845269799232483,-0.05113013833761215,-1.2388217449188232,-1.2528927326202393,0.14165663719177246,-0.006570482160896063,-0.33742499351501465,-0.2578735649585724,-0.04737193137407303,-0.3928408920764923,-0.5857080817222595,-0.5188497304916382
37,-0.30620744824409485,-0.43837034702301025,-0.2575373947620392,-0.14607428014278412,0.05002130940556526,-0.9094774723052979,-0.20225046575069427,-0.1883687525987625,-0.013147063553333282,-0.5399748682975769,-0.275204062461853,-0.25034934282302856,-0.17338164150714874,-0.2194545716047287,-0.4807722866535187,-0.15695473551750183,1.0260601043701172,-0.3296346664428711,-0.25971680879592896,-0.31466853618621826,-0.4918035864830017,0.11760697513818741,-0.2870408594608307,-0.0998726636171341,-0.1840628832578659,-0.2511386573314667,-0.24689029157161713,-0.0030087733175605536,-0.30553683638572693,-0.5251779556274414,-0.009934734553098679,-0.6153213381767273,-0.20337581634521484,-0.2508339583873749,0.05805669724941254,-0.3345732092857361,-0.4451334774494171,-0.20473897457122803,0.12744908034801483,-0.4212794601917267,-0.560614287853241,-0.20433756709098816,-0.05949794128537178,-0.0024505448527634144,-0.272912859916687,-0.17228475213050842,-0.41183435916900635,-0.4426041543483734,0.03939267620444298,-0.4053206741809845,0.01819777488708496,-0.39899301528930664,-0.17311102151870728,-0.15460896492004395,0.8913962244987488,-0.10613145679235458,-0.22481656074523926,0.050263818353414536,-0.5637520551681519,-0.46618974208831787,-0.20978115499019623,-0.405843585729599,0.16094377636909485,-0.21854311227798462,0.5328500866889954,0.14743176102638245,-0.35617688298225403,-0.23338402807712555,0.0669848769903183,-0.4770530164241791,-0.07752188295125961,-0.3201952874660492,-0.2937581539154053,-0.07284484058618546,-0.10154606401920319,-0.17582575976848602,-0.27094730734825134,-0.15130066871643066,0.12542875111103058,0.1316566914319992,-0.005808090791106224,0.03420541062951088,0.03988061100244522,-0.8096292018890381,-0.408791184425354,0.05161156877875328,-0.7208248972892761,1.0684146881103516,-0.23772692680358887,-0.30584263801574707,-0.28176745772361755,-0.3395310640335083,-0.15052060782909393,-0.5918800830841064,0.11627020686864853,-0.26199352741241455,-0.37317633628845215,0.331209272146225,-0.04189689829945564,-0.31386861205101013,-0.04441167041659355,-0.2455626130104065,-0.226867213845253,-0.14515820145606995,-0.11590441316366196,-0.10997925698757172,-0.14035815000534058,-0.20960208773612976,-0.572281002998352,-0.3197745978832245,-0.3311440646648407,-0.4566679894924164,-0.4166533946990967,0.581379771232605,0.09650057554244995,-0.1548321545124054,-0.372573584318161,-0.2180718034505844,-0.538567066192627,-0.4807973802089691,0.25634312629699707,0.8613402247428894,-0.3016018271446228,0.5464238524436951,-0.12979084253311157,-0.2953418791294098,0.051445577293634415,-0.55929034948349
