,0,1,2,3,4,5,6,7,8,9,10,11,12,13,14,15,16,17,18,19,20,21,22,23,24,25,26,27,28,29,30,31,32,33,34,35,36,37,38,39,40,41,42,43,44,45,46,47,48,49,50,51,52,53,54,55,56,57,58,59,60,61,62,63,64,65,66,67,68,69,70,71,72,73,74,75,76,77,78,79,80,81,82,83,84,85,86,87,88,89,90,91,92,93,94,95,96,97,98,99,100,101,102,103,104,105,106,107,108,109,110,111,112,113,114,115,116,117,118,119,120,121,122,123,124,125,126,127
0,0.37573463,0.03196714,-0.10910645,0.035219494,-0.2548805,-0.15980677,0.1400896,0.1336316,-0.15601002,-0.11425929,-0.14251527,-0.11882357,-0.112989895,-0.0023715976,0.084631056,-0.05661373,-0.079473995,-0.1640921,-0.33948597,0.035189386,-0.028005743,0.1478971,-0.076208405,0.13906929,-0.33542415,0.061745085,0.20851462,0.28830165,-0.07468596,-0.39258927,0.50599366,0.15894616,0.027291907,-0.028201751,0.0033742161,0.17542909,-0.009913862,-0.11711269,-0.36186114,-0.22732942,0.051065907,0.23492053,-0.4009387,0.09682389,-0.43430367,0.07070707,0.03527709,-0.21535608,-0.23367341,0.033523638,-0.090503655,-0.00096087577,0.4137089,-0.5259912,-0.08497817,-0.16189145,0.024285464,-0.24528934,-0.006365185,0.11108451,0.062988594,0.020842591,0.87671864,0.06893647,0.08042914,-0.3703853,-0.18891501,0.19969857,-0.11411627,-0.21373259,0.21750894,-0.2244035,-0.16761401,-0.14502946,-0.12335812,0.19629318,-0.28126204,0.36187196,-0.32690313,0.38272998,0.15266874,0.0028277123,0.17604044,0.026879754,0.103115804,-0.35185766,-0.09657792,0.033722494,0.1845986,0.022528995,0.10398794,0.15378438,-0.103156105,-0.4116125,0.08950679,-0.086916596,-0.19392863,-0.18346785,0.014205762,-0.52020115,0.303159,-0.099722385,-0.48625177,0.3365727,-0.0033318799,0.5059787,-0.5498051,0.10352867,-0.14693516,-0.27619803,0.0001261523,-0.14914802,-0.04963882,0.18251108,0.054769564,0.07886307,-0.33265126,0.09469798,0.08434979,0.10065554,0.079147846,0.05300627,-1.34131,0.41350588,-0.1846536,-0.09238041,0.1091758,-0.0026735116
1,-0.098008856,0.15802296,0.09993369,-0.022891426,0.1348643,0.604562,0.34538043,0.16028129,0.14710368,0.15229627,0.059526026,-0.21157181,-0.2175393,-0.05248498,0.21807125,-0.14663851,-0.080776356,-0.061271038,-0.071796805,-0.13179535,0.43849194,0.02819467,-0.05069538,-0.26696563,0.06971859,0.10623236,0.028311577,-0.1669257,-0.017269753,-0.23568256,0.018475397,-0.054682296,0.2211859,0.030607123,0.030160878,-0.18581854,0.10034535,-0.091510326,0.13117743,-0.0980111,0.2468335,-0.006551044,-0.08010449,0.11192764,-0.26274994,0.2537152,0.010305253,0.21425632,0.13130896,0.1505035,0.15040973,-0.16735038,0.08086255,-0.10482063,0.27634507,-0.022311354,0.24822757,0.29851854,0.09827095,0.009278241,-0.3693278,-0.015944822,-0.05012011,0.6277576,0.030044585,0.19483307,0.22550322,-0.6125973,0.13744554,-0.45212585,-0.29218557,-0.33894768,0.20509118,0.09363026,-0.32568705,0.29174402,0.44855168,0.0014536972,0.22785176,-0.007137965,0.083012335,-0.2393055,-0.32712534,0.124347605,-0.04346737,0.038881812,0.24078768,0.102367796,-0.038478035,-0.033646468,0.06546076,0.12649211,0.031906907,-0.38961345,0.0768355,0.03300601,0.11333491,0.0032814143,0.16989714,-0.16250034,0.02958781,0.3352318,0.15352514,-0.108338945,0.20320885,-0.24316302,0.013624162,0.14740683,0.11916643,-0.048635807,-0.05964628,-0.014219756,0.05395385,-0.7231442,0.46847785,0.055902187,-0.075966775,0.026376711,-0.01636419,0.029383874,-0.20642982,0.024253927,-0.35760006,0.033833522,-0.091564424,0.28348964,-0.18010719,0.035460483
2,-0.44267458,-0.03506593,-0.40112916,0.16945554,-0.23535898,-0.15616861,-0.113685675,-0.052511267,-0.376326,-0.087324224,0.31499892,-0.32719323,0.18359742,-0.05355658,-0.26204517,-0.1462096,-0.11777024,-0.094802,0.12586436,0.13536114,-0.12966824,0.091177,-0.13750918,0.15558122,-0.52713406,-0.36462098,-0.018635388,-0.05428832,-0.14444752,0.20452464,-0.52796197,-0.16182613,0.09021546,0.02567671,-0.07742862,0.08649491,-0.40651014,-0.046964675,0.051594973,0.00029176273,-0.100737534,-0.19925047,-0.036240343,-0.16872616,0.21881835,-0.47736862,-0.39113802,0.16961275,-0.003554381,-0.096417464,-0.22846696,0.33556825,-0.07095221,-0.1640863,-0.47066826,0.07047498,-0.06157481,-0.6468944,0.03092458,-0.21405952,0.18252511,-0.02977139,-0.21182682,-0.18398836,-0.033925798,0.27792823,-0.29295295,-0.29580718,-0.19844298,-0.11848918,-0.7300793,0.13468774,-0.08868831,-0.28930187,0.27242672,0.29515973,-0.64859766,-0.19100533,-0.30707854,-0.5917197,-0.20876469,0.18948294,0.38700226,-0.3215787,0.03869168,-0.17693089,-0.25123304,-0.29084027,0.1614912,0.24626137,-0.0047659264,-0.23966141,0.05172511,0.1526849,-0.08549234,-0.14042996,-0.2667748,-0.12034671,0.022355052,-0.19189724,-0.19960518,-0.06869102,-0.052467275,-0.40465397,-0.051681604,0.17852315,-0.04853348,0.12086642,-0.44212085,-0.12971412,-0.5574375,0.1731667,-0.11704517,-0.6500894,-0.80099463,-0.63424575,-0.19062413,0.052181114,0.12386143,-0.21421091,-0.19920021,0.16439766,0.5585742,-0.14736943,0.0007280346,0.07606137,0.37239385,-0.35985988
3,0.12342419,-0.11704065,0.05489648,-0.1582556,0.3231952,0.036020424,-0.0077650105,-0.095829174,-0.18455079,-0.06815123,-0.11920157,-0.07002168,-0.0023775164,-0.18550922,-0.018836493,-0.0813707,-0.16222382,0.2591087,-0.016892433,0.09994093,-0.03296227,0.21715131,-0.044356294,-0.18846077,-0.08939073,-0.060027264,0.29384765,-0.21467605,-0.027779045,-0.1205143,0.13063897,0.032392655,-0.25623882,-0.28338844,0.01159488,0.10663499,0.10150401,-0.026699724,-0.22184251,-0.18973944,-0.2288219,0.25294447,-0.068588726,0.17343985,-0.2191064,0.1903034,0.092667736,-0.04862057,-0.060058087,-0.24882229,0.10516961,0.13691494,0.11194786,-0.18981312,0.10147175,-0.3077123,0.56509537,0.14314045,-0.07653949,0.13438803,-0.29895073,0.030725008,0.23883244,0.15275781,-0.15173392,-0.031281136,0.049802046,-0.22773448,0.017174138,-0.031891536,0.15901715,-0.06812226,-0.2780387,-0.10761032,0.13609312,0.29730573,0.30211452,0.11435246,-0.13739103,0.20993507,0.13069174,-0.22255486,0.16784312,0.13364975,-0.17490685,-0.29203624,0.03467493,0.24138021,-0.059830777,0.020559467,0.2577827,-0.032410543,-0.031102015,-0.10260792,-0.17240737,-0.18055576,0.12930764,-0.10280169,-0.16985591,-0.03670693,-0.1703252,-0.12186885,0.18815374,-0.055825904,-0.097248584,-0.1649615,-0.09026841,0.0091455355,-0.0009631431,-0.05090899,0.05001495,0.121007584,0.22643857,-0.17674842,0.05346102,-0.060686443,-0.21395537,0.0070207864,-0.05107262,0.8842682,0.07402311,-0.100659914,-0.41725573,-0.1988415,-0.004309721,-0.19066207,-0.118420534,-0.045173395
4,-0.16499989,-0.34796527,-0.10422678,-0.013131181,-0.18400551,-0.31892776,-0.4854268,-0.03792884,-0.2900127,-0.16889921,0.403542,-0.16854116,-0.035233624,0.031846598,-0.086577676,0.09234875,-0.26754385,0.10135573,0.022231963,-0.047199763,-0.03286627,0.74857455,0.0564236,0.112411626,-0.070688576,-0.3662664,-0.06645195,-0.08275561,-0.05348728,0.1310001,0.071584165,0.1695428,-0.4854873,0.11017964,0.028535707,0.509319,-0.29826203,0.14284769,-0.3194316,-0.101427354,-0.42868784,-0.37663853,-0.24408764,-0.18785927,0.041797463,-0.22797301,-0.22809151,-0.13607576,-0.002638448,0.09824274,0.10823456,0.06372184,0.37532893,0.042937078,-0.29832065,0.51828253,0.09569089,-0.13072641,-0.15078105,-0.26260397,0.038416367,-0.16280864,-0.047717385,0.04497556,0.00846127,0.41123423,-0.34196398,0.3689134,-0.15885562,0.42045784,0.21497905,0.37968275,-0.5695425,-0.06466258,0.3508273,-0.012940977,-0.16994162,-0.0042902282,-0.10263081,-0.04017768,-0.093767755,0.1330331,0.12476481,-0.07122362,-0.045181956,0.14788328,-0.29501522,-0.09545687,0.16457677,0.6168028,-0.03466332,-0.29152223,-0.08866707,0.09433075,-0.34887287,-0.020655915,0.088642076,-0.23435815,-0.3382021,-0.107614286,-0.16828094,-0.472904,0.019524083,-0.05265763,0.09045654,0.50310963,0.03844172,0.39251363,-0.39234522,-0.01847474,-0.3943098,-0.02942582,0.109900825,0.11393006,-0.2989061,-0.22510765,-0.1289903,0.0045945547,-0.0014118131,0.24052815,-0.11079163,-0.082355365,0.49619883,-0.20424905,0.123055056,-0.57098097,0.07963784,-0.51080996
5,-0.18296592,-0.15532401,0.06695752,0.036082093,-0.011271857,-0.05024656,-0.1581961,0.006796466,-0.12101357,0.2658542,-0.44774574,-0.4470844,-0.22116502,-0.27198273,0.11053415,-0.5069906,-0.21248941,-0.46002457,0.0129673295,-0.19309622,0.1502778,0.01758279,-0.031337194,-0.60099065,-0.17246906,-0.3966111,-0.16052383,-0.24108982,-0.016052892,-0.3580423,-0.20537123,-0.39964107,-0.10097492,-0.0025733178,-0.06660131,0.0671508,-0.048338685,0.024558833,-0.4971967,0.049956243,-0.31032646,0.07851102,-0.13403179,-0.07575751,-0.05678321,0.12209038,-0.269574,-0.2946899,-0.24851821,0.018729676,-0.39504808,0.086776905,0.19624096,0.026513698,0.26522946,-0.1984944,-0.010150215,0.24458309,-0.25504944,-0.012695359,-0.22879459,-0.22877216,0.20073311,0.3991102,-0.15205054,-0.70232064,-0.29332158,-0.12642324,-0.17394374,-0.6071908,-0.092509374,-0.12790424,-0.10687873,-0.011811584,-0.669444,-0.21966009,0.30849752,0.30358097,-0.07850307,-0.09138798,-0.11852026,-0.06113654,-0.25268745,-0.035562288,-0.14764988,-0.21705648,-0.024623664,-0.11551644,0.16156791,-0.18985543,0.16410339,-0.013558704,-0.15996759,-0.16431749,-0.17696807,-0.067802794,0.11249153,-0.008319121,-0.2787662,-0.5323128,-0.08042366,-0.069179475,0.035136044,-0.077713616,0.05468933,0.2828247,0.06300452,0.07786087,-0.2340543,-0.34095684,-0.30050296,0.09338444,0.076710805,-0.556603,0.32312357,0.06810291,0.000932078,-0.113706075,-0.12946425,0.19359393,-0.05842879,0.070023306,-0.86082864,0.28819343,0.1124178,-0.24392742,0.1577249,-0.42118725
6,0.05730144,-0.0807437,0.22603792,-0.074927405,-0.13222681,0.7077188,0.23857896,-0.03638741,0.072101995,-0.13140686,-0.08210819,0.032227125,-0.15411878,0.055322498,0.17546757,-0.10078283,0.0079744,-0.05768526,-0.34288892,0.02839512,0.023639644,-0.15584877,0.07310578,-0.5500091,0.13194644,-0.055470195,-0.13678403,-0.19941607,0.047439575,-0.29420254,-0.33332276,-0.10752115,0.31587276,-0.30928105,0.079383306,-0.16907662,0.10918176,-0.13697238,0.2641131,-0.077866465,0.16964737,0.030036284,-0.13110574,0.15764719,-0.41831344,0.21012644,-0.102850504,0.24536669,-0.21874663,-0.015135021,0.15775108,-0.113090225,0.2472774,-0.021434307,-0.03401735,0.06740354,0.23082292,0.19103327,0.07928843,-0.10868722,-0.14559144,-0.03209646,0.06886137,0.12114801,-0.101125464,0.001991424,0.14907438,-0.25480643,0.20777133,-0.26152697,-0.17031603,-0.36630335,0.07981975,-0.06851762,-0.26052645,0.2676423,0.057099476,-0.17332488,0.36579782,-0.09066435,0.05816346,-0.22115953,-0.17101163,0.0509551,0.009044051,0.19650175,0.19191158,0.34846264,0.21251999,0.17833617,0.1449339,0.15656325,-0.1971163,-0.44397786,0.29738927,0.0014508034,0.11669618,0.049998436,0.19950344,0.24559198,0.2900934,0.296626,-0.15941572,0.096746534,0.17487139,-0.32703874,-0.03756284,0.04380577,0.27034712,0.009005659,0.12794976,-0.021082893,0.04903928,-0.21916753,0.27479362,-0.24566233,-0.059679177,0.06689435,0.0731311,0.13199414,-0.06396284,-0.10995534,-0.29715553,-0.01268841,-0.10362901,0.226476,0.11581051,-0.036299355
7,-0.16794758,-0.23356575,-0.33644727,-0.1607525,-0.30792195,-0.17323951,-0.031017963,-0.17196319,-0.30122116,-0.040509343,-0.20072392,0.04445153,-0.1050097,-0.2416112,-0.24848922,-0.047766574,0.050720595,-0.07705178,-0.099555805,-0.19957694,0.018182771,-0.18639712,-0.044252824,-0.09084619,-0.076871574,-0.17437099,-0.1181146,0.05594568,-0.24478798,-0.011463144,-0.0049427547,-0.018852124,-0.14909567,-0.09088387,0.13199057,-0.011936419,-0.25450048,0.095473655,-0.23185599,-0.09415492,0.09156059,-0.29495654,-0.0981175,-0.1827136,0.014981086,-0.13584828,-0.1459261,-0.002152708,-0.25066084,-0.19636497,-0.12870955,-0.021115707,-0.44640547,-0.009136867,-0.27654186,0.02167493,-0.1850894,-0.16867387,-0.10969089,-0.21134596,-0.06810508,-0.3185242,-0.34634656,-0.25817746,-0.19343966,-0.2838785,-0.24973045,0.023068706,0.053673297,-0.2526591,-0.18320084,-0.07764118,-0.18442057,-0.22197862,-0.19699131,-0.11154214,-0.25940466,-0.3355137,0.016052099,-0.35870814,-0.38132024,-0.30743808,-0.14150046,-0.089901105,-0.19469285,-0.010487061,-0.16015099,-0.1603733,-0.25931427,-0.20937583,-0.13869391,-0.09077338,-0.064608105,-0.10911593,-0.24856114,-0.037705407,-0.121730305,-0.22454876,-0.2855691,0.058389038,-0.122948214,-0.2589872,-0.08162213,-0.08339525,-0.06493603,-0.17378806,-0.23288703,-0.17045337,-0.41375548,-0.11850393,-0.153699,-0.03162997,-0.036156233,-0.079852335,-0.15720735,0.056965098,0.01802412,0.035711072,-0.14079466,0.06421632,-0.09953892,-0.19093636,-0.7288826,-0.15030901,0.0126345,-0.16563079,-0.18352474,-0.26112562
8,0.5055963,-0.36374828,-0.28449023,0.15966102,-0.114187784,-0.02805662,-0.1895802,-0.017990544,0.17703386,-0.41877183,-0.72869235,-0.31022537,-0.03283028,0.2202612,0.098903835,-0.14975964,-0.21695651,-0.29744107,-0.20240684,0.1695687,-0.10203656,0.08636718,0.15005396,-0.49112868,0.17751887,0.32220298,0.15391445,-0.727994,-0.0013113902,-0.46397287,-0.19821209,-0.014019895,-0.2816453,-0.04868069,0.28465092,-0.37113774,0.20994507,0.03152967,-0.6477043,-0.32004187,0.046933677,0.18254225,-0.07963053,0.16722797,-0.11133175,0.12161747,0.27610964,-0.112299316,-0.2952771,-0.0918803,-0.18828495,-0.9238677,-0.034723997,-0.24938048,0.028197134,-0.1582075,0.21429788,0.3625919,0.0045870366,0.21499671,-0.7356346,0.34879625,0.46306124,-0.20551114,0.070514716,-0.9910072,0.3383795,-0.10817413,-0.14762531,-0.5864392,0.15077195,-0.20024288,-0.05004054,0.05344311,-0.4498214,-0.6088424,0.031217057,-0.14938425,-0.1420013,-0.16244267,0.39695498,-0.26251742,-0.09476727,0.046910003,0.17937599,-0.12319574,0.07243818,0.056125812,0.14238848,-0.25877526,-0.025918128,0.1519032,-0.12405662,-0.13756426,0.012516959,0.18726854,0.33926287,-0.054731634,0.08430541,-0.64793885,-0.28493544,-0.13969766,-0.15862708,0.19136938,0.06354586,-0.6385718,-0.5421206,-0.17744112,0.07267556,-0.4427586,-0.23227037,-0.16505773,0.32962024,0.058945373,0.36566615,0.20887648,-0.22791997,0.20830865,-0.1082071,-0.032213286,0.09279614,-0.018954424,-0.94524884,-0.024150582,-0.15744965,-0.20113571,-0.120483845,0.32035854
9,0.00038736252,-0.11890385,0.050550304,-0.17091739,-0.3609242,0.12819065,-0.043260865,0.11253671,-0.20510541,-0.2188966,-0.30513254,-0.0477683,-0.039754637,-0.17804047,-0.1929422,-0.26118279,-0.03001595,-0.117424406,-0.0033584964,0.045288153,0.4444946,-0.2633568,0.15026663,-0.36541513,-0.1937647,-0.16877045,0.2214194,0.045290377,0.11946817,-0.11405451,-0.2347215,-0.21746401,-0.113416396,-0.2919998,-0.08275344,0.041695576,-0.15494683,0.06315099,-0.33065778,-0.32447296,0.09053564,-0.06496782,-0.085196845,-0.059962895,-0.19182749,0.045762226,-0.15322892,-0.37019613,-0.20246701,-0.39221215,-0.27356744,-0.08254371,-0.15015852,-0.057348944,-0.122779004,0.2906178,-0.17509495,0.2903779,-0.022343203,-0.085897304,0.016741974,-0.13347103,0.26908192,0.124912225,-0.15778337,-0.38254315,-0.13985841,-0.02304923,-0.24151413,-0.16706772,0.20435978,-0.06680933,-0.17189193,-0.28664827,0.01586094,0.092960574,0.15669806,0.024680218,0.7627754,0.12061624,-0.1795777,-0.24788366,0.3911121,0.23985861,0.027214298,-0.24369954,0.068581454,0.23055612,0.012001498,-0.067451514,-0.028877057,-0.028731743,-0.081458814,-0.23521876,-0.108418375,0.17128971,-0.21677138,-0.09113011,-0.004647692,0.0074567217,0.08585826,-0.116748564,0.0008561422,-0.05941709,0.20664573,-0.040564317,-0.16466154,0.006769363,-0.071428224,-0.17744271,-0.0065716235,-0.048513245,-0.09713356,0.027626157,0.19405419,-0.028483674,-0.12896839,0.09539854,0.06853302,0.9151557,0.1430746,-0.07232558,-0.4972705,0.20376343,-0.121192716,-0.17079964,-0.0052600866,-0.17502129
10,-0.10415724,0.028031595,0.17161715,-0.14272448,-0.45575824,0.20569019,0.10105847,0.14445016,0.13767225,0.1421901,-0.4072138,0.10491244,-0.0946428,0.17695329,0.102526195,0.17684391,-0.100843266,0.33037618,-0.10891808,0.007336309,0.11440502,0.05680729,0.115291215,-0.16079403,0.007934328,0.17752188,0.23943265,0.09531702,-0.044261307,-0.048627432,0.0855101,0.04196247,0.1852485,-0.1862597,-0.22766027,-0.52087104,0.21418217,-0.06399178,-0.07987206,0.101387896,-0.0034346187,0.20960794,0.018551482,0.22786814,-0.06883949,-0.46787667,0.05246526,-0.085256174,-0.17170468,-0.21267481,0.4362436,-0.0502586,-0.7757846,-0.095341906,-0.5206897,-0.06520783,-0.0871349,0.041830167,0.20897062,-0.0055241724,0.014665197,-0.08011246,-0.67511064,-0.0062006754,-0.039582323,0.20635054,0.18261966,-0.032452885,-0.109378874,0.011172386,-0.12594563,-0.022607606,0.0038968092,-0.19895189,0.17492509,-0.019374687,-0.12722759,-0.19415751,0.15181041,-0.06568501,0.06664444,-0.3516932,0.08176328,0.23178953,-0.10067269,0.0034290492,0.14966361,-0.029187461,-0.30616793,0.19536029,0.11811694,0.22074907,-0.10753377,0.012906071,-0.0074407505,-0.024711162,-0.33009946,0.14061728,-0.12477175,-0.02964066,0.19737342,0.020224266,-0.32467875,-0.17018399,0.12919365,-0.23263791,0.031864945,-0.0723612,0.18321837,0.2617296,0.16536872,-0.0688665,-0.10065787,-0.019959228,-0.5808167,0.020112945,0.025469573,0.009432136,0.022213537,0.22453527,0.28956673,-0.109979264,-0.097910084,0.36246115,0.1517219,0.19030514,0.28874692,0.0067459056
11,-0.6955743,-0.0887518,-0.32764518,-0.06359846,0.041959327,0.027229248,-0.2232669,0.05046757,-0.43655768,-0.11026416,0.044144154,-0.07115205,-0.24457297,-0.5756774,-0.24463701,-0.14244169,-0.021138635,-0.19010444,0.21525797,-0.11305564,-0.15224105,0.113112755,-0.03933909,-0.08158015,-0.1587014,-0.6192158,-0.21887699,0.0453295,0.0027961826,-0.22190541,-0.24670261,-0.1490484,-0.029275276,-0.025446136,0.039537694,-0.2595863,-0.5873465,-0.17879549,0.21752372,-0.110577315,-0.15286972,-0.7098706,-0.061047178,-0.51666677,-0.14930683,-0.18869549,-0.56413287,-0.6105958,-0.028617129,-0.2959706,-0.13520133,-0.07689185,-0.32178342,0.1475945,0.1801421,0.08664157,-0.26509842,0.14140855,-0.0790501,-0.5980522,0.16189492,-0.5666755,-0.29289335,-0.07316423,-0.049296807,-0.47314852,-0.54221004,-0.29585624,-0.9389038,-0.044212326,-0.45907074,-0.102877855,-0.032426547,-0.2568467,-0.11293706,0.03174009,-0.3419391,-0.1701966,0.08938118,-0.2105163,-0.646623,0.051494837,-0.23142481,-0.1683135,-0.07670017,0.16076566,-0.042812824,0.0010364038,-0.26448715,0.12990989,-0.28237873,-0.012139784,0.095730074,0.030063916,-0.16877192,0.10233223,-0.1838698,-0.2992922,-0.09599497,0.3663014,-0.05762858,-0.17094435,0.1215708,-0.6964999,0.054182503,-0.377838,-0.08857851,0.041397717,-0.69669634,0.15155908,0.15833506,-0.014098729,-0.49846247,-0.055384595,-0.09390903,0.015967276,-0.10949573,0.035428617,0.008440989,-0.187631,-0.1271517,0.014655682,-0.42923465,-0.064573035,-0.069326535,-0.2356441,-0.11501338,-0.527252
12,-0.39484322,-0.112969354,-0.10828238,-0.20192036,-0.1953472,0.020260068,-0.02881893,0.13884836,-0.3493739,-0.34796193,-0.009815716,-0.011346384,-0.22527441,-0.08118214,0.0119888205,-0.19886173,0.08276629,-0.26237735,0.35343882,-0.1303962,-0.11478863,-0.122497775,0.026357446,-0.35339746,-0.17126825,-0.1392024,-0.2875012,-0.14081378,-0.048169907,0.0911546,-0.09842446,0.060588688,-0.052445922,-0.33036214,0.0556984,-0.14623013,-0.34466356,0.14290576,0.112504795,0.12109154,0.23971674,-0.30923006,0.0702552,-0.15120317,-0.19983071,-0.21561314,-0.30359054,-0.16866666,-0.15132892,-0.038839348,-0.07694637,-0.03102481,0.04361565,0.096671365,-0.13907193,0.25045422,-0.1855231,-0.25795072,-0.14875083,-0.2733942,-0.00019302497,-0.07096272,0.20765439,-0.30058187,-0.058114536,-0.008268596,-0.03286859,0.1164035,-0.2869546,-0.22599211,0.03210865,-0.15119392,-0.13781108,-0.22220255,-0.40573037,-0.22970705,0.09020685,-0.021832664,-0.31495363,0.05789454,0.017486354,-0.18695243,0.6241391,-0.20229807,0.09575066,0.35130143,0.045256753,-0.17418322,-0.021703113,0.085582785,-0.047330864,-0.07893864,-0.041496344,-0.5716158,-0.06594473,0.060719963,-0.19957379,-0.004144036,-0.06832566,0.2369595,0.03337704,-0.1209394,0.0476259,-0.236264,-0.044811178,-0.17950428,-0.06807684,-0.2187054,-0.17423773,0.2819312,-0.07864465,-0.12085401,-0.22853139,-0.18766023,-0.24619032,-0.11738264,0.037942987,0.16604553,0.24805643,-0.10523416,-0.38666913,-0.13172238,-0.2081404,0.09146811,-0.10776307,-0.111144304,-0.08950278,-0.1454952
13,0.34627703,0.091484025,-0.11233146,-0.022943499,-0.24997416,0.0643596,-0.1039224,0.114792906,-0.2238575,0.03267467,0.09090814,-0.053785756,0.08760459,-0.29216507,-0.17908618,-0.0839577,-0.0039417576,0.3314388,-0.16902941,-0.12203872,0.41357183,0.20437256,-0.058918137,-0.11689471,-0.28518754,-0.2138155,-0.043087136,-0.084133886,-0.14468743,-0.15227428,-0.07992818,-0.08034472,-0.14717415,-0.093261756,0.083564065,0.20131224,-0.14520761,0.06888561,-0.22321682,0.18823957,0.10713151,0.17197429,0.12707199,0.16143878,0.044407137,0.178417,-0.037593957,-0.3359251,-0.14614123,0.008896239,0.34027848,0.11671958,-0.12150592,-0.14174572,0.112860784,0.08674096,0.5766115,0.006163502,0.052564576,0.27738783,0.18042693,0.012583996,-0.3158338,-0.17015001,-0.11599456,0.12737297,-0.0052040904,0.06255407,-0.1897188,-0.18275492,-0.16747746,0.21930031,-0.012791591,-0.13867706,-0.009693849,0.18701866,0.0854575,-0.062870905,0.010329335,-0.01812592,0.1224199,0.055487342,0.35227555,0.2719885,-0.17552833,-0.14785585,0.17318504,0.08537873,0.085222825,0.16607021,0.2758273,-0.023828274,0.00719986,-0.3622675,0.039403085,-0.12967946,0.15935576,0.055670384,0.20599529,0.049270097,0.019275162,0.08365658,-0.44531724,-0.008910874,0.070136055,0.13281713,-0.03750509,0.0022916014,-0.037063047,0.16956095,-0.31941527,-0.007565863,0.15740833,-0.18517825,0.3754598,0.086281955,-0.17843369,-0.0295587,-0.06236448,0.5898797,0.0963026,0.08632308,0.37943798,-0.05022797,-0.1612241,-0.010480613,-0.10064333,0.042326223
14,0.03666453,0.11373585,0.28319478,-0.06862754,0.32427993,0.36502513,0.25317428,-0.025771707,0.12512338,0.18677115,0.117178455,0.031029409,-0.34828475,-0.15683553,0.21952845,0.03302559,-0.08391634,0.24915604,-0.1053043,-0.16872922,0.31034052,-0.5691284,0.039984696,-0.21518646,0.07912661,0.029564159,0.07614823,-0.29942587,-0.054469433,-0.67916065,0.19677025,-0.04486191,0.26393253,-0.14279228,0.23737098,0.108735636,-0.020205833,-0.12200873,-0.09983399,-0.61590683,0.2169663,0.09237498,-0.09650399,0.05505699,0.1128746,0.2600027,-0.11396556,0.20993222,-0.1874494,-0.0878299,0.4722392,0.13539253,0.7062749,-0.39565825,0.438482,-0.4210058,0.17709099,0.3966367,0.124950424,0.15734017,-0.029879743,0.0866817,0.81995565,0.21996488,-0.022966515,0.18864754,0.083249696,0.43524688,-0.2320838,0.1417509,-0.34140697,-0.090172306,0.19651258,-0.08512596,0.015203047,-0.3009997,0.43010932,0.064450815,0.30267859,0.16677845,-0.06264666,-0.29072118,-0.41665667,0.565044,-0.09098261,-0.49207652,0.20318808,0.10770838,0.6124506,0.64752835,0.062593095,-0.16778825,-0.023311255,-0.17714453,0.06345104,-0.08280756,0.32506222,-0.049989015,0.24627379,-0.3670026,0.13851537,0.07086595,-0.09779835,-0.22222301,0.029510187,-0.0097437855,-0.42631805,0.36635628,0.11578735,-0.40863663,0.28863895,0.05407422,0.1512742,-0.32046047,0.57175165,0.036775276,-0.43521702,-0.14129262,-0.27261716,0.5071404,-0.24620894,-0.0033089556,-0.35054365,0.15624753,0.21944128,-0.034129363,-0.2839055,0.013040889
15,0.033687297,0.31459484,0.1477718,-0.21989039,-0.042511303,0.48675925,0.2466184,-0.09093145,0.007430225,-0.35719904,-0.30344096,-0.761055,0.012318805,0.008309594,0.15654966,-0.28567377,0.14884177,0.1928315,0.14092502,-0.013471239,0.29056078,0.030836688,-0.044440746,-0.46900934,0.37559,-0.07490044,-0.096464954,-0.15939045,-0.045533855,-0.44924563,0.5864783,0.17066942,0.23705468,-0.30755007,-0.092660956,0.08614931,0.023861144,-0.02889258,-0.8929393,-0.087915376,-0.09004699,0.12634593,-0.308326,0.2855752,-0.4917464,0.14506394,-0.016164027,0.12566823,-0.04797343,-0.22084597,-0.14252777,-0.24785632,-0.03720615,-0.33234847,0.11211767,-0.2524576,0.4556014,0.30070636,0.10080189,0.24340665,-0.2616439,-0.02850649,-0.05413776,0.4642419,0.124313906,0.64708334,0.11455392,-1.2253731,0.081856884,-0.21689017,0.02615449,-0.6885746,-0.081007235,0.013793812,-0.07247986,0.09572032,0.28696012,0.2770782,0.11435876,-0.075032,0.29199308,-0.105511524,-0.9429313,0.44910222,-0.06808041,-0.39641288,0.2158273,0.37465945,0.0013262786,-0.7235625,0.071825944,0.20837118,-0.06743758,-0.41788995,0.0554637,0.050886076,0.20207766,0.1650711,0.069263935,-0.52691257,0.0649847,0.27369535,0.282364,-0.18894562,0.060415473,0.13929912,-0.28395447,0.3328306,0.20492,-0.5756236,-0.91231596,0.013133068,0.09747979,0.117245026,0.033184823,-0.10287988,-0.40785453,-0.17136404,0.11576268,0.46467862,-0.06920338,-0.0788676,-0.04553394,0.21895708,-0.12488993,-0.038174737,0.19763117,0.12542973
16,-0.22821085,-0.14382894,0.045268487,0.054417703,-0.007249383,0.108167954,-0.1420382,-0.07859722,-0.09488629,-0.056035656,-0.15125486,-0.11632389,-0.23034716,-0.28876507,-0.11634553,-0.34264603,-0.06990537,-0.091614135,0.0034279015,0.0190348,0.19324666,0.08592232,-0.03319559,-0.027487855,0.02467173,-0.074657075,-0.21665399,-0.103208214,-0.017766032,-0.0477551,-0.2388231,-0.089825705,-0.06660467,-0.15358932,-0.11983642,-0.035560515,-0.29668492,-0.127634,0.04544541,-0.12829408,0.06742831,-0.19219288,-0.2614088,-0.023110546,-0.19653535,0.05039129,-0.1069887,0.06508039,-0.12979282,-0.045985565,-0.37760082,0.028389432,0.07783049,-0.074713685,-0.032095544,-0.048761006,-0.096596375,-0.1047649,0.02689833,-0.11432733,0.06542508,-0.1112359,0.24243076,-0.026323779,-0.111235514,-0.36224267,0.00024763893,-0.122301735,-0.053342476,-0.19880337,-0.02426312,-0.32269725,-0.01662595,-0.09265344,-0.23686238,-0.15283264,-0.038613178,0.058306675,-0.056343023,0.25499558,0.17999053,-0.018622411,-0.18193373,-0.086658195,-0.02373882,-0.23061326,-0.09754457,0.07891187,0.0846654,-0.19216458,-0.041754846,0.10704789,0.14698689,-0.0861404,-0.018318055,-0.13175222,-0.18852124,-0.21889332,-0.28239566,-0.15130943,-0.133815,-0.051944192,0.02721273,-0.11697305,-0.09159398,-0.07752961,0.05336449,-0.08226528,-0.30430722,0.056687057,-0.07767742,-0.012679054,-0.07328772,-0.07585631,0.031519495,-0.15308647,-0.11262436,-0.058866985,0.026477456,-0.12910244,-0.14565037,-0.06853825,-0.27081272,0.119466454,0.06580238,-0.26750407,-0.22213496,-0.12572649
17,0.15112683,0.059850667,-0.02960644,0.08108473,-0.037032727,0.6719282,0.44214004,-0.05505744,0.0734079,0.0114339935,-0.07197083,-0.37491772,0.019360866,-0.078399904,0.1367606,-0.13320045,0.080653444,-0.1355844,-0.042790603,0.14740795,0.17156115,0.26288736,-0.045772854,-0.4588327,0.122597165,-0.07200967,0.0667126,-0.14946063,0.047689144,-0.49639973,0.15530373,0.06844059,0.34443626,-0.044524547,-0.1051392,0.26930407,0.069602385,0.059454363,0.14850017,-0.28228074,-0.0039966214,-0.018169895,-0.06165472,-0.014781761,-0.20577557,0.02475993,0.030431971,0.31374735,-0.20053148,0.036618624,0.16829403,-0.10972599,-0.06711519,-0.13729951,0.08860826,0.0025008165,0.21811143,0.38835034,-0.12186788,0.05022567,-0.26961112,0.12520309,0.22013499,0.6104051,-0.026748793,0.10122362,0.09797239,-0.52498645,0.19771926,-0.47180882,-0.31486174,-0.18281828,-0.0023636017,-0.114782475,-0.2984809,0.010563897,0.28846273,0.006472809,0.24956894,0.16501744,0.056925345,-0.20057823,-0.3916374,0.2121322,0.14580847,-0.16431835,0.16131176,-0.03990643,0.46695882,0.089175604,-0.01362844,0.021286907,0.08541203,-0.30235794,0.17821994,0.01998725,0.07078658,-0.0095637115,0.06797092,-0.09245925,-0.22736873,0.4324992,0.12629342,-0.049688857,0.049635418,-0.14263837,-0.19667399,0.32990086,-0.06264428,-0.2742776,-0.11635428,0.038574357,0.19387789,-0.5502489,0.23984617,0.08323252,0.039876968,0.0600416,-0.021987442,0.35327527,-0.2574398,0.106779404,-0.36477128,0.10134157,0.10183886,0.12962428,0.2667747,0.14759988
18,-0.042601567,-0.36673114,-0.07771316,-0.006038493,-0.10087279,-0.016020857,-0.16606516,0.17090376,-0.19207169,-0.08555838,-0.15982088,-0.1143288,0.05952071,-0.15918092,-0.43025962,0.04989258,0.039835323,-0.2780556,-0.19618796,-0.16198455,0.055851117,-0.1469516,-0.087022595,-0.15355638,-0.08573819,-0.24538386,-0.11824347,-0.20235826,0.038530532,0.0017418129,-0.4562633,-0.44071236,-0.22028871,-0.16683292,0.067514956,0.172906,0.099912725,0.06439081,0.26173475,0.11334887,-0.06812445,-0.17356499,-0.2028384,-0.064141996,-0.14857213,-0.15086974,-0.24724881,-0.19005558,-0.10386473,-0.1590337,-0.1343285,-0.4175365,0.5926448,0.15683371,-0.16671425,0.051880967,0.02038474,-0.26236856,0.0706586,-0.021870142,-0.21671984,-0.040717445,0.407618,0.067122914,0.021858733,0.06886448,0.17521942,-0.39338693,0.020385802,-0.06661407,-0.21920645,-0.05534481,-0.4178658,-0.03511313,-0.018317113,0.22888188,0.054855164,-0.040694546,0.010827646,0.12542896,-0.15698266,-0.11397,0.47269788,-0.14744848,0.04170725,0.16801958,-0.070398785,0.037552465,0.010343454,0.05987262,0.19031346,-0.089222275,-0.16236441,-0.18910195,-0.20936036,-0.112697504,0.2617113,-0.20368324,-0.08110732,0.26494813,-0.4029281,-0.40979767,-0.21441586,-0.1946697,-0.066570446,0.3814935,-0.00016221318,0.04132794,0.038241684,0.14148165,-0.24954167,-0.1202122,-0.05402878,0.08684306,-0.04851729,0.083615124,-0.046224162,-0.07058913,0.32003373,-0.052770786,-0.29545978,-0.12659116,-0.122918345,-0.10989259,0.00977956,-0.41501507,-0.16450702,0.1126257
19,-0.10280924,-0.18058842,-0.03299315,-0.04371873,-0.0423821,0.038813937,-0.023093998,-0.1110949,-0.17441182,-0.18188865,-0.098825075,-0.25499,-0.24142809,-0.04363793,-0.056586985,-0.1969767,-0.11584776,-0.13713104,-0.10137955,0.028630614,0.33289734,0.049147237,-0.022796541,-0.13808915,-0.12925686,-0.009074663,0.15709147,0.053391755,-0.06235749,-0.10911142,-0.121048585,-0.25962505,-0.1980942,-0.056132443,-0.1455331,-0.19442922,-0.17275538,0.022248002,-0.016397236,-0.17572598,-0.15570813,-0.122349,-0.20260765,-0.026121877,-0.20429462,-0.06129949,0.020245995,-0.07933215,-0.19243169,0.008304143,-0.05601832,0.0764697,-0.09429142,-0.03890423,-0.013986582,0.039522763,0.15995665,0.0051749754,0.17102078,0.013911849,-0.20264052,-0.048207328,0.2526784,-0.018612633,-0.095062375,-0.17361514,-0.16676088,-0.05424577,-0.16217592,-0.038660258,0.0027982306,-0.23145239,-0.18935996,-0.049620192,-0.19245435,-0.081988126,-0.0069306223,0.107979104,0.093738906,0.048646316,0.28482285,-0.14670281,-0.123462476,0.011414357,0.07555566,-0.024749706,0.17370386,-0.029388053,0.06304782,0.24381056,0.010675084,-0.15329912,0.051388614,-0.12333855,-0.07042602,0.12193213,-0.13749598,0.024658877,-0.22731696,-0.117263444,0.078944325,-0.24694663,-0.09334813,-0.24374558,0.1260819,-0.18592824,-0.10138657,-0.12565549,-0.033038676,-0.098006606,-0.08257649,0.0420699,0.031013686,-0.18336743,0.086522594,-0.12251591,-0.10730154,-0.17002761,0.021818496,0.16629946,0.041498084,-0.2340725,-0.3166059,0.10223184,-0.217524,-0.04026006,0.05247531,0.07783305
20,-0.17055981,-0.25370115,-0.07276878,-0.04556104,0.22780621,-0.15906358,-0.39845383,0.06536812,-0.2581456,-0.13254713,-0.62262136,-0.22566716,-0.17371754,-0.0022293925,-0.325048,0.005328561,-0.16482292,-0.20707613,-0.2974134,-0.18033299,-0.34314534,-0.030904915,-0.11360124,-0.14112803,0.12291604,-0.15453428,-0.07078279,-0.5366595,-0.11487267,-0.12189931,-0.23481715,-0.097871855,-0.159508,-0.05350559,-0.029884573,0.00448286,-0.19140013,-0.094761916,0.008491366,-0.1635653,-0.0515471,-0.20184739,-0.21625899,-0.074333705,-0.24897738,-0.16604935,-0.13615552,-0.07208279,-0.28109854,-0.15761521,-0.03576883,-0.24339457,0.63150406,-0.118639894,0.057445735,-0.27825817,-0.062266033,0.13204147,-0.034339633,-0.27352032,-0.19748256,-0.26095256,0.0017414574,0.10636838,-0.20596448,-0.3929735,-0.034408517,-0.18448326,0.05984416,-0.13345243,-0.112407476,-0.0069966917,-0.27802885,-0.17322843,0.04433312,-0.23959926,-0.06700767,-0.04217458,-0.14217065,0.031400327,-0.30998236,-0.48643556,-0.50204843,-0.024612641,-0.12194016,-0.07911435,-0.13234812,-0.17446038,-0.1387636,-0.030058531,-0.044662945,-0.12791611,-0.024247615,-0.07289926,-0.23601139,0.05272331,0.37774256,-0.27224964,-0.22962104,-0.094707236,0.07695028,-0.24179816,-0.24814762,-0.23061806,-0.20130518,0.12546481,-0.10991965,0.06174654,-0.11904392,-0.5481014,-0.16154985,-0.17084052,-0.21350391,-0.3421396,0.21658432,-0.09681726,-0.23447366,-0.0820163,-0.15395343,-0.09380272,0.13526362,-0.16766183,-0.20952491,-0.20530574,-0.1414764,-0.31939003,-0.36780977,-0.009073528
21,0.21341714,-0.2207254,-0.048259318,-0.084611624,0.53449565,-0.0116699515,-0.08959568,-0.010423089,-0.11964316,-0.032720134,-0.16406707,-0.06351707,0.0155107835,-0.11773719,0.13053532,0.0347903,0.10293577,0.20196076,0.13806605,0.012518337,-0.029087242,0.2507849,-0.015166441,-0.16573557,-0.14092758,-0.18953545,0.23418824,-0.20536631,0.091442965,-0.30639216,0.20552576,0.019868769,-0.13880125,-0.09734066,-0.008348297,0.14508413,-0.115011744,-0.074398786,-0.069483906,-0.2501675,0.039244253,-0.20690686,-0.12952347,-0.41192722,-0.1048033,0.28190842,-0.049884025,-0.05124713,-0.041782077,0.05815241,0.009414503,-0.41529065,0.61936116,-0.54831785,-0.022813762,-0.14170566,0.41533864,0.2934088,-0.13398874,0.43238813,-0.16126812,-0.1490277,0.64882964,-0.191885,0.01702537,0.37339538,-0.11021308,0.064897366,0.16813707,-0.1764718,-0.19750069,-0.21132259,-0.14145759,-0.14604215,-0.8614912,0.08132487,-0.12151464,0.35656387,-0.10171488,-0.071964644,-0.6492469,-0.06375756,-0.4266313,0.6418504,-0.005780575,-0.18336752,0.08432824,0.096052684,0.048822988,-0.31748217,-0.005861796,-0.06895716,0.015585585,-0.10124276,-0.24552038,0.09935218,0.49708915,-0.09202293,-0.15232784,-0.7434246,-0.3968397,-0.13814527,0.031570274,-0.1645746,-0.024159476,0.30259085,-0.6358405,0.14454696,-0.13787156,-0.35051337,-0.41942066,0.067372225,0.14868243,-0.15554741,-0.07564552,-0.0025736303,-0.11403755,0.07708972,-0.28771082,0.6216987,0.020697966,0.063350774,0.08318374,-0.2715688,-0.094504446,-0.23572198,-0.14894268,-0.16310254
22,-0.21564905,0.096206926,-0.32046705,-0.034788825,-0.0009362291,-0.13947189,-0.1640063,0.065683216,-0.06758689,-0.2337059,-0.1355858,-0.07641746,-0.021097453,-0.17456584,-0.050271954,-0.10328886,0.05450296,-0.0339263,-0.017291449,-0.04513499,0.006830356,-0.14721785,-0.17049147,-0.25606385,-0.113024436,-0.19450799,-0.19225451,0.082146406,-0.05312704,-0.24108778,0.04938281,0.07545972,-0.18623398,0.032166127,0.14450766,0.03820553,-0.33584374,0.12708549,-0.31227845,-0.1509611,-0.12666826,-0.28873372,0.03913053,-0.19625181,-0.122058935,0.01994333,0.004677271,0.0027346325,-0.25092167,-0.3188993,-0.02122444,-0.23996276,-0.22620924,-0.12882663,-0.24280906,-0.18418586,-0.2555837,-0.03593457,-0.13454267,-0.0785677,-0.04362982,-0.052572653,-0.14945263,-0.09112969,0.02649725,-0.19051866,-0.32516438,-0.121708944,-0.1450952,-0.10272959,-0.11398276,-0.009617634,-0.20033546,-0.14848433,-0.06687361,-0.095273614,-0.06004569,-0.13918017,-0.11655929,0.0013959772,0.0039399546,-0.13323541,-0.098548904,-0.098543935,-0.014949121,-0.0038641673,-0.14784256,-0.058577243,-0.24121156,0.020593056,-0.20132104,-0.1524354,0.194509,-0.28392315,-0.1355153,-0.12271072,-0.13640179,-0.03544976,-0.19828843,-0.07657297,0.11885437,-0.17870837,-0.121407814,-0.16912664,0.081445575,-0.35211107,-0.24135317,0.008249216,-0.32356846,-0.038541388,0.0031218035,0.18963404,-0.13433634,0.061580516,-0.052571766,-0.18720993,-0.23097657,-0.05817136,0.09075704,-0.09280784,0.024978671,-0.017020551,-0.44485807,-0.034671087,-0.05326571,-0.19514385,0.036462355,-0.06099174
23,-0.400524,-0.12073629,0.11166205,0.1216349,-0.55155504,-0.074549235,-0.05548729,0.13119677,-0.010182958,0.016930422,0.08195523,-0.05937441,0.04657086,-0.10016897,-0.021342503,0.1870957,0.16769889,0.073635526,-0.25035515,0.018445836,-0.11658249,-0.14953272,-0.08224611,0.15795037,-0.095540516,0.055790555,0.1521725,0.0923496,-0.1669497,0.15782015,-0.14877222,0.0352534,0.018215042,-0.13359067,0.17812586,-0.1621256,0.029896665,-0.009197459,0.012377337,0.0011473635,0.09335311,0.003812287,-0.09144841,0.24491528,-0.1257022,-0.15915975,0.0145875225,0.4588697,-0.16477226,0.28935805,0.27947053,0.11759515,-0.21528377,-0.17730321,-0.07884484,0.12769702,-0.07924739,-0.22182699,0.08348339,-0.23971798,0.022517344,0.05315856,-0.1766694,-0.04112255,0.0943003,0.8387645,0.19317454,-0.15437421,0.12710012,0.31314024,0.24749035,0.10403521,-0.092690185,0.19906913,-0.05368942,0.16833124,-0.056774125,-0.63611,-0.12505844,0.048752137,0.06869068,-0.010315297,-0.14416151,0.15676609,-0.17722476,-0.120746054,0.1995369,-0.06090504,-0.4923832,-0.27053595,-0.0028666102,0.096517034,-0.020479495,0.0025276686,-0.22333683,0.10061606,-0.36553738,-0.051452253,-0.13440551,-0.11251698,-0.015910758,-0.042776406,0.26048365,0.09399096,0.09089144,-0.020662857,0.16173707,-0.11124851,0.019646442,0.03920432,-0.041252542,0.20309879,-0.20937753,0.08949227,-0.07073703,-0.23124525,-0.026090678,-0.061359342,-0.17247239,0.0067633945,0.34799197,-0.039266806,0.6243287,0.3365726,0.08352355,-0.1662402,0.45512655,-0.1471714
24,-0.295967,-0.5616944,0.01562769,-0.16155863,0.10927383,-0.04445126,-0.43348336,0.055471927,-0.15545589,-0.03764677,-0.037223216,0.09705454,0.12536454,0.055748664,-0.5160137,-0.29311556,-0.261881,-0.18845089,0.10713165,0.09894728,0.16333854,0.17700055,0.0065005505,0.122128345,0.14417733,-0.21534795,0.24809316,-0.07515461,-0.09768356,-0.023416515,-0.54525083,-0.45042065,-0.66607225,-0.47021547,0.05028287,0.3361555,-0.039810788,-0.087641545,0.11114644,-0.16714776,-0.36491814,-0.28520903,0.035106305,-0.08226482,0.08880887,0.17532295,-0.2554699,0.0068265125,0.1454247,0.046678483,-0.13314797,0.08639423,0.32021034,-0.102177255,0.12594682,0.3868741,0.07189588,-0.06884481,-0.045531984,-0.35681292,-0.12520498,-0.15907302,0.30648822,0.13718392,0.04330908,0.042256,-0.25714648,-0.10478742,0.04824523,-0.076343544,-0.28949705,0.51452315,-0.35469708,-0.16276143,0.32191113,0.11294878,-0.039878212,0.010741753,0.15183692,-0.08507686,-0.15063542,0.19866557,0.35491103,-0.3015417,-0.1846225,0.034000114,0.0138316,-0.10886526,-0.019557577,0.13816908,0.20220742,-0.24037561,-0.07336191,-0.5382288,-0.39646304,0.062149085,0.21733414,-0.16849421,-0.3413379,-0.06261347,-0.02896768,-0.4304857,0.36117816,-0.075040735,0.178564,0.22849427,-0.24377324,0.018833498,-0.32914558,-0.026780259,-0.036138184,-0.035356563,-0.2499048,-0.5587063,0.1626472,-0.009959669,0.06446933,-0.11600111,-8.328852e-05,0.15433197,-0.036027826,-0.09313503,0.29155493,-0.15626527,0.02028167,-0.6859573,-0.12191624,-0.26355174
25,0.529567,0.08067927,0.07484519,-0.05590126,-0.2891607,-0.13892668,0.087460935,-0.08111796,0.05413156,-0.049621824,0.19176504,0.019456295,-0.041292887,0.027351575,0.047813196,-0.10427591,-0.15848406,0.20357874,-0.2765568,-0.10797395,-0.11170168,0.3172821,-0.025094723,0.026063181,-0.14589839,-0.0614859,0.28322917,0.09540894,0.083894394,-0.26297668,0.043482304,0.094800316,-0.13537261,-0.10509696,0.17370261,0.14877409,0.11736358,-0.16740154,-0.4168825,-0.04983506,-0.029695913,0.27420294,-0.17114092,0.04502239,-0.12321456,0.117097154,-0.18523714,-0.21293105,-0.15158518,0.02766524,0.20192926,0.2923243,0.25164175,-0.22762941,-0.057545427,0.47138074,0.07410456,0.14279127,0.025346095,0.2684624,0.2719501,-0.10730504,-0.21934958,0.010894778,-0.082163006,0.39109606,0.17099825,0.07762308,-0.41946095,-0.034683965,0.008756519,0.04897151,-0.103406295,-0.052226253,0.13952844,0.29790598,0.107690886,-0.1850178,-0.08916867,-0.012623737,0.24358931,0.12864134,0.15489917,0.16151235,0.032394245,-0.28121722,0.037028752,0.24170785,0.19811872,0.2266768,-0.23992802,-0.10322509,0.03342334,-0.2980285,-0.09151238,-0.17736983,0.15467796,-0.079542905,-0.052116185,-0.33650547,-0.18788607,-0.10352709,-0.31632373,0.2799154,0.17895414,0.3021556,0.059035774,0.05283673,-0.053908005,-0.27009368,-0.25619262,-0.042197544,0.1107788,0.1034098,0.18204577,-0.12603621,-0.14213745,0.04514326,-0.016406536,0.38615292,-0.13389038,0.012652737,-0.02437082,-0.42659947,-0.15330875,0.017689759,-0.04861169,0.08183901
26,-0.23013845,-0.19978552,-0.20800221,-0.10804964,0.023069192,0.042005993,-0.097517155,-0.0017054506,-0.19223091,-0.15085845,-0.19205004,-0.078486934,-0.07079812,-0.23423254,-0.10401658,-0.12732618,-0.12269022,-0.21458675,0.060696676,-0.104774326,-0.1270117,-0.113399975,-0.0072444575,-0.11657134,-0.07255244,-0.28031597,-0.030965528,-0.020051586,0.044488695,-0.23964716,-0.014428761,-0.01245648,-0.122304276,-0.26810145,-0.11377543,-0.106908344,-0.24876605,-0.104453765,-0.13021815,-0.12864271,-0.008825733,-0.15276821,-0.1426036,-0.01706119,-0.23197776,-0.25349414,-0.020202775,-0.08358711,-0.040373262,-0.31825835,-0.322246,-0.076708265,0.16883804,-0.096767895,-0.01275008,-0.08752124,-0.183107,-0.23573875,-0.20607814,-0.26000285,-0.06454496,-0.11413438,0.013244997,-0.023695841,-0.16514665,-0.14930084,-0.120937735,-0.036557753,-0.1600032,0.047721103,-0.01932143,-0.22122386,-0.26251727,-0.19393136,0.0044837752,-0.03677312,-0.22646737,0.0603151,-0.030779967,0.087436475,0.015870472,-0.14642486,-0.4797989,-0.11499866,-0.072271995,-0.046171706,-0.10683714,-0.251043,-0.10849076,-0.19210953,-0.3223154,-0.17055245,-0.09500524,-0.020759571,-0.0039618546,0.024294652,-0.058275457,-0.21599846,-0.31723985,-0.18223679,0.08890078,-0.049430728,-0.2886347,-0.25871882,-0.17983839,-0.033218235,0.11628691,-0.07830857,-0.14164363,-0.027877709,-0.30914629,0.0416256,-0.3626181,0.24776281,-0.19045629,-0.008023556,-0.24727693,0.009356457,0.010503675,0.20592533,-0.025004098,-0.07320828,-0.13094154,-0.2939147,0.01574838,-0.27056634,-0.040948458,-0.212001
27,0.36354056,0.031273756,-0.14818163,0.033701904,0.4247083,0.0056419945,0.0036627352,-0.007525003,-0.029298477,0.09798721,0.018328339,-0.041735645,0.12036462,-0.13285981,-0.51529014,-0.1826681,-0.18880248,-0.113526106,-0.44445807,-0.14373113,-0.07256596,0.10460711,0.18011066,-0.07806526,0.16483808,-0.075639,-0.12308757,0.26675382,-0.06611255,-0.15096185,-0.117058,-0.115182884,-0.085032724,0.5124265,-0.095711954,-0.23506492,-0.051413637,-0.02708568,-0.08801506,0.1747486,-0.05782255,0.030254783,-0.03551886,-0.20521614,0.12844418,-0.098721005,-0.2844132,0.13591047,-0.082423806,-0.14527571,-0.18746847,0.14556225,-0.10040757,-0.11344753,-0.24544153,0.17679963,-0.18650547,-0.60254264,0.053743895,-0.8160122,0.06960797,-0.038442902,-0.601172,-0.0328295,-0.11099203,-0.19923596,-0.10232738,0.057405204,-0.4347306,-0.09270492,0.019313976,-0.13359249,-0.13400042,0.12974961,0.16393399,0.006530738,-0.29053506,-0.04289465,-0.06165095,0.07036191,-0.06904472,0.0881961,-0.15144213,-0.67774886,-0.085343875,-0.025293687,0.0046651275,-0.18563642,0.16042522,-0.011118395,0.0072687576,0.49724364,-0.032553565,0.20474517,-0.080412604,-0.071088515,-0.04628938,-0.19445214,-0.026841158,0.14634965,0.06365048,-0.020013852,0.12307361,0.11552818,0.17886996,-0.023518078,0.03366645,-0.079039246,-0.2725221,0.11317988,0.03567738,0.013984306,-0.14695035,0.056690097,-0.2556714,-0.17215347,0.19464117,0.10279597,-0.35483918,-0.15422769,-0.021153394,0.05185484,-0.3119526,0.7514317,0.42256352,-0.016671643,0.41263252,-0.057162452
28,-0.062159885,-0.21259987,-0.06840196,0.0015900395,0.0057602464,-0.052790083,-0.23938648,0.022343505,-0.09104509,0.020123437,-0.08872505,-0.10452014,-0.04287451,-0.14503801,-0.08377587,-0.23624387,-0.098788746,-0.2719347,-0.20988996,-0.073965155,0.11201878,0.12801701,0.0061285854,-0.1511947,-0.042259127,-0.1616318,-0.1973461,-0.1826495,-0.19693148,-0.27906385,-0.14459142,-0.16441022,0.02865208,0.052026194,-0.20584005,0.04742672,-0.040256575,0.14705293,-0.30206686,0.00459166,-0.12506057,-0.08461426,0.016546398,-0.20142235,-0.05010655,-0.014729147,-0.19919197,-0.04727534,-0.014399992,-0.105395414,-0.14196326,-0.2801328,-0.393697,-0.19168268,-0.016894313,-0.030198336,-0.16730818,-0.05407455,0.11472145,-0.1826036,-0.20478654,-0.029365,0.16148716,-0.024610916,-0.18902524,-0.37444955,-0.21477857,0.032238934,-0.105631135,-0.168573,-0.00040954014,-0.14232539,-0.1301483,0.009283528,-0.4177326,-0.24303396,-0.3312467,0.030880352,-0.09330142,-0.18569067,-0.03428069,-0.04063591,0.15765291,0.09393388,0.011504345,-0.0013942489,0.14099418,0.1150553,-0.037162744,-0.35358992,-0.09647524,-0.03704687,-0.016648611,-0.005299431,-0.06223422,-0.11610252,-0.22044574,-0.1695027,-0.19511552,-0.1331056,-0.1765854,0.049415816,-0.18736477,-0.19167948,0.09857311,-0.15820995,-0.20666392,-0.024759967,-0.036510367,-0.280149,-0.12986664,-0.035723116,-0.0017017977,-0.31739828,0.020422153,0.053932298,0.05984984,-0.034996204,-0.05472252,-0.112830386,-0.04021437,0.020731807,-0.23752472,0.030989623,-0.19647028,-0.011210446,0.055604633,0.12847042
29,-0.34788364,0.08472288,-0.22403969,-0.16844872,0.32131207,-0.13597356,0.12272125,0.07390139,-0.20996097,0.09760346,-0.1446553,-0.0028795213,-0.23851234,-0.008630446,0.39875832,-0.009212573,0.13242814,-0.16692229,0.2402932,-0.06547335,-0.17478928,-0.2688738,-0.08924645,-0.26391345,0.16428584,0.13215479,-0.03841985,-0.07128074,-0.011497579,0.06649578,-0.0016956726,-0.10561557,-0.2362574,-0.10536152,-0.038503658,0.08132925,-0.4515968,-0.010896838,-0.014260483,-0.26353493,0.10593135,-0.30021864,-0.18049523,-0.085163996,-0.12974843,0.09971355,0.016636292,0.0030482863,0.09508632,-0.016062817,-0.13286233,-0.012630104,0.25310472,0.22393812,-0.39720312,0.0855644,-0.52666205,-0.51536536,-0.053913224,0.12845835,0.013724655,-0.24770096,1.0058113,0.026398458,0.0015457209,-0.31146315,-0.34812644,0.3021358,-0.08480513,0.17069477,0.51678973,-0.15188077,-0.07856688,0.008249847,-0.08554477,-0.07212745,-0.10629259,-0.46995494,-0.044091832,0.7925554,-0.22968175,-0.3615177,0.33910784,-0.09577256,0.026036546,0.08528835,-0.15252782,-0.109664015,0.034825664,-0.07529789,0.058084883,-0.3819501,-0.06318901,-0.110471845,-0.125636,-0.037263416,-0.66540605,-0.2078137,-0.21068634,-0.14616795,0.055631492,-0.16744953,0.025512211,0.055922,-0.030774739,-0.47719315,0.1330329,-0.09815612,-0.16296993,0.031195566,-0.1278599,-0.052447524,-0.40080538,0.31911093,-0.4341126,0.001674352,-0.13455324,0.10334709,0.013313954,0.4904896,0.20588484,-0.15774487,-0.24075222,-0.22106929,0.079293296,-0.16048571,-0.35929388,-0.322335
30,0.3137005,0.47557697,0.22374758,0.033881836,-0.1910568,0.5187469,0.39603806,-0.11918013,0.10420423,0.049280096,-0.35274357,-0.14290641,-0.0022512903,0.14081566,0.60917675,0.001765112,0.06778537,0.12800154,-0.124659516,0.00483719,0.27646455,0.21015482,0.14335002,-0.33330223,-0.4293448,0.21167512,0.01145347,-0.18409918,0.09437357,-0.59015775,0.47206053,0.27737543,0.3912076,-0.1525845,0.092520095,0.09311209,0.01639303,-0.02918731,-0.24577631,-0.24717815,0.22547565,0.28879258,-0.29327148,0.28329104,-0.1732249,-0.69310975,0.31264776,0.32642534,-0.18394423,0.019830795,0.12969415,0.061010703,0.29917133,-0.313526,-0.7450404,-0.23477286,0.37294582,0.48311812,0.124040015,0.54056704,-0.13192846,0.051819243,0.79603136,0.4566523,0.046809603,0.23448347,0.25559378,-0.644219,0.30687612,-0.2103487,-0.06230393,-0.30703974,0.37226322,-0.30709764,0.09290785,-0.030855697,0.14068004,0.033329267,0.30187318,0.08189441,0.38417804,-0.3159346,-0.9537682,0.44515026,0.021570006,-0.35054404,0.10911961,0.28792235,0.7153041,0.10594201,0.06273063,-0.14164391,-0.066313356,0.03597151,0.13295217,-0.106458895,0.12906751,0.16438001,0.19888495,-0.33892417,0.2958552,0.2699222,-0.82365257,0.18354192,-0.06535881,0.24935375,-0.15404727,0.3308543,0.26166922,-0.45026186,-0.3875327,-0.15169442,0.17030364,0.4038159,-0.020895055,-0.17888597,-0.39266586,0.032391425,-0.054901127,0.6733698,0.054956358,-0.10843806,0.03743117,0.19026433,-0.13404323,0.26270974,0.038684193,0.036535926
31,0.06006661,0.27116388,0.14737289,-0.1898463,-0.3147629,0.5899831,0.41785643,-0.016917331,0.19427338,-0.1666307,-0.11740305,-0.15479408,0.094068974,-0.031790346,0.45116177,-0.038094237,0.061805423,0.11263607,0.048196718,-0.18788761,0.39244172,0.12751989,-0.052246872,-0.4621777,-0.28916445,0.1098302,-0.08117439,-0.0058719716,-0.057472285,-0.40275484,0.5009712,0.10527422,0.3334064,0.07728626,0.11627729,0.050074477,-0.09870196,-0.09474662,0.20342247,-0.011489544,0.2857912,0.10903688,0.15560083,0.08140464,-0.05692747,-0.59288675,0.23454642,0.4293143,0.1518206,0.020109532,0.027451254,-0.19701749,0.21152069,-0.14840704,-0.48683816,-0.1368735,0.402065,0.3586266,-0.0053189294,0.33584675,-0.22941077,-0.14699188,0.3943064,0.41377366,0.043995168,-0.007249324,0.15861975,-0.6132285,0.16484857,-0.34544817,-0.18265761,-0.073143855,0.31017062,-0.08524818,-0.23245867,-0.18827048,0.28725156,0.032695983,0.26199037,-0.040475465,0.21760753,-0.34606385,-0.325935,0.3696524,-0.027207404,0.098152995,-0.050448094,0.12278563,0.571058,0.133795,0.19374788,-0.26559868,-0.11343452,-0.09622519,0.23526843,-0.2041174,0.015075227,0.12517785,0.015203959,-0.08101685,0.2582451,0.21805869,-0.45828733,0.042995233,0.20546262,-0.11348973,0.05175109,0.30641383,0.068141714,-0.025551105,0.064408205,0.07910365,0.2860136,0.1357682,0.28115237,-0.21670792,-0.05468804,-0.1660292,-0.18229166,0.50410265,-0.26874813,0.018139444,-0.33456227,0.084126815,-0.09027622,0.1464766,0.018248621,0.15017359
32,0.06359796,0.082175404,-0.017143536,0.079704106,-0.3077239,1.2073822,0.4665272,0.09239945,0.014391538,0.21381594,-0.24106425,-0.11940529,0.085668296,-0.053866334,0.39084607,-0.20098314,0.016548922,0.12850033,-0.05928914,0.0025674538,-0.013935495,0.09162645,0.17225136,-0.23282321,-0.18127355,0.12823172,-0.028048504,-0.21858786,-0.022924244,-0.05127915,-0.29544598,0.002171082,0.42429158,0.10047039,0.1671034,-0.04948372,-0.033427402,0.20629899,0.48471034,-0.015506303,0.15421389,0.0075016567,0.08123059,-0.11561813,-0.16571923,-0.12678635,0.09473111,0.21475112,-0.17656003,0.15314485,0.081652954,-0.30692366,-0.02224445,0.19759087,-0.06543573,0.1488192,0.060748357,0.22338042,0.35685486,0.14847493,-0.011195039,0.20069061,-0.11003072,0.17034899,-0.12969479,-0.005991234,0.036145512,-0.17592916,-0.014594168,-0.23996498,-0.53494054,-0.17635944,0.37933543,0.16139467,-0.20583089,0.20746554,0.2730892,-0.27033037,0.6519374,0.029857913,0.13296323,-0.28978768,-0.26118973,-0.06737422,0.043122306,-0.05978016,0.60304034,0.18762009,0.55919206,0.04369475,-0.16978547,0.45906943,0.19368339,-0.30017316,0.2389117,0.00040149895,0.039855354,0.29993054,0.12796606,0.1112771,0.32420805,0.40800455,-0.0113758175,0.0040556435,-0.046031408,-0.15333626,-0.010554614,0.40522143,0.28940824,0.051308896,0.20880054,0.06528023,0.13875467,-0.5075152,0.19230293,-0.13483837,-0.082113124,-0.011355711,0.17747682,-0.11093383,0.16285978,0.18335304,-0.5407736,0.69204277,0.14198647,0.22838944,0.23835848,0.22358733
33,-0.20534849,0.0065379157,0.045834154,0.03506541,-0.16270939,0.2743405,-0.007866312,0.01424899,0.181545,0.14583026,-0.03173798,0.046023782,-0.09426582,0.13558741,0.3088205,0.19291274,-0.12418402,0.29133773,-0.47909164,-0.18827936,0.2130647,-0.34871826,0.18276553,-0.0051452643,0.02703188,0.18485774,0.07686133,0.14651881,-0.18409556,-0.09188709,-0.06872881,0.0025153244,0.066867426,-0.26214254,0.0016554545,0.270067,0.012741474,0.01837694,0.03287582,-0.22175677,0.004584559,0.16030148,-0.027746515,0.008115381,-0.058227208,0.014976978,-0.06084109,0.2749946,-0.41168374,-0.028101204,0.055449236,0.037425853,-0.16716617,-0.33460942,-0.2679118,-0.0010887006,0.2948396,0.51450497,-0.22544795,-0.056851026,0.13904466,0.14280668,-0.28738138,0.5001506,-0.11240588,0.32780394,0.025145326,0.1382027,0.32886603,0.03656984,-0.058783166,-0.38910893,-0.16175069,0.08959972,0.19511762,0.2860231,0.28286576,-0.37086928,0.48992583,-0.03605876,0.32973552,-0.14758883,-0.24868442,0.2749052,0.040037956,-0.440915,0.3278245,0.041774135,0.32473582,0.18399474,-0.1918173,0.27296135,0.01927482,0.29581589,-0.14817265,-0.137423,0.15598841,-0.1565295,-0.06051103,0.045798723,0.35866377,0.17760192,-0.07270802,-0.034217317,0.032782868,-0.017173806,0.032049287,0.24821618,0.14534163,0.05345376,0.3058842,-0.022089006,0.1212002,-0.060566675,0.26358935,-0.08222171,-0.012600613,-0.020718874,-0.4966322,0.9672793,0.40615547,0.088280566,0.15961574,0.70023406,-0.20030084,-0.036439832,0.5192408,-0.028419355
34,-0.17473233,0.027449079,0.001654533,0.049757812,0.0047141234,-0.04236656,0.0052579404,0.043264754,-0.19405694,-0.22690114,-0.05243473,-0.039177395,-0.19891551,0.03674466,0.010174262,-0.11676166,-0.16326396,-0.16214748,-0.021013673,-0.06639495,0.037184287,-0.10823479,0.06929484,-0.39874092,-0.21964855,-0.066562735,0.09302618,-0.23161396,-0.18098888,-0.12889504,-0.3518311,-0.30194226,-0.110272385,-0.30863056,-0.07833627,-0.13068537,-0.19743145,-0.16994418,-0.15971214,-0.121904604,0.12151638,-0.04747003,-0.090863466,-0.2923032,-0.20148952,0.016305855,-0.09798656,-0.15060604,-0.27051115,-0.15340021,-0.055028502,-0.29092818,-0.16197556,-0.15538673,-0.22607453,-0.1192849,0.084563576,-0.03551318,-0.048087884,-0.13812828,-0.14388137,-0.018251762,0.10444002,-0.21452253,-0.123749875,-0.64720345,-0.10215542,-0.09616226,-0.17224431,-0.27481014,-0.053358715,-0.0010115933,0.048523832,-0.06547757,-0.19687739,-0.31908223,-0.17610027,-0.22095224,-0.046732094,-0.112880796,0.081962846,-0.3358043,-0.030044693,-0.18651766,-0.11798861,-0.10022638,0.07979191,0.060670998,-0.09442836,-0.13651149,-0.2267217,0.029431766,-0.17768,-0.13493392,-0.10378445,0.06974078,-0.22927433,-0.19849457,0.06676343,-0.19454701,-0.15888219,0.08120757,-0.23117688,-0.23689716,0.05329991,-0.15372594,-0.32353687,-0.20209764,-0.0035359922,-0.041228734,-0.2529328,0.18179013,-0.160085,0.060846645,-0.09393068,-0.20557943,-0.2240619,0.0037911772,-0.05265212,-0.15872139,0.11270131,-0.14563628,-0.39890096,0.031212503,-0.22541045,-0.037233863,0.07007205,-0.043525893
35,-0.25615117,-0.34283602,0.12427872,-0.01670405,0.035505425,0.032789227,-0.23407978,0.030104987,-0.278563,0.13822243,0.08770295,-0.2925907,-0.03143517,-0.31674746,0.28406423,0.07904501,0.015368133,-0.123335846,0.30081287,0.113516144,0.112176806,-0.26041207,0.055078126,-0.023340348,-0.15513971,-0.29772818,0.1095606,-0.18640572,0.052985072,0.16651945,0.11774347,-0.15725714,-0.07875149,0.02739722,0.035914354,0.15358098,-0.025539469,0.034199867,-0.395914,-0.23465616,-0.215027,0.2924163,-0.2709311,0.025607927,-0.171998,-0.39983755,-0.08009666,0.028488107,-0.14356297,-0.019215208,-0.17519975,0.18186966,0.61823225,0.10881784,-0.014279108,0.09345025,0.22994879,-0.014759756,-0.12720908,0.23800749,0.08715179,-0.26492718,0.8517042,0.27498832,-0.04562029,0.24743044,0.040497765,0.11317975,-0.01325167,0.23742011,0.05484081,-0.2708789,-0.24622391,-0.067988515,-0.15469135,0.42982718,0.06129675,-0.2807952,-0.010025579,-0.04911656,0.16763414,-0.18379515,0.18498954,0.44405815,-0.077489756,-0.36415318,-0.028978793,0.13512197,0.4368756,-0.5639525,-0.05732458,-0.23796012,-0.16127458,0.3796515,-0.44667357,0.07451708,0.1728272,0.008365356,-0.3513764,-0.21712545,0.23438758,-0.16020992,-0.3287834,0.08394397,0.06363082,0.6547091,0.35290295,0.028996754,-0.15900894,-0.061077364,-0.26128146,0.040923964,0.20983864,0.02948727,0.30988026,-0.20097792,-0.21560416,-0.14186047,0.1809723,0.5044719,-0.035018377,0.06401627,0.13359635,-0.2562263,0.21990447,-0.39301452,0.07939949,-0.058800336
36,0.3516389,-0.1328448,-0.27598736,0.06793924,-0.08739595,0.1933315,-0.32397324,-0.09291391,-0.014249687,0.051719036,-0.11034476,-0.011745136,0.04780398,-0.04260648,-0.2559651,-0.13635471,-0.010122068,-0.38189444,-0.0023670236,-0.028491879,-0.06987349,-0.09860695,-0.19011486,0.23609148,-0.101748906,-0.086298645,-0.027621366,0.23403113,-0.0709105,0.058786556,-0.4217759,-0.119549535,-0.13862166,-0.1413365,0.056406952,0.21758612,-0.1428035,-0.106983095,-0.002437987,-0.09959931,-0.0006981891,0.024783006,-0.04171075,-0.24950263,-0.01319668,-0.11197648,-0.1374317,-0.115908384,-0.05075311,-0.015737498,0.0043922816,0.08023223,0.15475404,-0.042734783,-0.04073462,0.27844915,-0.021258168,-0.0011110796,0.09811882,-0.21128187,-0.022569539,-0.015425036,0.1292699,0.019202003,0.047431283,-0.25419945,-0.25585353,0.011663353,0.08670344,-0.25667217,-0.18568948,0.09781971,-0.089266896,0.111424446,-0.1450946,-0.06568442,-0.21576284,-0.18396932,-0.0027916164,-0.3822254,0.4442807,0.15513773,0.10173434,-0.11378586,-0.055982728,-0.26012045,0.13673969,-0.034935344,-0.0758826,0.10126216,-0.21795958,-0.005929856,0.1726471,-0.49233204,-0.28841072,0.14940335,-0.07814028,0.08729501,-0.2424687,-0.10011844,-0.15144955,-0.24030033,-0.23474285,0.08918803,0.009552176,0.055806607,-0.16099295,0.021409601,-0.06344228,-0.20259473,-0.2950516,-0.14417167,0.024255328,-0.4637829,0.0050489195,0.020416658,0.11101664,0.17957179,0.028880062,-0.067407444,-0.07858261,0.09786197,-0.09870067,-0.21147333,0.10530201,-0.27330086,0.048139695,-0.3694406
37,-0.06416705,-0.22091818,0.14628506,-0.113589935,-0.18088472,-0.0741199,-0.1554021,0.040052705,-0.18615927,-0.13072638,-0.055625185,0.08224963,-0.20698424,-0.14118734,0.04102836,-0.22604325,-0.10519073,0.09372131,-0.036424212,-0.0688409,0.041687235,0.08041032,0.0072555337,-0.21258636,-0.043205246,0.023890303,0.10330724,-0.13152228,-0.1704587,0.038599536,-0.12749228,-0.18507385,-0.1268746,-0.25597835,0.20396604,-0.11773155,0.20185566,0.037979163,0.023799086,-0.11955278,0.052218053,0.21327811,-0.1783341,-0.06789486,-0.036095474,-0.058197074,0.001195626,-0.18984768,-0.010793614,0.031426065,-0.08251339,0.09149259,-0.25257093,-0.24162775,-0.053711515,-0.067531735,0.050655376,-0.09622999,-0.06220714,-0.19259699,-0.14328623,-0.18648523,0.13647635,-0.10720777,-0.177491,-0.08801455,-0.15575501,-0.025695812,0.04127022,-0.13065332,0.025269678,-0.1466019,-0.13612713,-0.02414999,-0.04570071,-0.064149305,-0.019901296,-0.09607025,-0.005679574,-0.2008477,0.25869846,-0.20206365,-0.0065898215,-0.09237017,-0.04259682,-0.11600526,0.013391282,-0.14999868,0.035142045,-0.115985975,0.037732568,-0.14700268,-0.100222565,-0.29255855,-0.10088761,0.050818857,0.15127274,-0.122914515,-0.04348731,0.0646334,-0.12418652,-0.18812624,-0.027889911,0.053582154,0.18571126,-0.3415906,-0.034505736,0.06165642,-0.04447211,0.08664992,0.042098407,0.055250537,-0.104215115,0.046000183,-0.09312814,-0.08229608,-0.20581831,-0.03197614,0.02038559,0.20127138,0.20714058,-0.0378662,-0.50011355,-0.07152387,-0.23109475,-0.18986844,0.04738146,0.025344603
38,-1.0433393,-0.010946478,-0.80468994,-0.06475281,-0.26410857,-0.0045143706,-0.19657683,0.048078563,-0.56720644,0.053716995,-0.16554333,0.265898,-0.23268402,-0.59929156,-0.348131,-0.23998357,0.04810565,-0.15776698,-0.03850686,0.06658148,-0.20148346,-0.19053476,-0.04745793,-0.18920745,-0.042196397,-0.8334034,-0.2634245,0.16766748,-0.122047804,-0.02340261,-0.28294358,-0.054668296,-0.005522524,-0.1643108,0.04271208,0.023051813,-0.87024105,0.04356433,0.33769602,0.0058432603,0.050726585,-0.90610796,-0.077183366,-0.79706204,-0.10068403,-0.07659015,-0.44922978,-0.77104974,-0.023403335,-0.15533279,-0.003860904,0.18646686,0.025353976,0.2259953,0.3843147,0.09815506,-0.2328807,-0.006349503,0.12736851,-0.45434156,0.2348714,-0.6243118,-0.19774918,-0.096727416,0.09082994,-0.39576548,-0.6394949,-0.17536752,-0.52554363,-0.13682169,-0.3780447,-0.11134686,-0.04687908,-0.16489069,-0.037478574,0.329815,-0.14874223,-0.6036983,0.1316523,-0.11339363,-0.5205468,0.100806795,-0.022459945,-0.6039961,-0.16807388,0.28210494,0.042439274,-0.24557187,-0.16471668,0.08405244,-0.045479424,0.0806864,0.064089745,-0.061790418,-0.29263687,-0.2012331,-0.7352302,-0.44731894,-0.034372367,0.37790698,0.08447802,-0.04350219,-0.12768045,-0.9663332,0.06203331,-0.21316221,0.24949422,0.072141476,-0.6430003,0.2665943,0.21318619,-0.0034050136,-0.31463692,0.022715546,-0.25164816,-0.16796765,0.17109121,-0.15406469,-0.2184846,-0.5856036,-0.049130693,-0.1488858,-0.039261203,0.021465976,0.10586188,-0.1311463,0.102050886,-0.7051253
39,-0.29654658,-0.18116355,0.031253487,-0.14262584,-0.040925212,-0.14366752,-0.33209047,0.09871803,-0.61395603,-0.010720346,-0.087850995,0.05223527,0.09642316,-0.41665363,-0.43245417,-0.18476045,0.055921074,0.07823006,0.14781675,-0.13804823,-0.2438179,-0.011615627,0.085615605,0.1322163,0.041800987,-0.2807841,-0.101817936,0.12613621,0.073376045,-0.013621974,0.024593258,-0.059959363,-0.23782891,-0.11897988,0.10447661,-0.12845254,-0.3169454,-0.03396568,0.112686925,0.026176408,0.20175856,-0.5264853,0.14802334,-0.25168628,-0.18482593,0.06606951,-0.46305543,-0.22492418,0.08403775,-0.015161051,-0.16943322,0.1706444,-0.11842542,0.07649532,0.073385395,0.20361343,-0.19610134,-0.932539,0.26717484,-0.32850406,0.1955082,-0.13225897,-0.10784007,-0.14272965,0.14936522,-0.23565124,-0.22337437,-0.19673057,0.12361745,-0.059144724,0.107953094,-0.17491518,-0.15789264,-0.043498047,-0.19402504,0.36178505,0.021254646,0.30421054,-0.12391102,-0.0057510594,-0.108044475,-0.13180189,0.200207,-0.14559753,-0.14119841,-0.12281495,-0.04805422,-0.09801747,0.026081055,-0.121052116,-0.13048384,-0.021454647,0.07186561,-0.20916422,-0.25341883,0.0015897907,0.013191637,-0.21614641,-0.52791625,0.12459412,0.023297101,-0.17525348,0.06533757,-0.38362908,-0.04507532,-0.10290718,0.09923555,-0.34025365,-0.29280415,0.23660347,0.12478901,-0.068762556,-0.08116005,-0.09755271,-0.5761579,-0.17239884,-0.03804505,0.018025585,0.02128032,0.20293462,0.26161385,0.0560273,-0.1981997,0.25255826,-0.07176929,-0.17221878,-0.047355663,-0.39772618
40,0.026328724,0.17927381,0.1343288,-0.118631065,-0.18777233,0.28966153,0.2671264,0.02425906,0.06716427,-0.1125812,-0.15024696,0.27795124,0.06294947,0.0121796075,0.38462618,-0.28007007,-0.04627955,-0.08758492,-0.00027219483,-0.046033654,0.07731934,0.010208092,0.038882438,-0.5092363,0.065286234,-0.04832422,-0.1265099,0.017594289,-0.043753427,0.28390804,-0.9073349,-0.08660315,0.31619975,-0.042304136,0.07097902,-0.29703435,-0.0893393,-0.053793594,0.64716166,0.21463276,0.51453227,0.07466414,0.29785025,0.1076538,-0.10051279,-0.13175212,0.09764594,-0.014419388,-0.11824823,-0.29814062,-0.0408476,-0.55079275,-0.40769985,0.1784644,-0.13197869,-0.12956947,-0.034188803,0.032562353,-0.07140321,0.20609482,-0.1299985,-0.029648332,0.25002313,-0.003875069,0.10345299,-1.111962,0.0063575148,0.31255433,0.14878717,-0.80656034,-0.13119058,-0.064569876,0.42329133,-0.107610576,-0.12638004,-0.27038097,-0.03361096,-0.16375148,-0.029685363,-0.073807515,0.22825049,-0.33658525,0.56913304,-0.03400966,0.12436613,0.45803612,-0.15081164,0.042932093,-0.018849002,0.12770414,-0.108247146,0.3225542,-0.07933834,-0.7146012,0.42517143,-0.023361448,-0.16634837,0.16549033,0.21766667,0.27224526,-0.092296846,0.46344018,0.1277445,0.024202785,-0.047250614,-0.464386,-0.09369991,-0.00034934058,0.27814084,0.20265958,0.2929437,0.08311748,0.043008815,-0.7170245,-0.21145932,-0.06454656,0.3903663,0.03585803,0.119634755,-0.10463407,-0.23011751,0.039777834,-1.1914843,-0.105660856,-0.23733021,0.31875658,0.428752,0.09525776
41,0.17968066,-0.08597072,-0.00087612733,-0.10580076,-0.10583247,0.056544926,0.023868563,-0.14535232,0.16452281,-0.0727241,-0.30498478,-0.022783827,-0.12398916,-0.02498712,0.10828488,-0.07292397,-0.016332878,0.17461926,-0.2941428,0.09216296,0.12886134,-0.12236988,-0.03566522,-0.079934776,-0.11157559,0.17381951,0.028917393,-0.07312802,-0.1563306,-0.44131628,0.09869064,0.23706163,0.012580609,0.27716103,0.16046134,-0.24013025,-0.016073598,0.056530472,-0.09832511,-0.31499594,0.06140701,0.266007,-0.4268823,0.33163366,-0.09541486,0.16688053,-0.04798739,0.047974765,0.00021976979,-0.13349193,-0.15583663,-0.25186417,0.14963394,-0.2702742,0.101717025,-0.17967623,0.18474843,-0.1342504,-0.0643826,0.17857657,-0.098545045,0.34158298,0.7824402,0.038720414,-0.059137356,-1.080919,0.21267353,-0.16869347,-0.0089559,-0.16276905,-0.22482798,-0.26741225,0.091106,-0.11690069,-0.056034796,-0.29920453,-0.01934758,-0.027467791,-0.010388152,-0.29970992,0.30777943,-0.29810694,-0.3003255,0.045161616,0.094441384,-0.102242276,0.089047275,0.14018273,-0.068507746,-0.110755384,-0.101030536,-0.09171175,0.024423424,-0.022974903,0.021122985,0.0056523127,0.026128044,0.16012885,-0.009739406,-0.29677007,-0.01039216,-0.1088113,-0.36809805,0.11017228,-0.15971696,-0.43802124,-0.36664474,0.05236329,0.11296938,-0.34998956,-0.080458075,-0.16510923,-0.055286497,0.023757612,0.23344234,0.07802424,-0.17254902,0.07113029,-0.09629913,-0.20915347,-0.05344772,-0.008866522,-1.2937632,-0.13884585,0.012244622,0.05477491,0.022280725,0.08685608
42,-0.9667376,0.11298341,-0.2061049,-0.05298175,-0.02165815,-0.13613485,-0.1775882,-0.20124912,-0.3839587,-0.12666483,-0.023155889,-0.12948313,-0.21522807,-0.50078523,-0.22276308,-0.19847256,0.050238054,-0.1381188,0.08276822,-0.051349085,-0.001475994,0.100655325,-0.01854824,0.0320825,-0.09927674,-0.53343207,-0.42547578,-0.07339475,-0.09692806,-0.057633474,-0.096341655,0.047414694,-0.20009017,0.025312606,-0.05487435,-0.13800378,-0.49411073,0.09188636,0.33572778,-0.014592878,-0.11307166,-0.28931308,-0.15542091,-0.5737775,-0.1882622,-0.19084291,-0.23100002,-0.60271835,0.03618958,-0.14838567,0.08005194,-0.03415361,-0.2939836,0.038902227,-0.01887211,-0.07822689,-0.27317467,-0.12471842,-0.01799225,-0.28055835,-0.1233782,-0.16314672,-0.62990254,0.06675608,0.12318929,-0.2977736,-0.25911555,-0.3108672,-0.63274014,-0.11899353,-0.29038703,-0.045173183,-0.019079547,-0.054790482,-0.10920462,-0.10195091,-0.37762466,-0.49184114,0.11435868,0.022023395,-0.12564033,0.0024121113,-0.050471026,-0.32997438,0.11116692,-0.027166462,-0.005839628,-0.24846563,-0.41775826,-0.031082714,-0.261071,0.173254,0.053348593,0.1800088,-0.1747705,0.14005543,-0.68340427,-0.14659137,-0.14691372,0.039452247,-0.0781241,0.008816233,0.10147251,-0.6014611,-0.074665435,-0.28205445,-0.09885106,-0.061851572,-0.31530857,0.064090185,-0.031044647,-0.018355152,-0.13834023,-0.094090104,-0.17348886,-0.24483821,-0.11321246,0.013253044,-0.13248037,-0.69088256,-0.07055037,0.104681425,-0.4195142,-0.21439233,-0.0861079,-0.2319335,-0.018791873,-0.47871432
43,-0.10215212,-0.03864914,-0.0694752,0.018471105,-0.4510878,-0.38586843,0.09139895,-0.038676523,-0.15147723,-0.19322285,0.23698299,-0.26426616,-0.048307903,0.03582742,-0.04887364,-0.044701997,0.041655716,-0.08533903,-0.40090382,-0.17054586,-0.035193432,0.3773063,-0.082484305,0.12200436,-0.4903914,-0.14806141,-0.03645406,0.076970845,-0.032245997,-0.44887087,-0.20415783,-0.074134216,-0.012099584,-0.14547858,0.07826279,-0.37884188,-0.17323035,-0.016050905,-0.68110615,-0.08455526,-0.10234542,0.12488063,-0.20921572,0.07475533,-0.23005562,0.17779258,-0.19356707,-0.09200316,-0.21483847,-0.1030217,-0.23215675,0.043938346,0.10799267,-0.48389632,-0.025361074,0.29439846,0.00028839413,-0.17892967,-0.17095524,0.3167382,0.1975272,-0.10787382,-0.23724875,-0.3219005,-0.077912636,-0.0057260813,0.13605727,-0.29484996,-0.13988219,-0.12812856,-0.38779286,-0.15257712,0.060756687,0.051812474,-0.06725174,0.1464942,-0.34855714,-0.28783986,-0.4456329,-0.007838862,-0.17753987,0.039258987,-0.04214699,-0.24329652,0.06158056,-0.2742402,-0.07601202,-0.08264985,-0.3340214,-0.17865692,-0.21122047,-0.22774693,-0.15011282,-0.022747144,0.1913683,-0.16325384,-0.06708339,0.16544391,0.23217385,-0.2781016,-0.102056876,-0.22046597,-0.47806108,0.22181146,0.0053806645,0.060415395,-0.36847052,-0.1188354,-0.11947664,-0.2354407,-0.35576612,-0.069448575,-0.051956818,-0.129009,-0.15299079,-0.29655427,-0.15513529,0.0012281612,-0.006935812,0.09516596,-0.30151644,-0.007654327,0.41146502,-0.16904257,-0.095368445,0.04782522,0.17385906,0.05413356
44,-0.81304854,-0.1279881,-0.06877326,0.014749723,-0.19522333,-0.029419025,-0.011757173,0.08419618,-0.24669722,-0.06719948,-0.279783,0.19594748,-0.07934902,-0.1306323,-0.40708923,-0.08507174,-0.3035789,-0.09898655,0.02513221,-0.09974538,-0.062783085,0.09050507,0.05862595,-0.40500596,-0.078384474,-0.24702325,-0.22165887,-0.32546327,0.12494575,-0.15821397,-0.031827293,-0.111281164,-0.10979556,-0.38681197,-0.13069674,-0.037934553,-0.126121,-0.17058365,0.16225652,-0.1938285,-0.011546828,-0.24352302,0.31834802,-0.22439367,-0.10415416,-0.11967443,-0.15398067,-0.14656642,0.014130701,-0.12298873,-0.1300637,-0.1797159,-0.5417431,-0.2751489,-0.06427402,-0.22409865,-0.13626121,-0.26407862,0.06525251,-0.21464233,-0.11866912,-0.032752145,-0.45461297,-0.1929179,-0.09953501,-0.50841904,-0.0035264145,-0.10914859,0.075438075,-0.2518218,-0.09016008,0.11036446,-0.07930685,-0.15258689,0.031003702,-0.4062474,-0.114905894,-0.33380052,0.04323654,-0.31730926,-0.13809536,-0.27998394,-0.15094177,-0.36916956,0.08552895,0.115027614,0.16904095,0.13369407,-0.73172295,-0.05317862,-0.009862099,0.016151246,-0.14670345,-0.3957269,0.00903514,0.12657091,-0.17993397,-0.02905015,-0.13793866,0.10826576,0.17842594,-0.17062502,-0.09854254,-0.46218514,0.041131448,-0.22927636,-0.2375163,-0.19520079,-0.023408303,0.07994958,-0.02345775,-0.018327825,-0.27574706,-0.2390619,-0.09252406,-0.16548921,0.08404194,-0.11358612,-0.07321926,-0.48546752,0.016118355,-0.05186056,-0.51166767,-0.06719248,-0.15899667,0.066427745,-0.15303637,0.021585839
45,-0.22717969,-0.3873375,-0.036952183,-0.10955799,-0.041445024,-0.36540583,-0.5144425,-0.09468264,-0.11654378,-0.10750793,0.05686607,-0.17825703,0.22119224,0.045281768,-0.6597836,-0.059821654,-0.1812404,-0.29089457,0.15757649,-0.062255867,-0.0055589667,0.5449329,-0.14040808,0.046785105,-0.15785523,-0.26812997,-0.05553191,-0.006072763,-0.18297847,0.15751901,-0.09519578,-0.056823857,-0.3701347,-0.014455653,-0.15167567,0.23584564,-0.17134726,-0.15976544,-0.14526245,0.1448252,-0.15066232,-0.30921486,0.34507924,-0.23129451,0.29025072,-0.29705656,-0.3958452,-0.277829,0.06452229,0.017454585,-0.17031705,-0.08481695,-0.17637275,0.012095558,0.01216352,0.32285076,-0.22850884,0.039667502,0.02088226,-0.5373581,0.0045533525,-0.3311178,-0.3656814,-0.01691505,0.101961285,0.3194951,-0.40181985,-0.13359354,-0.08857208,-0.008078167,-0.08230618,0.5009224,-0.40762943,0.0031998947,0.20996706,-0.13142069,-0.14329699,-0.013561362,-0.20458041,0.03846132,-0.113412045,0.07267796,0.24213733,-0.24359679,0.0015179741,0.21654378,0.044710856,0.001715485,0.050744433,0.29396704,-0.14414395,-0.40936357,-0.10479163,-0.2697485,-0.41132554,-0.073060535,-0.08633995,-0.39425755,-0.23881711,0.15934184,-0.016134648,-0.36989862,-0.025158724,-0.16258067,0.022484468,0.03721729,0.0847203,0.001534872,-0.31964654,0.07810593,-0.22003959,-0.096917585,-0.19379225,-0.077199735,-0.17703341,-0.2111732,-0.06036948,0.022105092,0.33423916,-0.06332612,0.053892665,-0.11015491,0.56331843,0.17336623,-0.20937344,-0.38512656,-0.19077913,-0.48707423
46,0.2974586,0.17089228,-0.119348936,0.08918531,0.06414763,-0.021335367,0.3868438,0.033760782,0.14035903,-0.24330378,0.050007578,-0.17821026,-0.042774037,-0.03663352,0.2865041,0.13668717,-0.11092253,0.50517786,-0.0663264,0.010535622,-0.24962002,0.084295474,0.21172403,-0.0017282045,-0.3678948,0.13632238,-0.097169474,-0.22987476,0.09001865,-0.0026462832,0.090118825,0.6744968,0.25614524,0.26434895,0.12774305,-0.17273639,0.09600837,-0.015214792,-0.10824167,-0.24577843,0.3831691,0.41301715,-0.23327853,0.07880161,-0.29708946,-0.21600303,0.077323206,-0.13547798,-0.24507645,0.06271286,0.38576478,-0.5829603,0.41182503,-0.29484463,0.036721673,-0.07563242,-0.06892021,0.049894646,0.09116995,0.48037532,-0.26964343,0.12271236,0.2465378,-0.39843416,-0.19295041,-0.32858914,0.21110857,0.04818503,-0.032827646,-0.18155867,-0.34317747,-0.29074922,0.31350625,0.18614943,-0.20303771,-0.22831188,-0.15806818,-0.087171264,-0.090956196,-0.49653837,0.28866678,-0.16274507,-0.070440814,0.12280001,-0.0949056,-0.335285,-0.01838983,0.20938176,-0.07803183,-0.0439634,-0.32218394,0.1466399,0.08784993,0.067694895,0.40265137,-0.17125666,0.08456233,0.29761326,0.39074266,-0.2503993,0.15328154,0.08904291,-0.48427734,-0.18582818,-0.09292696,-0.48985043,-0.31072095,0.023616588,0.41147292,-0.45104843,-0.014094008,0.118772656,0.0685931,-0.34550864,0.09815808,-0.19845423,-0.1526832,-0.003545958,0.059266653,-0.4106432,0.20218818,0.033550262,-1.0916381,0.023398167,0.111503035,0.47876984,-0.07580548,0.17054999
47,-0.2436091,-0.30338284,-0.16645385,-0.13523549,-0.06865643,-0.05737681,0.18945687,-0.08546999,-0.0016476059,-0.072616436,-0.48706183,0.2672267,-0.12124462,0.00017441773,-0.18326826,-0.5283746,0.077967554,-0.23056489,-0.080790274,0.024989257,-0.18955603,-0.01989673,-0.053253435,-0.37130317,0.13139892,0.22657467,0.088552155,-0.191032,0.19689186,0.28919604,-1.0420172,-0.564882,-0.15279217,-0.948448,-0.0842487,-0.31047213,-0.22124411,-0.11301156,0.83440226,0.13478342,0.21165605,0.012447228,0.37564218,0.094967335,0.18425694,0.18916355,0.08796857,0.06971029,-0.26071852,-0.15401587,-0.19572963,-0.592209,-0.44624254,0.39782625,0.055462223,-0.24994935,0.08323397,-0.047327932,0.1503055,-0.045674562,-0.1435545,0.10147335,0.38970983,-0.40964106,-0.049887326,-0.7139245,0.26552296,0.35540825,0.28729525,-0.5753232,-0.0021132992,-0.11228676,0.13411358,0.13120338,-0.49090758,-0.13125564,-0.44096968,0.03587896,-0.048479445,-0.25846407,-0.0685031,-0.52571744,0.92741317,-0.19057734,-0.06673891,0.27949223,-0.10208574,0.09877835,0.18645635,0.19285414,-0.16998063,0.33218294,0.041096695,-0.5835407,0.060499564,-0.006077689,0.20377031,0.11421305,0.079193376,0.45514858,-0.15878972,-0.16461827,0.17663571,-0.2714739,0.1360043,-0.45317304,0.21618302,-0.32533133,0.16678445,0.2804809,0.7500769,-0.02386731,0.06184376,-0.74262434,0.056603014,0.07644596,0.3020879,-0.0155726615,0.14432438,0.08870334,-0.28751832,-0.021814827,-1.3175266,-0.37394467,0.16886625,-0.09577812,-0.08838287,0.19756301
48,-0.15151632,0.0604833,-0.27302915,0.012731723,-0.63608617,0.017405836,0.094124556,-0.096101776,-0.38390568,0.19893016,0.09461216,0.010868452,-0.06221514,-0.21969227,-0.33900365,-0.1743383,-0.17629953,-0.08760756,-0.06275871,0.117928125,-0.097340226,-0.101479374,-0.03800837,0.08025741,-0.15108025,-0.4275808,0.057813503,0.24411573,-0.015226777,-0.36542743,-0.3122889,0.00833245,0.025777804,-0.09627999,0.14693817,0.062434845,-0.21503468,-0.040879007,0.07181126,-0.13982424,0.07591726,-0.45264336,0.060397964,-0.25917482,-0.08456195,-0.075814575,-0.09097837,-0.05601529,-0.32823542,-0.08575899,-0.10950289,0.07510467,-0.5909698,-0.24736904,-0.26818666,-0.102069676,-0.15434398,0.116768286,-0.19231866,-0.43189183,-0.0713998,-0.08540946,-1.149617,0.06936835,0.07179318,-0.4357271,-0.21108988,-0.49550676,-0.2929389,-0.18817599,-0.36562937,0.07292747,-0.18392015,0.082267515,-0.022998268,-0.3629221,-0.06990775,-0.32255718,-0.07094523,-0.85799146,-0.26933184,-0.036523916,-0.595451,-0.41328046,-0.06702771,0.18317455,-0.066694684,-0.0145257395,-0.26759562,0.031525616,-0.1698361,-0.048819587,0.04322742,-0.3631238,-0.1403184,0.1320389,-0.35280022,-0.17409769,-0.08406807,0.1942024,0.030111037,0.0912998,-0.12685075,-0.3292679,-0.122588806,-0.26890713,-0.17038268,-0.19924316,-0.23215881,0.0383655,-0.044933252,0.041262224,-0.2702718,-0.046560068,-0.20550211,-0.10909234,0.09375354,0.026023366,-0.15880276,-0.19022252,0.3764583,-0.037541285,-0.21365501,-0.29348165,-0.04279522,0.073150255,0.13647637,-0.17571884
49,-0.073469825,0.015996253,-0.03618693,-0.18874888,0.048983227,-0.023681147,0.052003484,0.18211447,-0.18619458,-0.09903514,-0.08629957,0.008531199,-0.08307134,-0.079220325,-0.06365018,-0.19807658,-0.054532073,-0.09025586,-0.029180944,0.111498475,0.09921979,-0.06575438,0.07609753,-0.26222348,-0.17272753,0.10247862,0.2554961,-0.2092702,-0.14829239,-0.22250895,-0.096128605,-0.1603362,-0.20613126,-0.29679424,0.074698575,-0.053038422,-0.124884605,-0.08965487,-0.21244207,-0.29659972,-0.085781075,-0.13444893,0.03126331,0.11397478,-0.2660854,-0.11395005,0.040641468,0.08569274,-0.36594266,-0.21865593,-0.12081066,0.069624096,-0.094194785,-0.15413631,-0.3176476,-0.044815972,0.030907989,0.034729987,0.065752245,0.121485814,-0.18911083,-0.04086341,0.15872815,-0.031447694,0.039898966,-0.037415534,-0.13291936,-0.011692061,0.11698409,-0.3106782,-0.12551725,-0.17168766,-0.18080287,-0.1764331,-0.19011971,-0.102072984,0.10756417,-0.014230052,0.127613,0.08770137,0.1912472,-0.36040184,-0.18700756,-0.03955607,-0.044176564,-0.012991414,0.13662353,0.19781141,-0.15706047,0.2503218,0.03455506,0.068417,-0.03951006,-0.39256063,-0.17731221,-0.0353922,-0.15408841,-0.035513926,-0.014166988,0.04090919,0.14111638,-0.13869753,-0.17390373,0.009693215,0.10384142,-0.2176463,-0.004261278,-0.1887854,-0.2262851,-0.07269286,0.14988177,-0.037065025,-0.078154385,0.015984489,-0.0336419,-0.060177244,-0.09522368,-0.06312738,-0.15408807,0.21085574,0.2104606,-0.082413636,0.0151461745,0.12644407,0.053189494,-0.08898074,-0.2775367,-0.026184008
50,0.22687596,0.3924868,0.22355211,0.14526051,-0.2613102,0.45246142,0.38035607,-0.039421078,-0.068900906,0.06541556,-0.17037222,0.01782324,0.11663792,0.01411921,0.4495211,-0.06738106,-0.09003187,0.32077304,-0.06600399,0.09530249,0.24877253,0.3055688,-0.050772265,-0.29308364,-0.08441343,0.0629693,-0.14617321,-0.43853614,0.20881765,-0.12220804,0.17349187,0.1799425,0.3118408,-0.07579474,0.1406846,0.09721055,-0.21122226,-0.040493123,0.06441967,-0.13844787,0.39630193,0.069221355,-0.11402639,0.02856361,-0.07252474,-0.02590781,0.092140555,-0.046363328,-0.090697736,-0.19796747,0.42619336,-0.058636975,0.1792267,-0.0064946273,-0.011624137,-0.009734521,0.09866814,0.3595781,0.14036892,-0.14209275,-0.47788534,-0.04612635,0.4814646,0.30301934,-0.06150366,-0.11817039,0.10758212,-0.25355634,-0.13417001,-0.36042303,-0.2906472,-0.23146479,0.13212584,-0.11722088,-0.12698478,-0.02845742,0.34163392,-0.32747048,0.4735027,-0.12756483,0.2772194,-0.09728418,-0.25731698,0.19296005,0.069899686,0.077006325,0.28490853,0.14521407,0.67860013,0.23955491,-0.034624666,-0.14039925,0.11661523,-0.46820155,0.23886558,-0.0053925742,0.20010638,0.10610706,0.101512045,-0.048292,0.14305212,0.28869992,-0.040436693,0.031897966,-0.07848345,-0.09461279,0.039226636,0.6205901,-0.042117953,-0.29709485,0.14623262,-0.0061927815,-0.028497225,0.19537643,0.25585467,0.058057215,-0.1281681,0.14638788,-0.029486965,0.4923675,-0.08082306,0.0014827519,-0.46095052,-0.2133597,0.18131232,0.12529384,-0.2850845,-0.13468549
51,0.16308415,0.03132946,0.24627487,-0.017812055,-0.5405895,-0.26762626,0.037904475,0.01103437,0.29656622,0.03718244,0.5977747,-0.10306577,-0.11359488,-0.073289305,-0.072676204,0.13138966,0.20187764,0.22609034,-0.14797144,-0.0355724,-0.17409925,-0.14153585,0.13554277,0.25798348,0.031551644,-0.16341944,-0.26620188,0.15635237,-0.03446233,-0.041586794,0.108767726,-0.088269636,0.09931634,0.28385764,-0.034220193,-0.27099338,0.15612125,-0.10332523,-0.09332432,-0.16397692,-0.048863634,0.13687971,-0.124109864,-0.30567184,0.016775064,-0.032147978,-0.27815804,0.291926,0.05654359,-0.0645761,0.21108757,0.13552575,-0.41314486,-0.18741338,-0.28540954,0.025964528,-0.1600344,-0.94339573,0.24261536,-0.23535469,-0.02487317,-0.15107527,-0.9808297,-0.010710659,-0.0926217,0.6209545,-0.044807937,-0.066348605,-0.043766886,0.16136888,-0.12397013,0.0426457,-0.051600102,0.27709273,-0.02189332,0.24746707,-0.08057953,-0.49026254,-0.18761009,-0.3939301,0.2591046,0.017799024,-0.047286894,0.40511012,-0.13307421,-0.24319455,0.0457692,-0.18580845,-0.25713113,-0.0773336,-0.2140175,0.32331064,-0.034805555,-0.019094286,-0.11240827,-0.021370977,-0.26625985,-0.08577178,0.018340928,0.12453331,-0.08402505,0.09822363,0.46821415,-0.062421482,-0.20455588,0.14755835,0.079429016,-0.11235859,0.0067567965,0.0321757,0.023357695,-0.054522894,-0.29384977,0.18687859,-0.3139986,-0.34829777,0.101967715,-0.030598817,-0.21117479,-0.53521043,0.19782989,-0.123457775,0.28713766,0.41180778,0.14429028,-0.0654098,0.558083,-0.20114554
52,-0.1569179,-0.17575559,-0.094583035,-0.018687496,0.17615634,0.31475756,-0.18841332,0.04453202,-0.10383894,-0.0073993434,0.20703515,0.0054508704,0.08733034,0.12854996,0.16730377,0.050920982,0.048462506,-0.19596218,0.017758368,0.02356233,0.32337263,-0.9919651,-0.18176231,0.31002834,0.17493685,-0.010550429,0.22627562,0.15256025,-0.096412,0.23658186,0.0967368,0.05801202,-0.1184908,0.24355075,0.07986509,0.3082283,-0.09840891,0.06284456,0.0719051,0.21888359,-0.23953387,-0.062428936,-0.20544305,-0.015985526,-0.07925213,-0.022691663,0.036681112,-0.14519632,0.038192224,-0.17172341,-0.27927044,0.12705208,0.25304338,-0.06622937,0.6027447,0.18328162,0.18075253,0.4863687,-0.30985898,-0.09348823,0.17594782,0.052519727,0.52535516,0.062190708,0.03609031,0.15394239,0.052643966,0.49548653,0.034237854,0.3468993,0.29889917,-0.17363259,-0.24099986,0.09814684,0.059923995,0.34594157,0.07060925,0.3421937,-0.04787029,0.29957217,-0.05765792,0.048879273,0.10437776,0.07678276,-0.10364388,-0.123251796,0.01652719,-0.020312933,0.5834813,-0.14243405,-0.09905915,-0.36673114,0.072073214,0.39850712,-0.3008894,-0.09118166,0.53439915,-0.07192989,-0.39710152,0.079777226,0.2620521,-0.30031857,-0.48497918,-0.07336174,-0.13326661,0.12318353,0.332708,0.23571679,-0.23329228,0.037932724,0.1906152,0.12724893,0.3385301,0.40868494,0.48342913,0.05983028,0.21623975,-0.046700347,-0.06902003,0.62764466,0.06793531,0.026874077,0.22655523,-0.09747095,-0.22955541,-0.26762903,0.41057116,-0.19979963
53,-0.4580078,-0.057401918,-0.18967074,0.01811916,0.10543855,-0.08516868,-0.23967147,0.032008216,-0.6379464,-0.1639312,-0.19710957,0.38349018,-0.2657572,-0.12125319,0.020840846,-0.13578533,0.024157982,-0.2985888,0.41964108,0.077578165,-0.11793041,-0.28416622,0.18835315,-0.0878265,0.025517965,-0.35283703,-0.029410185,-0.001983547,-0.12403695,0.02819737,-0.26775914,-0.31938675,-0.04631523,-0.076204374,-0.04549808,0.045885034,-0.57742727,-0.06020259,0.3832231,-0.07623073,-0.071342826,-0.49112242,-0.23036002,-0.38530222,-0.17037901,-0.020567102,-0.21877028,-0.26046634,-0.025673734,-0.25006026,-0.081448704,0.22039565,0.09351915,0.2332711,-0.09096548,0.12028742,-0.271734,0.054110352,0.32582113,-0.013282101,0.16670941,-0.489548,0.917307,0.0045031486,0.09988155,-0.39481527,-0.45277408,0.2234188,-0.4261822,-0.14848505,0.25533822,-0.20222385,-0.0949658,-0.1451961,0.040504538,0.26111966,-0.050051752,0.017213661,0.45195842,0.7162984,-0.23736936,-0.1931306,0.21353717,-0.17580873,-0.09871588,0.45101386,0.12221422,-0.12258702,0.5474081,-0.066628926,-0.29942673,-0.2933623,-0.028279087,-0.12616038,-0.30995268,-0.15382755,-0.27877447,-0.43375143,-0.3462343,0.18701127,0.26531336,-0.17961979,-0.16715135,-0.22417459,0.09339021,-0.13160078,0.3620381,0.2251738,-0.37702182,0.45450035,0.30299762,-0.074740395,-0.20427449,-0.03581821,0.054447893,0.09124345,-0.13593881,-0.011427365,0.23851915,0.6755034,0.12827648,0.05147764,-0.33356827,0.038346298,-0.06930194,-0.20355035,-0.2135678,-0.31477392
54,-0.21168199,-0.3726777,-0.12667872,0.038248915,0.055145465,-0.1422761,-0.60614765,-0.0277365,0.013375169,-0.092705436,0.20478033,-0.4531681,0.090444595,-0.19633052,-0.6097585,-0.13323034,-0.15281029,-0.28889078,0.05376271,0.0405391,-0.103443824,0.64938176,-0.039305594,-0.08075753,0.11000217,-0.13604857,0.013955555,-0.10564443,-0.042292573,0.17558594,-0.24994124,0.0050761504,-0.48645607,-0.106230944,0.19034843,0.37443247,-0.030697796,0.188209,-0.16404223,-0.10521387,-0.41942257,-0.27103695,0.16185975,-0.19029352,0.39420354,-0.039225895,-0.2966657,-0.10918277,-0.07429457,0.17723626,-0.14269786,-0.13169794,-0.07833151,-0.20023829,0.026405105,0.24043149,-0.15035872,-0.075158685,-0.09590356,-0.469819,0.06896568,0.058737222,0.25139683,-0.047639966,-0.12876543,0.3509514,-0.39793965,0.4398392,-0.08448588,-0.07858323,-0.03223893,0.15286826,-0.5397009,-0.046732213,0.111992076,-0.09518003,-0.20416844,-0.052232925,0.1435599,0.079404294,-0.020186314,0.07787718,0.2959716,-0.06273329,-0.017058428,-0.08058161,-0.23141524,0.026299076,0.1827935,-0.12104057,-0.048014577,-0.2610297,0.19420725,-0.24537158,-0.5177256,0.15705979,0.3072928,-0.32684147,-0.39062423,-0.24821962,-0.050747417,-0.2782336,0.19957985,-0.063379295,0.077467375,0.45066515,-0.24228571,0.42445567,-0.36894238,-0.27417284,-0.3685301,0.1749587,-0.06175651,-0.3927917,0.24122359,0.07162896,-0.052727427,0.15056755,-0.26779914,0.292263,-0.051877342,0.009558365,0.3426592,-0.37014675,-0.08207774,-0.5260898,-0.026971886,-0.15422639
55,0.02152968,-0.23318312,-0.1396778,0.14709666,-0.51001984,0.08931076,-0.114376724,-0.0024474948,-0.3250154,-0.016900824,0.08290767,-0.08813511,-0.011583294,-0.35503235,-0.58318347,-0.14071247,-0.13486567,0.04511535,-0.09225435,0.013208933,-0.19642788,-0.0075121685,-0.16268967,-0.34820396,-0.094870865,-0.27494124,0.10334999,-0.0040585813,-0.16694298,-0.20159115,-0.066833675,-0.187286,-0.13763101,-0.2991793,0.015546033,-0.20150349,-0.33638793,0.026775977,0.19149972,-0.08896889,-0.08346486,-0.18039556,0.069973916,-0.12551689,0.007950729,-0.03886406,-0.21730831,0.1896115,-0.14835651,-0.013372847,-0.2621263,0.007377425,-0.38883775,-0.22279453,-0.21531639,-0.53367287,-0.24649325,0.15071906,-0.15879808,-0.21259382,-0.18422218,-0.27680457,0.16452515,-0.3124206,0.12924203,-0.14987229,-0.40876612,-0.07104115,-0.22245292,-0.31127864,-0.12111502,0.047598373,0.084806226,-0.035891283,0.1104336,-0.16074052,-0.081667244,-0.055218987,-0.054872114,-0.22670443,-0.004769943,-0.062334564,-0.217854,-0.43096438,0.0891016,0.021651484,-0.21454732,0.011885375,-0.020862196,-0.38870844,-0.29858553,-0.26605567,0.14877205,-0.19265291,-0.15451466,-0.11821028,-0.05699345,-0.32288432,-0.119061306,0.08638528,-0.13242096,-0.13774519,-0.15543646,-0.20204936,-0.03355551,-0.22202852,-0.00632914,-0.08334707,-0.45766076,0.15563898,0.12171599,0.12208641,-0.22407618,0.039205123,-0.3214206,-0.1770214,0.09313288,-0.21518382,-0.014295472,-0.043973576,0.08109074,0.008369744,-0.031335164,-0.22445978,0.029994195,-0.15307774,-0.053022265,-0.21690479
56,-0.23536663,0.032466896,0.019984666,0.01981004,0.06374049,0.057524867,-0.15175742,0.0889543,-0.17614868,-0.12122749,0.1528732,-0.21459563,0.039587088,-0.1699471,0.059690934,0.073404424,-0.08871318,0.0902889,-0.37827015,0.051359408,0.05074907,0.5777566,-0.05813314,-0.06757249,0.018121544,-0.22587703,0.015778279,-0.16930516,-0.11840186,-0.70259845,0.192672,0.101083905,-0.20209071,-0.10764416,0.049989916,0.32944423,-0.26918593,0.09446551,-0.115908965,-0.14245984,-0.15235984,-0.10971621,-0.3283878,-0.17581578,-0.20070392,-0.17826913,-0.109094664,-0.3339985,-0.20249417,0.2013907,-0.009293269,0.04839102,0.7733143,-0.42165607,-0.27976483,-0.08602925,0.016179608,0.25417578,-0.2462602,-0.19960889,-0.20582077,0.14479108,0.22238167,0.04543237,-0.05766959,0.17049986,-0.1876487,-0.49932545,-0.19836418,0.06455294,-0.029931815,0.042030457,-0.12846714,-0.093986765,-0.1008612,-0.044458814,0.24873337,0.047358915,0.06234972,-0.3825502,-0.09106347,-0.15426995,-0.65841234,-0.20357126,0.05078038,-0.06955434,0.09095283,-0.34547237,0.3155463,-0.023697788,-0.20788246,0.297637,0.14615104,0.014497522,-0.0880853,-0.15488613,0.33864,-0.12359374,-0.06419751,-0.24563503,-0.16761626,-0.26216525,-0.36013028,-0.21635035,-0.086266674,0.6002371,-0.13587219,0.30776832,0.007622757,-0.49676642,-0.32569647,-0.074779496,0.02382248,-0.03867642,-0.053391583,-0.10470905,-0.20274349,0.03467254,-0.14814502,0.2591256,-0.19495949,-0.13862872,-0.06192073,-0.040535122,-0.215632,-0.2575672,0.15587597,-0.18138109
57,0.19071668,-0.16102767,0.008492847,-0.18006717,0.30535233,0.24806868,-0.30568722,-0.10359987,0.09604775,0.05332815,-0.67986375,-0.09531347,-0.241315,-0.07484115,-0.10991675,0.007938087,0.01627816,-0.15601818,-0.15739922,-0.09137612,0.40022838,0.38049108,0.08100542,-0.5595951,0.35722518,0.15109465,0.21467924,-0.38248533,0.021844955,-0.28976852,0.0012309367,-0.07588633,-0.37674227,-0.25139272,0.0043661357,0.03582687,0.35454383,0.07943081,-0.09276848,-0.30295977,-0.9002179,0.30343437,0.010825323,0.10530108,-0.10046472,0.3379189,-0.1361443,-0.21078666,-0.09390945,-0.0059308913,-0.25702995,-0.28071898,0.81789714,-0.24529241,0.4947772,0.003853803,0.19843964,0.3654269,0.043606557,-0.08310409,-0.93439156,0.11222664,1.0090601,0.4330725,-0.037267838,-0.36613435,0.08085739,-0.32247272,-0.49177724,-0.31968817,0.49346998,-0.018040419,-0.38496178,-0.19559588,-0.94326335,0.18935333,0.07107179,0.18686177,0.00879163,0.38554734,0.45507762,-0.5081229,-0.12312456,0.12395751,-0.048527792,-0.16214705,0.0817546,0.017553132,0.07066244,-0.30310142,0.3089868,0.117046475,0.058846407,-0.25509536,-0.25121108,-0.06317647,0.8454362,-0.27146107,-0.5829172,-0.9124573,-0.103897646,-0.23878022,-0.04881713,0.19990885,0.14681588,0.42465398,0.19590174,0.21181549,-0.0517263,-1.1682816,-0.13928795,-0.0028479218,0.22723208,-0.14129865,1.3664912,-0.117867626,0.014514315,-0.20940496,-0.5159189,0.6669623,-0.18210226,-0.14688264,-0.34995773,0.052317157,-0.051520858,-0.42480925,0.08266583,0.050782613
58,-0.07213727,-0.17344247,-0.06981235,-0.15062955,-0.14146021,-0.09582466,-0.21902597,-0.13995242,-0.2746557,-0.2501755,-0.08726541,-0.24032447,-0.19192551,-0.16745284,-0.064490125,-0.07917081,0.09842919,0.13940819,0.025388516,0.049117673,0.13324276,0.050828803,0.14205846,-0.14558522,-0.13254914,-0.21886557,0.054566022,-0.16294916,0.099209525,-0.32956147,-0.3007627,-0.10392744,-0.15882741,-0.10803952,0.059738893,-0.19843553,-0.13436885,-0.1797029,-0.18660296,-0.34028047,-0.088247485,0.14536397,-0.09912968,0.0015500207,-0.024476243,-0.047739275,-0.06380628,-0.07625934,-0.07773747,-0.249157,-0.065153494,0.18121126,-0.15682736,-0.09446712,-0.1446827,-0.028134698,0.30561668,0.03942841,-0.08444783,-0.093203284,-0.111742534,-0.035794098,0.109476924,-0.012296202,-0.22130026,-0.29335043,-0.22135726,-0.46413535,-0.04040891,-0.25819504,-0.12262069,0.00036935453,-0.027951717,-0.036452707,-0.13059387,0.035246737,0.07501792,0.56783813,-0.12907459,0.11722007,0.196109,-0.020229677,-0.30749285,0.09795673,0.06211766,-0.24699762,0.13607575,-0.14351502,0.16212398,0.5091373,-0.013072985,0.13633367,-0.16552597,0.018110976,-0.13346577,-0.00021686866,0.21527536,-0.16275537,-0.06048989,-0.07048362,-0.107133865,-0.029196935,-0.11408024,-0.035098374,0.008826329,-0.085220784,-0.011987753,-0.14210552,-0.30284736,-0.124910414,-0.046618577,-0.0028531668,-0.1797935,-0.26369357,0.29183593,0.011214093,-0.0018139757,-0.180154,-0.2629837,0.16275424,0.23233834,-0.19454306,-0.29324463,0.55563045,-0.21232094,-0.09187451,0.051152192,-0.5525196
59,0.21038446,0.20363091,-0.0037167352,-0.16055249,0.39312014,0.43678024,0.43468744,0.121753894,-0.23903903,0.19876827,0.131593,-0.19690485,-0.056374364,0.087149724,0.5226955,-0.017492011,-0.014302155,0.286744,-0.501335,-0.158785,0.05560365,0.19983177,-0.050242838,-0.33047482,-0.09911997,0.20685405,0.34739918,-0.77088106,-0.06933489,-0.9399164,0.50659204,0.5561312,0.33561462,-0.024196597,0.11571764,-0.2598086,0.15912649,0.0856686,-0.2700897,-0.71509624,0.04355142,0.11533927,-0.25638723,0.14527091,-0.22413011,0.27767232,0.09663782,-0.15846469,-0.31305575,-0.26314864,0.55270594,-0.6687316,0.8627797,-0.78994817,0.2984623,-0.18029353,0.064081855,0.49253875,0.21308516,0.55451,-0.6987301,-0.1440463,0.47614655,0.055095583,-0.07716392,0.589086,0.09176718,-0.07411478,-0.27249113,-0.014853147,-0.2721428,0.058736313,0.3169875,-0.090234526,-0.31222424,-0.110481784,0.26031965,-0.012795269,0.6769996,0.17754237,0.039634645,-0.728519,-1.2168683,0.54559404,-0.0045983535,-0.18151787,0.13393629,-0.10927288,0.1779846,0.0068033184,0.018178156,-0.08474523,-0.05534348,0.0023411356,0.28388983,-0.021945544,0.39480886,0.08465852,0.09106863,-0.5359076,0.04178433,0.28662083,-0.23581007,-0.35206372,0.13366912,0.12213475,-0.2237488,0.099293694,0.24838957,-0.81516254,-0.19715609,0.12462725,0.27519158,-0.079909526,0.65258884,0.1460262,-0.22948495,-0.009641121,-0.46952963,0.27361292,-0.15768558,0.035672974,-0.4801763,0.23281601,0.02235374,0.18859632,-0.035525676,-0.12758178
60,0.11812248,-0.12568475,-0.24387729,0.1207418,0.1434046,-0.09222762,-0.18155167,-0.09995993,-0.17330575,0.15985243,0.056730777,0.048806846,0.04957567,-0.38245732,-0.5303167,-0.13988131,0.029050153,0.064884536,-0.028490791,-0.042927574,-0.034696214,-0.127714,0.1251207,0.128834,-0.16870773,-0.29262015,-0.13130315,0.12552105,-0.04863103,0.12952928,-0.2838508,-0.31252483,-0.11990279,0.09463062,-0.27483082,-0.061151862,-0.36002338,0.007326649,-0.33045614,0.079443246,-0.19923285,-0.0137308985,-0.022865826,-0.29970378,0.07136042,-0.08180403,-0.47173506,-0.28398117,0.21946777,-0.12467686,-0.26744667,0.19237582,0.28461558,0.1779631,-0.1677445,0.26079404,-0.36754248,-0.40633336,0.11404246,-0.6515075,0.054108053,-0.16001494,-0.084638104,0.12806115,0.0176779,-0.02793316,-0.13170215,0.05008399,-0.45840973,0.022118408,-0.09900412,0.05586754,-0.056734353,0.11699216,0.10548405,0.2832389,-0.2947963,-0.022878718,0.029245676,0.009763801,-0.0005798004,0.18884528,-0.077196196,-0.7447983,-0.13487335,-0.15086573,-0.20475477,-0.046902075,-0.21762705,-0.088387676,-0.21965504,-0.12457624,-0.18748656,0.011821692,0.0011824266,-0.16122651,0.19805299,-0.16339247,-0.16827734,-0.14225172,0.003799151,0.06818267,0.021509973,-0.014411536,-0.08514868,0.085870825,0.036204718,-0.115415126,-0.13928922,0.39258638,0.10644218,-0.027812554,-0.2780548,-0.2546397,-0.25863376,-0.07854122,0.21562168,-0.09130154,0.03578692,-0.49901766,0.3065836,0.052852545,0.18305652,0.009375942,-0.11727199,-0.11836114,0.3400952,-0.25119156
61,0.40205774,-0.009166865,0.1692873,-0.20510393,-0.14502674,-0.26760185,-0.25181738,-0.03981124,0.096048184,-0.1283824,-0.21278362,0.20809717,0.036597762,0.07274433,-0.00068645756,-0.22006533,-0.13265237,0.17907333,-0.07055712,-0.12172356,0.041225564,0.066314414,0.010282975,-0.165938,-0.2342528,0.07157733,-0.022442067,-0.3210436,0.057857122,-0.09162842,-0.18989128,-0.13021277,-0.054147683,-0.19853275,-0.080852784,-0.40286028,0.17482099,-0.069937065,-0.19369161,-0.13691181,0.29522252,0.261686,-0.10175537,0.22871695,-0.039542224,-0.12107031,-0.0071353307,-0.18684414,-0.078342676,0.040859874,-0.021158671,-0.50052565,-0.033006657,-0.37873605,0.043625444,-0.11157578,0.10084081,-0.14142402,-0.047663365,-0.09228727,-0.14282256,0.11770264,0.39827824,-0.28834906,-0.012501209,-0.9433923,0.25814706,0.13109657,-0.15347767,-0.3966664,-0.21641712,0.04860353,0.014897897,-0.13885106,0.13989338,-0.28635883,-0.07874508,-0.38359156,-0.21657425,-0.41820273,0.61067295,-0.22506677,-0.2864492,0.17182836,-0.11402886,0.066065595,0.005572293,0.20748055,-0.25126344,-0.1902106,0.10980875,0.03875374,0.113159515,-0.74868464,-0.012540339,-0.13610086,0.10668189,0.13812982,-0.09050855,-0.43315494,0.039202653,-0.3136234,-0.58715135,-0.016134528,0.051414795,-0.31777677,-0.3716227,-0.1008683,0.24891657,-0.2694213,-0.074150756,-0.0828382,0.055399515,0.007796001,0.17902023,-0.04166367,-0.33575532,-0.15029982,-0.17915834,-0.78375304,0.2257922,-0.060248617,-2.0739522,-0.118453294,0.06894468,-0.010966256,-0.10496089,0.040428985
62,-0.22429177,-0.119247235,-0.05082471,-0.11400564,0.24854557,0.20708917,0.06893929,0.056870073,-0.19672981,0.3506678,-0.32039177,-0.11840348,-0.22109908,0.08575651,0.30012625,-0.034040865,0.061650008,-0.11131689,-0.12449326,-0.10776729,0.117580846,-1.178793,-0.07581183,0.17200829,0.07819845,-0.088573806,-0.1787874,0.012358215,-0.15501426,-0.2601295,0.2737747,0.31332555,-0.03141714,0.0897197,-0.12959093,0.064947635,-0.11338355,-0.09260527,0.039378233,-0.12063811,-0.10652852,0.21927501,-0.13864109,0.115931064,-0.061186653,-0.022869192,-0.112428546,-0.2191006,0.20182696,-0.1277532,0.0059650256,0.14269333,0.25302187,0.0065048616,0.14259423,0.021525955,0.04430828,-0.05273037,-0.19061553,-0.14577821,0.15338656,0.1448433,0.71537507,0.5376964,-0.031958427,-0.27042824,0.14410743,0.06778577,-0.37252644,0.2104135,0.16105379,-0.14407067,0.17327303,-0.20231308,-0.38407496,-0.23635307,0.080652416,0.28468198,-0.07377859,0.2818145,-0.012824667,0.14109302,0.16567059,-0.102440424,0.0019891565,0.24013133,0.060094208,0.079668544,0.24312186,-0.29464796,0.03054226,-0.6052658,-0.022810927,0.26162952,-0.014118497,-0.11642879,0.52374846,-0.15969823,-0.37783208,-0.031006223,0.7694263,-0.042747136,-0.15967216,-0.0951744,0.044450082,-0.40332806,0.15244678,0.049382705,-0.10881433,0.06785058,0.0030806316,0.028430345,0.08082517,0.065425865,0.5486284,-0.0541354,-0.05759516,-0.13964868,0.14967765,0.0219454,-0.2070108,-0.032048546,-0.14093584,-0.6608306,-0.29943132,-0.18116318,-0.39304376,-0.08739581
63,-0.019074313,-0.11446141,-0.2959961,-0.13553692,-0.40415764,-0.21339248,-0.15694706,0.1630345,-0.08302329,-0.07389602,-0.0131797055,-0.12093698,-0.062353276,0.0139553975,-0.04220466,-0.19394755,-0.15297538,-0.10299405,0.009958615,0.039708536,0.11091224,-0.078374974,-0.20818391,-0.045068152,-0.22983049,-0.100699596,-0.06529658,0.090673834,0.067528255,0.01714912,-0.18059678,0.08787928,-0.27545825,-0.094807245,-0.086725146,0.06850262,-0.5008899,-0.06602405,-0.33287606,-0.14380802,-0.08152789,-0.08570684,-0.16204539,-0.2436892,-0.111207396,-0.026452089,0.009766221,-0.11464773,-0.04654142,-0.06175068,-0.13779116,0.1775574,-0.4091932,-0.33247587,-0.059809305,0.05210563,-0.18240792,-0.05017364,0.0042655263,-0.08712171,0.13583264,0.024824372,0.33449718,-0.1630766,-0.1724994,-0.036524143,-0.14658199,-0.53171957,-0.08819794,0.008271053,-0.1126955,-0.16906172,0.07430779,-0.06715881,-0.15736444,-0.23152937,0.16566166,-0.21491563,-0.09559252,0.03348685,0.022868453,0.11566917,-0.11046882,-0.2351261,0.06831382,-0.50080425,-0.17547132,-0.042178556,-0.059191428,-0.046956804,-0.059967093,0.21996848,0.1614097,-0.03460804,-0.029980188,0.067703485,0.013612825,-0.12245489,-0.0039367042,-0.08877345,0.114816956,-0.08072709,-0.10735944,0.062787816,-0.13514242,-0.26786926,0.030566,-0.023793768,-0.18852873,-0.34981933,-0.08834787,0.07645929,0.16426691,-0.030637532,0.08654603,0.0649862,-0.2904148,-0.10005697,-0.07375833,0.41700387,-0.013898427,-0.039270956,-0.32593596,0.33437052,0.03708879,-0.045869794,-0.2403141,-0.40157622
64,-0.1624533,0.02268847,-0.09868684,-0.24301226,0.11431505,-0.056790933,-0.08439165,0.07776867,-0.16962558,-0.17465568,-0.08728142,-0.26737747,-0.1264202,0.039924245,0.10873086,-0.2712371,0.027964914,0.004892026,-0.029034253,-0.060689982,0.028064884,0.0080955075,-0.07672217,-0.21430634,0.08530052,-0.0013040529,-0.24056454,0.09151579,0.004604529,-0.31947237,0.03543465,-0.06664689,-0.07512295,-0.12151195,0.114477016,-0.08954487,-0.2324768,0.1370122,0.07585676,-0.06954197,0.05188684,0.039594732,0.022858521,0.06627967,-0.15324853,-0.32057986,-0.12096972,-0.17120048,0.100929454,-0.2249529,-0.06795701,-0.22039577,-0.16764359,-0.18114205,-0.037882153,0.12241226,-0.18954462,0.22403845,0.20252547,-0.20293495,-0.011971472,-0.07661517,0.19281514,-0.13262822,-0.048328314,-0.41418758,-0.20080724,-0.008178398,-0.09072645,-0.18172127,-0.18171711,-0.08412695,-0.10910607,-0.16537425,-0.15910622,-0.043253317,0.079220206,0.09030833,0.2207564,-0.048621446,-0.117816865,-0.16675648,-0.22112054,-0.02300274,0.13882317,0.02998725,0.21212958,-0.002636019,0.015179507,-0.016080303,-0.3005202,0.36626276,0.07651371,-0.3503355,-0.07178564,0.1750622,-0.105506316,0.043905064,-0.20937893,0.09092693,-0.01172792,0.07385859,-0.15033159,-0.1751701,0.08140651,-0.3871822,-0.09811141,-0.026655486,-0.09181324,-0.0070295036,-0.05425108,-0.13279785,0.0024259277,-0.031411547,0.12470343,0.03338971,0.08722372,0.010252383,-0.18556762,-0.34825152,-0.2123283,-0.010286515,-0.6107976,0.42181674,0.081410736,-0.08459928,0.20138976,-0.14602782
65,-0.023505665,0.2981479,0.2236842,-0.04107437,-0.4047716,-0.2214457,0.2329021,-0.21200575,0.10395098,-0.14368348,-0.09849271,-0.3055864,-0.044097744,-0.085279725,0.22768158,0.14630309,-0.20670728,0.50950867,-0.40535745,-0.09510618,0.07832701,0.9915946,-0.06345633,-0.22100224,-0.030005677,-0.066870354,0.11909719,-0.050658375,-0.14317913,-0.27170625,0.67977,0.5510844,0.043756254,-0.21406138,0.12782829,-0.024981255,0.09497921,-0.049235005,-0.11146724,0.03150693,0.30744714,0.17208408,-0.03191936,0.108276956,-0.04952576,-0.23061956,0.015274204,0.19186999,-0.09344075,-0.047640584,0.1824253,0.15009187,-0.07946873,-0.6492746,-0.27362293,0.10018777,0.11299491,0.13725384,-0.1920568,-0.015136897,-0.105553105,0.0661445,-0.15457751,0.3600371,-0.041037448,0.05196267,-0.12488277,-0.9247252,0.040409997,-0.00737065,-0.5173155,0.035135373,0.21905096,-0.18257643,0.17868692,0.30411312,-0.14614671,-0.062078424,-0.109932914,-0.28833473,0.22364768,-0.19494954,-0.4001184,0.24123724,-0.18920267,0.0153076425,0.1501018,0.14543574,-0.031869583,0.03683087,0.041728556,0.3084782,-0.04281646,-0.24150352,0.23542987,0.11041325,0.21960206,-0.09913865,0.27324972,-0.01262108,-0.15182267,0.28389743,-0.4108776,-0.08751564,0.051662404,0.16376987,-0.014820689,-0.03922112,-0.01811596,-0.08976805,-0.383467,-0.067706965,-0.02857459,0.49101517,0.23620394,-0.6054095,0.054245982,-0.16727632,-0.17983338,0.19243893,-0.13348901,-0.123325415,-0.07006349,-0.06263445,-0.014530072,0.11238911,0.10561609,0.07222423
