,0,1,2,3,4,5,6,7,8,9,10,11,12,13,14,15,16,17,18,19,20,21,22,23,24,25,26,27,28,29,30,31,32,33,34,35,36,37,38,39,40,41,42,43,44,45,46,47,48,49,50,51,52,53,54,55,56,57,58,59,60,61,62,63,64,65,66,67,68,69,70,71,72,73,74,75,76,77,78,79,80,81,82,83,84,85,86,87,88,89,90,91,92,93,94,95,96,97,98,99,100,101,102,103,104,105,106,107,108,109,110,111,112,113,114,115,116,117,118,119,120,121,122,123,124,125,126,127
0,0.37875575,-0.06363588,-0.24636804,-0.104013495,0.07802128,0.057710815,0.038953267,-0.06574602,-0.08732118,0.15800029,-0.2090306,-0.13998103,-0.2492237,0.47207522,0.013679042,-0.53747505,-0.16814265,-0.10727798,-0.052811276,-0.04050615,-0.260585,-0.17656837,0.14183833,-1.0774416,-0.07270673,0.29469976,-0.7574786,-0.14509983,0.007937399,0.13917781,-0.024963386,-0.40988052,-1.2526004,0.4345435,0.02127148,-0.035399146,-0.19967055,-0.08563609,-0.055967614,0.09233904,-0.05866683,-0.10410448,0.30705577,-0.2012554,-0.3604849,-0.36281887,-0.101610996,-0.15960942,0.081857,0.081012696,-0.14279121,-0.13369204,-0.17688264,-0.11023583,-0.62055165,-0.11954154,0.14836285,0.35688528,-0.1311355,0.17559,-0.099234216,0.19730149,0.07217987,-0.14885394,-0.07250149,-0.2583806,-0.16979417,-0.20026612,-0.18639182,-0.051200494,-0.1100264,-0.26455757,-0.12068213,-0.03110833,-0.029132055,-0.16946997,-0.0718499,0.012133218,-0.12703326,-0.048121348,-0.77077144,-0.37659186,-0.21161036,0.261212,-0.0008280048,-0.24434586,-0.5777044,-0.13123487,0.06652775,-0.6370511,0.055531863,-0.15453063,0.04359345,-0.1194684,-0.48009357,0.118534535,-0.57854575,-0.83694285,-0.20863971,-0.054686036,0.06818089,0.021570329,-0.06580878,0.10651504,-0.14104678,0.04387513,-0.04409499,0.17125893,-0.23848538,-0.030308332,0.08684938,-0.14638858,-0.36481002,0.60413706,-0.4268953,0.17664093,0.15652591,-0.011521413,-0.6100151,-0.24771135,-0.23005989,-0.23608366,-0.09969211,-0.29957125,-0.07284725,0.29416442,-0.9596263,-0.100815035
1,0.30921817,-0.113643534,-0.080700204,-0.10335215,-0.28884566,0.18868773,0.18981323,0.018682303,-0.08140003,0.1689956,0.0384416,-0.18703838,-0.26032567,-0.52954644,-0.051207796,-0.40311456,0.0018617223,-0.026159894,0.06358044,-0.16432826,-0.282694,-0.12938139,0.20821293,-0.16235895,-0.3390574,-0.2303953,-0.014377209,-0.04475839,0.5253834,-0.4597678,-0.15318036,-0.16395457,-0.05224748,-0.10408782,-0.24485128,0.05168354,-0.06355187,-0.3137884,0.07537811,0.13534501,-0.06869969,0.014251654,-0.29200467,0.006729789,-0.5728438,-0.010252164,-0.24578811,0.029092638,-0.06080054,-0.023763832,-0.047551095,-0.054985,-0.12637764,0.10272529,-0.15913785,0.1233829,0.21839422,-0.17317222,0.06946909,0.04794075,0.058201216,-0.18028843,0.116488576,-0.12615743,-0.022853572,-0.21683668,-0.2361564,-0.19956934,-0.046023868,-0.29595372,-0.03337467,-0.26787207,0.054618813,-0.13137788,0.17980535,-0.29020116,-0.05183646,-0.24149665,-0.19455366,-0.0749006,0.020104708,-0.035941284,-0.4694535,-0.01889471,-0.07760051,-0.009008335,-0.06182327,-0.22364074,-0.18142718,-0.117300116,0.11024267,-0.21966794,-0.21200562,-0.23179108,-0.40071166,-0.1108396,-0.22605538,-0.30603006,-0.2816499,-0.3518073,0.08835233,-0.08303051,-0.17534988,-0.04072639,-0.13372287,-0.014953157,-0.1904382,-0.09593754,-0.014321259,-0.008323347,0.073166564,0.14052418,-0.5020249,0.18704395,-0.11835903,-0.058808703,-0.020451844,0.04828572,-0.10799261,0.089915015,-0.19323543,-0.19018213,0.033209156,-0.03864111,0.0023705596,0.04545076,-0.1798492,0.017375017
2,0.18432467,0.01139171,-0.30223295,-0.17145753,-0.18616381,-0.46511748,0.07480181,0.0015951807,0.0001157987,-0.007890111,0.19608258,0.04469587,0.08121086,0.39605996,-0.114978,-0.6389792,-0.04333441,-0.128528,-0.24287604,0.49547073,0.088777244,-0.1436714,-0.018829845,-0.08470416,-0.0018088815,-0.41659254,-0.8665564,-0.2737286,-0.2585141,-0.0070882137,-0.040852178,-0.4218268,0.48744667,-0.6623674,-0.21347,-0.21272224,-0.566751,-0.26640517,-0.09266191,0.07035704,0.08305988,-0.14978836,0.06055557,-0.10108069,0.24634781,-0.03613189,0.13397305,-0.19287015,0.13357323,0.14036536,0.3100493,0.012334454,0.1641069,-0.03472598,0.47024155,0.13991088,-0.12486481,-0.53687763,0.14815202,-0.08442268,-0.19704178,0.3185642,-0.08302804,-0.72563475,0.05035741,0.14140537,-0.10723209,-0.15782896,0.19286385,-0.22696444,0.09594594,-0.52519345,0.046155922,-0.13976261,-0.049752567,-0.15038903,0.16862617,0.21649152,-0.5759562,-0.044568557,0.9664339,0.5351709,-0.08440876,-0.07932078,0.26988876,-0.01706177,-0.3765741,-0.09871209,-0.09163473,-0.46875396,-0.21435001,-0.13985083,-0.9296162,-0.0045780735,-0.28631252,0.031401,-0.4841998,-0.28669226,-0.10217778,-0.41946703,-0.26201668,-0.018868487,-0.23493713,0.005212567,-0.5039041,-0.13486539,-0.12699468,-0.47799292,-0.104658015,-0.2540805,-0.080772266,-0.09017163,-0.23912688,-0.059799545,0.3055636,0.19449139,-0.031074421,-0.53566086,-0.9160411,-0.4655348,-0.5255927,-0.114478864,0.13610484,0.1439497,-0.4141484,0.07644483,-0.8217981,-0.29849735
3,-0.07289343,0.021095362,-0.24644294,0.20190017,0.0837212,0.38177457,-0.10533991,0.07826046,-0.3158581,0.036592763,-0.2891064,0.041536167,0.015408346,-0.7631455,-0.073096,0.012756411,-0.19749193,0.1955181,-0.18651015,0.003956959,0.26429868,-0.14902057,-0.101821825,-0.52876085,0.06484389,0.13622619,-0.41802698,0.073587544,0.07124867,0.1401831,-0.092660226,0.06124892,-0.50903404,0.3346385,-0.1969715,0.11232304,0.41819397,0.19761522,-0.013285646,-0.13725135,0.08448971,0.1228505,-0.323346,0.09702745,0.28345713,-0.21803573,-0.57408994,-0.07574633,-0.23228239,0.122054845,0.2613382,0.13997245,0.090631045,-0.091518015,-0.62040937,0.39256516,-0.18137391,0.06200718,0.13814524,-0.07082395,0.29991007,0.113178365,-0.073276594,0.03908041,-0.013147281,0.65468967,-0.06858021,0.10332394,0.15621391,-0.023880439,0.476099,-0.2002262,-0.09950818,0.093893096,-0.016253598,0.0240267,0.29180315,0.1925021,0.012978227,-0.12376955,-0.102560416,0.0747695,0.0047785244,0.23478779,-0.120281644,-0.026033336,-0.3829724,-0.030820416,0.086276256,-0.03737921,-0.122316785,-0.06795924,0.033947255,-0.02586362,-0.000724555,-0.21044889,-1.2130302,-1.1665945,-0.16957091,-0.068787694,-0.20978422,-0.081919745,0.012139196,0.03990111,0.30905363,0.009986078,-0.16026035,0.034064982,-0.18826546,0.33101076,0.06604333,-0.2323853,0.027243584,-0.5291373,-0.17611398,-0.4438547,0.23131196,0.06095766,-0.2253542,-0.09075374,-0.27322707,0.1447135,-0.23090456,-0.27903977,-0.18306142,0.024345921,-1.2162131,0.14582103
4,-0.15252514,-0.07983507,0.013277926,-0.09528394,-0.19899102,-0.022510074,-0.08558115,0.102647774,0.03853418,0.07209591,-0.2957076,-0.100730486,-0.23243469,-0.40906236,0.20733486,0.1591677,0.07233886,-0.10510582,0.018708678,0.11545615,-0.14164041,0.1004281,-0.121259615,0.08046016,-0.17981447,-0.4130453,0.027090078,-0.28731427,-0.012474747,0.1724969,-0.28981942,-0.07577601,-0.03354979,-0.19055192,-0.021219049,0.026174568,-0.45766246,0.051035486,0.07275633,0.09308886,-0.10427054,-0.13310578,-0.28467807,0.028615434,-0.39310426,-0.110062085,0.21342848,-0.235375,0.16880088,0.043870766,-0.11774454,0.0926678,0.08093554,-0.13775626,0.054619182,-0.1939193,-0.1810811,-0.12112447,-0.118901476,0.005750435,-0.2600758,-0.17830037,-0.11979082,-0.13370143,-0.11826817,0.013703484,-0.06715298,-0.016082224,-0.206186,-0.24030538,-0.09318692,0.08320979,-0.12741771,0.09137074,0.2681746,0.040348012,0.2044834,-0.027713988,0.44444638,-0.17651542,-0.19922571,-0.34735003,-0.19215304,-0.037069015,-0.06296712,-0.022498352,-0.14108251,-0.18686955,-0.10386684,0.20801638,0.2386556,-0.011148748,0.03882839,-0.16626805,0.012773869,-0.08405343,0.037896454,-0.19762658,0.025823316,-0.10346972,-0.05234768,0.0055375,0.20620726,-0.57744217,-0.24600345,-0.25729313,-0.048777185,-0.16945852,-0.105980396,0.1324856,0.17476246,-0.16060235,-0.12362567,-0.1852055,-0.16133943,-0.053668894,0.08096395,-0.22737704,0.25835395,-0.06739086,0.00053320074,-0.23294778,-0.08365158,-0.15392321,-0.19203937,-0.09153201,-0.41643676,0.10641332
5,0.043752056,-0.14073254,0.06708331,-0.091238715,0.014939176,0.00719112,-0.09364467,-0.12675749,0.0045125154,-0.11454285,-0.03982629,-0.15731804,-0.17228113,0.12837628,-0.13790071,0.0366259,-0.20566782,-0.25041744,-0.08780418,0.012341918,0.06083846,-0.14398028,-0.13436928,-0.1604848,-0.13024835,-0.10188522,-0.16949041,-0.073853746,0.29826483,-0.09448701,-0.09536157,-0.1642351,-0.5519764,0.030768776,-0.08768293,-0.02765355,-0.31529063,-0.09303352,-0.07393343,-0.122676566,-0.13052958,-0.0049850084,0.14297944,0.098596945,-0.030505192,-0.33768472,-0.011321559,-0.10703434,0.049275078,-0.059770152,-0.12657697,-0.022470927,-0.0046149753,-0.073117785,-0.14932348,-0.15168624,-0.01588997,-0.06021473,0.0040480755,-0.049223177,-0.023308398,-0.072977394,0.053516496,-0.23752443,-0.10623214,0.16968775,-0.105894215,-0.08548969,0.017168315,-0.05652309,-0.02306682,-0.1714549,-0.15165292,-0.14664185,-0.11562797,-0.21156953,-0.2293931,-0.14931256,-0.2433471,-0.15914854,-0.11998269,-0.42351046,0.013503425,-0.10715524,0.07304302,-0.11007616,-0.3056544,-0.07356251,-0.18156812,-0.13124691,0.20144533,0.0056904997,-0.31405047,-0.21383297,-0.08899941,-0.26971605,-0.33752027,-0.23640177,-0.082763806,0.03115098,-0.22517546,-0.05127939,0.08662737,-0.4292169,-0.030685745,0.03952126,-0.08676946,-0.41747704,-0.01536073,-0.047821708,-0.12496281,0.065115064,-0.21894884,-0.023016505,-0.09811773,0.18387951,0.08851457,-0.16699937,-0.26056343,-0.33233207,-0.0043258425,-0.019032026,-0.2161959,-0.30513042,-0.08396447,-0.19997233,-0.010746656,-0.19184321
6,-0.06711482,-0.16631235,-0.11575953,-0.2672787,-0.13012591,-0.17248963,-0.0024154857,-0.07939266,0.03614148,-0.041505896,-0.16488552,-0.1615773,-0.0377706,-0.31204304,-0.06699343,-0.11572516,-0.12768178,-0.022976078,-0.19135407,-0.18408965,-0.21326715,-0.1925456,-0.11685484,-0.12579945,-0.07947746,-0.34316304,-0.030869683,-0.29849967,-0.24424481,0.032853406,-0.16691743,-0.23156479,-0.1351172,0.04821837,0.04696008,-0.19012722,-0.0723381,-0.3361607,-0.08614469,0.059273757,-0.19258834,-0.15182963,-0.30569208,-0.16059199,-0.38007122,-0.115621686,-0.22045283,-0.12694198,0.079816625,-0.012087499,-0.058312736,-0.16435103,-0.0024720216,-0.0074636927,-0.3909172,-0.20870566,-0.41999292,-0.041070707,0.008915817,-0.092812926,-0.14814754,-0.10092436,-0.12770307,0.21647082,-0.15691647,-0.16172671,-0.07279695,-0.009092124,0.00946026,-0.06617429,-0.15923485,-0.08210331,0.04179874,-0.2176562,0.102426596,-0.06561633,0.081538044,-0.08632009,0.027855972,0.05799193,-0.37463993,0.009299685,-0.27554864,-0.17201738,0.12813011,-0.07341752,-0.16560547,-0.07125161,-0.019931024,0.12945414,-0.051656544,0.05791067,-0.14648892,-0.22320442,-0.1978716,-0.34637895,-0.1079394,-0.12024841,-0.13268964,-0.15761405,0.058229577,-0.16000481,-0.023911199,-0.346719,-0.26737934,0.011358474,-0.15441565,-0.25451267,-0.013986843,-0.12975132,-0.15293239,-0.19497652,-0.07906805,-0.10903641,-0.07174517,-0.022706177,-0.112912565,-0.24611616,-0.049923208,-0.20646183,-0.21243183,-0.20840795,-0.18236524,-0.14788605,-0.30311033,-0.16692099,-0.044595093,-0.19967243
7,-0.2543039,-0.13323215,-0.10766314,-0.093727864,-0.057343014,0.049402013,0.02927862,-0.21650428,0.06964874,-0.05147077,0.012799649,0.12618625,0.08103519,-0.37829185,0.006723664,-0.23508929,0.12258473,0.39323875,-0.16008951,0.15168323,0.012837557,-0.13679795,0.19123305,0.12754756,-0.09012046,0.07394564,-0.22147197,-0.12517719,0.527047,-0.017244782,-0.06570917,-0.29313704,-0.1275494,-0.07817069,-0.09347544,0.027882025,-0.13095278,0.03280786,0.16218188,-0.008422526,0.013900784,-0.17716298,0.5489351,-0.058298167,-0.46914253,-0.17293067,0.63212234,-0.08891521,-0.16370271,0.071689084,-0.21661961,0.51131696,-0.026137913,-0.013029464,-0.10496591,0.54354125,0.71705675,0.08802495,0.06348203,-0.008643689,-0.013307066,-0.11372277,-0.05102012,-0.07635733,-0.015104408,-0.1514379,-0.11203655,0.15265873,-0.0037211687,0.056128632,-0.18894047,0.069302335,-0.07045447,0.16795349,0.1866467,-0.08725648,0.045014992,-0.37282944,0.023982106,0.23752281,-0.04982988,-0.12999885,-0.1744222,-0.04879923,-0.027934391,0.13223208,-0.34241897,0.07063131,-0.064209774,-0.2351146,0.089137994,-0.05790697,-0.14782123,0.116489574,-0.06490368,0.16289565,-0.07418668,-0.402111,-0.09775085,0.2855547,0.01639101,-0.12722641,0.44934103,0.085851215,-0.2867802,-0.23635441,-0.08009492,-0.028774945,-0.09583388,-0.1765773,0.043411557,-0.013662874,-0.01853403,-0.0019210004,-0.25820664,-0.15371217,0.10176079,-0.13504112,-0.10796687,-0.09066381,0.21422939,-0.0836768,-0.02550313,-0.10240789,0.28012434,0.019996366,-0.42273876,-0.0076971296
8,-0.12916447,0.09525503,-0.121527605,-0.14089227,-0.07813613,0.0121649895,-0.044273037,0.0069670016,-0.23963651,0.06631858,0.055771373,-0.115503214,-0.13718502,-0.31423214,0.028242549,-0.21806276,-0.1783321,0.050512984,0.061066296,-0.013591013,-0.02462723,0.07174386,0.04405355,-0.050032374,-0.13059111,-0.12601955,-0.273087,-0.33935678,0.0003662602,-0.110889114,-0.16518195,0.012900788,0.042347502,0.083143234,-0.22318064,-0.24887748,-0.34254056,-0.35617244,-0.007843979,0.050578326,0.07079948,-0.08964347,0.3715348,-0.11171571,-0.22884294,-0.026243225,0.50804085,-0.09221468,0.12486922,-0.17601228,-0.008754269,0.06913313,-0.023370223,0.04711427,-0.0054891356,0.3066788,0.6570713,-0.025835188,-0.12100617,-0.09672246,-0.11043328,-0.07041699,-0.01454809,-0.1433298,0.02013451,-0.21825789,-0.24946438,-0.1229016,-0.23697071,-0.18963507,-0.020841623,0.12436136,-0.12034006,-0.14745305,0.14623971,-0.15726586,0.10463291,0.019689225,-0.10421051,-0.011972725,-0.19442378,-0.0753929,-0.24166499,-0.27086222,-0.07402985,-0.052682478,-0.20597322,0.063309215,-0.2184716,-0.21436794,0.048812743,-0.0015986803,-0.10632504,-0.14361645,-0.27588516,-0.24391858,0.011567382,-0.36467332,-0.21702474,-0.16467999,-0.19429658,0.078231014,0.15297377,-0.25444517,-0.25769356,-0.099232994,-0.0041981665,-0.17978668,-0.08197954,0.13660206,0.076488934,-0.017436326,-0.25306553,-0.056715187,0.009085786,-0.026789445,-0.07706702,0.15773584,-0.05929348,-0.10213422,0.07558674,-0.26750425,0.068521276,-0.19215854,0.22946844,-0.09125116,-0.024740329,0.014095997
9,-0.12167091,-0.13165605,-0.13984135,-0.23965438,-0.18005772,0.07087791,-0.047838144,-0.16132009,-0.07431776,-0.16202974,-0.14492111,-0.06287444,-0.17870384,0.56857175,-0.20802172,0.0300662,-0.01082277,-0.09028523,-0.061803132,0.115679614,-0.12220357,-0.13250493,-0.07397891,0.058011707,-0.26659486,-0.23761307,0.1787658,-0.2956045,-0.21346618,-0.26197746,0.021989897,-0.11199285,0.124763094,-0.098264866,-0.12679659,-0.12212301,-0.24594694,-0.014852307,-0.23723951,-0.09566904,0.053765573,-0.060689304,0.20712139,-0.024517812,0.44917417,-0.14704882,-0.045850124,-0.10728974,0.21575062,0.07662302,-0.18548849,0.013696381,-0.17157324,-0.23496032,-0.0838426,-0.2031585,-0.18445934,-0.11074037,-0.139974,0.056515563,-0.18397595,-0.38593766,-0.023138268,-0.07569596,-0.18254305,-0.035485312,0.10113768,-0.08745486,-0.029824918,-0.09056635,-0.055702962,-0.13160859,-0.13397752,-0.16004285,-0.08086214,-0.34280753,-0.117393225,-0.10291779,-0.21063954,0.017012607,-0.14180759,-0.4012761,-0.016549487,-0.14802404,0.01960951,-0.14770858,-0.018012416,-0.16911896,-0.32720792,-0.026838468,-0.03377505,-0.25517213,-0.33294842,-0.11298556,-0.12021216,-0.45906806,-0.14643821,-0.015768884,-0.14708485,-0.112722114,-0.043231312,-0.14136581,-0.10897701,-0.10136795,-0.34612167,-0.18442172,0.0466074,-0.40450922,-0.18476124,-0.106879845,-0.100913346,-0.20317829,-0.10187025,-0.36528292,-0.11253515,-0.012549749,0.00045756882,-0.19023003,0.11518465,-0.23335122,0.01374629,-0.16697994,-0.25619188,-0.30284518,0.01207835,-0.11091872,0.19152212,-0.04505784
10,-0.19367692,-0.059199672,-0.09390414,-0.5759709,-0.13858572,-0.053987138,0.02416056,-0.32635227,0.21696737,-0.086433925,0.033686608,-0.2261905,-0.4429064,0.646337,-0.011008562,0.054327227,-0.19722918,-0.20196831,-0.17970262,-0.40000424,-0.1547391,-0.14938122,-0.1418534,-0.17056227,-0.27779892,-0.61492324,-0.6069671,0.06892948,0.12812476,0.32915816,0.0021231368,0.0039521367,0.6218748,0.08783668,-0.46542287,-0.33680937,-0.730301,-0.49974647,-0.14597128,-0.15928815,-0.13508321,0.09414881,0.1935736,-0.22958171,-0.24606095,0.28698534,-0.25870696,0.0015430223,-0.003151914,-0.17487954,-0.08889632,-0.3521192,-0.14195897,0.21025267,0.33756873,-0.61611897,-0.33420253,0.06316704,-0.18347526,0.087561876,-0.086802326,0.43328753,0.16251513,-0.42528328,-0.11771108,0.23132285,0.043716215,0.064554706,-0.25296953,-0.20700617,0.19595306,0.13788594,-0.23262866,0.032535516,-0.040502645,-0.49585447,-0.03388991,-0.117055856,0.076451376,0.032798875,0.10161367,-0.58880645,0.36715785,-0.3770152,0.041729927,-0.33113873,0.2567477,0.15130311,-0.13698797,-0.18268353,0.04608054,-0.39432418,0.193876,-0.09849371,0.016388882,-1.0198553,-0.111907735,0.30833077,-0.22198467,0.25202647,-0.19209889,-0.13668494,-0.2030278,-0.6880478,-0.15701763,-0.55421406,0.0052667647,-0.17708361,0.078611,-0.24091832,-0.20668745,0.09084987,0.10254959,-0.3107349,0.37180787,0.019301672,0.044827126,-0.24697919,0.17310514,0.2637199,-0.44401827,-0.61758304,-0.70671266,0.33466065,-0.37107408,-0.0022194772,-0.31235665,-0.117208175
11,0.092380635,0.07222762,-0.099316284,-0.15873826,0.056871854,-0.011662304,0.08679561,-0.069259405,-0.21942277,-0.07302426,-0.11494303,-0.14124098,-0.06528493,-0.9436634,0.08137199,0.16114691,-0.0387457,-0.08875774,-0.24193089,-0.42404124,-0.15864244,0.24033917,0.055620614,-0.056970812,-0.006071599,0.17151181,-0.11074988,-0.014292258,0.0883994,-0.05052732,-0.22936016,0.112603635,-0.20357645,0.20135723,0.28195626,0.21915856,0.037239034,0.24722712,-0.08123844,0.024092518,0.041639365,-0.0429803,-0.15348193,-0.17125097,-0.27706704,-0.074841104,-0.21973197,-0.077964626,0.08587072,0.15347658,-0.2512288,-0.3795573,0.0906634,0.2354625,-0.18915696,0.32397172,0.11929931,-0.10724552,-0.09867755,-0.10160858,-0.099802986,-0.23171881,-0.004296764,0.09330114,-0.18636437,-0.104700536,-0.15770169,-0.17176093,-0.08748235,-0.11797322,-0.16207078,-0.24345417,0.19586176,0.118816204,-0.080794364,0.0017466173,0.17249963,0.03677023,0.053081766,-0.04110075,-0.12662362,0.03246131,-0.07568119,0.19383392,-0.07327265,-0.10875611,0.026187375,0.053112376,0.04004259,0.12380198,0.3291995,-0.08152658,-0.11201767,-0.13294426,0.086141154,0.16093864,-0.013510574,0.0921085,0.024554534,0.0986096,-0.07869904,0.18864892,-0.11981648,-0.021157896,-0.11451367,-0.056067165,0.13432631,0.074673824,-0.05662937,-0.024626818,0.19360816,-0.12692274,0.06157587,-0.10721959,-0.11816588,-0.3345949,-0.029471926,-0.13752855,0.21047066,0.08795707,0.29663938,0.006210122,-0.059008617,-0.044138122,0.0336919,0.10736513,-0.10541258,0.13733403
12,0.018881137,-0.16031227,0.19256373,-0.06245879,0.022958195,-0.09133274,0.06912501,-0.06292461,-0.18331619,0.0625714,-0.042606063,-0.11833392,-0.28645658,-0.33072403,-0.016393444,-0.09026264,0.0032746403,0.1099013,0.1780201,0.11351068,-0.17640749,-0.05990667,-0.013885645,-0.4923243,-0.525491,0.14715,-0.26059756,-0.29552802,0.1467472,0.16053416,-0.01806097,-0.15581141,-0.38026592,-0.12969032,0.033055793,-0.0047832495,0.36552453,0.26622316,0.15895294,0.014753693,-0.19970073,0.11877693,-0.39225554,0.045373596,-0.06517355,-0.30815285,0.18105745,-0.18050289,-0.391076,-0.095031776,0.19087635,0.42119858,-0.07146186,-0.12006062,-0.45239177,0.20502554,0.03292877,-0.110477895,0.063290134,-0.07711042,-0.035511892,-0.20946397,0.19783814,-0.017392842,-0.039789323,0.1184273,0.14032711,0.07723434,0.008473137,-0.1009351,0.55433017,-0.27525073,-0.13085549,0.03547054,-0.13830997,-0.029913502,-0.0014581773,0.072683774,0.10988256,-0.15784821,-0.19273944,-0.034162875,-0.024106333,0.19135714,-0.31260857,-0.15422462,-0.4855341,-0.18177135,0.10068707,-0.05495033,0.049793936,-0.114185214,-0.07075444,0.014327027,0.10167362,-0.14537585,-0.6903926,-0.78982395,0.04316969,-0.16542023,0.029787011,-0.12050317,-0.0023082835,-0.12314303,-0.18165712,0.124901764,0.107300274,0.08351766,-0.07592586,0.3047924,0.13370888,0.08175936,-0.08107965,0.05822404,0.14553212,-0.064027674,-0.0655694,0.0037817878,-0.22213939,-0.08578518,-0.1501624,0.036860276,0.019218272,-0.23946325,0.04114896,0.06412863,-1.1016551,0.25168458
13,-0.4366516,0.08104755,0.08603909,-0.7085727,-0.15229462,-0.29499382,-0.028246973,-0.10604274,-0.0943687,-0.12492787,-0.5222086,0.04092678,-0.49935088,0.19230834,-0.028478332,-0.32257152,-0.011608438,-0.41976216,-0.08996354,-0.32713956,-0.3529625,-0.12521012,-0.035712447,-0.0025666454,-0.5308862,-0.714704,-0.4563959,-0.43924415,-0.4945119,-0.16629931,-0.4296438,0.07863047,0.50537825,-0.8618963,-0.52569705,0.13582194,-0.8660331,-0.93958384,0.10358614,0.004455596,-0.007868739,0.0959036,0.8111142,-0.11068887,1.1936399,0.13332666,-0.8998916,0.094352156,0.080717795,0.03092794,-0.06273317,0.12988542,-0.05691761,-0.035246197,0.6254355,0.09505239,-0.2981799,-0.6805741,0.07560946,-0.011987424,-0.7618345,0.40331867,-0.12644887,-0.23554671,-0.12426277,0.8561037,-0.09603541,-0.15069498,0.48621264,-0.021818634,-0.2016877,-0.49755454,-0.0324244,0.019869566,-0.16290525,-0.23736598,0.1521743,-0.866995,-0.6173845,-0.08539981,1.3570129,-0.012391886,-0.22039528,-0.09162653,-0.013898226,-0.00178001,0.16257179,0.05633704,-0.12356801,-0.10747801,0.03543573,-0.32851985,-0.7992322,-0.10119289,-0.17938823,-0.73296076,0.18113452,0.5908957,-0.34086555,-0.23802848,-0.026073178,-0.078796215,0.10601872,-0.11396769,-0.43764287,0.2923681,0.04932223,0.20503765,0.14734863,-0.14239895,-0.05469572,-0.064632066,0.18901448,-0.06539164,-0.03257269,0.20829919,-0.04614426,-0.8737684,-0.05749516,-0.32912704,-0.4593159,-0.51032674,0.122037664,0.2774414,-0.4630709,-0.16906236,-0.63185817,-0.20054111
14,0.08543889,-0.11030001,-0.22637753,-0.26363343,-0.12044686,-0.14670321,0.027377743,-0.1312586,0.06701471,0.06079764,-0.14834999,0.03886147,-0.09007674,-0.12037081,-0.18900768,-0.26699832,-0.03249951,-0.11137406,-0.18182795,-0.15272547,-0.07460306,0.011936751,-0.07857583,-0.09165688,-0.11430708,-0.3036199,-0.096158355,-0.12951489,-0.14551918,-0.14826009,-0.16052933,0.1192167,-0.13924056,0.047878098,-0.19459715,-0.07894533,-0.37781206,-0.40926895,-0.08153851,-0.087699406,0.024450377,-0.17243691,-0.19745153,-0.14095442,0.103864744,-0.4321966,-0.26475286,0.14961019,-0.04427511,0.13366665,0.041198898,-0.29927507,-0.1676908,0.18065113,-0.12546341,0.066266805,-0.15721539,0.018295828,-0.05255006,-0.14341345,-0.20861363,-0.32292375,0.07751512,-0.3237359,-0.18223026,0.09545151,-0.109143846,-0.056751404,-0.021067062,-0.091763884,-0.070959225,-0.26378617,0.07967755,0.026139615,-0.11867239,-0.098121464,-0.34703532,-0.2993052,-0.328421,-0.035844557,-0.16185851,-0.36621273,-0.1302029,-0.3666439,-0.21626057,0.19580545,-0.065326214,-0.038512412,0.051356494,-0.047619794,-0.014364306,0.017257703,-0.5326705,0.08365527,0.046260238,0.15958704,-0.023173975,-0.0995725,-0.22987323,-0.011061524,-0.16809893,0.019556873,-0.115788795,-0.42690426,-0.06602408,-0.27527696,0.017189266,-0.15461767,0.11484766,-0.0905742,-0.05738658,-0.12289942,-0.1380548,-0.03424337,-0.042105924,0.04640458,-0.19141449,-0.37896246,-0.15803526,-0.14079772,-0.019448338,-0.025445249,-0.2729055,0.121338174,-0.14834252,-0.32648402,0.055848096,-0.21220629
15,0.08344101,0.024682945,-0.11556389,-0.044118337,0.030084718,0.05476607,0.03716259,-0.14014842,-0.09636303,0.040430408,-0.0055238376,-0.047681917,-0.11301917,0.23136762,-0.30589378,0.25478223,-0.06884245,0.29963723,0.060199823,-0.24812238,-0.14050065,0.0040018954,0.105362155,-0.44729462,0.122532524,0.18425192,-0.55774885,0.33898288,-0.16020814,0.06272786,-0.08402839,0.25979862,-0.76228267,-0.26313677,0.4485399,0.13433301,0.20171343,-0.09022569,0.055467505,-0.11650094,0.049384747,0.050103147,0.3004876,-0.25385293,0.51007664,-0.56151175,-0.38173288,-0.033895615,-0.08667683,0.09010893,-0.23936217,-0.25067207,-0.039198026,0.24667808,-0.22969298,-0.22052841,-0.57320976,0.15705563,-0.018181384,0.053906977,0.015294359,-0.030166585,-0.10316401,-0.11699743,-0.1403464,0.023229634,-0.019987797,0.11277046,0.2113167,0.035894666,-0.30973798,0.44532028,0.054154955,0.11294667,0.054200463,0.26167297,-0.39465266,-0.08956793,0.46475342,0.047958627,-0.23236725,0.1681187,-0.11588076,0.24113263,0.08806455,0.19461481,-0.59711134,0.65162003,0.15112443,0.075096965,-0.06879033,0.2499347,0.6721888,0.00828579,0.31626922,0.10860236,-0.43239155,-0.39692676,0.033513036,0.51837283,0.049499635,0.104265526,-0.1143136,0.38406342,0.16935787,-0.38206005,-0.00437875,0.13922258,0.04920596,-0.0002969323,-0.04300648,-0.2809376,0.33699238,0.11978982,0.13253662,0.018157301,0.06433526,0.33292878,0.5720761,-0.06447605,0.3444119,0.2229648,-0.04461632,-0.23147528,-0.12256521,-0.13049904,-0.98632157,-0.07634273
16,-0.15493105,0.021096814,0.02070223,-0.1181227,-0.059023,-0.08721158,-0.078602046,0.03354313,-0.088666506,0.010392278,-0.18091354,0.08089611,-0.14534847,-0.30702493,-0.118629046,0.19772875,-0.2816673,0.0365375,0.0055635786,0.071011126,-0.075023234,-0.020586831,0.029556423,-0.19117647,-0.10319867,-0.1504354,-0.122763455,-0.13970748,-0.035229925,-0.07273382,-0.2676311,-0.27990934,-0.15575492,0.089121625,-0.016765876,-0.015157855,0.099737324,0.09155586,-0.051578928,-0.06926961,-0.071526125,0.038945816,-0.07512728,0.0981464,-0.19082715,-0.30014428,-0.023908142,-0.005108384,0.11234085,-0.021210501,-0.03214071,-0.109886244,-0.15715572,0.016000489,-0.23516205,-0.15933186,-0.0022769752,-0.1883715,-0.008795165,0.0074678645,0.052231785,0.031050028,0.23024096,-0.092209086,0.027271545,-0.0114837065,-0.1393772,-0.10509379,-0.042457953,-0.09098591,-0.04118657,-0.08501249,-0.0024691708,-0.10437172,-0.13440503,0.041519754,0.05815054,-0.043039296,-0.10702657,0.031318158,-0.033730958,-0.096085764,-0.21548127,0.043294806,0.07535498,-0.03729305,-0.08724637,0.009381675,0.041315027,-0.042477224,0.049756113,-0.123242065,0.024908816,-0.22025779,-0.24788691,0.14387773,-0.024108095,-0.016097711,-0.038718373,-0.207962,-0.03329839,0.017090242,-0.050978456,-0.073048316,-0.15708482,-0.18453188,0.04883848,0.12928395,-0.024255868,-0.06291968,0.1512922,-0.251217,-0.116022736,-0.0844873,-0.305956,0.25073135,0.06758293,-0.15957643,0.05070024,-0.11565126,-0.1202024,-0.1410331,-0.09279297,-0.022818783,-0.13688302,-0.15104367,0.0026070536,0.067596816
17,0.045754313,-0.08649522,-0.06450165,0.05473835,0.09494195,-0.18288253,0.03773144,-0.103926055,0.07696274,0.032120306,-0.33913764,-0.1542112,-0.27886397,0.06951042,-0.111318715,-0.63560414,0.20190883,0.0015850152,0.06622883,-0.036024436,-0.06910628,-0.04992191,0.047143646,-0.041929014,0.8045584,-0.4096358,-0.4103222,-0.24474055,-0.23249449,-0.26366967,0.11806572,0.47637168,-0.08337484,-0.37653702,-0.38741758,-0.054740872,-0.07434624,-0.787317,0.1225014,0.00997658,0.10630254,-0.15495579,-0.15996283,0.03830293,-0.26966304,-0.48259538,-0.41678536,0.022104932,-0.097784854,0.13457705,0.40903598,0.2428606,-0.018618964,-0.089996025,0.14311048,0.093483835,-0.809812,0.08471189,0.034593306,-0.09031396,0.03780819,0.14456251,-0.21539767,-0.8110868,-0.03352922,-0.15431069,-0.29439855,-0.061249964,-0.32022983,-0.00926576,0.2726681,0.122797415,-0.050763655,-0.12866981,-0.1557923,0.24478462,-0.0757246,-0.10726171,-0.56129164,0.019547388,0.043376427,-0.18451145,-0.19207282,-0.035433017,-0.26846635,0.078544594,-0.06349983,-0.20899987,-0.03427237,-0.48633307,-0.23581794,0.087170236,-0.83304,-0.11569271,-0.59235966,-0.5663581,0.166709,0.08828461,-0.33662656,-0.484921,-0.06678593,-0.069245964,-0.26564878,-0.32138517,0.03896428,-0.7132247,-0.15055755,-0.07320962,0.039253604,-0.19191112,0.019835824,-0.11293377,0.06254987,-0.3763708,0.17671777,-0.28160095,-0.19432747,-0.16823256,-0.48108968,0.2643276,-0.46361893,-0.4985738,-0.22446288,-0.3493034,-0.03477077,-0.03470508,-0.38623127,-0.19773337
18,-0.10216339,-0.045787893,-0.2765998,-0.060715783,0.010131485,-0.10245688,-0.027471516,-0.035640433,-0.088494204,-0.05827254,-0.101429,-0.14976291,-0.09577536,-0.15921375,-0.048459515,-0.21618608,0.07796222,-0.13469552,-0.35358903,-0.21033219,0.018384002,-0.051365755,-0.06480801,-0.07283058,0.0036728107,-0.1038113,-0.15960115,-0.093560815,0.02283911,-0.02216442,-0.099239975,0.16442817,-0.19692838,-0.10434234,-0.13100728,-0.028751956,-0.3425852,-0.25479743,0.07169903,-0.03862986,0.06946924,-0.2210015,-0.33678836,-0.090266034,-0.29557788,0.057644695,0.04585434,-0.1697084,0.07526445,0.13681184,-0.044740874,-0.20079665,-0.13534194,-0.1602317,-0.13991414,-0.054092456,-0.078310035,-0.07290941,0.13279407,-0.14439924,0.06859451,-0.23513107,-0.08560193,-0.20491755,0.020957401,-0.057875853,0.075170465,-0.07655301,-0.029018356,0.028532382,-0.27145725,-0.20314434,-0.028373742,0.08203653,-0.2752276,0.022266299,-0.20983224,-0.046732873,-0.26510918,-0.07410747,-0.087337226,-0.21176544,-0.016546324,-0.14912331,-0.12921104,-0.036954276,-0.19428863,0.03275081,0.06507681,-0.123905875,0.17618446,-0.15731339,-0.14081995,-0.09693082,-0.058875054,0.04969316,-0.12817551,-0.10621157,-0.22574194,0.0079798885,-0.08447841,-0.17436922,0.14840937,-0.18452449,-0.23399794,-0.14457712,0.108290784,-0.33132046,-0.090837784,-0.08216222,-0.08134451,-0.28167948,0.022500137,-0.003952869,-0.06002481,-0.011082374,0.10267497,-0.26194674,-0.18147643,-0.031769693,-0.05887203,-0.08531118,0.14066608,-0.022747146,0.10291435,-0.09018872,0.094426475,-0.059644114
19,0.03567839,0.12726651,0.016339239,0.0019179068,-0.043983918,0.07240702,0.09627752,-0.106616594,0.1188611,0.09446025,-0.11885165,-0.059894685,-0.24085686,-1.2074772,0.12010975,-0.19230992,-0.16687226,-0.1170703,-0.07487496,-0.26209766,-0.20334364,-0.12046529,-0.05063185,0.10005738,-0.119696856,-0.28005645,0.25797537,-0.1572924,0.49732518,0.12312587,-0.10005262,-0.44778568,-0.20814906,-0.10958453,-0.22319709,-0.12903333,-0.32660392,-0.5986277,-0.22553976,0.084588476,0.086485334,0.076052666,0.31436995,-0.1168877,-1.861729,0.050276972,-0.073432945,-0.2402868,-0.16365387,0.09585872,0.30768624,0.099351786,0.08856751,0.11550871,-0.42373973,-0.1994068,-0.15458652,0.068155035,0.06258009,0.045462694,-0.30051485,-0.4141274,0.01817651,-0.1779228,-0.13730969,-0.24888173,0.03231942,-0.13627782,-0.29789665,0.112631805,0.1645068,-0.6303862,-0.11117894,-0.28311458,0.1501972,-0.24400188,-0.082806766,0.032046206,-0.14759524,-0.23505504,-0.73984563,0.21849631,-0.1634702,-0.16090044,-0.106762156,-0.09568398,-0.19740945,-0.14089127,-0.08352822,-0.09928729,0.17665178,-0.21593451,-0.47206223,0.054068968,-0.14816087,-0.28121093,-0.1744884,-0.5325053,0.3748122,-0.20588277,-0.038632434,-0.047588516,-0.118751355,-0.5724064,-0.5620387,-0.019515323,0.053405188,-0.46953067,0.08623165,0.06557811,0.20826314,0.049925953,0.004751156,0.3549307,0.05600591,-0.7029956,-0.22569537,-0.4115134,-0.16340354,0.021929571,-0.10476383,-0.35850954,0.047568157,-0.025441865,-0.06083677,-0.0834925,0.35479236,-0.051895633
20,-0.09006308,0.19962004,-0.0068688556,0.18601155,-0.04125661,0.0765563,0.10284085,-0.00876785,-0.17114884,0.14971001,-0.25808862,0.011109917,0.026118629,0.004647268,0.19434151,-0.23341309,0.0119841555,0.20852928,0.12741353,0.040251773,-0.4031984,-0.10184976,-0.08105834,-0.42889482,-0.17755614,0.14101408,-0.07396604,-0.09479673,-0.028081357,-0.21146892,-0.39305824,0.056251895,-0.28196156,0.40693223,0.06710716,0.22934392,0.12877318,0.030108673,0.10623675,0.00017399191,-0.19862573,-0.09022028,-0.056870308,-0.053170174,-0.0640946,0.16442251,-0.019414296,0.07989561,-0.086399905,-0.11809147,-0.24307807,-0.16754094,0.022918662,0.057072457,-0.060846142,0.46878135,0.08131064,-0.008020373,-0.18557388,0.0069592637,0.18879174,0.0035435117,0.092187285,0.131805,-0.14252394,0.17107442,-0.3513124,-0.106504194,-0.097065285,-0.25698388,0.35726854,-0.100466,-0.10688306,0.13844773,0.2226325,0.02315303,-0.10029644,0.2578428,-0.012817875,-0.042992163,0.0027672534,-0.062431287,-0.06366911,0.14509171,0.03561501,-0.008972869,-0.42781627,-0.35923004,-0.02393091,0.092385806,0.0682154,-0.1938064,-0.022108195,0.00077966903,-0.39902216,-0.07124485,-0.41262168,-0.39859426,0.24147217,-0.39421687,0.0944955,-0.10448341,0.16471487,-0.069481686,0.06556689,-0.15671904,0.112675935,0.016154341,-0.18637595,-0.005312532,0.18838134,-0.5336921,0.011888542,-0.109695524,-0.2098779,0.061264955,0.12731363,-0.062459458,-0.2929139,0.080240615,-0.041273873,-0.103961356,0.1461281,-0.05033318,0.0629163,0.026481,-0.3987367,0.11032595
21,0.05951247,-0.025801193,0.0018190083,-0.08027828,-0.07011379,-0.082081296,0.10023157,-0.18228589,-0.13637738,0.1821137,0.057785846,-0.02539476,-0.14666522,-0.042541686,0.084745094,-0.07644914,-0.039290383,-0.1100688,0.0037164164,0.30255556,-0.19678628,-0.25495583,-0.0043845573,-0.18843588,-0.019171825,-0.16687034,-0.25948685,-0.29202232,0.05165814,0.10069306,-0.15876,-0.47593144,-0.07032005,-0.1706527,0.00483544,0.047422204,0.023149205,0.12421638,0.10568259,0.06630031,0.060138904,-0.15602864,0.0011860081,-0.18689431,0.053532653,-0.013078455,-0.11208903,-0.038753726,0.16869025,0.014700298,0.08263868,0.21604304,0.062866576,0.1000869,-0.16748638,0.0061533037,0.11067069,-0.16452968,0.076967075,-0.007528939,0.027523236,-0.2723719,-0.04009693,0.113024965,-0.12828773,-0.23020712,-0.02797052,-0.10833087,-0.25627783,0.020153195,0.028232675,-0.13172413,-0.15867491,-0.12587811,0.09096977,-0.2618217,-0.025378535,-0.07469422,-0.06588363,-0.12958793,-0.2313842,-0.17432168,-0.059730083,-0.14021522,-0.054453388,-0.17478557,0.029910197,-0.28101704,-0.15071954,-0.05693047,0.029401483,-0.1713147,-0.10477655,-0.012395884,-0.062686935,-0.29490963,-0.0981638,-0.08431213,-0.08817018,-0.033369042,-0.06971175,-0.16318241,0.14962195,0.1787419,-0.1928456,-0.20407638,0.07011622,0.04994176,0.01058671,-0.14283021,0.008050544,-0.035321042,-0.08262652,-0.26635054,0.053402465,0.013998628,0.2031286,0.0543448,-0.12339341,0.06565171,-0.10162067,-0.025576599,0.148251,-0.1331183,-0.0062496294,0.052200567,-0.065963,0.17071386
22,-0.005565132,-0.15883937,-0.2640207,-0.023596395,0.10264458,-0.08304399,-0.12019028,-0.17582756,-0.10622591,0.052855466,-0.0949863,0.09407793,-0.13159317,0.06260137,0.070186764,-0.23332216,0.05349601,0.0021570674,-0.21602154,0.042105496,-0.08344037,0.067977294,0.038043402,-0.015014809,-0.14286762,-0.06229135,-0.2876603,-0.11045912,-0.119575106,0.0133672375,-0.021616954,-0.16067325,-0.23916803,-0.10045555,-0.05787336,-0.067154996,-0.09150618,-0.13243924,-0.13206215,-0.068011805,-0.21726334,-0.19761693,-0.19126773,-0.16527027,0.11366328,-0.14237693,-0.35872823,0.051515985,-0.0991883,-0.1071511,-0.10228358,-0.09434222,0.025232853,-0.16929889,-0.025006266,-0.050000645,-0.19829449,-0.08058359,-0.063518964,-0.069937505,0.08621363,-0.06553037,0.068653904,-0.19124727,-0.27533534,-0.17472412,-0.10084414,-0.07798033,-0.08260551,-0.13838926,-0.043533012,-0.360863,-0.09252235,-0.10382393,-0.157216,-0.049659204,-0.16780555,-0.28923917,0.03324707,-0.02231968,0.06674136,-0.13131942,-0.027621703,-0.08409899,-0.20375404,-0.22044602,-0.319818,0.022480058,0.15629587,-0.03574528,-0.20260032,-0.14388569,-0.30955043,-0.12878366,-0.28551054,0.04117075,-0.02255603,-0.0069049704,-0.11654267,-0.17605413,0.09901119,-0.17480157,0.1343359,-0.17427534,-0.11248404,-0.127602,-0.044095416,-0.3163593,-0.11132913,-0.039884258,-0.026131453,-0.17553349,0.035135306,-0.070703484,-0.10351198,0.041993335,-0.10951282,-0.23669586,-0.23103307,0.015494745,-0.2608133,-0.20509456,-0.0558243,0.050921097,-0.17264456,-0.108885646,0.08333516,-0.25941077
23,-0.22634692,-0.2275502,-0.31267938,-0.46268582,-0.20721756,0.052567005,0.16937533,-0.13715102,-0.26716012,-0.0146596525,-0.28567383,0.11751942,-0.1874352,-0.24225922,0.049346436,-0.3867325,-0.15429018,-0.56433225,-0.1101021,0.054971583,-0.20258304,-0.091546044,0.03928607,0.1650746,-0.26057023,-0.24975033,0.4259843,-0.52563274,-0.059039727,-0.12300912,0.023440162,0.026296536,0.77555496,0.13744631,-0.13483416,-0.2045741,-0.026277468,-0.3376818,-0.19667923,0.07832173,-0.13943844,-0.052820038,-0.69331086,-0.05514468,-0.99745685,0.35091993,-0.6145664,0.09965207,0.18555804,-0.07639133,-0.20185639,-0.023129912,-0.12533483,-0.127736,0.0794788,-0.03021914,0.31207952,-0.16374287,-0.11216423,-0.33358666,-0.076026104,-0.3838362,0.014962094,-0.017563466,-0.15472023,-0.22787319,-0.26988196,-0.19610758,-0.1775254,-0.1612116,-0.020006236,-0.4619123,0.063565314,-0.18738241,-0.07692215,-0.0942885,-0.24442783,-0.3110549,-0.36768952,-0.19281913,-0.27074823,-0.40537092,-0.06812573,-0.12926213,0.014733197,-0.08608104,0.37792456,-0.20555717,-0.09348211,-0.043417145,0.10080268,-0.10190476,-0.36084393,-0.044451118,-0.14508636,-0.047295157,0.36146024,0.56301796,-0.034596127,-0.6659318,-0.12090288,-0.12821293,-0.0036349776,-0.51984507,-0.36254153,-0.3039697,-0.16372345,-0.31009358,-0.062383495,-0.014896947,0.13260089,-0.48241636,-0.29388258,-0.3122589,-0.021108309,0.031874884,-0.026225206,-0.2848925,-0.6078808,-0.15089504,-0.34626514,-0.31101698,-0.38097873,-0.15591502,-0.5220041,-0.09302853,0.9291428,-0.055395693
24,0.36112115,0.06445748,-0.063622996,-0.28682807,0.091059215,0.010678916,0.13827768,-0.20571399,-0.16186917,0.15452974,-0.034356885,-0.16909999,0.043928724,0.317734,0.106696986,-0.00562172,0.13166955,0.9760122,0.2323295,-0.14027607,-0.24484833,0.084279254,-0.010316519,0.13855574,-0.07687304,-0.29675812,-0.1738286,0.049373727,-0.03573181,-0.92906964,0.12075016,-0.32012787,0.19372085,0.02082444,-0.12991354,-0.027067786,0.009421844,-0.595128,-0.018369917,0.16215219,0.026653837,0.054408018,0.22334407,-0.18444797,-0.01853229,0.15317427,-0.12705259,-0.014444991,0.19423386,0.04622642,-0.8174963,-0.7547319,0.13394815,0.2201778,0.11001101,0.24392739,-0.31589612,-0.10223292,0.02377836,-0.019233193,0.05001635,-0.25452384,-0.07447935,-0.26574558,0.17402883,0.29347256,-1.035917,-0.037147146,-0.012330885,-0.4304552,-0.24643044,0.3500212,-0.23005465,0.17413941,0.09203469,-0.016350543,-0.26400718,-0.17320533,-0.0070579443,-0.11901578,-0.0050887954,-0.08834314,-0.06235317,-0.054092374,0.056291256,-0.010971605,-0.2494499,-0.17943574,-0.18844067,-0.78976756,-0.14813693,0.090061605,-0.11676277,-0.01343422,-0.67573005,-0.43754575,-0.24420722,-0.031772718,-0.77721196,-0.08735665,-0.026257426,-0.20546931,-0.08029895,0.4808415,-0.19890837,-0.9849565,-0.119244024,-0.025657268,0.043545134,-0.1530529,-0.04840916,0.21070476,-0.34004515,0.023733929,-0.11792331,-0.13972427,-0.10476881,-0.03737249,-0.33349165,0.15871666,0.40496534,-0.33205342,0.018363975,0.22227237,-0.17033896,-0.1549559,-0.112469696,0.12705123
25,-0.54781747,0.06387845,0.5518713,-0.055167947,-0.043303963,0.22039577,0.086138345,-0.08616429,0.024998259,0.024538746,0.117332615,-0.2255178,0.116576076,0.3252627,0.015181952,-0.46237788,-0.136841,-0.27657786,-0.04303853,0.19722539,-0.148664,0.12415378,-0.07744465,-0.2649686,0.16914108,-0.12649018,-0.2709808,-0.06200096,-0.28905493,0.03976485,0.09203044,-0.08039923,-0.27239668,0.77367306,0.1685638,0.21806875,0.023852132,0.2728884,0.029195998,-0.04343012,-0.019130178,0.19407451,0.052158527,-0.10752451,0.112239055,-0.05057926,-0.19036543,-0.21600316,0.02505104,-0.027961224,0.54069763,0.22774443,0.16241238,0.26285836,-0.18259937,-0.12772743,0.031413436,0.067149565,-0.03349648,-0.048163284,-0.15344536,0.07084249,0.10764733,-0.13917363,-0.071131214,0.37395698,0.34983334,0.23413596,0.23358901,0.21543764,0.42372972,-0.20441678,-0.0017972542,-0.24263452,-0.20687534,0.11773923,-0.019575467,0.06509754,-0.049099285,-0.018325297,0.042458862,0.03625437,0.16648354,0.088575706,-0.10309097,-0.04204866,-0.16392078,-0.16790326,-0.24947445,-0.0013623876,0.17386352,-0.15087141,-0.09795446,0.039693642,0.21289437,-0.25267005,-0.19446474,-0.21514076,0.26415542,-0.24703841,-0.20017374,-0.18551295,-0.13381134,-0.043508705,0.1355383,-0.18697265,0.0012538834,0.102028996,0.070352696,0.37468672,0.002069537,0.25893468,-0.23686203,0.2964624,0.10259449,-0.20426954,-0.120651916,0.069006175,-0.46650317,0.30165952,-0.3024083,0.494686,-0.029557467,-0.22223918,-0.23938002,-0.030029744,-0.52123606,0.065573566
26,-0.056632668,-0.18233871,-0.22553399,-0.6217937,0.08250892,-0.07536362,0.087980114,0.025652675,0.1113942,-0.1900641,-0.035113677,-0.113312356,-0.4213379,-0.2940646,0.18082684,-0.5419021,0.17428643,-0.28124598,0.09751578,-0.28561643,-0.14702986,0.18073691,0.0034232885,0.6529673,-0.15038978,-0.12119404,0.33988857,-0.10014615,-0.26099893,-0.29118437,-0.090182506,0.44717708,0.51374084,0.395071,0.061405543,0.07114192,-0.24423076,-0.24156418,0.018214615,-0.20417388,-0.13601258,-0.21743391,-0.6727752,-0.0105838105,-0.85824585,0.36113408,-0.35670882,-0.031883672,-0.08654344,-0.049961288,-0.11842061,-0.2422486,-0.019846115,0.15342323,0.42133602,0.03371691,-0.18948032,0.043474015,0.05895057,-0.07287786,-0.39877772,-0.3577864,0.07709474,-0.19286224,0.053140808,-0.03137499,-0.25412947,-0.2593209,-0.1831066,-0.2691219,-0.27391136,-0.45256802,0.07245396,-0.100172274,0.038511705,-0.11419607,-0.1900607,-0.2850321,-0.35835478,0.13884154,-0.26988372,-0.34170517,-0.19284585,-0.031047273,-0.12566823,-0.12316505,0.4456729,-0.11443637,-0.029325794,0.2117147,-0.18415968,-0.21990784,-0.6356813,0.03426975,-0.22073783,0.042345867,0.34801075,0.2750943,-0.14533743,-0.2745065,0.12136368,0.0026877015,-0.1427078,-0.6096441,-0.1645844,-0.4334575,-0.025272764,-0.18119492,0.06954741,-0.29224607,0.041034907,-0.45450324,-0.03548911,-0.15443657,-0.12827706,-0.1742503,-0.20716147,-0.423069,-0.62896043,0.60287136,-0.43361667,-0.123856366,-0.21045725,0.3642385,-0.42670202,-0.0063325115,0.7564305,-0.043733194
27,-0.24562483,0.107944846,0.02183322,-0.22878766,-0.11171517,-0.087303944,0.10611872,-0.22259042,-0.11900642,-0.07665234,0.18514362,-0.045330342,0.28085583,0.17162283,-0.025599683,0.16829027,-0.018713249,-0.12983038,-0.008122288,-0.062144127,0.008151274,0.08349381,-0.08816513,-0.68304,0.3406925,0.4154905,-0.3039702,-0.16874716,-0.24739073,-0.4275982,-0.07041559,0.022829171,-0.08326468,-0.46199226,-0.035466857,-0.2847047,-0.030161975,-0.32374933,-0.16503547,-0.104118414,-0.07831158,-0.031038102,-0.09877648,0.08298266,-0.1809775,-0.03567304,-0.25129113,-0.028637262,0.14449355,0.107021175,0.0039771246,-0.03278285,0.026322639,-0.14595327,-0.14128485,0.61035407,-0.3245472,-0.64765906,-0.046144668,0.033082306,0.21227208,-0.09004131,-0.246638,0.21793239,0.04578039,0.04537223,0.040578373,-0.13296296,-0.18077089,0.1477246,-0.059812803,0.6060967,-0.13740917,0.1059615,-0.049730025,-0.25465044,-0.1723819,-0.24267139,0.17409465,-0.1419918,0.1578092,0.10041838,0.13953312,0.34183365,0.29995692,-0.14949657,-0.6201431,-0.20578657,-0.22102615,-0.72158056,0.083746776,0.09736477,0.5961612,0.062141053,-0.37808722,-0.120564975,-0.49074677,-0.5384595,-0.2457427,0.15592323,0.034340657,0.09079355,-0.25241774,-0.09758895,-0.09006263,-0.30173054,-0.099296734,0.12544584,0.015151083,-0.13494472,-0.056052513,0.13170426,0.21662222,-0.0069356645,0.2660814,0.10138199,0.06455164,0.71439785,-0.50271803,-0.23210035,0.24265675,-0.46163088,-0.16426416,0.032115996,0.20772776,0.27340698,-1.7495302,-0.11469596
28,0.14163828,-0.016075337,0.18374665,-0.079776786,0.05054595,-0.15145673,-0.0026287406,-0.09865058,0.027001133,-0.14433257,0.094049,-0.20733353,-0.13464376,0.09573108,-0.044453625,-0.22053127,-0.0463751,0.11155287,-0.02030806,-0.115507804,-0.008431875,0.1336143,-0.19953382,-0.38970482,-0.03278512,-0.4505731,0.111540735,-0.31684402,-0.9410447,-0.13378821,-0.0069060726,-0.3339527,-0.29188833,-0.19229795,0.060896832,0.15095046,-0.26744324,-0.37985376,-0.20500775,0.012086138,-0.0341196,-0.14396264,0.42065552,-0.23953642,0.1696618,-0.010473672,-0.089071065,-0.15746051,0.06524422,-0.21601224,0.08623928,0.22582792,-0.11535964,-0.07349777,-0.16880742,0.32640916,-0.49553266,-0.122635886,-0.03764817,-0.08727551,-0.3443513,-0.034964986,0.0054920786,0.38285622,-0.22655326,-0.23299754,0.088866025,0.110134356,-0.08826732,-0.19540526,0.31474084,-0.24481866,0.036909785,0.028883101,-0.1857271,0.032945823,0.016050186,-0.15453272,-0.18708408,-0.13311218,-0.20458739,-0.418974,-0.22100051,0.14130138,0.052245326,-0.17072336,-0.2742816,-0.19203173,-0.20913197,-0.18382765,-0.022162266,-0.08192741,-0.107905954,-0.101347715,-0.016004091,0.37788707,-0.28289574,-0.34105474,-0.20156686,-0.38488463,-0.21987703,0.03249455,-0.23871623,0.27816898,-0.32201132,-0.0084358165,-0.045334816,-0.18332817,-0.13260333,0.12550801,0.06472335,-0.0331985,-0.17468524,0.15203221,0.062478278,-0.15797928,-0.117794365,-0.29811886,-0.09679242,-0.06731728,-0.09350506,-0.058803543,0.05253072,-0.23998386,0.07608086,0.14021648,-0.3006882,-0.17450617
29,-0.43046907,0.09804578,-0.2769629,0.02749313,-0.0042740162,-0.16687346,-0.003278569,-0.16394946,-0.18294695,0.015928883,-0.2624431,-0.063561775,-0.08509491,-1.4611969,-0.12759185,0.5181646,0.1813101,-0.21332596,0.026190422,-0.11164986,-0.16011335,-0.1445508,-0.21253099,0.14270076,-0.08577614,-0.14650266,-0.11212453,-0.11833215,-0.11918329,0.06478171,-0.29958162,-0.99100953,-0.9187053,-0.14897153,0.41713107,-0.22927515,0.106328554,-0.0076547386,-0.19516084,-0.07048902,-0.21045318,-0.035547886,-0.031815667,-0.12714705,-0.5181111,0.01808823,0.08256562,-0.08420842,-0.3045137,-0.12078265,-0.16904636,-0.18384255,-0.023795774,0.018962579,-0.34455118,-0.19248068,-0.14643505,-0.21336119,-0.16507603,-0.16530414,-0.1226436,-0.38286462,-0.014577343,0.15484777,-0.16780776,-0.29670787,-0.06577567,0.010466612,-0.04607033,0.010079303,-0.30810532,0.16262972,-0.03564117,0.025655232,-0.08433555,0.01982474,-0.20701902,0.24735065,0.38699645,-0.07782492,-1.1200951,-0.06791575,-0.111388996,-0.028542181,0.069750816,-0.18793993,-0.13689859,-0.32218805,0.13433751,-0.08672592,0.09772843,-0.07295161,0.043970972,0.041670196,0.057077948,0.13634938,0.020734752,-0.32080597,-0.09467708,0.5432804,0.050227292,0.13824841,0.35056427,-0.13101053,-0.47641167,-0.3023436,0.062890634,0.17391716,0.02570881,-0.04171464,0.044292215,-0.21918263,0.13013172,-0.24790736,-0.21934043,-0.30268764,-0.0035149571,0.059789665,0.47212622,-0.19241297,0.3757037,-0.02684916,-0.08716753,-0.2531012,-0.06976166,0.11163058,0.18913256,-0.01282044
30,0.35117885,-0.06568686,-0.3142513,0.06208322,0.20729934,-0.22032276,0.15678324,0.0808236,0.33990797,0.06662446,-0.25461757,-0.059319593,-0.22679137,-0.011980811,0.14019826,-0.33645472,-0.026069785,0.51632667,-0.05133889,0.035339363,-0.080094405,0.10494106,-0.22207737,0.23451708,0.6713254,-0.76346976,-0.2466741,-0.18031995,-0.09006568,-0.08162284,0.06873795,0.35854366,-0.037727784,-0.092066936,-0.2727237,-0.3318718,-0.3636446,-0.55106765,-0.18685393,0.19153814,-0.09562962,0.007211317,-0.5089794,-0.11929305,-0.49858096,-0.3325101,-0.051818945,-0.23952124,-0.052732315,0.11975691,0.024459932,0.019019352,-0.19462897,-0.2847456,0.03184255,0.13229182,-0.313656,-0.18435676,-0.10936754,0.08181082,-0.35451594,-0.11546643,0.017740041,-1.1942209,-0.17204241,-0.40202945,-0.3584322,-0.036808994,-0.8383725,-0.38034865,-0.2817765,-0.56379735,0.02437802,-0.06448391,-0.025025953,-0.3502272,0.27724093,-0.16611582,-0.6351616,-0.08255852,-0.46758068,0.034112535,-0.19561368,-0.22665493,-0.5421226,-0.07320316,-0.039502576,-0.14070182,-0.129088,-0.37234336,-0.05615317,-0.038608875,-0.83014256,0.09769105,-0.22431035,0.23806433,-0.14597404,-0.16335134,0.032868315,-0.45013353,-0.070656136,0.05769711,-0.29106066,-0.012567353,-0.31260613,0.2722963,-0.043324977,-0.20310318,-0.24577263,0.11580952,-0.009771164,0.10463257,-0.9553403,0.88922316,-0.4957863,0.35713503,0.086736485,-0.42442584,-0.5518462,-1.4693187,0.121505335,-0.20066075,-0.12283795,-0.51694393,-0.70211625,-0.044242427,-0.000100663434,-0.2632432
31,0.0037626468,-0.02509146,0.19735979,0.15086351,0.06491585,0.035199855,0.06847799,-0.19020875,-0.10930423,0.056906812,-0.30030847,0.05779635,0.06380578,-0.29905927,-0.21225424,-0.2966571,-0.08163463,-0.070355244,-0.24038638,0.37125525,0.4534513,-0.07588645,-0.06243604,0.28882447,0.23862903,-0.18276633,0.33678475,-0.2770591,-0.074981995,-0.15420236,0.2197413,0.2439483,0.10348068,0.19716509,-0.21997397,-0.010174923,-0.068421036,0.3578426,0.13590685,0.16384539,-0.12827246,0.047543876,-0.48153237,0.14317323,0.032902434,0.3874608,-0.7216907,-0.22378679,-0.34486875,-0.1516886,0.3922989,0.59255815,-0.021434758,-0.24737355,-0.018724691,0.38789952,-0.09237357,-0.048411224,-0.07787639,0.027782323,0.16677494,0.23289013,0.035605785,-0.1288229,-0.0920324,0.33148465,0.26902682,-0.15810984,-0.22413665,0.16883469,0.7563161,-0.78738374,-0.04000651,0.02861544,0.07275067,-0.11923352,0.40809524,0.18813677,-0.28928748,-0.17652643,-0.2950549,0.0118468255,0.447128,-0.059737526,-0.25838614,-0.23415783,-0.15081453,-0.41913477,0.019750064,-0.49846348,-0.044501185,-0.3088962,-0.2581537,-0.081577696,-0.56928045,-0.38436905,-0.2437344,-0.14949144,0.029542694,-0.55032665,0.054167405,-0.13100648,0.15080526,-0.46575785,0.2811464,-0.17109013,-0.15265162,-0.010953041,-0.038195737,0.042399053,0.053160917,-0.07378743,0.16943264,-0.5662221,0.09132491,-0.03289171,-0.089605786,-0.27794668,0.1253351,0.25576457,-0.965614,-0.29683387,0.08330331,-0.040287774,-0.52900267,-0.23305926,0.2226274,-0.076558605
32,0.2195501,-0.102607675,-0.88060325,-0.5748434,0.11634048,-0.115983255,0.08964073,-0.19916096,-0.09607384,-0.07420286,-0.13017125,-0.08474789,-0.411249,0.8850243,-0.08485912,-0.35855126,0.037505906,-0.59981036,-0.05077037,-0.108351134,-0.4304853,0.065812945,-0.004002748,0.35243794,-0.49433252,-0.52241266,0.122537605,-0.5573181,0.09359525,-0.12589271,-0.08617422,0.006714021,0.65895945,-0.5280734,-0.119908825,-0.031990916,-0.20589906,-0.377197,-0.09668332,0.091615096,-0.018220501,-0.24454273,-0.13049163,-0.19580299,0.3811559,0.51205903,-0.65513,0.0727424,-0.10708067,-0.07964455,-0.41663906,-0.17422433,0.12246973,-0.044488467,0.37984172,-0.07918703,-0.21400377,-0.100214206,0.12887186,0.039758693,-0.5254694,-0.0766555,0.0031654206,-0.25389057,-0.037175257,-0.31207865,-0.1844162,0.0058402233,-0.15754884,-0.19854973,-0.8172297,-0.5534183,-0.10341896,0.04067351,-0.19063653,-0.14823306,-0.30182594,-0.5143493,-0.288059,0.04687548,0.42928484,-0.02005835,-0.32566148,0.008649536,-0.13322714,-0.15606342,0.4143179,-0.032465607,-0.08947962,-0.084157035,-0.02336873,-0.16655158,-0.64386815,-0.17290014,-0.36087316,0.06933014,0.12743919,0.60734385,0.03305449,-0.68792003,-0.08572677,-0.2747104,0.091891214,-0.54606116,-0.446035,-0.36737022,0.07744067,-0.1697352,-0.20818403,-0.23650841,-0.29035148,-0.489136,-0.2703235,-0.6123319,-0.25538275,-0.51701427,0.027046937,-0.72504014,-0.29642665,0.16023849,-0.4491435,-0.121359944,-0.14851098,0.58467823,-0.5377275,-0.35371906,-0.017752295,0.07351849
33,0.26998815,-0.10391757,-0.020349145,-0.19713531,-0.08476951,-0.29917967,-0.13888745,0.0022736227,-0.20859048,-0.2890295,-0.148596,0.110883094,-0.009808912,-0.03823572,-0.23657668,0.08616139,-0.28109822,-0.03655062,0.03203613,-0.10188047,-0.07585603,0.06902513,-0.027741414,0.1340863,-0.013669419,-0.2231309,0.36750486,0.08042662,-0.31097856,-0.15366776,-1.2223817,-0.43747592,-0.82496196,0.26779404,0.06769582,0.10826008,-0.2940849,0.025774704,-0.13413967,-0.16169515,0.086805835,-0.10218942,0.3822231,0.009274016,-0.07107966,-0.3689902,0.15624914,-0.13925782,-0.10934576,-0.11544841,-0.33608803,-0.44545117,-0.16079672,-0.09616275,-0.037100933,0.33496356,-0.14852749,0.54834414,-0.027818099,0.04465277,-0.37508965,-0.036424216,-0.13912505,0.19837178,-0.086938195,0.3984586,0.19981043,-0.23275888,0.27681842,-0.3347598,-0.16877729,0.0885871,0.0419494,-0.13428013,-0.081558555,-0.14772964,0.06796008,-0.17886978,-0.17931826,-0.07190355,-0.37301534,-0.26098034,-0.1418878,0.18254572,-0.034169126,-0.11665083,0.4180095,-0.16883656,-0.25485662,-0.07990819,-0.23641957,-0.11416816,0.038749687,-0.011137902,-0.17456819,-0.7412527,0.6792089,0.04924086,-0.1471355,-0.18767428,0.12943484,0.31282473,0.05613793,-0.3266624,-0.11694928,-0.41086215,-0.017239826,-0.14427356,0.036688056,0.10840954,-0.1271743,-0.08630011,-0.29409128,0.24891964,0.037792288,0.16082956,-0.09543129,-0.1925553,0.06339124,0.07119111,-0.16188209,-0.039373234,-0.015391604,-0.2644249,-0.26945937,-0.11729995,1.4916536,-0.06948315
34,0.22371355,-0.06496774,-0.019836826,0.033168193,-0.06726956,0.26990375,-0.051031664,-0.15061091,0.0024129376,0.018492438,0.19022807,-0.05694582,0.087365195,0.10147055,-0.028475419,-0.14664637,0.044580694,-0.2318251,0.13485123,0.21710166,-0.07494954,-0.03866775,0.10971114,0.2549407,-0.011689127,-0.078658044,0.04865148,-0.049016908,-0.0075860796,-0.04632687,-0.15148376,-0.13691254,-0.18536907,0.5056351,-0.18201664,-0.19165294,0.16428193,0.27848056,0.19759694,0.054997582,0.024174305,-0.06563132,-0.18656278,-0.005795032,0.32432336,-0.062432356,-0.48487025,-0.105336025,0.32566983,-0.078881286,-0.22849438,-0.7891109,-0.09468604,0.30284572,-0.026398819,-0.2950619,-0.12738979,0.18662181,0.12831019,-0.12475644,0.00820688,-0.12614723,0.014528243,-0.17697506,-0.08954943,0.47055832,0.041194465,0.12632258,0.04423037,0.2025944,-0.12684399,0.26537326,-0.2679077,-0.020454273,0.04414968,-0.13745244,-0.04270159,-0.019230703,0.083918326,-0.0010846694,0.17296262,-0.19572766,-0.00047241026,-0.14973406,-0.34675333,-0.0005550769,0.33532897,-0.15562505,0.11629602,-0.057157073,0.19069321,-0.055570528,0.39282426,0.042513307,0.11701861,-0.1976398,0.2309564,0.2124802,-0.6999288,0.23133974,-0.17729372,-0.20842203,-0.26004937,0.19922385,-0.048598316,-0.39778748,0.14086919,0.17686191,0.04411068,0.123709,0.022841059,-0.031242449,0.19304562,-0.07751511,-0.04566196,0.017683422,-0.412105,0.16134262,-0.0687118,0.21618553,-0.23617567,0.41537002,0.15999904,0.32266337,-0.44518906,0.3452578,-0.034734398,0.0018849901
35,-0.042828687,-0.090644345,-0.18530579,-0.052227285,-0.068028495,0.010590643,0.20450038,-0.12866762,0.104172796,-0.059608307,-0.051498022,0.11440027,-0.04750252,-0.043411266,-0.1306777,-0.10859127,0.18879642,0.041638907,-0.052057005,0.23803085,-0.04218652,0.03127282,0.08176045,0.119145356,-0.016971586,-0.098364465,-0.102878384,-0.006295752,0.03707174,0.061355278,-0.005113992,-0.07841837,-0.06294223,0.07874892,-0.1372714,-0.09969651,-0.28306755,0.14321762,0.00834687,0.13138436,-0.1201337,-0.13259064,-0.47596583,-0.1124501,-0.10258051,-0.052018367,-0.13776931,-0.08107206,-0.02160518,-0.02010141,-0.11325977,-0.14853866,-0.020403339,0.09898386,0.010263123,0.012631386,0.16008814,-0.16615711,-0.08561957,0.056828123,-0.021774584,-0.1499908,-0.12471206,-0.10240431,0.1260458,0.20796491,0.02966615,0.022245534,-0.23452936,-0.12005281,0.073114134,-0.26129368,-0.14547688,-0.033288393,0.11456565,-0.1719931,0.060373038,-0.22284098,-0.45399123,-0.03984579,-0.036156658,-0.28449893,0.053979807,-0.13325377,-0.19997445,-0.14192602,-0.26424363,-0.011335207,-0.04370943,-0.16727838,0.0044155805,0.042748604,-0.2803331,-0.07136426,-0.076466635,-0.14113635,-0.05516915,-0.08280386,-0.28498352,-0.010964724,0.0077337804,-0.017688267,-0.017711025,0.2786965,-0.06310431,-0.08525307,-0.10400153,-0.15639831,-0.00605211,-0.003913309,0.2014446,0.014182937,-0.11364516,-0.17399909,0.0379564,-0.014782887,-0.06811561,-0.24821478,-0.36344695,0.15100184,-0.023023821,0.077929124,0.13704467,-0.08105826,-0.12301034,0.00040099185,0.08284534,0.040166836
36,0.47880164,-0.13762306,0.15223113,-0.1893812,-0.18234588,-0.044233587,0.060565945,-0.029492991,-0.24005698,-0.07870745,0.089824386,-0.04413906,0.034472324,-0.67642826,-0.08060314,0.11950009,-0.2645393,0.019958613,-0.014826152,0.91283774,-0.10585295,0.11990033,-0.120179854,-0.25534338,0.07180917,0.061031044,-0.31288466,0.043643627,-0.17739691,0.22665802,-0.0038834019,-0.5200374,-0.3567739,-0.11482495,0.14710937,0.08870115,-0.36494377,-0.49742758,-0.019083874,-0.007356781,0.08267689,-0.1702043,-0.092624955,-0.19259536,-1.0505772,-0.40173468,-0.5133836,-0.24913667,-0.073914446,-0.0025868576,0.2591092,0.47903967,-0.09645494,0.07681105,-0.34070158,-0.0023515532,-0.23651798,0.04252474,0.001238402,-0.0019390198,0.09336125,-0.25543365,-0.015509271,-0.05516474,-0.22009583,-1.4884921,0.3419401,0.20054738,0.06712801,0.027535453,0.4512943,-0.23520204,0.06637481,0.13575208,0.008228522,-0.012585054,-0.06477017,-0.050322033,0.3729144,-0.27348483,-0.3340449,-0.31506553,0.1668211,0.020123228,-0.051782336,-0.0568311,-0.19447824,-0.021594517,-0.083312444,0.080170736,-0.10427942,0.08786892,0.2528324,0.16577551,0.21350203,-0.1782042,-0.8649149,-0.503749,-0.020331463,-0.19320773,-0.11236799,-0.16229695,-0.26495877,0.050829265,0.04312834,-0.45318985,0.14578061,0.0647733,-0.093098156,0.16688436,-0.14539081,0.2097869,-0.10441485,0.24560581,0.2809188,-0.60599273,-0.038902376,-0.0059474832,0.12183628,-0.2715703,0.3232124,0.23292913,-0.21023732,-0.6207919,-0.4401293,-0.095038965,-1.1815125,-0.17155303
37,0.0695962,-0.13174216,0.00784565,0.11840331,-0.015023108,0.06841401,-0.14533575,-0.13268466,0.09442014,0.020373655,0.3037644,-0.18355757,-0.14444181,-1.3441441,-0.09839637,0.28144282,-0.16365798,-0.03883811,-0.009318257,-0.40696084,-0.099711105,-0.08713827,0.019187843,-0.1027475,-0.47576687,-0.10948206,-0.70575273,0.0209006,-0.31596938,-0.05044878,0.123871714,-1.2105072,-0.4724829,-0.3545147,0.37526637,-0.021984182,0.2572169,0.18321553,-0.09942174,0.058577765,-0.10890688,-0.05591688,-0.5476972,-0.21365964,-1.2087893,-0.3564593,-0.36116397,-0.33310536,-0.22836156,-0.0387819,-0.7124603,0.06967238,-0.3444143,0.16472618,-0.45749757,0.100409865,-0.4036208,0.2236265,0.08264044,0.016812155,0.099992186,-0.62804246,0.029702548,0.25091603,-0.281114,-0.29069045,0.45281228,-0.05984291,-0.520095,0.37611198,-0.41029295,0.011834031,0.014252208,-0.13384983,-7.9460074e-07,-0.010763197,-0.20617634,-0.1640929,0.08776301,-0.024238355,-1.2659683,-0.09662449,0.01720251,0.022052314,-0.77626073,-0.2641815,0.25689262,-0.21089089,-0.038242023,-0.233118,-0.0859489,-0.12875669,0.27828807,0.07729997,-0.06634907,0.32615402,0.41437054,0.38717845,-0.32893303,0.28362578,-0.015774049,0.19084296,-0.22076601,0.113870956,-0.38049275,0.25467038,0.07489362,0.430961,-0.12174028,-0.041971657,-0.14708082,0.17236267,0.2924375,-0.3287239,0.33851334,-0.08539048,0.18307482,0.17901818,-0.18930537,-0.46381152,-0.0645938,0.2764185,-0.35557178,-0.0019788686,0.0701102,0.085420415,0.18180408,-0.24266556
38,0.16425128,0.052364856,-0.0049871616,-0.107815385,0.0023056236,0.15844989,-0.057740677,-0.024656273,-0.099951014,0.0046188044,0.10924203,-0.22839116,-0.0887555,-0.09291289,0.058095198,-0.046374165,-0.05780114,-0.008871848,-0.051186193,-0.05485933,0.036573734,-0.16209106,0.05928568,-0.11002968,-0.2645334,-0.16390197,-0.18680231,-0.12535578,-0.004070346,0.05442553,0.06599215,-0.33177528,-0.2778944,-0.22578436,-0.13406242,-0.07205196,-0.24930874,0.17203128,-0.15095817,-0.024191374,-0.024345856,-0.08319647,-0.19429542,-0.108455986,-0.05373805,-0.15308373,-0.32524666,-0.11796962,0.15866093,0.07342173,-0.11043763,-0.17041403,-0.3192531,-0.11991265,-0.009846503,0.11032161,-0.093662865,-0.22688626,-0.002005872,-0.009049856,-0.23130536,-0.309302,0.13223289,0.12594324,-0.24757333,0.0346149,0.09574731,0.14999238,-0.053311333,0.00029693,0.19240342,-0.0007383043,-0.0022581555,0.0069853305,-0.039358266,-0.17899689,0.0049737236,-0.12725496,0.12258449,0.016791284,-0.14210667,-0.18391743,-0.112784356,0.05266202,-0.17221577,-0.028638868,-0.08837006,-0.093040675,0.0924724,-0.11465096,-0.08473796,-0.14253908,0.22720054,-0.056599997,-0.047689963,0.016933028,-0.29040512,-0.29832953,-0.103485405,-0.0072127883,0.036591243,-0.19312747,0.19515438,0.1210276,-0.1977052,0.010470435,0.06586145,-0.18113583,-0.19390842,0.14987674,0.04808572,0.12700652,-0.0836737,-0.28674755,-0.0005278931,0.26661432,0.08690656,-0.16307692,-0.3584845,-0.2950457,-0.31459153,0.21061635,-0.086100176,-0.05585377,-0.05816314,0.27037072,0.20098212,-0.11073277
39,0.054887082,-0.19218548,-0.3018461,-0.11913596,-0.21900441,0.03912667,0.021280495,-0.12313146,0.037351273,-0.16076452,-0.18240494,-0.24056232,0.027023703,0.073759615,-0.012177306,-0.077727474,-0.14483568,-0.014051709,-0.18788812,-0.038084958,-0.05418736,-0.099737994,0.040256657,0.010322225,0.0625433,-0.090737246,-0.23450707,-0.017460136,-0.23595884,-0.13160613,-0.25011313,-0.082736894,-0.1564379,-0.10113172,-0.16212787,-0.12401918,0.009999833,-0.101123266,-0.11595916,-0.16494115,0.049067102,-0.05631585,-0.27447042,-0.048898987,-0.1184463,-0.1709883,-0.080538675,-0.19827539,-0.07211468,-0.12832858,-0.24461447,-0.12089165,-0.066857174,-0.06592779,-0.07049711,-0.027556509,-0.18951531,0.047551308,0.04931395,0.054616883,-0.048287585,-0.16118823,-0.04860298,-0.12179343,-0.092017755,-0.16743456,-0.08816188,-0.14756624,0.061934814,-0.024869774,0.0006045812,-0.3894051,-0.17723787,0.039378542,-0.24355444,-0.0406765,-0.16825184,-0.18688424,0.02293224,-0.13221231,-0.38600242,-0.09033843,-0.19552615,-0.16829276,-0.17850327,-0.020514108,-0.031921662,-0.09110482,-0.0117666675,-0.15206975,-0.05182209,-0.1073355,-0.2146355,-0.18690972,-0.038172524,-0.13165623,-0.26819783,-0.30837017,-0.24854484,-0.12705915,-0.09337798,-0.10528761,0.19374545,-0.2155743,-0.037377544,-0.059541393,-0.037941743,-0.112996526,-0.1248954,-0.11916405,-0.13715366,-0.100420155,0.073538624,-0.012535531,-0.05810647,-0.024883645,0.08442261,-0.017852157,0.05988344,-0.15313193,0.04054204,-0.14014076,-0.17436501,-0.1830491,-0.18299085,-0.24934193,-0.116148084,-0.17283824
40,0.12173241,0.099949285,0.055642527,-0.17070577,0.11577438,0.092929356,-0.11392146,-0.08739571,0.01157494,-0.02614913,0.06197065,-0.04464031,0.0023329207,-0.017032705,0.13043317,-0.2863569,-0.012887709,-0.09786286,-0.026135184,-0.068170436,-0.046392772,0.12985092,0.009865377,-0.22888787,0.020911645,-0.19481431,-0.1832995,-0.270078,-0.01970863,-0.19261602,-0.022291986,0.08586397,-0.25573945,-0.3025269,-0.23251148,-0.05542958,-0.2352488,-0.26091358,0.11719148,0.07835226,-0.10852435,-0.20996268,-0.032490704,-0.15600248,-0.042183753,-0.33647412,-0.03685453,-0.14445807,-0.0445346,0.1693421,-0.16656965,-0.27882406,-0.015204579,-0.07490991,-0.1958275,-0.18347035,-0.051935006,-0.06944971,-0.09141196,-0.0693665,-0.07432133,-0.16238853,-0.09817607,-0.21702412,-0.04701886,0.05624629,-0.3753516,-0.064215764,-0.12742063,0.032222353,-0.089824826,-0.56566465,0.010023883,-0.080362014,-0.12336468,-0.16801465,-0.16164581,-0.06545613,-0.15601704,0.03391608,-0.09961724,0.1745536,-0.07899949,-0.081181765,-0.00941123,-0.031684253,-0.09394348,0.0006919853,-0.07433662,-0.092072405,-0.01333721,0.034448985,-0.03548506,-0.051175963,0.16163498,0.056635696,-0.355692,-0.28701857,-0.06148213,-0.25143534,-0.097890794,-0.17141509,0.024924757,-0.05325805,0.08658018,-0.12527147,-0.0032582243,-0.056409154,0.005166348,-0.059309028,-0.075870305,0.056298185,-0.116785236,0.0054173274,-0.26109922,0.05541856,0.03464271,-0.06247359,-0.27505195,-0.049223714,-0.3956412,-0.104952015,0.074427955,-0.1633888,-0.14052787,-0.10082035,-0.04031793,0.07784341
41,-0.044999275,-0.07707772,-0.061670497,-0.030635394,-0.14254081,0.10132093,0.019983336,0.059435964,0.061603557,-0.070507094,-0.090737775,-0.21579899,0.07792222,-0.23856221,-0.015689207,-0.3026164,0.046241727,-0.16110025,-0.010548254,-0.097386435,-0.081064485,0.05569677,-0.23694071,-0.017023098,0.2040324,-0.070586145,-0.15076326,-0.18552193,0.022408534,-0.15432252,0.0026082327,-0.06899491,-0.3163602,-0.24651451,-0.28295556,-0.26039907,-0.005153375,-0.06860797,0.053706463,-0.17753832,-0.07365919,-0.38993666,-0.51565653,-0.11103826,-0.7407338,-0.17290933,0.07418905,0.019913446,-0.12911162,0.123441555,-0.14453645,-0.0208196,0.16571729,0.06991031,-0.06657681,0.100720756,0.039159648,-0.15613721,0.074344866,-0.089452185,0.12781698,-0.0465241,0.020639254,-0.01697497,-0.19743375,-0.17578676,-0.13828368,0.049885776,-0.07554933,0.09516152,-0.22990584,-0.3254783,-0.07886826,0.06998481,-0.15306783,-0.10952418,-0.197908,-0.111181885,0.04901903,0.12812074,-0.41059193,-0.10495639,-0.14409503,-0.16559154,-0.17316155,-0.066694275,0.0028904623,0.034197252,-0.096883975,-0.21308918,0.09525447,-0.082379356,-0.12900227,-0.018711805,-0.09678766,-0.10705629,0.02816001,0.0026808442,-0.03638639,0.042470418,-0.21952255,0.10590225,-0.055819184,-0.3363941,-0.12363465,-0.1793469,0.084011294,0.17550853,-0.09608338,-0.3389275,-0.11384316,-0.09677783,0.003754341,0.09147071,0.027531078,-0.08509742,0.16155086,0.011930885,-0.27199146,-0.12451624,-0.14188303,0.06909374,-0.022498699,-0.054572694,0.041335925,-0.21467057,-0.12013379,-0.25659636
42,-0.47959128,-0.05686676,0.1030474,-0.37291434,-0.09522981,-0.1995884,0.06264358,-0.38052043,-0.20814148,0.008886167,0.14374843,-0.12619641,-0.06345594,0.6059243,-0.22595464,0.05348618,0.013727039,0.07308971,-0.20619968,-0.1076986,-0.5998911,-0.12498942,-0.17177,-0.025936626,-0.29461822,-0.18106027,-0.589489,0.22336082,-0.5844889,0.15184258,-0.39785057,0.18449366,0.5517876,-1.1779101,-0.7118421,-0.09847991,-0.45786318,-0.5880125,-0.29535714,-0.09497892,0.038821425,-0.12744015,-0.46996802,-0.21741179,0.3670236,-0.3317174,0.09522661,-0.24024236,0.07733966,-0.15804254,0.19028251,0.19981448,-0.112789735,-0.55446714,0.20497714,0.6312662,-0.30175653,-0.79728335,-0.14756864,-0.16903867,0.2869131,1.0472164,-0.12784846,-0.24149187,-0.13956678,-0.4899106,-0.0023510042,-0.23211683,-0.14174516,0.00773921,0.19410677,0.37343168,-0.050741192,-0.010914641,0.03825318,-0.25050676,-0.07547781,-0.4874619,0.31481227,0.036680877,1.0129195,0.43436468,0.15874168,-0.3684121,-0.15764455,-0.06264936,0.2615684,0.09130577,-0.18235013,0.1599926,-0.020345926,0.033317205,0.122180216,-0.08961659,-0.28902948,-1.3708779,0.22062463,0.33626702,-0.10880907,-0.37093037,-0.013513803,-0.4398068,-0.015763089,-0.76639205,0.23199694,-0.69795185,-0.19143091,-0.36052662,-0.28826812,-0.05712969,-0.17289047,0.180454,-0.059635527,-0.8447482,0.2482825,-0.46722758,-0.25691435,-0.25250703,-0.088551156,-0.4629228,-0.42746723,-0.5130314,-0.15850964,-0.3564299,0.024234245,-0.059930157,-0.97995687,-0.071390465
43,-0.111805975,0.06664771,-0.28010073,-0.30960795,-0.017863255,0.09973265,-0.078380175,0.11719418,-0.029478798,0.08999274,-0.42841256,-0.10671545,-0.11496679,-0.10110581,-0.10287928,-0.20202419,0.066261,-0.11269022,-0.050932843,-0.052185062,0.17657118,-0.023016375,0.030583605,-0.22602014,-0.27261278,-0.34041607,-0.21123789,-0.107873686,-0.18461931,-0.0022174208,-0.05998572,0.019340904,0.23368837,0.08601661,0.07948523,0.057496846,-0.07356502,-0.09461939,0.14823946,0.09395762,-0.08263712,-0.2028345,-0.1869984,-0.3393159,0.12718116,-0.37940302,-0.1117327,-0.05339885,0.08373,-0.11889709,-0.017971579,-0.18871753,0.0027720719,0.13723293,-0.0002733249,-0.024274494,-0.081141375,-0.07680281,-0.05612952,0.012732004,-0.0485441,-0.3085617,-0.095225155,-0.03993554,0.047036335,-0.003837114,-0.44475496,-0.084955096,-0.12813738,-0.06286551,-0.3732473,-0.08098344,0.05790401,-0.077741764,-0.18840578,0.113372676,-0.18697445,-0.07133147,-0.20476203,-0.018295491,-0.17613024,-0.07244561,-0.33387974,-0.27731517,0.17705192,-0.014877066,0.026454687,-0.15495092,0.11063593,-0.13951787,-0.09807779,-0.091277555,-0.25685713,0.006533346,-0.25736102,0.23004308,-0.22574843,0.012624549,-0.19298574,-0.13813144,-0.14371216,0.09254656,-0.15624805,-0.28671995,-0.18123075,-0.23824629,0.17403749,-0.12530214,0.0898528,-0.10053995,0.034158017,-0.21134628,-0.06024364,0.049816504,-0.27064192,-0.09279257,-0.0037832402,-0.14858578,0.44522324,-0.08520465,-0.13705999,0.08105182,-0.17448257,-0.09100564,-0.22497413,-0.12875064,-0.054623023,-0.08576382
44,0.18552765,-0.111025244,0.19703358,-0.6022705,-0.082505286,-0.042090386,0.15036644,-0.17680317,-0.051277872,0.036232375,-0.024486683,-0.11469234,-0.4046674,0.38555562,0.049075626,-0.2901498,-0.13024342,-0.16078085,0.11374614,-0.38149136,-0.38729885,-0.13370557,0.20979898,-0.42270705,-0.44664198,-0.58774644,-0.3213491,-0.23288806,-0.29113317,-0.13924234,0.4601416,-0.35053125,0.19113411,-0.3831636,-0.28239146,-0.089789525,-0.33550227,-1.003895,0.03718658,-0.11002871,0.27614245,-0.104369745,0.44093406,-0.10406557,0.21629788,-0.042450886,-0.50908154,0.007567347,-0.16811319,0.05202516,-0.57578695,-0.16740596,-0.2559196,-0.172843,0.1075318,-0.043120045,-0.2489823,0.30828443,-0.15044147,-0.1883453,-0.92626566,0.45533007,-0.20459306,0.25823686,-0.049965687,0.5374297,-0.109122284,-0.155885,0.5842536,-0.24193229,-0.32460335,-0.75092095,-0.18784443,-0.19343385,0.0203364,0.02465445,-0.08200352,-0.66604275,-0.6930919,-0.13394774,0.5720088,0.50544554,-0.118775725,-0.07429249,-0.08483101,-0.28626686,-0.21235693,-0.107904226,-0.0900725,-0.087049894,-0.20023799,-0.23079343,-0.76038694,-0.09879279,0.032106794,-0.009345242,-0.36149824,-0.29938287,-0.0043005915,-0.44691834,0.013783849,-0.13216798,-0.1501042,-0.6404064,-0.41626543,-0.63009113,-0.09473508,0.3416677,-0.14594199,-0.026757544,0.07188851,-0.33886614,0.10722924,0.6452664,0.5644474,0.0968489,-0.15668316,-0.66327983,-0.5598512,0.019794134,-0.6176226,-0.103014715,0.15854396,0.2761283,-0.47175467,0.0343669,-0.40845856,0.21112129
45,-0.010915633,-0.055158757,-0.3055023,0.097899206,-0.07184687,-0.0632479,-0.102871,-0.05117902,0.01280393,-0.07930712,-0.35800782,-0.030237973,-0.3214104,0.29035616,0.18752588,0.556915,-0.28281134,-0.32602295,-0.11430301,-0.12609458,-0.17939363,0.057497703,0.004903039,0.22463135,-0.41117612,0.026493633,0.5679966,0.10301337,0.08660853,-0.40317678,-0.25197637,-0.011635631,0.81969094,-0.13357496,0.18298781,0.098283954,0.1730924,0.4179674,-0.05255185,0.08748809,0.027726743,-0.02408496,-0.10674378,-0.09798485,0.28726846,0.5198815,-0.6264695,0.007875751,-0.34197727,-0.1394625,-0.27885,0.09467914,-0.06993265,-0.022773657,0.3957652,0.56739223,-0.044221226,0.10462382,0.03743414,-0.22882797,-0.012534691,0.24896389,0.041936554,0.3069799,-0.27753446,-0.2764614,0.44679368,-0.15969945,-0.19638924,0.034471624,-0.2800592,-0.072053805,0.11982969,0.013357776,-0.05165155,0.057147667,0.08950996,-0.02358913,0.19124466,-0.14172547,0.0576519,0.06849952,-0.106955476,-0.048227035,0.08432333,-0.13102064,0.14830758,-0.116884165,-0.01088773,-0.20721076,-0.18263446,0.012718215,-0.06391645,-0.1806069,-0.2475297,0.027542254,0.046540298,0.50819343,-0.1417646,-0.46304405,-0.24345706,0.06153635,-0.2718311,0.03689011,0.04867561,-0.08171363,-0.05863722,0.18953182,0.038106613,-0.13279857,-0.16179289,-1.1648082,0.16015284,-0.22358505,0.24205075,-0.21363954,-0.037182804,-0.15101217,-0.23692104,0.15747914,-1.1121393,0.052979108,-0.12214426,0.5055136,-0.31118253,-0.14089456,0.33512756,-0.09075668
46,-0.09879321,-0.12813374,0.17148653,0.046452858,-0.22616638,0.0061504045,0.06513253,0.14692988,0.22557715,-0.11025227,-0.1159186,-0.12844947,0.03631301,0.07313473,-0.047384202,-0.1769474,-0.19358315,0.18790768,0.06434302,0.0027053338,-0.05222507,-0.116061844,0.024793424,-0.3624976,0.13828905,-0.12644327,-0.12918714,0.005516142,-0.2119637,-0.029618582,-0.058271956,-0.22162607,-0.062262066,-0.34651214,-0.24872647,0.0764544,-0.08339989,-0.51581967,-0.23052588,-0.22348489,0.014255614,-0.27063063,0.27654535,-0.09536741,0.3313475,0.06346756,0.27526486,-0.17147483,-0.0018446979,0.031819165,0.3302547,0.19832963,-0.17154561,-0.32528386,-0.008115891,1.0807545,0.03201669,-0.09933495,0.049641978,-0.02962392,-0.5248951,-0.07465045,0.07667615,0.50565386,-0.12207643,-0.3025712,-0.25789988,-0.076135024,-0.4625674,-0.22529882,0.19774558,0.19747126,0.09786775,0.06634651,-0.16583462,-0.22160757,0.08015963,-0.03933261,-0.08146177,-0.11466521,-0.16113181,-0.09775779,-0.5363248,-0.027963797,0.06869018,-0.13842,-0.23748823,-0.38177317,-0.010105531,-0.20178387,0.035572406,-0.013435974,-0.16382663,-0.16817316,-0.2868886,-0.06386962,-0.4140089,-0.1885411,0.02088884,-0.3251493,-0.19270694,-0.009932083,0.02148375,-0.18141004,-0.49950042,-0.533833,0.026166653,0.05246266,-0.11164786,-0.29671815,0.061217234,-0.17136785,0.0096667,-0.20976482,0.0014963421,-0.1477088,-0.17730124,-0.16058902,0.007890956,-0.15598863,-0.14355895,-0.25054795,-0.037725616,-0.059197303,-0.23840833,-0.13893923,-0.30033785,0.01088739
47,0.011301736,-0.22326595,-0.051678672,0.02540112,-0.12142338,0.00036086314,-0.046000984,0.19561298,-0.24201,-0.10484834,-0.41493496,0.12300465,-0.08594628,0.07405967,-0.23577063,-0.0054256893,-0.26985678,-0.022104735,-0.016495848,-0.28570798,-0.07116605,0.14215904,0.05584827,-0.20659019,-0.1456579,-0.35374773,0.024412563,-0.10635017,-0.13452967,-0.1673539,-0.18261297,-0.20639883,-0.19642651,0.12020091,-0.2215386,-0.008319169,-0.10240284,-0.47834742,-0.2583733,0.041414455,-0.16379078,-0.111824304,-0.22518824,-0.21835905,0.11331654,-0.17104995,-0.29761547,-0.1084482,-0.090381674,0.039816424,-0.12783866,-0.20038807,-0.37619877,0.0030069852,-0.2355021,0.05239935,-0.12227174,-0.20393176,0.075501285,-0.12420308,-0.11421299,-0.11646987,0.09485951,0.0057449066,-0.24069692,0.015180796,-0.26311508,-0.06312966,-0.2725729,-0.25241512,-0.4140187,-0.03048497,0.12419432,-0.2388546,-0.31348208,0.058305815,0.024525613,-0.1318102,-0.171962,-0.12991956,-0.1814642,-0.32452604,-0.024527296,-0.15378186,0.014106755,-0.00018367048,-0.08210378,-0.04264172,-0.14414263,0.07274253,0.03927748,-0.11807257,-0.18809494,-0.020928603,0.12877199,-0.08208721,-0.07299938,-0.113978475,0.17272055,-0.39912555,-0.1044128,0.1180683,0.20029315,-0.29930168,-0.2931856,-0.11383766,-0.1289094,-0.33780885,-0.13301677,0.17162354,-0.08960864,-0.25162196,-0.15967657,-0.005707916,-0.23737198,0.20196278,-0.20079362,-0.21426459,-0.09876403,-0.08912846,-0.0625442,-0.29885933,-0.2126286,-0.089998305,-0.14860949,-0.028417505,-0.06024221,-0.07411447
48,-0.16083506,0.037098635,-0.14576194,-0.27828068,-0.29199794,-0.07854008,-0.16538791,0.057703357,-0.2358741,0.097670086,-0.2780808,-0.08661283,-0.25886792,-0.19961827,0.04909035,-0.1877473,-0.19960204,-0.061711278,-0.12586084,-0.17072876,-0.139976,0.088035196,-0.06926179,-0.23135176,-0.23007524,-0.2345039,-0.15532297,-0.403928,0.21111354,-0.2576059,-0.0039812084,-0.25696108,-0.43107605,-0.41285825,-0.13025293,0.1958441,0.017883167,0.10060198,-0.066211514,-0.0011423266,0.08710937,-0.18251167,0.1718886,-0.066588104,0.041861996,-0.13164307,-0.1892,0.056508426,-0.0113815935,-0.017751547,0.036468487,0.03777257,-0.09607388,-0.18710491,0.04558774,0.18108664,-0.50791353,-0.27502793,-0.1573359,-0.1778723,-0.058451384,0.011064881,-0.15896392,-0.12861836,-0.04867693,-0.31377128,-0.19327322,0.18110913,0.046347186,-0.098947965,-0.3417189,-0.08456342,-0.13853683,0.024338612,-0.18337865,-0.032586306,0.034649234,-0.3110349,-0.047017768,0.0048071207,-0.13404451,-0.19284989,-0.30659628,0.15623468,-0.05973426,-0.1456042,-0.35040298,0.020849233,-0.18261783,-0.37033084,-0.010560756,-0.16826516,-0.16258611,-0.20512141,-0.14287516,-0.1322303,-0.27329773,-0.44997236,-0.19627894,-0.24321896,0.13371706,0.017225794,0.34379017,-0.27344063,-0.33679375,-0.32899117,-0.15182842,-0.12957476,-0.119744904,-0.011963533,-0.038898993,-0.07269392,-0.23914626,-0.05926548,0.01875343,0.087100245,-0.01458322,0.064369924,0.030119633,-0.05700615,-0.23536883,-0.18299887,-0.19529074,-0.23814812,-0.0061816904,-0.28840327,-0.12848875,-0.14728773
49,-0.16329385,-0.23333864,-0.108899675,0.06302129,-0.32054675,0.02035712,-0.12653168,-0.2093736,-0.0051890714,-0.04716132,-0.08419955,-0.033666357,-0.1348764,-0.4383249,-0.07168558,-0.17242616,0.001997132,0.044242155,-0.20291598,0.044704266,0.056033693,-0.01645906,-0.0753834,-0.2552877,-0.027181467,-0.23700523,-0.16594055,-0.17602,-0.12247672,0.0038217187,-0.14477736,-0.09006177,-0.1632818,-0.27502444,-0.2685404,-0.080394305,-0.10601314,0.112583295,-0.018601092,-0.08989374,-0.13897523,-0.005551388,-0.5515669,-0.08512707,-0.11309988,-0.095780335,-0.22215188,0.12599202,0.037730914,-0.015720656,0.009916496,-0.23896913,-0.2735228,-0.040745657,0.027518583,-0.051201332,-0.27385542,-0.26196474,0.0589324,-0.014670479,0.0054202965,-0.17695543,-0.08389781,-0.38366395,-0.04890531,-0.0052282084,0.01603076,-0.13030355,-0.08063627,-0.031991128,-0.081981495,-0.0010152932,0.052364424,0.050185185,-0.15116704,-0.1750022,-0.15312944,-0.015011083,-0.33305597,0.035441317,-0.49539325,-0.043900017,-0.0800982,0.038015917,-0.09056974,-0.14468032,-0.15108317,-0.12360809,-0.0264039,-0.07374577,0.23462933,-0.14435087,-0.06374931,-0.036107685,-0.23082688,-0.117057756,-0.17285354,-0.011988837,-0.24962842,0.04488653,-0.09737986,-0.15531246,-0.16407056,0.16305047,-0.116162114,-0.035583984,-0.19598234,-0.23597673,-0.02972989,-0.01953647,-0.10952686,-0.20418027,-0.25992012,-0.17568098,-0.18791999,-0.19591363,0.05615887,0.118138194,-0.43269905,0.04383068,-0.43046737,-0.11651896,-0.07662285,-0.18775973,-0.4496233,0.1091574,-0.0057634767,-0.08796272
50,0.44893917,0.017965047,0.0714297,0.17660117,0.04204453,-0.086042605,-0.07178882,0.022807617,0.13706248,0.024924435,0.099708885,-0.09438053,-0.16872212,0.117605194,-0.21174094,-0.7270529,0.07503694,0.37825084,-0.20572188,0.46251306,-0.066521734,0.0071562207,0.026776522,-0.40080938,0.37427723,-0.46510828,-0.80049276,-0.2821065,0.33097762,0.0902384,-0.0957161,0.07104563,-0.40454865,0.23082215,-0.19456069,-0.22549061,-0.08659507,-0.3325097,-0.085985675,-0.013105473,0.009725859,-0.16255324,0.055630222,-0.19809142,-0.11063298,-1.0250155,0.09839964,-0.14157233,-0.1260888,0.15206894,0.15967771,0.23399739,0.10642905,0.17000376,-0.244478,0.47584105,0.10690308,-0.20513728,0.15969615,0.11119417,-0.1749787,-0.016958997,0.09343942,-0.40538755,-0.06271361,-0.14160042,0.06582755,0.13865714,-0.35408065,0.057061873,0.34663546,-0.73135,-0.02698963,-0.048483573,-0.12639704,-0.07413217,0.21417326,-0.3963739,-0.7608204,0.16046444,-0.25200078,-0.44377244,-0.03957387,0.10613109,-0.25437298,-0.09431927,-0.13745753,-0.06454413,0.068168,0.01833084,-0.100592695,0.06388313,-0.87692505,-0.12869665,-0.095390685,-0.13797052,-0.14088373,-0.15478982,0.06844199,-0.45800865,0.05291079,0.046782978,-0.14270902,-0.26243025,-0.011134146,0.07434621,0.024534378,-0.22799516,-0.20860055,-0.0036342673,-0.14102007,-0.025339616,-0.35339677,0.022876982,0.029478304,-0.06380672,0.060597595,-0.57673603,-0.71104854,-0.010046407,0.12993033,-0.19356488,-0.16600181,-0.45803428,-0.5453143,-0.11165483,-0.4502154,-0.057264462
51,-0.19158907,0.10538835,0.00686211,-0.38653478,0.05541604,-0.1593451,-0.18660747,-0.13311501,0.30135143,0.055922575,0.05580079,-0.21270613,-0.17176604,-0.95494473,-0.079504564,-0.64883935,-0.11220745,0.56399024,-0.07529876,0.10022095,-0.17933686,-0.13128658,-0.19676144,0.54929924,-0.04043035,-0.37315315,0.58159965,-0.0655517,-0.13128099,-0.106461026,-0.028894687,-0.1700809,0.15093404,0.29595697,-0.83808535,-0.26046515,-0.5874939,-0.60637313,-0.04479921,0.031336557,-0.06311734,-0.16430843,-0.16880192,-0.29398403,0.105376884,0.2978829,0.58761925,-0.17348717,-0.07572461,-0.03181139,0.23437002,0.4150054,0.048636176,-0.039877657,-0.38311893,0.29785517,0.03210021,-0.15716252,0.08659905,0.031998757,-0.38164097,-0.5638485,0.011777845,-0.0920575,-0.17683442,-0.0892915,0.28834388,-0.18284594,-0.22989108,0.17471579,0.15408988,-0.81672305,-0.12461187,-0.1094141,0.014565506,-0.1712791,-0.22314765,-0.16063866,-0.8942731,-0.014366299,-0.59796345,-0.6593635,0.094962165,-0.16378945,-0.21650821,-0.1387343,-0.088090934,-0.25559148,0.16402492,-0.40613094,0.12431935,-0.21190599,-0.8296066,-0.019559363,-0.08109792,0.657841,-0.35069612,-0.5102086,0.10493645,-0.41326156,-0.20149422,0.028811922,-0.2034267,0.43899596,-0.21265458,0.43294212,0.142074,-0.8756589,-0.036644094,-0.080558985,-0.14278889,0.05849302,-0.58587795,0.6146644,0.011101359,-0.099966295,0.17604418,-0.79198,-0.44539586,-0.568638,-0.38638067,-0.32304248,-0.30221626,-0.3717156,-0.29404408,0.007528105,0.89946413,-0.16092837
52,-0.14806157,-0.17832547,0.079926915,-0.24650186,-0.118422806,0.14860173,0.15092345,-0.086543486,-0.11923549,-0.07403632,-0.26048073,-0.16474761,-0.27713516,-0.36437657,-0.072238766,-0.11930372,-0.043700185,-0.13840476,0.1919826,0.062798865,-0.047368128,-0.09810407,0.12343847,-0.23869874,-0.03977715,-0.21786064,0.05669445,-0.1290928,0.022305816,-0.086158164,-0.24070953,0.03717965,-0.21986657,-0.10187208,-0.034680635,0.031527758,0.06574772,-0.06542692,0.08583666,0.103331566,-0.08595303,-0.06638103,-0.31381205,-0.17896554,0.03855805,-0.39402583,-0.04866413,-0.14722961,-0.013207252,-0.05661618,-0.01608151,-0.0285279,-0.3218878,-0.07407558,-0.27991775,-0.0052700285,0.055061277,0.019133026,0.08213199,-0.09359741,-0.08231612,-0.15580963,0.23891044,-0.06026953,-0.04653421,-0.02885636,-0.3618902,-0.025040045,0.08349446,-0.071489505,-0.1469346,-0.314379,-0.1896203,-0.024767451,0.0032413679,-0.06252794,-0.27103975,0.012149389,-0.18282564,-0.23699994,-0.16801918,-0.223292,-0.027877815,0.06367623,-0.09147334,-0.054380827,-0.17462067,-0.047692273,-0.07647025,-0.11431354,0.057674684,-0.09785949,-0.24727084,0.05224362,-0.16890985,-0.023005085,0.01647042,-0.1082706,0.14474301,-0.22592714,0.048045807,0.05060797,-0.0071231443,-0.14822944,-0.029507583,-0.13851662,-0.12936074,-0.13766031,0.035283472,-0.061130475,-0.02724897,-0.19938277,-0.3520816,0.08008248,-0.32929677,0.16446102,0.049507685,-0.24220961,-0.1777952,-0.0064815013,-0.19748919,-0.19475305,-0.094867624,-0.030879041,-0.044677787,-0.0014672405,-0.18569462,0.12146193
53,0.222855,-0.16116259,-0.33796993,0.03799337,-0.20192699,-0.032658316,-0.07817483,-0.03274276,-0.0120208375,0.17588906,-0.049238212,-0.066421404,-0.2903708,0.3324476,-0.19548564,-0.11936826,0.030509774,-0.14430386,-0.07767257,-0.11468437,-0.13644546,-0.02584773,0.011219406,-0.55578995,-0.18299602,-0.095449954,-0.6182968,-0.13665403,0.080707416,-0.1648312,-0.38048014,-0.25218958,-0.85360783,0.7739318,-0.01314696,-0.11410153,0.2601656,0.49075028,0.21760774,0.15302388,-0.0928202,-0.13182329,0.325747,-0.13523003,-0.17404938,-0.17542899,-0.3756575,0.19110838,-0.09479095,0.022905678,-0.16331904,-0.3327572,-0.2828137,-0.15727986,-0.014778517,-0.3653277,-0.13644981,0.42103958,-0.03999595,-0.22433572,-0.06652137,0.21818167,-0.016686892,-0.20743822,-0.14281711,0.14327675,-0.0027047992,-0.031533375,-0.0863279,-0.04268385,-0.22216704,-0.004195887,-0.1117107,0.11066951,0.034692485,-0.20578398,-0.16679905,-0.17042221,0.113335654,0.040671226,-0.59764606,-0.07534174,-0.1988276,0.07133908,-0.32719538,-0.09841959,-0.02624237,0.32082167,-0.0010681823,0.13188875,-0.19749844,-0.25530154,0.009860986,-0.053466912,-0.1470363,0.037965123,0.0037558274,-0.12327599,-0.28430405,0.36392894,-0.03320203,-0.01850186,-0.13190489,0.28674924,-0.009929665,-0.24839276,0.0436194,0.246142,-0.20763896,-0.23803352,0.03425672,-0.16541386,-0.105996944,-0.034209013,-0.29606378,0.34868932,0.14843138,-0.007660241,0.04123156,-0.398677,-0.09256755,-0.35150462,-0.3211672,-0.10549182,-0.009913069,0.10761881,-0.18817176,-0.12763505
54,-0.121705785,0.09032437,0.11486932,-0.35737166,0.07043707,0.04853384,-0.07791842,-0.13132198,0.12884292,0.03271187,0.09997058,-0.14012907,-0.50348073,0.41921076,0.18063751,-0.8522756,-0.16110703,-0.28155562,-0.1394806,-0.010083348,-0.33971477,-0.1295549,0.16838813,0.43047684,-0.41410786,-0.45349878,0.16506292,-0.0377147,-0.17970721,0.046157487,-0.2546398,-0.17721753,1.0993944,-1.1151832,-0.25089312,-0.32985297,-0.7163037,-0.30576444,-0.07056267,0.10337476,0.2027271,-0.028867178,0.24992865,0.24355382,0.7715367,0.64377093,-0.22293262,0.32893202,0.14291099,-0.006936296,-0.24532104,-0.2302946,0.18507448,-0.4800959,0.16235016,-0.1932447,-0.15998532,-0.4847817,-0.15007572,0.008323575,-0.72981846,0.054536488,0.014448422,-0.027467467,0.22275126,-0.16742602,-0.011280446,0.008733992,0.120734,-0.05114705,0.0009190793,-0.7700145,0.010686976,0.020829398,0.27830508,-0.5167557,0.029881177,-0.33736786,-0.52223104,-0.19574393,1.0586383,-0.37380233,-0.13599648,-0.14297912,-0.23856638,-0.1690819,0.39357534,-0.23539925,-0.09629881,-0.038433522,0.0741744,-0.39197987,-0.5356897,-0.094523914,-0.17647342,-0.31230667,-0.10264159,0.050576806,-0.124949254,-0.54826725,0.066540636,-0.2774036,0.0864734,-0.26422083,-0.35108665,0.0063144597,0.008871006,-0.33039725,-0.38352543,-0.1330589,0.20844086,-0.3537385,-0.37163255,-0.47004277,-0.17004499,0.016103009,-0.09530864,-0.47584027,-0.8326583,-0.026527217,-0.67164177,-0.021554517,0.18877162,0.35297933,-0.389141,-0.20321468,0.19710644,-0.2146966
55,0.19389266,0.023813616,0.32082692,-0.014170451,-0.50639504,0.17603879,0.14454812,-0.11620338,-0.2192424,0.19834107,0.24371837,-0.15119024,0.01801308,-0.462517,0.02030345,0.06516635,-0.016548097,-0.11523287,-0.0036703257,0.5882358,-0.53397423,0.14600086,-0.014636983,-0.28663787,-0.047945794,0.06096597,-0.5337986,0.27643853,0.030261531,-0.67530805,0.0072728517,-0.4476562,-0.5358556,-0.20407183,0.20521238,0.08763207,0.39451754,-0.30985922,-0.03710406,0.047604375,0.011126153,-0.18686798,0.42363605,0.028864603,-0.51818573,-0.2665033,0.32037598,-0.18800163,-0.1417852,-0.015790138,0.14998403,0.5763686,-0.1333712,-0.05167337,-0.44718578,0.39090836,0.05249749,-0.24923192,-0.14388745,-0.028126443,0.055848006,-0.33063236,-0.06895477,0.50522864,-0.14236543,-1.5246562,0.20513628,-0.15655616,-0.2551591,0.06014666,0.44924024,0.1565469,-0.2004364,0.033351175,0.059445847,-0.25223285,0.037401218,-0.18023604,0.5339512,-0.060007352,-0.52531046,-0.29062796,-0.09290554,0.188902,0.303419,-0.08642594,-0.42930162,-0.41698158,0.027210655,-0.35553426,0.012904521,-0.149842,0.6344615,0.036163624,-0.23035087,0.11139475,-1.4004321,-1.1751658,-0.33245927,-0.50317514,-0.10100297,-0.2743045,0.06300665,0.6515216,-0.258596,-0.6730394,0.10675386,-0.02160439,-0.2040772,0.1404149,0.14918922,0.38064846,0.292706,0.03345736,0.5699107,-0.611646,-0.12190223,0.081588626,-0.6967963,0.4377062,-0.18857744,-0.010955571,0.0068079694,-0.77425563,0.06973648,0.07242264,-2.1008482,0.08309236
56,-0.086545974,-0.16495964,0.2726434,0.037339415,-0.02626013,-0.15352479,0.02767142,0.02306744,-0.020519715,-0.13725926,-0.036727652,0.063873716,-0.18112868,-0.27524123,0.06678002,-0.48911616,-0.07139896,0.18587163,-0.17089574,-0.16717045,0.01077552,-0.013287984,-0.14663984,-0.2105434,0.06596236,-0.10641253,0.24001618,-0.048581667,0.075295135,-0.23662683,-0.24661422,0.058482558,0.105802484,-0.013928968,-0.038081653,0.12646237,-0.058717664,-0.59910977,-0.004141356,-0.030643243,-0.025198754,-0.01840231,0.31928724,-0.083854474,-0.13134843,-0.272614,0.28055757,-0.26372302,-0.089639276,-0.17255387,-0.19079882,0.1352421,-0.06265896,-0.07003666,0.06579231,0.5854201,-0.25488046,-0.16687617,-0.09284468,-0.13739043,-0.115229696,-0.18780966,-0.085484594,0.18998837,-0.2721343,-0.31493273,-0.20701778,-0.10175879,-0.0049850093,-0.22054407,-0.20947008,-0.084724136,-0.12529029,0.08129844,-0.010654015,-0.042297635,0.029269936,0.11285236,-0.122151695,-0.15035225,-0.31245252,0.03128762,-0.32878855,-0.02787072,-0.20878586,0.16002405,-0.08734094,-0.2250629,0.02112831,-0.42890948,0.0718871,0.042285964,-0.24845575,-0.040254064,-0.05502743,-0.21249543,-0.32999206,-0.3221425,-0.23850656,-0.14347865,-0.03720085,-0.26184383,0.111902185,-0.03284572,-0.2032004,-0.26922455,-0.08765145,-0.15345961,0.11579437,-0.17353871,-0.19745736,-0.20165928,0.030749781,-0.14307113,0.20321831,-0.11676969,0.07368886,0.13854623,0.04344962,0.11130298,-0.15345693,-0.27786168,-0.005297931,-0.16591747,-0.045172706,0.021190222,-0.27940074,0.024092313
57,0.52554184,-0.09181026,-0.4587477,-0.16354601,0.014283787,0.25856358,-0.09784206,-0.016524404,0.0025507838,0.0015903902,-0.96455556,-0.13533086,-0.12559652,0.33947468,-0.020900866,-0.20805223,-0.13782568,-0.03773079,-0.020471066,-0.02847329,-0.1932203,-0.16130447,0.21529849,-0.0982368,-0.28677747,0.045702044,0.20207632,-0.10919242,0.30799526,-0.010452776,-0.8488626,-0.18181698,-0.35196126,0.85684705,-0.05682671,0.12875718,0.09615763,-0.7409803,-0.020057729,0.027036091,-0.14238654,-0.062425967,-0.0630005,-0.13520028,-1.3897905,0.05039229,0.07268476,0.05786247,-0.21864963,-0.1245445,-0.12200475,-0.20947725,0.04408445,0.19443478,-0.6493037,0.033462383,0.22609855,0.33472264,0.013251084,-0.12019615,-0.22583495,0.14642149,0.09383125,-0.16711707,-0.08676925,-0.006719916,-0.24135758,0.09742497,0.15190664,-0.036206394,0.2525015,-0.028765878,-0.05343487,0.15722233,0.04728925,-0.23317292,-0.20802785,-0.28100565,0.13982692,0.07935228,-0.18077618,-0.23594841,-0.19626121,0.24641638,-0.07894915,-0.16027947,0.2211911,-0.013919067,0.08014687,-0.38459533,-0.019829301,-0.035343315,0.09743817,-0.04038186,-0.2073766,-0.047082093,0.275468,-0.2639072,0.03693115,-0.16065155,0.0868577,0.06934787,-0.102176316,-0.20348236,-0.13924402,-0.9305888,0.015916213,-0.030622607,-0.024975397,-0.09984842,-0.028770175,-0.31496838,-0.10508935,0.6287991,-0.2371521,-0.08212278,-0.027149526,0.07521315,-0.25075623,0.15308505,-0.04790607,-0.5791016,0.017745847,-0.26073018,0.19233878,-0.10147652,0.17572317,0.0011086095
58,-0.0961332,-0.09081611,-0.10765765,-0.11844465,-0.027347343,-0.00048022877,0.022258602,-0.2106994,0.07118913,0.07471026,-0.23581427,-0.020671455,-0.09325602,0.4636287,-0.16443688,-0.19100027,-0.09290995,-0.18727086,0.005375583,-0.03348926,-0.1545031,-0.16300745,0.020654587,-0.25353032,-0.013455946,-0.0433772,-0.13795833,-0.093638,0.23787789,-0.03185275,-0.17673647,-0.23545855,0.09421917,0.0019230365,-0.057616748,-0.22747174,-0.07129694,-0.06277846,0.022552598,0.15637358,-0.155157,-0.07825197,0.23194197,0.026732719,0.17700112,-0.03678003,0.094437174,0.13255896,-0.070414364,-0.026094602,0.00419946,-0.066540025,0.047304366,-0.011619164,-0.109174624,-0.051375393,0.30436927,-0.03604787,0.004160045,-0.009300542,0.017323475,0.15001856,0.21522959,-0.1026095,0.04842192,0.10290512,-0.047164273,0.1304365,0.08141116,-0.28264165,-0.15504365,-0.039602417,-0.1713009,-0.19730046,-0.117388666,-0.11349443,-0.30106023,-0.40309846,-0.010624446,0.059897754,-0.18457472,-0.26336002,0.012528531,0.059398733,0.16182597,-0.10537081,-0.17997183,-0.06813611,-0.11365251,0.07490544,0.08386929,-0.008333704,-0.22763343,-0.22543973,-0.037849486,-0.17780367,-0.125949,0.07942354,0.02834631,-0.08193882,-0.12599085,-0.1827451,-0.004813869,-0.12873821,-0.045942795,-0.017501887,0.06673146,0.10935411,-0.04038812,-0.17143252,0.03601262,0.037534103,-0.11875364,-0.12199742,-0.21704115,0.11322655,-0.07688188,-0.09375605,-0.16578104,-0.010406266,-0.024355205,-0.28762028,-0.0742639,-0.23200813,-0.14211404,-0.046565205,-0.58486307,0.027051074
59,-0.24070531,-0.20865278,-0.10415552,-0.17657116,-0.10181337,-0.055795725,-0.022382801,-0.26416677,-0.08824705,0.034846816,0.050075203,-0.027365455,-0.07027325,-0.3345794,0.0023010285,-0.18305041,0.038743526,-0.16276087,-0.15593782,0.06830707,-0.17367549,0.006834794,0.13216628,-0.25291282,-0.10047948,-0.06970111,-0.34040046,-0.18206052,-0.18930429,-0.014391756,-0.027324341,-0.24346259,-0.13240336,-0.006723676,-0.25474694,-0.34510028,-0.3929876,-0.15802546,-0.06658489,0.15468356,-0.10115037,-0.013421762,-0.3446718,-0.07060531,-0.34468165,-0.07011001,-0.06510967,-0.048144054,0.07250684,0.0023878575,0.032707598,0.022899162,-0.14504811,-0.21743892,-0.15392873,-0.15744787,0.17395882,-0.25332683,-0.004113375,-0.33014914,-0.10188566,-0.29825917,-0.1410409,-0.21120358,-0.20281887,0.02857077,0.114061266,-0.08955027,-0.1643278,-0.10176882,0.010010844,-0.26026443,0.00023321406,-0.19302754,0.2020139,-0.43674585,-0.15889518,-0.11247019,-0.22097236,0.108036235,0.13048461,-0.30367222,-0.22431049,-0.24448417,0.02163423,-0.0017489647,0.00424481,-0.13619642,-0.14713928,-0.09643693,0.1735435,-0.12376287,-0.5010854,-0.19047476,-0.041168187,-0.19234473,0.07705209,-0.3480847,-0.018917575,-0.08578988,-0.07143611,-0.15476494,0.091328494,-0.28893533,-0.15520194,-0.20220691,0.0033499629,-0.25859657,0.007505201,-0.08444167,0.08150805,-0.13025811,-0.44061616,-0.34364855,-0.2388601,-0.092958406,0.23558584,-0.18738948,-0.44652584,0.12197726,-0.001990461,-0.06842065,-0.18278274,-0.023589374,0.03578712,0.14077203,-0.06286582,-0.18920916
60,0.23542768,-0.27609912,-0.04371213,0.026452553,-0.23647161,0.35229447,0.04047748,-0.09012223,-0.22686747,0.0643534,0.020794801,-0.15902331,-0.010793047,-0.12148732,0.10494332,0.28973317,0.03994995,0.23384355,0.03664739,0.60827655,-0.2506726,0.032019578,-0.085138015,-0.43372688,-0.012892593,0.29159716,-0.6530097,0.038248494,-0.017265493,-0.34854642,0.13514203,-0.46952412,-0.3757292,0.24381822,-0.325565,0.06451383,-0.43288755,-0.46447536,0.037606075,-0.00924357,-0.10823257,-0.16656102,0.14078991,-0.0826458,0.060849957,-0.48738182,-0.5216157,-0.025771817,-0.018835858,-0.074768946,0.13982023,0.55161905,-0.05692232,0.20169286,-0.32448733,0.5404436,-0.20712931,-0.112657174,-0.12401443,0.0441923,-0.5257729,0.026594581,0.14403695,-0.002905665,-0.24082826,0.30658942,0.15499476,0.1056088,0.22120877,0.010713966,0.0982754,0.24212465,-0.111577936,-0.019562755,0.059287764,-0.110820144,0.09971074,-0.21365614,0.23440889,-0.1081997,0.0476342,-0.067004524,0.16504782,0.07758144,-0.5708217,-0.27339754,-0.2890567,-0.25002718,-0.11784497,-0.31968516,-0.037380077,-0.27763182,0.31717595,-0.052219313,-0.0784023,-0.46597493,-0.60536057,-0.6109488,-0.34810668,-0.1632914,-0.15554494,-0.42182052,-0.13032722,0.035274908,0.029185934,-0.5008909,0.07462201,0.2350801,-0.036619447,0.19851774,0.10551359,0.00030614293,0.0630985,-0.25611684,0.27252114,-0.5867701,0.04627374,0.30365947,0.14571355,0.43298557,0.30435878,-0.2936587,-0.010317363,-0.04704081,-0.5381478,-0.13697208,-0.39269236,0.09345812
61,-0.17128018,0.060879942,-0.0047763465,-0.21442553,-0.12212527,-0.08843045,-0.10893803,0.072273724,0.031019866,-0.12789857,-0.34294525,-0.2028198,-0.0424096,1.1179678,-0.11789589,-0.053669743,-0.03425504,-0.394356,-0.00070463703,-0.24497245,0.08425411,0.13411674,-0.11105859,-0.47489434,0.042390488,0.020476919,-0.68236625,-0.24559313,-0.043585252,-0.28560287,-0.41735104,-0.008704294,-0.21002972,0.17652637,0.16945548,0.03544164,0.13470829,0.18781753,0.03700224,-0.0503357,-0.09834326,-0.10257275,0.37620547,-0.09308322,0.6616883,-0.36518165,-0.88340133,0.015951114,-0.12816803,0.07376028,-0.62051505,-0.7150669,-0.13253781,-0.16581535,0.07784831,0.21167542,-0.532188,-0.12288285,0.041577805,-0.13962182,0.12683044,0.32649937,-0.020747617,0.18323494,-0.039973225,0.3665547,-0.54436,-0.012864739,0.43586594,-0.49785265,-0.36149967,-0.48271015,0.14616658,-0.041298263,-0.089049675,0.3286447,-0.035446655,0.027398828,0.12940298,-0.17106442,0.27029327,0.13712227,-0.27576205,0.10115309,0.116822764,-0.03469799,-0.41949302,-0.2126582,0.16179766,-0.3910992,0.07116137,0.13962321,0.013454819,-0.0477597,-0.5602645,-0.20989582,-0.47963402,-0.1912072,-0.34054688,-0.39116126,-0.06966613,-0.0032129514,-0.05298671,-0.18131256,-0.048912726,-0.29070592,-0.0654256,0.09634166,-0.090187974,-0.16609973,-0.08299864,0.21696983,0.2002068,0.10564234,-0.39094153,-0.39660466,-0.005199711,0.07209886,-0.31307003,-0.12922005,-0.76715237,-0.020940706,-0.1947971,-0.23379709,-0.6318442,-0.38960773,-1.097434,-0.13937688
62,0.029188922,-0.068333246,0.032837354,-0.2914971,-0.215322,-0.06673256,-0.117884405,-0.069754876,-0.0540568,-0.068106264,-0.1626291,-0.032018516,-0.0005028741,-0.37060508,0.0071574394,0.12211153,-0.020645361,0.093102045,-0.24573724,-0.09294355,-0.14705321,-0.05416106,-0.070073165,-0.25216818,-0.27570578,-0.20249419,-0.19932431,-0.2705819,-0.14413616,-0.082205,-0.14511801,-0.07515864,-0.30054167,-0.10409605,-0.37972295,0.034422453,0.0067931265,-0.06755912,0.09624236,0.123299174,0.005788719,-0.1785464,-0.39401394,-0.08888734,-1.04816,-0.0045093885,-0.2278092,-0.07768331,-0.118980736,0.045600392,0.046298813,0.06842102,-0.06444693,-0.11724735,0.09751812,-0.09587881,-0.2651656,-0.03582215,-0.04249177,0.005036455,-0.02053269,-0.1723781,-0.1270064,-0.110658854,-0.2583272,-0.21742308,-0.09726848,-0.3013028,-0.18507038,0.06741967,-0.027894909,0.22964245,-0.010452398,-0.064143054,-0.2528394,-0.1963284,-0.11252253,-0.17376408,-0.09633895,0.03554097,-0.42920357,-0.30459464,0.011189739,-0.18581441,-0.2211832,-0.1275014,-0.19213286,-0.088570796,-0.031334076,-0.22033496,0.059473902,-0.12888707,0.22382812,-0.07725243,-0.0017638549,-0.31962723,-0.3374185,-0.1713528,-0.16815911,-0.48564318,0.0015531344,-0.008181683,-0.1253601,-0.36163652,0.13473405,-0.04692599,-0.14640914,-0.33570683,0.12560144,-0.08951861,-0.20424432,-0.2182934,-0.26434165,-0.1555603,0.075971365,-0.06658084,-0.029948443,-0.16620116,-0.02835849,-0.16996834,-0.45655397,-0.29330516,-0.049913783,-0.24110469,-0.1880617,-0.15440604,-0.09795175,-0.073394306
63,-0.23876421,-0.07058,0.48525244,-0.3591866,-0.25624785,-0.16000466,0.024698013,0.13433507,-0.102724865,0.021573799,0.5474133,-0.048976228,-0.17975935,-0.39584267,-0.14558959,-0.078014836,0.030612046,0.32502624,-0.04961276,-0.214409,-0.47159758,0.0020849495,-0.13862664,-0.14068347,-0.14385511,0.19453326,-0.12987697,0.16146773,-0.27580687,-0.29962164,-0.06275247,-0.4484032,0.18683206,-0.23209615,0.1647303,0.0038785837,0.4336916,-0.0033662682,-0.12964042,-0.1269412,-0.17203243,-0.0013226923,-0.16642703,-0.20092718,-0.1542921,-0.12212938,-0.05178753,-0.042953424,-0.12771927,-0.13983215,0.28466117,0.06400992,0.06658348,-0.08743016,0.04585373,0.19309694,0.28991455,0.025518985,0.05151015,0.02499013,-0.096196525,-0.086998835,-0.0015385981,-0.20973109,0.04147116,0.40614238,0.23374534,0.1739733,-0.20188987,-0.01848303,0.39774883,0.20298068,-0.07642924,-0.09049971,-0.14232503,-0.11327393,0.11681805,-0.33481342,0.09118111,-0.081241705,-0.22905011,-0.26473865,0.053962067,0.10151879,0.14858669,-0.202969,-0.07362418,-0.3136964,0.011654181,-0.30589542,-0.14365776,0.03646483,0.07624688,0.01945804,-0.1956007,-0.09755215,-0.04430965,0.026135659,-0.14534274,-0.3509481,-0.033102825,-0.225649,-0.06007893,0.41767836,0.114408106,-0.9221015,-0.028484322,0.049051866,-0.11930354,0.0018258197,-0.08704635,0.17728041,0.08642176,-0.24242674,0.5115106,-0.030098742,-0.30668917,0.08236024,-0.66010576,-0.14568268,-0.32897687,0.49801442,-0.07793334,-0.011669831,0.07919069,-0.1877183,-0.29376376,-0.12652873
64,0.103925735,-0.1986912,-0.11454937,-0.30476412,-0.057081953,0.17929316,-0.0543298,-0.112581074,-0.15358917,0.010945284,-0.004366875,0.03356402,-0.1602825,-0.34078076,-0.11936115,-0.024051968,-0.2086442,-0.059596814,-0.16452782,0.01911109,-0.24468347,-0.077996336,0.22499013,-0.4318228,-0.38623142,-0.23175181,-0.1654531,-0.15197901,-0.0035750961,-0.10219123,-0.23986007,-0.12898338,0.16720882,-0.09528883,-0.17239349,-0.12789637,-0.022662606,-0.12277629,0.042179506,-0.1970758,-0.09842472,-0.059868783,-0.11642461,0.04682868,-0.40754095,-0.18390736,-0.24416865,-0.021173744,0.07402251,0.089388646,-0.018150328,-0.14742087,-0.3610593,0.0539195,-0.23544899,-0.1908706,0.19633153,-0.23007941,-0.20020606,-0.03997353,-0.24361534,-0.39107412,-0.046397343,-0.15824819,-0.14638603,-0.10353615,-0.20187026,-0.09732155,-0.06541106,-0.1623758,0.045294315,-0.2112419,-0.022223251,0.016110966,-0.07826043,0.1484511,-0.25759766,-0.16330759,-0.26226544,0.009886006,0.10490782,-0.23641282,-0.08447711,-0.11340089,0.22167973,-0.24929602,-0.035662208,-0.20268412,-0.17727827,-0.019226188,0.13116331,-0.2289594,-0.24006677,-0.21492952,-0.0230233,-0.15158233,-0.10096264,-0.09728214,-0.0900714,-0.20842846,0.014451373,0.008835153,0.07885403,-0.16516544,-0.080835745,-0.03347277,0.037186433,-0.09186945,-0.16045459,0.12481991,0.11248235,-0.10204109,-0.19875859,0.001068283,-0.16953196,0.01193197,-0.02844454,-0.13473703,0.36183208,0.030401915,-0.04305132,0.09924044,-0.1305673,0.018090531,0.023172867,-0.15760435,0.19069555,-0.055483773
