,0,1,2,3,4,5,6,7,8,9,10,11,12,13,14,15,16,17,18,19,20,21,22,23,24,25,26,27,28,29,30,31,32,33,34,35,36,37,38,39,40,41,42,43,44,45,46,47,48,49,50,51,52,53,54,55,56,57,58,59,60,61,62,63,64,65,66,67,68,69,70,71,72,73,74,75,76,77,78,79,80,81,82,83,84,85,86,87,88,89,90,91,92,93,94,95,96,97,98,99,100,101,102,103,104,105,106,107,108,109,110,111,112,113,114,115,116,117,118,119,120,121,122,123,124,125,126,127
0,-0.39994052,-0.35838506,-0.2325805,-0.048614226,-0.15094036,0.046046022,-0.40589994,0.05921527,-0.16629693,-0.10728435,0.43479347,-0.18068826,0.057181507,-0.3601456,0.33477244,0.0730461,0.20090784,-0.4521059,0.059206992,-0.1622999,0.011283772,0.065700844,-0.018871652,0.11769609,-0.45425522,-0.1843003,-0.029946826,-0.28003755,0.013206749,-0.26038724,-0.0025901403,-0.31809747,-0.27548987,0.38875362,0.042992014,0.033247873,-0.29533005,0.016220715,-0.16701436,-0.39209715,-0.34354392,0.09346022,-0.25289118,-0.06748449,-0.045856427,-0.42920592,-0.13138595,-0.5762101,-0.011577136,-0.051178318,-0.4329336,0.06320641,0.2259387,-0.19388369,-0.43419278,0.009569969,-0.12730724,-0.06374372,0.023523096,-0.079710014,-0.26709569,-0.38706723,-0.58256966,-0.1592323,0.0037324345,0.35160282,-0.21536861,-0.5853994,-0.39275634,0.09050848,0.07162478,-0.35138875,-0.28987986,-0.05652663,-0.39854935,-0.2939487,-0.20405726,-0.34735158,-0.14731617,-0.89977413,-0.25565743,-0.19821471,-0.44642156,0.20756893,0.05331681,-0.11332697,0.06352362,0.16668923,-0.04644623,-0.3260315,-0.08375756,-0.15206292,-0.03813883,0.32633334,-0.3260525,-0.041985292,-0.48934045,-0.23473543,0.01881001,-0.23218778,-0.057202794,-0.48084468,-0.4490617,-0.42591086,-0.04027885,0.056674533,-0.08945909,0.07557237,-0.15779884,-0.09234154,-0.18481177,0.06048708,-0.30718657,0.118836574,-0.177789,-0.08624313,-0.017318955,-0.014955863,-0.11243286,-0.17573489,-0.07671797,-0.19978502,0.32038528,0.15209685,0.07002945,-0.38901114,-0.2128548,-0.026091624
1,0.021442343,-0.27625525,-0.20362556,-0.08778179,-0.11209693,-0.06818547,-0.08598894,0.11712903,-0.06714227,0.031193966,-0.21715976,-0.038009446,-0.17286985,-0.08112426,-0.035249807,-0.24062559,0.1528854,-0.19092956,-0.01813869,-0.011265368,0.18702252,0.14409721,0.03925583,-0.059989806,0.010580638,-0.17576073,0.10604874,-0.2943939,-0.05449203,-0.37915114,-0.09099569,-0.26550767,-0.20348835,0.09442708,-0.20959346,-0.29493994,-0.05554338,-0.14524749,-0.312781,-0.4575604,-0.29843408,0.107498564,-0.025154985,-0.13769604,-0.05658864,0.12691578,-0.14804648,-0.14622048,-0.15007795,-0.109755,-0.1832798,-0.07192301,-0.009886325,-0.33397168,-0.07696013,0.1301127,-0.058330376,-0.1745066,0.15324855,-0.2899152,-0.26519874,0.032281253,0.29895154,-0.102475934,-0.12842734,0.20157371,-0.028202614,-0.0029728478,-0.22869185,-0.19778182,0.06256629,-0.12765233,-0.15420769,-0.25407308,-0.18919885,-0.13198482,0.16137853,0.02369678,-0.13123101,0.016572323,0.021904528,-0.25942674,0.15469846,-0.176286,-0.12944615,-0.025477244,-0.047066737,0.17798392,-0.152239,-0.18621159,0.12371235,-0.09432366,-0.13755652,0.0045618806,-0.10129881,-0.16023856,0.14412941,-0.1739476,-0.19904907,-0.4310186,0.020623164,-0.30990288,-0.118082054,-0.067387745,0.1212996,-0.06636429,-0.34139627,-0.08919005,0.08105498,-0.39786422,-0.2526781,0.12986168,-0.06348402,-0.15873185,-0.01518356,0.025030583,-0.22634293,0.08480286,-0.3426931,-0.07332542,-0.24455504,0.046487898,-0.06353688,0.08685573,0.042469848,-0.11014332,-0.29884398,0.06564878
2,0.2986943,0.1831397,-0.5649245,0.15103617,-1.0146478,-0.06640204,-0.02198886,0.021905921,0.04495537,-0.044728372,0.21165569,0.33025074,-0.2457542,-0.2105115,-0.48955962,-0.09900803,0.16003798,0.19498488,0.2362936,0.045276098,-0.3570941,0.06976083,0.09113906,0.2749233,-0.4644831,-0.14429222,-0.09045485,0.30540976,0.068933904,0.08380654,-0.15650193,0.08395194,0.14578675,0.01999444,-0.02397076,0.091338605,-0.312474,-0.03726984,0.51981,0.10274391,-0.33452165,-0.2310885,0.06461988,-0.5719829,0.17662846,-0.50037724,-0.30453303,-0.3774724,-0.047835227,-0.036724865,0.21415931,0.31437114,-0.52708656,-0.11309311,-0.5370628,-0.0008874292,-0.32812393,-0.17037737,0.07014059,-0.7848676,0.012463158,-0.34096682,-0.08924948,-0.12821409,0.09678725,0.09114029,-0.42826405,-0.3088567,-0.57544136,-0.017655304,0.14044142,-0.009037714,0.015052462,-0.040066797,0.052178755,-0.328423,0.03138457,0.2735477,0.066952795,0.10562276,-0.5613899,0.20187376,0.0075058998,-0.9391843,-0.042440448,0.12424725,0.07543994,0.13849777,-0.055588365,0.14931776,-0.17401233,0.0079776235,0.17862433,-0.007356462,0.12036331,0.09184258,-0.9379071,-0.6136951,-0.10599961,0.34882647,0.025224626,0.16300073,-0.17831168,0.18133655,-0.21206035,0.10241976,-0.0859762,-0.08365725,-0.5603285,0.26908523,0.41433775,0.049826674,-0.2997359,0.01294119,-0.71986926,0.06232507,0.24121015,0.0051377164,0.09550151,-0.29466662,-0.25878313,0.11576322,0.17723483,-0.048075736,0.063159466,0.14075208,0.03840535,-0.4508418
3,-0.29996136,-0.4004987,0.29541287,-0.01383469,0.31653258,-0.50981385,-0.37211585,-0.04736637,0.04369424,-0.16147108,-0.45877466,-0.17186269,-0.24004316,0.17121029,-0.30688885,-0.27761975,0.06718812,-0.5265334,0.14347942,-0.060990416,-0.09064318,0.35952953,-0.15504812,-0.29166603,0.341042,0.12608725,0.06303363,-0.29283467,-0.03549264,0.18990675,-0.4413608,-0.57149357,-0.48930824,-0.6676847,-0.08358492,-0.031764135,0.21764435,0.047146898,-0.18145663,-0.48840865,0.097705595,0.1549469,-0.018642332,0.060641143,-0.0006805148,0.15095529,0.38795,0.07015397,0.029307349,0.034249265,-0.34359884,-0.32377037,-0.13059787,-0.19476272,0.28142488,-0.027435059,0.21568319,-0.013044628,-0.2373346,0.02735496,-0.2227901,0.13119912,0.39830738,-0.23291053,-0.24993147,-0.053349037,0.1805384,0.58323306,0.51008785,-0.18808474,-0.1526808,-0.23638885,-0.24446353,-0.1289054,-0.17210937,-0.3780214,-0.16213165,0.13667887,-0.3934628,-0.04485607,0.4900678,-0.4023818,0.63567287,-0.2019199,-0.16804704,-0.17575417,-0.3217282,-0.017214535,-0.30901533,-0.47983524,0.111373626,-0.22007908,0.1425016,-0.49437383,-0.16749743,-0.046371143,0.1129817,0.043392226,-0.22315212,-0.63190454,-0.52044475,-0.18475536,0.24309273,-0.44753408,0.08739392,0.032544635,-0.39652508,-0.04148647,0.19260113,-0.69274294,-0.48122272,-0.080328986,-0.014525903,-0.50716496,0.101537466,-0.08465924,-0.19361866,0.034805004,-0.14519298,0.0984271,-0.13711014,-0.0707399,-0.098166026,-0.40137583,-0.32275274,-0.21259667,-0.4541908,0.2063849
4,-0.0872188,0.0020715035,-0.0036036517,-0.010773053,0.23195875,0.07831122,0.094643325,-0.019307261,-0.025648687,-0.01892313,-0.10262227,0.123087265,0.04930538,-0.17543334,-0.33153293,-0.26872435,-0.0058253068,-0.043493748,-0.024952278,-0.14389357,-0.04888067,0.049008172,-0.041709024,-0.3753248,-0.09635879,-0.4130505,-0.119159035,-0.2822948,-0.14815536,0.024449695,-0.28492895,-0.10872829,-0.115367964,-0.07024723,-0.11343729,-0.2200441,-0.05235961,0.031595808,0.044410374,0.06791188,0.040061247,-0.068082504,0.041504778,-0.24018534,0.068224125,0.04991703,-0.2841708,-0.16877489,-0.03556787,-0.20353259,-0.026257409,-0.38628614,-0.6706234,0.057170335,-0.122102104,0.15535073,-0.08547637,0.031254828,0.01693757,-0.10082128,-0.30280235,-0.16334458,-0.13212396,0.11102198,0.12588578,-0.48574007,-0.16011843,-0.22707301,-0.24973054,-0.20621565,-0.051553648,-0.03551056,-0.20543726,-0.15283571,0.06741794,0.114116974,-0.4499957,-0.06487696,-0.15141794,-0.20696999,-0.29276747,-0.17338397,0.23096591,-0.21795599,-0.07868298,-0.11670683,-0.14323156,-0.052101355,-0.2933726,-0.054496523,0.081678815,-0.07363181,-0.083895385,-0.4495571,-0.040132612,-0.042024367,-0.24766238,-0.12606049,0.0059066885,0.1607251,-0.029831443,-0.124225326,-0.11029641,0.0016027996,-0.085478775,-0.40565494,-0.1509961,-0.16688,-0.11845062,0.021843601,0.23596156,-0.11111933,-0.25331032,-0.074432,0.026317572,0.07621793,-0.06792494,-0.035136946,-0.13476479,-0.32622045,-0.16838494,-0.008719564,-0.4054514,0.10303493,0.05231498,0.020319233,-0.1947483,-0.1475873
5,0.050182834,-0.21030352,-0.011417996,-0.08175924,-0.33022833,0.0014110283,-0.14493382,0.053106274,-0.22241223,-0.010884483,-0.2125287,0.007489981,-0.08165077,-0.12712863,-0.11905926,-0.19308174,0.030685356,0.033860832,-0.062003944,-0.08722378,0.094256155,-0.19308263,-0.20863222,-0.26294252,-0.19161887,-0.09906284,-0.1289248,-0.31216493,-0.07739251,-0.1665562,-0.2080568,-0.01301486,-0.069524124,-0.2094538,0.0061097955,-0.20302887,-0.1763843,0.0032009874,-0.14545712,-0.28325936,-0.14410816,-0.14640775,-0.10913225,-0.032346338,-0.13316847,-0.03220636,-0.012527859,0.04527357,-0.18019377,-0.13365896,0.07698482,-0.35663596,-0.15714312,-0.13339837,-0.124834806,-0.023232559,-0.048193544,0.029870458,0.012786085,-0.10795184,-0.057445694,-0.039331432,0.21530344,-0.046579815,-0.09247172,-0.3406565,-0.027291454,-0.17498796,-0.10309291,-0.3248268,-0.109064445,-0.012931489,-0.011146899,0.023238659,-0.07292595,-0.0637916,-0.11614271,-0.14102711,-0.025434619,0.046560988,-0.12588656,-0.3670943,0.26784357,-0.04347233,0.10010344,-0.05958648,-0.07630799,-0.09104541,-0.045775387,-0.11020016,-0.23906118,0.032335352,0.045720235,-0.26916042,-0.17906344,-0.047216367,-0.26244795,-0.016869238,-0.15068492,-0.30302322,0.023920134,-0.1964781,-0.013312269,-0.07982519,-0.09864949,-0.41708446,-0.27225792,-0.108595334,-0.104837574,-0.30131897,-0.25213668,0.13752674,-0.046089165,-0.022854649,-0.0523089,-0.19115682,-0.2704584,-0.04403804,-0.023252524,0.08051639,-0.06083204,-0.0022974748,-0.65577775,0.026598517,-0.11564243,-0.2138176,0.014699483,0.003750133
6,-0.31910136,-0.12620004,-0.15955216,-0.13540325,0.05720247,-0.09263419,-0.021912282,0.034424044,-0.29556686,-0.13956037,-0.1008264,-0.14120656,-0.006955409,-0.32947358,-0.1685732,-0.065064,-0.057126313,-0.10684385,-0.17104602,0.001038101,-0.07789709,-0.068445064,0.027175162,-0.15641269,0.03948523,-0.25840244,0.008014401,-0.24584731,-0.18979776,-0.11145322,-0.12958018,-0.17760803,-0.23046005,-0.28110096,0.09285602,-0.1495798,-0.39951074,-0.18933865,-0.33877444,-0.15502883,-0.094188035,-0.18285729,-0.07016018,-0.115008734,-0.04039114,0.0550267,-0.16013952,-0.15543765,-0.09232247,-0.15362544,-0.115275405,-0.21741079,-0.7344299,-0.08994107,-0.05960304,-0.19762778,-0.29101402,0.0457559,0.029943299,0.0018283952,-0.24325885,-0.28644824,-0.36934432,-0.11309338,0.075233966,-0.45054615,-0.34061757,-0.030329093,-0.10240715,-0.091655046,0.03281427,-0.1227082,-0.081367545,-0.15304363,-0.20623142,-0.43535632,-0.04435808,-0.048801582,0.06712098,-0.1794457,-0.19639103,-0.0947542,-0.26085842,-0.25551456,-0.112903334,0.018553464,0.05666136,-0.048067603,-0.34323806,-0.000649679,0.18735622,0.009044383,-0.17294908,-0.34399518,-0.116214,-0.03679865,-0.22615632,-0.14453532,-0.12895413,-0.15063292,-0.035702582,-0.16009264,-0.04599582,-0.09758955,0.059119307,-0.5265167,-0.0136479,-0.08386079,-0.048649997,-0.09564327,-0.25359702,-0.17328194,-0.2921353,-0.080398194,-0.11111476,-0.21806116,-0.056039,0.00072942063,-0.18799657,-0.07023314,-0.019652609,-0.11155761,-0.482078,0.035208885,-0.12063216,-0.1358698,0.015770426,-0.3986759
7,-0.025628822,0.01809673,-0.15605116,-0.1549801,-0.15002832,-0.1421015,-0.3312658,-0.059140105,-0.13987851,-0.4734837,-0.13544233,-0.073534526,-0.12813134,-0.050128516,0.02238726,-0.060557872,0.41450942,-0.07802663,0.112024635,-0.051082574,0.0045459373,-0.14972392,0.09864841,-0.013330841,0.009952404,-0.17708644,-0.0068071047,-0.35751683,0.06136251,0.2093165,-0.07276747,-0.35174215,-0.23441942,-0.17722534,-0.13914755,-0.102078944,-0.06796522,0.04519829,-0.09984634,-0.28497145,-0.22055078,-0.20583245,-0.19217078,-0.13049988,-0.19714195,-0.19750294,-0.105480716,0.030725522,0.02928663,-0.041733917,-0.17995527,-0.15651596,0.08629868,0.03878981,-0.22932193,0.03196017,-0.18165088,-0.14055829,-0.10846809,-0.2353712,-0.33290303,-0.20847873,0.43773636,0.104533,-0.15350135,0.070393905,-0.063254476,0.09649431,-0.09368577,-0.024779225,-0.18007164,-0.044913594,-0.20874712,0.20976497,0.20837529,-0.47365293,0.10959274,-0.22730803,-0.20676169,-0.17580044,0.033383504,-0.24266258,0.31282407,-0.29780126,-2.2517079e-05,0.03262735,0.2124842,0.058260333,0.25194293,0.21180722,-0.019619917,-0.08446346,0.042688735,-0.15871838,-0.19497764,0.15328927,-0.16566116,0.025875678,-0.11561167,-0.37617022,-0.06921976,-0.10808135,-0.13109359,-0.016125,0.2080056,-0.03488082,-0.2959464,-0.10561335,-0.15573704,-0.29459772,-0.071964726,0.009501313,-0.105233066,-0.0981057,0.111170225,-0.054259617,-0.14439374,0.011517653,-0.24805067,0.096377626,0.13389401,-0.1578616,-0.09067394,0.0013655112,0.07963163,-0.056976423,-0.18122037,-0.09487708
8,-0.23571034,-0.06750156,-0.31315583,-0.102715634,-0.1967911,0.09055789,-0.01991187,0.041973885,-0.28594005,-0.12541479,-0.09681236,-0.04458023,0.044113554,-0.19003808,0.061298206,-0.14993678,0.069451444,-0.10267585,-0.12576659,-0.016353296,0.03202688,-0.07967847,-0.023695355,-0.10087264,-0.021728763,-0.26097283,0.059400942,-0.14527014,-0.06759646,0.016625373,0.05093235,-0.0139806615,-0.1621422,0.019637374,-0.17282897,-0.093044885,-0.11297537,-0.011716481,0.05346723,-0.012843063,-0.08907987,-0.04745889,-0.120371886,-0.4458303,-0.08338644,-0.34544563,-0.20647377,-0.070851706,-0.18989994,-0.057393204,-0.18054715,-0.056309935,-0.17688985,-0.17609766,-0.15072638,-0.009526143,-0.09781408,-0.10912217,0.08604864,-0.23076944,-0.046817597,-0.2228531,0.0055065425,0.09193539,0.059830625,-0.13032442,-0.0665175,-0.10107422,-0.12533957,0.052514374,-0.23255475,-0.020541731,0.0058574183,-0.2731153,-0.1248062,-0.03125304,-0.06381378,0.0012660124,0.101082794,-0.21316418,-0.18213621,-0.07939423,-0.11950898,-0.19518523,-0.00090981124,-0.013683994,0.1227285,0.024388812,0.13261545,0.036026478,-0.055112883,0.0045763077,-0.060570918,0.055807333,-0.09349677,-0.19343133,-0.17136224,-0.084544875,-0.028750127,0.11061889,0.036639847,-0.010284967,-0.01255022,0.013528346,-0.073827,-0.13139477,0.030556764,-0.1526082,-0.22174457,0.115655,0.080791555,0.037727375,-0.114092804,0.08252903,-0.25085184,-0.19012572,-0.13905519,-0.011882878,-0.123892784,0.121478446,0.043866187,0.093519956,-0.047385976,-0.24381098,-0.08484366,0.057779633,-0.15507732,-0.3483393
9,-0.26381987,-0.09506758,-0.14258416,0.019791987,-0.26439255,-0.0028104181,-0.004120783,-0.039344333,-0.17355703,-0.20280662,0.01499384,-0.059397273,-0.07645141,-0.15164839,-0.23765479,-0.04374342,-0.041366838,-0.012499046,-0.1881433,-0.14322484,-0.07140413,0.024718693,-0.07280458,-0.022063613,-0.28179958,-0.23656799,-0.15057057,-0.08871391,-0.09282312,-0.19708614,-0.3402785,0.0017653657,-0.22649845,-0.0134793185,-0.00016573748,-0.12383789,-0.2411555,-0.032098375,-0.13055661,-0.08665793,-0.09013594,-0.21174085,-0.090512745,-0.22474355,-0.1954653,-0.13472576,-0.46061805,-0.31079504,-0.11672226,-0.075558856,-0.14359526,-0.07801191,-0.30700782,-0.0008434659,-0.39601508,-0.092238575,-0.11150124,-0.42184636,0.14557876,-0.20400238,0.15079843,-0.12105501,-0.46523148,-0.06553024,-0.079388805,-0.36762947,-0.25463513,-0.041176103,-0.1603649,-0.11287251,-0.04427495,-0.09562908,-0.19009726,-0.17746301,-0.064934045,-0.012329955,-0.2329981,-0.14608508,-0.070907556,-0.027760454,-0.28017846,-0.20357296,-0.045581553,-0.35514238,-0.1401827,-0.09520449,0.12072925,-0.06890064,-0.31799603,0.052238815,-0.13171795,-0.24094757,0.04605836,-0.33163077,-0.1676639,0.052312583,-0.44336313,-0.24071848,-0.10276842,0.14858122,0.052210193,0.1152824,-0.3416282,-0.24458693,-0.03913446,-0.33544993,-0.01479933,0.05465439,-0.34612736,0.13850322,-0.05368904,0.022122711,-0.22837615,-0.2880336,-0.22470944,-0.19726971,-0.0012534942,-0.06497774,-0.13174002,-0.08348057,0.1991287,-0.13091257,-0.5373664,-0.13583682,-0.1185308,-0.20610368,-0.0362641,-0.2669864
10,-0.23830985,-0.03696046,-0.27563936,0.012355579,-0.5783094,-0.1665789,0.14312224,0.032581948,-0.26837966,-0.14424084,0.7060364,0.21240596,0.11127508,-0.43888208,-1.1764106,0.15404776,0.022204874,0.15866898,0.08878672,-0.024583038,-0.32120705,0.00080363575,0.08151461,0.36745313,-0.12911588,-0.619037,-0.14464365,0.6926101,0.018872682,0.019299228,-0.19940425,0.09220211,-0.12551321,0.34395182,-0.010046865,-0.24297911,-0.17861286,-0.17524002,-0.11105814,0.26884022,-0.16300133,-0.3187046,-0.075106986,-0.70877916,0.17322843,-0.42553386,-0.6191249,-0.71860963,0.045322765,0.04160646,0.02367163,0.5818536,-0.85119134,-0.005881514,-0.2139496,-0.16659549,-0.40183756,-0.9583445,-0.12640478,-1.3459244,0.41582733,-0.102310136,-1.596965,-0.2551078,-0.09528386,0.27611923,-0.1575729,-0.6672889,-0.73496723,0.22304325,0.08400892,0.08401119,-0.11114397,0.12184195,0.27884984,0.42509425,-0.17791325,-0.31133297,-0.14265609,-0.6234313,-0.3767837,0.47985506,-0.034717117,-1.4959164,-0.11935493,-0.12452601,-0.16862126,-0.13881367,-1.0124822,-0.02803129,-0.13654597,0.27331582,-0.0791656,0.12391336,0.06597582,-0.15711719,-1.142318,-0.34220666,-0.11851596,0.19807859,0.09829387,0.1586888,-0.3131842,-0.1188405,-0.06768777,-0.26216778,0.38520187,-0.12602676,-0.3974306,0.37802812,0.167155,0.16616037,-0.58104753,-0.027487094,-0.5980241,0.07424032,0.37621465,-0.030140284,0.085605815,-0.48740095,-0.13371687,-0.050683565,0.18269722,0.24098778,-0.009445807,0.26081768,0.11576999,-0.060938265
11,-0.1193796,0.009178886,-0.26426056,-0.21873672,-0.14063938,0.028943248,-0.24710785,0.121616274,-0.060031626,-0.09683365,-0.12249237,-0.043246996,-0.057604373,-0.25397602,0.003835078,0.022997452,0.08647889,-0.11837998,-0.070009135,0.07227741,-0.18663162,-0.16804613,0.05711624,-0.10569997,-0.21722274,-0.3297843,-0.18835422,-0.11780865,0.08063268,-0.08939093,0.027008573,-0.015241679,-0.20750277,-0.10033638,0.29309326,-0.00045300138,-0.22391737,0.04580773,-0.08431075,-0.18950613,0.003225028,-0.27566132,-0.17071208,-0.3046523,0.00015258412,-0.17252326,-0.05531751,0.0022342182,0.067702346,-0.037724975,-0.28785414,-0.36662677,-0.27359614,-0.005134109,-0.4055292,-0.09837276,-0.22810501,-0.15527152,-0.21308821,-0.07930512,-0.32255492,-0.03815535,0.08763255,0.08045533,-0.04081865,-0.30975613,0.010022097,-0.031519916,-0.19558777,-0.05571728,-0.08821841,-0.14219224,-0.07852627,-0.10497989,-0.12902267,-0.34467095,-0.06607655,0.081711635,-0.2079273,-0.20601961,-0.19337322,-0.1306209,0.061821725,-0.17394839,0.11931958,-0.18143834,-0.010941165,-0.33866066,0.098361984,-0.26728052,-0.11657854,0.012240124,-0.003001215,-0.17480543,-0.14631565,-0.15463644,-0.43826735,-0.22262026,-0.26210028,-0.25150383,-0.051275752,-0.09856542,-0.14615346,-0.08619138,-0.04741135,-0.16131267,-0.129975,-0.10640669,-0.19184646,-0.2575276,-0.015466504,-0.05472336,-0.057886884,0.061179206,-0.12274967,0.07969183,-0.09784669,0.15979698,-0.10053507,-0.12020274,-0.1729718,-0.0748759,-0.27069476,-0.13562852,0.14560689,-0.013554901,0.07992063,-0.009767899
12,-0.17872241,-0.14591186,0.21937022,0.084986255,0.21202354,0.021379385,-0.34043947,0.10996846,-0.032019146,-0.18858209,-0.19745317,0.07508244,-0.34204933,0.089402735,0.043601695,-0.08443873,-0.059656896,-0.108645044,0.03747879,0.09920517,-0.013473608,-0.05619607,-0.115421794,-6.932252e-05,0.19507746,0.085262105,0.15387118,-0.061154567,0.08809399,-0.13610847,-0.28252095,-0.45026404,-0.19250208,-0.30641124,-0.0724573,0.16868371,0.060546607,-0.07892602,-0.098463774,-0.20021036,-0.15752621,0.095876634,0.19608302,0.20323853,-0.27761292,0.13713004,0.022321912,-0.010055318,-0.11590915,-0.1549484,-0.06517066,-0.019052133,-0.042812638,-0.02020864,0.17327617,-0.14304031,0.041546255,-0.10180079,-0.10666364,0.05044824,-0.33851787,0.028305527,-0.08430944,0.008994005,-0.18441628,0.07198264,0.051601443,-0.14561518,0.28442845,-0.31504652,-0.053721372,-0.12108036,-0.3114751,0.1329497,0.10972323,-0.14050859,0.24849164,0.19059679,0.04263966,-0.041587725,0.28948683,-0.031559784,0.07717864,0.028084055,-0.009917408,-0.16337863,-0.11307406,0.27009347,-0.059087306,0.038102016,0.06414919,-0.22071014,-0.15161927,-0.061121352,-0.34348884,-0.06873192,0.384317,-0.057407357,-0.23511486,-0.24924816,-0.19251892,-0.39846274,0.28088745,-0.09557314,-0.0038826389,0.33341125,-0.085109964,-0.12670572,-0.15706754,-0.16100055,-0.037808128,-0.18172106,-0.095949866,-0.5160434,-0.026862528,-0.08952945,-0.2746888,-0.1230909,0.07472975,-0.011635,0.1416871,-0.081902206,0.18210341,-0.050507218,-0.17711018,-0.26260602,-0.18589269,0.051672813
13,0.5639758,-0.038909797,-0.15226355,-0.05685241,-0.44936848,-0.2927698,-0.00089038577,0.06762107,0.2068124,-0.108343765,-0.22320202,0.20020667,0.016930832,0.22966613,-0.17591134,-0.07995715,-0.05344906,-0.32626384,0.11576965,-0.03879561,0.1614679,0.030473506,-0.07156618,-0.5240017,-0.4896673,0.25712633,-0.16898906,-0.0380719,0.054840688,0.02126078,0.35713425,0.24840018,-0.14276066,-0.47862992,0.06391529,-0.39682162,0.108049884,-0.09444555,-0.21802714,-0.24164478,-0.48272702,0.24387121,0.025630174,0.1369445,0.26604232,-0.49643555,0.018159712,-0.20074186,-0.09732726,-0.058264725,-0.18416867,-0.9969839,-0.7728992,-0.305561,-0.41081426,0.24616306,-0.33077314,-0.3097392,-0.13384347,0.022049785,-0.001682135,0.0506168,0.118818395,-0.32293838,0.07614985,-0.7178925,-0.06495244,-0.48979315,-0.29735577,-0.0863337,1.2123611,0.11836611,-0.10848019,-0.29482907,0.050551824,-0.62113416,0.14395328,0.38126397,-0.24466692,0.8741603,-0.009885521,-0.15694247,0.25576064,-0.23444718,0.03820376,-0.15807186,-0.20968385,0.10553958,-0.23138124,0.101875685,0.054898318,-0.105367064,-0.04737008,-0.36153093,-0.12302327,-0.21139109,-0.44634372,-0.19604726,-0.0059769806,0.15562047,-0.24881348,-0.0874584,-1.1986624,1.1637691,-0.019068316,-0.42600408,-0.32519445,-0.3784245,0.17400908,-0.17338313,0.13667937,-0.024415147,-0.02996866,0.6252427,-0.2325434,-0.38301006,0.3934148,-0.1505379,0.03623173,-0.64167786,-0.42186186,0.13202478,-0.013634446,-0.103642076,-0.11199458,-0.21765576,-0.10025277,0.2063256
14,-0.19579515,-0.22854124,-0.17029266,-0.117011875,-0.06823019,-0.077737704,-0.16695958,0.15150835,0.027296556,0.06591393,-0.2235512,-0.066800065,-0.21299367,-0.025754932,-0.2821945,-0.31868625,-0.047212612,-0.28647503,0.014693475,0.14037116,0.0214522,-0.054874916,0.08638265,0.016360858,-0.16337202,0.025112068,-0.13664782,-0.23678255,-0.070894614,-0.007183125,-0.25046486,-0.225371,-0.17532614,-0.19144708,0.10425375,0.14658073,-0.095884636,-0.04788323,-0.0857933,-0.0019556081,-0.24575867,-0.079589434,0.008456786,-0.16584532,-0.19698623,-0.16992837,-0.033181652,0.017000346,-0.12562627,0.098274596,-0.13217045,-0.39109066,-0.3817082,-0.08781316,-0.015083583,0.013268888,-0.015937833,-0.21101466,-0.058934025,-0.19075225,-0.31822672,-0.11286864,-0.22626047,-0.044020355,-0.07077795,-0.43550643,0.030090274,-0.011811939,-0.20451641,-0.22132413,-0.25135475,-0.14705233,-0.056084376,-0.15663521,-0.19023609,-0.3684548,-0.089852385,0.02896796,-0.10873755,0.028303007,-0.22370094,-0.04269577,-0.08132205,-0.09317698,0.038312167,-0.24146755,-0.0071363156,-0.17312631,0.037260428,-0.24439782,-0.14932309,0.068691686,-0.06592938,-0.1430915,-0.13386181,0.12108687,-0.052632496,-0.10074313,-0.23506545,-0.15576214,-0.034084395,-0.18856394,-0.15009002,-0.11522856,0.0088627925,-0.54552346,-0.44333288,-0.15210493,-0.2881665,-0.31971624,0.011820351,-0.04521911,0.11348198,0.008873363,-0.08491911,0.11692288,0.0027737385,0.14313701,0.0054858807,0.008562844,-0.14435849,0.04721077,-0.42237005,-0.10118511,-0.013207952,-0.11308126,-0.08436677,0.15404531
15,-0.061492532,-0.4250571,-0.2913746,-0.307264,-0.45196387,-0.30986062,-0.029920451,-0.1654735,-0.3011027,-0.041577775,-0.28202745,-0.083392054,0.0024104996,-0.29801962,0.14385433,-0.2574751,0.09034432,-0.3723829,0.063981175,0.1756776,-0.3451058,-0.46013,-0.028226411,0.026747325,-0.39543536,-0.13963708,0.14754024,0.011309464,-0.060220547,0.09375253,-0.3290195,-0.115452506,-0.15877368,-0.07767528,-0.072117254,0.10409716,-0.44306043,0.003469457,-0.14649084,0.19703637,0.026376162,-0.28191,-0.15756026,-0.06867134,-0.3950882,-0.5578747,-0.10566814,-0.23642658,-0.029535599,-0.16489375,-0.14039655,-0.14461316,0.68844104,0.28457522,-0.61224365,0.23469366,-0.39757702,-0.33363575,0.034516595,-0.09275451,0.09140228,-0.0974781,0.64086473,-0.083094284,0.05317312,-0.422962,-0.17040627,0.6531497,-0.30368316,-0.21575432,-0.26771367,-0.42052978,-0.24927565,-0.12815547,-0.15388575,0.4671143,-0.20552748,-0.29916632,0.07367437,-0.1869804,-0.28548115,0.07151353,0.20976552,-0.0024571358,0.061312985,-0.082042314,-0.2763636,-0.11432425,0.52416486,-0.35971788,-0.243858,-0.17943966,-0.056081716,0.13551621,-0.3015089,0.025348714,-0.27895293,-0.0948307,-0.30277273,-0.09448142,0.07547515,-0.16069476,-0.5761927,0.06534689,0.02852585,0.45467135,0.055912405,-0.037804455,-0.046787005,0.026303034,-0.08237609,0.0041639134,-0.06628081,-0.16142279,-0.280971,-0.29523775,-0.06750727,0.056272876,0.24887753,0.09244917,-0.16197714,-0.116912246,-0.2398864,-0.028432436,0.149533,-0.099510975,0.09582498,-0.01728537
16,-0.040175296,-0.026438016,-0.118455574,0.04983141,-0.14089145,-0.01427422,-0.057362795,-0.017670454,-0.10627067,-0.10795357,-0.23643407,-0.09919289,-0.131932,-0.16818078,-0.22232194,-0.25787252,0.14590155,-0.11711207,0.038667634,-0.013676059,0.006758774,0.09077714,0.0572335,-0.14316913,0.02634987,-0.14412239,0.041427583,-0.095606074,-0.08512258,-0.15156916,-0.2038658,-0.16398264,-0.074678004,-0.055207223,-0.06824194,-0.05945328,-0.15465361,0.03376121,-0.1733704,-0.03228412,-0.019707007,-0.20363165,-0.105708785,0.04155589,-0.12210754,-0.019621879,-0.06153313,-0.10766482,-0.18673731,-0.08660722,-0.03314689,-0.078623205,-0.32590944,-0.15746552,-0.10290087,0.1390283,-0.084367976,0.00949654,-0.0854418,-0.14297497,-0.06631217,-0.023614785,-0.06954083,-0.09523309,-0.18417111,-0.008570662,-0.11757903,0.056755304,-0.14390989,-0.12010496,-0.17629525,-0.1170492,-0.24782793,-0.16941577,0.0138527835,-0.23442842,0.2301943,0.23524894,0.09046584,0.007993231,0.067654185,-0.27922934,-0.0034901362,-0.16107443,0.09079033,-0.10576225,0.14004554,0.17446215,0.044979688,-0.15035145,0.22259246,0.10399818,-0.07142717,0.030072285,-0.14167365,0.09595497,-0.087990396,-0.1289379,-0.12651537,-0.15368235,0.006053194,-0.21249901,-0.22443047,-0.050228138,-0.057247236,-0.065746695,-0.22352068,-0.10725975,-0.11500919,-0.16307084,-0.13742447,0.0787932,-0.081895806,-0.06747106,0.24593858,-0.055688497,-0.09347783,-0.08429652,-0.16594675,-0.043003153,-0.063119456,0.014618712,-0.23042618,0.10554162,-0.16179563,-0.25981846,-0.07113057,-0.022311596
17,-0.11915932,-0.2957649,-0.17463344,0.39284936,0.05363461,-0.08069452,0.023962962,-0.04538441,-0.36011827,0.18729661,-0.4099062,-0.16977078,0.023531346,0.046400547,0.71390533,-0.2595552,0.15609089,-0.3313138,-0.032300405,0.19193628,0.03523957,0.32534778,-0.17119548,-0.56452763,-0.08660954,-0.06616645,0.04279245,-0.4967226,-0.05280206,0.27594456,-0.11644702,-0.073283605,0.028482756,0.44444656,-0.010389518,-0.10393605,-0.46010733,-0.09250664,0.15276398,-0.24544822,-0.10893272,-0.2866748,-0.394793,-0.26370534,-0.066393316,-0.32133368,-0.21282287,0.105667084,-0.1420307,0.16116102,0.212276,-0.72919846,0.23300318,0.29320532,0.07905009,0.33956188,-0.17345321,-0.05790866,-0.26643836,0.31502,-0.1467585,-0.14541054,0.5810755,-0.1513293,-0.107274115,0.06582511,-0.14203806,0.9384049,-0.37249705,-0.10243888,-0.17721352,-0.1647244,-0.18592048,-0.03470651,-0.6694665,-0.15213794,0.16131932,0.106181145,0.17125763,-0.028683338,-0.23082182,-0.6768945,0.55693394,0.18100475,0.029191028,-0.04380065,-0.08678544,0.14127171,0.26647455,-0.86717945,-0.12493198,-0.02107072,0.16374768,0.18174711,-0.13360968,0.070309855,0.1746129,-0.36161557,-0.19000553,-0.0039085583,-0.02679468,-0.4840166,-0.36936387,-0.28560993,-0.12128596,-0.12940933,-0.014264053,-0.3002925,-0.2685966,-0.17245543,0.0878054,-0.04301819,-0.107888944,-0.17256607,-0.17692359,-0.26388678,-0.5291556,0.09273617,-0.30402842,0.08440968,0.41487265,0.018936979,-0.036662173,-0.22704063,0.25513607,-0.46681228,-0.45024052,-0.14319547
18,-0.12903494,-0.13010111,0.045066465,-0.0034925898,-0.24093927,-0.042423118,0.0064079654,0.06382933,-0.21551313,0.0803192,-0.0065964004,-0.16258578,0.0047761193,-0.105141774,-0.12012251,-0.1808431,-0.049775593,0.0073697018,-0.08551324,0.063837625,0.0055633495,-0.102450505,-0.14098889,-0.09725787,-0.1848496,-0.042210884,-0.11048726,-0.08472753,0.16048346,0.028244166,-0.008997964,-0.15577814,-0.112279244,-0.10387181,0.13832955,-0.07932077,-0.07108382,-0.09862019,-0.0065620164,-0.2049014,0.012519187,-0.218446,0.04459356,-0.12710232,-0.09373752,-0.20002404,-0.0943407,-0.052479025,-0.21661936,0.0024530098,-0.039521262,-0.30502298,-0.029169377,0.047907997,-0.2781469,-0.16954364,0.06246,0.05516305,0.09303196,0.040243812,-0.10363812,-0.08629437,-0.23753971,-0.16811289,0.120782696,-0.22696963,-0.01892647,-0.0024567689,-0.15075068,0.0132607445,-0.043474477,-0.08932101,-0.01847793,-0.05509337,-0.10064738,-0.1762985,-0.10526201,-0.028615471,0.0005918344,-0.06209857,-0.054502282,-0.09544093,-0.44579175,-0.15329933,0.07591635,-0.14236905,0.003391403,-0.13144068,0.071390815,0.011699456,-0.22441576,0.1057685,0.21060535,-0.01703817,-0.029241502,0.028872812,-0.099551074,0.041758318,-0.06969546,-0.058937583,0.035528384,0.10589463,-0.0050611207,-0.09273909,-0.08762254,-0.13286994,-0.120423466,-0.0023022026,-0.18154468,-0.15516298,-0.24520342,-0.05089158,-0.079260714,-0.10759206,-0.0056779436,-0.09478291,-0.24219662,0.03664564,0.099671,-0.03776512,0.20949313,-0.10899818,-0.2282678,-0.08813163,-0.10175408,0.07128629,-0.10383346,0.024411546
19,-0.10793291,0.06564822,-0.300154,0.11596558,0.01207672,-0.032685116,-0.0063863755,-0.07801271,-0.19464292,0.020540074,-0.06860998,0.12006109,0.16571088,-0.3238015,-0.6883817,-0.18729223,0.022896446,-0.019289507,0.07287884,0.0026210188,-0.2543106,-0.17336059,0.109379664,-0.26356494,0.082358085,-0.6871109,-0.030999593,0.064975485,-0.15506315,0.17711923,0.14734408,0.22382276,-0.09773519,-0.055544067,-0.021280779,-0.1908487,-0.3452147,0.016959872,0.37783712,0.13341185,0.09652318,-0.6344351,0.28091922,-0.72698873,0.3872349,-0.15806095,-0.35289145,-0.1666086,0.11108771,-0.12677723,-0.0049921335,-0.11324736,-0.4095709,-0.15119459,-0.27390563,0.08553873,-0.4050912,-0.17476264,-0.11198503,-0.36410248,-0.03783955,-0.45312297,-0.29961,0.14245684,0.013825239,-0.20528223,-0.40010104,0.13532674,-0.09010702,-0.08396352,-0.37254882,0.077177666,0.060893007,0.00072523946,0.053006615,-0.40350518,0.02000638,-0.37153423,-0.17654364,-0.7530697,-0.32701892,-0.13488716,-0.07311085,-0.27001688,-0.07596238,0.3943945,-0.10862995,0.22639136,-0.51265234,0.22072935,-0.077288166,-0.034747574,-0.021376248,-0.72007644,0.12258595,0.050068326,-0.28644997,-0.28507033,-0.12320681,0.18858358,-0.13145635,0.014990429,0.123961255,-0.5229005,-0.06930287,-0.051530372,-0.042015653,-0.17274426,-0.45478058,0.11613878,0.27481085,-0.041392803,-0.30009732,-0.058812644,-0.1419956,-0.07074418,0.17864813,0.073164046,0.06879888,-0.58984125,0.10666374,-0.08100145,-0.07991731,-0.10809416,-0.020217571,0.13864695,-0.15984079,-0.35185456
20,0.06840538,-0.20529011,-0.0056699505,0.008081706,-0.04818875,-0.0474805,-0.109155364,-0.08981139,0.10804336,-0.061285853,-0.4934257,-0.103371575,-0.22220986,-0.116853975,-0.29781044,-0.2775316,0.039534613,-0.20202976,-0.08349892,-0.0014469667,-0.20308203,-0.0999905,-0.06648816,-0.4509842,0.24353057,0.13746563,0.016472757,-0.30633256,-0.04011702,0.0060220864,-0.48391348,-0.43792784,-0.19670455,-0.27143058,0.15435894,-0.21455838,0.020128878,0.11381904,-0.29327995,-0.23293756,0.019103447,0.15104294,-0.15274869,0.0015594395,-0.1119306,-0.0723491,0.13763312,0.09671561,-0.11730025,0.014706437,-0.3331391,-0.4180377,0.002188553,-0.017832287,0.008433376,0.03887096,0.107971914,0.0120293135,-0.02581823,0.07742344,-0.287329,0.19860943,0.12960227,0.18092114,-0.00651577,-0.5542752,0.07297205,-0.2871527,0.118342906,-0.50478375,-0.10400954,-0.09009904,-0.17517751,0.11111362,-0.28916064,-0.72215414,-0.04894418,-0.13086273,0.06416519,0.13218929,0.33247653,-0.2445103,0.2268131,0.02741322,-0.13507728,-0.0451703,0.08267604,-0.1571678,-0.23687284,-0.21748693,0.033102665,-0.011168907,-0.14589885,-0.41448423,-0.1021518,-0.08556059,0.0070667444,0.1629499,-0.17225687,-0.2641356,-0.14620696,-0.18486261,-0.12054611,-0.03685669,0.09714393,0.10756536,-0.39853016,-0.09681893,0.24698845,-0.281429,-0.12342622,0.07249347,0.100343056,-0.31561896,0.036810283,-0.035349093,-0.08637161,-0.013306077,-0.2112463,0.028218003,0.058201708,0.040178012,-0.6133599,0.06583443,-0.06796434,-0.012678858,-0.4175865,0.26627925
21,-0.0053719208,-0.11981733,-0.09470967,-0.037510455,0.11973824,0.017853878,-0.22211717,-0.06074395,-0.13984297,-0.12788822,-0.076738484,-0.04147604,-0.18745397,-0.010382339,-0.16617629,-0.07800712,0.0025459586,-0.25685525,-0.13278122,-0.046751518,-0.036980264,-0.07825487,0.06581268,-0.22689606,-0.1275264,-0.12662,0.13536592,-0.15382876,0.08487202,0.08832305,-0.19661334,-0.21055004,-0.06956428,-0.2867797,-0.05270272,-0.11793718,-0.08534151,0.14457962,0.06530628,-0.067643955,-0.24937165,-0.07487633,-0.08853658,0.085507244,-0.06877435,-0.054228745,-0.10743456,-0.038247894,-0.16685674,0.004050901,-0.22513518,-0.30762458,-0.11115365,-0.18192323,0.014003048,0.11721336,-0.09694417,-0.26375982,0.014857648,-0.19031623,-0.19828941,-0.1978289,0.2569468,0.07276525,-0.14601204,-0.22320169,-0.13072978,0.11331837,-0.06149824,0.0005710416,0.018691918,-0.17946914,-0.15649514,0.058869895,-0.09517989,-0.10888916,0.12753992,0.25123197,0.1468119,0.029103266,-0.017730068,-0.307575,0.28539777,-0.17733984,-0.036805544,0.14780845,-0.020915117,-0.045601707,-0.22527799,-0.12441495,0.015723601,-0.11210286,-0.032974664,-0.23550956,-0.024056979,-0.06539601,-0.07023381,-0.09729164,-0.23829395,-0.030936366,-0.03476385,-0.27803037,0.15333372,-0.07205451,0.067512766,-0.15319487,-0.059670035,0.07791326,-0.18191688,-0.2535815,-0.08284563,0.15699235,-0.025850207,-0.3154954,-0.12527572,-0.13008606,-0.03243324,0.18660751,-0.11681267,0.084226504,0.17681256,0.09092055,-0.1572425,0.031019209,-0.086571485,-0.28243715,-0.10222168,-0.082992315
22,-0.13284189,-0.11841317,-0.123458706,-0.1614051,-0.10228416,-0.12480134,0.01833344,-0.080358036,0.0021717881,-0.07054712,-0.2468081,-0.02496464,-0.12811609,-0.07771749,-0.08754984,-0.17875642,0.02092544,-0.002959968,-0.17186247,0.14549237,-0.15710989,0.06240223,-0.046083964,-0.3080947,-0.2899136,0.058434717,0.059168458,-0.353558,-0.006066571,-0.16335617,-0.077966034,-0.1682818,0.060569424,-0.29778028,0.17297097,-0.006808093,-0.19979857,0.041230522,-0.19967084,-0.090313576,-0.08434196,0.029453337,-0.07322834,-0.100245655,-0.12324988,-0.08555712,-0.16939148,-0.2650624,-0.21057916,-0.117400624,-0.1670458,-0.18610135,-0.29109144,-0.27698347,-0.038325556,-0.039136216,-0.037446436,0.102122396,0.0041383617,-0.09208455,-0.2691866,-0.05496532,-0.35976893,-0.22985332,0.06465148,-0.31941852,-0.0124264,-0.131523,0.025737096,-0.0748305,-0.08886284,-0.16184407,-0.08436448,-0.18017252,-0.19577189,-0.2338221,-0.14118814,-0.26359388,-0.074768044,-0.24708414,0.066792704,-0.17710106,-0.163921,0.01826247,-0.019327668,0.0017514944,0.032303426,-0.024805624,-0.066548586,-0.06571778,-0.2652755,0.07123178,-0.0666702,-0.22817531,-0.19356559,0.04376706,-0.24478868,0.10414256,-0.14552493,-0.1927473,-0.19841352,-0.20737644,-0.29044992,-0.2248975,0.07115342,-0.18553242,-0.26611993,-0.15954074,-0.052789826,-0.31292927,-0.13697295,0.12733325,0.07286164,-0.15471844,-0.077868454,-0.16792795,-0.16596144,0.05528858,0.093304,-0.0738488,0.07543713,0.07400665,-0.3587104,-0.022288788,-0.11535139,-0.09914487,-0.14245492,0.03255098
23,-0.003962187,-0.09849193,0.05265108,0.068864025,-0.0015335013,-0.17848,-0.22431363,0.0401119,0.05130896,-0.1595699,-0.35738832,-0.0077147293,-0.18633603,0.024825137,-0.086154215,-0.13374269,0.05753613,-0.21286462,-0.017478138,0.04795475,0.15245107,-0.15645008,0.15166213,-0.33817348,-0.00040415965,0.067104824,-0.027484791,-0.31250396,0.030515576,-0.10410897,-0.9398593,-0.35708863,-0.3191773,-0.30681032,0.08422867,-0.39029542,-0.056443855,-0.17452127,-0.26741156,-0.1470331,0.0036858127,0.1272285,-0.06912566,0.13777597,-0.08147362,-0.031339012,0.049350757,-0.02407553,-0.33431885,-0.157288,0.037090734,-0.41442242,-0.8900312,-0.3309561,-0.07119118,-0.12414812,0.03181053,-0.37260735,0.0050716684,-0.15015104,-0.3091441,0.019700848,-0.5886091,-0.3949542,0.025053969,-0.8051286,0.10243379,-0.16398183,0.013029244,-0.4255847,-0.26722813,-0.03756144,0.12770526,0.032055486,-0.121767975,-0.35063407,-0.107661605,-0.06069251,-0.07498434,-0.34140632,0.038926933,-0.3413208,-0.15800883,-0.12816308,-0.1820201,-0.10410592,0.06660206,0.10349855,-0.744121,-0.06064738,0.034938846,0.0011219705,0.006597435,0.13152707,0.0554617,-0.055838272,-0.16429111,0.066913515,0.032235555,-0.072797015,-0.04549341,-0.34032103,0.5896457,-0.046553995,0.17259055,-0.8022009,-0.18236117,-0.22952469,0.24589783,-0.04832625,-0.15611146,-0.06910526,-0.11067044,-0.283853,-0.15710457,0.14605734,-0.38451916,0.087849945,-0.069732405,-0.010719162,0.15993024,-0.073957026,-1.0040959,0.0053453045,-0.15062633,-0.026046377,-0.12999023,0.18835242
24,-0.2658586,-0.36666664,0.051345907,-0.041104715,0.03184288,-0.25521624,-0.36774746,-0.07727123,-0.0078112497,0.10087184,0.062336072,-0.56151605,-0.45981938,0.08613275,-0.006246871,-0.37658986,0.007429373,-0.36140078,-0.096183196,-0.025622405,0.067818254,-0.6521197,-0.004939887,-0.01651407,-0.006393341,-0.04313062,0.012749993,-0.3334207,-0.106595896,0.013297536,-0.81681335,-0.7164367,-0.2817293,0.21772172,0.09583519,0.30551368,0.2552747,-0.0066005834,-0.58155715,-0.8482711,-0.29686275,-0.15439397,-0.16954382,-0.011265704,-0.11790779,0.07736136,0.011578825,-0.060610443,-0.09456865,0.05400684,-0.20424402,-0.20630375,0.8394871,-0.24277946,0.17575929,0.032221325,-0.063051105,0.03576865,-0.056754142,-0.13740805,-0.16514216,-0.08686025,0.5906344,-0.098883376,-0.13903598,0.17448795,-0.0061319205,0.57586765,0.021832837,-0.25915948,-0.022896474,-0.3397377,-0.45824054,0.027981125,-0.28451335,0.27174956,-0.13893719,-0.0061953897,0.0639362,-0.0672875,-0.011756692,-0.20590948,0.007724749,-0.032623906,-0.00044251373,-0.45837778,-0.1287765,0.036549505,0.41531426,-0.25990775,0.18027517,-0.21673341,-0.10133651,0.6474184,-0.34627578,0.081167616,-0.006655436,-0.1419208,-0.092419244,-0.91997594,0.0710851,-0.44875726,0.17061946,-0.0006608383,-0.08348355,0.29947853,-0.03200871,-0.014514168,0.08043019,-0.69640934,-0.29351866,-0.19194503,-0.00698482,-0.5139296,0.08564362,-0.07001953,-0.059576716,0.08620341,-0.49002567,0.24128662,0.24955864,-0.033196572,0.13684888,-0.17445466,0.21952888,-0.46119606,-0.4151746,-0.024648147
25,-0.24953306,-0.76748484,0.24256614,0.077140905,0.44872808,-0.2952523,-0.632027,0.03873739,-0.19997278,-0.099559836,-0.15353042,-0.10864403,-0.007216233,0.02714291,-0.5742787,0.01764857,-0.1092767,-0.5609598,0.06619055,-0.16547439,0.009321894,-0.2156304,-0.15532432,0.20508103,0.21302642,-0.1427007,0.23098585,-0.2434464,-0.235869,0.3389132,-0.43728912,-0.40370405,-0.48575923,-0.03392376,0.05729891,-0.24013664,0.15062147,-0.040213432,-0.015533366,0.15215364,-0.0749755,-0.1448149,-0.3255725,-0.08566714,-0.045781657,0.31792855,-0.097102866,-0.021540312,0.19243746,0.10700779,-0.3758011,0.06466002,-0.39670733,0.19584402,0.29766065,0.042539876,0.19290231,-0.1276934,-0.051291898,0.031714942,-0.16686958,-0.24360307,0.4890425,0.07702923,0.044771306,-0.26375434,-0.22542219,-0.13332447,-0.029892819,-0.05946515,-0.2682344,-0.25439203,-0.55136204,0.29852164,-0.28247282,0.07504487,-0.039244987,0.03135306,-0.33639875,0.050559748,0.16401277,-0.04998655,0.4397561,-0.13223341,0.027801167,0.15182985,0.01849614,-0.08085034,-0.33130315,-0.42727685,-0.100953855,-0.480985,-4.397913e-08,-0.06688482,-0.58840877,0.036264647,0.32809663,-0.06901663,-0.37346137,-0.18911384,-0.07276344,-0.44082648,0.35960189,-0.3396145,-0.18598373,-0.37472653,-0.040673986,-0.37534133,-0.29135147,-0.038651958,-0.21540987,0.11624757,0.0029267897,-0.35721055,0.09070844,-0.0012202096,-0.012326003,0.1366657,0.12085269,-0.19977763,0.19506624,-0.13501334,0.5836802,0.035346303,-0.25942302,-0.45341837,0.06265511,-0.20126027
26,-0.15464184,-0.06551629,0.12834354,-0.03857611,0.049005255,-0.083232716,-0.2095211,-0.11127947,-0.12002347,0.050732296,-0.05902666,-0.041057467,-0.110396944,-0.06829721,0.047007654,-0.25779983,-0.016566308,-0.15007095,-0.012300931,-0.07701889,-0.08873376,-0.108483344,0.07880221,-0.17292655,0.32582486,-0.18244772,-0.10966861,-0.048769873,0.0074634366,-0.15881014,-0.79736245,-0.28470054,0.054685306,0.08848335,-0.055227015,-0.18268368,-0.25510013,0.06751397,-0.13773793,-0.10228047,-0.070311524,-0.28610954,-0.03284594,-0.16024117,-0.20620611,-0.1526601,0.08971582,0.194362,-0.2340568,-0.0422484,0.09018722,-0.14774953,-0.67879003,-0.09244102,0.06553326,-0.22477801,0.08890805,0.16293511,-0.15039605,0.040663365,-0.008623301,-0.12922458,-0.6850365,-0.27288726,-0.15050259,-0.32787338,-0.09684623,-0.23901193,-0.013514968,-0.29156274,-0.3312984,-0.1540433,-0.059873555,-0.02174051,-0.012532927,-0.21388789,-0.3184368,-0.045197807,-0.14174658,-0.16945589,0.04048907,-0.09423804,0.029584892,-0.20069386,-0.04957243,-0.0132545475,-0.12701154,-0.20507,-0.376352,-0.050285846,-0.15864114,0.18086739,0.12193976,0.31869167,-0.035538133,0.15375246,-0.09656429,0.07484753,-0.009200017,-0.25867057,-0.16206402,-0.051381048,0.75758904,-0.49337986,-0.08944958,-0.41246367,-0.35097438,-0.16782218,-0.12508202,-0.17409803,-0.044319253,-0.02324181,0.13777971,-0.6502798,0.25299573,-0.10563228,-0.082507364,-0.1272701,0.037213817,-0.24349059,-0.18308334,0.16808733,-0.4901998,0.10356218,-0.11347514,-0.09824,-0.088599764,0.093760625
27,-0.17268011,-0.3304023,-0.3696202,0.020627564,-0.52478385,-0.296409,-0.18526481,-0.09625451,-0.11974999,-0.16147263,-0.40588278,-0.19145584,0.058989525,-0.11650953,0.19655924,-0.25661165,-0.01412959,-0.28223678,-0.27160493,-0.18120252,-0.11899514,-0.256517,-0.04297025,0.12231871,-0.42362717,-0.13620865,-0.22982723,-0.16682808,-0.100914,0.12567014,-0.43845084,-0.2659061,-0.24235637,-0.17555451,-0.10575781,0.010150077,-0.52043337,0.07194797,-0.3065109,-0.18695226,-0.13472563,-0.12361249,-0.20177427,-0.06850654,-0.123298466,-0.641576,-0.11848369,-0.17617,-0.077638924,-0.21439202,-0.19312276,0.30966404,0.20565853,0.06728875,-0.2567035,-0.06965298,-0.29167068,-0.4355027,-0.10309797,-0.26051828,0.22530624,-0.30955517,0.65342194,0.0527881,-0.019196497,-0.17007425,-0.14371477,0.32621676,-0.50839245,0.08290608,-0.17833148,-0.15954931,-0.054532524,0.100574575,-0.23965707,-0.063687526,-0.053244688,-0.16530645,0.054453384,-0.24966626,-0.4496309,-0.009567523,0.1469288,-0.15488009,0.062002275,-0.140709,0.07371973,-0.24601525,-0.085051194,-0.17009805,-0.13615449,-0.08595949,-0.14027424,0.31853598,-0.13292815,-0.18213727,-0.37536582,-0.25761157,-0.058046445,0.035598613,0.29249966,-0.16068882,-0.52146816,-0.07498377,0.14877932,0.12159049,0.30511227,-0.08064903,-0.26545522,-0.16329981,-0.03755377,0.044108737,-0.16103339,0.033795666,-0.26303163,-0.23539206,-0.11669864,0.0050523537,0.020044142,0.11102594,0.30693337,0.007577575,-0.21391928,-0.1153505,-0.11708825,-0.17728502,-0.07681621,-0.18594567
28,-0.14333409,0.022580741,-0.16856495,-0.12175718,-0.17270672,-0.12194611,-0.12940285,-0.11581909,-0.16019332,-0.23542255,-0.2292993,-0.08683732,-0.13880306,-0.26733366,-0.0982625,-0.22507475,0.044203352,0.036086313,-0.018066593,-0.20093134,0.0025132967,-0.03695958,0.0028459944,-0.3148433,-0.26638412,-0.1762749,0.0489894,-0.30492035,-0.16581546,-0.42651412,0.03075919,-0.18913487,-0.04002993,-0.30335253,-0.13816878,-0.33857074,-0.23529181,0.0555069,-0.055994898,-0.06298687,-0.043887228,0.006469522,-0.017196504,-0.11342189,-0.10872813,-0.02692528,-0.280209,0.05653349,0.011744791,-0.157941,-0.14687209,-0.15513927,-0.17975685,-0.16723974,-0.28829315,0.10034071,-0.03926844,-0.27349454,-0.10006448,-0.020652313,-0.074631765,-0.07836328,0.09195043,0.030970726,-0.015350461,-0.2396547,-0.22059898,-0.095801175,-0.16787583,-0.26426747,-0.34761134,-0.011041013,-0.21035999,-0.22629248,-0.14287022,-0.46847442,-0.02585311,0.16546594,-0.23233642,-0.27518752,-0.26200768,0.01935281,-0.54675704,-0.1156174,-0.042618692,0.019235197,-0.01297459,-0.24042013,-0.16622373,-0.14229017,-0.12880565,-0.19433658,-0.21810853,-0.3612666,-0.049646717,-0.08612408,0.053331435,-0.1256153,-0.17967461,-0.08397396,-0.054476492,-0.0058866367,-0.1206053,-0.33399886,0.010557561,-0.1133055,-0.23719656,-0.14083523,-0.17708644,-0.15564667,-0.061869405,-0.051602744,-0.017218502,-0.14621854,-0.21735181,-0.08809456,0.041932948,0.027770353,-0.09092811,-0.11686603,-0.049758,-0.053910386,-0.17861263,0.031033916,-0.035096176,-0.121051304,-0.23259334,-0.16054301
29,-0.39377725,-0.17562118,-0.44079074,0.081282124,-0.44123566,-0.13003105,-0.25862888,-0.09990109,-0.29673028,-0.046299778,-0.074790396,0.30419305,0.08305267,-0.3450555,-0.6113716,-0.12910886,-0.035839777,-0.028081981,0.6877261,-0.028591696,-0.34596768,-0.118418016,-0.17086427,-0.1228446,-0.48178795,-0.43256724,-0.1677822,0.09596795,0.009437633,-0.21068415,-0.16547318,-0.061223652,-0.25892165,-0.2362853,-0.1473901,-0.13012818,-0.6516187,0.024888124,0.18794529,0.13389438,-0.11554753,-0.30289483,-0.14930844,-0.585699,-0.08680306,-0.36534795,-0.10852803,-0.27825373,-0.08044815,0.028810158,-0.08839006,-0.1090042,-0.0077690226,0.28909066,-0.39867073,0.111995205,-0.25108737,-0.13463898,0.062497932,-0.25809127,0.03155676,-0.16243482,-0.1954188,-0.15780888,0.11401682,-0.16746831,-0.11020767,-0.502883,-0.075232476,-0.22618413,-0.4698896,-0.04287211,-0.1122752,0.024961526,-0.07371614,0.0036656798,-0.16694638,-0.32740533,-0.1612389,-0.3961317,-0.33863866,-0.12858735,-0.21162821,-0.688977,0.054539125,0.18463096,-0.2647904,-0.054631796,-0.10503137,-0.105645835,-0.06960235,0.044905465,-0.10246169,-0.21247414,-0.1900105,-0.03926006,-0.4377381,-0.20782629,-0.13795461,0.1444943,0.02563925,-0.27208146,-0.5680897,-0.17341131,-0.13853319,-0.048580877,0.13621716,-0.03972186,-0.2067417,0.2412378,0.11298346,-0.15649675,0.24029535,-0.062804095,-0.14051178,-0.23838653,0.036478963,0.04175966,0.24233034,-0.18075721,0.17284985,-0.07313605,-0.26055476,0.14482845,-0.09059674,0.023191871,0.1832293,-0.19904992
30,-0.87045246,-0.00119153,-0.22591552,0.037548106,-0.5280416,-0.122216746,-0.23282823,-0.019572413,-0.06982372,0.013082656,0.2582317,-0.16897419,0.092340186,-0.22669753,0.41332728,0.22684768,0.18342862,0.028085062,0.046426386,0.08477695,-0.17590791,-0.13369504,0.08977002,0.22205648,0.0008103674,-0.35352483,-0.16081516,-0.18010777,0.118535176,0.7119252,0.3366035,0.07324547,-0.1709616,0.4085897,-0.045016434,-0.40282306,-0.35958275,0.10266142,0.3655778,0.18216123,0.11213775,-0.5690342,0.12953883,-0.27723435,0.07464726,-0.25368708,-0.33466408,0.08446977,0.25171104,-0.011067261,-0.122926325,0.014537428,-0.33849898,0.5007517,-0.39497158,0.1446436,-0.22374976,-0.6162265,0.038743347,-0.018896038,0.009636857,-0.3218169,0.6573201,0.108817324,-0.035311762,0.34193116,-0.40617117,1.1550623,-0.23802651,0.15418914,-0.425885,-0.38049993,-0.0037640033,-0.09967084,-0.48558435,-0.33633378,-0.26934996,-0.014827345,-0.2971217,0.20739082,-0.27705884,-0.117756434,0.68091583,0.5082647,-0.08897974,0.4230838,-0.2220619,-0.024519864,0.17795831,-0.6754997,-0.2479742,-0.010199074,0.14140576,0.06185237,-0.08145303,0.060927648,-0.83509517,-0.33523375,-0.33978438,-0.051688354,-0.073277965,-0.14718878,0.43388292,-0.71805704,0.21341904,-0.60580045,0.109787904,-0.34776855,-0.43457094,-0.13935623,-0.07249505,-0.16934854,-0.39417714,0.20133442,-0.39893058,-0.13501419,0.14867443,0.04028537,-0.23461801,-0.24022773,-0.028470634,0.030874098,0.12096773,0.2130214,0.43352294,-0.03844693,-0.12665057,-0.43774974
31,-0.1845401,-0.13014285,0.089026585,0.081543855,0.3968185,-0.32174367,-0.23350109,0.068532385,0.16937886,-0.059580687,-0.6148357,0.25321475,0.18506122,0.21086629,-0.30861488,-0.21064548,-0.30262214,-0.094025485,0.076132156,-0.06803335,0.056817226,0.24004218,0.094474085,-0.86512226,0.5896925,0.15480515,0.02582629,-0.22972296,-0.09623794,0.49813166,-0.47760335,-0.23657253,-0.2351769,-0.85471165,0.01597417,-0.40726233,0.23995061,0.036100164,0.3250747,0.04356587,0.15643893,0.11917479,0.05610025,-0.060318973,0.29176477,0.294253,0.10262267,0.32636666,0.06791286,0.055088226,-0.009561819,-0.6999063,-0.43856016,0.33682385,0.46800938,-0.039582927,-0.20524792,0.4511952,0.03929268,-0.2715995,-0.14773165,0.088543825,1.0041002,-0.26525858,-0.17761804,-0.32906112,0.12245211,0.36454216,0.32541454,-0.33479345,-0.030356482,0.12466351,-0.24852236,0.11850767,-0.18279472,-1.1470842,-0.135028,0.06717758,-0.44526988,0.102053925,0.28898922,-0.20962071,1.0238494,-0.27729562,0.11314341,0.27127418,-0.26014107,0.023395387,-0.068939924,-0.30300158,0.13472693,-0.026528953,-0.09483674,-0.9967501,-0.10650356,-0.13345942,0.54380155,0.10558952,-0.58603644,0.1497698,0.081233054,-0.24408334,0.50909305,-0.5018816,-0.12454836,-0.9109367,-0.035095725,-0.38454014,0.008159158,-0.1783537,0.16777535,-0.001807672,0.08259,-0.45949423,0.50867313,0.08120701,0.084853254,0.102044426,-0.09474603,0.21608454,-0.42270008,-0.17700963,-0.8158457,-0.41041243,-0.025986444,-0.4740511,-0.4558921,-0.092893615
32,0.32270283,-0.38247132,0.21173169,-0.1022843,-0.08812095,-0.080068186,-0.3008092,0.014581589,0.34765837,-0.08810895,-0.23118123,-0.32768986,-0.035479188,0.12619089,-0.39948562,-0.14054663,-0.1270154,-0.29116145,0.0715205,0.115808,0.08083856,0.073215134,-0.080143616,-0.2859279,0.08914369,0.37676528,-0.2104322,-0.35379004,-0.012190245,-0.29219675,-0.6663922,-0.29214117,-0.37926692,-0.3950578,0.17414953,-0.15477072,0.23445652,0.11779021,0.008195553,-0.12887777,-0.025181094,0.14767659,-0.1572749,0.2050681,-0.30378437,-0.35647777,0.16591568,0.059025716,-0.22753276,-0.10863957,-0.42535043,-0.56568646,-0.8748666,-0.2910306,-0.015298073,-0.1688621,-0.09190659,0.033518057,0.13251446,0.11922766,-0.19156107,0.36148182,-1.4325451,-0.41461915,-0.08035609,-0.91116005,0.3007698,-0.28721663,0.0025013438,-0.5862297,0.39068267,-0.22039112,-0.35420993,-0.21378466,-0.23756547,-0.68270385,-0.026479948,0.12581447,0.15139538,0.26786402,0.24013826,-0.28089368,-0.8752398,-0.052680172,-0.0034099834,-0.09341038,0.07742358,-0.068577744,-0.6301743,-0.22500876,-0.09357231,0.16727161,0.009664625,-0.43612185,-0.29088545,0.10953367,-0.10255793,0.20697501,-0.018279519,-0.15497147,-0.1604207,-0.513333,0.2558727,0.28581834,0.042802714,-0.60397726,-0.210995,-0.16223106,0.19317496,-0.22769308,-0.16378821,0.035428256,0.016977344,0.19885802,0.0108967675,0.007966794,-0.03864016,0.06177917,-0.10815786,-0.38089123,0.26362067,-0.11551924,-1.1702982,0.010991574,-0.16159469,-0.122525245,-0.3303678,0.16845207
33,-0.79349977,-0.21531098,-0.26410452,-0.15971103,0.3230509,0.13962467,-0.37626305,-0.08051989,-0.261627,0.10406654,0.20081805,-0.019118132,0.047655676,-0.24778512,-0.7433758,0.10919375,0.1147306,-0.66954,-0.17929664,-0.006858589,-0.071801454,-0.054079805,-0.12000402,-0.30727825,-0.40051904,-0.48928103,0.19963054,-0.72207606,-0.09097356,-0.92034155,0.618438,0.061387684,-0.4253008,-0.26255697,-0.035905667,-0.3494969,-0.3371759,-0.13909844,-0.017073523,-0.5794902,0.19099294,-0.2068474,0.060563058,-0.075208396,-0.074231595,-0.17167224,-0.09045424,-0.28108382,-0.02590104,0.033671804,-0.62589717,-0.8066846,0.50801957,-0.313485,-0.292404,-0.30195832,0.03325252,0.20418282,-0.18820669,-0.32449636,-0.24847682,-0.40634423,-0.13145854,0.104384266,0.067167945,0.48596084,-0.050835665,-0.31119537,0.3755253,0.34727466,0.24343243,-0.22588722,-0.38901073,-0.057556815,-0.641967,-0.5101345,0.19528624,0.23741993,0.11354169,0.05942125,-0.2829627,-0.88113356,-0.2037598,-0.53931826,-0.24350029,0.024453606,-0.0636219,-0.0029797608,-0.1589268,-0.13749938,-0.28000757,-0.24802758,-0.002316935,0.014113729,-0.5489886,-0.24022746,0.2579327,0.15917113,-0.3260615,-0.16539565,-0.1402058,-0.41245484,-0.5254053,-0.28908265,-0.10296393,-0.12872362,-0.32327065,0.019438459,-0.117597155,-0.25463077,-0.090677,-0.2002747,-0.306201,0.543628,0.15634921,0.16617133,-0.124779865,-0.06437394,-0.11259135,-0.44703722,-0.12948596,-0.04303363,0.2520415,0.071248606,-0.0028560301,-0.26476717,-0.2644316,-0.29890898
34,-0.095572636,-0.6728382,0.36250135,-0.036349002,0.513104,-0.3456804,-0.5173871,0.04234706,-0.15456548,0.1485392,0.30216053,-0.5055659,-0.092988744,0.11395437,-0.72655267,-0.040341146,-0.12058109,-0.46309304,-0.009620916,0.12215321,-0.11411615,-0.3846486,-0.18132053,0.15193829,0.3582279,0.25145057,-0.003908854,0.11970268,0.2108889,-0.32324556,-0.47112495,-0.45672327,-0.109420665,0.0954423,-0.11179224,0.15616906,0.3044987,0.049407702,-0.4428095,0.12249786,-0.40623125,-0.47124806,-0.3205072,0.022761364,0.03352186,0.5406077,-0.023171045,-0.23276947,-0.110406995,0.051934205,-0.59084153,0.15461485,-0.04510606,-0.29153502,0.34349465,0.39469412,0.07086684,0.13910584,0.07887399,-0.24349388,0.04342024,-0.33124647,-1.0489445,-0.05604945,0.04523366,0.031478364,-0.567602,-0.6061996,-0.047685497,0.023089541,-0.23469284,-0.3049447,-0.6150204,0.17576039,-0.031774487,0.17972812,0.006824059,0.003439045,-0.25808397,0.3563025,-0.2494204,0.22219756,-0.13173644,-0.6172869,0.18546651,-0.13799405,-0.3002228,0.16067238,0.20152652,-0.5089109,0.102317184,0.2016631,0.049653165,-0.0018866637,-0.4738818,-0.066754915,0.30668408,-0.39275748,-0.32630816,-0.4339776,0.020265065,-0.46667552,0.42818463,-0.1911023,-0.020929288,-0.053623486,-0.11053872,-0.10790925,-0.3982555,-0.009996716,-0.7925723,-0.08345607,0.15807283,-0.2798449,0.13489719,0.023613011,-0.19097397,0.03249914,-0.056847412,0.010192194,0.091130756,0.08708186,0.2769085,0.49531454,-0.1258616,-0.5529297,0.36999685,-0.51168925
35,-0.11516244,-0.17013443,-0.11854661,-0.080254525,0.07319058,0.12565932,-0.17420414,0.12105375,-0.3297949,0.09371363,0.017941885,-0.19371644,-0.034972105,-0.09109123,0.015254277,-0.2193527,0.109939486,-0.25045663,-0.007453105,0.1666437,0.0007936528,-0.09086749,-0.07739303,-0.16427135,-0.04203021,-0.05429154,0.047999468,-0.09478386,0.06412103,-0.011205043,-0.1367024,-0.11994397,-0.21239635,-0.08681156,0.18319812,0.027540153,-0.091451794,0.039320808,0.042506877,-0.20062761,-0.17392664,-0.35978943,-0.23355089,-0.08972778,-0.19855413,0.045047253,-0.15810631,-0.25330225,-0.106413685,0.06288061,-0.07856637,-0.10863098,0.052490816,-0.08467364,-0.21241802,-0.03819837,-0.0066187317,0.03497543,0.14342958,-0.05645146,-0.1634596,-0.14200479,-0.46306193,0.017384209,-0.060021874,0.00073105213,-0.20818096,-0.031826165,-0.075727284,-0.03552453,-0.12831563,-0.11363966,-0.36761364,-0.024350312,-0.18961547,-0.084245235,-0.07248486,-0.016185513,-0.004042251,-0.18759295,-0.04090734,-0.17469452,-0.056786317,-0.024969188,0.04916965,-0.18058911,-0.00604461,0.070070095,0.14976369,-0.1670239,-0.08537344,-0.030448157,-0.05345529,-0.03679316,-0.06629043,-0.06105476,-0.049127996,-0.2218295,-0.23129104,-0.1335467,0.01680625,-0.12865405,0.018980019,-0.25826162,0.21373776,0.009640874,-0.23126864,0.02978526,-0.1114244,0.05921186,-0.008697822,-0.0057252557,-0.21605316,-0.08690078,-0.09806575,-0.13492884,-0.052405376,0.06894362,-0.12543392,0.1309708,0.07674991,0.12634957,0.044177093,0.13642678,-0.0069186906,-0.25319463,0.08480957,-0.12404306
36,-0.13511203,-0.2732225,0.3624337,0.12200145,0.45630744,-0.4323781,-0.34285387,-0.1413979,-0.058549184,0.053741403,0.023225399,0.09786645,0.020537151,0.42056555,-0.43003947,-0.18974426,-0.16420561,-0.37784892,0.11047151,-0.11504917,0.1597706,0.14509101,-0.03670805,-0.061310805,0.38031772,0.074666195,0.023959283,-0.2954399,-0.11932432,-0.020650351,-0.37139148,-0.28645104,-0.4679833,-0.32202876,0.15461597,0.5248653,0.23915708,-0.035072003,0.1631179,-0.20630503,-0.52511615,-0.17498234,-0.055322375,-0.0056438623,0.014088388,0.42974323,-0.059694387,0.07988196,0.120290585,-0.105598375,-0.04965723,-0.17416118,-0.3412906,-0.011872933,0.5213406,0.0053895637,-0.14345339,-0.089869864,-0.0054616486,0.052895807,-0.113136105,-0.06759869,-0.24046567,-0.010348504,-0.06320994,-0.12962072,-0.06545256,-0.43876565,-0.17499381,-0.11155918,0.050606463,0.26727447,-0.4147383,0.04753717,-0.054334205,-0.41242746,-0.0968574,0.08310137,-0.044090003,0.18700857,-0.045071557,0.02224575,0.10715723,-0.18756072,-0.0077617797,0.24154317,-0.023392009,0.07640888,0.12701209,0.12611005,0.0073208204,-0.16930881,0.13387322,-0.3931563,-0.3896882,0.049970623,0.31983215,-0.3175469,-0.32631943,-0.18433933,-0.24395865,-0.36633247,0.5272808,0.008819065,-0.19197288,0.06733086,-0.17811117,0.22932501,-0.1366335,-0.05659084,-0.15136263,0.21941791,0.11882687,-0.47169834,0.23477046,0.032228243,0.105237566,-0.0054715374,0.3907392,-0.118732244,0.12223569,0.12425077,0.41204685,-0.49677968,-0.06567091,-0.4237039,-0.4963314,-0.21845126
37,-0.5519124,-0.41559297,0.26657712,0.03205698,0.016437672,-0.19285205,-0.3158148,0.035082303,-0.2488777,-0.067798994,0.17553842,0.17322955,-0.2364838,0.01949319,-0.5414488,0.3577564,-0.12332849,-0.18399897,0.031050395,-0.082155846,-0.16377091,-0.2927364,0.04814234,0.23215143,-0.058407377,-0.17853999,0.09000757,0.124316186,0.065654635,-0.2424762,-0.13958089,-0.2769549,-0.39095962,-0.0904259,0.06095224,-0.06556498,0.19662076,0.047283743,-0.11480484,0.52286375,0.0022524633,-0.4658573,-0.033991795,-0.06150767,-0.5083042,0.46326616,-0.45497498,-0.4866426,-0.21893053,0.028707689,-0.5029905,0.20714594,-0.07980955,-0.18777695,0.18455416,-0.25604162,-0.29063302,-1.0057495,-0.0721892,-0.28925607,0.4149799,-0.11272626,-0.54263854,0.07370595,-0.1655879,0.12753671,-0.31136882,-0.0848213,-0.12417862,0.46855524,-1.1578066,-0.22092064,-0.19344722,0.14198442,0.32622126,0.055377997,-0.14310114,0.19984405,-0.27336055,-0.6511414,-0.9311535,0.015714979,0.33210516,-0.28214422,-0.055500463,-0.25103787,-0.21036997,-0.19180533,-0.0674949,-0.3004246,-0.3401154,0.18326016,0.027023535,0.17558393,-0.6655807,-0.06985072,0.02812339,-0.15033038,-0.3226798,0.26179782,0.15277134,-0.38784117,0.46692586,-0.8609109,-0.039862722,0.039586145,-0.11390786,-0.2888164,-0.032543495,0.49036974,0.09523675,-0.027824963,-0.32398865,-0.18885358,-0.8421463,-0.44870257,-0.22866914,0.028688526,-0.08175271,-0.62488365,0.096949786,-0.09581057,0.37997693,0.16082872,-0.33175159,-0.30985284,0.05642259,-0.122921504
38,-0.15916969,-0.2641784,-0.021351118,0.10900138,0.17469776,0.10913247,-0.24297564,0.116326965,-0.14178467,-0.036088742,-0.04366301,-0.17199858,-0.1425194,-0.20205891,-0.009032288,-0.093628906,0.14780645,-0.09926629,-0.23702484,-0.15324709,-0.07030741,-0.076843575,-0.049729574,-0.14842688,0.08749123,0.017257856,0.2784898,-0.19810338,-0.1035062,-0.020077894,-0.17952074,-0.23230115,-0.22672518,-0.12433285,0.08991713,0.06514418,-0.07294297,-0.022434773,-0.21016549,-0.119782336,-0.18210259,0.02276693,-0.043108117,-0.01627414,-0.19539472,0.084726915,-0.1808175,-0.12572995,-0.05307565,-0.12365911,-0.08912557,-0.037763283,-0.25144282,-0.25932705,0.13928893,0.09711742,0.027725732,-0.09994511,-0.0061829155,0.037786756,-0.23108667,-0.08903395,-0.09347268,0.11808076,-0.21373044,0.100925535,-0.18181132,-0.13148837,-0.20538905,-0.13794902,0.020630205,-0.05796918,-0.17197663,-0.16707695,0.12434232,-0.072076835,0.02024921,0.22056583,0.08503502,0.091226354,-0.13397892,-0.15908095,-0.031704012,-0.047544267,0.01610477,-0.15521403,0.03631736,0.11407708,-0.2154153,-0.029258752,-0.03682568,0.024830814,-0.014589673,0.030948333,-0.169259,0.05778819,0.1517767,-0.20828663,-0.2240209,-0.3522691,0.06445786,-0.13525659,0.15111022,-0.075354226,0.18088347,0.0007971145,-0.11736435,-0.20459539,-0.06975704,-0.0896297,-0.31969762,0.14498848,0.00961277,-0.19322585,0.07733865,0.06592276,0.039657924,0.015990486,-0.23051217,0.08669053,0.21021186,-0.060957815,0.16631287,0.077102706,0.05464025,-0.15555957,-0.027456507,0.035809193
39,0.0076864073,-0.13988055,-0.18992917,-0.1255508,-0.2639077,-0.18285461,-0.24961488,0.07599578,-0.21052964,-0.09669766,-0.24538533,-0.15590897,0.026050577,-0.21374157,-0.17547448,-0.16668285,0.03841344,-0.03650057,0.05080032,-0.06031667,-0.08112477,-0.16421503,0.053370375,-0.17859238,-0.080575064,-0.20033698,-0.23895651,-0.2382684,0.019545015,-0.15405901,-0.2752482,-0.20856552,-0.094250515,-0.04986447,0.05681133,-0.0076629696,0.018273333,-0.05939207,0.07247252,-0.07057396,-0.12371284,-0.27600583,-0.06386713,-0.2954546,-0.0008857272,-0.3153195,-0.21399748,-0.24892539,-0.2723765,0.09740064,-0.17576352,-0.18670896,-0.20305376,-0.1470556,0.011183952,-0.099371485,-0.07073795,0.09314853,-0.07712305,-0.17995535,-0.26543552,-0.0574026,-0.3826218,0.014495696,-0.016444024,-0.0739739,-0.27053693,0.10282394,-0.06876983,-0.24479033,-0.31804526,-0.09641721,-0.16384134,-0.08845238,-0.13977909,-0.2951601,-0.13569793,-0.016017865,-0.11213433,-0.06935948,-0.21123691,0.028676594,0.04642132,-0.32572797,0.06888813,-0.20422198,-0.13713643,0.020490762,0.03267681,0.024462974,-0.20639242,-0.13729991,-0.030675456,-0.19695972,-0.088097446,-0.061652213,-0.14679304,-0.05124058,-0.24545944,-0.04506698,-0.1145954,0.02185997,-0.09006248,-0.2157472,0.023851536,-0.053772468,-0.2424568,-0.17865007,-0.3295023,-0.09297017,0.022184206,0.16712768,-0.18774034,-0.0128819775,-0.19388159,0.050339513,-0.027556293,0.12391351,-0.042072464,-0.04289629,-0.15291695,0.1052135,-0.27046618,0.091444165,-0.0040962226,-0.23247606,-0.09558313,-0.107703276
40,0.014579453,-0.079387985,-0.17132272,0.2330982,-0.04783039,0.05056114,-0.28731543,-0.16697137,-0.06270187,0.006712547,-0.2658125,-0.31303295,-0.08288395,0.005080648,-0.057157606,-0.064161226,-0.104960196,-0.12764879,-0.027308656,-0.066518955,-0.21031451,0.12975152,0.06225477,-0.17440543,0.067284554,0.026853973,0.22103249,-0.023665164,0.020159453,-0.2110754,0.19573964,0.04019065,-0.14971776,0.015466883,-0.13197997,-0.072679624,-0.11405271,0.16808029,0.042507738,0.028696587,-0.18524542,-0.12534416,-0.18536268,-0.13117439,0.11028768,0.19337986,0.019361751,-0.12448937,0.014908331,0.05140759,-0.07101531,-0.42295542,-0.34940434,-0.09865262,-0.18582535,-0.1257687,-0.2182295,0.19786961,-0.09849071,0.028163945,-0.19068478,-0.23308107,0.19400743,-0.17196816,-0.22137508,-0.14907771,-0.09402044,0.04978335,0.055387594,-0.13255665,-0.25017026,-0.10418263,-0.23446685,-0.20202443,-0.022649959,-0.10441221,-0.05294667,0.077160604,0.06725651,-0.109404564,-0.03903877,-0.13827372,-0.0895349,-0.17258713,0.084109835,-0.12592345,-0.190865,-0.11934927,-0.0016716345,-0.14587627,-0.06366452,0.1103977,0.06718072,-0.12192911,-0.0037311995,-0.09679325,0.072729744,-0.13621752,-0.19782114,-0.32494915,-0.21495329,-0.14277886,0.037629057,-0.11980068,-0.0046178685,-0.1698561,-0.25200698,-0.0755326,-0.1808094,-0.18734315,-0.2405922,-0.10602468,0.14482406,-0.28531304,-0.08236964,-0.10817303,0.011095726,-0.002582994,-0.0064277686,-0.28067613,-0.1971955,0.04984101,-0.42492786,-0.16747473,0.028627507,-0.29981637,-0.03777611,-0.24961822
41,-0.22323403,-0.025475122,-0.14496437,0.07271298,-0.10742343,0.015362454,-0.1512677,-0.1843136,-0.28103444,-0.0059820577,0.13099876,-0.18579093,0.011921136,-0.31613493,-0.04862764,-0.041678235,0.11568247,-0.1738579,0.0024406584,0.070237555,0.08340691,-0.053447444,0.08011384,0.018364947,-0.25009966,-0.058779966,-0.26036403,0.010833046,0.07447204,0.1233959,-0.095546395,-0.064955026,-0.13295259,0.0074189547,-0.05432153,0.071822554,-0.3664673,0.15512381,0.18748108,0.072800994,0.08739847,-0.29153383,-0.09230934,-0.35489994,-0.13142996,-0.33451197,-0.2696164,-0.2511891,-0.18411829,-0.057805836,-0.18837546,0.08447496,0.081186414,0.097387485,-0.07199156,-0.10905038,-0.34457102,-0.12700075,-0.052610535,-0.06811714,-0.1297961,-0.15694742,-0.06516632,-0.08249403,-0.05939994,0.061699037,-0.19542265,-0.15282793,-0.308288,-0.19201422,-0.21934052,-0.038184937,0.017938968,0.082599886,0.009817257,0.014465051,-0.24413784,-0.16872399,0.1040659,-0.2446147,-0.18453641,0.074980624,-0.37693444,-0.15594667,0.17948401,-0.0711005,0.078158945,-0.10435371,0.01913463,-0.25496718,-0.1551201,0.14796099,0.07499586,0.09078605,-0.010581172,-0.023870198,-0.2663885,-0.11201838,0.02616145,0.047944155,0.06280538,-0.045673944,-0.23662937,-0.072998695,-0.08859981,-0.10172432,0.06528243,-0.02115812,-0.13015713,-0.018940782,-0.08982897,0.13520198,-0.1912723,0.07005313,-0.20445125,-0.0074382224,-0.06558592,0.028164847,-0.019281335,0.015843835,-0.13109732,-0.08968652,-0.27597544,0.15374097,-0.18775092,-0.0018395728,0.039832577,-0.30811793
42,0.5714134,0.013004578,-0.20246795,-0.16790646,-1.0637019,-0.5348607,-0.025141524,-0.18368109,-0.13924547,-0.17217496,0.011230357,-0.33884487,-0.33508486,-0.1350598,-0.071460105,-0.63428736,-0.055878613,-0.065240584,-0.30007255,0.03889927,0.045301147,-0.18233983,-0.08789139,0.2194462,-1.4324129,0.14746138,-0.18024689,0.23785275,-0.18443084,-0.31478766,-0.114911504,-0.3327536,0.031182045,-0.26877135,-0.057920914,-0.45821133,-0.27344465,0.015886864,0.06721614,-0.58344054,-0.6620082,0.22632663,-0.312894,0.27285966,-0.075525194,-1.5479479,-0.13337833,-0.10595043,-0.23783362,0.053521603,-0.032490708,0.2823949,-0.43276316,-0.22709472,-1.0648036,0.100829594,-0.21151683,-0.3562919,0.010197149,0.06411005,-0.051460475,0.06860438,-0.8217415,-0.23844016,-0.15072514,-0.30021068,0.027960695,-0.4336431,-0.51422536,-0.12474654,0.8118889,-0.3516664,-0.040987797,-0.2073731,0.378297,0.10211063,0.13499664,-0.15982817,-0.5884929,0.90087783,-0.33466685,0.16585226,-0.5068009,-0.29034713,-0.07399313,-0.5289533,-0.42568102,-0.20672575,0.3317434,0.5692199,-0.1652271,-0.23432131,0.010467839,0.05894782,0.13005221,-0.11836682,-0.7374769,-0.31001005,0.05232889,0.38997155,-0.37633762,-0.080223225,-1.7534177,1.4850833,0.0064593423,-0.31552,0.19484787,-0.5712627,-0.16178538,0.0471492,0.33055532,-0.19998433,-0.12026264,0.65826476,-0.36249298,-0.15708543,-0.04790349,-0.019547699,-0.39972305,-0.19672132,0.19361559,0.059777174,-0.16595677,0.41316438,0.24214715,0.010735258,0.10291735,0.058263753
43,0.09756538,-0.09180127,0.011474114,-0.07245857,0.024828129,0.03978147,-0.31928563,-0.0036474753,-0.064348176,0.11135842,-0.05126152,-0.13379622,-0.2237705,0.066348,-0.15005353,-0.28295767,0.08755956,-0.37550843,0.2099411,0.123878606,0.13289556,0.07625689,0.07649865,-0.04885468,0.13050139,-0.10542124,0.03354898,-0.36507946,-0.018735796,0.0754897,-0.020308288,-0.29895782,-0.13147059,-0.22346327,0.05681794,0.008622266,-0.1604915,-0.007208117,-0.053727373,-0.08205817,-0.21198921,-0.19146384,-0.12058592,-0.0135117,-0.20964801,0.18050116,0.06789097,0.12193034,-0.34037668,-0.03937795,-0.03510706,-0.42349237,-0.18129998,-0.1082846,-0.11267675,-0.100198686,0.050302602,-0.08977695,-0.034846038,0.16944748,-0.36700028,-0.1075547,-0.30098036,-0.3124227,-0.03385661,-0.096159,0.042712107,0.09978455,-0.19038402,-0.17045884,-0.092887126,-0.2203977,-0.10293497,-0.084150694,-0.35697892,-0.14677708,-0.019894699,0.1334313,-0.08752048,0.13288358,0.0685624,-0.049633577,0.0039730575,-0.021234876,0.13921058,-0.08483072,-0.09795303,-0.21357712,0.08792439,-0.16895527,0.14800707,-0.00599829,0.1492193,-0.09776269,-0.24635735,0.11882076,0.08647334,-0.036607947,-0.18352377,-0.17930385,-0.28452176,-0.15360619,-0.06848866,0.05613499,0.0909204,-0.20825788,-0.36269727,-0.101816356,-0.014083121,-0.21104541,-0.35795197,-0.11184978,-0.08790529,-0.15066972,-0.06448238,0.1875837,-0.17460313,-0.017353524,-0.22468199,-0.025595514,-0.045104645,0.08533182,-0.6136122,-0.14143533,0.04700731,-0.12386789,-0.0853519,-0.109394364
44,0.87009645,-0.038535208,-0.18416801,0.073339336,-0.1106881,-0.3996334,-0.1036023,-0.05027872,-0.0021100505,-0.058125477,0.12270824,0.06276651,0.069948636,-0.00686359,0.07549039,-0.19420888,-0.11374428,-0.11181603,-0.032718852,0.10378489,-0.10072225,-0.074483365,-0.057124745,-0.53203994,-0.39557302,0.2781246,0.016468458,-0.17128181,-0.054892775,-0.7173501,0.27262503,-0.052228622,-0.1581295,-0.4222838,0.054527875,-0.15328485,-0.0036401753,-0.060286105,-0.18292655,-0.27791765,-0.19584209,0.06632648,-0.18749225,0.026798194,-0.11599122,-0.33085203,-0.075134754,-0.34650794,-0.31052715,-0.19275905,0.039060798,-0.111032955,-0.23898765,-0.40914103,-0.10936929,-0.036921456,-0.042346347,-0.14797966,-0.15340157,0.11725048,-0.16759533,0.11778505,-0.41942617,-0.21393235,0.044242833,-0.33460355,0.13744895,-0.42976868,-0.3352251,-0.27471802,0.34227714,-0.09278535,-0.22620724,-0.25236005,0.05283446,-0.39717722,-0.24393874,0.49745545,-0.2463852,0.5737335,0.01541671,-0.06617099,-0.2040944,0.38416472,0.08964829,-0.24553081,-0.050693676,-0.060085997,-0.40147427,0.017576993,0.04412046,0.093846805,-0.05152256,-1.198918,0.17855163,-0.090642646,0.110784225,-0.2047948,0.05275784,-0.12574126,-0.25529417,-0.05931338,-0.18813893,0.42845517,-0.10463622,-0.34282798,-0.38872385,-0.4250621,-0.21903645,-0.6281099,-0.2637829,-0.03224824,0.08529601,0.50695044,-0.29309127,-0.14173648,-0.03196478,-0.1030354,0.09299666,-0.4289367,-0.2908049,0.058259673,-0.5161177,-0.06989557,-0.06892443,-0.1820228,-0.15533914,0.2950407
45,0.15066272,-0.38253972,0.09934674,0.010400339,-0.24451636,-0.072356634,-0.40083948,0.004650429,0.14603908,-0.14772102,-0.68754345,-0.34609973,-0.01419377,0.15183972,-0.2782572,-0.37802213,-0.044678908,-0.25615397,0.038042583,-0.18959919,0.055589776,0.12241947,-0.122830264,-0.2731195,0.20336397,0.12814403,-0.07139767,-0.24844202,-0.044570286,-0.30265394,-1.1207776,-0.8012435,-0.09082616,-0.40071005,-0.16888946,-0.6817682,0.070778854,-0.051441297,-0.74682707,-0.16155478,0.08743938,0.18173605,-0.103392616,0.09110855,-0.02546503,-0.06594315,0.0017382696,0.25601867,-0.19802618,-0.1053531,-0.23216243,-0.4975373,-1.1895885,-0.36650488,0.03927324,-0.088528976,-0.15655252,-0.071349226,-0.12171132,-0.20240922,-0.2300444,0.12336125,-0.3488049,-0.34645388,0.0019178784,-1.2949022,0.2062983,-0.17744793,-0.031862248,-0.79224485,-0.0050628413,-0.19986229,-0.046895117,-0.09658709,-0.37399697,-1.7038271,-0.15742353,-0.014043764,-0.24445319,0.20180535,0.026636524,-0.059591193,0.24049221,-0.051718462,0.044598885,-0.1798564,-0.01655144,0.20510691,-0.8626775,-0.26466316,-0.10457406,-0.11709532,-0.19586101,-0.26071164,-0.07577231,-0.16038649,-0.118292645,0.22297427,-0.3766449,-0.4247553,-0.13505568,-0.1764034,0.3611976,-0.097459696,-0.0022536465,-0.87626535,-0.5250332,-0.1595619,-0.047176342,-0.20824249,-0.29151866,0.0727739,-0.031090803,-0.26916456,0.047581185,-0.1787053,-0.2784427,0.049269453,-0.12634635,-0.23724407,-0.2073875,-0.12815432,-1.8599967,-0.10223982,-0.09415554,-0.28668413,-0.6708484,0.18727425
46,-0.35942924,-0.11788597,-0.2854949,-0.0043608835,0.08961291,0.098293655,-0.14131881,-0.06238014,-0.09289426,-0.0988157,0.06960893,-0.061792843,-0.13788174,-0.07744749,0.2768995,-0.19421494,-0.07920536,-0.23116514,-0.13804355,0.022811348,0.07101908,-0.17256801,-0.19401862,0.099263676,-0.34804478,-0.23778653,-0.31750834,-0.19597752,-0.034104224,-0.07499159,0.063884415,-0.21291627,-0.07056725,-0.08320122,-0.06904078,-0.0002920697,-0.1686091,-0.1839656,0.04607341,-0.46918613,-0.13891695,-0.07929787,-0.032231033,-0.10235203,0.059282605,-0.07294032,-0.27897888,-0.19670472,-0.1822546,0.10580466,0.010352475,-0.13881692,-0.21462807,-0.22208709,-0.13218819,-0.18542297,-0.057858184,0.020852096,-0.07442774,0.028940452,-0.386216,0.022416689,0.16470115,0.13685974,-0.19502187,0.0123437,0.11307582,-0.13928576,-0.10426323,-0.16318327,-0.2529366,0.093858175,0.0682681,-0.2105072,0.15988904,0.11923763,0.031001512,-0.083082035,-0.21921405,-0.246289,-0.044127654,-0.08268718,-0.41475365,-0.004080714,-0.14523844,-0.2835163,0.07378485,-0.013967133,0.19187832,0.1934641,0.010322014,-0.14668034,-0.14494482,0.01181127,-0.06835881,-0.13072036,-0.08808642,-0.15213843,-0.11535197,-0.01721025,-0.11837102,-0.20078911,0.027516963,-0.2402064,-0.1331206,-0.21920896,-0.22296019,-0.118895665,-0.27776814,-0.24949455,-0.078268304,-0.057414234,-0.18050055,-0.16452184,-0.06204227,-0.05448164,0.0002314225,-0.20964849,-0.13485539,-0.20957437,0.038088914,-0.08033647,0.085973516,0.11392697,-0.12656058,-0.187096,0.17900233,-0.30320212
47,-0.048963457,-0.14391404,0.04499984,-0.19032927,-0.0066029346,-0.05829305,-0.15041149,0.04752061,0.085465096,-0.22508724,-0.38714552,-0.25212002,-0.06316452,-0.024207577,-0.19910124,-0.21698387,-0.22782043,-0.27507982,-0.18308622,-0.17476514,0.052703887,-0.17504674,-0.02716261,-0.18623048,-0.1563229,0.010043804,-0.074481264,-0.37005797,-0.08268365,-0.42053738,-0.14756386,-0.15947317,-0.11222139,-0.23272754,-0.07066786,-0.14455955,-0.2549096,-0.19091429,-0.44241467,-0.17436586,-0.100607835,-0.05887548,-0.23356603,-0.06324853,-0.21741457,-0.12992671,-0.1369031,-0.08386253,-0.16528843,-0.11079456,0.060509097,-0.2673728,-0.15815051,-0.13258074,-0.25980067,-0.052993838,0.10199331,-0.39430577,-0.17350525,-0.16090791,-0.0972322,0.06933465,-0.09433076,-0.021035817,-0.03510657,-0.45421323,0.14268973,0.08950507,-0.15934052,-0.16450316,-0.07370493,-0.003684758,-0.016526017,-0.3352143,-0.19045195,-0.44698954,-0.34630585,-0.1601554,0.028663402,-0.110283114,-0.08995851,-0.29091436,-0.073518075,0.013889122,-0.03747213,-0.07786091,-0.0891219,-0.27731663,-0.15527213,-0.27660504,-0.066485226,-0.12007387,0.09479366,-0.041217662,0.03815456,0.039258007,-0.29832178,0.0660654,-0.07415881,-0.1404484,-0.2978749,-0.29147795,-0.2598574,-0.08195773,-0.19442391,-0.2902456,-0.24515386,0.035160728,0.020366594,-0.1696224,-0.41839808,0.13046739,-0.21226098,-0.1821036,-0.06267175,-0.16635011,-0.31779298,-0.025173066,-0.021786548,-0.20365568,0.16168885,-0.06535249,-0.49265757,-0.15235366,0.00015991575,-0.113143265,-0.008749382,0.11590613
48,-0.35174093,-0.09645146,-0.17903829,0.031033918,-0.08443017,0.06208527,-0.087040864,-0.1297378,-0.41016763,0.06592788,-0.18728538,-0.07515799,-0.21933167,-0.20859295,-0.18390545,-0.16900471,-0.06307841,-0.17364334,-0.19462508,-0.030072054,0.027106682,-0.03462754,-0.14901552,-0.2500229,-0.36689806,-0.45406532,0.025838697,-0.116373844,-0.097583294,-0.2142677,-0.22567774,-0.07386893,-0.19672588,-0.09218457,-0.35024384,-0.21780597,-0.40087187,0.061407074,-0.36466688,-0.1733573,-0.029548965,-0.23403028,-0.25013465,-0.23812956,-0.033179738,-0.17741473,-0.31963378,-0.07797708,-0.16790554,-0.18205215,-0.010713559,-0.32256547,-0.3155672,-0.19088599,-0.103527516,-0.2035469,-0.28370437,-0.061196532,0.04276629,-0.08362407,-0.13966833,-0.09551702,-0.34285605,-0.04796911,0.011525988,-0.37218136,-0.20188496,-0.20299636,-0.43953297,-0.24044569,-0.36548373,0.006048904,-0.10253246,-0.069686875,-0.024992228,-0.36769488,0.035619304,0.07342704,-0.07077593,-0.45290795,-0.48329133,-0.27188647,-0.2876502,-0.20065524,-0.16606255,-0.11258481,-0.201036,0.047190726,-0.2905068,-0.23490614,-0.082184575,-0.114528894,-0.11421656,-0.18464799,-0.2846038,-0.122072436,-0.104170784,-0.08528193,-0.11970713,-0.27846542,-0.15109648,-0.04436287,-0.36467865,-0.14521098,-0.11318333,-0.38490382,-0.2680738,-0.03657308,-0.3111964,-0.10272446,-0.22986563,-0.06360177,-0.16515459,-0.29238677,-0.16897911,-0.24949297,-0.17343009,-0.16500887,-0.09546612,-0.13903521,-0.07458742,-0.041943304,-0.33742923,0.054936714,-0.17594425,-0.22355166,-0.40575415,-0.308076
49,-0.19511428,-0.061691284,-0.009702187,0.017681012,0.024247209,-0.20757465,-0.12018059,-0.17399077,-0.23912013,-0.2239355,-0.21301056,-0.21912876,-0.10407877,-0.10004689,-0.16310862,-0.119235344,-0.012898657,-0.16992095,-0.016997557,-0.17508717,-0.03985402,-0.03296497,0.024995483,-0.051776063,-0.03264439,-0.14003444,0.020158261,-0.06638437,-0.0048424937,-0.064905375,-0.28470987,-0.21021388,-0.020890536,-0.17342608,-0.0312647,-0.15125847,-0.20859462,0.0025362498,-0.15964049,-0.06288176,-0.0061294585,-0.22215016,-0.16406119,-0.24809411,-0.183026,0.003466168,-0.1161534,-0.17286922,-0.11917885,-0.13820493,-0.2516863,-0.022668097,0.30695507,-0.14055848,-0.2469467,-0.14595094,0.02770422,-0.1955514,0.016858203,-0.13698289,-0.10900337,-0.1758968,-0.45637143,-0.1429894,-0.12273092,-0.008038605,-0.029032206,-0.00839314,-0.007903024,0.039740697,-0.21311437,-0.12636717,0.0057484554,0.060911782,-0.1135572,0.019399162,-0.19374256,-0.0020257873,0.009660773,-0.20405142,-0.0012216629,-0.2489725,-0.053543076,-0.065107144,0.07849613,-0.06072181,-0.16165818,-0.043909676,-0.17484179,-0.12541227,-0.02621263,-0.006518309,-0.037668403,0.033206463,-0.17133375,-0.054605916,-0.22214396,-0.01161565,-0.076428995,-0.067463204,-0.1612043,-0.1712896,-0.1364448,-0.19020262,-0.048488792,-0.06389353,-0.06570191,-0.111498326,-0.13008182,-0.119694546,-0.14133695,-0.054441,-0.30778772,-0.19451086,-0.017925818,-0.2750738,-0.23191892,-0.004899484,-0.053003907,-0.12528743,-0.013503269,0.004424491,-0.068650454,-0.13838343,0.041763928,-0.27687234,-0.112365596,-0.05542978
50,-1.0717452,0.2135371,-0.32262233,0.006395441,0.084273204,0.09408768,0.09960552,-0.08184855,-0.4715916,0.0067279623,-0.12341296,0.39893615,0.013939233,-0.29814664,-0.1257254,-0.17614682,-0.050597943,-0.05594693,0.0007626784,0.058762915,-0.06630949,-0.027015375,0.047560878,-0.18332802,-0.06714849,-0.31871566,-0.12123293,-0.06795973,0.12947713,0.3876833,0.12706299,0.22454129,-0.05033471,-0.23959726,-0.1125638,-0.24316508,-0.3357596,0.21527383,0.4631996,0.26438674,0.08125907,-0.49299058,0.28496775,-0.4117205,0.40783668,-0.3220918,-0.080052815,-0.31160977,0.114280276,0.06756786,0.05482906,-0.26772642,-0.39359298,0.2469428,-0.31708476,-0.009335646,-0.35832968,-0.34537813,0.12452466,-0.55826324,0.120653786,-0.29976615,0.99216735,0.018893829,-0.14705074,-0.20464006,-0.42296186,0.66277057,0.111790605,-0.098954745,-0.051391646,0.2266877,0.20213407,0.0029589436,-0.08301464,-0.50195456,-0.32161745,-0.030846292,-0.17969027,0.22535574,-0.41596437,0.06516275,0.50681734,-0.7552295,0.18729927,0.48868203,0.10707188,-0.070830934,0.3306929,0.23056282,0.00743293,0.08004237,0.07310526,-0.4958016,0.06395784,0.06164634,-0.664424,-0.24642567,-0.25548065,0.10925343,-0.19258901,-0.058655087,0.1565361,-0.26464078,0.1632671,-0.69803417,0.066249415,-0.1667606,-0.40090567,0.24827844,0.30852187,0.1417878,-0.41551208,0.12853812,-0.3357782,0.11984859,0.30673456,0.080094494,-0.24492848,0.47151917,-0.12368151,0.11916178,-0.020601992,-0.18598169,0.1862822,-0.086603776,-0.3707583,-0.16585171
51,-0.7758662,0.31446153,0.07279162,-0.020197436,-0.14540306,-0.09710533,0.35173225,0.12146182,-0.51561326,0.18289371,0.21454303,0.26029715,0.053671848,-0.4653121,0.23962225,0.017817246,-0.037030913,0.033605807,0.11648206,0.05001441,-0.15049703,0.13706496,-0.17828628,0.18119526,0.54136384,-0.63241476,-0.22254196,-0.00312021,-0.05514685,0.28906786,0.35705322,0.29112917,0.027319975,0.04683714,0.18610944,-0.10891873,-0.28716317,-0.06452332,0.7320121,-0.09667029,-0.023529746,-0.93618476,0.38894483,-0.6015309,0.19627336,0.16565815,-0.45701584,-0.24935088,0.11842867,0.058155175,0.17630571,0.10842697,-1.1934593,0.2429341,-0.16078305,-0.043050755,-0.30579838,-0.5230638,-0.057317007,-0.12333723,0.04363056,-0.3863561,-0.14305466,-0.10459496,0.03437754,0.15012014,-0.60879934,0.35531428,-0.2090875,0.11814952,-0.72040963,0.40589774,0.19498512,0.17398961,0.15790156,-0.47012398,-0.37702832,-0.75980437,-0.07629189,0.013937375,-0.28318134,-0.074672006,0.07048915,0.039717574,0.092938505,0.33480513,-0.07789032,0.10211518,-0.17100397,0.2993481,-0.06261853,0.17815779,0.09645835,-0.52272856,0.36817372,0.10025592,-0.49946165,-0.24378918,0.16608185,0.37017018,-0.029287396,0.19870172,0.9891576,-0.991124,-0.11583045,-0.47013772,0.160209,-0.036589008,-0.62004286,0.18782616,0.36716092,-0.036997024,-0.41294527,0.11564097,-0.65230215,-0.16303739,-0.0023917675,0.05560094,-0.06654518,-0.23620185,0.023816809,-0.103926316,-0.030472469,-0.06794298,0.08522551,0.056144845,-0.07997876,-0.6430976
52,-0.018226227,-0.2572121,-0.035735212,-0.043901525,-0.006511051,-0.056405045,-0.12922299,0.19036913,0.10099606,-0.06871718,-0.2165899,-0.23272601,-0.1359477,0.12228187,-0.1762816,-0.19380023,0.03388477,-0.23699972,0.09850144,-0.05526249,-0.14607018,0.032298446,0.003186763,-0.09798703,0.022225017,-0.07964795,0.17684962,-0.11932089,-0.17864051,-0.0055966727,0.012166741,-0.09324304,-0.28243914,-0.26080126,0.13774346,-0.16233498,0.02168123,-0.12552454,-0.111233145,-0.1980123,-0.13578491,0.055256527,-0.18354046,0.13300242,-0.08270776,0.23557211,-0.25019914,0.04255311,-0.112993516,-0.054349683,-0.192365,-0.29694578,-0.17413403,-0.15511392,0.03460649,0.10370726,-0.01795092,-0.22778124,-0.072039895,-0.16070665,-0.3750311,0.0074331043,-0.38818845,-0.22414961,-0.030714491,0.004535132,0.09419199,-0.10125167,-0.107913665,-0.04388916,0.018771933,-0.107347935,-0.14365956,0.046769015,-0.20234683,-0.17157383,-0.13218775,0.049130607,-0.03504039,-0.05996943,-0.09726869,-0.19729835,-0.14039679,-0.086751744,0.038331755,0.0024102323,0.17017038,0.053995844,-0.11938195,-0.1349655,0.06525722,8.235563e-05,-0.036436852,-0.27680263,-0.20699541,0.091535375,0.058889244,-0.26191154,-0.2001993,-0.21635777,-0.03743131,-0.098716274,-0.05483108,0.031748902,0.15982428,-0.13032673,-0.3107295,-0.13905309,0.034559023,-0.28813142,-0.27620298,0.19731906,-0.12204593,-0.14156067,-0.058789935,-0.058625367,-0.15878463,0.061028,-0.0036852045,-0.11847519,0.21625274,0.040916637,-0.04352169,0.16323207,-0.036697492,-0.24136537,-0.057073686,-0.082463175
53,-0.23761183,-0.2389016,-0.19904055,-0.1678676,-0.34357855,-0.23579066,-0.34832188,0.08667839,-0.2740465,-0.18612604,-0.3307985,6.660046e-05,-0.043758705,-0.2909465,-0.3384768,-0.06421279,0.09985478,-0.1662294,-0.25072977,-0.07747251,-0.0042206133,-0.14076422,-0.036993746,0.17434366,-0.2845555,-0.35010782,0.08928674,-0.29985943,-0.06316002,-0.20616601,-0.092412904,-0.18905656,-0.3223182,-0.3199405,-0.15001377,-0.28580943,-0.22568956,0.078939855,-0.1996335,-0.025502695,0.091023475,-0.019807696,-0.032678865,-0.27873614,-0.16210516,-0.32819328,-0.090505905,-0.33760238,-0.09061521,0.0401736,-0.3180218,-0.11404656,0.29272228,-0.17814322,-0.46353647,-0.114268094,-0.22722317,-0.4332626,0.11043437,-0.08004123,-0.22897902,-0.024834499,-0.023513481,-0.21115911,-0.10543969,0.19925568,-0.2896108,-0.16246285,-0.059555277,0.05652336,-0.027144352,-0.07739178,-0.3052155,0.119684495,-3.0038356e-05,0.07555604,0.30791438,-0.06928434,0.014381279,0.004597273,-0.32891706,-0.13423565,-0.18789138,-0.13700657,-0.021425333,-0.095709234,-0.26863605,-0.09315917,-0.2814422,-0.19336961,-0.21266319,-0.071181,0.0789996,-0.013124697,-0.40534583,0.121203266,-0.2544797,-0.20727398,-0.24965452,-0.22435574,0.039631605,-0.2791165,-0.37717375,-0.039335925,0.120071925,0.3716361,-0.077696085,-0.10290082,-0.1080665,-0.22775404,-0.19818723,0.105206296,-0.44475818,0.08203544,-0.27522865,-0.27228144,-0.18971086,0.041341793,0.017963625,-0.406003,0.019621003,-0.062167287,0.1672086,-0.167183,0.037569243,-0.1601785,0.06502833,-0.29431352
54,0.14844942,-0.36171612,0.27197185,0.05235791,-0.44601086,-0.18647403,-0.33406487,0.04283627,0.31684163,-0.209593,-0.19471663,-0.16506092,0.023094304,0.27863276,-0.28760633,-0.3512646,-0.009312846,-0.39547253,0.044064265,0.112380184,0.024287397,0.016985249,-0.057553962,-0.31711861,0.13437697,0.19205,-0.073110476,0.076331556,-0.049949404,0.013346654,-0.3790991,-0.4166143,-0.3079162,-0.031966645,0.14555842,-0.5669621,0.2789974,0.07477802,0.054033224,-0.06919263,-0.2293388,0.015154683,-0.1136362,0.11532064,-0.060936045,-0.22938783,0.041621,-0.15848301,-0.18685968,-0.19161437,-0.45906022,-0.25602877,-0.38760105,-0.14037167,-0.28231993,-0.14586034,-0.10174718,-0.07048071,0.2195338,-0.13357863,-0.061370187,0.0793068,-0.10329402,-0.24338992,-0.13773695,-0.42328495,0.27169716,-0.28364968,0.0022055742,-0.44904453,0.77149403,-0.2609607,-0.47715595,0.030278753,-0.021858327,0.03471051,0.08013401,-0.025520796,-0.18756515,0.6356207,0.014667096,-0.04363349,-0.5951655,-0.021214465,-0.15156266,-0.009114014,-0.0624032,0.15914987,-0.44958076,0.08525952,0.11701019,-0.075599045,0.052447245,-0.302965,-0.18743527,-0.045376793,-0.5041321,-0.093078814,-0.27627715,-0.013289232,0.081610955,-0.4325273,0.4240657,0.560732,0.14193407,-0.022202833,-0.19467983,-0.29583243,0.15407804,0.024634773,-0.1795486,0.014807281,-0.03598664,0.24256963,-0.38628644,-0.021896262,0.010164504,-0.05403036,0.022519432,-0.10411883,-0.034880135,-0.059933316,-0.27739894,0.09864825,-0.037591577,-0.3905951,-0.23867191,0.29150087
55,-0.31270537,-0.10232231,0.31563118,-0.13890739,0.38585415,-0.13621622,-0.04990345,-0.0010884347,-0.47885606,-0.09871104,-0.04824696,-0.34163758,-0.26072082,-0.21962172,0.20509961,-0.33265552,0.21695966,0.016437327,0.023296012,0.104573876,-0.03384422,-0.052500412,0.031953067,-0.1323094,0.007990955,0.08076548,-0.060021315,-0.04827211,-0.113929994,-0.21606845,-0.38289955,-0.1189403,-0.23653087,-0.16753931,0.06314269,-0.20657678,-0.04957827,-0.12161536,-0.29941994,-0.56800985,-0.3367607,0.0067058844,-0.21649405,0.19112825,-0.004189149,0.079584956,-0.16742015,-0.17321007,-0.051724542,0.08546607,-0.17029817,-0.02739452,-0.522387,-0.31192338,0.16613546,-0.036124114,-0.117049016,-0.6381044,-0.12621461,-0.16417836,0.0039035801,-0.07634396,-0.14612934,-0.14163227,-0.030831642,0.092364855,-0.34642056,-0.18635349,-0.27051792,-0.54266065,0.0998709,0.061714023,-0.06261181,0.12877613,0.10489443,-1.1503227,0.045936666,0.2891463,-0.20164545,0.14776736,-0.2363771,-0.08241987,-0.32397953,0.010169013,0.032635655,-0.09158272,0.03762129,0.2500596,-0.40037405,0.2947814,0.010843661,-0.2509489,-0.033383805,0.15985274,0.17193496,-0.10805233,0.16988353,-0.15056038,-0.07103733,-0.24805683,-0.16583127,-0.11111353,0.024380326,-0.2988991,-0.08461055,-0.22622156,-0.08630095,-0.0169622,-0.17384194,-0.62178135,-0.43073183,-0.072751455,-0.10954166,-0.20463745,-0.2131275,-0.015772114,-0.14712505,-0.115559466,-0.20128661,-0.14009821,0.6679664,-0.031496663,0.2192071,-0.07295152,-0.15559311,-0.10191259,-0.52543545,-0.17324266
56,-0.15362489,-0.04507254,0.044077937,0.13034183,-0.027575234,0.19622204,-0.115791574,0.033502806,0.106140636,-0.09606766,-0.12314653,-0.21426366,-0.074683554,-0.10953823,0.039681498,-0.01051404,-0.018918082,-0.05787611,0.015589058,-0.023458045,0.018366959,-0.21145235,-0.030897543,-0.21838497,-0.051647067,-0.07214611,0.004918436,-0.21736777,-0.044991877,-0.03384029,-0.0747015,-0.13014828,-0.19954231,0.06074103,-0.25514874,-0.06619609,-0.015289371,-0.017570406,-0.030250823,-0.13203877,-0.12556785,-0.08677978,-0.14839377,-0.103478216,-0.07004928,-0.008560555,-0.1549184,0.087704375,0.05903748,-0.21854265,-0.17987198,-0.1364236,0.07685315,-0.01993044,0.12878223,-0.07030411,-0.13364008,-0.025990048,0.016870324,-0.028988468,-0.247304,-0.17206563,0.37515354,0.06303268,-0.13340478,-0.08205862,-0.17560482,-0.0051901494,-0.08896912,-0.08696281,-0.07681985,0.018534996,-0.04354617,-0.011077281,-0.03735602,-0.13033809,0.0680232,0.05485148,-0.22462115,-0.2533539,-0.01861814,-0.1346077,0.02735084,0.03507578,-0.013890498,-0.035969026,0.023297131,-0.21802105,0.20663841,0.10628722,0.07311481,0.024869217,-0.02551056,0.083984055,0.031057129,-0.08570174,0.12668996,-0.07853049,-0.25897858,0.08304213,0.023635486,-0.05518366,-0.09194909,-0.07176754,-0.13900827,0.011662213,-0.2042488,-0.12402476,-0.054267213,-0.37589625,0.10167586,0.026769394,-0.18468468,-0.027110934,0.17277712,-0.092877835,-0.20304574,0.0037911725,-0.121576495,-0.022382826,-0.007596732,-0.089281105,-0.11687063,-0.05122348,0.16727684,-0.18325241,0.025603492,-0.06562503
57,-0.25801617,-0.29769972,-0.16369268,-0.12725589,0.14641207,-0.21071254,-0.27378628,-0.10543065,-0.15472943,0.05605479,-0.041600995,-0.2095603,0.048875872,-0.18772142,-0.26258236,0.015530449,-0.0011155718,-1.0408487,-0.1579037,-0.08287294,0.111011125,0.002838293,0.116076194,-0.14578605,-0.24361354,-0.4531555,-0.0133331595,-0.5463173,0.040593177,-0.11026972,-0.12490578,-0.28127632,-0.26464814,0.106584355,-0.15959571,0.11411375,-0.08030052,-0.14953986,0.08435003,-0.27667388,0.017509706,0.016185433,0.0030258247,-0.29643705,-0.23503959,-0.101679265,-0.0462838,-0.17401555,-0.23189569,-0.15255426,-0.8726744,-0.7225065,0.57062626,-0.1414165,-0.21466215,-0.19927907,0.057943776,-0.17099375,0.022626381,-0.08019946,-0.6078849,0.031043503,-0.5099571,0.012902418,-0.14045784,0.42541355,-0.17790963,-0.3544851,-0.06813426,0.044865284,0.41787833,-0.3028773,-0.29271102,-0.18344617,-0.22190389,-0.87093323,0.41857362,0.22018531,0.14207497,-0.5927157,-0.13845429,-0.8141435,-0.013171396,-0.13114515,0.020539561,-0.14811222,-0.01802123,0.15411215,-0.22210053,0.0548103,-0.08585738,0.011200908,0.03762452,0.62862515,-0.24210395,-0.02314376,0.03502937,-0.14894521,-0.19277975,-0.28749594,-0.003213991,-0.43968144,-0.4933092,-0.42954427,0.194997,0.01848758,-0.3239934,-0.086857416,0.2178191,-0.27841857,-0.15959336,0.03323236,-0.30926076,0.17829695,-0.099260025,0.0033157354,-0.15984905,-0.018229745,-0.14696655,-0.07459382,-0.19774634,0.09977755,0.45246956,-0.15309136,0.10546906,-0.4357585,-0.2135528,-0.06625526
58,-0.124460615,-0.11268766,-0.113061234,-0.2154856,-0.062218804,-0.18089673,-0.10925842,0.05674233,-0.3210526,-0.12809904,-0.23775984,-0.101222366,-0.17341095,-0.27143282,-0.3088762,-0.022600435,-0.03551389,0.07103315,-0.10106582,0.09090274,-0.21030961,0.07858216,0.11038098,-0.1426869,-0.0808495,-0.1426954,-0.0007404829,-0.2848748,-0.017922616,0.027215824,-0.34049988,-0.2546536,-0.07727569,-0.07162067,-0.051603965,-0.110638835,-0.20971349,0.08239868,0.029420717,-0.1571336,-0.14407691,-0.26767227,0.03141641,-0.2358723,-0.08544715,0.07884472,0.027810464,-0.08977212,-0.277417,-0.07612755,-0.07135793,0.008552141,0.44632098,0.030140506,-0.12959814,0.15687004,-0.005133206,-0.08967185,0.14513408,-0.23319806,-0.04774896,-0.15926282,-0.1669472,-0.27300116,-0.111066885,-0.71512085,-0.1497278,-0.076665275,-0.14614262,-0.08640621,-0.18381283,0.05555454,-0.056260753,-0.0027506663,-0.16339788,-0.24316594,0.11613038,-0.19716847,0.06490709,-0.29828867,0.04929932,-0.33398145,-0.2776781,0.008688814,0.0776649,-0.081664644,0.07391005,0.16050151,0.020849437,-0.060170345,-0.07650851,0.074678674,0.080734655,0.0795286,-0.13469906,0.04041823,0.0849021,-0.1171056,-0.05530336,-0.06203057,-0.14186728,-0.043368254,-0.18569097,-0.15162784,-0.09201974,-0.23426719,-0.024360895,0.032297067,-0.07423041,-0.062185634,-0.16205186,0.20340654,-0.15640706,-0.23217969,-0.020614909,-0.24262452,-0.06858603,-0.14690624,0.06929519,-0.176985,-0.089190446,-0.18807383,-0.03750131,-0.097601384,0.04931781,-0.10633266,-0.04313825,-0.15833506
59,-0.22489513,-0.20161562,-0.056793783,-0.16243263,-0.011771591,-0.21276465,0.07132311,0.05675508,-0.18706775,-0.097540155,-0.112995364,-0.076890215,0.017555188,-0.33636504,-0.12662736,-0.13318224,0.053332254,-0.04372308,0.058991153,0.04049605,0.1877842,-0.022958392,-0.05073003,-0.16606688,-0.24303818,-0.33544198,-0.13095315,-0.0055768774,0.052966084,-0.07423628,-0.033608805,-0.12687294,0.033290934,-0.14515842,-0.18384165,-0.09565899,-0.064159796,-0.123840466,0.007992585,-0.08654437,0.07244252,-0.2758909,-0.048788603,-0.31346607,-0.07208267,-0.03907359,-0.32072368,-0.31448397,0.07286181,-0.083527505,-0.12539211,0.047925405,-0.09688302,-0.24200128,-0.040110286,0.052973762,-0.33069304,-0.13184714,0.07782162,-0.26288527,-0.04969439,-0.3448233,-0.09088032,-0.20293504,-0.1173073,-0.088875845,0.011632667,0.021157974,-0.17931399,-0.051111843,-0.17234886,-0.0115437545,-0.07750451,-0.19830757,-0.1912932,0.07770165,-0.1757879,-0.18811822,0.0003658232,-0.038377546,-0.30765647,-0.08631212,0.069699116,-0.18361263,0.09221075,-0.035548925,0.0076745986,0.009714724,-0.22803614,0.11992335,0.01262385,0.015719475,0.038400978,-0.27926242,-0.23005565,0.033683598,-0.26810408,-0.2732631,-0.23850808,-0.08698531,0.06603744,-0.09358795,-0.14606778,-0.23791607,0.008735452,-0.22011599,0.0019929498,-0.08497815,-0.1464727,0.14198506,0.009352449,0.079288535,-0.25601703,0.070559524,-0.19317734,0.010997317,-0.11922901,0.10975686,0.09326453,-0.008282488,0.15581208,-0.19809285,-0.063275695,0.025434028,-0.07833034,-0.2142517,-0.17858765,-0.10811039
60,-0.629578,-0.31201193,0.49736044,-0.043397486,0.857246,-0.76881814,-0.45371664,0.18924987,0.08518957,-0.5005131,-0.03385686,-0.3206291,-0.2141718,0.23730393,0.039451487,-0.3320232,0.06118129,-0.35714918,0.049410038,-0.19972965,-0.040665705,0.07441919,0.07272567,-0.1801642,0.4199792,0.2701111,-0.17202482,-0.4662946,0.07129039,0.20553835,-0.3357683,-0.4314331,-0.44627124,-0.18410225,-0.07931099,0.36668643,0.4538762,0.093942165,-0.11645077,-0.18589874,-0.3838218,-0.26260275,0.23658189,0.09400338,-0.05813599,0.34283867,0.036271263,-0.14166987,-0.0348261,-0.1813737,-0.101556025,-0.2662705,-0.16320446,0.049811546,0.39465,-0.11226887,-0.073282056,0.07958535,-0.23567127,0.09182431,-0.28441426,-0.014078542,0.19128764,-0.49734002,-0.21653648,0.12657511,-0.31097332,-0.21253604,-0.08658038,-0.32768908,-0.33628908,0.15524903,-0.3471639,-0.40499562,-0.2084867,-0.37126556,-0.21444914,0.011129102,-0.5964743,0.254624,0.053197756,-0.37281758,0.21657689,-0.14383794,-0.19357465,-0.37648025,-0.1567616,0.062785655,0.043054648,0.26998734,0.030372234,-0.4792012,-0.022899782,-0.12836954,-0.47527954,-0.0054426747,0.51684564,-0.15858361,-0.366525,-0.22967374,-0.46213967,-0.51297176,0.49029344,-0.5055116,-0.0461119,0.021195618,-0.13672751,0.058453802,-0.3061407,-0.28739893,-0.0777278,-0.023275688,0.39515212,-0.4936222,0.028267572,-0.20937668,-0.027378345,0.06918562,-0.1723562,0.22615747,0.5449727,-0.092808135,0.18990153,-0.72018486,0.009489977,-0.31883574,-0.7453802,-0.18591754
61,-0.18741971,0.0071740076,-0.08964976,-0.04167877,0.22230808,-0.063924685,-0.2202101,-0.18898048,0.2649983,-0.08509461,-0.022378316,-0.12115578,-0.18373257,0.16142021,-0.13902897,0.16536784,-0.114757024,-0.20217055,0.06794867,0.09412541,0.046863556,-0.009689911,-0.17000867,0.029620523,0.16746475,0.26051977,-0.09794327,-0.64437723,0.1433537,-0.73725927,0.5024443,0.13959247,-0.25680673,-0.541666,-0.0014875395,-0.45833066,-0.114119716,-0.084478155,-0.51864034,-0.086608544,-0.33879325,0.06474659,-0.16708861,0.2451785,-0.07887187,0.23072529,0.30925876,-0.19645146,-0.074296094,-0.0634682,-0.25752732,-0.3362281,-0.50553596,-0.39886022,0.274473,-0.01628101,-0.2358846,0.10142288,-0.0146070225,0.026389899,-0.41490325,0.10363442,-0.6632652,-0.1559151,0.044787575,0.6788171,0.010882608,0.042457353,0.038287178,0.33165395,0.9790505,0.22269507,-0.19273268,0.042910956,-0.19125018,-1.5146227,-0.066414826,0.25633293,-0.01720851,0.72488266,-0.2942404,-0.33917695,-0.69278854,-0.39579758,0.13293868,-0.1430238,-0.11054184,0.21125914,-0.6758919,-0.40483803,0.091051005,0.118359655,-0.06467738,-0.07221913,-0.14502378,-0.02824818,0.10392832,-0.09037578,-0.31090173,-0.39688742,-0.17951114,-0.24817036,0.08064244,0.5526907,-0.18502906,-0.81286734,-0.59325886,-0.16946685,0.09532398,-0.29419208,-0.557556,0.1416066,0.12740397,0.72006273,-0.049762364,0.37219363,-0.29349166,0.072118625,-0.14339602,-0.4266792,0.1302167,-0.044876285,0.5906139,-0.083064035,-0.037609875,-0.2067088,-0.25498804,0.28336072
62,-0.33096662,-0.21084832,-0.08901692,-0.046615794,0.077372074,-0.0698257,-0.16279459,-0.06506123,-0.091611184,-0.20718959,-0.04989992,-0.1378386,-0.05451012,-0.31035355,-0.107365035,-0.05862498,-0.081461705,-0.0283096,-0.24295075,-0.19794086,-0.05855089,0.049878124,-0.17812173,-0.12744385,-0.23288797,-0.19730182,-0.2569087,0.024374785,-0.073810115,-0.16443017,0.059286553,-0.09604789,-0.116747834,0.06345801,-0.13472112,-0.1229731,0.0030768109,-0.14208613,-0.12765428,-0.11917406,-0.0012709334,-0.007795518,0.0280573,-0.20504041,-0.009886988,-0.23880287,-0.12389131,-0.15597108,0.071620196,-0.113086276,-0.18922643,0.043664265,-0.52145195,-0.01861315,-0.082415774,0.02597545,-0.2188539,-0.27529877,-0.18637247,-0.19245218,-0.085166134,-0.23100245,-0.14876479,0.02508303,0.05964678,-0.26915503,-0.34182605,0.05542394,-0.08203573,-0.068169065,-0.1279389,-0.0099385455,-0.20176806,-0.020825792,-0.1715419,-0.15823498,-0.17928661,-0.05570163,-0.090232484,-0.11362297,-0.07887527,-0.051010843,0.09885745,-0.14763722,0.01148805,0.06088468,-0.055497978,-0.08780799,-0.14006378,-0.2166267,-0.26898813,-0.06527021,-0.18192893,-0.11772287,-0.045925274,-0.13694537,-0.039062962,-0.07775545,-0.007209723,-0.12593068,-0.25681272,-0.09137041,-0.077414535,-0.19495523,-0.20085703,-0.2969008,-0.03831527,-0.14994895,-0.23839486,-0.173565,-0.20872822,0.00056787377,-0.021236597,-0.04245537,-0.26545295,-0.2386394,0.010406317,-0.00046909333,-0.075597756,-0.1834036,0.13584118,-0.08338283,-0.05964965,-0.042428244,-0.05773491,-0.10691173,-0.1747073,-0.37533438
63,-0.18618429,-0.46810937,0.21509838,-0.094693795,0.46437067,-0.15034844,-0.46040794,-0.027767142,-0.2394543,-0.20529227,0.21721922,-0.28087622,-0.1367993,-0.08300727,-0.5343196,-0.31439322,0.17468621,-0.09508204,-0.06424677,-0.057852555,-0.08789176,-0.037153635,0.020233821,0.12308387,-0.029201182,-0.09265053,0.14218774,0.27695608,-0.047561605,-0.3080711,-0.4653663,-0.42986593,-0.28862688,0.10054312,-0.08730668,-0.4674582,0.10676805,-0.19051492,-0.18217355,0.07726207,-0.1136353,-0.056694973,-0.35391,0.013980596,-0.1659437,0.15719943,-0.14392675,-0.046214387,-0.11435751,0.14764854,-0.095653154,0.2872445,-0.58932674,-0.47498032,0.13447906,-0.05393105,0.14671163,-0.35255194,-0.010670634,-0.38534194,0.10737072,-0.051578633,-1.0954602,0.04976995,-0.23472394,0.038140118,-0.26288694,0.14121668,-0.05200462,-0.015624581,0.10923278,0.06358863,-0.33782154,0.10372555,0.44942334,-0.25944006,-0.19627102,0.35436663,-0.10403241,0.23419484,-0.1283585,0.21458557,-0.35370395,0.041098446,-0.23259304,-0.40111813,-0.011193719,0.028976016,-0.8163024,0.015778737,0.090858854,0.049425732,0.06797104,0.24650264,-0.2826364,-0.15535246,0.014563859,-0.27732673,-0.2283724,-0.246245,-0.22056857,-0.37763026,0.06561136,-0.24661426,-0.1568563,-0.4233952,-0.16856839,0.08376655,-0.17458725,0.121853136,-0.023724867,-0.04571346,-0.093647674,-0.5561817,-0.24140476,-0.13811855,0.091863774,-0.087647185,-0.20640677,-0.074577875,0.4728673,-0.022765111,0.38646373,-0.09951505,-0.12715943,-0.18117082,-0.29611468,-0.2435067
64,-0.014320587,-0.21595895,0.1595086,-0.17104517,0.014875751,-0.010869895,-0.2527175,0.020423371,4.8138303e-05,-0.017050384,-0.07637062,0.016012968,-0.108857326,0.101927735,-0.12500295,-0.311029,0.14473175,-0.3297423,0.08839635,-0.09185887,0.116083145,-0.09559715,0.030788489,-0.15824303,0.038683817,0.03574335,0.22110735,-0.3042539,0.06727622,-0.057164263,-0.059009295,-0.11654015,-0.14182962,-0.12844262,-0.19792718,-0.20257969,0.1439639,-0.019278038,-0.28886503,-0.17968844,-0.021515163,-0.03534533,-0.2016593,0.07008203,-0.1946941,-0.045396104,-0.20780091,0.022358036,-0.2957122,-0.096802324,-0.10704734,-0.2052122,-0.26752523,-0.24091782,0.08751892,-0.057861954,0.035042547,-0.10609,0.13951261,-0.04074626,-0.3418281,-0.025789998,-0.27896786,-0.19436592,-0.022139817,-0.1629967,0.16875081,0.008607563,-0.25858235,-0.106494606,0.07671566,-0.25824684,-0.1814356,-0.1508983,-0.03663552,-0.26342827,0.12659015,0.0956653,-0.048570026,-0.032152332,0.03834252,-0.24364564,-0.09201607,0.02139895,-0.123334095,-0.26124758,-0.07611819,-0.13447002,-0.16872519,-0.04309134,0.29933435,0.019732215,0.04704456,0.037748765,-0.2866631,-0.08944928,-0.10739963,-0.22192961,-0.25821432,-0.42858064,-0.1361081,-0.30704758,0.08397498,-0.11769014,-0.045345843,-0.10708508,-0.20378888,-0.04360105,-0.059572205,-0.25419828,-0.23515072,-0.005283559,-0.022385491,-0.004446759,-0.016274776,-0.06190417,-0.25480914,0.037504394,-0.11910597,-0.10732929,0.18268499,0.11850855,-0.39618427,0.03556851,-0.16042463,-0.33708102,0.017562835,-0.07703431
